participant,rep,equipment_code,exercise_code,quality_code,timestamp,timestamp_ms,accelX,accelY,accelZ,accelMag,gyroX,gyroY,gyroZ,roll,pitch,yaw,filteredX,filteredY,filteredZ,filteredMag
1,1,2,4,2,00.000,0,-0.1500,-0.4500,9.7900,9.8015,0.0022,-0.0055,-0.0011,1.81,-2.44,101.38,-0.1626,-0.4627,9.7776,9.7899
1,1,2,4,2,00.173,173,-0.1800,-0.3900,9.8500,9.8594,0.0044,-0.0033,0.0011,1.81,-2.44,101.38,-0.1649,-0.4531,9.7871,9.7990
1,1,2,4,2,00.303,303,-0.3300,-0.3800,9.6500,9.6631,0.0000,0.0011,0.0000,1.81,-2.44,101.38,-0.1867,-0.4435,9.7690,9.7809
1,1,2,4,2,00.433,433,-0.3500,-0.4300,9.8800,9.8955,0.0022,0.0011,-0.0055,1.81,-2.44,101.38,-0.2082,-0.4417,9.7837,9.7958
1,1,2,4,2,00.563,563,-0.2100,-0.3900,9.5900,9.6002,0.0011,-0.0011,-0.0087,1.81,-2.44,101.38,-0.2084,-0.4349,9.7581,9.7701
1,1,2,4,2,00.693,693,-0.3100,-0.4300,10.1200,10.1339,0.0011,0.0011,-0.0022,1.81,-2.44,101.31,-0.2218,-0.4343,9.8058,9.8179
1,1,2,4,2,00.823,823,-0.3200,-0.4600,9.9100,9.9258,-0.0098,0.0218,0.0022,1.75,-2.44,101.31,-0.2347,-0.4376,9.8196,9.8321
1,1,2,4,2,00.953,953,-0.2100,-0.4400,10.7300,10.7411,0.0022,0.0404,0.0251,1.50,-2.44,101.38,-0.2315,-0.4380,9.9395,9.9519
1,1,2,4,2,01.083,1083,-0.1800,-0.3800,10.2700,10.2786,-0.0011,-0.0393,-0.0218,1.50,-2.44,101.38,-0.2247,-0.4303,9.9831,9.9949
1,1,2,4,2,01.256,1256,-0.2600,-0.5600,10.5500,10.5681,-0.0131,-0.0098,0.0000,1.75,-2.50,101.38,-0.2294,-0.4474,10.0578,10.0703
1,1,2,4,2,01.387,1387,-0.0400,-0.5200,10.9800,10.9924,-0.0055,0.0251,-0.0011,1.63,-2.50,101.31,-0.2044,-0.4570,10.1793,10.1916
1,1,2,4,2,01.517,1517,-0.2800,-0.3100,10.2000,10.2086,-0.0087,-0.0142,-0.0109,1.63,-2.50,101.25,-0.2144,-0.4376,10.1820,10.1937
1,1,2,4,2,01.653,1653,-0.2300,-0.0200,9.7100,9.7127,-0.0305,-0.0120,0.0131,1.81,-2.56,101.38,-0.2164,-0.3826,10.1198,10.1294
1,1,2,4,2,01.785,1785,-0.0600,-0.3100,9.7900,9.7951,-0.0218,0.0000,0.0120,1.81,-2.50,101.38,-0.1958,-0.3730,10.0764,10.0852
1,1,2,4,2,01.915,1915,-0.1400,-0.3400,9.1300,9.1374,0.0229,0.0316,-0.0295,1.69,-2.44,101.38,-0.1885,-0.3687,9.9517,9.9603
1,1,2,4,2,02.046,2046,-0.4900,-0.4300,7.7000,7.7275,-0.0436,-0.0338,0.0251,1.69,-2.50,101.38,-0.2282,-0.3767,9.6549,9.6650
1,1,2,4,2,02.176,2176,-0.1000,-0.2700,6.2800,6.2866,-0.0240,-0.0087,-0.0065,1.69,-2.44,101.38,-0.2113,-0.3627,9.2102,9.2198
1,1,2,4,2,02.349,2349,-0.5600,-0.2600,8.1000,8.1235,-0.0033,0.0131,-0.0109,1.81,-2.44,101.31,-0.2572,-0.3491,9.0639,9.0743
1,1,2,4,2,02.480,2480,-0.2400,-0.1500,7.3700,7.3754,-0.0164,0.0087,0.0087,1.75,-2.44,101.31,-0.2550,-0.3229,8.8407,8.8503
1,1,2,4,2,02.610,2610,-0.1800,-0.4500,7.1000,7.1165,0.0327,0.0404,0.0044,1.75,-2.56,101.31,-0.2451,-0.3397,8.6113,8.6215
1,2,2,4,2,02.741,2741,-0.1500,-0.2800,8.9800,8.9856,-0.0142,0.0262,-0.0098,1.81,-2.50,101.31,-0.2326,-0.3318,8.6599,8.6694
1,2,2,4,2,02.874,2874,-0.4800,-0.6500,14.0500,14.0732,-0.0033,-0.0142,0.0087,1.81,-2.56,101.25,-0.2652,-0.3737,9.3702,9.3814
1,2,2,4,2,03.008,3008,-0.9700,-0.2600,12.8900,12.9291,0.0022,-0.0044,0.0076,1.81,-2.50,101.31,-0.3580,-0.3587,9.8340,9.8471
1,2,2,4,2,03.138,3138,-0.1700,-0.2200,10.9000,10.9035,-0.0065,0.0044,0.0415,1.75,-2.56,101.31,-0.3333,-0.3405,9.9745,9.9858
1,2,2,4,2,03.269,3269,-0.0900,-0.4900,9.9600,9.9725,0.0000,-0.0055,0.0000,1.75,-2.56,101.25,-0.3012,-0.3602,9.9726,9.9836
1,2,2,4,2,03.442,3442,-0.3900,-0.5000,9.7300,9.7506,-0.0087,0.0000,-0.0175,1.81,-2.56,101.25,-0.3129,-0.3786,9.9406,9.9527
1,2,2,4,2,03.573,3573,-0.2700,-0.3900,9.8400,9.8514,-0.0044,0.0011,-0.0033,1.75,-2.56,101.31,-0.3073,-0.3801,9.9273,9.9394
1,2,2,4,2,03.705,3705,-0.3900,-0.4300,9.7500,9.7673,-0.0076,0.0087,0.0022,1.75,-2.50,101.31,-0.3182,-0.3867,9.9040,9.9166
1,2,2,4,2,03.836,3836,-0.3200,-0.4200,9.7900,9.8042,0.0000,0.0131,-0.0065,1.69,-2.50,101.31,-0.3184,-0.3911,9.8890,9.9018
1,2,2,4,2,03.970,3970,-0.3700,-0.3800,10.1600,10.1738,0.0109,-0.0033,0.0011,1.69,-2.50,101.31,-0.3252,-0.3896,9.9247,9.9376
1,2,2,4,2,04.101,4101,-0.3600,-0.4100,10.7800,10.7938,0.0240,0.0033,0.0022,1.75,-2.50,101.31,-0.3298,-0.3923,10.0374,10.0505
1,2,2,4,2,04.232,4232,-0.2200,-0.4300,11.6900,11.7000,0.0000,0.0000,-0.0087,1.69,-2.44,101.31,-0.3153,-0.3973,10.2552,10.2677
1,2,2,4,2,04.362,4362,-0.4100,-0.4100,11.2500,11.2649,-0.0251,0.0109,-0.0033,1.69,-2.50,101.31,-0.3278,-0.3989,10.3863,10.3991
1,2,2,4,2,04.535,4535,-0.3600,-0.3700,10.2300,10.2430,0.0098,-0.0120,-0.0076,1.63,-2.44,101.25,-0.3320,-0.3951,10.3657,10.3785
1,2,2,4,2,04.665,4665,-0.0200,-0.2500,9.3800,9.3834,-0.0065,-0.0175,0.0185,1.81,-2.50,101.31,-0.2909,-0.3760,10.2358,10.2468
1,2,2,4,2,04.796,4796,-0.5400,-0.4700,9.6100,9.6366,-0.0098,0.0033,0.0000,1.81,-2.56,101.38,-0.3237,-0.3884,10.1533,10.1659
1,2,2,4,2,04.926,4926,-0.1500,-0.4100,9.4900,9.5000,-0.0120,0.0055,-0.0218,1.75,-2.44,101.31,-0.3008,-0.3912,10.0659,10.0780
1,2,2,4,2,05.057,5057,-0.1900,-0.1600,8.4500,8.4536,0.0022,0.0218,0.0175,1.69,-2.44,101.31,-0.2862,-0.3608,9.8530,9.8637
1,2,2,4,2,05.188,5188,-0.4000,-0.3400,6.4000,6.4215,0.0022,0.0338,-0.0240,1.63,-2.44,101.25,-0.3012,-0.3580,9.3980,9.4096
1,2,2,4,2,05.321,5321,-0.0900,-0.2900,8.9000,8.9052,0.0033,0.0011,-0.0065,1.75,-2.44,101.31,-0.2734,-0.3491,9.3323,9.3429
1,2,2,4,2,05.452,5452,-0.3700,-0.3100,8.6800,8.6934,-0.0567,0.0011,-0.0338,1.81,-2.38,101.25,-0.2861,-0.3439,9.2464,9.2572
1,2,2,4,2,05.626,5626,0.3200,-0.3700,6.5200,6.5383,0.0305,0.0196,-0.0175,1.75,-2.50,101.25,-0.2063,-0.3474,8.8871,8.8963
1,2,2,4,2,05.756,5756,-0.8800,-0.2300,7.3800,7.4358,0.0600,0.0284,0.0011,1.75,-2.56,101.31,-0.2950,-0.3319,8.6885,8.6999
1,3,2,4,2,05.887,5887,-0.3700,-0.1400,9.8200,9.8280,-0.0273,0.0120,-0.0153,1.56,-2.44,101.25,-0.3049,-0.3066,8.8376,8.8482
1,3,2,4,2,06.017,6017,-0.2700,-0.8800,12.5900,12.6236,0.0327,-0.0458,0.0065,1.81,-2.50,101.25,-0.3003,-0.3822,9.3321,9.3447
1,3,2,4,2,06.147,6147,-0.3900,-0.4300,14.2300,14.2418,0.0098,0.0469,-0.0076,1.75,-2.56,101.25,-0.3121,-0.3885,9.9775,9.9899
1,3,2,4,2,06.277,6277,0.0000,-0.4000,11.7800,11.7868,0.0240,-0.0120,0.0055,1.69,-2.56,101.31,-0.2710,-0.3900,10.2150,10.2261
1,3,2,4,2,06.408,6408,0.1100,-0.0400,9.3400,9.3407,-0.0229,0.0327,0.0251,1.69,-2.50,101.19,-0.2208,-0.3439,10.0997,10.1080
1,3,2,4,2,06.538,6538,-1.0000,-0.6000,9.7000,9.7699,-0.0938,0.0120,-0.0295,1.75,-2.75,101.44,-0.3235,-0.3776,10.0470,10.0593
1,3,2,4,2,06.711,6711,0.0600,-0.5400,9.9900,10.0048,0.1134,-0.0055,-0.0120,1.75,-2.69,101.50,-0.2729,-0.3990,10.0395,10.0512
1,3,2,4,2,06.842,6842,-0.8400,-0.8300,9.9700,10.0397,0.0676,-0.0164,0.0458,1.69,-2.63,101.19,-0.3477,-0.4558,10.0304,10.0467
1,3,2,4,2,06.972,6972,-0.6100,-0.7600,9.8100,9.8583,-0.0207,-0.0185,-0.0251,1.75,-2.63,101.31,-0.3822,-0.4959,10.0013,10.0209
1,3,2,4,2,07.103,7103,-0.1100,-0.4500,10.0300,10.0407,-0.0087,0.0000,0.0218,1.75,-2.56,101.31,-0.3464,-0.4898,10.0051,10.0231
1,3,2,4,2,07.235,7235,-0.3900,-0.5100,10.3500,10.3699,-0.0295,0.0185,-0.0251,1.69,-2.63,101.31,-0.3521,-0.4925,10.0506,10.0688
1,3,2,4,2,07.370,7370,-0.2300,-0.4100,10.2100,10.2208,0.0393,0.0469,0.0142,1.63,-2.56,101.38,-0.3360,-0.4816,10.0716,10.0887
1,3,2,4,2,07.500,7500,-0.0800,-0.1800,10.8600,10.8618,-0.0087,0.0000,0.0196,1.63,-2.50,101.31,-0.3023,-0.4419,10.1755,10.1895
1,3,2,4,2,07.631,7631,-0.7400,-0.2800,10.9800,11.0085,-0.0458,0.0175,-0.0229,1.63,-2.56,101.38,-0.3600,-0.4206,10.2815,10.2964
1,3,2,4,2,07.804,7804,-0.3400,-0.4500,10.3100,10.3254,-0.0120,0.0022,-0.0338,1.63,-2.63,101.31,-0.3573,-0.4244,10.2852,10.3002
1,3,2,4,2,07.934,7934,0.0500,-0.3500,9.5800,9.5865,0.0251,0.0098,0.0120,1.63,-2.63,101.25,-0.3037,-0.4146,10.1923,10.2053
1,3,2,4,2,08.065,8065,-0.4200,-0.4800,10.7900,10.8088,-0.0142,0.0131,0.0033,1.69,-2.69,101.31,-0.3190,-0.4232,10.2711,10.2847
1,3,2,4,2,08.196,8196,-0.4500,-0.3700,9.0600,9.0787,-0.0065,0.0131,-0.0055,1.69,-2.63,101.31,-0.3363,-0.4162,10.1115,10.1256
1,3,2,4,2,08.326,8326,-0.0800,-0.3400,8.6200,8.6271,0.0175,0.0207,-0.0044,1.63,-2.56,101.25,-0.3025,-0.4062,9.9149,9.9279
1,3,2,4,2,08.462,8462,-0.0600,-0.3200,6.8400,6.8477,-0.0044,0.0142,-0.0055,1.63,-2.56,101.31,-0.2705,-0.3948,9.5097,9.5218
1,3,2,4,2,08.594,8594,-0.0500,-0.2800,7.4900,7.4954,-0.0098,0.0044,-0.0065,1.75,-2.50,101.31,-0.2415,-0.3797,9.2436,9.2545
1,3,2,4,2,08.724,8724,0.0000,-0.1900,7.8500,7.8523,-0.0033,-0.0153,-0.0142,1.75,-2.50,101.31,-0.2097,-0.3547,9.0600,9.0693
1,3,2,4,2,08.897,8897,-0.5100,-0.4700,6.6000,6.6363,-0.0044,0.0142,-0.0185,1.75,-2.63,101.31,-0.2492,-0.3699,8.7358,8.7472
1,3,2,4,2,09.027,9027,-0.2400,-0.4700,7.2600,7.2792,0.0305,0.0076,-0.0011,1.69,-2.69,101.38,-0.2480,-0.3831,8.5413,8.5535
1,4,2,4,2,09.157,9157,-0.1000,-0.7500,11.0400,11.0659,0.0109,0.0153,-0.0175,1.63,-2.63,101.25,-0.2285,-0.4314,8.8706,8.8840
1,4,2,4,2,09.287,9287,-0.4700,-0.7100,13.2900,13.3172,-0.0033,-0.0153,-0.0131,1.81,-2.63,101.31,-0.2603,-0.4681,9.4529,9.4681
1,4,2,4,2,09.417,9417,-0.6000,-0.3200,14.3600,14.3761,-0.0545,0.0218,0.0087,1.75,-2.63,101.31,-0.3051,-0.4486,10.0996,10.1141
1,4,2,4,2,09.547,9547,-0.2500,-0.2400,9.9800,9.9860,-0.0316,-0.0196,0.0087,1.63,-2.63,101.25,-0.2978,-0.4211,10.0838,10.0970
1,4,2,4,2,09.677,9677,0.1800,-0.2100,9.0400,9.0442,0.0295,0.0578,-0.0207,1.50,-2.75,101.25,-0.2349,-0.3933,9.9463,9.9568
1,4,2,4,2,09.807,9807,-0.1000,-0.4900,9.5200,9.5331,0.1287,0.0818,-0.0022,1.50,-2.88,101.38,-0.2171,-0.4060,9.8901,9.9008
1,4,2,4,2,09.980,9980,-0.6300,-0.4300,9.9100,9.9393,-0.0098,-0.0120,0.0087,1.69,-2.75,101.31,-0.2715,-0.4092,9.8927,9.9049
1,4,2,4,2,10.112,10112,-0.0600,-0.5800,9.9000,9.9172,0.0196,0.0055,-0.0076,1.69,-2.69,101.31,-0.2436,-0.4317,9.8937,9.9061
1,4,2,4,2,10.248,10248,-0.3600,-0.3800,10.1100,10.1235,-0.0175,0.0098,0.0022,1.69,-2.63,101.31,-0.2590,-0.4249,9.9222,9.9347
1,4,2,4,2,10.379,10379,-0.1300,-0.5500,9.9700,9.9860,-0.0207,-0.0087,0.0153,1.63,-2.63,101.38,-0.2420,-0.4414,9.9285,9.9412
1,4,2,4,2,10.509,10509,-0.1600,-0.3200,10.3600,10.3662,0.0000,0.0098,0.0044,1.69,-2.63,101.25,-0.2312,-0.4254,9.9853,9.9971
1,4,2,4,2,10.639,10639,-0.3200,-0.5600,10.7000,10.7194,-0.0044,0.0033,0.0022,1.69,-2.75,101.38,-0.2429,-0.4431,10.0795,10.0922
1,4,2,4,2,10.770,10770,-0.3300,-0.4800,11.2700,11.2850,0.0295,-0.0044,0.0087,1.63,-2.69,101.38,-0.2544,-0.4480,10.2364,10.2494
1,4,2,4,2,10.900,10900,-0.3400,-0.4600,11.2900,11.3045,-0.0087,-0.0055,-0.0131,1.56,-2.69,101.31,-0.2656,-0.4496,10.3752,10.3884
1,4,2,4,2,11.073,11073,-0.3100,-0.3500,10.0900,10.1008,0.0382,-0.0305,0.0240,1.75,-2.69,101.31,-0.2715,-0.4364,10.3376,10.3504
1,4,2,4,2,11.204,11204,-0.0900,-0.2900,9.9000,9.9047,-0.0676,0.0109,-0.0076,1.75,-2.63,101.38,-0.2476,-0.4171,10.2800,10.2914
1,4,2,4,2,11.334,11334,-0.5700,-0.3400,8.4100,8.4361,-0.0044,0.0295,-0.0087,1.69,-2.63,101.38,-0.2901,-0.4070,10.0336,10.0460
1,4,2,4,2,11.465,11465,-0.6400,-0.2500,8.1100,8.1391,-0.0240,-0.0404,0.0305,1.69,-2.63,101.25,-0.3362,-0.3863,9.7801,9.7935
1,4,2,4,2,11.595,11595,-0.0300,-0.3700,6.4000,6.4108,-0.0338,-0.0251,-0.0207,1.75,-2.56,101.38,-0.2958,-0.3841,9.3347,9.3473
1,4,2,4,2,11.729,11729,-0.2200,-0.4200,9.0500,9.0624,0.0262,0.0033,0.0011,1.75,-2.56,101.31,-0.2858,-0.3889,9.2972,9.3097
1,4,2,4,2,11.860,11860,-0.3400,-0.2700,6.8200,6.8338,0.0447,0.0785,-0.0447,1.75,-2.56,101.25,-0.2930,-0.3732,8.9707,8.9833
1,4,2,4,2,11.993,11993,-0.0300,-0.4600,6.9800,6.9952,0.0447,-0.0044,-0.0065,1.75,-2.69,101.25,-0.2583,-0.3846,8.7084,8.7207
1,5,2,4,2,12.166,12166,-0.1900,-0.6900,9.4900,9.5169,-0.0207,0.0055,-0.0109,1.75,-2.75,101.19,-0.2493,-0.4249,8.8114,8.8252
1,5,2,4,2,12.298,12298,0.4400,-0.4300,13.8900,13.9036,-0.0065,-0.0284,0.0196,1.75,-2.69,101.19,-0.1585,-0.4256,9.4806,9.4915
1,5,2,4,2,12.434,12434,-0.2100,-0.1300,14.1700,14.1722,0.0033,0.0065,0.0087,1.88,-2.69,101.19,-0.1653,-0.3866,10.0986,10.1073
1,5,2,4,2,12.565,12565,-0.0600,-0.2100,10.1000,10.1024,0.0065,0.0218,0.0196,1.75,-2.63,101.19,-0.1514,-0.3633,10.0988,10.1064
1,5,2,4,2,12.695,12695,-0.6700,-0.5200,9.4200,9.4581,0.0415,-0.0295,-0.0022,1.69,-2.81,101.19,-0.2197,-0.3840,10.0093,10.0191
1,5,2,4,2,12.826,12826,-0.0400,-0.4600,9.6100,9.6211,0.0654,0.0447,-0.0262,1.69,-2.69,101.25,-0.1961,-0.3940,9.9567,9.9664
1,5,2,4,2,12.956,12956,-0.1600,-0.2100,9.6600,9.6636,0.0207,-0.0109,0.0338,1.81,-2.63,101.19,-0.1913,-0.3698,9.9176,9.9263
1,5,2,4,2,13.086,13086,-0.3300,-0.5600,9.8300,9.8515,-0.0229,0.0022,-0.0109,1.88,-2.69,101.19,-0.2096,-0.3948,9.9061,9.9161
1,5,2,4,2,13.259,13259,-0.2100,-0.5100,9.8500,9.8654,-0.0033,-0.0044,0.0087,1.81,-2.63,101.19,-0.2096,-0.4100,9.8987,9.9094
1,5,2,4,2,13.389,13389,-0.3400,-0.2800,10.0200,10.0297,-0.0055,0.0153,-0.0076,1.81,-2.63,101.13,-0.2268,-0.3929,9.9147,9.9250
1,5,2,4,2,13.519,13519,-0.0600,-0.5800,9.9600,9.9771,-0.0065,-0.0022,-0.0098,1.75,-2.75,101.25,-0.2048,-0.4175,9.9206,9.9315
1,5,2,4,2,13.649,13649,-0.2500,-0.4500,10.5700,10.5825,-0.0098,0.0022,0.0240,1.75,-2.69,101.19,-0.2108,-0.4218,10.0062,10.0173
1,5,2,4,2,13.779,13779,-0.3100,-0.5400,10.8800,10.8978,-0.0153,0.0011,-0.0098,1.69,-2.69,101.25,-0.2239,-0.4374,10.1213,10.1333
1,5,2,4,2,13.909,13909,-0.2900,-0.3000,11.0400,11.0479,-0.0251,0.0087,-0.0087,1.69,-2.69,101.25,-0.2326,-0.4193,10.2424,10.2536
1,5,2,4,2,14.039,14039,-0.5200,-0.3300,10.5700,10.5879,-0.0022,-0.0011,-0.0164,1.69,-2.63,101.19,-0.2704,-0.4075,10.2856,10.2972
1,5,2,4,2,14.169,14169,-0.3900,-0.4300,10.2400,10.2564,0.0425,-0.0153,0.0011,1.81,-2.69,101.19,-0.2862,-0.4105,10.2796,10.2917
1,5,2,4,2,14.342,14342,-0.3900,-0.2000,9.3600,9.3703,-0.0654,0.0262,0.0175,1.75,-2.69,101.31,-0.2999,-0.3827,10.1584,10.1700
1,5,2,4,2,14.473,14473,-0.2700,-0.1200,9.7300,9.7345,-0.0273,0.0251,-0.0033,1.75,-2.50,101.25,-0.2959,-0.3481,10.1019,10.1123
1,5,2,4,2,14.603,14603,-0.3600,-0.6100,8.9800,9.0079,0.0491,0.0120,0.0065,1.75,-2.63,101.25,-0.3044,-0.3826,9.9541,9.9661
1,5,2,4,2,14.738,14738,-0.3300,-0.1800,6.9400,6.9502,-0.0295,-0.0295,-0.0120,1.81,-2.56,101.25,-0.3078,-0.3559,9.5569,9.5685
1,5,2,4,2,14.868,14868,-0.2800,-0.3400,8.4600,8.4715,0.0087,-0.0142,0.0131,1.81,-2.56,101.25,-0.3041,-0.3538,9.4124,9.4239
1,5,2,4,2,15.001,15001,-0.3700,-0.1400,8.3900,8.3993,-0.0360,0.0382,-0.0153,1.75,-2.50,101.25,-0.3128,-0.3257,9.2776,9.2886
1,5,2,4,2,15.132,15132,-0.8000,-0.3000,7.2000,7.2505,0.0251,0.0251,0.0491,1.75,-2.69,101.25,-0.3770,-0.3223,9.0039,9.0175
1,5,2,4,2,15.262,15262,0.0000,0.0100,7.2400,7.2400,-0.0491,0.0207,-0.0153,1.69,-2.63,101.13,-0.3273,-0.2785,8.7714,8.7820
1,6,2,4,2,15.435,15435,-0.7800,-0.3700,11.1300,11.1634,0.0316,-0.0382,-0.0327,1.69,-2.63,101.13,-0.3870,-0.2905,9.0822,9.0951
1,6,2,4,2,15.566,15566,0.1000,-0.4300,14.9200,14.9265,0.0720,-0.0273,0.0076,1.75,-2.69,101.19,-0.3228,-0.3089,9.8515,9.8616
1,6,2,4,2,15.696,15696,0.4200,-0.9200,12.4400,12.4810,-0.0676,0.0011,0.0142,1.75,-2.69,101.19,-0.2249,-0.3894,10.1926,10.2025
1,6,2,4,2,15.831,15831,0.2800,-0.3300,9.2300,9.2401,-0.0175,0.0218,-0.0022,1.56,-2.69,101.19,-0.1584,-0.3816,10.0658,10.0742
1,6,2,4,2,15.964,15964,-0.0800,-0.7900,9.6400,9.6726,0.0000,-0.0873,0.0076,1.56,-2.94,101.25,-0.1480,-0.4354,10.0097,10.0202
1,6,2,4,2,16.095,16095,-0.3200,-0.4800,9.9400,9.9567,-0.0251,-0.0142,0.0175,1.88,-2.69,101.13,-0.1707,-0.4413,10.0005,10.0117
1,6,2,4,2,16.225,16225,-0.1200,-0.4800,9.6300,9.6427,0.0065,0.0044,0.0011,1.81,-2.63,101.13,-0.1640,-0.4464,9.9517,9.9630
1,6,2,4,2,16.355,16355,-0.4600,-0.4000,9.4700,9.4896,-0.0076,0.0011,-0.0087,1.81,-2.63,101.19,-0.2030,-0.4403,9.8882,9.9001
1,6,2,4,2,16.528,16528,-0.1400,-0.2700,9.7000,9.7048,-0.0055,0.0011,-0.0022,1.81,-2.63,101.19,-0.1947,-0.4178,9.8634,9.8742
1,6,2,4,2,16.659,16659,-0.1000,-0.4300,10.2300,10.2395,0.0098,0.0273,-0.0109,1.69,-2.63,101.19,-0.1822,-0.4194,9.9117,9.9222
1,6,2,4,2,16.790,16790,-0.4600,-0.5200,10.6100,10.6327,0.0284,0.0033,-0.0185,1.56,-2.69,101.19,-0.2188,-0.4327,10.0037,10.0155
1,6,2,4,2,16.921,16921,-0.5800,-0.4200,11.6100,11.6321,-0.0055,-0.0567,0.0065,1.63,-2.63,101.25,-0.2664,-0.4310,10.2154,10.2279
1,6,2,4,2,17.056,17056,-0.3200,-0.0900,10.9400,10.9450,-0.0469,0.0131,-0.0033,1.63,-2.56,101.19,-0.2735,-0.3861,10.3109,10.3217
1,6,2,4,2,17.187,17187,-0.2900,-0.2900,10.5600,10.5680,-0.0142,0.0229,-0.0153,1.56,-2.63,101.13,-0.2757,-0.3734,10.3437,10.3541
1,6,2,4,2,17.318,17318,-0.3700,-0.2900,10.5000,10.5105,0.0011,-0.0273,0.0120,1.63,-2.69,101.13,-0.2881,-0.3624,10.3643,10.3746
1,6,2,4,2,17.448,17448,-0.1100,-0.6200,9.5700,9.5907,-0.0055,-0.0011,-0.0076,1.69,-2.69,101.19,-0.2646,-0.3964,10.2596,10.2707
1,6,2,4,2,17.621,17621,-0.3600,-0.5400,9.1300,9.1530,0.0087,0.0229,-0.0382,1.63,-2.69,101.19,-0.2772,-0.4153,10.1108,10.1231
1,6,2,4,2,17.751,17751,-0.2200,-0.1900,8.5800,8.5849,-0.0240,0.0087,0.0185,1.56,-2.63,101.19,-0.2697,-0.3856,9.9091,9.9202
1,6,2,4,2,17.882,17882,-0.1300,-0.2300,6.8300,6.8351,-0.0087,-0.0087,0.0000,1.75,-2.56,101.19,-0.2513,-0.3651,9.5033,9.5136
1,6,2,4,2,18.013,18013,-0.7300,-0.5000,9.0600,9.1031,0.0229,0.0164,-0.0044,1.75,-2.56,101.19,-0.3143,-0.3829,9.4449,9.4579
1,6,2,4,2,18.149,18149,-0.2100,0.1100,9.4300,9.4330,0.0262,0.0327,-0.0207,1.75,-2.56,101.19,-0.3006,-0.3179,9.4429,9.4531
1,6,2,4,2,18.279,18279,0.2700,-0.4800,6.4300,6.4535,-0.0196,-0.0535,-0.0120,1.75,-2.63,101.19,-0.2254,-0.3393,9.0459,9.0551
1,6,2,4,2,18.411,18411,0.2500,-0.3300,6.2000,6.2138,-0.0207,0.0098,0.0142,1.69,-2.75,101.25,-0.1628,-0.3381,8.6709,8.6790
1,6,2,4,2,18.542,18542,-0.0100,-0.4600,7.3300,7.3444,0.0131,-0.0469,0.0033,1.69,-2.75,101.13,-0.1426,-0.3541,8.4942,8.5028
1,7,2,4,2,18.714,18714,-0.8200,0.0000,13.3200,13.3452,0.0240,-0.0349,-0.0022,1.69,-2.69,101.13,-0.2319,-0.3075,9.1301,9.1382
1,7,2,4,2,18.845,18845,0.0000,-1.4600,13.6300,13.7080,0.0600,0.0109,0.0185,1.75,-2.69,101.13,-0.2013,-0.4593,9.7231,9.7360
1,7,2,4,2,18.976,18976,0.0000,-0.7100,12.0000,12.0210,-0.0109,-0.0098,-0.0284,1.63,-2.75,101.13,-0.1748,-0.4924,10.0231,10.0367
1,7,2,4,2,19.106,19106,-0.3700,-0.5300,8.8800,8.9035,0.0011,0.0098,-0.0065,1.56,-2.81,101.19,-0.2005,-0.4973,9.8725,9.8870
1,7,2,4,2,19.237,19237,-0.4400,-0.6500,10.3500,10.3797,-0.0131,-0.0578,-0.0033,1.63,-2.81,101.19,-0.2321,-0.5174,9.9354,9.9516
1,7,2,4,2,19.367,19367,-0.3200,-0.4200,9.7700,9.7843,-0.0349,0.0033,0.0011,1.69,-2.75,101.19,-0.2437,-0.5046,9.9136,9.9294
1,7,2,4,2,19.498,19498,-0.1700,-0.4300,9.6900,9.7010,-0.0033,0.0065,-0.0033,1.75,-2.69,101.19,-0.2340,-0.4948,9.8841,9.8993
1,7,2,4,2,19.629,19629,-0.3300,-0.2600,9.9000,9.9089,-0.0044,0.0120,-0.0055,1.69,-2.63,101.19,-0.2466,-0.4638,9.8862,9.9002
1,7,2,4,2,19.805,19805,-0.3200,-0.4800,9.9900,10.0066,0.0022,0.0087,0.0033,1.69,-2.63,101.25,-0.2563,-0.4660,9.8999,9.9142
1,7,2,4,2,19.936,19936,-0.2400,-0.3400,10.2800,10.2884,0.0000,-0.0076,0.0033,1.63,-2.56,101.25,-0.2541,-0.4494,9.9500,9.9634
1,7,2,4,2,20.066,20066,-0.2800,-0.4400,10.8400,10.8525,-0.0065,0.0055,0.0196,1.69,-2.56,101.25,-0.2575,-0.4481,10.0673,10.0805
1,7,2,4,2,20.196,20196,-0.3900,-0.4700,11.2000,11.2166,-0.0175,0.0153,-0.0098,1.63,-2.63,101.25,-0.2750,-0.4510,10.2165,10.2302
1,7,2,4,2,20.327,20327,-0.3600,-0.7000,11.4300,11.4571,0.0240,0.0055,-0.0164,1.63,-2.69,101.25,-0.2862,-0.4838,10.3764,10.3917
1,7,2,4,2,20.457,20457,-1.1500,-0.3300,10.6900,10.7567,0.0098,-0.0371,-0.0022,1.63,-2.63,101.19,-0.4000,-0.4636,10.4178,10.4357
1,7,2,4,2,20.587,20587,0.3100,-0.6600,9.3500,9.3784,0.0698,0.0436,0.0000,1.69,-2.69,101.19,-0.3065,-0.4894,10.2771,10.2933
1,7,2,4,2,20.718,20718,-0.4600,-0.5300,9.8300,9.8550,-0.0164,0.0120,-0.0033,1.75,-2.63,101.31,-0.3267,-0.4948,10.2181,10.2353
1,7,2,4,2,20.890,20890,-0.2600,-0.3200,8.2300,8.2403,0.0185,0.0044,0.0207,1.69,-2.56,101.25,-0.3179,-0.4718,9.9562,9.9724
1,7,2,4,2,21.021,21021,-0.2100,-0.4300,6.2900,6.3082,-0.0022,-0.0065,-0.0044,1.75,-2.56,101.25,-0.3037,-0.4663,9.4731,9.4894
1,7,2,4,2,21.156,21156,-0.1500,-0.5500,8.4300,8.4493,0.0404,-0.0055,0.0120,1.75,-2.56,101.25,-0.2834,-0.4773,9.3356,9.3521
1,7,2,4,2,21.289,21289,-0.2100,-0.4700,9.1400,9.1545,-0.0218,0.0076,-0.0153,1.81,-2.56,101.19,-0.2738,-0.4763,9.3098,9.3260
1,7,2,4,2,21.419,21419,-0.3800,-0.5100,7.3800,7.4074,-0.0044,0.0185,0.0011,1.88,-2.50,101.19,-0.2878,-0.4808,9.0555,9.0728
1,7,2,4,2,21.550,21550,-0.4800,-0.4000,7.7000,7.7253,-0.0131,0.0142,-0.0076,1.69,-2.63,101.19,-0.3131,-0.4701,8.8769,8.8949
1,7,2,4,2,21.681,21681,-0.1300,-0.4900,7.4000,7.4173,0.0764,0.0196,-0.0098,1.69,-2.75,101.19,-0.2890,-0.4727,8.6823,8.6999
1,8,2,4,2,21.811,21811,0.2700,-0.3600,8.9500,8.9613,0.0371,0.0273,-0.0425,1.81,-2.69,101.13,-0.2153,-0.4579,8.7176,8.7322
1,8,2,4,2,21.984,21984,0.0300,-0.3700,15.6700,15.6744,-0.0131,0.0218,-0.0262,1.75,-2.63,101.19,-0.1830,-0.4463,9.6337,9.6458
1,8,2,4,2,22.114,22114,-0.3400,-0.0500,12.8900,12.8946,-0.0240,-0.0065,0.0022,1.75,-2.63,101.19,-0.2037,-0.3941,10.0628,10.0726
1,8,2,4,2,22.245,22245,0.1000,-0.5000,8.9800,8.9945,0.0611,-0.0295,0.0196,1.75,-2.75,101.13,-0.1637,-0.4080,9.9201,9.9299
1,8,2,4,2,22.377,22377,-0.7300,-0.6000,10.0000,10.0445,0.0665,-0.0240,-0.0469,1.75,-2.75,101.19,-0.2383,-0.4333,9.9307,9.9430
1,8,2,4,2,22.512,22512,-0.2100,-0.3100,9.8400,9.8471,0.0415,-0.0240,-0.0044,1.81,-2.69,101.19,-0.2346,-0.4171,9.9187,9.9302
1,8,2,4,2,22.643,22643,-0.4100,-0.5300,9.9200,9.9426,-0.0131,0.0044,0.0131,1.81,-2.63,101.13,-0.2577,-0.4320,9.9189,9.9316
1,8,2,4,2,22.773,22773,-0.4100,-0.3700,9.7700,9.7856,-0.0076,0.0142,0.0087,1.81,-2.63,101.13,-0.2777,-0.4238,9.8993,9.9122
1,8,2,4,2,22.904,22904,-0.2400,-0.4200,9.9400,9.9518,0.0131,0.0098,0.0087,1.69,-2.56,101.13,-0.2728,-0.4233,9.9046,9.9174
1,8,2,4,2,23.076,23076,-0.4400,-0.2800,9.9300,9.9437,0.0022,0.0087,-0.0153,1.69,-2.56,101.13,-0.2948,-0.4044,9.9080,9.9206
1,8,2,4,2,23.206,23206,-0.2800,-0.5900,10.8900,10.9096,0.0360,-0.0567,-0.0196,1.75,-2.63,101.13,-0.2929,-0.4289,10.0374,10.0508
1,8,2,4,2,23.336,23336,-0.4800,-0.4000,11.0900,11.1076,0.0011,-0.0011,0.0120,1.81,-2.56,101.13,-0.3175,-0.4251,10.1761,10.1899
1,8,2,4,2,23.466,23466,-0.5100,-0.3200,11.2900,11.3060,0.0207,0.0120,-0.0065,1.75,-2.50,101.06,-0.3429,-0.4112,10.3229,10.3367
1,8,2,4,2,23.596,23596,-0.4900,-0.6000,11.5600,11.5859,0.0458,-0.0033,-0.0415,1.69,-2.63,101.13,-0.3623,-0.4361,10.4859,10.5012
1,8,2,4,2,23.726,23726,-0.3900,-0.6300,10.8900,10.9152,0.0742,-0.0371,0.0175,1.75,-2.63,101.13,-0.3659,-0.4616,10.5391,10.5556
1,8,2,4,2,23.856,23856,0.0000,-0.6200,9.2100,9.2308,0.0556,0.0338,-0.0131,1.88,-2.63,101.13,-0.3177,-0.4825,10.3640,10.3801
1,8,2,4,2,23.987,23987,-0.3700,-0.3000,6.5400,6.5573,0.0044,0.0065,-0.0458,1.94,-2.56,101.13,-0.3246,-0.4585,9.8601,9.8761
1,8,2,4,2,24.160,24160,0.3100,-0.2600,9.1400,9.1490,-0.0545,0.0142,-0.0229,1.75,-2.69,101.19,-0.2410,-0.4323,9.7652,9.7777
1,8,2,4,2,24.291,24291,-0.4900,-0.4000,7.4000,7.4270,0.0033,0.0251,0.0295,1.75,-2.50,101.13,-0.2738,-0.4281,9.4535,9.4672
1,8,2,4,2,24.423,24423,-0.3000,-0.1700,8.6100,8.6169,-0.0524,-0.0349,-0.0229,1.88,-2.56,101.13,-0.2772,-0.3940,9.3424,9.3548
1,8,2,4,2,24.554,24554,-0.4000,-0.2900,6.9800,6.9975,0.0022,-0.0131,0.0305,1.88,-2.50,101.13,-0.2934,-0.3803,9.0311,9.0438
1,8,2,4,2,24.688,24688,0.0400,-0.2600,6.7800,6.7851,0.0000,0.0055,0.0142,1.94,-2.56,101.06,-0.2495,-0.3645,8.7344,8.7456
1,8,2,4,2,24.819,24819,-0.9500,-0.3900,7.7600,7.8277,-0.0196,-0.0415,-0.0273,1.81,-2.69,101.06,-0.3418,-0.3678,8.6060,8.6207
1,9,2,4,2,24.949,24949,-0.3800,-0.4500,12.8400,12.8535,0.0033,-0.0273,0.0142,1.81,-2.63,101.06,-0.3468,-0.3787,9.1640,9.1783
1,9,2,4,2,25.080,25080,0.2300,-0.7900,16.9800,16.9999,0.0393,0.0065,0.0273,1.88,-2.63,101.00,-0.2708,-0.4329,10.1939,10.2067
1,9,2,4,2,25.253,25253,-0.0900,-0.3400,9.4300,9.4366,-0.0218,0.0491,0.0360,1.81,-2.63,101.06,-0.2470,-0.4206,10.0933,10.1050
1,9,2,4,2,25.383,25383,-0.9700,-0.4600,8.9600,9.0241,-0.0393,-0.0284,0.0065,1.94,-2.81,101.06,-0.3423,-0.4258,9.9439,9.9589
1,9,2,4,2,25.515,25515,0.0600,-0.5700,9.8900,9.9066,-0.0305,0.0600,-0.0033,1.75,-2.75,101.13,-0.2893,-0.4448,9.9368,9.9510
1,9,2,4,2,25.645,25645,-0.2400,-0.3500,9.7300,9.7393,0.0000,-0.0055,0.0076,1.88,-2.56,101.06,-0.2828,-0.4323,9.9096,9.9230
1,9,2,4,2,25.775,25775,-0.2000,-0.3600,9.5900,9.5988,-0.0098,-0.0065,0.0109,1.88,-2.50,101.06,-0.2719,-0.4228,9.8675,9.8802
1,9,2,4,2,25.908,25908,-0.2100,-0.3200,9.7900,9.7975,0.0109,-0.0131,-0.0055,1.94,-2.56,101.06,-0.2637,-0.4092,9.8572,9.8693
1,9,2,4,2,26.042,26042,-0.2500,-0.3800,9.8200,9.8305,0.0011,0.0087,0.0229,1.94,-2.50,101.06,-0.2619,-0.4054,9.8523,9.8642
1,9,2,4,2,26.173,26173,-0.3500,-0.4100,9.7800,9.7948,-0.0044,0.0022,0.0044,1.94,-2.50,101.06,-0.2735,-0.4060,9.8428,9.8550
1,9,2,4,2,26.345,26345,-0.2500,-0.4600,10.0800,10.0936,0.0164,0.0207,0.0065,1.81,-2.56,101.06,-0.2704,-0.4131,9.8741,9.8864
1,9,2,4,2,26.476,26476,-0.3300,-0.4200,10.7900,10.8032,-0.0131,0.0087,0.0000,1.75,-2.50,101.06,-0.2783,-0.4140,9.9948,10.0072
1,9,2,4,2,26.607,26607,-0.2700,-0.2900,11.3100,11.3169,-0.0076,-0.0251,0.0000,1.81,-2.50,101.06,-0.2772,-0.3977,10.1681,10.1796
1,9,2,4,2,26.737,26737,-0.2400,-0.2800,10.7600,10.7663,-0.0218,0.0131,-0.0196,1.81,-2.50,101.06,-0.2723,-0.3822,10.2461,10.2568
1,9,2,4,2,26.868,26868,-0.1100,-0.4200,10.9100,10.9186,-0.0164,0.0044,-0.0164,1.81,-2.56,101.06,-0.2509,-0.3872,10.3336,10.3439
1,9,2,4,2,26.999,26999,-0.4100,-0.6800,10.3400,10.3704,0.0371,-0.0153,-0.0055,1.81,-2.56,101.00,-0.2719,-0.4257,10.3344,10.3467
1,9,2,4,2,27.129,27129,-0.2100,-0.3700,9.8400,9.8492,-0.0338,0.0120,0.0284,1.81,-2.63,101.06,-0.2637,-0.4184,10.2693,10.2812
1,9,2,4,2,27.260,27260,-0.2900,-0.2600,9.1200,9.1283,-0.0764,0.0076,-0.0404,1.88,-2.50,101.06,-0.2672,-0.3975,10.1178,10.1291
1,9,2,4,2,27.436,27436,-0.3900,-0.5500,7.2400,7.2713,0.0164,0.0131,-0.0120,1.81,-2.50,101.06,-0.2834,-0.4176,9.7386,9.7517
1,9,2,4,2,27.566,27566,-0.0300,-0.2800,5.6500,5.6570,-0.0022,0.0000,0.0098,1.94,-2.50,101.13,-0.2500,-0.3995,9.1998,9.2119
1,9,2,4,2,27.697,27697,-0.2200,-0.6400,9.4800,9.5041,-0.0087,-0.0360,-0.0022,2.00,-2.56,101.13,-0.2460,-0.4312,9.2367,9.2501
1,9,2,4,2,27.827,27827,0.0400,-0.2600,6.9800,6.9850,0.0196,0.0393,0.0022,2.00,-2.38,101.00,-0.2083,-0.4086,8.9394,8.9511
1,9,2,4,2,27.957,27957,0.2100,-0.0700,6.7000,6.7037,0.0185,0.0218,0.0109,1.94,-2.44,101.00,-0.1532,-0.3640,8.6443,8.6533
1,9,2,4,2,28.088,28088,-0.4600,-0.1900,6.5900,6.6088,-0.0142,0.0175,0.0109,1.94,-2.50,101.00,-0.1936,-0.3411,8.3736,8.3828
1,9,2,4,2,28.218,28218,0.4300,-0.3000,8.0500,8.0671,-0.0360,0.0687,-0.0175,1.88,-2.50,100.94,-0.1115,-0.3357,8.3309,8.3384
1,10,2,4,2,28.349,28349,-0.5700,-0.4100,16.3600,16.3751,-0.0218,-0.0120,0.0316,1.94,-2.50,101.06,-0.1719,-0.3455,9.3890,9.3969
1,10,2,4,2,28.521,28521,-0.0500,-0.3000,10.5900,10.5944,-0.0087,-0.0044,-0.0196,2.00,-2.56,101.00,-0.1558,-0.3395,9.5472,9.5545
1,10,2,4,2,28.652,28652,0.5800,-0.1600,7.9300,7.9528,0.0436,0.0425,0.0196,1.75,-2.69,101.00,-0.0589,-0.3158,9.3341,9.3396
1,10,2,4,2,28.782,28782,-0.8700,-0.3800,10.0700,10.1147,-0.0535,-0.0207,-0.0229,1.75,-2.69,101.13,-0.1657,-0.3243,9.4311,9.4381
1,10,2,4,2,28.913,28913,-0.5900,-0.1300,10.1600,10.1779,0.0338,-0.0316,0.0382,1.88,-2.56,101.06,-0.2217,-0.2987,9.5271,9.5344
1,10,2,4,2,29.043,29043,-0.5600,0.0200,10.0000,10.0157,-0.1091,-0.0076,-0.0393,1.88,-2.56,100.88,-0.2662,-0.2567,9.5894,9.5966
1,10,2,4,2,29.178,29178,-0.2600,-0.6800,9.8900,9.9168,0.0033,-0.0011,-0.0218,1.88,-2.75,101.06,-0.2654,-0.3125,9.6291,9.6378
1,10,2,4,2,29.311,29311,-0.2100,-0.3700,9.8000,9.8092,-0.0098,0.0055,0.0185,1.88,-2.56,100.94,-0.2581,-0.3200,9.6516,9.6603
1,10,2,4,2,29.441,29441,-0.4500,-0.4800,10.2900,10.3110,-0.0164,0.0065,-0.0087,1.88,-2.56,101.00,-0.2834,-0.3411,9.7357,9.7458
1,10,2,4,2,29.614,29614,-0.2300,-0.4700,11.8200,11.8316,0.0207,-0.0044,0.0120,1.75,-2.50,101.06,-0.2764,-0.3581,10.0104,10.0206
1,10,2,4,2,29.747,29747,-0.5000,-0.5000,10.6000,10.6236,0.0393,0.0022,-0.0087,1.81,-2.56,101.00,-0.3058,-0.3768,10.0881,10.0997
1,10,2,4,2,29.882,29882,-0.1500,-0.3700,10.9600,10.9673,0.0218,-0.0044,0.0000,1.75,-2.56,101.00,-0.2853,-0.3759,10.2030,10.2139
1,10,2,4,2,30.013,30013,-0.1600,-0.5800,10.7900,10.8068,0.0153,-0.0142,0.0207,1.81,-2.56,101.00,-0.2688,-0.4028,10.2803,10.2917
1,10,2,4,2,30.143,30143,-0.5100,-0.6400,10.3300,10.3624,0.0295,0.0065,-0.0251,1.88,-2.69,101.06,-0.3006,-0.4341,10.2869,10.3004
1,10,2,4,2,30.273,30273,-0.4300,-0.2700,9.5600,9.5735,0.0044,0.0295,-0.0131,1.75,-2.56,101.06,-0.3176,-0.4124,10.1911,10.2044
1,10,2,4,2,30.404,30404,-0.3600,-0.2000,8.8500,8.8596,-0.0622,-0.0153,0.0131,1.88,-2.44,101.06,-0.3232,-0.3844,10.0144,10.0270
1,10,2,4,2,30.534,30534,-0.2400,-0.4300,5.9900,6.0102,0.0371,-0.0142,-0.0011,1.94,-2.44,101.06,-0.3122,-0.3904,9.4841,9.4972
1,10,2,4,2,30.707,30707,-0.2900,-0.2300,8.3100,8.3182,-0.0055,-0.0218,0.0087,1.94,-2.50,101.06,-0.3093,-0.3693,9.3293,9.3418
1,10,2,4,2,30.837,30837,0.0000,-0.3000,9.2800,9.2848,0.0185,0.0458,0.0000,2.00,-2.44,101.00,-0.2686,-0.3602,9.3228,9.3337
1,10,2,4,2,30.968,30968,0.1600,-0.4800,8.4600,8.4751,-0.0164,-0.0305,-0.0087,2.00,-2.44,101.00,-0.2121,-0.3760,9.2091,9.2193
1,10,2,4,2,31.098,31098,-0.0900,-0.2100,7.2700,7.2736,0.0033,0.0360,0.0087,1.94,-2.50,101.06,-0.1960,-0.3541,8.9536,8.9628
1,10,2,4,2,31.230,31230,0.1000,-0.4200,7.7800,7.7920,0.0415,-0.0622,0.0425,1.94,-2.56,101.00,-0.1570,-0.3628,8.7990,8.8078
1,10,2,4,2,31.361,31361,-0.4900,-0.7800,8.4400,8.4901,-0.0218,-0.0567,-0.0109,2.06,-2.69,101.06,-0.2009,-0.4178,8.7517,8.7639
1,11,2,4,2,31.496,31496,-0.5800,-0.5400,12.2300,12.2556,-0.0360,-0.0044,0.0393,1.88,-2.56,101.00,-0.2508,-0.4339,9.2100,9.2236
1,11,2,4,2,31.627,31627,-0.0300,-0.4500,13.0000,13.0078,0.0654,-0.0175,-0.0153,1.94,-2.63,100.94,-0.2217,-0.4360,9.7094,9.7218
1,11,2,4,2,31.799,31799,-0.3100,-0.6000,11.7900,11.8093,0.0415,0.0011,-0.0022,1.88,-2.63,101.00,-0.2334,-0.4576,9.9836,9.9968
1,11,2,4,2,31.929,31929,-2.0000,-0.9600,9.1600,9.4248,0.0556,-0.0229,-0.0044,1.88,-2.75,101.06,-0.4662,-0.5238,9.8751,9.8999
1,11,2,4,2,32.059,32059,-0.3600,-0.4300,9.8100,9.8260,0.0305,-0.0393,0.0240,1.94,-2.63,101.06,-0.4522,-0.5114,9.8665,9.8901
1,11,2,4,2,32.189,32189,-0.7800,-0.5900,9.8300,9.8785,-0.0295,-0.0316,-0.0273,1.81,-2.63,100.94,-0.4954,-0.5218,9.8617,9.8879
1,11,2,4,2,32.319,32319,-0.4300,-0.5200,9.9400,9.9629,0.0360,-0.0251,-0.0185,1.94,-2.69,101.06,-0.4868,-0.5216,9.8720,9.8978
1,11,2,4,2,32.449,32449,-0.1600,-0.2800,9.7300,9.7353,0.0011,0.0120,0.0065,2.00,-2.63,100.94,-0.4437,-0.4897,9.8533,9.8754
1,11,2,4,2,32.579,32579,-0.3300,-0.3800,9.9200,9.9328,0.0065,0.0109,-0.0011,1.94,-2.56,100.94,-0.4287,-0.4753,9.8621,9.8828
1,11,2,4,2,32.710,32710,-0.1700,-0.4200,9.8200,9.8304,0.0109,0.0120,0.0087,1.81,-2.56,101.00,-0.3946,-0.4680,9.8565,9.8755
1,11,2,4,2,32.882,32882,-0.3200,-0.1800,10.3000,10.3065,0.0207,-0.0131,-0.0022,1.81,-2.50,101.00,-0.3848,-0.4300,9.9150,9.9318
1,11,2,4,2,33.013,33013,-0.4400,-0.3600,10.6100,10.6252,0.0011,-0.0109,-0.0098,1.88,-2.56,101.00,-0.3921,-0.4208,10.0066,10.0231
1,11,2,4,2,33.143,33143,-0.0100,0.0100,10.5100,10.5100,-0.0240,-0.0065,0.0120,1.81,-2.50,101.00,-0.3417,-0.3640,10.0729,10.0853
1,11,2,4,2,33.274,33274,-0.4800,0.0300,10.9700,10.9805,-0.0436,-0.0098,0.0000,1.75,-2.56,100.94,-0.3599,-0.3121,10.1911,10.2022
1,11,2,4,2,33.404,33404,-0.2500,-0.3800,10.9700,10.9794,0.0000,-0.0142,-0.0273,1.75,-2.63,100.94,-0.3455,-0.3211,10.2938,10.3046
1,11,2,4,2,33.540,33540,-0.0400,-0.1400,10.4700,10.4710,-0.0371,-0.0251,0.0196,1.88,-2.63,100.94,-0.3052,-0.2972,10.3170,10.3258
1,11,2,4,2,33.672,33672,-0.2200,-0.4100,8.9400,8.9521,0.0044,0.0207,0.0011,1.94,-2.69,101.00,-0.2940,-0.3121,10.1355,10.1446
1,11,2,4,2,33.802,33802,-0.1800,-0.4000,7.9900,8.0020,0.0044,-0.0011,-0.0022,1.88,-2.69,101.00,-0.2790,-0.3237,9.8528,9.8621
1,11,2,4,2,33.975,33975,-0.1900,-0.3600,7.5200,7.5310,-0.0055,-0.0284,0.0109,1.88,-2.56,101.00,-0.2672,-0.3284,9.5454,9.5548
1,11,2,4,2,34.105,34105,-0.2200,-0.2000,8.0600,8.0655,0.0055,0.0022,-0.0055,1.88,-2.56,101.00,-0.2610,-0.3115,9.3497,9.3585
1,11,2,4,2,34.236,34236,-0.2500,-0.4200,9.5500,9.5625,-0.0120,-0.0371,-0.0022,1.94,-2.56,101.00,-0.2596,-0.3258,9.3761,9.3853
1,11,2,4,2,34.367,34367,-0.1200,-0.4500,7.5300,7.5444,-0.0120,0.0185,-0.0033,2.00,-2.56,101.06,-0.2412,-0.3422,9.1328,9.1424
1,11,2,4,2,34.500,34500,0.1100,-0.4400,6.7200,6.7353,-0.0207,-0.0109,0.0055,1.94,-2.63,101.00,-0.1949,-0.3551,8.8149,8.8242
1,11,2,4,2,34.631,34631,-0.2800,-0.4400,6.3900,6.4112,0.0109,0.0087,0.0295,1.94,-2.81,101.06,-0.2061,-0.3663,8.4953,8.5057
1,11,2,4,2,34.764,34764,-0.5800,0.2200,8.2600,8.2833,-0.0382,-0.0087,-0.0360,1.81,-2.63,100.94,-0.2554,-0.2890,8.4643,8.4731
1,12,2,4,2,34.895,34895,-0.8000,-0.6000,20.1800,20.2048,0.0120,-0.0065,-0.0207,2.00,-2.63,101.00,-0.3271,-0.3300,10.0081,10.0189
1,12,2,4,2,35.068,35068,-3.0000,-0.3400,11.5200,11.9091,0.0393,-0.0600,0.0000,2.06,-2.69,100.94,-0.6794,-0.3313,10.2074,10.2353
1,12,2,4,2,35.198,35198,0.5500,0.1000,7.3600,7.3812,0.0916,-0.1538,0.0404,1.88,-2.88,101.06,-0.5174,-0.2745,9.8322,9.8496
1,12,2,4,2,35.329,35329,-0.5300,-1.1800,10.2200,10.3015,0.0316,0.0556,-0.0305,1.75,-3.06,101.00,-0.5190,-0.3938,9.8833,9.9047
1,12,2,4,2,35.459,35459,-0.2000,-0.0900,9.9200,9.9224,-0.0153,0.0218,-0.0131,1.88,-2.75,101.00,-0.4770,-0.3538,9.8881,9.9059
1,12,2,4,2,35.594,35594,0.0800,0.1100,9.9400,9.9409,-0.0360,-0.0109,0.0022,1.94,-2.69,100.94,-0.4036,-0.2927,9.8949,9.9075
1,12,2,4,2,35.727,35727,-0.5500,-0.3100,10.1000,10.1197,0.0065,0.0065,-0.0153,1.94,-2.69,100.94,-0.4229,-0.2949,9.9220,9.9353
1,12,2,4,2,35.857,35857,-0.0800,-0.2200,10.8000,10.8025,0.0175,0.0076,0.0087,1.88,-2.63,101.06,-0.3777,-0.2851,10.0377,10.0488
1,12,2,4,2,35.988,35988,-0.6600,-0.4000,11.5400,11.5658,-0.0164,-0.0273,0.0316,1.88,-2.69,101.00,-0.4149,-0.3002,10.2356,10.2484
1,12,2,4,2,36.161,36161,-0.3900,-0.5800,11.0000,11.0222,0.0338,0.0033,0.0131,1.88,-2.75,101.00,-0.4116,-0.3371,10.3364,10.3500
1,12,2,4,2,36.296,36296,0.0300,-0.3700,10.5800,10.5865,-0.0033,-0.0175,0.0033,1.88,-2.75,100.94,-0.3534,-0.3414,10.3685,10.3801
1,12,2,4,2,36.427,36427,-0.5200,-0.4700,9.3700,9.3962,-0.0240,-0.0251,0.0185,1.94,-2.81,101.00,-0.3754,-0.3584,10.2369,10.2500
1,12,2,4,2,36.559,36559,0.0900,-0.4000,9.4800,9.4889,-0.0142,0.0000,0.0011,2.00,-2.75,101.00,-0.3141,-0.3638,10.1372,10.1485
1,12,2,4,2,36.690,36690,-0.4400,-0.5300,8.5600,8.5877,0.0022,0.0153,-0.0098,1.88,-2.75,100.94,-0.3306,-0.3857,9.9293,9.9423
1,12,2,4,2,36.820,36820,-0.3400,-0.2100,7.4200,7.4308,0.0076,0.0000,0.0164,1.94,-2.63,100.94,-0.3319,-0.3626,9.5987,9.6112
1,12,2,4,2,36.950,36950,-0.2200,-0.4200,7.2500,7.2655,-0.0240,-0.0218,-0.0033,1.94,-2.63,100.94,-0.3171,-0.3701,9.2892,9.3019
1,12,2,4,2,37.100,37100,-0.1700,-0.2600,8.0600,8.0660,-0.0022,-0.0087,0.0065,2.00,-2.69,100.94,-0.2977,-0.3556,9.1272,9.1390
1,12,2,4,2,37.273,37273,-0.5800,-0.5800,6.4800,6.5317,0.0316,0.0120,-0.0120,2.00,-2.75,100.94,-0.3349,-0.3852,8.7784,8.7932
1,12,2,4,2,37.403,37403,-0.2600,-0.4000,7.0700,7.0861,0.0142,-0.0044,-0.0022,1.94,-2.81,101.00,-0.3251,-0.3872,8.5532,8.5682
1,13,2,4,2,37.533,37533,-0.1300,-0.2500,8.8500,8.8545,-0.0338,0.0196,-0.0076,1.94,-2.75,100.88,-0.2994,-0.3691,8.5923,8.6055
1,13,2,4,2,37.663,37663,-0.5500,-0.2300,15.8100,15.8212,-0.0371,-0.0229,-0.0022,2.00,-2.69,101.00,-0.3324,-0.3508,9.5435,9.5557
1,13,2,4,2,37.793,37793,-0.9100,-0.8800,13.5100,13.5692,0.0436,0.0273,0.0164,2.06,-2.75,100.94,-0.4085,-0.4205,10.0661,10.0832
1,13,2,4,2,37.923,37923,-1.2400,-0.3500,9.3300,9.4185,0.1156,-0.1134,0.0262,1.88,-2.88,100.94,-0.5181,-0.4112,9.9691,9.9911
1,13,2,4,2,38.053,38053,-0.2000,-0.6200,9.8800,9.9015,0.0175,-0.0316,-0.0502,1.88,-2.81,101.06,-0.4762,-0.4387,9.9574,9.9784
1,13,2,4,2,38.184,38184,0.0400,-0.2700,9.4900,9.4939,-0.0153,0.0284,-0.0022,1.88,-2.75,101.06,-0.4081,-0.4165,9.8958,9.9130
1,13,2,4,2,38.357,38357,-0.1000,-0.4500,9.6900,9.7010,0.0065,0.0153,0.0545,2.00,-2.69,101.00,-0.3675,-0.4209,9.8687,9.8845
1,13,2,4,2,38.488,38488,-0.3300,-0.1500,9.9400,9.9466,-0.0502,0.0131,-0.0164,1.94,-2.69,101.00,-0.3626,-0.3852,9.8781,9.8922
1,13,2,4,2,38.618,38618,-0.1900,-0.3900,10.4700,10.4790,0.0153,0.0076,0.0207,1.81,-2.63,101.00,-0.3398,-0.3858,9.9561,9.9693
1,13,2,4,2,38.754,38754,-0.1400,-0.4300,11.3600,11.3690,-0.0491,0.0109,-0.0131,1.88,-2.69,101.00,-0.3135,-0.3917,10.1411,10.1535
1,13,2,4,2,38.884,38884,-0.1800,-0.5900,11.1800,11.1970,0.0371,-0.0055,-0.0065,1.88,-2.69,101.00,-0.2959,-0.4178,10.2780,10.2907
1,13,2,4,2,39.016,39016,-0.0200,-0.6200,11.3200,11.3370,0.0175,0.0022,-0.0153,1.88,-2.75,101.00,-0.2596,-0.4444,10.4153,10.4280
1,13,2,4,2,39.146,39146,-0.5400,-0.2300,9.8800,9.8974,0.0393,-0.0087,0.0065,1.88,-2.75,101.00,-0.2965,-0.4162,10.3448,10.3574
1,13,2,4,2,39.277,39277,0.2100,-0.6500,8.8400,8.8664,0.0349,-0.0687,0.0065,1.88,-2.81,101.00,-0.2298,-0.4470,10.1465,10.1589
1,13,2,4,2,39.449,39449,-0.1200,-0.3400,8.8500,8.8573,-0.0087,0.0098,-0.0229,1.94,-2.69,101.00,-0.2153,-0.4329,9.9756,9.9873
1,13,2,4,2,39.579,39579,-0.4300,-0.2800,7.4500,7.4677,0.0196,0.0065,0.0120,1.88,-2.69,101.00,-0.2436,-0.4127,9.6428,9.6547
1,13,2,4,2,39.709,39709,-0.1400,-0.3400,6.8900,6.8998,-0.0218,-0.0044,-0.0098,1.88,-2.69,101.00,-0.2299,-0.4032,9.2801,9.2917
1,13,2,4,2,39.839,39839,-0.2100,-0.4200,10.0000,10.0110,0.0087,-0.0164,0.0087,1.94,-2.75,101.00,-0.2273,-0.4054,9.3749,9.3864
1,13,2,4,2,39.969,39969,-0.2700,-0.2700,8.9000,8.9082,0.0044,0.0000,0.0207,1.94,-2.63,100.94,-0.2329,-0.3875,9.3123,9.3233
1,13,2,4,2,40.099,40099,-0.3500,-0.0700,6.8900,6.8992,0.0185,-0.0011,0.0011,1.94,-2.69,100.94,-0.2484,-0.3457,8.9931,9.0032
1,13,2,4,2,40.230,40230,0.0500,-0.2500,6.9000,6.9047,0.0185,-0.0055,0.0087,1.88,-2.81,101.00,-0.2090,-0.3331,8.7173,8.7262
1,13,2,4,2,40.360,40360,-0.5300,-0.1100,7.7800,7.7988,-0.0502,0.0065,-0.0153,1.94,-2.69,100.88,-0.2513,-0.3037,8.5938,8.6028
1,14,2,4,2,40.533,40533,-0.4700,-0.4200,13.6100,13.6246,-0.0120,-0.0175,-0.0164,1.94,-2.75,100.94,-0.2802,-0.3190,9.2548,9.2645
1,14,2,4,2,40.663,40663,-0.8600,0.3500,15.3100,15.3381,-0.0044,0.0076,0.0044,1.94,-2.69,100.94,-0.3566,-0.2309,10.0527,10.0617
1,14,2,4,2,40.794,40794,-0.4700,-0.4900,10.1000,10.1228,0.0556,0.0164,0.0055,1.88,-2.81,101.00,-0.3715,-0.2650,10.0590,10.0693
1,14,2,4,2,40.924,40924,0.0000,-0.3700,8.9200,8.9277,0.1298,0.0502,0.0273,1.69,-2.88,101.00,-0.3226,-0.2788,9.9089,9.9180
1,14,2,4,2,41.055,41055,-0.4300,-0.5400,10.0100,10.0338,-0.0338,-0.0175,-0.0796,1.81,-2.81,101.00,-0.3367,-0.3133,9.9222,9.9329
1,14,2,4,2,41.185,41185,-0.4400,-0.3000,9.7100,9.7246,0.0218,-0.0131,0.0076,1.88,-2.75,101.00,-0.3503,-0.3115,9.8942,9.9053
1,14,2,4,2,41.315,41315,-0.3400,-0.4100,9.7700,9.7845,-0.0098,0.0011,0.0055,1.88,-2.75,100.94,-0.3490,-0.3245,9.8779,9.8894
1,14,2,4,2,41.446,41446,-0.1900,-0.2600,9.7900,9.7953,0.0000,0.0033,-0.0044,1.88,-2.75,100.94,-0.3280,-0.3160,9.8663,9.8768
1,14,2,4,2,41.622,41622,-0.2600,-0.4500,10.4100,10.4230,0.0044,0.0098,-0.0022,1.88,-2.69,100.94,-0.3191,-0.3336,9.9379,9.9487
1,14,2,4,2,41.753,41753,-0.5700,-0.1900,10.6100,10.6270,0.0098,-0.0022,-0.0065,1.88,-2.63,100.94,-0.3521,-0.3147,10.0265,10.0376
1,14,2,4,2,41.884,41884,-0.1100,-0.3300,11.8200,11.8251,-0.0087,0.0076,-0.0055,1.88,-2.63,101.00,-0.3202,-0.3167,10.2628,10.2727
1,14,2,4,2,42.014,42014,-0.7700,-0.3200,11.0500,11.0814,0.0305,-0.0142,-0.0360,1.81,-2.69,100.94,-0.3795,-0.3172,10.3666,10.3784
1,14,2,4,2,42.144,42144,0.2300,-0.0600,10.0600,10.0628,0.0055,-0.0175,0.0098,1.81,-2.69,100.88,-0.2992,-0.2833,10.3262,10.3344
1,14,2,4,2,42.275,42275,-0.5700,-0.5200,10.3200,10.3488,0.0404,-0.0164,0.0065,1.94,-2.75,100.88,-0.3349,-0.3145,10.3254,10.3356
1,14,2,4,2,42.405,42405,0.6300,-0.3900,9.4100,9.4391,0.0436,0.0349,0.0153,1.81,-2.75,100.94,-0.2077,-0.3244,10.2047,10.2120
1,14,2,4,2,42.536,42536,-0.6300,-0.4200,8.6600,8.6930,-0.0033,0.0131,-0.0349,1.94,-2.69,100.88,-0.2634,-0.3370,10.0012,10.0103
1,14,2,4,2,42.708,42708,0.0300,-0.2200,6.6600,6.6637,0.0033,-0.0164,0.0164,1.94,-2.81,100.94,-0.2247,-0.3216,9.5609,9.5689
1,14,2,4,2,42.839,42839,-0.3000,-0.4300,7.9600,7.9772,0.0065,0.0120,-0.0153,1.94,-2.69,100.88,-0.2346,-0.3359,9.3499,9.3589
1,14,2,4,2,42.969,42969,0.0700,-0.5200,9.0900,9.1051,0.0098,0.0076,0.0120,2.00,-2.75,100.94,-0.1945,-0.3601,9.3157,9.3247
1,14,2,4,2,43.099,43099,-0.5700,-0.4900,8.4800,8.5132,-0.0098,0.0033,-0.0022,2.00,-2.69,100.81,-0.2440,-0.3773,9.2056,9.2165
1,14,2,4,2,43.230,43230,-1.0800,-0.1000,6.5600,6.6491,-0.0131,-0.0076,-0.0044,2.00,-2.75,100.81,-0.3541,-0.3407,8.8569,8.8706
1,14,2,4,2,43.364,43364,0.1800,-0.4900,6.7600,6.7801,0.0164,-0.0360,-0.0076,2.00,-2.94,100.94,-0.2838,-0.3604,8.5806,8.5929
1,15,2,4,2,43.495,43495,0.0800,-0.2800,9.1000,9.1047,0.0185,0.0000,0.0131,1.81,-2.81,100.75,-0.2358,-0.3498,8.6491,8.6593
1,15,2,4,2,43.628,43628,-1.0000,-0.2700,17.0300,17.0615,0.0033,-0.0142,-0.0175,1.94,-2.81,100.94,-0.3365,-0.3393,9.7535,9.7652
1,15,2,4,2,43.801,43801,-1.2700,-0.3900,10.4100,10.4944,-0.0055,-0.0229,0.0055,2.06,-2.81,100.94,-0.4595,-0.3460,9.8400,9.8568
1,15,2,4,2,43.931,43931,0.2000,-0.1800,8.5100,8.5143,0.0251,-0.0033,0.0153,1.88,-2.75,100.88,-0.3726,-0.3241,9.6647,9.6773
1,15,2,4,2,44.062,44062,-0.2500,-0.7000,10.2900,10.3168,0.0022,0.0295,-0.0011,1.81,-2.94,100.94,-0.3565,-0.3736,9.7471,9.7608
1,15,2,4,2,44.193,44193,-0.3300,0.0900,9.5200,9.5261,0.0229,-0.0218,-0.0251,1.94,-2.81,100.81,-0.3530,-0.3125,9.7172,9.7286
1,15,2,4,2,44.323,44323,-0.2500,-0.6200,9.9400,9.9625,-0.0120,-0.0207,-0.0033,2.00,-2.81,100.88,-0.3394,-0.3531,9.7465,9.7588
1,15,2,4,2,44.454,44454,-0.3800,-0.4300,9.7700,9.7868,0.0022,-0.0011,-0.0076,1.94,-2.69,100.88,-0.3448,-0.3632,9.7496,9.7625
1,15,2,4,2,44.589,44589,0.0000,-0.3800,9.9200,9.9273,0.0000,0.0131,0.0000,1.88,-2.69,100.88,-0.2993,-0.3654,9.7721,9.7835
1,15,2,4,2,44.721,44721,-0.4400,-0.3100,9.9100,9.9246,0.0065,0.0305,-0.0087,1.75,-2.69,100.88,-0.3179,-0.3581,9.7903,9.8020
1,15,2,4,2,44.893,44893,-0.4300,-0.5100,11.8400,11.8588,0.0491,0.0065,-0.0338,1.75,-2.69,100.88,-0.3326,-0.3781,10.0604,10.0730
1,15,2,4,2,45.023,45023,-0.3500,-0.5200,11.4600,11.4771,0.0469,-0.0055,0.0065,1.81,-2.69,100.88,-0.3349,-0.3968,10.2448,10.2580
1,15,2,4,2,45.153,45153,-0.0400,-0.6500,10.7500,10.7697,0.0229,0.0131,-0.0164,1.75,-2.75,100.81,-0.2961,-0.4302,10.3114,10.3246
1,15,2,4,2,45.283,45283,-0.4100,-0.2700,10.5400,10.5514,0.0327,-0.0218,-0.0087,1.81,-2.75,100.81,-0.3111,-0.4091,10.3415,10.3543
1,15,2,4,2,45.413,45413,-0.1000,-0.5200,9.8200,9.8343,0.0327,0.0011,0.0153,1.88,-2.81,100.88,-0.2833,-0.4237,10.2728,10.2854
1,15,2,4,2,45.544,45544,-0.2000,-0.5200,8.8700,8.8875,0.0022,-0.0055,-0.0185,1.81,-2.75,100.88,-0.2723,-0.4364,10.0879,10.1010
1,15,2,4,2,45.674,45674,-0.2100,-0.3100,8.0100,8.0187,0.0109,0.0098,-0.0076,1.81,-2.69,100.88,-0.2641,-0.4197,9.8141,9.8266
1,15,2,4,2,45.804,45804,-0.2000,-0.1800,6.8600,6.8653,0.0000,0.0000,-0.0065,1.81,-2.63,100.88,-0.2556,-0.3881,9.4248,9.4363
1,15,2,4,2,45.977,45977,-0.2700,-0.4300,8.8500,8.8646,0.0316,-0.0153,0.0022,1.88,-2.69,100.94,-0.2575,-0.3937,9.3491,9.3609
1,15,2,4,2,46.110,46110,-0.0600,-0.5400,8.4800,8.4974,0.0109,-0.0196,0.0076,1.88,-2.75,100.88,-0.2315,-0.4129,9.2346,9.2467
1,15,2,4,2,46.245,46245,0.0000,-0.1700,6.6500,6.6522,-0.0295,0.0338,-0.0109,1.94,-2.63,100.88,-0.2010,-0.3809,8.8940,8.9044
1,15,2,4,2,46.376,46376,-0.1900,-0.3700,6.1500,6.1640,0.0218,0.0262,-0.0185,1.81,-2.75,100.94,-0.1995,-0.3795,8.5324,8.5432
1,15,2,4,2,46.506,46506,0.0000,-0.3600,7.1100,7.1191,0.0284,0.0644,-0.0164,1.75,-2.75,100.81,-0.1733,-0.3769,8.3450,8.3553
1,15,2,4,2,46.636,46636,-0.6200,-0.6400,18.3000,18.3217,0.0360,-0.0022,0.0098,1.88,-2.69,100.94,-0.2321,-0.4116,9.6568,9.6683
1,15,2,4,2,46.786,46786,-1.0000,-0.8100,12.9500,13.0138,0.0218,-0.0295,0.0076,1.94,-2.81,100.81,-0.3333,-0.4641,10.0907,10.1069
1,15,2,4,2,46.917,46917,-0.1000,-0.2400,8.9100,8.9138,0.1156,0.0491,-0.0011,1.69,-2.88,100.81,-0.3026,-0.4346,9.9352,9.9493
1,15,2,4,2,47.090,47090,-0.6000,-1.1300,10.7000,10.7762,-0.0131,0.0600,-0.0404,1.69,-3.00,100.81,-0.3418,-0.5262,10.0359,10.0555
1,15,2,4,2,47.223,47223,0.4000,0.4500,9.3200,9.3394,0.0611,0.0262,-0.0404,1.81,-2.88,100.94,-0.2440,-0.3976,9.9416,9.9525
1,15,2,4,2,47.353,47353,0.8900,-0.5100,9.7100,9.7640,0.0851,0.0076,0.0229,1.81,-2.88,100.88,-0.0946,-0.4124,9.9111,9.9201
1,15,2,4,2,47.487,47487,-0.1300,-0.2900,9.3500,9.3554,0.0120,-0.0425,-0.0022,1.88,-2.75,100.81,-0.0992,-0.3963,9.8371,9.8456
1,15,2,4,2,47.619,47619,-0.0100,-0.0100,9.7800,9.7800,0.0251,-0.0153,-0.0218,1.81,-2.63,100.88,-0.0875,-0.3454,9.8296,9.8361
1,15,2,4,2,47.750,47750,0.0000,-0.3000,9.6000,9.6047,-0.0480,0.0207,-0.0218,1.75,-2.63,100.81,-0.0760,-0.3394,9.7994,9.8055
1,15,2,4,2,47.880,47880,-0.3100,-0.3600,9.7600,9.7716,-0.0185,-0.0011,0.0055,1.81,-2.69,100.94,-0.1068,-0.3421,9.7942,9.8007
1,15,2,4,2,48.010,48010,-0.0900,-0.4800,9.9000,9.9120,-0.0044,0.0185,0.0164,1.81,-2.69,100.94,-0.1046,-0.3603,9.8081,9.8153
1,15,2,4,2,48.183,48183,-0.2900,-0.4600,9.7300,9.7452,0.0087,0.0011,0.0251,1.81,-2.63,100.81,-0.1290,-0.3734,9.7978,9.8058
1,15,2,4,2,48.314,48314,-0.4300,-0.3400,9.7800,9.7954,-0.0393,-0.0022,-0.0262,1.81,-2.63,100.88,-0.1687,-0.3690,9.7955,9.8039
1,15,2,4,2,48.444,48444,-0.2300,-0.4000,9.7600,9.7709,0.0098,-0.0065,0.0055,1.81,-2.56,100.88,-0.1768,-0.3731,9.7908,9.7995
1,15,2,4,2,48.575,48575,-0.2700,-0.4000,9.7600,9.7719,0.0033,0.0022,0.0000,1.81,-2.56,100.88,-0.1890,-0.3766,9.7867,9.7958
1,15,2,4,2,48.706,48706,-0.2700,-0.3600,9.7700,9.7804,0.0011,-0.0065,0.0000,1.75,-2.56,100.88,-0.1997,-0.3744,9.7845,9.7937
