participant,rep,equipment_code,exercise_code,quality_code,timestamp,timestamp_ms,accelX,accelY,accelZ,accelMag,gyroX,gyroY,gyroZ,roll,pitch,yaw,filteredX,filteredY,filteredZ,filteredMag
1,1,2,4,2,00.000,0,-0.0900,-0.0500,9.5800,9.5806,0.0011,-0.0011,0.0000,0.56,-0.19,92.75,-0.1043,-0.0431,9.6142,9.6148
1,1,2,4,2,00.130,130,-0.1000,-0.1200,9.6400,9.6413,0.0000,0.0131,0.0000,0.63,-0.19,92.75,-0.1037,-0.0532,9.6176,9.6183
1,1,2,4,2,00.261,261,-0.1000,-0.0200,9.5900,9.5905,-0.0011,0.0000,0.0000,0.63,-0.19,92.75,-0.1032,-0.0488,9.6139,9.6146
1,1,2,4,2,00.391,391,-0.0600,-0.0600,9.6000,9.6004,-0.0011,-0.0065,-0.0011,0.56,-0.19,92.75,-0.0975,-0.0503,9.6121,9.6127
1,1,2,4,2,00.564,564,-0.0800,-0.0200,9.5600,9.5604,-0.0011,-0.0055,-0.0011,0.56,-0.19,92.75,-0.0952,-0.0463,9.6052,9.6058
1,1,2,4,2,00.695,695,-0.1100,-0.0900,9.6800,9.6810,-0.0022,-0.0065,0.0033,0.56,-0.19,92.75,-0.0972,-0.0521,9.6151,9.6157
1,1,2,4,2,00.826,826,-0.0800,-0.0700,9.6100,9.6106,0.0022,-0.0033,0.0011,0.56,-0.19,92.75,-0.0949,-0.0544,9.6144,9.6150
1,1,2,4,2,00.956,956,-0.1000,-0.0900,9.5900,9.5909,0.0011,0.0065,0.0022,0.56,-0.19,92.75,-0.0956,-0.0591,9.6112,9.6119
1,1,2,4,2,01.090,1090,-0.1400,-0.0300,9.8000,9.8010,-0.0044,0.0153,0.0055,0.56,-0.19,92.75,-0.1014,-0.0553,9.6361,9.6368
1,1,2,4,2,01.223,1223,-0.0500,-0.1100,11.1600,11.1607,0.0011,0.0273,0.0055,0.50,-0.13,92.75,-0.0947,-0.0625,9.8369,9.8375
1,1,2,4,2,01.354,1354,-0.1900,-0.1100,11.3400,11.3421,0.0098,0.0131,0.0055,0.56,-0.19,92.75,-0.1072,-0.0687,10.0350,10.0358
1,1,2,4,2,01.484,1484,-0.2700,-0.1000,11.8700,11.8735,0.0240,0.0469,-0.0164,0.56,-0.19,92.75,-0.1287,-0.0729,10.2768,10.2778
1,1,2,4,2,01.657,1657,0.0500,-0.1500,9.6100,9.6113,-0.0436,-0.0589,0.0229,0.69,-0.25,92.75,-0.1051,-0.0830,10.1889,10.1898
1,1,2,4,2,01.788,1788,0.0900,0.0200,9.5300,9.5304,-0.0240,0.0687,0.0022,0.69,-0.25,92.88,-0.0794,-0.0695,10.1021,10.1026
1,1,2,4,2,01.918,1918,-0.3300,-0.2700,10.1000,10.1090,-0.0131,0.0284,0.0044,0.75,-0.25,92.88,-0.1124,-0.0959,10.1018,10.1029
1,1,2,4,2,02.050,2050,-0.4900,-0.1100,7.3500,7.3671,0.0087,-0.0011,0.0218,0.69,-0.25,92.81,-0.1622,-0.0977,9.7392,9.7410
1,1,2,4,2,02.181,2181,0.1100,0.1100,6.0800,6.0820,-0.0142,0.0644,0.0120,0.56,-0.19,92.88,-0.1263,-0.0704,9.2570,9.2581
1,1,2,4,2,02.316,2316,0.0700,0.0400,8.2000,8.2004,0.0185,0.0731,-0.0022,0.75,-0.19,92.88,-0.1004,-0.0558,9.1177,9.1184
1,1,2,4,2,02.447,2447,0.0000,-0.1100,9.6400,9.6406,0.0098,-0.0229,-0.0098,0.81,-0.19,92.88,-0.0872,-0.0630,9.1865,9.1872
1,1,2,4,2,02.578,2578,-0.2200,-0.1000,8.7800,8.7833,0.0000,0.0218,0.0098,0.81,-0.19,92.88,-0.1047,-0.0678,9.1330,9.1338
1,1,2,4,2,02.750,2750,-0.4400,0.0000,7.1500,7.1635,0.0022,0.0273,-0.0098,0.69,-0.19,92.88,-0.1489,-0.0589,8.8717,8.8731
1,1,2,4,2,02.881,2881,0.0800,-0.1600,6.7700,6.7724,-0.0142,-0.0087,0.0044,0.69,-0.19,92.88,-0.1187,-0.0722,8.5947,8.5958
1,1,2,4,2,03.011,3011,0.2400,-0.0300,9.9500,9.9529,0.0065,-0.1287,-0.0251,0.63,-0.13,92.88,-0.0715,-0.0667,8.7733,8.7739
1,1,2,4,2,03.142,3142,0.0300,-0.0300,11.4000,11.4001,0.0316,-0.0535,-0.0022,0.63,-0.13,92.75,-0.0581,-0.0618,9.1194,9.1198
1,1,2,4,2,03.272,3272,0.3700,-0.2700,13.1900,13.1980,0.0796,-0.0404,0.0185,0.44,-0.19,92.88,-0.0017,-0.0893,9.6558,9.6562
1,1,2,4,2,03.404,3404,-0.1600,-0.4700,11.3100,11.3209,0.0458,0.0480,-0.0076,0.75,-0.19,92.75,-0.0225,-0.1394,9.8738,9.8748
1,2,2,4,2,03.534,3534,0.1200,-0.2500,9.2100,9.2142,0.0055,-0.0065,0.0076,0.56,-0.25,92.88,-0.0038,-0.1540,9.7863,9.7876
1,2,2,4,2,03.665,3665,-0.1200,-0.1000,9.8300,9.8312,-0.0011,-0.0229,0.0338,0.63,-0.06,92.81,-0.0191,-0.1469,9.7921,9.7932
1,2,2,4,2,03.838,3838,-0.3400,-0.0800,9.7700,9.7762,0.0142,-0.0196,-0.0065,0.56,-0.06,92.88,-0.0614,-0.1381,9.7892,9.7903
1,2,2,4,2,03.971,3971,0.2100,-0.0600,9.6200,9.6225,-0.0044,0.0218,0.0044,0.50,-0.06,92.88,-0.0256,-0.1278,9.7669,9.7678
1,2,2,4,2,04.102,4102,-0.1100,-0.0200,10.2800,10.2806,0.0131,0.0240,0.0011,0.50,-0.06,92.88,-0.0367,-0.1136,9.8345,9.8352
1,2,2,4,2,04.233,4233,-0.4400,-0.0300,11.9000,11.9082,-0.0033,-0.0393,-0.0164,0.63,0.00,92.81,-0.0899,-0.1026,10.1067,10.1076
1,2,2,4,2,04.363,4363,-0.3200,-0.2000,11.1600,11.1664,0.0065,0.0207,-0.0175,0.63,-0.13,92.88,-0.1202,-0.1154,10.2455,10.2468
1,2,2,4,2,04.493,4493,-0.1300,-0.1100,10.7600,10.7613,0.0360,0.0316,-0.0262,0.50,-0.19,92.81,-0.1215,-0.1147,10.3133,10.3146
1,2,2,4,2,04.624,4624,-0.2500,-0.2200,10.4300,10.4353,0.0611,-0.0153,0.0055,0.50,-0.19,92.75,-0.1384,-0.1286,10.3287,10.3304
1,2,2,4,2,04.754,4754,-0.0400,-0.2100,8.8100,8.8126,0.0404,0.0404,-0.0033,0.75,-0.19,92.81,-0.1255,-0.1393,10.1285,10.1303
1,2,2,4,2,04.927,4927,0.2100,0.0800,8.0900,8.0931,-0.0065,0.1080,-0.0164,0.69,-0.06,92.88,-0.0812,-0.1104,9.8599,9.8609
1,2,2,4,2,05.058,5058,-0.1200,0.0500,8.4100,8.4110,0.0044,-0.0153,-0.0175,0.69,-0.13,92.88,-0.0864,-0.0893,9.6689,9.6697
1,2,2,4,2,05.189,5189,0.3400,-0.2000,9.0100,9.0186,0.0087,-0.1004,-0.0207,0.56,-0.19,92.88,-0.0302,-0.1039,9.5820,9.5826
1,2,2,4,2,05.320,5320,0.1000,0.0000,9.3000,9.3005,-0.0338,0.0371,-0.0175,0.63,0.00,92.88,-0.0130,-0.0902,9.5449,9.5453
1,2,2,4,2,05.451,5451,0.1100,0.1800,8.7200,8.7226,0.0175,0.0305,0.0044,0.75,0.00,92.94,0.0032,-0.0546,9.4362,9.4363
1,2,2,4,2,05.586,5586,0.0600,-0.2100,8.0500,8.0530,0.0164,-0.0098,-0.0011,0.69,-0.13,92.94,0.0107,-0.0751,9.2535,9.2538
1,2,2,4,2,05.717,5717,-0.2300,-0.1100,9.1600,9.1635,-0.0098,0.0382,0.0120,0.81,-0.06,92.94,-0.0210,-0.0797,9.2412,9.2416
1,2,2,4,2,05.847,5847,-0.3200,0.1300,6.5200,6.5291,-0.0207,0.0622,0.0185,0.69,-0.06,92.94,-0.0604,-0.0520,8.8826,8.8830
1,2,2,4,2,06.020,6020,-0.0400,-0.2100,6.6000,6.6035,0.0087,0.0185,-0.0076,0.69,-0.13,92.88,-0.0577,-0.0728,8.5818,8.5823
1,2,2,4,2,06.151,6151,0.6000,-0.0900,8.9900,9.0104,0.0327,-0.0382,-0.0164,0.63,-0.19,92.94,0.0289,-0.0751,8.6356,8.6360
1,2,2,4,2,06.281,6281,-0.4600,-0.3200,11.6400,11.6535,0.0447,-0.0905,0.0404,0.63,-0.06,92.88,-0.0355,-0.1074,9.0315,9.0322
1,2,2,4,2,06.412,6412,-0.2400,0.0600,13.2500,13.2523,-0.0098,-0.0382,0.0109,0.50,0.00,92.88,-0.0624,-0.0853,9.5874,9.5880
1,2,2,4,2,06.543,6543,0.0600,-0.1100,11.6400,11.6407,-0.0142,-0.0055,-0.0011,0.63,0.00,92.88,-0.0463,-0.0886,9.8579,9.8584
1,2,2,4,2,06.679,6679,-0.0400,0.0500,10.5400,10.5402,0.0164,0.0055,0.0033,0.56,0.00,92.94,-0.0455,-0.0703,9.9478,9.9481
1,3,2,4,2,06.810,6810,-0.1700,-0.1800,9.3000,9.3033,-0.0011,0.0076,0.0120,0.69,0.00,92.94,-0.0619,-0.0848,9.8624,9.8630
1,3,2,4,2,06.941,6941,0.1500,-0.0600,9.8500,9.8513,-0.0087,-0.0131,0.0175,0.63,0.00,92.94,-0.0340,-0.0815,9.8608,9.8612
1,3,2,4,2,07.114,7114,-0.0900,-0.0400,10.4400,10.4405,-0.0098,-0.0229,0.0065,0.56,-0.06,92.94,-0.0413,-0.0760,9.9371,9.9375
1,3,2,4,2,07.245,7245,0.0100,-0.0600,10.3000,10.3002,-0.0044,0.0305,-0.0164,0.69,-0.06,92.88,-0.0346,-0.0739,9.9849,9.9853
1,3,2,4,2,07.375,7375,-0.0400,-0.0200,10.8300,10.8301,0.0055,0.0142,0.0251,0.50,-0.13,93.00,-0.0353,-0.0668,10.0963,10.0966
1,3,2,4,2,07.506,7506,-0.2200,0.0700,10.6100,10.6125,-0.0044,-0.0153,0.0185,0.69,-0.13,92.94,-0.0596,-0.0488,10.1640,10.1643
1,3,2,4,2,07.640,7640,-0.2300,-0.0500,10.4100,10.4127,-0.0578,-0.0120,-0.0131,0.63,-0.13,92.88,-0.0821,-0.0489,10.1964,10.1968
1,3,2,4,2,07.773,7773,-0.1700,-0.0700,10.4200,10.4216,-0.0207,0.0349,-0.0055,0.63,-0.25,92.94,-0.0937,-0.0517,10.2259,10.2264
1,3,2,4,2,07.904,7904,-0.0800,-0.1700,9.9200,9.9218,0.0087,0.0425,0.0087,0.81,-0.25,92.94,-0.0919,-0.0673,10.1856,10.1862
1,3,2,4,2,08.034,8034,0.1600,-0.0800,9.0400,9.0418,-0.0065,-0.0338,0.0044,0.69,-0.19,93.00,-0.0587,-0.0690,10.0346,10.0350
1,3,2,4,2,08.207,8207,-0.9900,-0.1400,8.8100,8.8666,0.0382,0.0535,0.0185,0.75,-0.13,93.00,-0.1814,-0.0783,9.8732,9.8752
1,3,2,4,2,08.337,8337,0.0800,0.3500,7.8000,7.8083,0.1134,0.0884,0.0404,0.69,-0.06,93.06,-0.1470,-0.0219,9.6000,9.6012
1,3,2,4,2,08.468,8468,0.3700,0.2500,6.7500,6.7648,0.0262,-0.0120,0.0305,0.69,0.00,93.13,-0.0788,0.0139,9.2245,9.2248
1,3,2,4,2,08.599,8599,-0.3400,0.1300,7.8500,7.8584,-0.0098,-0.0665,0.0109,0.75,-0.13,93.00,-0.1133,0.0292,9.0433,9.0441
1,3,2,4,2,08.729,8729,-0.0600,0.0400,8.6800,8.6803,-0.0120,-0.0338,0.0022,0.81,-0.13,93.00,-0.1062,0.0306,8.9955,8.9961
1,3,2,4,2,08.860,8860,0.2100,-0.0300,8.6100,8.6126,0.0011,0.0415,0.0000,0.69,-0.13,93.00,-0.0646,0.0227,8.9447,8.9449
1,3,2,4,2,08.993,8993,-0.7600,0.1100,8.7100,8.7438,-0.0284,-0.0644,0.0022,0.75,-0.13,93.00,-0.1562,0.0342,8.9138,8.9152
1,3,2,4,2,09.127,9127,0.2100,-0.1700,8.8200,8.8241,-0.0065,-0.0436,0.0011,0.81,-0.06,93.00,-0.1079,0.0073,8.9014,8.9021
1,3,2,4,2,09.299,9299,-0.0600,-0.1400,9.8100,9.8112,0.0000,0.0164,-0.0044,0.75,-0.06,92.94,-0.1016,-0.0121,9.0211,9.0217
1,3,2,4,2,09.429,9429,-0.5400,-0.0100,10.0100,10.0246,0.0120,0.0349,0.0022,0.69,-0.19,92.94,-0.1594,-0.0119,9.1514,9.1528
1,3,2,4,2,09.559,9559,0.4900,-0.2200,11.5700,11.5825,-0.0295,0.0164,0.0087,0.56,-0.19,93.00,-0.0738,-0.0393,9.4701,9.4705
1,3,2,4,2,09.689,9689,-0.9300,-0.0500,11.7300,11.7669,-0.0709,-0.0818,0.0098,0.75,-0.06,92.94,-0.1866,-0.0407,9.7679,9.7698
1,3,2,4,2,09.819,9819,-0.0700,-0.2600,11.2100,11.2132,0.0109,-0.0185,-0.0109,0.69,-0.13,93.00,-0.1713,-0.0696,9.9580,9.9597
1,4,2,4,2,09.950,9950,-0.1800,-0.0900,9.2400,9.2422,0.0240,-0.0011,0.0109,0.63,-0.06,93.00,-0.1724,-0.0723,9.8634,9.8651
1,4,2,4,2,10.080,10080,-0.0100,-0.0500,9.3700,9.3701,-0.0033,-0.0076,0.0011,0.63,-0.06,93.00,-0.1510,-0.0693,9.7983,9.7997
1,4,2,4,2,10.211,10211,-0.0600,-0.0700,9.8200,9.8204,-0.0022,0.0065,-0.0076,0.69,-0.06,93.00,-0.1390,-0.0694,9.8012,9.8024
1,4,2,4,2,10.383,10383,-0.1300,-0.1200,10.4300,10.4315,0.0000,-0.0033,0.0022,0.63,-0.13,93.00,-0.1378,-0.0761,9.8841,9.8853
1,4,2,4,2,10.514,10514,0.1100,-0.1500,11.6400,11.6415,0.0098,-0.0164,0.0044,0.63,-0.06,93.00,-0.1052,-0.0858,10.1154,10.1164
1,4,2,4,2,10.646,10646,0.0200,-0.1600,11.0500,11.0512,0.0273,0.0098,0.0065,0.69,-0.13,93.00,-0.0887,-0.0956,10.2386,10.2394
1,4,2,4,2,10.781,10781,0.1400,-0.2300,9.6600,9.6638,-0.0098,-0.0578,-0.0033,0.63,-0.25,93.00,-0.0585,-0.1133,10.1624,10.1632
1,4,2,4,2,10.912,10912,0.3600,-0.1300,8.7200,8.7284,0.0382,-0.0665,0.0545,0.63,-0.31,93.00,-0.0034,-0.1155,9.9723,9.9730
1,4,2,4,2,11.043,11043,0.0900,0.0000,8.8900,8.8905,0.0076,-0.0927,0.0098,0.75,-0.13,93.00,0.0089,-0.1003,9.8297,9.8302
1,4,2,4,2,11.173,11173,-0.1900,-0.1000,9.5900,9.5924,-0.0469,-0.0764,-0.0360,0.88,-0.13,93.06,-0.0173,-0.1003,9.7981,9.7986
1,4,2,4,2,11.304,11304,-0.3300,0.0000,9.2700,9.2759,-0.0142,0.0589,-0.0055,0.81,-0.19,93.13,-0.0585,-0.0870,9.7285,9.7291
1,4,2,4,2,11.477,11477,0.4000,-0.2300,9.4300,9.4413,-0.0033,0.0262,-0.0109,0.81,-0.19,93.06,0.0019,-0.1059,9.6892,9.6897
1,4,2,4,2,11.608,11608,-0.0900,0.1600,8.7100,8.7119,-0.0229,0.0120,0.0000,0.88,-0.13,93.06,-0.0102,-0.0708,9.5601,9.5604
1,4,2,4,2,11.740,11740,0.4300,0.0000,8.2200,8.2312,0.0251,0.0044,0.0011,0.81,-0.13,93.13,0.0478,-0.0615,9.3835,9.3839
1,4,2,4,2,11.871,11871,-0.1100,-0.2300,8.4300,8.4339,0.0120,-0.0447,-0.0076,0.94,-0.19,93.13,0.0270,-0.0837,9.2579,9.2583
1,4,2,4,2,12.005,12005,-0.0600,0.0000,6.7800,6.7803,-0.0175,-0.0436,-0.0087,0.94,-0.19,93.06,0.0155,-0.0727,8.9314,8.9317
1,4,2,4,2,12.136,12136,0.0900,0.1200,4.6700,4.6724,0.0185,-0.0044,0.0207,0.81,-0.25,93.06,0.0254,-0.0473,8.3698,8.3700
1,4,2,4,2,12.266,12266,-0.1500,-0.1700,6.9200,6.9237,0.0556,0.0305,0.0142,0.88,-0.19,93.13,0.0023,-0.0635,8.1788,8.1790
1,4,2,4,2,12.397,12397,-0.1500,0.6500,13.2600,13.2768,0.0491,0.0654,0.0491,0.75,-0.06,93.00,-0.0178,0.0306,8.8484,8.8484
1,4,2,4,2,12.570,12570,0.0400,-0.1200,13.8100,13.8106,0.0731,-0.0185,0.0785,0.81,-0.06,93.13,-0.0102,0.0107,9.5022,9.5022
1,4,2,4,2,12.700,12700,-0.4600,0.3900,13.0500,13.0639,-0.0305,-0.1124,0.0076,0.94,-0.06,93.06,-0.0695,0.0607,9.9697,9.9701
1,5,2,4,2,12.831,12831,-0.5400,0.4500,8.6200,8.6486,0.0262,0.0393,-0.0175,0.75,-0.13,93.13,-0.1315,0.1120,9.7918,9.7934
1,5,2,4,2,12.962,12962,-0.0100,0.0100,10.0100,10.0100,-0.0818,-0.0131,-0.0349,0.88,-0.13,93.13,-0.1155,0.0986,9.8206,9.8218
1,5,2,4,2,13.092,13092,-0.1600,-0.2000,9.5500,9.5534,0.0022,0.0644,-0.0164,0.81,-0.13,93.13,-0.1213,0.0592,9.7849,9.7859
1,5,2,4,2,13.228,13228,-0.0900,-0.1100,10.0600,10.0610,0.0044,-0.0011,0.0065,0.81,-0.13,93.13,-0.1172,0.0369,9.8212,9.8219
1,5,2,4,2,13.360,13360,-0.1100,-0.1600,11.0100,11.0117,-0.0011,-0.0011,-0.0011,0.75,-0.13,93.19,-0.1163,0.0110,9.9778,9.9785
1,5,2,4,2,13.490,13490,-0.1700,-0.1400,11.2000,11.2022,0.0295,0.0065,-0.0044,0.75,-0.06,93.13,-0.1233,-0.0089,10.1389,10.1396
1,5,2,4,2,13.663,13663,0.1700,0.0300,10.2900,10.2914,-0.0175,0.0098,0.0065,0.69,-0.13,93.19,-0.0847,-0.0038,10.1588,10.1591
1,5,2,4,2,13.793,13793,-0.2900,-0.2200,10.1300,10.1365,-0.0327,-0.0153,-0.0065,0.69,-0.13,93.13,-0.1117,-0.0323,10.1550,10.1557
1,5,2,4,2,13.924,13924,0.0400,-0.1600,9.7000,9.7014,0.0240,0.0076,0.0098,0.81,-0.19,93.13,-0.0917,-0.0491,10.0950,10.0956
1,5,2,4,2,14.054,14054,-0.2400,-0.0600,9.2800,9.2833,-0.0338,0.0556,-0.0022,0.94,-0.19,93.19,-0.1113,-0.0506,9.9876,9.9884
1,5,2,4,2,14.185,14185,0.2300,-0.1900,8.5300,8.5352,0.0011,0.0065,0.0055,0.94,-0.19,93.25,-0.0663,-0.0689,9.7956,9.7960
1,5,2,4,2,14.316,14316,0.0500,-0.1900,9.0100,9.0121,0.0011,-0.0469,-0.0044,0.94,-0.19,93.25,-0.0510,-0.0849,9.6920,9.6925
1,5,2,4,2,14.448,14448,-0.5600,0.1500,9.1600,9.1783,-0.0894,0.0295,0.0164,0.88,-0.06,93.25,-0.1181,-0.0539,9.6219,9.6228
1,5,2,4,2,14.578,14578,0.0500,0.6400,8.8700,8.8932,-0.0480,0.0578,0.0295,0.81,0.00,93.25,-0.0959,0.0375,9.5228,9.5234
1,5,2,4,2,14.753,14753,-0.4200,-0.1900,9.6400,9.6510,-0.0076,-0.0153,-0.0185,0.94,-0.06,93.25,-0.1386,0.0075,9.5383,9.5393
1,5,2,4,2,14.884,14884,-0.1200,0.1700,9.2000,9.2024,-0.0240,0.0022,0.0022,1.00,-0.06,93.25,-0.1362,0.0289,9.4937,9.4947
1,5,2,4,2,15.015,15015,-0.0400,-0.2100,8.2700,8.2728,0.0033,0.0196,0.0087,0.94,-0.06,93.31,-0.1235,-0.0025,9.3325,9.3333
1,5,2,4,2,15.145,15145,-0.0600,0.0900,6.5300,6.5309,0.0153,-0.0164,-0.0055,0.88,-0.13,93.31,-0.1151,0.0097,8.9632,8.9639
1,5,2,4,2,15.275,15275,-0.1100,-0.1100,5.9600,5.9620,0.0022,-0.0011,-0.0033,0.88,-0.13,93.31,-0.1145,-0.0061,8.5674,8.5682
1,5,2,4,2,15.406,15406,-0.2600,0.2400,7.9700,7.9779,0.0142,-0.0055,0.0011,0.88,-0.06,93.31,-0.1336,0.0263,8.4887,8.4898
1,5,2,4,2,15.536,15536,-0.0100,-0.0800,11.3000,11.3003,-0.0502,0.0993,0.0109,0.88,-0.13,93.13,-0.1173,0.0123,8.8592,8.8599
1,5,2,4,2,15.667,15667,-0.5000,-0.0900,13.1000,13.1098,-0.0393,0.0044,0.0098,0.81,-0.13,93.19,-0.1678,-0.0012,9.4180,9.4195
1,5,2,4,2,15.839,15839,-0.0700,0.1500,12.5900,12.5911,0.0087,-0.0851,0.0164,0.81,0.00,93.19,-0.1549,0.0187,9.8360,9.8372
1,5,2,4,2,15.970,15970,-0.7800,-0.0700,10.8100,10.8383,-0.0098,-0.0927,-0.0491,0.88,-0.19,93.25,-0.2373,0.0071,9.9643,9.9672
1,6,2,4,2,16.100,16100,-0.1100,-0.1300,9.7300,9.7315,0.0218,-0.0185,-0.0327,0.81,-0.13,93.25,-0.2205,-0.0110,9.9335,9.9359
1,6,2,4,2,16.231,16231,-0.1500,0.0000,9.5600,9.5612,0.0207,0.0033,-0.0120,0.75,-0.13,93.25,-0.2112,-0.0096,9.8842,9.8865
1,6,2,4,2,16.363,16363,-0.0800,-0.1300,9.8500,9.8512,0.0076,0.0011,0.0076,0.75,-0.06,93.25,-0.1939,-0.0254,9.8797,9.8817
1,6,2,4,2,16.498,16498,0.0600,-0.0500,10.7200,10.7203,-0.0360,0.0142,-0.0076,0.75,-0.19,93.25,-0.1605,-0.0287,9.9905,9.9918
1,6,2,4,2,16.628,16628,-0.2800,-0.2100,11.0800,11.0855,0.0142,0.0175,0.0175,0.81,-0.19,93.25,-0.1762,-0.0526,10.1340,10.1357
1,6,2,4,2,16.759,16759,0.0000,-0.1200,10.2900,10.2907,-0.0349,-0.0295,-0.0109,0.75,-0.19,93.25,-0.1530,-0.0614,10.1546,10.1559
1,6,2,4,2,16.932,16932,-0.3900,-0.0500,9.4600,9.4682,-0.0600,-0.0065,-0.0044,0.69,-0.19,93.25,-0.1842,-0.0599,10.0631,10.0649
1,6,2,4,2,17.062,17062,-0.2000,0.1100,9.3000,9.3028,0.0033,0.0785,0.0011,0.63,-0.19,93.19,-0.1863,-0.0375,9.9625,9.9643
1,6,2,4,2,17.192,17192,0.1900,0.1100,9.6200,9.6225,-0.0131,0.0327,-0.0153,0.81,-0.19,93.25,-0.1367,-0.0181,9.9174,9.9183
1,6,2,4,2,17.322,17322,-0.0800,0.1200,9.8300,9.8311,-0.0262,-0.0447,0.0207,0.94,-0.25,93.31,-0.1292,0.0001,9.9059,9.9067
1,6,2,4,2,17.452,17452,-0.4100,-0.0200,10.1800,10.1883,-0.0305,-0.0120,0.0175,0.94,-0.19,93.31,-0.1662,-0.0026,9.9420,9.9434
1,6,2,4,2,17.582,17582,-0.2700,0.1600,9.9100,9.9150,-0.0153,0.0153,0.0022,0.94,-0.19,93.31,-0.1799,0.0189,9.9378,9.9394
1,6,2,4,2,17.712,17712,0.1300,-0.0900,8.9000,8.9014,0.0469,0.0295,-0.0011,0.81,-0.31,93.31,-0.1391,0.0045,9.8010,9.8020
1,6,2,4,2,17.843,17843,-0.7800,-0.8600,8.7900,8.8663,0.0349,-0.1407,-0.0142,0.94,-0.25,93.38,-0.2235,-0.1094,9.6678,9.6710
1,6,2,4,2,18.016,18016,0.1600,0.0300,8.2200,8.2216,-0.0011,0.0971,0.0295,0.88,-0.06,93.44,-0.1730,-0.0910,9.4770,9.4790
1,6,2,4,2,18.150,18150,-0.1800,-0.3800,7.5900,7.6016,0.0676,-0.0196,0.0164,0.94,-0.13,93.44,-0.1739,-0.1291,9.2283,9.2309
1,6,2,4,2,18.281,18281,-0.2900,0.0300,7.9000,7.9054,0.0196,-0.0654,0.0011,0.81,-0.13,93.44,-0.1892,-0.1081,9.0533,9.0559
1,6,2,4,2,18.414,18414,-0.0300,-0.0500,8.1700,8.1702,0.0076,-0.0360,0.0033,0.94,-0.13,93.38,-0.1682,-0.1005,8.9369,8.9391
1,6,2,4,2,18.545,18545,0.1300,0.0000,7.7000,7.7011,-0.0273,-0.0196,0.0164,0.88,-0.13,93.38,-0.1289,-0.0872,8.7739,8.7753
1,6,2,4,2,18.675,18675,-0.5900,0.3600,8.0000,8.0298,-0.0164,-0.1014,0.0000,1.00,-0.06,93.38,-0.1897,-0.0283,8.6719,8.6741
1,6,2,4,2,18.806,18806,-0.0400,-0.3100,10.5300,10.5346,-0.0916,-0.0295,-0.0153,0.88,-0.31,93.38,-0.1700,-0.0654,8.9168,8.9186
1,6,2,4,2,18.936,18936,-0.3500,-0.4000,12.3900,12.4014,0.0382,0.0142,0.0524,0.88,-0.13,93.38,-0.1937,-0.1095,9.3745,9.3771
1,6,2,4,2,19.109,19109,-0.3600,0.0200,12.2000,12.2053,0.0338,-0.0644,0.0491,0.81,-0.13,93.44,-0.2156,-0.0924,9.7468,9.7496
1,6,2,4,2,19.240,19240,0.3000,-0.2400,10.3500,10.3571,0.0654,-0.0251,0.0644,0.81,-0.13,93.38,-0.1477,-0.1119,9.8263,9.8280
1,6,2,4,2,19.370,19370,-0.1700,0.4400,9.3900,9.4018,-0.0524,-0.0131,-0.0055,0.75,-0.13,93.38,-0.1506,-0.0392,9.7688,9.7700
1,6,2,4,2,19.503,19503,-0.0300,0.1000,9.9500,9.9505,-0.0196,0.0000,-0.0142,0.88,-0.13,93.38,-0.1347,-0.0208,9.7927,9.7936
1,6,2,4,2,19.634,19634,-0.2700,-0.2200,10.4900,10.4958,0.0240,-0.0349,-0.0055,0.69,-0.25,93.44,-0.1525,-0.0471,9.8846,9.8858
1,6,2,4,2,19.768,19768,-0.2500,-0.1400,10.8100,10.8138,0.0087,-0.0087,0.0305,0.88,-0.13,93.44,-0.1654,-0.0593,10.0065,10.0081
1,6,2,4,2,19.898,19898,-0.1500,-0.0900,10.5800,10.5814,0.0567,0.0196,0.0076,0.69,-0.19,93.50,-0.1634,-0.0634,10.0821,10.0836
1,6,2,4,2,20.029,20029,0.0300,0.0800,10.1300,10.1304,-0.0033,0.0262,-0.0120,0.69,-0.06,93.38,-0.1379,-0.0445,10.0884,10.0894
1,7,2,4,2,20.202,20202,-0.1700,0.0300,9.7900,9.7915,0.0382,-0.0153,0.0022,0.69,-0.13,93.38,-0.1421,-0.0347,10.0491,10.0501
1,7,2,4,2,20.333,20333,-0.3400,0.0300,9.6200,9.6261,0.0011,-0.0393,-0.0120,0.88,-0.13,93.44,-0.1682,-0.0261,9.9925,9.9940
1,7,2,4,2,20.463,20463,0.0300,-0.1600,9.3200,9.3214,0.0164,0.0262,0.0065,0.88,-0.25,93.44,-0.1421,-0.0438,9.9039,9.9050
1,7,2,4,2,20.594,20594,-0.3300,-0.0300,9.2300,9.2359,-0.0044,-0.0098,-0.0033,0.94,-0.19,93.44,-0.1668,-0.0420,9.8151,9.8166
1,7,2,4,2,20.730,20730,-0.2900,-0.1100,9.3800,9.3851,-0.0240,0.0349,0.0011,0.88,-0.19,93.44,-0.1831,-0.0509,9.7578,9.7596
1,7,2,4,2,20.862,20862,0.2200,-0.0100,9.4700,9.4726,0.0131,-0.0491,-0.0087,0.81,-0.25,93.44,-0.1300,-0.0455,9.7198,9.7208
1,7,2,4,2,20.992,20992,0.0000,0.1800,9.1300,9.1318,-0.0829,0.0207,0.0000,0.81,-0.19,93.44,-0.1128,-0.0158,9.6421,9.6428
1,7,2,4,2,21.122,21122,-0.3500,0.1900,8.6700,8.6791,-0.0295,0.0305,0.0295,0.94,-0.13,93.50,-0.1441,0.0113,9.5140,9.5151
1,7,2,4,2,21.295,21295,-0.2200,0.0000,8.2700,8.2729,-0.0055,0.0404,-0.0273,0.94,-0.13,93.50,-0.1541,0.0098,9.3501,9.3514
1,7,2,4,2,21.425,21425,-0.1400,0.1700,8.3600,8.3629,0.0251,0.0535,-0.0044,0.88,-0.06,93.50,-0.1522,0.0309,9.2196,9.2209
1,7,2,4,2,21.555,21555,0.1000,-0.2100,8.1900,8.1933,0.0513,0.0349,-0.0120,0.81,-0.13,93.50,-0.1190,-0.0008,9.0839,9.0847
1,7,2,4,2,21.685,21685,0.0200,-0.0900,7.8200,7.8205,0.0076,-0.0033,-0.0131,0.81,-0.19,93.56,-0.1007,-0.0126,8.9174,8.9180
1,7,2,4,2,21.815,21815,-0.1200,-0.0600,7.1200,7.1213,-0.0087,-0.0065,-0.0087,0.81,-0.19,93.56,-0.1032,-0.0188,8.6805,8.6812
1,7,2,4,2,21.945,21945,0.1800,-0.1800,9.1600,9.1635,0.0229,0.0393,-0.0447,0.94,-0.19,93.50,-0.0659,-0.0401,8.7437,8.7441
1,7,2,4,2,22.075,22075,-0.3600,-0.2600,12.0700,12.0782,0.0033,0.0469,0.0196,0.75,-0.19,93.50,-0.1047,-0.0690,9.1820,9.1829
1,7,2,4,2,22.206,22206,-0.1100,-0.2200,11.7900,11.7926,-0.0600,0.0480,-0.0164,0.75,-0.19,93.44,-0.1054,-0.0889,9.5257,9.5267
1,7,2,4,2,22.379,22379,-0.1900,-0.1900,12.3500,12.3529,-0.1004,0.0022,-0.0196,0.69,-0.13,93.50,-0.1165,-0.1023,9.8979,9.8991
1,7,2,4,2,22.513,22513,-0.1800,-0.1100,10.8500,10.8521,-0.0185,0.0436,-0.0011,0.81,-0.19,93.50,-0.1249,-0.1033,10.0233,10.0246
1,8,2,4,2,22.644,22644,-0.1000,-0.0600,9.3900,9.3907,-0.0240,-0.0185,0.0087,0.75,-0.19,93.50,-0.1216,-0.0976,9.9399,9.9411
1,8,2,4,2,22.777,22777,-0.1300,-0.0900,9.6300,9.6313,-0.0022,-0.0055,-0.0044,0.75,-0.13,93.50,-0.1227,-0.0966,9.8990,9.9003
1,8,2,4,2,22.908,22908,-0.0700,-0.1100,10.2300,10.2308,-0.0011,-0.0109,-0.0033,0.75,-0.19,93.50,-0.1158,-0.0983,9.9427,9.9438
1,8,2,4,2,23.039,23039,-0.0300,-0.1300,11.4300,11.4308,0.0109,-0.0327,0.0011,0.75,-0.13,93.56,-0.1045,-0.1025,10.1387,10.1397
1,8,2,4,2,23.169,23169,-0.1300,-0.0100,10.8100,10.8108,0.0327,0.0360,-0.0076,0.75,-0.13,93.56,-0.1078,-0.0903,10.2271,10.2281
1,8,2,4,2,23.299,23299,-0.2900,-0.2200,10.3100,10.3164,-0.0415,-0.0153,-0.0338,0.75,-0.25,93.56,-0.1318,-0.1074,10.2380,10.2395
1,8,2,4,2,23.472,23472,-0.1000,-0.0700,9.5600,9.5608,-0.0142,-0.0371,0.0044,0.69,-0.19,93.56,-0.1276,-0.1025,10.1487,10.1500
1,8,2,4,2,23.603,23603,-0.0900,-0.1800,9.7300,9.7321,-0.0229,-0.0360,0.0076,0.88,-0.19,93.56,-0.1227,-0.1127,10.0935,10.0949
1,8,2,4,2,23.733,23733,-0.1000,-0.0400,9.6200,9.6206,-0.0055,0.0382,-0.0011,1.00,-0.19,93.63,-0.1197,-0.1031,10.0311,10.0324
1,8,2,4,2,23.866,23866,-0.8400,-0.1100,9.6600,9.6971,-0.0033,-0.0142,-0.0207,1.00,-0.19,93.69,-0.2146,-0.1040,9.9822,9.9851
1,8,2,4,2,23.997,23997,0.2900,-0.3300,8.7200,8.7311,-0.0229,0.0840,-0.0120,0.88,-0.19,93.63,-0.1481,-0.1338,9.8159,9.8179
1,8,2,4,2,24.131,24131,0.3200,0.1100,9.0200,9.0263,0.0109,0.0327,-0.0011,0.75,-0.06,93.69,-0.0864,-0.1017,9.7110,9.7119
1,8,2,4,2,24.262,24262,0.0000,-0.1800,8.8300,8.8318,0.0262,-0.0153,-0.0120,0.94,-0.13,93.69,-0.0750,-0.1120,9.5949,9.5959
1,8,2,4,2,24.393,24393,-0.3400,0.1800,7.2700,7.2802,-0.0436,-0.0644,0.0033,1.06,-0.13,93.69,-0.1100,-0.0735,9.2886,9.2895
1,8,2,4,2,24.565,24565,0.0100,0.0400,7.6600,7.6601,-0.0142,-0.0698,-0.0120,0.94,-0.13,93.69,-0.0941,-0.0586,9.0740,9.0746
1,8,2,4,2,24.696,24696,-0.1500,0.0200,7.6200,7.6215,0.0196,0.0240,-0.0098,0.88,-0.13,93.69,-0.1015,-0.0482,8.8824,8.8831
1,8,2,4,2,24.826,24826,0.1800,-0.0400,6.9100,6.9125,0.0262,-0.0349,-0.0022,0.88,-0.25,93.69,-0.0644,-0.0471,8.6225,8.6228
1,8,2,4,2,24.957,24957,0.2700,-0.1000,7.0100,7.0159,0.0447,-0.0142,0.0098,0.88,-0.25,93.69,-0.0203,-0.0541,8.4100,8.4102
1,8,2,4,2,25.087,25087,0.1900,0.0400,10.0200,10.0219,-0.0098,0.0327,0.0011,0.81,-0.06,93.56,0.0074,-0.0417,8.6221,8.6222
1,8,2,4,2,25.220,25220,0.0300,-0.1700,14.4300,14.4310,-0.0404,-0.0862,-0.0065,0.75,-0.13,93.75,0.0104,-0.0586,9.3875,9.3876
1,8,2,4,2,25.351,25351,-0.6400,0.0200,13.3600,13.3753,-0.0295,0.0764,0.0033,0.81,-0.06,93.69,-0.0753,-0.0482,9.9109,9.9113
1,8,2,4,2,25.485,25485,0.2200,-0.0500,10.1100,10.1125,0.0229,0.0175,-0.0556,0.94,-0.19,93.56,-0.0364,-0.0485,9.9372,9.9374
1,8,2,4,2,25.657,25657,-0.3200,-0.4100,10.0600,10.0734,-0.1385,-0.0873,-0.0044,0.75,-0.31,93.69,-0.0738,-0.0961,9.9534,9.9541
1,8,2,4,2,25.787,25787,-0.1600,-0.0200,9.6000,9.6014,-0.0055,0.0240,0.0404,0.75,-0.13,93.69,-0.0852,-0.0861,9.9068,9.9075
1,8,2,4,2,25.917,25917,0.0000,-0.0500,11.3100,11.3101,0.0044,-0.0098,-0.0044,0.75,-0.06,93.69,-0.0739,-0.0813,10.0917,10.0923
1,8,2,4,2,26.047,26047,-0.2900,-0.1500,11.6100,11.6146,0.0305,0.0087,-0.0142,0.81,-0.06,93.69,-0.1024,-0.0904,10.2918,10.2927
1,8,2,4,2,26.178,26178,-0.2900,-0.1900,11.1200,11.1254,-0.0120,0.0011,-0.0229,0.75,-0.19,93.69,-0.1271,-0.1035,10.4009,10.4022
1,9,2,4,2,26.308,26308,-0.1300,-0.1200,9.6900,9.6916,-0.0153,0.0164,-0.0011,0.81,-0.19,93.63,-0.1275,-0.1057,10.3072,10.3086
1,9,2,4,2,26.438,26438,0.0800,-0.1800,9.4600,9.4621,0.0251,-0.0109,0.0218,0.69,-0.13,93.63,-0.1002,-0.1155,10.1956,10.1967
1,9,2,4,2,26.569,26569,-0.8600,-0.1400,9.8700,9.9084,-0.0316,-0.1014,0.0251,0.94,-0.13,93.69,-0.2003,-0.1187,10.1527,10.1554
1,9,2,4,2,26.742,26742,-0.3800,0.0400,9.2300,9.2379,-0.0033,-0.0349,0.0087,0.94,-0.06,93.75,-0.2240,-0.0978,10.0311,10.0341
1,9,2,4,2,26.874,26874,-0.1100,-0.0500,8.6500,8.6508,0.0120,0.0185,0.0109,0.94,-0.13,93.75,-0.2090,-0.0915,9.8491,9.8517
1,9,2,4,2,27.005,27005,0.1100,-0.2300,8.7600,8.7637,0.0000,-0.0567,-0.0098,0.88,-0.13,93.75,-0.1669,-0.1097,9.7056,9.7076
1,9,2,4,2,27.140,27140,0.0000,0.0000,8.6800,8.6800,0.0185,-0.0065,-0.0153,0.94,-0.06,93.75,-0.1449,-0.0953,9.5704,9.5720
1,9,2,4,2,27.271,27271,0.0100,0.0900,6.5100,6.5106,0.0011,0.0240,-0.0011,0.88,-0.06,93.75,-0.1245,-0.0709,9.1672,9.1683
1,9,2,4,2,27.401,27401,0.0000,-0.1700,7.5800,7.5819,-0.0011,-0.0393,0.0055,1.00,-0.06,93.75,-0.1081,-0.0839,8.9580,8.9591
1,9,2,4,2,27.532,27532,0.0100,0.0000,8.0200,8.0200,-0.0120,-0.0218,0.0175,1.00,-0.06,93.75,-0.0925,-0.0729,8.8344,8.8352
1,9,2,4,2,27.662,27662,-0.1100,-0.1800,8.2100,8.2127,-0.0284,-0.0415,0.0218,0.94,-0.06,93.75,-0.0948,-0.0870,8.7521,8.7531
1,9,2,4,2,27.835,27835,-0.4300,-0.2500,8.9200,8.9339,0.0764,0.1396,-0.0338,1.00,-0.13,93.69,-0.1390,-0.1085,8.7742,8.7760
1,9,2,4,2,27.966,27966,-0.0300,-0.2500,8.6100,8.6137,-0.1014,0.1004,-0.0665,0.75,-0.19,93.69,-0.1246,-0.1271,8.7526,8.7544
1,9,2,4,2,28.097,28097,0.0900,-0.3600,14.5900,14.5947,0.0229,0.0229,0.0044,0.75,-0.06,93.75,-0.0964,-0.1578,9.5218,9.5236
1,9,2,4,2,28.233,28233,-0.3500,-0.3000,13.6600,13.6678,-0.0393,0.0207,0.0284,0.94,-0.06,93.69,-0.1298,-0.1765,10.0671,10.0695
1,10,2,4,2,28.363,28363,-0.5400,-0.2900,9.9600,9.9788,-0.0720,-0.0982,-0.0076,0.88,-0.19,93.75,-0.1838,-0.1915,10.0530,10.0565
1,10,2,4,2,28.494,28494,-0.3500,-0.1100,9.7600,9.7669,0.0611,0.0240,0.0098,0.81,-0.13,93.81,-0.2057,-0.1808,10.0144,10.0181
1,10,2,4,2,28.625,28625,-0.0300,-0.0400,9.6300,9.6301,0.0382,-0.0098,-0.0011,0.75,0.00,93.75,-0.1826,-0.1622,9.9637,9.9667
1,10,2,4,2,28.755,28755,-0.2500,-0.1700,10.3700,10.3744,-0.0022,0.0044,-0.0153,0.75,-0.06,93.75,-0.1915,-0.1632,10.0173,10.0204
1,10,2,4,2,28.928,28928,-0.2100,-0.0900,11.2600,11.2623,0.0131,-0.0142,-0.0142,0.81,-0.06,93.75,-0.1939,-0.1536,10.1810,10.1840
1,10,2,4,2,29.058,29058,-0.0400,-0.2500,10.5900,10.5930,0.0425,-0.0087,-0.0131,0.69,-0.19,93.81,-0.1736,-0.1663,10.2349,10.2378
1,10,2,4,2,29.188,29188,-0.0300,0.0100,10.0100,10.0101,0.0175,0.0044,0.0142,0.69,0.00,93.75,-0.1547,-0.1431,10.2053,10.2075
1,10,2,4,2,29.319,29319,-0.2000,-0.1200,9.6100,9.6128,-0.0633,0.0109,-0.0120,0.75,-0.06,93.69,-0.1607,-0.1400,10.1268,10.1291
1,10,2,4,2,29.449,29449,-0.4800,-0.2300,9.4400,9.4550,-0.0393,-0.0676,0.0076,0.81,-0.25,93.81,-0.2027,-0.1519,10.0363,10.0395
1,10,2,4,2,29.580,29580,0.3000,-0.1900,9.4900,9.4966,0.0240,0.1145,0.0447,0.94,-0.19,93.75,-0.1365,-0.1569,9.9643,9.9665
1,10,2,4,2,29.711,29711,0.0000,-0.2100,9.6000,9.6023,-0.0404,-0.1004,-0.0011,0.88,-0.19,93.88,-0.1185,-0.1639,9.9163,9.9184
1,10,2,4,2,29.843,29843,-0.6700,-0.1600,9.1300,9.1559,-0.0087,-0.0753,0.0033,0.94,-0.13,93.88,-0.1912,-0.1634,9.8127,9.8159
1,10,2,4,2,30.016,30016,-0.1900,0.2600,9.3000,9.3056,-0.0556,0.0022,0.0120,0.88,-0.13,93.81,-0.1910,-0.1076,9.7452,9.7476
1,10,2,4,2,30.149,30149,0.1200,-0.1300,9.4100,9.4117,0.0338,0.0131,0.0218,0.88,-0.06,93.88,-0.1500,-0.1105,9.7010,9.7028
1,10,2,4,2,30.279,30279,-0.2900,0.1200,9.1400,9.1454,-0.0360,0.0305,0.0022,0.94,-0.13,93.88,-0.1685,-0.0802,9.6271,9.6289
1,10,2,4,2,30.410,30410,-0.2600,-0.1600,7.4500,7.4563,0.0153,0.0033,0.0109,0.94,0.00,93.88,-0.1805,-0.0907,9.3402,9.3424
1,10,2,4,2,30.540,30540,-0.0100,0.1800,7.0600,7.0623,0.0142,-0.0087,-0.0033,0.88,-0.06,93.94,-0.1581,-0.0550,9.0397,9.0413
1,10,2,4,2,30.670,30670,-0.0500,0.0000,6.6100,6.6102,0.0218,0.0109,0.0022,0.94,-0.06,93.88,-0.1438,-0.0478,8.7195,8.7209
1,10,2,4,2,30.801,30801,-0.0800,-0.0300,6.8600,6.8605,-0.0273,-0.0153,0.0120,0.94,-0.13,93.88,-0.1354,-0.0454,8.4745,8.4757
1,10,2,4,2,30.931,30931,-0.3100,-0.5600,8.9300,8.9529,-0.0218,-0.1047,-0.0262,1.06,-0.19,93.88,-0.1584,-0.1132,8.5345,8.5367
1,10,2,4,2,31.104,31104,-0.2700,-0.1100,12.8700,12.8733,-0.0436,0.0218,0.0000,0.81,-0.13,93.88,-0.1731,-0.1128,9.1058,9.1082
1,10,2,4,2,31.235,31235,0.3500,-0.0100,12.8400,12.8448,-0.0055,-0.0033,0.0622,0.69,-0.06,93.94,-0.1042,-0.0993,9.5979,9.5990
1,10,2,4,2,31.366,31366,0.0700,0.0000,11.4800,11.4802,0.0229,-0.0535,0.0338,0.75,-0.06,93.88,-0.0812,-0.0862,9.8459,9.8466
1,10,2,4,2,31.497,31497,-0.4900,0.1000,8.7800,8.7942,-0.0131,-0.0262,0.0229,0.75,0.00,93.88,-0.1351,-0.0616,9.7054,9.7066
1,10,2,4,2,31.628,31628,-0.2000,0.3600,9.9000,9.9086,-0.0556,0.0273,0.0185,0.81,0.00,93.81,-0.1437,-0.0061,9.7311,9.7321
1,10,2,4,2,31.763,31763,-0.1200,-0.0100,10.5500,10.5507,-0.0175,-0.0185,-0.0076,0.75,-0.06,93.94,-0.1405,-0.0066,9.8390,9.8400
1,10,2,4,2,31.894,31894,-0.1100,-0.1200,10.8200,10.8212,0.0131,0.0022,0.0000,0.81,-0.06,93.88,-0.1365,-0.0215,9.9683,9.9692
1,10,2,4,2,32.025,32025,-0.0300,-0.0300,10.0500,10.0501,0.0295,0.0153,0.0229,0.75,-0.06,93.94,-0.1225,-0.0227,9.9790,9.9798
1,11,2,4,2,32.198,32198,-0.2500,-0.0300,9.3100,9.3134,-0.0022,-0.0098,-0.0273,0.81,-0.06,93.88,-0.1393,-0.0236,9.8909,9.8919
1,11,2,4,2,32.334,32334,0.0700,-0.1500,9.5600,9.5614,-0.0065,-0.0055,-0.0109,0.63,-0.19,93.94,-0.1117,-0.0403,9.8473,9.8480
1,11,2,4,2,32.466,32466,-0.2300,-0.1000,9.9400,9.9432,0.0076,0.0033,0.0033,0.69,-0.06,93.88,-0.1273,-0.0481,9.8595,9.8604
1,11,2,4,2,32.596,32596,-0.0300,0.0000,10.1100,10.1100,0.0175,-0.0240,0.0098,0.75,-0.06,93.81,-0.1145,-0.0418,9.8925,9.8933
1,11,2,4,2,32.726,32726,-0.2200,-0.0900,10.0700,10.0728,0.0142,-0.0393,0.0196,0.88,-0.13,93.88,-0.1284,-0.0482,9.9159,9.9168
1,11,2,4,2,32.857,32857,-0.2000,-0.0100,9.7900,9.7920,0.0164,0.0109,0.0033,0.94,-0.13,93.88,-0.1378,-0.0431,9.8993,9.9004
1,11,2,4,2,32.987,32987,-0.1100,0.0100,9.5400,9.5406,0.0262,0.0055,-0.0098,0.94,-0.13,93.94,-0.1342,-0.0361,9.8520,9.8529
1,11,2,4,2,33.118,33118,-0.1300,-0.2200,9.2800,9.2835,0.0185,-0.0295,-0.0033,0.88,-0.19,93.94,-0.1336,-0.0604,9.7766,9.7777
1,11,2,4,2,33.291,33291,-0.5300,-0.0700,9.7600,9.7746,0.0251,0.0349,0.0131,0.88,-0.13,93.94,-0.1858,-0.0616,9.7744,9.7764
1,11,2,4,2,33.422,33422,-0.4500,-0.2200,8.8500,8.8642,0.0698,0.0044,0.0065,0.94,-0.06,94.00,-0.2206,-0.0825,9.6526,9.6555
1,11,2,4,2,33.552,33552,-0.0800,-0.1500,7.4500,7.4519,0.0491,-0.0065,-0.0011,0.94,-0.13,94.06,-0.2021,-0.0914,9.3623,9.3650
1,11,2,4,2,33.683,33683,0.3500,0.0200,7.9400,7.9477,-0.0065,0.0611,-0.0142,0.81,-0.06,94.00,-0.1294,-0.0767,9.1749,9.1761
1,11,2,4,2,33.816,33816,-0.3200,0.0000,7.5400,7.5468,0.0207,-0.0196,-0.0207,1.00,-0.06,94.00,-0.1545,-0.0666,8.9595,8.9611
1,11,2,4,2,33.950,33950,-0.0700,-0.1100,7.6900,7.6911,-0.0022,-0.0295,-0.0120,0.94,-0.13,94.00,-0.1433,-0.0723,8.7922,8.7937
1,11,2,4,2,34.080,34080,-0.3300,0.2200,8.5500,8.5592,-0.0142,0.0589,0.0065,0.88,-0.06,94.00,-0.1679,-0.0338,8.7603,8.7620
1,11,2,4,2,34.211,34211,0.1100,0.1300,8.2500,8.2518,-0.0196,0.0611,-0.0175,1.00,0.00,93.88,-0.1313,-0.0122,8.6930,8.6940
1,11,2,4,2,34.384,34384,-0.2500,-0.1600,13.8200,13.8232,-0.0698,-0.0273,0.0011,0.81,-0.13,93.94,-0.1470,-0.0317,9.3686,9.3698
1,11,2,4,2,34.514,34514,-0.2200,-0.3200,13.0200,13.0258,0.0360,-0.0011,-0.0131,0.94,-0.13,93.88,-0.1566,-0.0697,9.8498,9.8513
1,11,2,4,2,34.645,34645,0.2000,-0.2400,10.9900,10.9944,0.0436,-0.0338,0.0131,0.75,-0.25,94.00,-0.1096,-0.0921,10.0000,10.0011
1,12,2,4,2,34.776,34776,-0.0900,-0.2000,9.2200,9.2226,-0.0196,0.0196,0.0676,0.88,0.00,93.94,-0.1070,-0.1063,9.8973,9.8984
1,12,2,4,2,34.906,34906,-0.0300,-0.1100,9.8600,9.8607,-0.1025,-0.0600,0.0022,0.88,-0.06,94.00,-0.0969,-0.1068,9.8923,9.8934
1,12,2,4,2,35.037,35037,-0.0700,-0.1600,9.7200,9.7216,0.0033,0.0327,0.0196,0.81,-0.06,94.00,-0.0933,-0.1138,9.8696,9.8707
1,12,2,4,2,35.169,35169,0.0900,0.3100,10.8100,10.8148,-0.0404,-0.0011,-0.0109,0.81,0.00,94.00,-0.0692,-0.0580,9.9936,9.9940
1,12,2,4,2,35.304,35304,-0.0400,-0.0600,10.8000,10.8002,-0.0131,0.0109,0.0142,0.81,0.00,94.00,-0.0653,-0.0582,10.0998,10.1002
1,12,2,4,2,35.476,35476,-0.4300,-0.1200,10.2100,10.2198,-0.0709,-0.0098,-0.0371,0.88,-0.06,94.00,-0.1134,-0.0664,10.1143,10.1152
1,12,2,4,2,35.606,35606,-0.0600,-0.2200,9.7000,9.7027,0.0305,0.0415,-0.0164,0.69,-0.25,94.00,-0.1063,-0.0866,10.0597,10.0607
1,12,2,4,2,35.736,35736,-0.0800,0.0400,9.4300,9.4304,0.0065,-0.0916,0.0087,0.81,-0.06,93.88,-0.1029,-0.0699,9.9768,9.9775
1,12,2,4,2,35.866,35866,-0.3700,-0.0900,9.7600,9.7674,-0.0055,-0.0524,-0.0033,0.94,-0.13,93.88,-0.1381,-0.0726,9.9482,9.9494
1,12,2,4,2,35.996,35996,-0.1100,-0.0700,9.7300,9.7309,0.0065,0.0022,0.0022,1.00,-0.19,93.94,-0.1344,-0.0722,9.9194,9.9206
1,12,2,4,2,36.127,36127,-0.0500,-0.0900,9.1700,9.1706,-0.0022,0.0098,-0.0087,1.00,-0.13,94.00,-0.1233,-0.0746,9.8207,9.8217
1,12,2,4,2,36.257,36257,0.2300,-0.1400,9.2300,9.2339,-0.0011,0.0120,0.0022,0.88,-0.19,94.06,-0.0767,-0.0832,9.7428,9.7435
1,12,2,4,2,36.387,36387,0.1200,0.0200,8.8500,8.8508,-0.0011,0.0055,0.0273,0.94,-0.19,94.00,-0.0508,-0.0696,9.6252,9.6256
1,12,2,4,2,36.560,36560,-0.3500,0.3000,9.3100,9.3214,-0.0960,-0.0327,0.0033,1.00,-0.13,94.06,-0.0902,-0.0209,9.5837,9.5841
1,12,2,4,2,36.691,36691,-0.2000,0.0000,9.4700,9.4721,0.0207,0.0087,0.0087,1.00,-0.06,94.06,-0.1047,-0.0181,9.5687,9.5693
1,12,2,4,2,36.824,36824,-0.0200,-0.0200,7.8500,7.8501,0.0076,0.0153,-0.0109,1.00,-0.06,94.13,-0.0935,-0.0184,9.3422,9.3427
1,12,2,4,2,36.958,36958,-0.1300,0.0000,7.6800,7.6811,0.0295,0.0240,-0.0295,0.88,-0.13,94.06,-0.0983,-0.0160,9.1232,9.1237
1,12,2,4,2,37.089,37089,-0.3300,0.0000,7.7900,7.7970,0.0120,0.0316,-0.0196,0.94,-0.06,94.06,-0.1289,-0.0139,8.9475,8.9484
1,12,2,4,2,37.235,37235,-0.0800,0.0100,7.8100,7.8104,0.0076,0.0338,0.0022,0.94,-0.06,94.06,-0.1224,-0.0107,8.7976,8.7985
1,12,2,4,2,37.369,37369,-0.1900,-0.0900,7.0300,7.0331,0.0055,0.0665,-0.0033,0.88,-0.06,94.06,-0.1313,-0.0212,8.5647,8.5657
1,12,2,4,2,37.501,37501,0.2700,-0.0500,9.0100,9.0142,-0.0218,0.0305,0.0000,0.75,-0.13,94.06,-0.0784,-0.0250,8.6234,8.6237
1,12,2,4,2,37.673,37673,0.3900,-0.4000,14.4400,14.4508,-0.0022,-0.0044,0.0131,0.88,-0.06,94.06,-0.0167,-0.0744,9.3898,9.3902
1,12,2,4,2,37.804,37804,-0.8000,-0.0300,12.6700,12.6953,0.0338,-0.0109,0.0131,0.88,0.00,94.13,-0.1199,-0.0685,9.8221,9.8231
1,12,2,4,2,37.935,37935,-0.2500,-0.0900,9.9400,9.9436,-0.0960,0.0044,0.0044,1.00,-0.13,94.06,-0.1371,-0.0714,9.8376,9.8388
1,12,2,4,2,38.065,38065,0.2700,-0.3500,9.2400,9.2506,0.0087,-0.0382,-0.0240,0.69,-0.38,94.13,-0.0834,-0.1081,9.7589,9.7598
1,12,2,4,2,38.200,38200,0.0000,-0.1200,9.5400,9.5408,-0.0011,0.0153,0.0185,0.75,0.00,94.00,-0.0724,-0.1097,9.7300,9.7309
1,12,2,4,2,38.333,38333,-0.0300,0.0100,10.6100,10.6100,-0.0240,-0.0251,0.0000,0.69,0.00,94.06,-0.0668,-0.0939,9.8460,9.8467
1,12,2,4,2,38.463,38463,-0.2800,-0.1600,11.4000,11.4046,-0.0131,0.0284,0.0120,0.81,0.00,94.06,-0.0949,-0.1026,10.0508,10.0517
1,12,2,4,2,38.594,38594,-0.2600,-0.1400,10.5200,10.5241,-0.0076,-0.0098,0.0055,0.81,-0.19,94.13,-0.1167,-0.1075,10.1126,10.1138
1,12,2,4,2,38.767,38767,0.1200,-0.2800,9.9400,9.9447,0.0327,0.0153,0.0284,0.75,-0.19,94.13,-0.0855,-0.1303,10.0899,10.0911
1,12,2,4,2,38.901,38901,-0.3300,0.1000,10.4900,10.4957,-0.0022,-0.0087,0.0065,0.75,0.00,94.00,-0.1177,-0.0999,10.1426,10.1438
1,13,2,4,2,39.035,39035,-0.3400,0.0000,9.7900,9.7959,-0.0044,-0.0229,0.0033,0.81,-0.13,94.00,-0.1470,-0.0867,10.0961,10.0976
1,13,2,4,2,39.165,39165,-0.1400,0.0400,9.5200,9.5211,-0.0207,-0.0011,0.0196,0.94,-0.19,94.06,-0.1461,-0.0700,10.0202,10.0215
1,13,2,4,2,39.296,39296,-0.2200,0.0200,9.2800,9.2826,-0.0404,0.0153,0.0316,0.88,-0.13,94.06,-0.1558,-0.0582,9.9227,9.9241
1,13,2,4,2,39.426,39426,0.0900,0.2000,9.0200,9.0227,-0.0142,0.0000,0.0229,0.94,-0.13,94.06,-0.1234,-0.0242,9.8037,9.8045
1,13,2,4,2,39.557,39557,-0.4200,-0.0200,9.3100,9.3195,0.0055,0.0960,0.0284,0.81,-0.19,94.06,-0.1625,-0.0236,9.7387,9.7400
1,13,2,4,2,39.687,39687,0.1100,0.0000,8.5400,8.5407,0.0545,-0.0098,0.0087,0.81,-0.13,94.13,-0.1266,-0.0205,9.5807,9.5816
1,13,2,4,2,39.860,39860,-0.2700,-0.0200,6.4900,6.4956,-0.0425,-0.0164,-0.0109,1.00,-0.19,94.13,-0.1455,-0.0204,9.1734,9.1746
1,13,2,4,2,39.991,39991,0.0100,-0.1000,7.4600,7.4607,-0.0185,0.0185,0.0109,0.81,-0.19,94.13,-0.1250,-0.0309,8.9476,8.9486
1,13,2,4,2,40.121,40121,0.0800,0.0100,7.6700,7.6704,0.0098,0.0229,-0.0164,0.88,-0.13,94.13,-0.0980,-0.0255,8.7793,8.7799
1,13,2,4,2,40.252,40252,0.3000,-0.0800,8.1400,8.1459,0.0218,-0.0229,-0.0131,0.88,-0.19,94.13,-0.0455,-0.0327,8.6950,8.6952
1,13,2,4,2,40.382,40382,0.4200,-0.0900,8.1500,8.1613,0.0185,-0.0949,-0.0185,0.88,-0.19,94.13,0.0158,-0.0403,8.6232,8.6233
1,13,2,4,2,40.518,40518,-0.2300,-0.4800,10.1400,10.1540,0.0109,-0.0578,0.0131,0.94,-0.31,94.19,-0.0166,-0.0982,8.8231,8.8237
1,13,2,4,2,40.648,40648,-0.5300,-0.3800,11.1900,11.2090,0.0633,0.0087,0.0665,0.88,-0.19,94.06,-0.0842,-0.1353,9.1350,9.1364
1,13,2,4,2,40.780,40780,-0.5900,0.3600,13.7700,13.7873,-0.0796,0.0185,-0.0229,0.75,0.00,94.13,-0.1509,-0.0701,9.7458,9.7472
1,13,2,4,2,40.953,40953,-0.3200,0.1900,10.9500,10.9563,0.0774,-0.0196,0.0862,0.75,-0.13,94.19,-0.1732,-0.0358,9.9045,9.9060
1,13,2,4,2,41.083,41083,0.1400,-0.1900,9.3800,9.3830,0.0349,-0.0055,0.0044,0.88,-0.06,94.13,-0.1319,-0.0561,9.8353,9.8364
1,13,2,4,2,41.214,41214,-0.1000,-0.0200,9.8600,9.8605,0.0109,0.0262,0.0098,0.75,-0.13,94.13,-0.1277,-0.0514,9.8386,9.8396
1,13,2,4,2,41.345,41345,-0.2300,-0.1100,10.8000,10.8030,0.0207,0.0196,0.0207,0.81,-0.06,94.13,-0.1412,-0.0591,9.9653,9.9665
1,13,2,4,2,41.475,41475,-0.0700,-0.1100,11.2100,11.2108,-0.0153,-0.0109,-0.0251,0.75,-0.06,94.13,-0.1318,-0.0658,10.1293,10.1304
1,13,2,4,2,41.606,41606,-0.3700,-0.0900,10.3700,10.3770,0.0567,0.0240,-0.0022,0.81,-0.06,94.13,-0.1632,-0.0690,10.1610,10.1626
1,14,2,4,2,41.738,41738,0.0200,-0.1700,9.0600,9.0616,-0.0295,0.0229,-0.0240,0.69,-0.19,94.13,-0.1391,-0.0823,10.0159,10.0172
1,14,2,4,2,41.873,41873,0.0500,-0.1100,9.4800,9.4808,0.0011,0.0218,0.0044,0.69,-0.13,94.06,-0.1141,-0.0859,9.9453,9.9463
1,14,2,4,2,42.045,42045,-0.3900,-0.1500,9.8400,9.8489,0.0851,0.0098,-0.0120,0.75,-0.13,94.06,-0.1505,-0.0944,9.9314,9.9330
1,14,2,4,2,42.175,42175,0.1400,-0.1700,9.7100,9.7125,0.0065,-0.0087,-0.0229,0.94,-0.06,94.06,-0.1122,-0.1043,9.9023,9.9034
1,14,2,4,2,42.305,42305,-0.2400,0.1200,9.9500,9.9536,-0.0022,0.0000,0.0120,0.94,-0.19,94.19,-0.1291,-0.0748,9.9085,9.9097
1,14,2,4,2,42.435,42435,-0.1700,-0.1700,9.5500,9.5530,0.0109,0.0654,-0.0404,1.00,-0.06,94.13,-0.1344,-0.0873,9.8613,9.8626
1,14,2,4,2,42.565,42565,-0.3400,-0.1600,9.8300,9.8372,-0.0175,0.0469,-0.0153,0.88,-0.06,94.19,-0.1615,-0.0969,9.8572,9.8590
1,14,2,4,2,42.696,42696,-0.5100,0.1400,9.1500,9.1653,0.0185,0.0055,-0.0185,0.94,-0.06,94.19,-0.2075,-0.0657,9.7640,9.7664
1,14,2,4,2,42.826,42826,0.1500,-0.0500,9.2500,9.2514,0.0993,0.0622,-0.0033,0.75,-0.06,94.19,-0.1603,-0.0636,9.6963,9.6978
1,14,2,4,2,42.956,42956,0.1600,-0.4300,8.7600,8.7720,0.0818,-0.0873,0.0065,1.00,-0.06,94.25,-0.1181,-0.1119,9.5729,9.5743
1,14,2,4,2,43.129,43129,0.3100,0.2800,8.2400,8.2506,-0.0022,0.0535,0.0033,1.00,0.00,94.19,-0.0617,-0.0603,9.3972,9.3976
1,14,2,4,2,43.260,43260,0.0000,-0.0800,6.8500,6.8505,0.0240,0.0818,0.0098,0.94,0.00,94.25,-0.0536,-0.0629,9.0616,9.0620
1,14,2,4,2,43.390,43390,0.0100,0.1100,5.6500,5.6511,-0.0175,0.0065,-0.0011,0.94,0.00,94.25,-0.0452,-0.0401,8.6120,8.6122
1,14,2,4,2,43.523,43523,0.0000,-0.0400,6.8800,6.8801,0.0185,-0.0098,0.0033,0.88,-0.06,94.25,-0.0392,-0.0401,8.3838,8.3840
1,14,2,4,2,43.654,43654,-0.0300,-0.2700,9.2700,9.2740,-0.0044,-0.0971,-0.0011,1.06,-0.13,94.25,-0.0380,-0.0704,8.5006,8.5009
1,14,2,4,2,43.788,43788,-0.1900,-0.0300,12.2200,12.2215,0.0305,-0.0142,0.0262,0.88,0.00,94.13,-0.0581,-0.0651,8.9907,8.9911
1,14,2,4,2,43.919,43919,-0.3000,-0.1100,14.2500,14.2536,0.0393,0.0065,-0.0251,0.94,0.00,94.13,-0.0899,-0.0710,9.6837,9.6844
1,14,2,4,2,44.050,44050,-0.9400,-0.1000,13.3100,13.3435,-0.0218,0.1233,-0.0502,0.94,-0.06,94.13,-0.2020,-0.0748,10.1616,10.1639
1,15,2,4,2,44.222,44222,-0.3200,0.2500,9.0600,9.0691,-0.0687,0.0731,0.0404,0.94,0.00,94.13,-0.2175,-0.0320,10.0164,10.0188
1,15,2,4,2,44.352,44352,-0.3000,0.1500,9.6900,9.6958,-0.1036,-0.0731,-0.0229,1.00,-0.19,94.25,-0.2284,-0.0080,9.9734,9.9760
1,15,2,4,2,44.482,44482,-0.1600,-0.2600,10.2600,10.2645,0.0251,0.0098,0.0338,0.81,0.00,94.31,-0.2194,-0.0412,10.0112,10.0137
1,15,2,4,2,44.612,44612,0.0100,0.0100,10.3700,10.3700,0.0295,-0.0229,-0.0109,0.94,0.00,94.25,-0.1891,-0.0345,10.0585,10.0603
1,15,2,4,2,44.742,44742,0.2600,0.0300,10.0400,10.0434,0.0000,0.0578,0.0382,0.81,0.00,94.25,-0.1300,-0.0260,10.0560,10.0569
1,15,2,4,2,44.872,44872,-0.3100,-0.0200,9.8500,9.8549,-0.0513,-0.0284,-0.0218,0.94,-0.06,94.25,-0.1537,-0.0252,10.0289,10.0301
1,15,2,4,2,45.003,45003,0.0600,-0.2300,9.7900,9.7929,0.0676,-0.0065,0.0109,0.81,-0.06,94.25,-0.1255,-0.0522,9.9974,9.9983
1,15,2,4,2,45.133,45133,-0.2900,0.0600,9.9100,9.9144,0.0033,-0.0033,-0.0142,0.81,0.00,94.25,-0.1472,-0.0374,9.9859,9.9870
1,15,2,4,2,45.306,45306,-0.1900,0.1300,9.7400,9.7427,-0.0338,-0.0229,-0.0131,0.81,0.00,94.19,-0.1528,-0.0153,9.9535,9.9547
1,15,2,4,2,45.436,45436,0.1500,-0.0200,9.5700,9.5712,0.0065,-0.0011,0.0065,0.88,-0.13,94.19,-0.1129,-0.0160,9.9029,9.9036
1,15,2,4,2,45.569,45569,0.0200,-0.1600,9.6800,9.6813,0.0185,-0.0055,0.0109,1.00,-0.13,94.19,-0.0954,-0.0349,9.8736,9.8741
1,15,2,4,2,45.704,45704,0.1800,-0.1700,9.5900,9.5932,-0.0044,-0.0665,-0.0011,1.06,-0.13,94.31,-0.0591,-0.0527,9.8362,9.8365
1,15,2,4,2,45.835,45835,-0.9900,-0.2800,9.8400,9.8936,0.0316,0.0436,0.0087,1.00,-0.06,94.38,-0.1818,-0.0827,9.8367,9.8387
1,15,2,4,2,45.965,45965,-0.0300,-0.1600,9.0900,9.0915,0.0044,0.0087,0.0316,0.88,-0.13,94.31,-0.1618,-0.0929,9.7383,9.7401
1,15,2,4,2,46.096,46096,0.1800,-0.0400,9.1300,9.1319,0.0327,0.0131,0.0295,0.94,-0.19,94.31,-0.1167,-0.0859,9.6581,9.6592
1,15,2,4,2,46.226,46226,0.1100,-0.1100,8.3800,8.3814,0.0240,-0.0600,0.0055,1.06,-0.06,94.31,-0.0869,-0.0891,9.4897,9.4905
1,15,2,4,2,46.399,46399,-0.1100,0.2200,7.7100,7.7139,-0.0425,0.0382,0.0185,1.00,0.00,94.31,-0.0899,-0.0483,9.2552,9.2558
1,15,2,4,2,46.532,46532,0.1600,-0.0500,7.8700,7.8718,0.0218,0.0262,0.0076,0.94,0.00,94.38,-0.0570,-0.0486,9.0727,9.0730
1,15,2,4,2,46.663,46663,0.0400,0.0400,6.4800,6.4802,0.0458,0.0185,-0.0131,0.94,-0.06,94.38,-0.0442,-0.0369,8.7310,8.7312
1,15,2,4,2,46.797,46797,0.0000,-0.1100,6.3800,6.3809,0.0207,0.0153,-0.0109,1.00,-0.06,94.38,-0.0384,-0.0465,8.4212,8.4214
1,15,2,4,2,46.928,46928,0.3500,-0.0700,7.7800,7.7882,0.0251,-0.0807,-0.0087,1.06,-0.19,94.38,0.0128,-0.0496,8.3367,8.3369
1,15,2,4,2,47.059,47059,0.1300,-0.1100,10.4200,10.4214,0.0425,-0.0349,0.0349,0.88,-0.06,94.31,0.0282,-0.0576,8.6112,8.6115
1,15,2,4,2,47.189,47189,0.2000,-0.2100,12.4300,12.4334,-0.0044,0.0218,0.0229,0.88,0.00,94.31,0.0509,-0.0777,9.1145,9.1149
1,15,2,4,2,47.319,47319,-0.4700,-0.2200,13.7600,13.7698,-0.0109,-0.1353,0.0251,0.88,-0.13,94.38,-0.0178,-0.0964,9.7266,9.7271
1,15,2,4,2,47.492,47492,-0.1900,-0.1300,9.6100,9.6128,-0.0022,0.0251,-0.0044,0.94,-0.06,94.38,-0.0405,-0.1008,9.7113,9.7119
1,15,2,4,2,47.623,47623,0.2400,-0.2900,9.2100,9.2177,-0.0295,-0.0622,-0.0098,0.75,-0.31,94.44,-0.0035,-0.1258,9.6452,9.6460
1,15,2,4,2,47.753,47753,-0.1300,-0.1700,9.6200,9.6224,-0.0011,-0.0033,0.0251,0.88,-0.06,94.38,-0.0202,-0.1316,9.6419,9.6428
1,15,2,4,2,47.884,47884,0.0000,-0.1200,9.7200,9.7207,0.0087,-0.0022,-0.0055,0.81,-0.13,94.38,-0.0175,-0.1301,9.6522,9.6531
1,15,2,4,2,48.015,48015,-0.1300,-0.1800,10.4600,10.4624,-0.0153,0.0142,0.0131,0.81,-0.13,94.38,-0.0323,-0.1366,9.7586,9.7596
1,15,2,4,2,48.145,48145,-0.1600,0.0400,10.9400,10.9412,-0.0338,-0.0065,-0.0087,0.81,-0.06,94.38,-0.0492,-0.1134,9.9143,9.9151
1,15,2,4,2,48.276,48276,-0.2200,-0.0200,10.1500,10.1524,0.0131,0.0120,0.0240,0.75,-0.06,94.44,-0.0717,-0.1011,9.9454,9.9461
1,15,2,4,2,48.410,48410,0.0000,0.3900,9.5800,9.5879,-0.0600,0.0425,0.0098,0.81,0.00,94.38,-0.0622,-0.0364,9.8972,9.8975
1,15,2,4,2,48.583,48583,-0.1100,-0.1400,9.6800,9.6816,-0.0349,-0.0109,-0.0316,0.75,-0.19,94.38,-0.0685,-0.0500,9.8686,9.8690
1,15,2,4,2,48.714,48714,-0.1000,-0.0900,9.9400,9.9409,-0.0055,-0.0153,-0.0055,0.81,-0.06,94.31,-0.0727,-0.0553,9.8780,9.8784
1,15,2,4,2,48.844,48844,-0.2200,-0.1500,9.6300,9.6337,0.0251,0.0284,-0.0175,0.81,-0.13,94.31,-0.0921,-0.0678,9.8453,9.8460
1,15,2,4,2,48.974,48974,-0.1500,0.1000,9.5700,9.5717,-0.0164,-0.0382,0.0098,0.88,-0.13,94.38,-0.0997,-0.0457,9.8090,9.8097
1,15,2,4,2,49.105,49105,-0.1000,-0.2800,9.6800,9.6846,-0.0044,0.0316,0.0022,1.00,-0.19,94.38,-0.0998,-0.0765,9.7920,9.7928
1,15,2,4,2,49.235,49235,-0.1800,-0.1600,9.8400,9.8429,-0.0142,0.0065,-0.0240,1.00,-0.19,94.50,-0.1103,-0.0875,9.7984,9.7994
1,15,2,4,2,49.366,49366,-0.4100,-0.2500,9.7900,9.8018,0.0065,0.0458,0.0207,0.88,-0.19,94.50,-0.1498,-0.1089,9.7973,9.7990
1,15,2,4,2,49.496,49496,-0.2700,0.2000,9.3600,9.3660,0.0175,0.0098,0.0120,0.88,-0.13,94.44,-0.1657,-0.0682,9.7396,9.7413
1,15,2,4,2,49.669,49669,-0.9100,-0.7200,9.1900,9.2630,-0.0556,-0.0818,0.0000,0.94,-0.19,94.44,-0.2637,-0.1541,9.6672,9.6720
1,15,2,4,2,49.799,49799,-0.5900,0.3100,8.5900,8.6158,-0.0502,-0.0164,-0.0022,1.00,-0.06,94.44,-0.3067,-0.0930,9.5253,9.5307
1,15,2,4,2,49.930,49930,0.0000,-0.1600,7.9200,7.9216,0.0153,0.0458,0.0218,1.00,-0.13,94.50,-0.2663,-0.1018,9.3137,9.3181
1,15,2,4,2,50.060,50060,0.1100,-0.1600,6.8200,6.8228,0.0076,0.0000,0.0120,1.00,-0.13,94.50,-0.2167,-0.1095,8.9851,8.9884
1,15,2,4,2,50.196,50196,-0.0600,-0.1300,6.1200,6.1217,-0.0153,-0.0033,0.0044,0.94,-0.19,94.50,-0.1961,-0.1122,8.6076,8.6105
1,15,2,4,2,50.326,50326,-0.4000,0.1100,7.6300,7.6413,0.0654,0.0327,0.0065,0.94,-0.13,94.50,-0.2229,-0.0829,8.4787,8.4821
1,15,2,4,2,50.458,50458,0.2800,0.1000,9.9200,9.9245,-0.0993,0.0535,-0.0327,0.88,0.00,94.38,-0.1567,-0.0588,8.6687,8.6703
1,15,2,4,2,50.589,50589,-0.1200,0.0000,13.0900,13.0906,-0.0349,-0.0044,0.0011,0.75,-0.06,94.50,-0.1518,-0.0510,9.2513,9.2527
1,15,2,4,2,50.761,50761,0.1600,-0.2700,12.4900,12.4939,0.0011,-0.0076,0.0273,0.81,-0.13,94.44,-0.1107,-0.0799,9.6781,9.6790
1,15,2,4,2,50.891,50891,0.0400,-0.1600,10.1600,10.1613,-0.0415,-0.0284,0.0175,0.81,-0.06,94.50,-0.0909,-0.0905,9.7416,9.7424
1,15,2,4,2,51.021,51021,0.0000,0.1000,8.7800,8.7806,0.0164,0.0142,-0.0011,0.75,-0.13,94.50,-0.0789,-0.0654,9.6149,9.6154
1,15,2,4,2,51.151,51151,-0.1000,-0.1100,9.6100,9.6111,0.0131,0.0055,0.0175,0.75,-0.06,94.50,-0.0817,-0.0712,9.6142,9.6148
1,15,2,4,2,51.281,51281,-0.1200,-0.0300,9.6300,9.6308,-0.0033,-0.0022,0.0033,0.75,-0.13,94.50,-0.0867,-0.0658,9.6163,9.6169
1,15,2,4,2,51.411,51411,-0.0600,-0.0600,9.6400,9.6404,0.0065,-0.0022,0.0022,0.75,-0.13,94.50,-0.0832,-0.0650,9.6194,9.6200
1,15,2,4,2,51.542,51542,-0.0800,-0.0200,9.5700,9.5704,0.0076,0.0109,0.0055,0.69,-0.19,94.50,-0.0828,-0.0591,9.6129,9.6134
1,15,2,4,2,51.672,51672,-0.1300,-0.1100,9.5800,9.5815,0.0055,0.0033,0.0033,0.75,-0.19,94.50,-0.0890,-0.0658,9.6086,9.6092
