participant,rep,equipment_code,exercise_code,quality_code,timestamp,timestamp_ms,accelX,accelY,accelZ,accelMag,gyroX,gyroY,gyroZ,roll,pitch,yaw,filteredX,filteredY,filteredZ,filteredMag
1,1,2,4,0,00.000,0,0.0100,-0.0800,9.8100,9.8103,0.0011,0.0000,0.0033,0.06,-0.31,36.50,-0.0166,-0.0608,9.7636,9.7638
1,1,2,4,0,00.130,130,-0.0300,-0.0500,9.8300,9.8302,-0.0011,0.0000,-0.0022,0.06,-0.31,36.50,-0.0184,-0.0594,9.7724,9.7726
1,1,2,4,0,00.260,260,0.0100,-0.1000,9.8000,9.8005,-0.0011,0.0055,-0.0022,0.06,-0.31,36.50,-0.0146,-0.0647,9.7760,9.7763
1,1,2,4,0,00.390,390,-0.0300,-0.0500,9.9900,9.9902,-0.0011,-0.0022,-0.0022,0.06,-0.31,36.50,-0.0167,-0.0628,9.8042,9.8044
1,1,2,4,0,00.520,520,-0.0200,-0.0300,10.3000,10.3001,0.0022,0.0055,0.0055,0.06,-0.31,36.50,-0.0171,-0.0585,9.8696,9.8697
1,1,2,4,0,00.693,693,0.0000,-0.0500,10.2400,10.2401,-0.0011,-0.0022,0.0055,0.06,-0.31,36.50,-0.0148,-0.0573,9.9184,9.9185
1,1,2,4,0,00.824,824,-0.0300,-0.0700,10.4300,10.4303,-0.0033,0.0022,0.0033,0.06,-0.31,36.50,-0.0168,-0.0590,9.9858,9.9860
1,1,2,4,0,00.955,955,0.0400,0.0000,10.8400,10.8401,0.0044,0.0044,0.0185,0.06,-0.31,36.56,-0.0094,-0.0512,10.0984,10.0985
1,1,2,4,0,01.085,1085,-0.0600,-0.2000,10.7100,10.7120,-0.0033,0.0033,-0.0055,0.06,-0.31,36.63,-0.0160,-0.0708,10.1790,10.1792
1,1,2,4,0,01.216,1216,-0.1300,0.0500,10.2000,10.2010,0.0033,0.0044,0.0240,0.06,-0.31,36.69,-0.0310,-0.0549,10.1817,10.1819
1,1,2,4,0,01.348,1348,-0.1700,-0.1600,10.8200,10.8225,-0.0011,-0.0087,0.0262,0.06,-0.31,36.94,-0.0494,-0.0688,10.2658,10.2662
1,1,2,4,0,01.482,1482,-0.1300,-0.1700,10.0700,10.0723,0.0022,0.0044,0.0164,0.06,-0.31,36.94,-0.0600,-0.0821,10.2400,10.2405
1,1,2,4,0,01.613,1613,0.1700,0.2200,9.3900,9.3941,0.0087,0.0000,0.0305,0.06,-0.31,37.19,-0.0297,-0.0423,10.1280,10.1281
1,1,2,4,0,01.786,1786,0.0500,-0.3400,8.2000,8.2072,0.0022,0.0164,0.0076,0.06,-0.19,37.19,-0.0192,-0.0815,9.8740,9.8743
1,1,2,4,0,01.917,1917,-0.1300,-0.4000,6.6400,6.6533,0.0055,0.0131,-0.0022,0.06,-0.25,37.50,-0.0338,-0.1235,9.4478,9.4487
1,1,2,4,0,02.051,2051,-0.2400,0.0700,7.8600,7.8640,-0.0044,-0.0033,0.0153,0.06,-0.19,37.38,-0.0610,-0.0980,9.2386,9.2393
1,1,2,4,0,02.185,2185,-0.0900,0.0600,8.7500,8.7507,0.0033,0.0011,-0.0011,0.06,-0.19,37.50,-0.0648,-0.0772,9.1742,9.1747
1,2,2,4,0,02.315,2315,-0.0200,-0.1500,9.4200,9.4212,-0.0022,0.0000,-0.0393,0.06,-0.19,37.38,-0.0589,-0.0868,9.2066,9.2072
1,2,2,4,0,02.446,2446,0.0900,-0.2300,10.2200,10.2230,0.0109,0.0120,0.0513,0.06,-0.25,37.38,-0.0393,-0.1056,9.3401,9.3408
1,2,2,4,0,02.576,2576,0.0600,-0.2700,10.3600,10.3637,-0.0175,0.0055,-0.0622,0.06,-0.19,37.19,-0.0262,-0.1273,9.4745,9.4754
1,2,2,4,0,02.707,2707,-0.0200,0.0500,9.8300,9.8301,0.0142,0.0120,0.0284,0.00,-0.31,37.38,-0.0254,-0.1039,9.5214,9.5220
1,2,2,4,0,02.879,2879,-0.1600,0.0800,9.9900,9.9916,-0.0044,0.0109,0.0087,0.00,-0.25,37.25,-0.0431,-0.0797,9.5831,9.5835
1,2,2,4,0,03.009,3009,-0.2300,0.0200,10.0500,10.0527,0.0033,-0.0185,-0.0273,0.00,-0.31,37.13,-0.0677,-0.0666,9.6446,9.6451
1,2,2,4,0,03.139,3139,0.0800,-0.0400,9.7300,9.7304,0.0055,0.0153,0.0316,0.00,-0.31,37.31,-0.0483,-0.0631,9.6559,9.6562
1,2,2,4,0,03.269,3269,-0.1300,0.0000,9.9400,9.9408,-0.0109,-0.0011,-0.0720,0.00,-0.25,37.06,-0.0590,-0.0548,9.6933,9.6937
1,2,2,4,0,03.399,3399,-0.2400,-0.0600,9.7000,9.7032,0.0055,0.0065,0.0436,0.00,-0.31,37.25,-0.0829,-0.0554,9.6942,9.6947
1,2,2,4,0,03.529,3529,0.0500,-0.0600,10.0000,10.0003,-0.0044,-0.0087,-0.0338,0.00,-0.25,37.19,-0.0654,-0.0560,9.7345,9.7349
1,2,2,4,0,03.659,3659,-0.0900,-0.0900,9.8800,9.8808,-0.0076,-0.0011,0.0273,0.00,-0.31,37.13,-0.0686,-0.0605,9.7537,9.7541
1,2,2,4,0,03.790,3790,0.1100,0.1000,9.7800,9.7811,0.0044,0.0000,-0.0044,0.00,-0.31,37.25,-0.0451,-0.0394,9.7571,9.7573
1,2,2,4,0,03.963,3963,0.1700,-0.2300,9.9900,9.9941,-0.0065,0.0076,-0.0044,0.00,-0.31,37.25,-0.0167,-0.0645,9.7878,9.7881
1,2,2,4,0,04.093,4093,0.0900,0.0000,9.8600,9.8604,0.0076,-0.0011,0.0044,0.00,-0.31,37.25,-0.0027,-0.0560,9.7973,9.7975
1,2,2,4,0,04.224,4224,0.0100,-0.2000,9.8700,9.8720,-0.0055,0.0098,0.0196,0.00,-0.25,37.25,-0.0010,-0.0750,9.8069,9.8072
1,2,2,4,0,04.356,4356,0.0200,-0.0900,9.8200,9.8204,-0.0076,-0.0087,-0.0240,0.00,-0.31,37.19,0.0018,-0.0769,9.8086,9.8089
1,2,2,4,0,04.491,4491,0.0200,0.1200,9.7400,9.7408,0.0065,0.0011,0.0120,0.00,-0.31,37.25,0.0042,-0.0510,9.7996,9.7997
1,2,2,4,0,04.622,4622,-0.0300,0.0200,9.8700,9.8701,-0.0055,0.0131,-0.0207,0.00,-0.25,37.38,-0.0003,-0.0416,9.8089,9.8090
1,2,2,4,0,04.752,4752,-0.0800,-0.0900,9.7400,9.7407,0.0055,-0.0065,0.0055,-0.06,-0.31,37.19,-0.0108,-0.0480,9.7998,9.7999
1,2,2,4,0,04.883,4883,-0.0200,0.0000,9.7300,9.7300,-0.0076,0.0022,0.0131,0.00,-0.31,37.38,-0.0120,-0.0417,9.7906,9.7907
1,2,2,4,0,05.056,5056,0.0200,-0.2800,9.6700,9.6741,-0.0022,0.0044,-0.0175,0.00,-0.31,37.25,-0.0078,-0.0731,9.7747,9.7750
1,2,2,4,0,05.189,5189,0.1700,-0.0900,9.6800,9.6819,0.0087,0.0055,0.0098,0.00,-0.31,37.31,0.0156,-0.0753,9.7622,9.7625
1,2,2,4,0,05.320,5320,-0.0500,-0.2100,9.7000,9.7024,0.0098,0.0065,-0.0295,0.00,-0.31,37.38,0.0070,-0.0931,9.7540,9.7545
1,2,2,4,0,05.454,5454,-0.0300,-0.0900,10.2800,10.2804,-0.0011,0.0033,-0.0011,0.00,-0.25,37.25,0.0021,-0.0927,9.8233,9.8238
1,2,2,4,0,05.584,5584,0.0100,0.0200,10.4200,10.4200,0.0022,-0.0033,0.0000,0.00,-0.31,37.44,0.0031,-0.0778,9.9020,9.9023
1,2,2,4,0,05.715,5715,0.0300,-0.0300,10.4200,10.4201,-0.0087,0.0033,0.0087,0.00,-0.31,37.25,0.0067,-0.0715,9.9702,9.9705
1,2,2,4,0,05.845,5845,0.0600,-0.1300,10.5600,10.5610,0.0022,-0.0022,0.0131,0.00,-0.31,37.38,0.0137,-0.0792,10.0479,10.0483
1,2,2,4,0,05.976,5976,-0.5100,-0.4100,10.5300,10.5503,0.0360,-0.0229,0.0055,0.00,-0.31,37.44,-0.0553,-0.1228,10.1115,10.1124
1,2,2,4,0,06.152,6152,-0.1800,-0.5000,10.6000,10.6133,0.0120,0.0000,-0.0415,0.00,-0.25,37.50,-0.0717,-0.1725,10.1758,10.1776
1,2,2,4,0,06.283,6283,-0.0900,-0.1700,10.7700,10.7717,-0.0033,-0.0033,0.0535,0.00,-0.31,37.75,-0.0741,-0.1722,10.2541,10.2559
1,2,2,4,0,06.416,6416,-0.0100,-0.2500,10.5800,10.5830,-0.0131,-0.0011,0.0262,0.00,-0.25,37.75,-0.0657,-0.1824,10.2971,10.2989
1,2,2,4,0,06.547,6547,0.2600,0.0000,9.8300,9.8334,-0.0022,0.0055,0.0022,0.00,-0.25,38.00,-0.0228,-0.1584,10.2355,10.2368
1,2,2,4,0,06.677,6677,-0.2000,-0.1100,7.9100,7.9133,-0.0055,-0.0076,0.0033,0.00,-0.25,38.00,-0.0461,-0.1520,9.9291,9.9304
1,2,2,4,0,06.808,6808,0.2600,0.0100,6.6900,6.6951,-0.0076,0.0033,0.0196,-0.06,-0.25,38.25,-0.0058,-0.1307,9.5023,9.5032
1,2,2,4,0,06.938,6938,-0.1900,0.2000,7.2200,7.2253,-0.0109,-0.0033,0.0589,0.00,-0.25,38.25,-0.0301,-0.0871,9.2015,9.2020
1,2,2,4,0,07.069,7069,-0.0700,-0.1600,8.5800,8.5818,-0.0065,0.0076,-0.0491,0.00,-0.25,38.13,-0.0353,-0.0967,9.1196,9.1202
1,3,2,4,0,07.243,7243,0.2100,-0.3200,9.6800,9.6876,-0.0011,0.0011,-0.0262,0.00,-0.25,38.19,-0.0030,-0.1261,9.1935,9.1943
1,3,2,4,0,07.374,7374,-0.0700,-0.0600,10.0600,10.0604,0.0044,0.0044,0.0055,0.00,-0.25,38.13,-0.0118,-0.1174,9.3076,9.3084
1,3,2,4,0,07.508,7508,-0.0800,0.0800,10.0300,10.0306,0.0044,0.0055,-0.0284,0.00,-0.25,38.06,-0.0208,-0.0914,9.4028,9.4033
1,3,2,4,0,07.640,7640,0.0000,-0.0600,9.8600,9.8602,0.0022,0.0065,0.0120,0.00,-0.31,38.13,-0.0181,-0.0873,9.4631,9.4635
1,3,2,4,0,07.771,7771,-0.1200,-0.1800,10.1000,10.1023,0.0022,0.0098,-0.0087,0.00,-0.31,38.00,-0.0315,-0.0995,9.5470,9.5476
1,3,2,4,0,07.901,7901,-0.1200,-0.0300,10.1100,10.1108,0.0000,-0.0011,-0.0164,0.00,-0.31,38.00,-0.0432,-0.0903,9.6212,9.6217
1,3,2,4,0,08.031,8031,-0.0900,-0.0300,9.8000,9.8005,-0.0011,0.0055,-0.0109,0.00,-0.31,38.00,-0.0493,-0.0824,9.6448,9.6452
1,3,2,4,0,08.162,8162,-0.0600,-0.0500,9.8400,9.8403,0.0000,0.0044,0.0000,0.00,-0.31,38.00,-0.0507,-0.0781,9.6705,9.6709
1,3,2,4,0,08.335,8335,-0.1500,-0.1900,10.0700,10.0729,0.0033,-0.0022,-0.0033,0.00,-0.31,38.00,-0.0638,-0.0929,9.7231,9.7238
1,3,2,4,0,08.466,8466,0.0800,-0.1100,10.1000,10.1009,-0.0044,0.0022,-0.0033,0.00,-0.31,38.00,-0.0449,-0.0951,9.7728,9.7734
1,3,2,4,0,08.602,8602,-0.0200,-0.1200,9.9300,9.9307,0.0044,0.0011,0.0055,0.00,-0.31,38.00,-0.0416,-0.0984,9.7935,9.7941
1,3,2,4,0,08.733,8733,0.0700,-0.0300,9.8600,9.8603,-0.0011,-0.0011,-0.0011,0.00,-0.31,38.00,-0.0269,-0.0894,9.8023,9.8027
1,3,2,4,0,08.864,8864,-0.0100,-0.0500,9.7200,9.7201,0.0033,0.0065,0.0076,0.00,-0.31,38.00,-0.0247,-0.0842,9.7914,9.7918
1,3,2,4,0,08.994,8994,-0.0600,-0.0200,9.8700,9.8702,-0.0055,0.0022,0.0033,0.00,-0.31,38.00,-0.0293,-0.0757,9.8018,9.8021
1,3,2,4,0,09.125,9125,-0.0300,-0.1800,9.8800,9.8817,-0.0011,-0.0022,-0.0033,0.00,-0.31,38.00,-0.0294,-0.0895,9.8121,9.8125
1,3,2,4,0,09.255,9255,-0.0400,0.0600,9.7400,9.7403,0.0044,-0.0087,0.0175,0.00,-0.31,38.06,-0.0308,-0.0698,9.8026,9.8029
1,3,2,4,0,09.428,9428,0.0600,0.0200,9.7500,9.7502,-0.0022,-0.0076,-0.0044,0.00,-0.31,38.06,-0.0188,-0.0579,9.7957,9.7958
1,3,2,4,0,09.558,9558,0.0900,-0.0200,9.6900,9.6904,0.0076,0.0011,0.0175,0.00,-0.38,38.06,-0.0045,-0.0529,9.7817,9.7819
1,3,2,4,0,09.691,9691,0.0600,0.1300,9.8200,9.8210,-0.0131,0.0076,-0.0153,0.00,-0.31,38.13,0.0040,-0.0288,9.7868,9.7868
1,3,2,4,0,09.826,9826,-0.1000,-0.1500,9.7400,9.7417,0.0011,0.0011,0.0076,0.00,-0.38,38.06,-0.0097,-0.0448,9.7806,9.7807
1,3,2,4,0,09.957,9957,-0.0200,0.0000,10.1600,10.1600,0.0044,-0.0022,0.0011,0.00,-0.38,38.13,-0.0111,-0.0389,9.8306,9.8307
1,3,2,4,0,10.087,10087,0.0000,0.1100,10.6900,10.6906,-0.0033,-0.0044,-0.0109,0.00,-0.31,38.13,-0.0096,-0.0193,9.9439,9.9439
1,3,2,4,0,10.217,10217,-0.0900,-0.1100,10.9400,10.9409,0.0011,0.0065,0.0175,0.00,-0.38,38.06,-0.0202,-0.0312,10.0751,10.0752
1,3,2,4,0,10.348,10348,0.0000,-0.0700,11.0500,11.0502,0.0044,-0.0033,0.0033,0.00,-0.38,38.13,-0.0175,-0.0363,10.2036,10.2037
1,3,2,4,0,10.521,10521,-0.0700,-0.0100,10.7900,10.7902,0.0000,0.0022,0.0142,0.00,-0.38,38.19,-0.0244,-0.0329,10.2809,10.2809
1,3,2,4,0,10.652,10652,-0.0200,-0.1100,10.2600,10.2606,0.0000,0.0000,0.0175,0.00,-0.38,38.31,-0.0239,-0.0430,10.2781,10.2782
1,3,2,4,0,10.783,10783,-0.0800,-0.1500,10.6400,10.6414,-0.0033,0.0065,0.0240,0.00,-0.38,38.44,-0.0313,-0.0571,10.3258,10.3260
1,3,2,4,0,10.918,10918,-0.0400,-0.2400,10.1400,10.1429,-0.0011,-0.0065,0.0142,0.00,-0.38,38.63,-0.0324,-0.0812,10.3013,10.3017
1,3,2,4,0,11.049,11049,0.1000,-0.0200,8.6600,8.6606,0.0033,-0.0033,0.0185,0.00,-0.38,38.69,-0.0150,-0.0732,10.0850,10.0853
1,3,2,4,0,11.180,11180,0.0000,0.1500,6.7000,6.7017,-0.0033,-0.0055,0.0098,0.00,-0.38,38.88,-0.0130,-0.0438,9.6390,9.6391
1,3,2,4,0,11.310,11310,0.1600,-0.7300,6.8700,6.9105,-0.0240,-0.0033,-0.0175,0.00,-0.31,38.88,0.0098,-0.1342,9.2741,9.2751
1,3,2,4,0,11.441,11441,0.1200,-0.1400,9.1500,9.1519,0.0055,0.0098,0.0284,0.00,-0.31,38.88,0.0243,-0.1349,9.2577,9.2588
1,4,2,4,0,11.614,11614,0.2500,-0.1000,9.4400,9.4438,-0.0022,0.0044,-0.0262,0.00,-0.31,38.81,0.0541,-0.1303,9.2818,9.2828
1,4,2,4,0,11.745,11745,-0.0900,-0.1900,9.5000,9.5023,0.0011,0.0000,0.0295,0.00,-0.31,38.81,0.0351,-0.1382,9.3105,9.3116
1,4,2,4,0,11.875,11875,-0.0400,-0.1100,9.7700,9.7707,0.0022,0.0033,-0.0349,0.00,-0.31,38.69,0.0252,-0.1345,9.3711,9.3721
1,4,2,4,0,12.009,12009,-0.0300,-0.0800,9.5800,9.5804,0.0011,0.0044,0.0087,0.00,-0.31,38.81,0.0179,-0.1273,9.3986,9.3995
1,4,2,4,0,12.142,12142,0.0300,-0.1300,9.7600,9.7609,0.0109,0.0098,0.0000,0.00,-0.31,38.69,0.0195,-0.1277,9.4462,9.4471
1,4,2,4,0,12.273,12273,0.0700,-0.1400,9.9500,9.9512,-0.0011,-0.0033,-0.0295,0.00,-0.31,38.69,0.0262,-0.1293,9.5126,9.5135
1,4,2,4,0,12.403,12403,0.0400,-0.1300,9.9300,9.9309,0.0044,0.0044,0.0000,0.00,-0.31,38.63,0.0280,-0.1294,9.5676,9.5685
1,4,2,4,0,12.534,12534,-0.1100,-0.0800,10.0300,10.0309,0.0033,-0.0022,-0.0153,0.00,-0.31,38.63,0.0098,-0.1229,9.6285,9.6293
1,4,2,4,0,12.707,12707,0.0000,-0.1000,10.1000,10.1005,0.0000,0.0076,0.0076,0.00,-0.31,38.56,0.0085,-0.1199,9.6907,9.6914
1,4,2,4,0,12.838,12838,-0.1100,0.0100,10.1900,10.1906,0.0022,0.0055,0.0076,0.00,-0.31,38.56,-0.0071,-0.1027,9.7565,9.7570
1,4,2,4,0,12.968,12968,-0.0400,0.0400,10.1500,10.1502,-0.0033,0.0000,-0.0120,0.00,-0.31,38.56,-0.0114,-0.0839,9.8083,9.8087
1,4,2,4,0,13.101,13101,0.0500,-0.0800,10.0400,10.0404,0.0022,0.0011,0.0076,0.00,-0.31,38.56,-0.0033,-0.0834,9.8389,9.8392
1,4,2,4,0,13.235,13235,-0.0100,-0.0700,9.8400,9.8403,-0.0065,-0.0022,0.0022,0.00,-0.31,38.63,-0.0042,-0.0817,9.8390,9.8393
1,4,2,4,0,13.366,13366,0.0000,-0.0100,9.7600,9.7600,0.0087,-0.0011,0.0011,0.00,-0.31,38.56,-0.0037,-0.0722,9.8286,9.8289
1,4,2,4,0,13.497,13497,0.0600,-0.0400,9.8500,9.8503,0.0011,0.0011,0.0076,0.00,-0.31,38.63,0.0047,-0.0680,9.8314,9.8316
1,4,2,4,0,13.627,13627,0.0200,-0.0500,9.7000,9.7001,-0.0011,0.0055,-0.0098,0.00,-0.31,38.56,0.0067,-0.0656,9.8141,9.8143
1,4,2,4,0,13.800,13800,0.0900,0.0000,9.7800,9.7804,-0.0055,0.0109,-0.0022,0.00,-0.31,38.63,0.0177,-0.0570,9.8096,9.8098
1,4,2,4,0,13.931,13931,-0.0500,-0.1500,10.2100,10.2112,-0.0011,-0.0011,-0.0098,0.00,-0.31,38.63,0.0088,-0.0692,9.8624,9.8626
1,4,2,4,0,14.067,14067,-0.0600,-0.1100,10.8000,10.8007,0.0022,-0.0022,0.0142,0.00,-0.31,38.69,-0.0003,-0.0746,9.9859,9.9862
1,4,2,4,0,14.199,14199,0.0100,-0.0500,10.9100,10.9101,-0.0022,-0.0044,-0.0196,0.00,-0.31,38.63,0.0011,-0.0713,10.1077,10.1079
1,4,2,4,0,14.329,14329,-0.1500,-0.0200,11.1200,11.1210,0.0044,0.0011,0.0185,0.00,-0.31,38.69,-0.0188,-0.0646,10.2411,10.2413
1,4,2,4,0,14.460,14460,-0.0300,-0.0700,10.9700,10.9703,-0.0022,-0.0022,-0.0011,0.00,-0.31,38.75,-0.0203,-0.0653,10.3371,10.3374
1,4,2,4,0,14.590,14590,-0.0200,-0.0400,10.6000,10.6001,0.0065,0.0000,0.0196,0.00,-0.31,38.81,-0.0203,-0.0620,10.3718,10.3720
1,4,2,4,0,14.721,14721,-0.1600,0.0000,10.5800,10.5812,0.0000,0.0000,0.0142,0.00,-0.31,38.88,-0.0387,-0.0538,10.3992,10.3994
1,4,2,4,0,14.894,14894,0.2400,-0.7900,10.5100,10.5424,0.0000,0.0044,0.0218,0.00,-0.31,39.13,-0.0020,-0.1508,10.4138,10.4149
1,4,2,4,0,15.025,15025,-0.1100,-0.1800,9.3000,9.3024,0.0011,-0.0033,0.0229,0.00,-0.31,39.25,-0.0162,-0.1547,10.2670,10.2682
1,4,2,4,0,15.161,15161,0.2400,0.2400,6.9700,6.9783,0.0022,0.0033,0.0153,0.00,-0.31,39.38,0.0176,-0.1027,9.8326,9.8331
1,4,2,4,0,15.292,15292,0.2900,0.2100,4.2800,4.2950,-0.0076,-0.0011,-0.0065,0.00,-0.31,39.38,0.0535,-0.0615,9.1009,9.1013
1,4,2,4,0,15.422,15422,0.0900,-0.0600,8.0200,8.0207,0.0011,-0.0044,-0.0044,0.00,-0.31,39.50,0.0583,-0.0613,8.9585,8.9589
1,5,2,4,0,15.553,15553,-0.0900,-0.1200,9.6400,9.6412,-0.0033,-0.0076,-0.0033,0.00,-0.31,39.50,0.0387,-0.0690,9.0483,9.0486
1,5,2,4,0,15.683,15683,-0.2100,-0.1000,9.9000,9.9027,-0.0011,-0.0076,-0.0131,0.00,-0.31,39.31,0.0060,-0.0731,9.1605,9.1608
1,5,2,4,0,15.833,15833,0.1100,-0.2000,9.7800,9.7827,0.0022,0.0000,-0.0098,0.00,-0.31,39.44,0.0197,-0.0898,9.2421,9.2426
1,5,2,4,0,16.006,16006,-0.0100,-0.0500,9.8300,9.8301,0.0033,0.0022,0.0098,0.00,-0.31,39.31,0.0158,-0.0846,9.3196,9.3200
1,5,2,4,0,16.136,16136,-0.0400,-0.0600,9.5900,9.5903,0.0065,0.0109,-0.0055,0.00,-0.31,39.25,0.0084,-0.0813,9.3552,9.3556
1,5,2,4,0,16.266,16266,-0.0300,-0.0800,9.8000,9.8004,-0.0011,-0.0022,-0.0109,0.00,-0.31,39.25,0.0034,-0.0812,9.4138,9.4142
1,5,2,4,0,16.396,16396,-0.0400,0.1100,9.9500,9.9507,-0.0044,-0.0022,-0.0044,0.00,-0.38,39.25,-0.0024,-0.0560,9.4845,9.4847
1,5,2,4,0,16.526,16526,-0.0500,-0.1100,9.7500,9.7507,-0.0022,0.0022,-0.0033,0.00,-0.38,39.25,-0.0086,-0.0631,9.5195,9.5197
1,5,2,4,0,16.656,16656,-0.0100,-0.1400,9.7800,9.7810,0.0033,-0.0011,-0.0011,0.00,-0.38,39.25,-0.0088,-0.0732,9.5538,9.5541
1,5,2,4,0,16.786,16786,-0.0200,0.0000,10.1000,10.1000,0.0033,0.0076,-0.0033,0.00,-0.38,39.25,-0.0103,-0.0636,9.6258,9.6260
1,5,2,4,0,16.917,16917,0.0000,-0.0200,10.3300,10.3300,-0.0044,0.0131,0.0000,0.00,-0.38,39.25,-0.0089,-0.0578,9.7186,9.7188
1,5,2,4,0,17.090,17090,0.0000,-0.2000,10.0700,10.0720,-0.0055,0.0175,-0.0065,0.00,-0.38,39.25,-0.0078,-0.0766,9.7649,9.7652
1,5,2,4,0,17.222,17222,-0.1100,0.0000,9.9700,9.9706,-0.0011,-0.0065,0.0120,0.00,-0.38,39.31,-0.0212,-0.0665,9.7919,9.7922
1,5,2,4,0,17.352,17352,0.0500,-0.1400,9.7600,9.7611,0.0000,-0.0120,0.0000,0.00,-0.38,39.31,-0.0118,-0.0762,9.7877,9.7880
1,5,2,4,0,17.482,17482,0.1000,0.0300,9.7700,9.7706,0.0044,-0.0011,0.0164,-0.06,-0.38,39.31,0.0029,-0.0622,9.7854,9.7856
1,5,2,4,0,17.618,17618,0.0400,0.0000,9.8300,9.8301,0.0011,0.0044,-0.0131,-0.06,-0.38,39.31,0.0078,-0.0540,9.7913,9.7914
1,5,2,4,0,17.749,17749,0.1000,-0.0300,9.6800,9.6806,-0.0022,0.0109,0.0076,-0.06,-0.38,39.31,0.0199,-0.0508,9.7766,9.7767
1,5,2,4,0,17.879,17879,-0.0900,-0.1100,9.6100,9.6111,0.0022,0.0033,-0.0076,-0.06,-0.38,39.31,0.0054,-0.0586,9.7546,9.7548
1,5,2,4,0,18.010,18010,-0.0500,-0.1000,9.8100,9.8106,0.0000,-0.0011,0.0087,-0.06,-0.38,39.31,-0.0019,-0.0641,9.7619,9.7621
1,5,2,4,0,18.183,18183,0.0800,-0.0600,10.2800,10.2805,-0.0011,0.0044,-0.0065,0.00,-0.38,39.31,0.0089,-0.0635,9.8302,9.8304
1,5,2,4,0,18.314,18314,-0.1800,-0.1400,10.6000,10.6025,0.0087,-0.0055,-0.0076,0.00,-0.38,39.31,-0.0160,-0.0736,9.9316,9.9319
1,5,2,4,0,18.450,18450,0.0400,-0.0700,11.1800,11.1803,-0.0033,0.0022,0.0153,0.00,-0.38,39.31,-0.0086,-0.0731,10.0961,10.0964
1,5,2,4,0,18.581,18581,-0.1300,0.0500,10.7200,10.7209,0.0022,-0.0011,0.0000,0.00,-0.38,39.31,-0.0246,-0.0569,10.1784,10.1785
1,5,2,4,0,18.712,18712,-0.0900,-0.0900,10.5900,10.5908,0.0055,-0.0033,0.0131,0.00,-0.38,39.44,-0.0332,-0.0613,10.2326,10.2328
1,5,2,4,0,18.842,18842,0.0300,-0.1800,10.5300,10.5316,0.0044,0.0000,0.0076,0.00,-0.38,39.50,-0.0249,-0.0769,10.2718,10.2721
1,5,2,4,0,18.972,18972,-0.0400,0.1100,10.8900,10.8906,0.0011,0.0022,0.0153,0.00,-0.38,39.63,-0.0269,-0.0523,10.3533,10.3534
1,5,2,4,0,19.103,19103,-0.4700,-0.4200,10.0500,10.0697,-0.0011,-0.0011,0.0218,0.00,-0.38,39.81,-0.0853,-0.1007,10.3133,10.3141
1,5,2,4,0,19.276,19276,-0.3000,-0.0700,7.8700,7.8760,0.0000,-0.0022,0.0447,0.00,-0.38,39.94,-0.1136,-0.0967,9.9913,9.9924
1,5,2,4,0,19.407,19407,0.3300,-0.0300,6.8200,6.8280,0.0011,0.0076,0.0033,0.00,-0.38,40.06,-0.0551,-0.0879,9.5734,9.5740
1,5,2,4,0,19.540,19540,-0.3200,-0.2100,7.1100,7.1203,0.0011,-0.0044,0.0207,0.00,-0.31,40.00,-0.0900,-0.1040,9.2488,9.2498
1,5,2,4,0,19.671,19671,-0.4300,0.0600,8.0700,8.0817,0.0044,0.0011,-0.0535,0.00,-0.31,40.13,-0.1348,-0.0824,9.0935,9.0948
1,6,2,4,0,19.805,19805,0.1800,0.1400,9.2500,9.2528,-0.0109,-0.0207,-0.0153,0.00,-0.31,40.06,-0.0933,-0.0531,9.1141,9.1147
1,6,2,4,0,19.935,19935,-0.6300,0.6500,9.9100,9.9513,0.0076,0.0131,0.0720,0.00,-0.31,40.00,-0.1641,0.0396,9.2190,9.2205
1,6,2,4,0,20.065,20065,-0.0500,0.0000,10.0300,10.0301,-0.0022,-0.0065,-0.0284,-0.06,-0.44,39.94,-0.1490,0.0344,9.3259,9.3271
1,6,2,4,0,20.196,20196,-0.0500,-0.4100,9.9200,9.9286,0.0098,0.0185,0.0371,-0.06,-0.38,39.88,-0.1360,-0.0242,9.4041,9.4052
1,6,2,4,0,20.369,20369,0.2800,0.0000,10.2600,10.2638,-0.0011,0.0065,0.0109,-0.06,-0.38,39.75,-0.0812,-0.0210,9.5169,9.5173
1,6,2,4,0,20.505,20505,0.0300,-0.3700,10.1500,10.1568,0.0000,-0.0033,-0.0196,-0.13,-0.38,39.88,-0.0665,-0.0670,9.6003,9.6008
1,6,2,4,0,20.637,20637,-0.0900,-0.1900,10.3000,10.3021,-0.0011,0.0109,0.0273,-0.06,-0.38,39.69,-0.0696,-0.0832,9.6925,9.6932
1,6,2,4,0,20.767,20767,-0.1500,0.0600,10.4800,10.4812,-0.0065,0.0000,-0.0153,-0.13,-0.38,39.94,-0.0802,-0.0643,9.7963,9.7969
1,6,2,4,0,20.897,20897,-0.1800,-0.3800,10.2000,10.2087,0.0011,-0.0022,0.0109,-0.06,-0.38,39.69,-0.0934,-0.1059,9.8495,9.8505
1,6,2,4,0,21.028,21028,-0.4300,-0.2100,9.7000,9.7118,0.0087,-0.0076,0.0164,-0.06,-0.44,39.88,-0.1377,-0.1196,9.8298,9.8315
1,6,2,4,0,21.159,21159,-0.0500,-0.2900,9.9600,9.9643,0.0055,0.0022,-0.0273,-0.06,-0.38,39.75,-0.1262,-0.1421,9.8470,9.8488
1,6,2,4,0,21.289,21289,-0.0100,-0.2500,9.7400,9.7432,0.0098,0.0087,0.0142,-0.06,-0.38,39.75,-0.1108,-0.1563,9.8329,9.8347
1,6,2,4,0,21.462,21462,0.1200,0.0000,9.7400,9.7407,-0.0022,0.0055,-0.0131,-0.06,-0.38,39.88,-0.0804,-0.1357,9.8206,9.8219
1,6,2,4,0,21.592,21592,-0.0700,-0.0600,9.8800,9.8804,0.0011,0.0022,0.0000,-0.06,-0.38,39.81,-0.0791,-0.1257,9.8285,9.8296
1,6,2,4,0,21.723,21723,-0.0800,0.0600,9.6200,9.6205,0.0022,0.0000,0.0087,-0.06,-0.38,39.88,-0.0792,-0.1013,9.8010,9.8018
1,6,2,4,0,21.857,21857,-0.0400,-0.1100,9.7400,9.7407,-0.0022,0.0011,-0.0142,-0.06,-0.38,39.81,-0.0740,-0.1024,9.7929,9.7938
1,6,2,4,0,21.990,21990,0.0500,-0.0300,9.8200,9.8202,0.0011,0.0033,0.0153,-0.06,-0.38,39.88,-0.0577,-0.0929,9.7965,9.7971
1,6,2,4,0,22.121,22121,-0.0400,-0.0500,9.9800,9.9802,0.0044,-0.0033,0.0000,-0.06,-0.38,39.88,-0.0553,-0.0872,9.8207,9.8212
1,6,2,4,0,22.251,22251,0.0000,-0.0700,10.3800,10.3802,0.0011,0.0000,-0.0033,-0.06,-0.38,39.88,-0.0481,-0.0850,9.8944,9.8949
1,6,2,4,0,22.382,22382,0.0100,-0.0300,10.9400,10.9400,-0.0011,0.0055,-0.0131,-0.06,-0.38,39.88,-0.0404,-0.0777,10.0322,10.0326
1,6,2,4,0,22.555,22555,0.0100,-0.0900,11.2800,11.2804,0.0044,0.0000,0.0065,-0.06,-0.38,39.94,-0.0338,-0.0793,10.1966,10.1970
1,6,2,4,0,22.688,22688,0.0200,-0.0600,11.1200,11.1202,-0.0033,0.0022,0.0098,-0.06,-0.38,39.94,-0.0267,-0.0768,10.3183,10.3186
1,6,2,4,0,22.821,22821,0.0100,0.0400,10.9100,10.9101,0.0044,-0.0044,0.0196,-0.06,-0.38,40.06,-0.0218,-0.0614,10.3963,10.3965
1,6,2,4,0,22.953,22953,-0.1100,-0.2200,10.5500,10.5529,-0.0022,-0.0011,0.0305,-0.06,-0.38,40.19,-0.0335,-0.0823,10.4165,10.4169
1,6,2,4,0,23.083,23083,0.0800,-0.2200,10.4300,10.4326,0.0109,0.0055,0.0240,-0.06,-0.44,40.38,-0.0185,-0.1004,10.4183,10.4188
1,6,2,4,0,23.214,23214,0.2400,0.4000,8.5000,8.5128,-0.0120,0.0022,-0.0065,0.00,-0.31,40.56,0.0156,-0.0345,10.1655,10.1656
1,6,2,4,0,23.344,23344,-0.4000,-0.7900,6.3900,6.4511,0.0142,0.0087,0.0840,-0.06,-0.38,40.69,-0.0392,-0.1341,9.6680,9.6690
1,6,2,4,0,23.475,23475,0.4100,-0.0800,5.0300,5.0473,-0.0087,0.0055,-0.0644,-0.06,-0.31,40.63,0.0200,-0.1269,9.0568,9.0577
1,6,2,4,0,23.651,23651,0.0900,0.0500,7.6600,7.6607,0.0000,-0.0033,-0.0404,-0.06,-0.31,40.88,0.0292,-0.1036,8.8728,8.8734
1,6,2,4,0,23.785,23785,-0.6000,0.9100,8.8200,8.8871,0.0055,0.0055,0.0164,-0.06,-0.31,40.69,-0.0537,0.0300,8.8658,8.8660
1,7,2,4,0,23.916,23916,0.2500,0.1600,10.7700,10.7741,-0.0087,-0.0055,0.0022,-0.06,-0.38,40.63,-0.0137,0.0471,9.1167,9.1169
1,7,2,4,0,24.046,24046,0.1500,-0.1300,10.8200,10.8218,0.0055,0.0120,-0.0109,-0.13,-0.38,40.63,0.0079,0.0238,9.3412,9.3412
1,7,2,4,0,24.176,24176,-0.1900,0.0200,10.5600,10.5617,0.0065,0.0087,0.0065,-0.06,-0.38,40.50,-0.0182,0.0233,9.5018,9.5018
1,7,2,4,0,24.307,24307,-0.0200,-0.2200,9.9800,9.9824,0.0000,-0.0033,-0.0142,-0.13,-0.38,40.56,-0.0184,-0.0088,9.5648,9.5648
1,7,2,4,0,24.437,24437,0.0100,-0.0600,10.0800,10.0802,0.0065,0.0044,0.0044,-0.13,-0.44,40.50,-0.0147,-0.0155,9.6327,9.6327
1,7,2,4,0,24.568,24568,-0.2500,0.0000,9.8500,9.8532,-0.0033,0.0033,0.0022,-0.13,-0.44,40.50,-0.0457,-0.0135,9.6613,9.6614
1,7,2,4,0,24.740,24740,-0.1300,-0.3000,9.8500,9.8554,0.0000,0.0055,0.0120,-0.06,-0.44,40.44,-0.0568,-0.0512,9.6862,9.6865
1,7,2,4,0,24.870,24870,0.0400,0.0000,10.0300,10.0301,0.0055,-0.0098,0.0076,-0.13,-0.44,40.50,-0.0440,-0.0445,9.7315,9.7317
1,7,2,4,0,25.000,25000,0.0200,-0.0200,9.8700,9.8700,-0.0044,0.0011,0.0055,-0.13,-0.44,40.44,-0.0356,-0.0413,9.7497,9.7499
1,7,2,4,0,25.130,25130,-0.0200,0.0400,9.8300,9.8301,0.0055,-0.0044,0.0022,-0.13,-0.44,40.44,-0.0335,-0.0306,9.7603,9.7604
1,7,2,4,0,25.260,25260,0.0400,0.0500,9.8200,9.8202,-0.0011,0.0022,0.0000,-0.13,-0.44,40.44,-0.0239,-0.0199,9.7682,9.7682
1,7,2,4,0,25.390,25390,0.1700,0.0900,9.8900,9.8919,0.0000,0.0098,-0.0076,-0.13,-0.44,40.44,0.0017,-0.0055,9.7842,9.7842
1,7,2,4,0,25.520,25520,-0.1100,0.0000,9.7300,9.7306,-0.0087,0.0109,0.0065,-0.13,-0.44,40.50,-0.0130,-0.0047,9.7771,9.7771
1,7,2,4,0,25.651,25651,-0.4000,0.0600,9.7100,9.7184,-0.0120,-0.0109,0.0033,-0.19,-0.44,40.50,-0.0640,0.0038,9.7683,9.7685
1,7,2,4,0,25.824,25824,-0.3600,-0.0300,9.8000,9.8067,-0.0164,-0.0087,-0.0098,-0.13,-0.50,40.50,-0.1030,-0.0007,9.7724,9.7730
1,7,2,4,0,25.954,25954,-0.2800,-0.1200,9.6000,9.6048,0.0000,-0.0142,0.0087,-0.25,-0.44,40.56,-0.1263,-0.0164,9.7497,9.7505
1,7,2,4,0,26.090,26090,0.1800,0.0000,9.6500,9.6517,0.0131,0.0033,-0.0087,-0.19,-0.50,40.50,-0.0860,-0.0142,9.7366,9.7370
1,7,2,4,0,26.222,26222,0.0000,-0.1900,9.7300,9.7319,-0.0120,0.0196,0.0109,-0.19,-0.50,40.50,-0.0746,-0.0374,9.7357,9.7361
1,7,2,4,0,26.353,26353,-0.7000,-0.1900,9.8500,9.8767,-0.0011,0.0251,-0.0076,-0.19,-0.50,40.50,-0.1571,-0.0575,9.7508,9.7522
1,7,2,4,0,26.483,26483,-0.0200,0.4000,10.0800,10.0880,0.0076,-0.0185,0.0295,-0.19,-0.50,40.56,-0.1390,0.0028,9.7942,9.7951
1,7,2,4,0,26.613,26613,0.2400,-0.1400,10.3700,10.3737,0.0033,-0.0120,-0.0098,-0.19,-0.44,40.56,-0.0891,-0.0160,9.8700,9.8704
1,7,2,4,0,26.744,26744,0.2400,0.0500,11.2100,11.2127,0.0011,0.0000,0.0055,-0.19,-0.44,40.50,-0.0457,-0.0073,10.0466,10.0467
1,7,2,4,0,26.917,26917,0.0500,-0.0800,11.6500,11.6504,0.0109,-0.0033,0.0120,-0.19,-0.44,40.63,-0.0331,-0.0169,10.2579,10.2580
1,7,2,4,0,27.053,27053,-0.2000,0.3400,11.1400,11.1470,0.0044,-0.0011,-0.0131,-0.19,-0.44,40.69,-0.0551,0.0301,10.3741,10.3743
1,7,2,4,0,27.183,27183,-0.4800,-0.4100,10.6200,10.6387,0.0055,0.0065,0.0349,-0.13,-0.50,40.75,-0.1111,-0.0279,10.4065,10.4072
1,7,2,4,0,27.315,27315,-0.4100,0.0700,10.3200,10.3284,0.0033,0.0044,0.0393,-0.19,-0.50,40.94,-0.1505,-0.0150,10.3951,10.3962
1,7,2,4,0,27.446,27446,-0.5100,0.2600,9.2700,9.2877,0.0011,0.0087,-0.0425,-0.19,-0.50,41.06,-0.1978,0.0213,10.2469,10.2488
1,7,2,4,0,27.576,27576,0.0800,0.2200,7.6800,7.6836,-0.0120,-0.0098,0.0338,-0.19,-0.50,41.25,-0.1612,0.0474,9.9086,9.9100
1,7,2,4,0,27.707,27707,-0.0200,0.0900,6.1900,6.1907,-0.0196,-0.0065,0.0371,-0.19,-0.50,41.38,-0.1426,0.0531,9.4186,9.4198
1,7,2,4,0,27.837,27837,-1.4100,0.3000,6.6000,6.7556,-0.0076,0.0055,-0.0284,-0.19,-0.50,41.31,-0.3096,0.0856,9.0472,9.0529
1,7,2,4,0,28.010,28010,0.0100,-0.1200,8.1200,8.1209,0.0055,0.0055,0.0044,-0.19,-0.50,41.38,-0.2675,0.0585,8.9250,8.9292
1,8,2,4,0,28.141,28141,0.1000,-0.2500,9.3900,9.3939,0.0055,0.0153,-0.0535,-0.19,-0.50,41.25,-0.2191,0.0179,8.9863,8.9890
1,8,2,4,0,28.273,28273,0.0900,-0.0500,10.6600,10.6605,0.0033,0.0065,0.0076,-0.19,-0.50,41.25,-0.1784,0.0089,9.2068,9.2086
1,8,2,4,0,28.408,28408,-0.0600,0.0100,10.5900,10.5902,0.0000,0.0065,-0.0175,-0.19,-0.50,41.13,-0.1628,0.0091,9.3891,9.3905
1,8,2,4,0,28.539,28539,-0.2100,-0.2200,10.2600,10.2645,-0.0011,0.0055,-0.0109,-0.19,-0.50,41.13,-0.1690,-0.0211,9.5039,9.5054
1,8,2,4,0,28.669,28669,0.0000,0.0000,9.8800,9.8800,-0.0011,-0.0033,0.0011,-0.19,-0.50,41.06,-0.1467,-0.0183,9.5534,9.5546
1,8,2,4,0,28.800,28800,0.0000,-0.0600,10.0100,10.0102,-0.0022,0.0055,-0.0076,-0.19,-0.50,41.06,-0.1274,-0.0238,9.6136,9.6145
1,8,2,4,0,28.930,28930,-0.0100,-0.0600,10.4200,10.4202,0.0022,0.0055,-0.0044,-0.13,-0.50,41.06,-0.1119,-0.0286,9.7199,9.7205
1,8,2,4,0,29.103,29103,-0.0100,-0.0200,10.1000,10.1000,-0.0011,0.0022,-0.0087,-0.13,-0.50,41.06,-0.0985,-0.0275,9.7699,9.7705
1,8,2,4,0,29.234,29234,0.0100,0.0100,9.9500,9.9500,-0.0011,0.0033,0.0087,-0.13,-0.50,41.06,-0.0842,-0.0225,9.7937,9.7941
1,8,2,4,0,29.364,29364,-0.0600,-0.0100,9.9300,9.9302,0.0011,-0.0011,-0.0033,-0.13,-0.50,41.06,-0.0810,-0.0209,9.8116,9.8120
1,8,2,4,0,29.495,29495,-0.0100,-0.1300,9.9500,9.9509,0.0011,0.0011,0.0055,-0.13,-0.50,41.06,-0.0716,-0.0353,9.8299,9.8302
1,8,2,4,0,29.631,29631,0.0400,-0.0300,9.8800,9.8801,0.0000,0.0000,0.0000,-0.13,-0.50,41.06,-0.0569,-0.0346,9.8365,9.8367
1,8,2,4,0,29.762,29762,-0.0600,-0.0300,9.7700,9.7702,0.0011,0.0033,0.0022,-0.13,-0.50,41.06,-0.0573,-0.0340,9.8277,9.8279
1,8,2,4,0,29.893,29893,-0.0100,-0.1400,9.7700,9.7710,-0.0011,0.0000,0.0022,-0.13,-0.50,41.06,-0.0511,-0.0479,9.8201,9.8204
1,8,2,4,0,30.023,30023,-0.0100,-0.0300,9.6900,9.6901,-0.0011,-0.0022,0.0065,-0.13,-0.50,41.06,-0.0457,-0.0456,9.8030,9.8032
1,8,2,4,0,30.196,30196,0.0200,-0.0300,9.6900,9.6901,-0.0022,0.0000,-0.0076,-0.13,-0.50,41.06,-0.0370,-0.0435,9.7881,9.7882
1,8,2,4,0,30.327,30327,-0.0200,-0.0400,10.0100,10.0101,0.0044,0.0000,0.0033,-0.13,-0.50,41.06,-0.0348,-0.0431,9.8173,9.8175
1,8,2,4,0,30.462,30462,-0.0200,-0.0600,10.2000,10.2002,-0.0033,0.0000,-0.0022,-0.13,-0.50,41.06,-0.0328,-0.0453,9.8678,9.8679
1,8,2,4,0,30.594,30594,-0.0900,-0.1600,10.7300,10.7316,0.0000,-0.0011,-0.0109,-0.13,-0.50,41.06,-0.0404,-0.0604,9.9814,9.9816
1,8,2,4,0,30.725,30725,-0.0500,-0.1400,11.4300,11.4310,0.0000,-0.0011,0.0109,-0.13,-0.50,41.06,-0.0416,-0.0709,10.1723,10.1726
1,8,2,4,0,30.855,30855,0.0000,-0.2000,11.0100,11.0118,0.0000,-0.0022,-0.0044,-0.13,-0.50,41.06,-0.0362,-0.0879,10.2827,10.2831
1,8,2,4,0,31.005,31005,0.0800,-0.0200,11.1300,11.1303,-0.0022,0.0000,0.0175,-0.13,-0.50,41.13,-0.0208,-0.0790,10.3943,10.3946
1,8,2,4,0,31.136,31136,0.1500,-0.2100,10.7700,10.7731,-0.0011,0.0000,0.0142,-0.13,-0.50,41.19,0.0017,-0.0962,10.4438,10.4443
1,8,2,4,0,31.309,31309,-0.1200,-0.1200,10.1700,10.1714,-0.0055,0.0011,0.0218,-0.13,-0.50,41.44,-0.0144,-0.0994,10.4077,10.4082
1,8,2,4,0,31.440,31440,-0.0500,0.1000,8.7400,8.7407,-0.0055,-0.0033,0.0207,-0.06,-0.44,41.50,-0.0191,-0.0731,10.1880,10.1883
1,8,2,4,0,31.570,31570,0.0700,-0.2300,6.9800,6.9841,-0.0044,0.0087,0.0087,-0.13,-0.44,41.63,-0.0073,-0.0938,9.7652,9.7657
1,8,2,4,0,31.706,31706,-0.0400,0.3100,4.6200,4.6306,-0.0022,-0.0055,0.0175,-0.13,-0.44,41.56,-0.0116,-0.0406,9.0872,9.0873
1,8,2,4,0,31.838,31838,-0.1100,0.2000,7.4400,7.4435,-0.0120,-0.0044,-0.0513,-0.13,-0.44,41.69,-0.0246,-0.0089,8.8702,8.8702
1,8,2,4,0,31.968,31968,-0.0100,-0.0600,8.5900,8.5902,0.0033,0.0000,0.0175,-0.13,-0.44,41.63,-0.0227,-0.0156,8.8332,8.8333
1,9,2,4,0,32.099,32099,-0.0300,0.0300,9.7900,9.7901,0.0000,0.0076,-0.0524,-0.13,-0.44,41.44,-0.0236,-0.0096,8.9593,8.9594
1,9,2,4,0,32.229,32229,-0.0300,-0.3500,10.6000,10.6058,0.0033,-0.0022,0.0011,-0.13,-0.44,41.44,-0.0245,-0.0544,9.1755,9.1757
1,9,2,4,0,32.402,32402,0.2300,-0.1300,9.9300,9.9335,0.0033,0.0055,0.0065,-0.13,-0.44,41.31,0.0091,-0.0644,9.2749,9.2752
1,9,2,4,0,32.536,32536,0.0900,-0.0700,10.3900,10.3906,-0.0087,0.0065,-0.0229,-0.13,-0.44,41.19,0.0197,-0.0651,9.4219,9.4221
1,9,2,4,0,32.670,32670,-0.0500,-0.0800,10.1300,10.1304,-0.0011,0.0011,-0.0065,-0.13,-0.44,41.19,0.0105,-0.0671,9.5152,9.5154
1,9,2,4,0,32.801,32801,-0.0200,-0.1300,10.1000,10.1009,-0.0044,0.0044,0.0000,-0.06,-0.44,41.13,0.0065,-0.0754,9.5923,9.5926
1,9,2,4,0,32.931,32931,-0.0200,-0.1200,10.3400,10.3407,-0.0022,0.0022,-0.0055,-0.06,-0.44,41.13,0.0030,-0.0813,9.6908,9.6911
1,9,2,4,0,33.061,33061,0.0200,-0.1300,10.2500,10.2508,-0.0011,-0.0022,-0.0044,-0.06,-0.44,41.13,0.0053,-0.0877,9.7645,9.7649
1,9,2,4,0,33.192,33192,0.0000,0.0000,9.8500,9.8500,-0.0065,0.0011,0.0011,-0.06,-0.44,41.13,0.0046,-0.0761,9.7757,9.7760
1,9,2,4,0,33.322,33322,0.0000,-0.0300,9.8700,9.8700,0.0033,-0.0022,-0.0022,-0.06,-0.44,41.13,0.0040,-0.0701,9.7882,9.7884
1,9,2,4,0,33.495,33495,0.0000,-0.0900,9.8100,9.8104,0.0011,0.0022,0.0022,-0.06,-0.44,41.13,0.0034,-0.0727,9.7910,9.7913
1,9,2,4,0,33.625,33625,-0.0100,-0.0700,9.9400,9.9403,0.0011,-0.0033,-0.0055,-0.06,-0.44,41.13,0.0017,-0.0723,9.8107,9.8109
1,9,2,4,0,33.755,33755,0.0100,-0.0600,9.8400,9.8402,0.0055,-0.0055,0.0044,-0.06,-0.44,41.13,0.0028,-0.0707,9.8145,9.8148
1,9,2,4,0,33.885,33885,0.0200,-0.1400,9.8100,9.8110,0.0000,0.0033,0.0087,-0.06,-0.44,41.13,0.0050,-0.0798,9.8139,9.8143
1,9,2,4,0,34.015,34015,0.0000,0.0100,9.6800,9.6800,0.0011,-0.0022,-0.0033,-0.06,-0.44,41.13,0.0044,-0.0680,9.7963,9.7965
1,9,2,4,0,34.145,34145,-0.0100,-0.0700,9.7000,9.7003,-0.0065,0.0055,-0.0022,-0.06,-0.44,41.13,0.0025,-0.0683,9.7836,9.7838
1,9,2,4,0,34.275,34275,0.0100,-0.0900,9.8800,9.8804,0.0033,-0.0033,0.0033,-0.06,-0.44,41.13,0.0035,-0.0711,9.7963,9.7966
1,9,2,4,0,34.405,34405,-0.0200,-0.0800,10.2500,10.2503,0.0044,0.0000,0.0000,-0.06,-0.44,41.13,0.0004,-0.0723,9.8561,9.8564
1,9,2,4,0,34.578,34578,0.0100,-0.0600,10.6500,10.6502,0.0000,0.0011,-0.0022,-0.06,-0.44,41.13,0.0016,-0.0707,9.9607,9.9610
1,9,2,4,0,34.709,34709,0.0000,-0.1500,11.0600,11.0610,0.0022,0.0011,-0.0065,-0.06,-0.44,41.13,0.0014,-0.0811,10.1056,10.1059
1,9,2,4,0,34.844,34844,0.0100,-0.0500,10.8700,10.8701,0.0033,0.0011,0.0098,-0.06,-0.44,41.19,0.0026,-0.0770,10.2063,10.2066
1,9,2,4,0,34.976,34976,0.0000,0.0700,11.0500,11.0502,0.0022,-0.0022,0.0022,-0.06,-0.44,41.19,0.0022,-0.0577,10.3175,10.3176
1,9,2,4,0,35.107,35107,-0.0300,-0.1300,11.1800,11.1808,0.0022,-0.0022,0.0196,-0.06,-0.44,41.25,-0.0020,-0.0672,10.4311,10.4314
1,9,2,4,0,35.237,35237,0.0000,0.0900,11.0800,11.0804,-0.0076,0.0055,0.0207,-0.06,-0.44,41.38,-0.0018,-0.0465,10.5166,10.5167
1,9,2,4,0,35.367,35367,1.1600,0.2100,9.2600,9.3347,-0.0109,0.0011,0.0055,-0.06,-0.38,41.56,0.1513,-0.0127,10.3510,10.3522
1,9,2,4,0,35.498,35498,1.5300,0.4600,6.6000,6.7906,-0.0065,0.0022,0.0305,0.00,-0.38,41.69,0.3330,0.0496,9.8568,9.8625
1,9,2,4,0,35.671,35671,0.9300,0.7000,2.7300,2.9678,-0.0240,-0.0033,-0.0873,0.00,-0.31,41.69,0.4117,0.1353,8.9176,8.9282
1,9,2,4,0,35.802,35802,1.0200,0.2100,6.6900,6.7706,0.0087,-0.0087,0.0295,0.00,-0.31,41.88,0.4918,0.1452,8.6241,8.6393
1,9,2,4,0,35.932,35932,1.1000,0.0100,7.7700,7.8475,0.0044,-0.0044,0.0240,0.00,-0.31,41.75,0.5720,0.1273,8.5115,8.5317
1,9,2,4,0,36.063,36063,0.8000,0.1500,8.6200,8.6583,0.0033,0.0011,-0.0535,-0.75,-0.25,41.63,0.6020,0.1303,8.5258,8.5481
1,9,2,4,0,36.193,36193,1.0100,0.0600,8.8900,8.9474,0.0022,-0.0022,0.0185,-1.88,-0.19,41.63,0.6558,0.1211,8.5738,8.5997
1,9,2,4,0,36.329,36329,1.1500,0.2000,8.9300,9.0060,0.0076,0.0087,-0.0120,-3.50,0.00,41.44,0.7209,0.1315,8.6208,8.6518
1,9,2,4,0,36.459,36459,0.9600,0.1100,9.1600,9.2108,-0.0044,-0.0065,-0.0196,-3.94,-0.06,41.38,0.7524,0.1286,8.6918,8.7253
1,9,2,4,0,36.591,36591,1.1400,-0.1400,9.3600,9.4302,-0.0011,-0.0033,0.0055,-4.50,0.00,41.25,0.8035,0.0932,8.7799,8.8170
1,9,2,4,0,36.763,36763,1.0900,-0.0700,9.9800,10.0396,0.0044,-0.0044,-0.0076,-4.81,0.00,41.25,0.8412,0.0717,8.9380,8.9778
1,9,2,4,0,36.893,36893,1.1100,0.1000,9.5200,9.5850,0.0022,-0.0022,0.0011,-5.06,0.00,41.25,0.8767,0.0755,9.0147,9.0575
1,9,2,4,0,37.023,37023,1.2100,0.0400,9.2500,9.3289,0.0011,-0.0011,-0.0055,-5.31,0.00,41.25,0.9206,0.0708,9.0457,9.0927
1,9,2,4,0,37.153,37153,1.0600,0.0700,9.5500,9.6089,-0.0011,0.0044,-0.0022,-5.44,0.00,41.25,0.9390,0.0707,9.1122,9.1607
1,9,2,4,0,37.283,37283,1.1100,-0.0200,9.3300,9.3958,-0.0044,0.0011,-0.0076,-5.56,0.00,41.25,0.9615,0.0587,9.1409,9.1915
1,9,2,4,0,37.413,37413,0.9800,0.0800,8.8600,8.9144,0.0011,-0.0055,-0.0011,-5.81,0.06,41.19,0.9639,0.0615,9.1039,9.1550
1,9,2,4,0,37.543,37543,1.1700,-0.0900,8.2200,8.3033,0.0065,-0.0022,-0.0044,-5.94,0.06,41.19,0.9911,0.0416,8.9874,9.0420
1,9,2,4,0,37.674,37674,1.1400,0.1500,8.0900,8.1713,-0.0033,-0.0022,-0.0022,-6.19,0.13,41.19,1.0107,0.0559,8.8691,8.9267
1,9,2,4,0,37.847,37847,1.1300,0.0000,8.1500,8.2280,0.0000,0.0000,-0.0142,-6.50,0.19,41.19,1.0264,0.0485,8.7744,8.8343
1,9,2,4,0,37.983,37983,1.1200,0.0100,9.0300,9.0992,-0.0022,0.0011,-0.0120,-6.63,0.19,41.00,1.0388,0.0434,8.8081,8.8692
1,9,2,4,0,38.115,38115,1.1600,0.0000,9.0100,9.0844,-0.0022,-0.0022,-0.0120,-6.63,0.19,41.00,1.0547,0.0377,8.8347,8.8975
1,9,2,4,0,38.245,38245,1.0700,0.0700,9.3800,9.4411,0.0065,-0.0022,0.0000,-6.63,0.19,40.94,1.0567,0.0420,8.9065,8.9691
1,9,2,4,0,38.375,38375,1.0800,-0.0400,9.6600,9.7203,-0.0044,-0.0055,-0.0087,-6.63,0.19,40.94,1.0598,0.0312,9.0058,9.0680
1,9,2,4,0,38.506,38506,1.2200,0.1700,22.2900,22.3240,-0.0153,0.0502,-0.0055,-6.69,0.25,40.88,1.0809,0.0495,10.7563,10.8106
1,9,2,4,0,38.636,38636,0.7400,-0.2000,8.5100,8.5445,0.0327,-0.0404,-0.1287,-6.81,0.19,41.06,1.0360,0.0166,10.4603,10.5115
1,9,2,4,0,38.767,38767,0.6500,-0.3800,8.9800,9.0115,0.0109,-0.0153,-0.0022,-6.81,0.19,40.94,0.9851,-0.0357,10.2653,10.3125
1,9,2,4,0,38.942,38942,0.9800,0.0300,8.8900,8.9439,0.0109,-0.0087,0.0033,-6.81,0.25,40.88,0.9845,-0.0270,10.0840,10.1320
1,9,2,4,0,39.076,39076,1.2300,0.2600,8.5200,8.6123,-0.0098,0.0044,0.0000,-6.81,0.19,41.00,1.0168,0.0108,9.8779,9.9301
1,9,2,4,0,39.208,39208,1.1000,-0.1100,9.1100,9.1768,-0.0076,0.0098,-0.0109,-6.75,0.25,40.94,1.0278,-0.0051,9.7767,9.8306
1,9,2,4,0,39.338,39338,1.2100,0.1400,8.9100,8.9929,-0.0011,0.0033,0.0011,-6.81,0.25,40.94,1.0518,0.0140,9.6625,9.7196
1,9,2,4,0,39.468,39468,1.1800,0.0000,8.9200,8.9977,0.0000,0.0022,0.0000,-6.81,0.25,40.94,1.0687,0.0122,9.5647,9.6242
1,9,2,4,0,39.599,39599,1.2100,0.0500,8.9100,8.9919,0.0000,0.0000,0.0000,-6.88,0.25,40.94,1.0873,0.0171,9.4784,9.5406
1,9,2,4,0,39.729,39729,1.1400,0.0300,8.8900,8.9628,0.0033,0.0011,0.0033,-6.88,0.25,40.94,1.0942,0.0188,9.4009,9.4644
1,9,2,4,0,39.860,39860,1.1400,0.0600,8.9400,9.0126,-0.0011,-0.0011,-0.0022,-6.88,0.25,40.94,1.1003,0.0243,9.3401,9.4048
