participant,rep,equipment_code,exercise_code,quality_code,timestamp,timestamp_ms,accelX,accelY,accelZ,accelMag,gyroX,gyroY,gyroZ,roll,pitch,yaw,filteredX,filteredY,filteredZ,filteredMag
4,1,2,4,0,00.000,0,-0.3600,0.1100,9.5800,9.5874,0.0011,-0.0044,0.0011,2.38,0.69,38.44,-0.4021,0.0608,9.5746,9.5833
4,1,2,4,0,00.113,113,-0.3900,0.2300,10.7800,10.7895,-0.0055,-0.0022,0.0076,2.38,0.69,38.44,-0.4005,0.0831,9.7335,9.7421
4,1,2,4,0,00.215,215,-0.4300,-0.0600,11.0000,11.0086,0.0022,-0.0022,0.0033,2.38,0.69,38.44,-0.4044,0.0642,9.9004,9.9088
4,1,2,4,0,00.325,325,-0.5800,-0.1000,9.7800,9.7977,0.0011,0.0044,0.0076,2.38,0.69,38.38,-0.4275,0.0426,9.8845,9.8938
4,1,2,4,0,00.428,428,-0.4300,0.0400,9.2000,9.2101,0.0022,-0.0087,-0.0076,2.38,0.69,38.44,-0.4279,0.0423,9.7943,9.8037
4,1,2,4,0,00.543,543,-0.5100,0.0100,9.1700,9.1842,-0.0022,0.0065,-0.0033,2.38,0.69,38.38,-0.4387,0.0380,9.7120,9.7220
4,1,2,4,0,00.645,645,-0.5400,0.1000,9.0500,9.0666,-0.0011,-0.0065,0.0044,2.38,0.69,38.44,-0.4520,0.0462,9.6248,9.6355
4,1,2,4,0,00.755,755,-0.3600,0.0000,9.1100,9.1171,0.0022,0.0000,-0.0033,2.38,0.69,38.44,-0.4399,0.0401,9.5570,9.5672
4,1,2,4,0,00.857,857,-0.5800,-0.0700,9.6900,9.7076,-0.0022,0.0011,-0.0055,2.38,0.69,38.38,-0.4584,0.0256,9.5745,9.5855
4,1,2,4,0,00.968,968,-0.4400,0.1700,10.6600,10.6704,-0.0044,-0.0011,0.0076,2.38,0.69,38.44,-0.4560,0.0446,9.7175,9.7283
4,1,2,4,0,01.070,1070,-0.3000,0.0200,11.6200,11.6239,-0.0011,0.0000,-0.0065,2.38,0.69,38.44,-0.4354,0.0414,9.9682,9.9778
4,1,2,4,0,01.185,1185,-0.2900,0.5500,11.9900,12.0061,-0.0131,0.0207,0.0142,2.38,0.69,38.38,-0.4162,0.1084,10.2346,10.2437
4,1,2,4,0,01.287,1287,-0.6400,0.0700,11.0300,11.0488,0.0011,-0.0098,0.0011,2.38,0.69,38.44,-0.4457,0.1033,10.3395,10.3496
4,1,2,4,0,01.397,1397,-0.2900,-0.0100,10.6600,10.6639,0.0087,-0.0022,-0.0076,2.31,0.69,38.44,-0.4252,0.0884,10.3817,10.3908
4,1,2,4,0,01.499,1499,-0.2600,-0.1000,10.4400,10.4437,-0.0120,0.0164,0.0273,2.31,0.69,38.44,-0.4034,0.0636,10.3894,10.3974
4,1,2,4,0,01.609,1609,-0.6900,-0.0700,10.1900,10.2136,0.0065,-0.0055,0.0153,2.25,0.69,38.56,-0.4412,0.0460,10.3631,10.3726
4,1,2,4,0,01.716,1716,-0.2200,-0.0200,10.0000,10.0024,0.0065,0.0000,0.0109,2.25,0.69,38.63,-0.4120,0.0373,10.3153,10.3236
4,1,2,4,0,01.826,1826,-0.6600,-0.2500,9.2600,9.2869,0.0207,-0.0098,0.0153,2.31,0.63,38.63,-0.4447,-0.0006,10.1762,10.1859
4,1,2,4,0,01.929,1929,-0.6800,-0.6500,8.5000,8.5519,0.0600,-0.0262,0.0469,2.31,0.63,38.75,-0.4757,-0.0862,9.9553,9.9671
4,1,2,4,0,02.039,2039,-0.4000,0.2500,8.5500,8.5630,-0.0120,0.0044,0.0284,2.31,0.63,39.06,-0.4657,-0.0419,9.7701,9.7813
4,1,2,4,0,02.141,2141,-0.3800,-0.0300,8.0300,8.0390,0.0142,-0.0065,0.0044,2.31,0.56,39.06,-0.4544,-0.0403,9.5408,9.5517
4,1,2,4,0,02.257,2257,-0.4500,-0.0800,7.3200,7.3343,0.0033,-0.0087,0.0098,2.31,0.56,39.13,-0.4539,-0.0455,9.2482,9.2594
4,1,2,4,0,02.359,2359,-0.5200,-0.0500,7.8300,7.8474,-0.0098,0.0098,-0.0044,2.31,0.56,39.13,-0.4626,-0.0461,9.0613,9.0732
4,1,2,4,0,02.469,2469,-0.7600,-0.6700,8.1300,8.1929,0.0556,-0.0480,-0.0175,2.31,0.56,39.06,-0.5018,-0.1283,8.9386,8.9536
4,2,2,4,0,02.571,2571,-0.1500,0.6400,9.0100,9.0339,-0.0600,0.0349,0.0000,2.31,0.56,39.06,-0.4554,-0.0271,8.9480,8.9596
4,2,2,4,0,02.681,2681,-0.3900,0.0100,9.0500,9.0584,-0.0033,0.0098,-0.0349,2.31,0.63,38.94,-0.4468,-0.0222,8.9614,8.9726
4,2,2,4,0,02.783,2783,-0.3900,0.0000,9.2600,9.2682,-0.0022,0.0044,-0.0295,2.31,0.56,38.75,-0.4393,-0.0193,9.0008,9.0115
4,2,2,4,0,02.893,2893,-0.3200,0.0400,9.5800,9.5854,-0.0044,0.0044,0.0055,2.31,0.56,38.69,-0.4236,-0.0115,9.0771,9.0870
4,2,2,4,0,02.999,2999,-0.5400,-0.0300,9.6600,9.6751,-0.0011,0.0033,-0.0164,2.31,0.56,38.63,-0.4389,-0.0139,9.1539,9.1644
4,2,2,4,0,03.110,3110,-0.4200,0.1900,9.8400,9.8508,0.0000,0.0065,-0.0185,2.31,0.56,38.50,-0.4364,0.0130,9.2443,9.2546
4,2,2,4,0,03.212,3212,-0.3600,0.1700,9.6700,9.6782,-0.0011,-0.0011,-0.0109,2.31,0.56,38.50,-0.4264,0.0337,9.3004,9.3102
4,2,2,4,0,03.322,3322,-0.4200,-0.0400,9.7400,9.7491,-0.0011,-0.0033,-0.0044,2.31,0.50,38.50,-0.4255,0.0240,9.3583,9.3680
4,2,2,4,0,03.424,3424,-0.5200,-0.0700,9.9400,9.9538,-0.0098,0.0011,-0.0218,2.31,0.50,38.44,-0.4380,0.0116,9.4350,9.4452
4,2,2,4,0,03.534,3534,-0.4400,0.1300,10.1300,10.1404,-0.0022,-0.0033,0.0022,2.31,0.50,38.31,-0.4382,0.0272,9.5266,9.5367
4,2,2,4,0,03.641,3641,-0.5100,-0.0600,10.8100,10.8222,-0.0033,0.0022,0.0000,2.31,0.50,38.38,-0.4477,0.0157,9.6957,9.7060
4,2,2,4,0,03.752,3752,-0.4300,0.0600,12.5500,12.5575,0.0033,-0.0065,0.0000,2.31,0.50,38.38,-0.4454,0.0215,10.0718,10.0817
4,2,2,4,0,03.854,3854,-0.3200,0.0700,13.1600,13.1641,0.0044,-0.0098,-0.0142,2.31,0.50,38.31,-0.4288,0.0279,10.4788,10.4876
4,2,2,4,0,03.965,3965,-0.3500,0.0300,12.0200,12.0251,0.0022,0.0098,0.0164,2.31,0.50,38.38,-0.4185,0.0282,10.6819,10.6901
4,2,2,4,0,04.072,4072,-0.6700,-0.2800,10.7700,10.7945,0.0044,0.0000,-0.0022,2.31,0.50,38.38,-0.4516,-0.0124,10.6935,10.7030
4,2,2,4,0,04.183,4183,-0.4000,0.0700,10.6600,10.6677,0.0022,-0.0131,-0.0196,2.31,0.50,38.38,-0.4448,-0.0016,10.6891,10.6983
4,2,2,4,0,04.285,4285,-0.0700,0.2400,10.8300,10.8329,-0.0196,0.0207,0.0185,2.25,0.50,38.44,-0.3954,0.0303,10.7076,10.7150
4,2,2,4,0,04.397,4397,-0.3000,0.2600,10.3500,10.3576,-0.0131,0.0131,0.0142,2.31,0.50,38.56,-0.3828,0.0605,10.6605,10.6676
4,2,2,4,0,04.503,4503,-0.6100,0.4900,9.4600,9.4923,0.0044,0.0000,0.0164,2.31,0.50,38.63,-0.4128,0.1171,10.5023,10.5111
4,2,2,4,0,04.614,4614,-0.1400,0.7900,8.9800,9.0158,0.0840,-0.0458,0.0676,2.38,0.44,38.88,-0.3768,0.2058,10.3017,10.3107
4,2,2,4,0,04.716,4716,-0.1900,0.1300,7.2600,7.2636,-0.0044,0.0055,0.0175,2.38,0.38,39.13,-0.3522,0.1958,9.9009,9.9091
4,2,2,4,0,04.826,4826,-0.6400,-0.4400,5.4200,5.4754,0.0262,-0.0175,-0.0131,2.38,0.38,39.13,-0.3901,0.1120,9.3104,9.3193
4,2,2,4,0,04.928,4928,-0.1100,0.6100,6.8100,6.8382,-0.0720,0.0393,0.0065,2.38,0.44,39.13,-0.3532,0.1776,8.9809,8.9896
4,2,2,4,0,05.038,5038,-0.4100,0.0700,7.4200,7.4316,0.0087,-0.0295,-0.0273,2.31,0.44,39.13,-0.3607,0.1635,8.7752,8.7842
4,2,2,4,0,05.140,5140,-1.0100,0.2900,8.2700,8.3365,0.0535,-0.0196,-0.0207,2.38,0.44,39.06,-0.4463,0.1801,8.7087,8.7219
4,3,2,4,0,05.254,5254,-0.2500,-0.0400,9.2100,9.2135,-0.0305,0.0305,-0.0196,2.31,0.50,38.88,-0.4204,0.1511,8.7747,8.7861
4,3,2,4,0,05.357,5357,-0.4900,-0.2100,9.3200,9.3352,-0.0011,0.0044,-0.0218,2.31,0.50,38.63,-0.4296,0.1035,8.8466,8.8576
4,3,2,4,0,05.467,5467,-0.3400,-0.2600,9.7400,9.7494,-0.0033,0.0044,0.0120,2.31,0.50,38.56,-0.4178,0.0556,8.9643,8.9742
4,3,2,4,0,05.569,5569,-0.4100,0.0000,9.8300,9.8385,-0.0033,0.0055,-0.0142,2.31,0.50,38.50,-0.4167,0.0483,9.0784,9.0881
4,3,2,4,0,05.679,5679,-0.4700,0.0000,10.0500,10.0610,0.0065,-0.0022,-0.0120,2.31,0.50,38.50,-0.4238,0.0419,9.2064,9.2163
4,3,2,4,0,05.781,5781,-0.4800,0.0900,10.2800,10.2916,-0.0153,-0.0033,-0.0087,2.31,0.50,38.44,-0.4312,0.0483,9.3479,9.3580
4,3,2,4,0,05.894,5894,-0.3900,0.0800,10.3900,10.3976,-0.0044,-0.0044,-0.0011,2.31,0.50,38.38,-0.4257,0.0525,9.4852,9.4949
4,3,2,4,0,05.997,5997,-0.4400,0.0100,11.9200,11.9281,-0.0055,-0.0033,0.0076,2.31,0.50,38.38,-0.4276,0.0469,9.8061,9.8155
4,3,2,4,0,06.107,6107,-0.5900,-0.2400,12.6300,12.6461,0.0098,-0.0044,0.0000,2.31,0.50,38.38,-0.4490,0.0091,10.1782,10.1881
4,3,2,4,0,06.210,6210,-0.5000,-0.1000,12.6300,12.6403,-0.0044,-0.0076,-0.0175,2.31,0.50,38.31,-0.4557,-0.0053,10.5013,10.5112
4,3,2,4,0,06.320,6320,-0.4400,-0.2100,11.9100,11.9200,0.0098,0.0087,0.0153,2.31,0.50,38.38,-0.4537,-0.0323,10.6869,10.6966
4,3,2,4,0,06.427,6427,-0.6300,-0.1600,10.8900,10.9094,0.0076,-0.0087,-0.0011,2.31,0.50,38.38,-0.4769,-0.0491,10.7137,10.7244
4,3,2,4,0,06.538,6538,-0.2500,-0.3500,10.5800,10.5887,0.0011,0.0011,-0.0120,2.31,0.50,38.38,-0.4470,-0.0888,10.6961,10.7058
4,3,2,4,0,06.640,6640,-0.6300,-0.0700,10.3100,10.3295,-0.0076,0.0065,0.0065,2.31,0.44,38.44,-0.4711,-0.0863,10.6452,10.6559
4,3,2,4,0,06.750,6750,-0.5100,-0.4600,9.9600,9.9837,0.0055,0.0087,0.0196,2.31,0.44,38.56,-0.4762,-0.1355,10.5549,10.5665
4,3,2,4,0,06.854,6854,0.0600,0.0700,9.7500,9.7504,-0.0120,0.0087,0.0076,2.31,0.44,38.63,-0.4056,-0.1085,10.4488,10.4573
4,3,2,4,0,06.968,6968,-0.5400,0.0600,8.5500,8.5672,0.0044,0.0000,0.0676,2.31,0.44,38.81,-0.4233,-0.0863,10.1986,10.2078
4,3,2,4,0,07.071,7071,-0.3000,0.3500,7.6900,7.7038,-0.0229,0.0185,0.0404,2.31,0.38,39.13,-0.4070,-0.0288,9.8680,9.8765
4,3,2,4,0,07.181,7181,-0.5500,-0.1000,6.0100,6.0359,0.0229,-0.0153,-0.0120,2.31,0.38,39.19,-0.4259,-0.0382,9.3596,9.3694
4,3,2,4,0,07.283,7283,-0.4100,-0.5000,6.5600,6.5918,0.0153,0.0000,-0.0011,2.38,0.38,39.06,-0.4238,-0.0990,8.9907,9.0013
4,3,2,4,0,07.393,7393,0.2100,1.0600,7.8200,7.8943,-0.1342,0.0600,0.0087,2.25,0.44,39.13,-0.3403,0.0537,8.8365,8.8432
4,3,2,4,0,07.495,7495,-1.4500,0.2700,8.0900,8.2234,0.0109,-0.0251,-0.0131,2.31,0.38,39.06,-0.4865,0.0822,8.7381,8.7520
4,4,2,4,0,07.610,7610,-0.1700,0.8400,9.3900,9.4290,-0.0382,0.0207,-0.0502,2.31,0.44,38.81,-0.4448,0.1821,8.8240,8.8371
4,4,2,4,0,07.712,7712,-0.4400,0.0500,9.2300,9.2406,-0.0764,0.0273,-0.0469,2.25,0.44,38.63,-0.4442,0.1647,8.8775,8.8901
4,4,2,4,0,07.822,7822,-0.2500,-0.0700,9.8900,9.8934,0.0109,-0.0022,0.0000,2.25,0.44,38.56,-0.4186,0.1337,9.0109,9.0216
4,4,2,4,0,07.924,7924,-0.6100,-0.1700,9.6400,9.6608,-0.0185,0.0131,-0.0207,2.25,0.44,38.44,-0.4438,0.0937,9.0938,9.1051
4,4,2,4,0,08.034,8034,-0.6300,-0.1400,10.2200,10.2404,-0.0076,-0.0011,-0.0196,2.25,0.50,38.38,-0.4683,0.0629,9.2422,9.2543
4,4,2,4,0,08.136,8136,-0.3700,0.0200,10.4700,10.4766,-0.0109,0.0000,0.0022,2.25,0.50,38.31,-0.4554,0.0573,9.4040,9.4152
4,4,2,4,0,08.251,8251,-0.3900,0.2000,11.1800,11.1886,0.0022,-0.0065,-0.0055,2.25,0.44,38.31,-0.4468,0.0761,9.6380,9.6487
4,4,2,4,0,08.353,8353,-0.5600,0.0000,12.3800,12.3927,-0.0033,-0.0022,-0.0109,2.25,0.44,38.31,-0.4617,0.0660,9.9994,10.0102
4,4,2,4,0,08.463,8463,-0.3000,0.0000,13.1200,13.1234,0.0000,0.0011,0.0055,2.25,0.44,38.31,-0.4404,0.0573,10.4106,10.4200
4,4,2,4,0,08.565,8565,-0.6400,-0.0200,12.8400,12.8560,-0.0055,0.0175,0.0120,2.25,0.44,38.31,-0.4667,0.0472,10.7307,10.7410
4,4,2,4,0,08.676,8676,-0.5200,0.0800,11.4500,11.4621,-0.0022,-0.0065,0.0000,2.19,0.44,38.31,-0.4737,0.0515,10.8255,10.8360
4,4,2,4,0,08.783,8783,-0.2100,-0.0300,10.7300,10.7321,-0.0153,0.0120,0.0120,2.19,0.44,38.31,-0.4390,0.0407,10.8129,10.8219
4,4,2,4,0,08.894,8894,-0.8200,-0.2900,10.1400,10.1772,-0.0196,0.0142,0.0185,2.19,0.44,38.38,-0.4892,-0.0028,10.7242,10.7354
4,4,2,4,0,08.996,8996,-0.2900,0.1700,9.9400,9.9457,0.0011,-0.0044,0.0240,2.19,0.44,38.50,-0.4629,0.0199,10.6209,10.6310
4,4,2,4,0,09.106,9106,-0.5900,-0.0100,9.3600,9.3786,0.0011,-0.0044,-0.0011,2.19,0.38,38.56,-0.4797,0.0160,10.4547,10.4658
4,4,2,4,0,09.211,9211,-0.4400,-0.2100,8.6300,8.6438,-0.0033,0.0044,0.0687,2.19,0.38,38.69,-0.4744,-0.0138,10.2143,10.2253
4,4,2,4,0,09.324,9324,-0.5700,-0.0500,7.9100,7.9307,0.0098,0.0011,0.0425,2.19,0.38,39.00,-0.4870,-0.0186,9.9106,9.9226
4,4,2,4,0,09.427,9427,-0.4400,0.1100,7.4200,7.4338,0.0033,-0.0087,0.0087,2.19,0.38,39.13,-0.4808,-0.0016,9.5824,9.5945
4,4,2,4,0,09.537,9537,-0.3600,0.0100,6.0700,6.0807,-0.0087,0.0011,-0.0076,2.25,0.31,39.13,-0.4649,-0.0001,9.1196,9.1314
4,4,2,4,0,09.639,9639,-0.4600,0.0200,6.9100,6.9253,0.0022,0.0175,0.0000,2.19,0.38,39.13,-0.4643,0.0026,8.8284,8.8406
4,4,2,4,0,09.750,9750,-0.7600,-0.2900,7.4100,7.4545,-0.0022,-0.0055,-0.0142,2.19,0.38,39.06,-0.5032,-0.0360,8.6415,8.6562
4,4,2,4,0,09.856,9856,-0.2300,-0.4200,8.2600,8.2739,0.0120,0.0120,-0.0175,2.19,0.38,39.00,-0.4672,-0.0866,8.5912,8.6044
4,5,2,4,0,09.966,9966,-0.2800,-0.1800,9.1500,9.1561,0.0120,-0.0022,-0.0164,2.19,0.38,38.81,-0.4426,-0.0989,8.6649,8.6767
4,5,2,4,0,10.069,10069,-0.2900,-0.0900,9.7400,9.7447,-0.0044,0.0055,0.0033,2.19,0.44,38.63,-0.4225,-0.0977,8.8065,8.8172
4,5,2,4,0,10.182,10182,-0.3200,0.1800,9.9400,9.9468,-0.0087,0.0000,-0.0218,2.19,0.44,38.50,-0.4090,-0.0611,8.9559,8.9654
4,5,2,4,0,10.287,10287,-0.5000,0.0900,10.2700,10.2826,-0.0055,0.0065,-0.0076,2.19,0.44,38.50,-0.4210,-0.0412,9.1291,9.1389
4,5,2,4,0,10.397,10397,-0.3700,-0.1100,10.4700,10.4771,-0.0055,-0.0033,-0.0120,2.19,0.44,38.38,-0.4142,-0.0503,9.3058,9.3151
4,5,2,4,0,10.500,10500,-0.6800,-0.3000,10.6300,10.6560,0.0109,-0.0109,0.0131,2.19,0.44,38.31,-0.4493,-0.0832,9.4803,9.4913
4,5,2,4,0,10.610,10610,-0.4800,-0.1500,12.3300,12.3403,-0.0044,-0.0055,-0.0011,2.19,0.44,38.31,-0.4533,-0.0920,9.8558,9.8666
4,5,2,4,0,10.717,10717,-0.4500,0.0800,13.4900,13.4977,0.0000,0.0033,0.0076,2.19,0.44,38.31,-0.4529,-0.0693,10.3347,10.3448
4,5,2,4,0,10.828,10828,-0.5200,-0.0300,12.9300,12.9405,-0.0087,0.0131,0.0087,2.19,0.44,38.25,-0.4617,-0.0641,10.6767,10.6869
4,5,2,4,0,10.931,10931,-0.4800,0.0400,11.4500,11.4601,0.0011,-0.0022,0.0109,2.19,0.44,38.31,-0.4641,-0.0504,10.7786,10.7887
4,5,2,4,0,11.042,11042,-0.2900,0.3400,10.8900,10.8992,-0.0175,0.0175,0.0044,2.13,0.44,38.31,-0.4412,0.0010,10.7933,10.8023
4,5,2,4,0,11.144,11144,-0.5100,0.0000,10.5600,10.5723,0.0109,-0.0098,-0.0055,2.13,0.38,38.31,-0.4503,0.0009,10.7625,10.7719
4,5,2,4,0,11.254,11254,-0.3000,0.0000,10.0200,10.0245,0.0098,-0.0022,0.0425,2.13,0.38,38.44,-0.4305,0.0008,10.6647,10.6734
4,5,2,4,0,11.359,11359,0.1100,0.6200,9.8100,9.8302,-0.0218,0.0175,0.0175,2.13,0.38,38.63,-0.3592,0.0824,10.5521,10.5585
4,5,2,4,0,11.470,11470,-0.5200,0.0000,9.0300,9.0450,0.0262,-0.0109,0.0535,2.13,0.38,38.69,-0.3804,0.0715,10.3515,10.3587
4,5,2,4,0,11.572,11572,-0.4000,0.1500,7.8500,7.8616,0.0055,0.0022,0.0469,2.19,0.38,38.94,-0.3830,0.0819,10.0219,10.0295
4,5,2,4,0,11.682,11682,-0.4800,0.0300,6.8800,6.8968,0.0065,-0.0120,0.0142,2.19,0.38,39.13,-0.3958,0.0750,9.6078,9.6163
4,5,2,4,0,11.788,11788,-0.3500,0.1200,6.0600,6.0713,-0.0033,-0.0011,-0.0185,2.19,0.31,39.06,-0.3897,0.0810,9.1403,9.1490
4,5,2,4,0,11.898,11898,-0.3200,0.0700,6.8900,6.8978,-0.0535,0.0415,0.0022,2.13,0.38,39.06,-0.3806,0.0795,8.8438,8.8523
4,5,2,4,0,12.000,12000,-0.6200,-0.0700,7.5300,7.5558,-0.1058,0.0360,-0.0022,2.13,0.44,39.06,-0.4121,0.0598,8.6707,8.6807
4,5,2,4,0,12.111,12111,-0.1400,-0.9000,8.0300,8.0815,-0.0327,0.0218,-0.0382,2.13,0.38,38.94,-0.3763,-0.0667,8.5862,8.5947
4,6,2,4,0,12.214,12214,-0.3900,-0.0700,9.1300,9.1386,0.0022,0.0109,-0.0153,2.13,0.38,38.63,-0.3781,-0.0671,8.6579,8.6664
4,6,2,4,0,12.324,12324,-0.4700,-0.4000,9.6100,9.6298,0.0338,-0.0153,-0.0044,2.13,0.44,38.56,-0.3902,-0.1110,8.7834,8.7927
4,6,2,4,0,12.432,12432,-0.6300,-0.2000,9.7500,9.7724,-0.0065,-0.0033,-0.0218,2.13,0.44,38.50,-0.4218,-0.1227,8.9107,8.9216
4,6,2,4,0,12.543,12543,-0.4000,0.1200,10.5100,10.5183,-0.0055,0.0033,-0.0229,2.13,0.44,38.38,-0.4189,-0.0907,9.1215,9.1315
4,6,2,4,0,12.645,12645,-0.3100,0.0000,10.7200,10.7245,0.0033,-0.0022,0.0011,2.13,0.44,38.31,-0.4046,-0.0788,9.3321,9.3412
4,6,2,4,0,12.755,12755,-0.7400,-0.7800,11.3900,11.4406,-0.0153,0.0087,0.0229,2.13,0.50,38.31,-0.4488,-0.1712,9.6033,9.6153
4,6,2,4,0,12.862,12862,-0.6700,-0.2700,13.7100,13.7290,-0.0076,-0.0098,0.0044,2.13,0.50,38.25,-0.4779,-0.1842,10.1445,10.1574
4,6,2,4,0,12.973,12973,-0.6700,-0.1900,13.7300,13.7477,0.0164,-0.0164,-0.0185,2.13,0.50,38.25,-0.5032,-0.1850,10.6169,10.6305
4,6,2,4,0,13.076,13076,-0.2900,-0.1400,12.1100,12.1143,0.0098,-0.0022,-0.0044,2.13,0.50,38.25,-0.4751,-0.1790,10.8137,10.8256
4,6,2,4,0,13.186,13186,-0.3300,-0.2600,10.8800,10.8881,0.0011,0.0175,0.0087,2.06,0.50,38.25,-0.4560,-0.1897,10.8224,10.8337
4,6,2,4,0,13.294,13294,-0.2900,0.0400,10.5400,10.5441,0.0076,-0.0011,0.0175,2.06,0.50,38.31,-0.4341,-0.1594,10.7852,10.7951
4,6,2,4,0,13.405,13405,-0.6100,-0.0600,9.8800,9.8990,-0.0109,-0.0065,-0.0120,2.06,0.44,38.38,-0.4573,-0.1463,10.6659,10.6767
4,6,2,4,0,13.507,13507,-0.0400,0.7100,9.8700,9.8956,0.0207,-0.0087,0.0011,2.13,0.44,38.50,-0.4023,-0.0335,10.5610,10.5688
4,6,2,4,0,13.617,13617,0.0700,0.5100,9.0800,9.0946,-0.0480,0.0273,0.0578,2.13,0.44,38.69,-0.3401,0.0381,10.3659,10.3715
4,6,2,4,0,13.724,13724,-0.5200,0.0000,7.9600,7.9770,0.0284,-0.0109,0.0393,2.19,0.38,38.94,-0.3638,0.0331,10.0488,10.0555
4,6,2,4,0,13.836,13836,-0.4600,-0.0200,6.9100,6.9253,-0.0087,-0.0044,0.0055,2.19,0.38,39.00,-0.3765,0.0261,9.6352,9.6426
4,6,2,4,0,13.938,13938,-0.1600,0.2500,5.8600,5.8675,-0.0098,0.0076,-0.0109,2.19,0.38,39.00,-0.3479,0.0556,9.1377,9.1445
4,6,2,4,0,14.049,14049,-0.7100,-0.4000,6.6800,6.7295,0.0480,-0.0109,0.0011,2.19,0.38,39.00,-0.3956,-0.0044,8.8139,8.8228
4,6,2,4,0,14.151,14151,-0.3300,0.7400,7.9600,8.0011,-0.0774,0.0316,0.0055,2.19,0.38,39.00,-0.3870,0.0937,8.7014,8.7105
4,7,2,4,0,14.261,14261,0.6000,1.6300,9.1000,9.2643,-0.1516,0.0742,-0.0404,2.19,0.44,38.88,-0.2569,0.2961,8.7539,8.7627
4,7,2,4,0,14.363,14363,-0.1900,0.5200,9.5600,9.5760,-0.0927,0.0491,-0.0273,2.13,0.44,38.56,-0.2481,0.3256,8.8601,8.8696
4,7,2,4,0,14.477,14477,-0.5700,-0.5700,9.5200,9.5541,0.0425,-0.0207,-0.0185,2.13,0.44,38.44,-0.2905,0.2076,8.9471,8.9542
4,7,2,4,0,14.579,14579,-0.5200,-0.3800,9.6600,9.6814,-0.0131,0.0011,-0.0207,2.13,0.44,38.44,-0.3208,0.1302,9.0410,9.0476
4,7,2,4,0,14.689,14689,-0.5900,-0.0600,10.3400,10.3570,-0.0055,-0.0055,-0.0240,2.13,0.44,38.38,-0.3562,0.1051,9.2122,9.2197
4,7,2,4,0,14.791,14791,-0.3600,0.1400,10.4800,10.4871,-0.0120,0.0055,-0.0131,2.19,0.44,38.25,-0.3567,0.1097,9.3793,9.3867
4,7,2,4,0,14.901,14901,-0.5900,-0.0100,11.7600,11.7748,-0.0087,-0.0022,-0.0011,2.19,0.44,38.25,-0.3875,0.0939,9.6930,9.7012
4,7,2,4,0,15.003,15003,-0.5500,0.0000,14.1500,14.1607,-0.0044,-0.0087,0.0000,2.19,0.44,38.31,-0.4089,0.0816,10.2803,10.2888
4,7,2,4,0,15.113,15113,-0.6100,0.0700,13.9400,13.9535,0.0011,-0.0131,-0.0305,2.19,0.44,38.25,-0.4354,0.0800,10.7626,10.7717
4,7,2,4,0,15.219,15219,-0.1600,-0.0500,12.0200,12.0212,0.0065,0.0044,0.0131,2.19,0.44,38.25,-0.3991,0.0629,10.9283,10.9357
4,7,2,4,0,15.329,15329,-0.3200,0.2700,11.0100,11.0180,-0.0033,0.0175,-0.0055,2.13,0.44,38.31,-0.3887,0.0902,10.9390,10.9463
4,7,2,4,0,15.432,15432,-0.2400,0.3900,10.6000,10.6099,0.0011,-0.0065,-0.0022,2.13,0.44,38.31,-0.3691,0.1297,10.8944,10.9014
4,7,2,4,0,15.542,15542,-0.4000,0.2300,9.9500,9.9607,0.0000,0.0087,0.0458,2.13,0.44,38.38,-0.3732,0.1429,10.7699,10.7773
4,7,2,4,0,15.650,15650,-0.4000,0.2300,9.2900,9.3015,-0.0033,0.0022,0.0185,2.13,0.44,38.56,-0.3767,0.1544,10.5749,10.5827
4,7,2,4,0,15.760,15760,-0.5800,0.3500,8.7000,8.7263,0.0556,-0.0305,0.0513,2.13,0.38,38.63,-0.4035,0.1802,10.3278,10.3373
4,7,2,4,0,15.863,15863,-0.6800,-0.2700,7.6100,7.6451,0.0349,-0.0164,0.0447,2.19,0.38,38.88,-0.4399,0.1208,9.9697,9.9801
4,7,2,4,0,15.973,15973,-0.3000,0.2900,7.3500,7.3618,0.0044,-0.0142,0.0164,2.19,0.31,39.06,-0.4215,0.1431,9.6245,9.6348
4,7,2,4,0,16.081,16081,-0.4600,0.0000,6.2500,6.2669,0.0044,-0.0011,-0.0164,2.19,0.31,39.06,-0.4266,0.1243,9.1798,9.1906
4,7,2,4,0,16.191,16191,-0.1700,0.5600,7.0400,7.0643,0.0033,0.0153,0.0055,2.13,0.38,39.00,-0.3928,0.1817,8.8978,8.9084
4,7,2,4,0,16.294,16294,-0.9700,-0.8200,6.7800,6.8979,0.1440,-0.0818,0.0022,2.19,0.31,39.06,-0.4688,0.0497,8.6188,8.6316
4,7,2,4,0,16.404,16404,-0.2400,-0.2500,8.0900,8.0974,0.0251,-0.0044,-0.0415,2.13,0.38,38.88,-0.4387,0.0102,8.5491,8.5603
4,8,2,4,0,16.506,16506,-0.3500,0.2000,8.9000,8.9091,-0.0436,0.0360,-0.0033,2.06,0.44,38.56,-0.4270,0.0352,8.5953,8.6060
4,8,2,4,0,16.621,16621,-0.4400,-0.1000,9.9400,9.9502,-0.0033,0.0065,0.0055,2.06,0.44,38.50,-0.4287,0.0174,8.7725,8.7830
4,8,2,4,0,16.723,16723,-0.4400,0.0600,10.4800,10.4894,0.0076,-0.0044,-0.0251,2.06,0.44,38.44,-0.4302,0.0230,8.9975,9.0078
4,8,2,4,0,16.833,16833,-0.5100,0.2500,10.7400,10.7550,-0.0011,0.0000,-0.0305,2.06,0.44,38.31,-0.4407,0.0529,9.2271,9.2378
4,8,2,4,0,16.935,16935,-0.5400,-0.2200,11.1100,11.1253,0.0076,-0.0076,0.0011,2.06,0.44,38.25,-0.4538,0.0170,9.4752,9.4861
4,8,2,4,0,17.045,17045,-0.6900,-0.5500,12.5000,12.5311,0.0044,0.0011,0.0142,2.13,0.50,38.25,-0.4849,-0.0578,9.8738,9.8859
4,8,2,4,0,17.149,17149,-0.9100,-0.2600,14.0800,14.1118,-0.0033,-0.0175,-0.0055,2.13,0.50,38.25,-0.5409,-0.0844,10.4281,10.4425
4,8,2,4,0,17.260,17260,-0.5600,-0.2000,13.1000,13.1135,-0.0055,0.0055,0.0033,2.13,0.50,38.19,-0.5434,-0.0996,10.7802,10.7943
4,8,2,4,0,17.364,17364,-0.3200,0.0800,11.4600,11.4647,-0.0022,0.0022,0.0011,2.13,0.50,38.25,-0.5140,-0.0760,10.8698,10.8822
4,8,2,4,0,17.475,17475,-0.2100,0.2400,10.5300,10.5348,-0.0087,0.0087,0.0055,2.13,0.50,38.25,-0.4739,-0.0343,10.8250,10.8354
4,8,2,4,0,17.577,17577,-0.6200,-0.1200,10.0600,10.0798,0.0033,-0.0022,-0.0076,2.13,0.50,38.25,-0.4932,-0.0456,10.7242,10.7356
4,8,2,4,0,17.687,17687,-0.5100,-0.1800,9.7800,9.7949,0.0076,-0.0044,0.0349,2.13,0.50,38.31,-0.4954,-0.0633,10.5998,10.6115
4,8,2,4,0,17.794,17794,-0.5300,0.2700,9.3300,9.3489,0.0022,-0.0011,0.0284,2.13,0.50,38.44,-0.5000,-0.0194,10.4324,10.4444
4,8,2,4,0,17.906,17906,-0.3500,0.0600,8.6100,8.6173,-0.0022,0.0033,0.0404,2.13,0.44,38.63,-0.4802,-0.0089,10.1923,10.2036
4,8,2,4,0,18.008,18008,-0.4200,0.1600,8.0200,8.0326,-0.0065,0.0055,0.0262,2.13,0.44,38.81,-0.4723,0.0133,9.9060,9.9173
4,8,2,4,0,18.118,18118,-0.2200,0.1100,7.6400,7.6440,-0.0033,-0.0044,0.0142,2.19,0.38,38.94,-0.4390,0.0261,9.6074,9.6175
4,8,2,4,0,18.225,18225,-0.4100,0.1000,6.5500,6.5636,0.0022,-0.0011,-0.0055,2.19,0.38,38.94,-0.4352,0.0358,9.2045,9.2149
4,8,2,4,0,18.337,18337,-0.4900,-0.1900,6.7200,6.7405,-0.0142,0.0185,-0.0055,2.13,0.44,38.94,-0.4424,0.0060,8.8771,8.8882
4,8,2,4,0,18.439,18439,-0.3000,0.0000,7.2200,7.2262,-0.0196,0.0076,-0.0098,2.19,0.44,38.94,-0.4237,0.0053,8.6588,8.6691
4,8,2,4,0,18.549,18549,-0.4100,0.2600,8.3400,8.3541,-0.0087,0.0033,-0.0436,2.19,0.44,38.75,-0.4219,0.0388,8.6168,8.6272
4,9,2,4,0,18.654,18654,-0.4700,-0.0400,8.8700,8.8825,-0.0044,0.0076,-0.0251,2.19,0.44,38.50,-0.4282,0.0284,8.6501,8.6608
4,9,2,4,0,18.767,18767,-0.3800,-0.3900,9.6400,9.6554,0.0076,-0.0033,-0.0022,2.13,0.50,38.44,-0.4218,-0.0267,8.7806,8.7907
4,9,2,4,0,18.870,18870,-0.4000,0.1700,10.4500,10.4590,0.0022,-0.0055,-0.0044,2.19,0.50,38.38,-0.4190,-0.0008,9.0006,9.0103
4,9,2,4,0,18.981,18981,-0.4300,0.1700,10.8200,10.8299,-0.0022,0.0011,-0.0240,2.19,0.50,38.25,-0.4204,0.0217,9.2403,9.2499
4,9,2,4,0,19.088,19088,-0.4700,0.1500,11.3700,11.3807,-0.0087,-0.0011,-0.0185,2.19,0.50,38.19,-0.4270,0.0386,9.5210,9.5306
4,9,2,4,0,19.199,19199,-0.5700,0.0100,13.5600,13.5720,-0.0033,-0.0044,0.0098,2.19,0.50,38.25,-0.4458,0.0349,10.0532,10.0631
4,9,2,4,0,19.301,19301,-0.5700,0.0000,14.0700,14.0815,0.0055,-0.0142,-0.0175,2.19,0.50,38.25,-0.4622,0.0303,10.5825,10.5926
4,9,2,4,0,19.412,19412,-0.2200,-0.0200,12.5100,12.5120,0.0065,0.0120,-0.0022,2.13,0.50,38.13,-0.4303,0.0236,10.8365,10.8451
4,9,2,4,0,19.514,19514,-0.7500,-0.3500,10.8300,10.8616,0.0131,0.0022,0.0120,2.13,0.50,38.19,-0.4724,-0.0256,10.8356,10.8460
4,9,2,4,0,19.629,19629,-0.1100,0.8300,10.5600,10.5931,-0.0185,0.0055,-0.0022,2.13,0.50,38.25,-0.4246,0.0871,10.7993,10.8080
4,9,2,4,0,19.731,19731,-0.4000,0.0000,9.6400,9.6483,0.0142,0.0065,0.0273,2.13,0.44,38.25,-0.4214,0.0757,10.6466,10.6552
4,9,2,4,0,19.841,19841,-0.5100,0.4500,9.4300,9.4545,-0.0142,-0.0011,0.0109,2.13,0.44,38.38,-0.4331,0.1250,10.4862,10.4959
4,9,2,4,0,19.943,19943,-0.5300,0.1000,8.6700,8.6868,0.0142,-0.0087,-0.0011,2.13,0.44,38.44,-0.4458,0.1217,10.2469,10.2573
4,9,2,4,0,20.053,20053,-0.1900,0.0700,8.4400,8.4424,0.0153,-0.0065,0.0425,2.13,0.44,38.63,-0.4121,0.1149,10.0088,10.0179
4,9,2,4,0,20.157,20157,-0.6000,-0.2500,7.9500,7.9765,0.0273,-0.0142,0.0349,2.13,0.44,38.81,-0.4369,0.0668,9.7375,9.7475
4,9,2,4,0,20.267,20267,-0.4100,0.0400,7.9900,8.0006,-0.0011,0.0000,0.0076,2.19,0.44,38.94,-0.4333,0.0633,9.5072,9.5173
4,9,2,4,0,20.371,20371,-0.3600,-0.0800,7.1100,7.1196,0.0131,-0.0076,0.0033,2.19,0.38,38.94,-0.4237,0.0444,9.1913,9.2012
4,9,2,4,0,20.482,20482,-0.2900,0.2000,7.4200,7.4284,0.0098,-0.0033,-0.0120,2.19,0.44,38.94,-0.4061,0.0649,8.9579,8.9674
4,9,2,4,0,20.584,20584,-0.4600,-0.2000,7.4100,7.4270,0.0131,-0.0076,-0.0207,2.19,0.44,38.88,-0.4132,0.0300,8.7539,8.7637
4,9,2,4,0,20.694,20694,-0.2600,0.2400,8.2000,8.2076,-0.0240,0.0142,-0.0415,2.19,0.44,38.63,-0.3930,0.0577,8.6809,8.6900
4,9,2,4,0,20.797,20797,-0.6200,-0.0500,8.6400,8.6624,0.0305,-0.0196,-0.0175,2.19,0.44,38.50,-0.4229,0.0435,8.6756,8.6860
4,10,2,4,0,20.913,20913,-0.3200,0.4000,9.8300,9.8433,-0.0022,0.0011,-0.0076,2.19,0.50,38.44,-0.4093,0.0905,8.8277,8.8376
4,10,2,4,0,21.015,21015,-0.5100,0.1600,9.9900,10.0043,0.0044,-0.0011,-0.0207,2.19,0.50,38.31,-0.4226,0.0996,8.9808,8.9913
4,10,2,4,0,21.125,21125,-0.3900,-0.0500,10.3300,10.3375,-0.0011,-0.0011,-0.0120,2.19,0.50,38.25,-0.4183,0.0799,9.1586,9.1685
4,10,2,4,0,21.230,21230,-0.4400,-0.1500,10.7200,10.7301,-0.0065,-0.0055,-0.0098,2.19,0.50,38.19,-0.4212,0.0496,9.3644,9.3740
4,10,2,4,0,21.344,21344,-0.3900,0.2000,12.6700,12.6776,-0.0011,0.0000,0.0131,2.19,0.50,38.25,-0.4171,0.0694,9.8000,9.8091
4,10,2,4,0,21.446,21446,-0.3800,0.1600,14.6300,14.6358,-0.0011,0.0055,-0.0033,2.19,0.50,38.25,-0.4122,0.0814,10.4364,10.4449
4,10,2,4,0,21.557,21557,-0.7100,-0.0800,13.1100,13.1295,0.0033,0.0044,-0.0175,2.25,0.50,38.19,-0.4514,0.0601,10.7888,10.7984
4,10,2,4,0,21.665,21665,-0.3100,0.1100,11.2800,11.2848,0.0011,-0.0087,0.0109,2.19,0.50,38.19,-0.4328,0.0667,10.8535,10.8623
4,10,2,4,0,21.775,21775,-0.4200,0.2700,10.3700,10.3820,-0.0098,0.0098,-0.0011,2.19,0.50,38.19,-0.4311,0.0935,10.7898,10.7988
4,10,2,4,0,21.877,21877,-0.2900,0.1000,9.8600,9.8648,0.0000,0.0022,0.0098,2.19,0.44,38.19,-0.4125,0.0943,10.6673,10.6756
4,10,2,4,0,21.987,21987,-0.2600,0.1600,9.3800,9.3850,-0.0098,0.0055,0.0120,2.13,0.44,38.31,-0.3924,0.1030,10.4976,10.5055
4,10,2,4,0,22.089,22089,-0.4100,0.3400,8.9100,8.9259,-0.0382,0.0120,-0.0098,2.13,0.50,38.38,-0.3947,0.1342,10.2884,10.2969
4,10,2,4,0,22.200,22200,-0.3300,0.0000,8.5000,8.5064,-0.0044,0.0011,0.0316,2.19,0.44,38.44,-0.3862,0.1165,10.0528,10.0608
4,10,2,4,0,22.306,22306,-0.1600,-0.0900,8.6000,8.6020,0.0033,0.0011,0.0371,2.19,0.44,38.63,-0.3564,0.0893,9.8613,9.8682
4,10,2,4,0,22.417,22417,-0.4600,0.0500,8.6600,8.6724,0.0065,-0.0011,0.0087,2.19,0.44,38.75,-0.3700,0.0841,9.7030,9.7104
4,10,2,4,0,22.519,22519,-0.3900,-0.0700,8.3100,8.3194,0.0022,0.0000,0.0164,2.25,0.38,38.75,-0.3727,0.0638,9.5194,9.5270
4,10,2,4,0,22.629,22629,-0.2300,-0.0200,7.7900,7.7934,0.0000,0.0000,0.0033,2.25,0.38,38.88,-0.3539,0.0528,9.2916,9.2984
4,10,2,4,0,22.731,22731,-0.4900,-0.1200,7.5500,7.5668,0.0425,-0.0175,-0.0251,2.25,0.38,38.81,-0.3718,0.0300,9.0621,9.0697
4,10,2,4,0,22.841,22841,-0.2900,0.3800,7.7800,7.7947,-0.0262,0.0131,-0.0153,2.25,0.38,38.69,-0.3610,0.0761,8.8931,8.9008
4,10,2,4,0,22.948,22948,-0.2400,0.0400,8.3500,8.3535,-0.0109,0.0076,-0.0251,2.25,0.44,38.56,-0.3451,0.0714,8.8215,8.8286
4,10,2,4,0,23.058,23058,-0.3700,-0.3200,8.5500,8.5640,-0.0284,0.0098,-0.0218,2.25,0.44,38.38,-0.3484,0.0198,8.7858,8.7927
4,11,2,4,0,23.161,23161,-0.1400,0.4600,9.5500,9.5621,-0.0284,0.0175,-0.0153,2.19,0.50,38.31,-0.3209,0.0778,8.8865,8.8926
4,11,2,4,0,23.271,23271,-0.2300,0.4200,10.1000,10.1113,-0.0251,0.0033,0.0022,2.25,0.50,38.25,-0.3089,0.1229,9.0464,9.0525
4,11,2,4,0,23.373,23373,-0.3200,-0.0800,10.4400,10.4452,0.0055,-0.0065,-0.0153,2.25,0.50,38.25,-0.3104,0.0962,9.2300,9.2357
4,11,2,4,0,23.483,23483,-0.3200,0.2400,10.9600,10.9673,-0.0087,0.0011,-0.0120,2.25,0.50,38.06,-0.3117,0.1151,9.4580,9.4638
4,11,2,4,0,23.589,23589,-0.5200,-0.0500,12.1800,12.1912,0.0000,0.0033,0.0218,2.25,0.50,38.13,-0.3391,0.0934,9.8167,9.8230
4,11,2,4,0,23.700,23700,-0.5300,0.0900,14.1800,14.1902,0.0011,-0.0022,-0.0131,2.25,0.50,38.13,-0.3643,0.0929,10.3917,10.3985
4,11,2,4,0,23.802,23802,-0.5500,-0.0900,13.3800,13.3916,0.0011,0.0076,-0.0033,2.25,0.50,38.06,-0.3887,0.0688,10.7854,10.7927
4,11,2,4,0,23.913,23913,-0.4300,0.2400,11.2000,11.2108,0.0033,-0.0087,0.0011,2.19,0.50,38.13,-0.3942,0.0914,10.8401,10.8476
4,11,2,4,0,24.020,24020,-0.0500,1.0000,10.5600,10.6074,-0.0120,0.0164,-0.0055,2.19,0.50,38.13,-0.3488,0.2111,10.8032,10.8109
4,11,2,4,0,24.131,24131,-0.7200,-0.1600,9.6700,9.6981,-0.0022,0.0076,0.0120,2.19,0.50,38.13,-0.3977,0.1622,10.6538,10.6625
4,11,2,4,0,24.233,24233,-0.6300,-0.3200,9.1300,9.1573,0.0295,-0.0218,0.0175,2.19,0.44,38.31,-0.4283,0.0987,10.4530,10.4623
4,11,2,4,0,24.343,24343,-0.3600,-0.1100,8.7300,8.7381,0.0262,-0.0175,0.0065,2.25,0.44,38.38,-0.4193,0.0712,10.2260,10.2348
4,11,2,4,0,24.448,24448,-0.3900,-0.0600,8.3100,8.3194,0.0131,-0.0109,0.0185,2.25,0.44,38.38,-0.4155,0.0539,9.9735,9.9823
4,11,2,4,0,24.561,24561,-0.2800,0.2200,8.6200,8.6274,-0.0164,0.0076,0.0349,2.25,0.44,38.56,-0.3976,0.0758,9.7952,9.8035
4,11,2,4,0,24.664,24664,-0.2900,0.2000,8.7200,8.7271,-0.0164,0.0011,0.0076,2.25,0.44,38.69,-0.3834,0.0921,9.6535,9.6615
4,11,2,4,0,24.774,24774,-0.3800,0.0900,8.3900,8.3991,-0.0044,0.0044,0.0000,2.31,0.44,38.69,-0.3830,0.0919,9.4870,9.4952
4,11,2,4,0,24.876,24876,-0.1800,0.2400,7.8900,7.8957,0.0240,-0.0098,0.0142,2.31,0.44,38.69,-0.3562,0.1114,9.2765,9.2840
4,11,2,4,0,24.986,24986,-0.3400,0.3100,7.4800,7.4941,-0.0164,0.0022,-0.0251,2.31,0.44,38.69,-0.3541,0.1376,9.0398,9.0478
4,11,2,4,0,25.088,25088,-0.3200,0.1300,7.6700,7.6778,-0.0153,0.0055,-0.0425,2.31,0.44,38.50,-0.3496,0.1366,8.8593,8.8672
4,11,2,4,0,25.203,25203,-0.5200,-0.2300,8.0000,8.0202,0.0218,-0.0120,-0.0098,2.31,0.44,38.38,-0.3721,0.0883,8.7461,8.7544
4,12,2,4,0,25.305,25305,-0.4800,-0.0900,9.1400,9.1530,0.0142,-0.0055,-0.0065,2.31,0.50,38.38,-0.3863,0.0648,8.7980,8.8067
4,12,2,4,0,25.415,25415,-0.5200,0.0100,9.9800,9.9935,0.0153,-0.0076,-0.0131,2.31,0.50,38.19,-0.4039,0.0575,8.9537,8.9630
4,12,2,4,0,25.517,25517,-0.4900,0.0000,10.8500,10.8611,0.0011,-0.0044,0.0033,2.31,0.56,38.13,-0.4152,0.0500,9.2036,9.2131
4,12,2,4,0,25.627,25627,-0.2200,0.2300,10.9500,10.9546,-0.0098,-0.0033,-0.0142,2.31,0.50,38.13,-0.3895,0.0737,9.4337,9.4421
4,12,2,4,0,25.729,25729,-0.5800,-0.1200,11.5200,11.5352,-0.0087,0.0022,0.0011,2.31,0.50,38.06,-0.4146,0.0482,9.7087,9.7176
4,12,2,4,0,25.844,25844,-0.4200,0.1300,13.0600,13.0674,-0.0044,-0.0011,0.0033,2.31,0.50,38.06,-0.4153,0.0589,10.1503,10.1589
4,12,2,4,0,25.946,25946,-0.6100,0.0500,13.5700,13.5838,-0.0022,-0.0022,-0.0196,2.31,0.50,38.06,-0.4410,0.0578,10.6009,10.6102
4,12,2,4,0,26.056,26056,-0.2800,0.0600,11.7300,11.7335,0.0044,0.0011,0.0098,2.31,0.50,38.06,-0.4198,0.0581,10.7497,10.7580
4,12,2,4,0,26.158,26158,-0.4500,-0.0700,10.6200,10.6298,-0.0022,0.0065,0.0011,2.31,0.50,38.06,-0.4238,0.0412,10.7326,10.7410
4,12,2,4,0,26.269,26269,-0.4500,0.0000,9.5800,9.5906,0.0065,-0.0033,0.0185,2.31,0.50,38.06,-0.4272,0.0358,10.5807,10.5894
4,12,2,4,0,26.376,26376,-0.3400,-0.1700,8.9000,8.9081,-0.0229,0.0175,0.0164,2.25,0.50,38.13,-0.4157,0.0086,10.3592,10.3676
4,12,2,4,0,26.486,26486,-0.3700,-0.3200,8.2200,8.2345,0.0589,-0.0218,0.0022,2.25,0.44,38.19,-0.4097,-0.0347,10.0773,10.0857
4,12,2,4,0,26.589,26589,-0.2700,0.4600,8.7500,8.7662,-0.0120,0.0076,0.0196,2.31,0.50,38.25,-0.3913,0.0305,9.9024,9.9102
4,12,2,4,0,26.699,26699,-0.4600,0.0000,8.5800,8.5923,0.0000,0.0000,0.0185,2.31,0.50,38.38,-0.4003,0.0265,9.7282,9.7364
4,12,2,4,0,26.801,26801,-0.3800,-0.1000,8.6800,8.6889,0.0164,-0.0098,-0.0109,2.31,0.50,38.38,-0.3977,0.0098,9.5901,9.5983
4,12,2,4,0,26.914,26914,-0.4900,0.0500,8.3500,8.3645,0.0065,-0.0076,0.0055,2.31,0.50,38.38,-0.4098,0.0151,9.4266,9.4356
4,12,2,4,0,27.018,27018,-0.4000,-0.0400,8.6200,8.6294,-0.0065,0.0000,0.0109,2.31,0.50,38.38,-0.4085,0.0079,9.3203,9.3293
4,12,2,4,0,27.129,27129,-0.4100,0.0300,8.7100,8.7197,0.0065,-0.0011,-0.0175,2.31,0.50,38.38,-0.4087,0.0108,9.2399,9.2490
4,12,2,4,0,27.231,27231,-0.4100,0.0100,8.3400,8.3501,0.0011,-0.0011,-0.0076,2.31,0.50,38.25,-0.4089,0.0107,9.1213,9.1305
4,12,2,4,0,27.341,27341,-0.4000,0.0400,8.7000,8.7093,-0.0055,-0.0011,0.0000,2.38,0.50,38.25,-0.4077,0.0145,9.0658,9.0750
4,13,2,4,0,27.449,27449,-0.4500,-0.1100,9.2600,9.2716,0.0022,-0.0065,-0.0142,2.38,0.50,38.25,-0.4133,-0.0019,9.0914,9.1008
4,13,2,4,0,27.559,27559,-0.3600,0.1700,9.6900,9.6982,0.0033,-0.0022,-0.0142,2.31,0.50,38.13,-0.4063,0.0208,9.1703,9.1793
4,13,2,4,0,27.662,27662,-0.3700,0.0800,10.1000,10.1071,-0.0055,0.0065,0.0011,2.31,0.50,38.06,-0.4015,0.0286,9.2928,9.3015
4,13,2,4,0,27.772,27772,-0.3400,0.1300,9.9700,9.9766,0.0011,-0.0065,-0.0142,2.31,0.44,38.06,-0.3934,0.0419,9.3820,9.3904
4,13,2,4,0,27.876,27876,-0.2500,0.0000,9.6700,9.6732,0.0033,0.0000,0.0011,2.31,0.44,38.00,-0.3745,0.0364,9.4200,9.4275
4,13,2,4,0,27.986,27986,-0.4400,0.1000,9.8600,9.8703,-0.0011,0.0011,0.0098,2.31,0.44,38.00,-0.3831,0.0448,9.4780,9.4858
4,13,2,4,0,28.091,28091,-0.4400,0.1700,10.8900,10.9002,-0.0022,-0.0033,-0.0142,2.31,0.44,38.00,-0.3906,0.0613,9.6640,9.6721
4,13,2,4,0,28.201,28201,-0.5500,0.0400,12.4800,12.4922,-0.0109,0.0055,0.0087,2.31,0.50,37.94,-0.4116,0.0585,10.0351,10.0437
4,13,2,4,0,28.303,28303,-0.4600,0.1900,13.6100,13.6191,0.0055,-0.0153,-0.0164,2.38,0.50,37.94,-0.4180,0.0758,10.5062,10.5148
4,13,2,4,0,28.413,28413,-0.5400,-0.4600,12.0000,12.0209,0.0131,0.0065,0.0033,2.31,0.44,37.88,-0.4341,0.0052,10.7030,10.7118
4,13,2,4,0,28.518,28518,-0.4700,0.0000,10.6500,10.6604,0.0022,0.0065,-0.0065,2.31,0.44,37.94,-0.4388,0.0045,10.6960,10.7050
4,13,2,4,0,28.632,28632,-0.3900,-0.1100,9.4700,9.4787,0.0087,-0.0065,0.0000,2.31,0.44,37.94,-0.4324,-0.0106,10.5345,10.5434
4,13,2,4,0,28.734,28734,-0.2800,-0.0600,8.9200,8.9246,0.0076,0.0044,0.0164,2.31,0.44,38.00,-0.4123,-0.0171,10.3217,10.3300
4,13,2,4,0,28.844,28844,-0.5500,-0.1500,7.4200,7.4419,0.0131,-0.0022,0.0033,2.31,0.44,38.06,-0.4304,-0.0346,9.9394,9.9487
4,13,2,4,0,28.949,28949,-0.3800,0.0300,6.4600,6.4712,0.0065,-0.0076,-0.0153,2.31,0.44,38.00,-0.4238,-0.0261,9.4809,9.4904
4,13,2,4,0,29.063,29063,-0.3600,0.1600,7.1000,7.1109,-0.0196,0.0087,0.0131,2.31,0.44,38.00,-0.4154,-0.0016,9.1671,9.1765
4,13,2,4,0,29.165,29165,-0.3800,0.0800,8.1900,8.1992,0.0000,-0.0011,-0.0055,2.31,0.44,38.06,-0.4107,0.0092,9.0384,9.0477
4,13,2,4,0,29.275,29275,-0.4400,0.0000,9.0500,9.0607,-0.0022,-0.0011,-0.0185,2.31,0.44,38.00,-0.4146,0.0080,9.0399,9.0494
4,13,2,4,0,29.381,29381,-0.4600,0.0000,9.9200,9.9307,-0.0065,0.0000,-0.0011,2.31,0.44,37.94,-0.4206,0.0069,9.1559,9.1655
4,13,2,4,0,29.491,29491,-0.3400,0.2000,10.3100,10.3175,-0.0011,-0.0022,-0.0033,2.31,0.44,37.94,-0.4100,0.0324,9.3080,9.3170
4,13,2,4,0,29.594,29594,-0.3600,-0.0100,10.4700,10.4762,0.0055,-0.0087,-0.0185,2.31,0.44,37.88,-0.4034,0.0268,9.4611,9.4697
4,13,2,4,0,29.704,29704,-0.4600,0.0000,10.4300,10.4401,-0.0044,0.0000,0.0153,2.31,0.44,37.88,-0.4108,0.0233,9.5888,9.5976
4,13,2,4,0,29.807,29807,-0.4800,0.0000,10.6400,10.6508,0.0011,-0.0044,-0.0055,2.31,0.44,37.94,-0.4199,0.0202,9.7273,9.7364
4,13,2,4,0,29.917,29917,-0.4300,0.1200,10.7100,10.7193,0.0000,0.0000,-0.0120,2.31,0.44,37.88,-0.4213,0.0333,9.8568,9.8658
4,13,2,4,0,30.025,30025,-0.3900,0.0300,10.3900,10.3974,-0.0033,-0.0022,0.0120,2.31,0.44,37.88,-0.4172,0.0329,9.9271,9.9359
4,13,2,4,0,30.136,30136,-0.4000,0.1000,10.2400,10.2483,-0.0011,-0.0044,-0.0120,2.31,0.44,37.88,-0.4149,0.0417,9.9683,9.9770
4,13,2,4,0,30.238,30238,-0.4400,0.0800,9.2800,9.2908,0.0000,0.0011,-0.0044,2.31,0.44,37.75,-0.4182,0.0468,9.8776,9.8866
4,13,2,4,0,30.348,30348,-0.2300,0.1500,9.1200,9.1241,-0.0055,0.0098,0.0196,2.31,0.44,37.81,-0.3934,0.0604,9.7778,9.7859
4,13,2,4,0,30.454,30454,-0.4300,0.0500,9.3500,9.3600,-0.0044,0.0011,-0.0109,2.31,0.44,37.81,-0.3982,0.0590,9.7214,9.7297
4,13,2,4,0,30.566,30566,-0.4100,0.1000,9.5000,9.5094,-0.0011,0.0022,-0.0011,2.31,0.44,37.81,-0.3998,0.0644,9.6922,9.7007
4,13,2,4,0,30.668,30668,-0.4200,-0.1200,9.6500,9.6599,0.0076,-0.0044,0.0011,2.31,0.44,37.81,-0.4024,0.0401,9.6867,9.6951
