participant,rep,equipment_code,exercise_code,quality_code,timestamp,timestamp_ms,accelX,accelY,accelZ,accelMag,gyroX,gyroY,gyroZ,roll,pitch,yaw,filteredX,filteredY,filteredZ,filteredMag
4,1,2,4,0,00.000,0,-0.0700,-0.3800,9.7500,9.7577,0.0022,0.0065,0.0022,0.44,-2.44,95.38,-0.0768,-0.3722,9.8216,9.8290
4,1,2,4,0,00.131,131,-0.0400,-0.3700,9.8200,9.8270,-0.0011,0.0011,0.0000,0.44,-2.44,95.38,-0.0719,-0.3719,9.8214,9.8287
4,1,2,4,0,00.264,264,-0.0500,-0.4000,9.8700,9.8782,-0.0011,-0.0022,-0.0011,0.44,-2.44,95.38,-0.0690,-0.3756,9.8278,9.8352
4,1,2,4,0,00.398,398,-0.0600,-0.3900,9.6700,9.6780,0.0011,-0.0065,-0.0011,0.44,-2.44,95.38,-0.0678,-0.3775,9.8070,9.8145
4,1,2,4,0,00.529,529,-0.0500,-0.4200,9.9100,9.9190,0.0011,-0.0044,-0.0011,0.44,-2.44,95.38,-0.0655,-0.3831,9.8206,9.8283
4,1,2,4,0,00.659,659,-0.0400,-0.3900,10.0300,10.0377,0.0011,0.0131,0.0022,0.38,-2.44,95.38,-0.0621,-0.3840,9.8482,9.8559
4,1,2,4,0,00.790,790,-0.0300,-0.4300,10.8800,10.8885,0.0076,0.0262,0.0044,0.25,-2.44,95.38,-0.0579,-0.3901,9.9842,9.9919
4,1,2,4,0,00.963,963,-0.0400,-0.5800,11.6900,11.7044,-0.0022,-0.0065,-0.0120,0.25,-2.44,95.38,-0.0555,-0.4151,10.2089,10.2175
4,1,2,4,0,01.096,1096,0.0600,-0.6500,11.2800,11.2989,0.0447,0.0065,0.0055,0.44,-2.44,95.38,-0.0403,-0.4461,10.3501,10.3598
4,1,2,4,0,01.227,1227,-0.2800,-0.4700,10.6900,10.7040,0.0251,0.0033,-0.0065,0.31,-2.44,95.44,-0.0719,-0.4492,10.3949,10.4048
4,1,2,4,0,01.361,1361,-0.1800,-0.1900,10.0400,10.0434,-0.0262,-0.0044,-0.0251,0.31,-2.44,95.25,-0.0861,-0.4151,10.3481,10.3568
4,1,2,4,0,01.492,1492,0.0700,-0.3800,9.3900,9.3979,-0.0284,-0.0207,0.0273,0.44,-2.38,95.31,-0.0656,-0.4104,10.2219,10.2303
4,1,2,4,0,01.623,1623,-0.1800,-0.3100,8.8400,8.8473,-0.0371,0.0022,0.0065,0.44,-2.38,95.44,-0.0806,-0.3972,10.0398,10.0479
4,1,2,4,0,01.753,1753,-0.0100,-0.1900,8.1500,8.1522,-0.0316,-0.0087,0.0022,0.38,-2.38,95.38,-0.0713,-0.3699,9.7907,9.7980
4,1,2,4,0,01.883,1883,-0.0400,-0.3900,7.6000,7.6101,-0.0065,0.0000,0.0087,0.44,-2.31,95.44,-0.0672,-0.3725,9.5021,9.5096
4,1,2,4,0,02.056,2056,-0.0200,-0.3100,8.2200,8.2259,-0.0055,0.0022,0.0022,0.44,-2.31,95.44,-0.0610,-0.3643,9.3331,9.3404
4,1,2,4,0,02.187,2187,-0.0800,-0.1100,8.0200,8.0212,-0.0164,0.0295,-0.0011,0.44,-2.25,95.38,-0.0635,-0.3308,9.1601,9.1663
4,1,2,4,0,02.317,2317,0.0700,0.1900,8.0100,8.0126,-0.0076,0.0153,-0.0033,0.38,-2.31,95.44,-0.0459,-0.2622,9.0085,9.0125
4,2,2,4,0,02.451,2451,0.0000,-0.4000,9.3800,9.3885,0.0196,-0.0022,0.0000,0.44,-2.38,95.44,-0.0399,-0.2803,9.0575,9.0619
4,2,2,4,0,02.585,2585,-0.0100,-0.1900,10.0200,10.0218,-0.0131,0.0131,-0.0284,0.50,-2.31,95.38,-0.0359,-0.2684,9.1843,9.1883
4,2,2,4,0,02.716,2716,-0.0500,-0.5000,10.5000,10.5120,0.0044,0.0251,0.0000,0.31,-2.38,95.38,-0.0378,-0.2989,9.3577,9.3625
4,2,2,4,0,02.846,2846,0.0900,-0.5000,11.1000,11.1116,0.0033,-0.0109,0.0087,0.31,-2.44,95.38,-0.0209,-0.3254,9.5873,9.5928
4,2,2,4,0,02.977,2977,-0.0900,-0.4500,11.0300,11.0395,-0.0044,-0.0175,0.0109,0.38,-2.38,95.44,-0.0300,-0.3418,9.7774,9.7834
4,2,2,4,0,03.149,3149,-0.0400,-0.3300,10.2300,10.2354,0.0022,0.0131,-0.0109,0.38,-2.38,95.38,-0.0314,-0.3403,9.8370,9.8430
4,2,2,4,0,03.279,3279,0.0000,-0.3500,10.1300,10.1360,0.0011,0.0109,-0.0033,0.25,-2.38,95.38,-0.0272,-0.3416,9.8756,9.8816
4,2,2,4,0,03.409,3409,-0.0200,-0.3100,10.2500,10.2547,-0.0273,-0.0076,-0.0055,0.19,-2.38,95.44,-0.0263,-0.3374,9.9250,9.9307
4,2,2,4,0,03.539,3539,-0.1600,-0.4800,10.3000,10.3124,0.0055,-0.0120,-0.0055,0.31,-2.38,95.38,-0.0439,-0.3562,9.9744,9.9808
4,2,2,4,0,03.669,3669,0.0100,-0.4200,10.0600,10.0688,0.0055,0.0000,0.0175,0.31,-2.31,95.44,-0.0368,-0.3646,9.9857,9.9924
4,2,2,4,0,03.799,3799,-0.0100,-0.3800,9.8200,9.8274,0.0055,0.0175,0.0011,0.25,-2.31,95.44,-0.0333,-0.3666,9.9638,9.9706
4,2,2,4,0,03.929,3929,-0.0400,-0.3800,9.9600,9.9673,-0.0011,0.0076,0.0022,0.25,-2.31,95.44,-0.0341,-0.3684,9.9633,9.9702
4,2,2,4,0,04.059,4059,-0.1500,-0.5000,10.8700,10.8825,-0.0044,0.0055,-0.0065,0.13,-2.38,95.44,-0.0494,-0.3857,10.0828,10.0903
4,2,2,4,0,04.232,4232,-0.0800,-0.4900,11.8800,11.8904,-0.0098,-0.0098,0.0076,0.13,-2.31,95.44,-0.0534,-0.3995,10.3196,10.3275
4,2,2,4,0,04.362,4362,-0.1200,-0.4900,11.1800,11.1914,0.0120,-0.0011,-0.0076,0.19,-2.31,95.44,-0.0622,-0.4114,10.4330,10.4413
4,2,2,4,0,04.492,4492,0.3300,-0.3700,10.5100,10.5217,0.0153,0.0055,-0.0153,0.19,-2.38,95.44,-0.0105,-0.4059,10.4432,10.4510
4,2,2,4,0,04.622,4622,-0.0200,-0.4700,10.1200,10.1309,-0.0196,-0.0022,0.0011,0.13,-2.31,95.38,-0.0118,-0.4144,10.4006,10.4088
4,2,2,4,0,04.752,4752,-0.0100,-0.4000,9.4700,9.4784,0.0185,-0.0207,-0.0033,0.31,-2.25,95.38,-0.0115,-0.4125,10.2779,10.2862
4,2,2,4,0,04.882,4882,-0.0600,-0.3800,8.9400,8.9483,0.0044,-0.0131,-0.0076,0.31,-2.31,95.44,-0.0179,-0.4082,10.1016,10.1099
4,2,2,4,0,05.012,5012,0.0500,-0.4300,8.3400,8.3512,-0.0185,-0.0044,-0.0175,0.25,-2.25,95.38,-0.0090,-0.4111,9.8695,9.8781
4,2,2,4,0,05.142,5142,0.1000,-0.3900,7.7600,7.7704,-0.0327,0.0055,0.0284,0.25,-2.19,95.44,0.0054,-0.4083,9.5915,9.6002
4,2,2,4,0,05.315,5315,-0.1800,-0.2900,7.8400,7.8474,0.0076,0.0087,-0.0087,0.31,-2.19,95.44,-0.0190,-0.3927,9.3607,9.3690
4,2,2,4,0,05.446,5446,0.0500,-0.2900,7.4700,7.4758,-0.0327,0.0185,0.0109,0.38,-2.13,95.44,-0.0099,-0.3792,9.1116,9.1195
4,2,2,4,0,05.576,5576,-0.1900,-0.1200,8.0800,8.0831,-0.0207,0.0240,-0.0175,0.31,-2.19,95.38,-0.0337,-0.3450,8.9756,8.9823
4,3,2,4,0,05.707,5707,-0.0900,-0.5000,9.1100,9.1242,0.0284,0.0011,0.0164,0.25,-2.31,95.50,-0.0411,-0.3654,8.9933,9.0009
4,3,2,4,0,05.838,5838,-0.2000,-0.5700,10.0500,10.0681,-0.0055,-0.0033,-0.0273,0.38,-2.31,95.44,-0.0620,-0.3924,9.1326,9.1412
4,3,2,4,0,05.968,5968,-0.0900,-0.4200,10.9300,10.9384,0.0305,0.0229,0.0065,0.25,-2.31,95.38,-0.0657,-0.3960,9.3694,9.3780
4,3,2,4,0,06.101,6101,-0.1700,-0.4600,11.3400,11.3506,-0.0109,-0.0076,0.0087,0.19,-2.38,95.38,-0.0795,-0.4045,9.6291,9.6379
4,3,2,4,0,06.235,6235,-0.2000,-0.6100,11.0700,11.0886,-0.0044,-0.0131,0.0044,0.31,-2.25,95.38,-0.0953,-0.4316,9.8190,9.8289
4,3,2,4,0,06.408,6408,-0.1700,-0.5100,10.2000,10.2142,0.0131,0.0207,0.0251,0.25,-2.31,95.38,-0.1052,-0.4419,9.8692,9.8796
4,3,2,4,0,06.538,6538,-0.1800,-0.1100,10.1500,10.1522,-0.0131,0.0142,-0.0185,0.13,-2.31,95.44,-0.1150,-0.3982,9.9062,9.9149
4,3,2,4,0,06.668,6668,0.1100,-0.5200,10.0200,10.0341,-0.0011,-0.0131,0.0033,0.13,-2.31,95.38,-0.0854,-0.4142,9.9212,9.9302
4,3,2,4,0,06.798,6798,-0.0800,-0.4100,10.0800,10.0887,-0.0011,0.0022,0.0076,0.19,-2.25,95.38,-0.0847,-0.4137,9.9421,9.9511
4,3,2,4,0,06.928,6928,-0.0700,-0.3900,10.1100,10.1178,0.0120,0.0153,-0.0044,0.19,-2.25,95.38,-0.0827,-0.4105,9.9642,9.9730
4,3,2,4,0,07.058,7058,-0.0400,-0.3600,9.9600,9.9666,-0.0011,0.0033,0.0000,0.13,-2.25,95.38,-0.0771,-0.4039,9.9637,9.9722
4,3,2,4,0,07.189,7189,-0.0200,-0.4600,9.9500,9.9606,-0.0044,-0.0055,-0.0011,0.13,-2.31,95.38,-0.0696,-0.4113,9.9619,9.9706
4,3,2,4,0,07.319,7319,0.0000,-0.4200,10.1200,10.1287,0.0087,0.0164,0.0044,0.13,-2.31,95.38,-0.0604,-0.4124,9.9827,9.9914
4,3,2,4,0,07.492,7492,-0.1500,-0.3600,11.4100,11.4167,-0.0164,-0.0011,-0.0131,0.00,-2.31,95.38,-0.0722,-0.4055,10.1708,10.1791
4,3,2,4,0,07.622,7622,0.0400,-0.5400,11.7400,11.7525,-0.0207,-0.0185,0.0076,0.06,-2.25,95.38,-0.0574,-0.4232,10.3776,10.3864
4,3,2,4,0,07.755,7755,0.0400,-0.4600,11.1600,11.1695,0.0076,-0.0044,-0.0022,0.13,-2.19,95.44,-0.0446,-0.4281,10.4807,10.4895
4,3,2,4,0,07.890,7890,0.0900,-0.6400,10.4200,10.4400,0.0109,0.0098,-0.0240,0.13,-2.31,95.31,-0.0269,-0.4560,10.4727,10.4826
4,3,2,4,0,08.021,8021,-0.0500,-0.4600,10.2600,10.2704,-0.0480,-0.0382,0.0022,0.13,-2.25,95.31,-0.0299,-0.4565,10.4447,10.4547
4,3,2,4,0,08.151,8151,0.1000,-0.4700,9.3700,9.3823,0.0022,0.0120,0.0175,0.25,-2.25,95.38,-0.0128,-0.4583,10.3030,10.3132
4,3,2,4,0,08.281,8281,-0.2200,-0.6000,8.6100,8.6337,-0.0316,0.0131,-0.0229,0.25,-2.31,95.31,-0.0401,-0.4770,10.0799,10.0913
4,3,2,4,0,08.412,8412,-0.0500,-0.0900,7.9300,7.9307,-0.0524,0.0120,0.0076,0.25,-2.13,95.25,-0.0414,-0.4260,9.7966,9.8060
4,3,2,4,0,08.584,8584,-0.0100,-0.4000,6.5500,6.5622,0.0022,-0.0185,-0.0175,0.31,-2.13,95.38,-0.0373,-0.4226,9.3688,9.3784
4,3,2,4,0,08.715,8715,-0.1400,-0.3400,7.6600,7.6688,0.0273,-0.0033,0.0022,0.31,-2.13,95.31,-0.0508,-0.4117,9.1436,9.1530
4,3,2,4,0,08.846,8846,-0.2000,-0.3800,8.1100,8.1214,0.0469,-0.0087,-0.0011,0.25,-2.13,95.25,-0.0705,-0.4075,9.0074,9.0169
4,3,2,4,0,08.978,8978,-0.0400,-0.3500,8.9000,8.9070,0.0055,0.0065,0.0087,0.25,-2.19,95.25,-0.0664,-0.3999,8.9933,9.0024
4,4,2,4,0,09.109,9109,-0.0500,-0.3300,10.0000,10.0056,-0.0371,-0.0011,0.0044,0.25,-2.19,95.31,-0.0643,-0.3907,9.1259,9.1345
4,4,2,4,0,09.243,9243,-0.1000,-0.3700,10.6700,10.6769,0.0218,-0.0185,-0.0153,0.25,-2.19,95.19,-0.0690,-0.3880,9.3294,9.3377
4,4,2,4,0,09.374,9374,-0.0900,-0.4600,10.8800,10.8901,0.0044,0.0164,0.0153,0.19,-2.25,95.31,-0.0718,-0.3975,9.5337,9.5423
4,4,2,4,0,09.505,9505,-0.1000,-0.5900,10.6400,10.6568,0.0033,-0.0076,0.0033,0.13,-2.25,95.25,-0.0755,-0.4228,9.6795,9.6890
4,4,2,4,0,09.680,9680,-0.1700,-0.3300,10.3500,10.3567,0.0065,0.0022,0.0196,0.19,-2.13,95.31,-0.0879,-0.4106,9.7679,9.7769
4,4,2,4,0,09.815,9815,-0.1000,-0.3200,10.2200,10.2255,0.0033,0.0131,-0.0142,0.19,-2.13,95.31,-0.0895,-0.3987,9.8274,9.8359
4,4,2,4,0,09.946,9946,0.0000,-0.4000,10.1800,10.1879,0.0000,0.0087,-0.0065,0.06,-2.19,95.31,-0.0777,-0.3988,9.8739,9.8823
4,4,2,4,0,10.076,10076,-0.0200,-0.3700,10.2800,10.2867,-0.0055,-0.0131,0.0120,0.13,-2.19,95.31,-0.0701,-0.3950,9.9274,9.9355
4,4,2,4,0,10.207,10207,0.0600,-0.3500,10.1700,10.1762,-0.0033,-0.0033,-0.0175,0.13,-2.19,95.31,-0.0530,-0.3891,9.9594,9.9671
4,4,2,4,0,10.337,10337,0.0000,-0.3100,9.7600,9.7649,-0.0033,0.0120,0.0175,0.13,-2.19,95.25,-0.0460,-0.3787,9.9331,9.9404
4,4,2,4,0,10.467,10467,-0.0600,-0.5000,9.9200,9.9328,0.0087,0.0153,0.0000,0.06,-2.19,95.31,-0.0478,-0.3947,9.9314,9.9393
4,4,2,4,0,10.598,10598,0.0000,-0.3300,10.0900,10.0954,-0.0033,-0.0044,-0.0055,0.06,-2.19,95.31,-0.0415,-0.3861,9.9523,9.9599
4,4,2,4,0,10.771,10771,-0.1600,-0.4500,10.1100,10.1213,0.0033,0.0076,0.0196,0.00,-2.19,95.38,-0.0571,-0.3946,9.9731,9.9810
4,4,2,4,0,10.902,10902,-0.0900,-0.4400,11.2900,11.2989,0.0098,0.0098,-0.0011,0.00,-2.13,95.38,-0.0615,-0.4005,10.1466,10.1547
4,4,2,4,0,11.032,11032,-0.1600,-0.4900,11.4000,11.4116,0.0076,-0.0109,0.0044,0.00,-2.13,95.38,-0.0745,-0.4123,10.3118,10.3203
4,4,2,4,0,11.163,11163,-0.0400,-0.2100,11.1400,11.1421,-0.0305,-0.0218,0.0033,0.06,-2.06,95.44,-0.0699,-0.3857,10.4209,10.4283
4,4,2,4,0,11.293,11293,-0.2000,-0.4000,10.6500,10.6594,0.0185,0.0044,-0.0153,0.13,-2.13,95.31,-0.0871,-0.3876,10.4511,10.4586
4,4,2,4,0,11.424,11424,0.0600,-0.4700,10.3500,10.3608,-0.0240,0.0044,0.0065,0.06,-2.19,95.31,-0.0677,-0.3984,10.4378,10.4456
4,4,2,4,0,11.555,11555,-0.1600,-0.4200,9.8000,9.8103,0.0164,-0.0142,0.0065,0.06,-2.13,95.31,-0.0798,-0.4013,10.3537,10.3618
4,4,2,4,0,11.690,11690,-0.1900,-0.6200,9.0500,9.0732,0.0447,0.0044,0.0120,0.19,-2.13,95.38,-0.0944,-0.4301,10.1819,10.1915
4,4,2,4,0,11.863,11863,-0.2000,-0.1800,8.1000,8.1045,-0.0338,-0.0033,0.0000,0.13,-2.13,95.25,-0.1083,-0.3971,9.9076,9.9161
4,4,2,4,0,11.993,11993,-0.1100,-0.2800,7.4100,7.4161,-0.0360,0.0022,0.0251,0.25,-2.00,95.31,-0.1085,-0.3817,9.5785,9.5867
4,4,2,4,0,12.123,12123,-0.1400,-0.2000,7.6700,7.6739,-0.0218,0.0044,-0.0044,0.25,-2.00,95.31,-0.1127,-0.3578,9.3270,9.3345
4,4,2,4,0,12.253,12253,0.0600,-0.3300,7.8700,7.8771,-0.0305,-0.0055,0.0065,0.25,-2.00,95.31,-0.0899,-0.3541,9.1350,9.1423
4,4,2,4,0,12.383,12383,-0.1600,-0.4700,8.2600,8.2749,0.0065,0.0153,-0.0131,0.19,-2.06,95.25,-0.0991,-0.3694,9.0197,9.0278
4,5,2,4,0,12.513,12513,-0.2000,-0.3700,9.2400,9.2496,-0.0207,0.0142,0.0076,0.19,-2.00,95.31,-0.1124,-0.3695,9.0487,9.0570
4,5,2,4,0,12.644,12644,0.0200,-0.1500,10.0200,10.0211,0.0098,0.0044,-0.0185,0.19,-2.06,95.31,-0.0950,-0.3405,9.1767,9.1835
4,5,2,4,0,12.775,12775,0.5100,-0.6200,10.5500,10.5805,0.0469,0.0240,0.0076,0.06,-2.13,95.19,-0.0153,-0.3774,9.3577,9.3653
4,5,2,4,0,12.953,12953,-0.3900,-0.5400,11.0200,11.0401,-0.0076,0.0055,-0.0076,0.06,-2.13,95.31,-0.0646,-0.3988,9.5767,9.5852
4,5,2,4,0,13.085,13085,0.0300,-0.3700,10.7700,10.7764,0.0000,0.0011,0.0000,0.13,-2.06,95.25,-0.0522,-0.3950,9.7340,9.7421
4,5,2,4,0,13.215,13215,-0.2600,-0.4200,10.0500,10.0621,-0.0316,0.0153,0.0120,0.13,-2.06,95.31,-0.0796,-0.3983,9.7756,9.7840
4,5,2,4,0,13.345,13345,0.0000,-0.2800,10.0300,10.0339,-0.0175,0.0000,-0.0087,0.06,-2.06,95.31,-0.0691,-0.3827,9.8091,9.8168
4,5,2,4,0,13.476,13476,-0.2900,-0.3800,10.2000,10.2112,-0.0164,0.0120,-0.0033,0.06,-2.19,95.31,-0.0982,-0.3823,9.8606,9.8685
4,5,2,4,0,13.606,13606,0.0000,-0.3800,10.0700,10.0772,0.0055,-0.0055,-0.0055,0.00,-2.13,95.38,-0.0852,-0.3820,9.8882,9.8960
4,5,2,4,0,13.737,13737,-0.0200,-0.4100,10.3000,10.3082,0.0087,0.0065,0.0164,0.06,-2.19,95.31,-0.0766,-0.3857,9.9425,9.9503
4,5,2,4,0,13.867,13867,0.0100,-0.3900,10.2600,10.2674,-0.0011,0.0011,0.0044,0.06,-2.19,95.31,-0.0652,-0.3863,9.9843,9.9920
4,5,2,4,0,14.040,14040,0.0500,-0.3500,9.7400,9.7464,0.0055,0.0065,-0.0076,0.06,-2.19,95.31,-0.0500,-0.3815,9.9521,9.9596
4,5,2,4,0,14.170,14170,0.0700,-0.4400,10.2000,10.2097,-0.0109,0.0098,0.0164,0.06,-2.25,95.38,-0.0342,-0.3892,9.9848,9.9924
4,5,2,4,0,14.301,14301,-0.0500,-0.4200,11.4400,11.4478,0.0033,-0.0022,-0.0120,0.06,-2.19,95.31,-0.0363,-0.3933,10.1766,10.1842
4,5,2,4,0,14.432,14432,-0.1600,-0.4400,11.8200,11.8293,0.0131,-0.0022,0.0175,0.06,-2.19,95.38,-0.0526,-0.3994,10.3931,10.4009
4,5,2,4,0,14.563,14563,-0.0700,-0.4900,11.1700,11.1810,-0.0251,-0.0196,-0.0076,0.13,-2.19,95.38,-0.0549,-0.4114,10.4955,10.5037
4,5,2,4,0,14.693,14693,-0.0500,-0.4700,10.7000,10.7104,0.0338,0.0120,-0.0087,0.19,-2.25,95.38,-0.0543,-0.4191,10.5224,10.5309
4,5,2,4,0,14.827,14827,-0.0900,-0.3400,10.2000,10.2061,-0.0055,0.0044,0.0087,0.13,-2.25,95.38,-0.0590,-0.4087,10.4800,10.4881
4,5,2,4,0,14.960,14960,-0.0600,-0.3300,9.4900,9.4959,-0.0327,-0.0415,-0.0011,0.31,-2.13,95.38,-0.0591,-0.3983,10.3495,10.3573
4,5,2,4,0,15.133,15133,-0.1400,-0.3700,8.1700,8.1796,0.0065,0.0022,-0.0240,0.31,-2.19,95.38,-0.0698,-0.3946,10.0623,10.0703
4,5,2,4,0,15.264,15264,-0.1200,-0.2700,7.8500,7.8556,-0.0055,0.0011,0.0142,0.31,-2.13,95.31,-0.0764,-0.3782,9.7708,9.7784
4,5,2,4,0,15.394,15394,-0.1700,-0.3700,7.6800,7.6908,0.0109,-0.0055,-0.0087,0.31,-2.00,95.38,-0.0887,-0.3771,9.4953,9.5032
4,5,2,4,0,15.527,15527,-0.1100,-0.3700,8.2600,8.2690,0.0196,0.0076,0.0000,0.31,-2.00,95.44,-0.0915,-0.3761,9.3325,9.3405
4,5,2,4,0,15.662,15662,0.0000,-0.1100,7.7900,7.7908,-0.0327,0.0011,-0.0098,0.31,-2.06,95.44,-0.0795,-0.3411,9.1292,9.1359
4,5,2,4,0,15.792,15792,-0.1400,-0.4100,8.2700,8.2813,0.0098,0.0055,-0.0033,0.31,-2.06,95.38,-0.0874,-0.3502,9.0160,9.0232
4,6,2,4,0,15.923,15923,-0.0300,-0.6100,9.2200,9.2402,0.0393,0.0120,0.0022,0.25,-2.13,95.44,-0.0799,-0.3844,9.0429,9.0514
4,6,2,4,0,16.053,16053,0.2500,-0.4400,9.9700,9.9828,0.0044,0.0022,-0.0229,0.31,-2.13,95.38,-0.0364,-0.3917,9.1651,9.1735
4,6,2,4,0,16.226,16226,-0.1400,-0.4800,10.7000,10.7117,0.0251,0.0011,-0.0055,0.31,-2.13,95.38,-0.0501,-0.4034,9.3673,9.3761
4,6,2,4,0,16.356,16356,-0.1300,-0.4300,10.8300,10.8393,0.0109,0.0098,0.0196,0.25,-2.19,95.38,-0.0606,-0.4069,9.5601,9.5689
4,6,2,4,0,16.486,16486,-0.0600,-0.5100,10.8800,10.8921,-0.0153,-0.0142,0.0065,0.25,-2.13,95.38,-0.0605,-0.4205,9.7340,9.7433
4,6,2,4,0,16.616,16616,0.3500,-0.4100,10.3200,10.3341,0.0087,0.0044,0.0011,0.31,-2.06,95.44,-0.0064,-0.4191,9.8112,9.8202
4,6,2,4,0,16.746,16746,-0.0900,-0.3400,10.1100,10.1161,0.0076,0.0131,0.0022,0.25,-2.06,95.38,-0.0174,-0.4087,9.8506,9.8591
4,6,2,4,0,16.876,16876,-0.1800,-0.4100,10.0000,10.0100,0.0044,0.0120,0.0000,0.19,-2.13,95.38,-0.0389,-0.4088,9.8703,9.8788
4,6,2,4,0,17.006,17006,-0.1400,-0.5200,9.9700,9.9845,-0.0076,-0.0033,-0.0033,0.19,-2.13,95.38,-0.0522,-0.4235,9.8834,9.8926
4,6,2,4,0,17.136,17136,-0.0800,-0.3900,10.0100,10.0179,0.0076,0.0044,-0.0033,0.19,-2.13,95.38,-0.0558,-0.4191,9.9001,9.9091
4,6,2,4,0,17.309,17309,0.0100,-0.4600,10.2800,10.2903,0.0011,0.0098,0.0098,0.19,-2.13,95.38,-0.0472,-0.4245,9.9502,9.9593
4,6,2,4,0,17.440,17440,-0.0500,-0.4400,10.1800,10.1896,0.0044,0.0055,-0.0065,0.19,-2.13,95.31,-0.0475,-0.4265,9.9804,9.9897
4,6,2,4,0,17.571,17571,-0.1000,-0.3200,9.9800,9.9856,-0.0033,0.0131,0.0022,0.19,-2.13,95.38,-0.0545,-0.4125,9.9804,9.9891
4,6,2,4,0,17.702,17702,-0.2200,-0.3500,11.0500,11.0577,-0.0022,0.0055,-0.0065,0.19,-2.06,95.31,-0.0763,-0.4042,10.1213,10.1297
4,6,2,4,0,17.837,17837,-0.0500,-0.3300,11.5200,11.5248,-0.0076,-0.0076,-0.0022,0.19,-2.00,95.31,-0.0728,-0.3945,10.3056,10.3134
4,6,2,4,0,17.969,17969,0.0300,-0.4500,11.4300,11.4389,-0.0273,-0.0240,-0.0055,0.19,-2.13,95.31,-0.0593,-0.4018,10.4538,10.4617
4,6,2,4,0,18.099,18099,-0.1300,-0.3300,10.8000,10.8058,0.0153,0.0218,-0.0076,0.31,-2.00,95.31,-0.0686,-0.3923,10.4994,10.5070
4,6,2,4,0,18.229,18229,-0.1200,-0.5300,10.3000,10.3143,-0.0185,0.0044,-0.0120,0.25,-2.13,95.31,-0.0754,-0.4105,10.4731,10.4815
4,6,2,4,0,18.402,18402,0.1400,-0.5200,9.5200,9.5352,-0.0055,-0.0218,-0.0065,0.31,-2.13,95.38,-0.0470,-0.4249,10.3475,10.3564
4,6,2,4,0,18.533,18533,0.0100,-0.5300,8.9600,8.9757,0.0360,-0.0033,0.0065,0.38,-2.06,95.38,-0.0395,-0.4387,10.1647,10.1742
4,6,2,4,0,18.663,18663,0.0800,-0.4400,8.1200,8.1323,-0.0218,0.0044,-0.0196,0.31,-2.06,95.31,-0.0237,-0.4389,9.8953,9.9050
4,6,2,4,0,18.794,18794,-0.0400,-0.2300,7.8200,7.8235,-0.0349,-0.0142,0.0251,0.38,-1.94,95.31,-0.0259,-0.4114,9.6218,9.6306
4,6,2,4,0,18.925,18925,0.1700,-0.2100,7.1900,7.1951,-0.0044,0.0142,-0.0087,0.44,-1.94,95.38,-0.0001,-0.3848,9.3013,9.3093
4,6,2,4,0,19.055,19055,0.0200,-0.3100,8.3600,8.3658,0.0098,-0.0033,0.0033,0.44,-2.00,95.38,0.0026,-0.3750,9.1773,9.1850
4,6,2,4,0,19.186,19186,-0.1300,-0.4800,8.0700,8.0853,0.0087,0.0251,0.0000,0.44,-1.94,95.38,-0.0149,-0.3888,9.0314,9.0398
4,6,2,4,0,19.321,19321,0.0800,-0.1600,8.3500,8.3519,-0.0185,0.0185,0.0098,0.44,-2.00,95.25,-0.0024,-0.3587,8.9416,8.9488
4,7,2,4,0,19.494,19494,-0.1700,-0.2500,10.0500,10.0545,-0.0295,-0.0044,-0.0229,0.44,-2.06,95.38,-0.0245,-0.3443,9.0877,9.0942
4,7,2,4,0,19.624,19624,-0.1400,-0.0700,10.4600,10.4612,-0.0131,0.0033,-0.0109,0.44,-2.06,95.31,-0.0397,-0.3082,9.2685,9.2737
4,7,2,4,0,19.754,19754,-0.0400,-0.5000,10.5800,10.5919,0.0153,-0.0033,0.0207,0.44,-2.19,95.31,-0.0397,-0.3335,9.4413,9.4473
4,7,2,4,0,19.884,19884,0.0500,-0.5700,10.8600,10.8751,-0.0011,0.0044,-0.0142,0.38,-2.19,95.38,-0.0279,-0.3646,9.6283,9.6352
4,7,2,4,0,20.014,20014,-0.1900,-0.2600,10.8800,10.8848,-0.0044,0.0011,0.0011,0.38,-2.13,95.31,-0.0493,-0.3509,9.7932,9.7996
4,7,2,4,0,20.145,20145,-0.0700,-0.5300,10.2800,10.2939,0.0022,0.0109,0.0109,0.38,-2.13,95.50,-0.0520,-0.3745,9.8574,9.8646
4,7,2,4,0,20.275,20275,-0.0600,-0.3900,10.1500,10.1577,0.0120,0.0065,-0.0087,0.38,-2.19,95.31,-0.0531,-0.3765,9.8959,9.9032
4,7,2,4,0,20.405,20405,0.0400,-0.3200,10.0400,10.0452,0.0055,-0.0011,0.0185,0.38,-2.19,95.44,-0.0408,-0.3691,9.9149,9.9219
4,7,2,4,0,20.578,20578,-0.0800,-0.3900,9.8500,9.8580,0.0022,-0.0033,-0.0153,0.31,-2.19,95.38,-0.0460,-0.3718,9.9064,9.9134
4,7,2,4,0,20.708,20708,-0.0800,-0.3700,10.0400,10.0471,0.0044,0.0087,0.0196,0.31,-2.19,95.38,-0.0504,-0.3716,9.9240,9.9310
4,7,2,4,0,20.838,20838,-0.1200,-0.4400,10.1100,10.1203,0.0000,0.0033,-0.0229,0.31,-2.19,95.38,-0.0596,-0.3806,9.9485,9.9559
4,7,2,4,0,20.968,20968,-0.1000,-0.4400,10.1000,10.1101,0.0033,0.0011,0.0076,0.31,-2.19,95.31,-0.0649,-0.3884,9.9684,9.9762
4,7,2,4,0,21.098,21098,-0.0200,-0.5200,9.9100,9.9237,-0.0022,0.0000,-0.0011,0.31,-2.19,95.44,-0.0590,-0.4058,9.9607,9.9692
4,7,2,4,0,21.228,21228,0.0500,-0.3900,10.1000,10.1077,0.0087,0.0207,0.0000,0.25,-2.25,95.38,-0.0446,-0.4037,9.9791,9.9874
4,7,2,4,0,21.358,21358,-0.0700,-0.5700,11.2400,11.2547,-0.0065,-0.0033,0.0065,0.25,-2.19,95.38,-0.0480,-0.4256,10.1452,10.1543
4,7,2,4,0,21.488,21488,-0.0700,-0.4500,11.5500,11.5590,0.0153,0.0044,-0.0022,0.31,-2.13,95.38,-0.0509,-0.4288,10.3304,10.3394
4,7,2,4,0,21.661,21661,-0.0700,-0.3500,10.5800,10.5860,-0.0164,-0.0065,0.0120,0.31,-2.19,95.38,-0.0534,-0.4184,10.3633,10.3718
4,7,2,4,0,21.792,21792,-0.0800,-0.5200,10.3000,10.3134,0.0055,-0.0022,-0.0295,0.31,-2.25,95.31,-0.0569,-0.4318,10.3549,10.3641
4,7,2,4,0,21.922,21922,0.1200,-0.6800,10.0500,10.0737,0.0120,-0.0011,0.0240,0.31,-2.25,95.31,-0.0336,-0.4645,10.3147,10.3252
4,7,2,4,0,22.053,22053,-0.1400,-0.2800,9.7600,9.7650,-0.0295,-0.0218,0.0011,0.38,-2.13,95.31,-0.0476,-0.4402,10.2416,10.2512
4,7,2,4,0,22.184,22184,-0.2700,-0.2600,9.3400,9.3475,-0.0185,-0.0087,0.0087,0.38,-2.13,95.31,-0.0769,-0.4165,10.1228,10.1317
4,7,2,4,0,22.319,22319,0.0400,-0.3700,8.6300,8.6380,-0.0098,0.0185,-0.0044,0.31,-2.19,95.31,-0.0615,-0.4103,9.9261,9.9348
4,7,2,4,0,22.451,22451,-0.1600,-0.2500,8.2700,8.2753,0.0131,-0.0098,-0.0044,0.31,-2.06,95.25,-0.0745,-0.3892,9.7079,9.7160
4,7,2,4,0,22.581,22581,-0.0400,-0.4000,7.9500,7.9602,0.0131,-0.0196,0.0033,0.38,-2.06,95.38,-0.0699,-0.3906,9.4762,9.4845
4,7,2,4,0,22.754,22754,-0.0700,-0.4800,8.5100,8.5238,0.0153,-0.0207,-0.0022,0.44,-2.06,95.31,-0.0700,-0.4024,9.3489,9.3578
4,7,2,4,0,22.885,22885,-0.0700,-0.5900,7.9500,7.9722,0.0196,0.0142,-0.0033,0.44,-2.06,95.31,-0.0700,-0.4271,9.1646,9.1748
4,7,2,4,0,23.015,23015,-0.0400,-0.3600,8.4600,8.4678,-0.0076,0.0087,-0.0022,0.38,-2.13,95.25,-0.0660,-0.4183,9.0717,9.0816
4,7,2,4,0,23.146,23146,-0.1500,-0.4100,9.0400,9.0505,0.0284,0.0142,0.0175,0.31,-2.06,95.38,-0.0771,-0.4172,9.0675,9.0775
4,8,2,4,0,23.279,23279,0.1700,-0.6700,9.5600,9.5850,0.0709,0.0349,-0.0218,0.31,-2.19,95.25,-0.0445,-0.4505,9.1324,9.1437
4,8,2,4,0,23.413,23413,0.0300,-0.4600,10.2800,10.2903,0.0284,-0.0022,-0.0098,0.38,-2.13,95.19,-0.0347,-0.4518,9.2837,9.2947
4,8,2,4,0,23.543,23543,0.0200,-0.6400,10.9400,10.9587,-0.0011,0.0087,0.0360,0.38,-2.19,95.38,-0.0275,-0.4766,9.5019,9.5139
4,8,2,4,0,23.674,23674,-0.1600,-0.3400,11.0400,11.0464,0.0011,0.0011,-0.0229,0.31,-2.19,95.31,-0.0450,-0.4586,9.7046,9.7155
4,8,2,4,0,23.847,23847,-0.0900,-0.5800,10.3600,10.3766,0.0131,0.0109,0.0393,0.31,-2.19,95.44,-0.0509,-0.4746,9.7910,9.8026
4,8,2,4,0,23.977,23977,-0.0100,-0.5300,10.3000,10.3136,-0.0076,0.0153,-0.0207,0.31,-2.25,95.31,-0.0455,-0.4819,9.8580,9.8699
4,8,2,4,0,24.107,24107,0.1700,-0.4400,10.0900,10.1010,0.0044,-0.0120,0.0076,0.31,-2.19,95.31,-0.0171,-0.4764,9.8886,9.9001
4,8,2,4,0,24.237,24237,-0.0400,-0.4600,9.9900,10.0007,0.0044,0.0000,-0.0033,0.31,-2.19,95.38,-0.0201,-0.4742,9.9020,9.9133
4,8,2,4,0,24.367,24367,-0.0800,-0.3300,10.0100,10.0158,0.0022,0.0087,-0.0098,0.31,-2.19,95.25,-0.0280,-0.4552,9.9162,9.9267
4,8,2,4,0,24.497,24497,-0.1100,-0.4200,10.0500,10.0594,-0.0033,0.0000,0.0207,0.31,-2.19,95.38,-0.0388,-0.4506,9.9338,9.9441
4,8,2,4,0,24.627,24627,-0.1000,-0.4100,9.9600,9.9689,0.0033,-0.0022,-0.0196,0.31,-2.19,95.31,-0.0469,-0.4452,9.9373,9.9474
4,8,2,4,0,24.757,24757,-0.0800,-0.3800,9.8700,9.8776,-0.0011,0.0055,0.0131,0.31,-2.19,95.31,-0.0512,-0.4366,9.9284,9.9381
4,8,2,4,0,24.930,24930,-0.1600,-0.4700,10.8800,10.8913,-0.0153,-0.0022,-0.0076,0.19,-2.25,95.31,-0.0656,-0.4410,10.0538,10.0637
4,8,2,4,0,25.061,25061,0.0700,-0.5100,11.3300,11.3417,-0.0185,-0.0164,-0.0033,0.19,-2.19,95.31,-0.0477,-0.4501,10.2220,10.2320
4,8,2,4,0,25.192,25192,0.0400,-0.5900,11.2100,11.2256,-0.0044,-0.0076,0.0055,0.25,-2.19,95.38,-0.0362,-0.4685,10.3522,10.3628
4,8,2,4,0,25.324,25324,-0.0400,-0.5300,10.7900,10.8031,-0.0240,-0.0087,-0.0295,0.31,-2.25,95.31,-0.0367,-0.4766,10.4099,10.4208
4,8,2,4,0,25.458,25458,-0.1100,-0.5000,10.3600,10.3726,-0.0185,0.0076,0.0000,0.25,-2.25,95.25,-0.0463,-0.4797,10.4033,10.4145
4,8,2,4,0,25.589,25589,0.0100,-0.3300,10.0100,10.0154,-0.0044,-0.0120,0.0131,0.25,-2.19,95.31,-0.0389,-0.4600,10.3515,10.3618
4,8,2,4,0,25.719,25719,-0.1800,-0.4100,9.4200,9.4306,-0.0316,-0.0011,0.0033,0.31,-2.13,95.31,-0.0575,-0.4534,10.2287,10.2389
4,8,2,4,0,25.849,25849,-0.3500,-0.4000,8.9300,8.9458,-0.0251,0.0000,0.0109,0.31,-2.19,95.31,-0.0960,-0.4464,10.0576,10.0679
4,8,2,4,0,26.022,26022,0.1800,-0.4500,7.8700,7.8849,0.0153,0.0044,0.0185,0.25,-2.13,95.25,-0.0597,-0.4468,9.7693,9.7797
4,8,2,4,0,26.153,26153,-0.0500,-0.2400,7.5100,7.5140,0.0185,-0.0218,-0.0251,0.38,-2.06,95.31,-0.0584,-0.4196,9.4716,9.4811
4,8,2,4,0,26.283,26283,0.0500,-0.2500,8.4400,8.4438,-0.0055,0.0131,-0.0033,0.31,-2.06,95.25,-0.0441,-0.3972,9.3357,9.3442
4,8,2,4,0,26.414,26414,0.0800,-0.4000,7.9200,7.9305,0.0196,0.0011,-0.0087,0.31,-2.06,95.25,-0.0278,-0.3976,9.1491,9.1578
4,8,2,4,0,26.545,26545,0.0200,-0.4800,8.2500,8.2640,0.0382,0.0033,-0.0065,0.25,-2.13,95.19,-0.0215,-0.4085,9.0306,9.0399
4,8,2,4,0,26.678,26678,0.2000,-0.4600,8.9700,8.9840,0.0131,-0.0120,0.0251,0.31,-2.13,95.31,0.0077,-0.4153,9.0226,9.0322
4,9,2,4,0,26.809,26809,-0.2200,-0.7100,9.9300,9.9578,0.0011,-0.0164,-0.0229,0.31,-2.19,95.19,-0.0223,-0.4541,9.1422,9.1535
4,9,2,4,0,26.942,26942,-0.0600,-0.4200,10.2100,10.2188,0.0022,0.0098,0.0076,0.25,-2.19,95.25,-0.0273,-0.4496,9.2829,9.2938
4,9,2,4,0,27.115,27115,-0.0800,-0.4800,11.0700,11.0807,-0.0044,0.0011,0.0207,0.25,-2.19,95.25,-0.0342,-0.4536,9.5184,9.5293
4,9,2,4,0,27.246,27246,-0.0600,-0.3500,10.9400,10.9458,0.0022,-0.0022,-0.0033,0.25,-2.19,95.25,-0.0376,-0.4400,9.7057,9.7158
4,9,2,4,0,27.376,27376,-0.1600,-0.4900,10.4600,10.4727,0.0011,0.0098,0.0196,0.25,-2.19,95.25,-0.0537,-0.4465,9.8051,9.8154
4,9,2,4,0,27.506,27506,-0.0200,-0.3500,10.1500,10.1561,0.0120,0.0153,-0.0207,0.19,-2.19,95.25,-0.0493,-0.4338,9.8506,9.8602
4,9,2,4,0,27.636,27636,-0.0600,-0.4500,10.1600,10.1701,-0.0076,-0.0033,0.0229,0.19,-2.25,95.19,-0.0507,-0.4360,9.8913,9.9011
4,9,2,4,0,27.766,27766,-0.0800,-0.4200,10.0100,10.0191,-0.0022,-0.0055,-0.0273,0.19,-2.19,95.25,-0.0546,-0.4339,9.9070,9.9166
4,9,2,4,0,27.896,27896,0.0000,-0.3600,10.0600,10.0664,0.0000,0.0109,0.0120,0.19,-2.19,95.13,-0.0474,-0.4241,9.9271,9.9363
4,9,2,4,0,28.026,28026,-0.1300,-0.5300,9.9900,10.0049,0.0120,0.0087,-0.0022,0.13,-2.19,95.25,-0.0583,-0.4381,9.9354,9.9453
4,9,2,4,0,28.199,28199,-0.1300,-0.3100,10.0600,10.0656,-0.0055,-0.0065,-0.0011,0.19,-2.19,95.19,-0.0677,-0.4212,9.9518,9.9610
4,9,2,4,0,28.329,28329,-0.0400,-0.3800,9.9900,9.9973,0.0011,0.0196,0.0044,0.13,-2.19,95.19,-0.0641,-0.4158,9.9569,9.9658
4,9,2,4,0,28.464,28464,-0.0600,-0.5000,10.8400,10.8517,0.0109,0.0065,-0.0065,0.06,-2.25,95.19,-0.0635,-0.4269,10.0732,10.0825
4,9,2,4,0,28.597,28597,-0.1500,-0.2800,11.5300,11.5344,0.0153,0.0011,0.0229,0.06,-2.13,95.19,-0.0749,-0.4075,10.2652,10.2736
4,9,2,4,0,28.727,28727,-0.1400,-0.5200,11.0600,11.0731,0.0142,0.0000,-0.0142,0.13,-2.13,95.25,-0.0835,-0.4223,10.3699,10.3789
4,9,2,4,0,28.858,28858,-0.1000,-0.3600,10.7300,10.7365,0.0076,-0.0033,-0.0109,0.13,-2.19,95.25,-0.0857,-0.4141,10.4174,10.4260
4,9,2,4,0,28.988,28988,0.1000,-0.5100,10.3400,10.3531,-0.0196,0.0033,-0.0098,0.13,-2.19,95.25,-0.0612,-0.4268,10.4072,10.4161
4,9,2,4,0,29.118,29118,0.0200,-0.4500,10.0400,10.0501,-0.0502,-0.0087,0.0142,0.13,-2.13,95.25,-0.0505,-0.4298,10.3588,10.3678
4,9,2,4,0,29.291,29291,-0.1500,-0.3800,9.2000,9.2091,-0.0022,-0.0142,0.0098,0.25,-2.13,95.25,-0.0636,-0.4233,10.2061,10.2151
4,9,2,4,0,29.422,29422,-0.1200,-0.3200,8.6400,8.6468,-0.0153,0.0131,-0.0022,0.25,-2.19,95.25,-0.0710,-0.4096,9.9997,10.0084
4,9,2,4,0,29.553,29553,-0.0400,-0.1700,8.2800,8.2818,-0.0196,0.0131,0.0022,0.13,-2.06,95.13,-0.0670,-0.3781,9.7731,9.7807
4,9,2,4,0,29.684,29684,0.1500,-0.3700,7.6500,7.6604,0.0065,-0.0033,-0.0065,0.19,-2.06,95.31,-0.0384,-0.3770,9.4933,9.5009
4,9,2,4,0,29.819,29819,-0.1400,-0.3000,8.6900,8.6963,0.0033,-0.0120,-0.0055,0.25,-2.06,95.19,-0.0518,-0.3669,9.3875,9.3948
4,9,2,4,0,29.951,29951,-0.0500,-0.3600,8.2900,8.2980,0.0109,0.0022,0.0033,0.25,-2.00,95.19,-0.0515,-0.3660,9.2429,9.2502
4,9,2,4,0,30.081,30081,0.0200,-0.3700,8.0500,8.0585,-0.0022,0.0164,-0.0055,0.25,-2.06,95.19,-0.0421,-0.3665,9.0857,9.0932
4,9,2,4,0,30.211,30211,-0.2600,-0.2500,8.8700,8.8773,0.0175,-0.0033,0.0120,0.19,-2.13,95.25,-0.0708,-0.3511,9.0573,9.0643
4,10,2,4,0,30.384,30384,-0.2300,-0.6800,10.0400,10.0656,-0.0284,-0.0055,-0.0109,0.25,-2.19,95.19,-0.0918,-0.3945,9.1868,9.1957
4,10,2,4,0,30.515,30515,-0.1800,-0.3300,10.3600,10.3668,0.0327,0.0142,0.0185,0.13,-2.13,95.19,-0.1034,-0.3860,9.3414,9.3499
4,10,2,4,0,30.645,30645,0.0500,-0.2700,10.7200,10.7235,-0.0087,-0.0065,0.0000,0.06,-2.19,95.19,-0.0832,-0.3707,9.5230,9.5306
4,10,2,4,0,30.776,30776,-0.2200,-0.3500,10.9100,10.9178,-0.0207,-0.0022,0.0033,0.19,-2.13,95.19,-0.1012,-0.3680,9.7058,9.7133
4,10,2,4,0,30.907,30907,-0.1900,-0.5500,10.4000,10.4163,0.0153,0.0098,-0.0065,0.13,-2.13,95.19,-0.1129,-0.3920,9.7973,9.8058
4,10,2,4,0,31.037,31037,0.0000,-0.3400,10.2500,10.2556,0.0229,0.0207,0.0087,0.00,-2.19,95.19,-0.0980,-0.3851,9.8569,9.8649
4,10,2,4,0,31.173,31173,-0.0600,-0.6200,10.3400,10.3587,-0.0065,-0.0033,0.0175,0.00,-2.19,95.19,-0.0930,-0.4161,9.9206,9.9297
4,10,2,4,0,31.304,31304,-0.1000,-0.5000,10.2600,10.2727,0.0120,-0.0065,-0.0185,0.06,-2.13,95.19,-0.0939,-0.4271,9.9653,9.9749
4,10,2,4,0,31.477,31477,-0.0500,-0.4100,10.0900,10.0985,0.0055,0.0022,0.0109,0.06,-2.13,95.19,-0.0882,-0.4249,9.9817,9.9912
4,10,2,4,0,31.608,31608,-0.0400,-0.4100,9.7700,9.7787,0.0033,0.0065,-0.0044,0.06,-2.13,95.19,-0.0818,-0.4229,9.9538,9.9632
4,10,2,4,0,31.738,31738,-0.1200,-0.3700,9.7800,9.7877,0.0022,0.0087,-0.0022,0.00,-2.13,95.19,-0.0868,-0.4159,9.9309,9.9400
4,10,2,4,0,31.869,31869,-0.1700,-0.3700,9.9200,9.9284,0.0011,-0.0011,-0.0076,0.00,-2.13,95.19,-0.0978,-0.4099,9.9295,9.9384
4,10,2,4,0,32.002,32002,-0.0700,-0.4300,10.2700,10.2792,0.0087,0.0196,0.0033,0.00,-2.13,95.19,-0.0941,-0.4125,9.9744,9.9833
4,10,2,4,0,32.136,32136,-0.0200,-0.6100,11.4200,11.4363,0.0153,0.0076,0.0033,0.00,-2.13,95.19,-0.0844,-0.4386,10.1649,10.1747
4,10,2,4,0,32.266,32266,-0.1000,-0.4600,11.4800,11.4896,0.0404,0.0284,0.0044,0.00,-2.06,95.19,-0.0864,-0.4414,10.3382,10.3479
4,10,2,4,0,32.397,32397,-0.0300,-0.2100,10.8400,10.8421,0.0251,-0.0011,-0.0022,0.06,-2.06,95.19,-0.0790,-0.4109,10.4043,10.4127
4,10,2,4,0,32.570,32570,-0.2000,-0.3900,10.3500,10.3593,-0.0131,0.0011,0.0076,0.06,-2.13,95.19,-0.0949,-0.4081,10.3971,10.4056
4,10,2,4,0,32.701,32701,0.0100,-0.3100,10.1100,10.1148,-0.0087,-0.0022,-0.0011,0.06,-2.06,95.19,-0.0811,-0.3952,10.3593,10.3672
4,10,2,4,0,32.832,32832,-0.1900,-0.3800,9.5000,9.5095,-0.0240,-0.0120,0.0087,0.13,-2.00,95.19,-0.0955,-0.3932,10.2461,10.2541
4,10,2,4,0,32.963,32963,-0.0900,-0.2800,8.7600,8.7649,-0.0065,0.0065,-0.0142,0.13,-2.06,95.19,-0.0947,-0.3783,10.0502,10.0578
4,10,2,4,0,33.095,33095,0.0000,-0.3100,8.3000,8.3058,-0.0305,-0.0022,-0.0131,0.06,-2.00,95.13,-0.0823,-0.3693,9.8196,9.8269
4,10,2,4,0,33.226,33226,0.0200,-0.1600,8.0100,8.0116,-0.0196,-0.0011,0.0273,0.13,-1.94,95.19,-0.0688,-0.3417,9.5811,9.5875
4,10,2,4,0,33.360,33360,0.0400,-0.3400,7.7000,7.7076,0.0022,0.0087,-0.0218,0.19,-2.00,95.13,-0.0544,-0.3415,9.3333,9.3397
4,10,2,4,0,33.490,33490,-0.0900,-0.2600,8.5800,8.5844,0.0087,-0.0055,0.0109,0.19,-1.94,95.19,-0.0591,-0.3307,9.2340,9.2401
4,10,2,4,0,33.663,33663,-0.1800,-0.4100,8.1600,8.1723,0.0207,0.0164,-0.0087,0.19,-2.00,95.13,-0.0751,-0.3412,9.0925,9.0992
4,10,2,4,0,33.793,33793,-0.0600,-0.2300,8.6100,8.6133,-0.0131,0.0153,0.0229,0.13,-2.00,95.19,-0.0731,-0.3265,9.0289,9.0351
4,10,2,4,0,33.924,33924,-0.1500,-0.1600,9.7900,9.7925,-0.0273,0.0120,-0.0393,0.13,-2.00,95.19,-0.0832,-0.3046,9.1292,9.1346
4,10,2,4,0,34.054,34054,-0.4600,0.1500,10.8200,10.8308,-0.0447,-0.0404,0.0033,0.13,-2.00,95.13,-0.1329,-0.2447,9.3520,9.3561
4,10,2,4,0,34.185,34185,-0.4500,-0.6700,10.8500,10.8800,0.0185,-0.0153,0.0229,0.13,-2.13,95.13,-0.1747,-0.3007,9.5494,9.5557
4,10,2,4,0,34.316,34316,-0.0300,-0.4100,10.9000,10.9077,0.0044,0.0076,0.0142,0.13,-2.06,95.19,-0.1556,-0.3151,9.7274,9.7337
4,10,2,4,0,34.446,34446,-0.1400,-0.3400,10.8000,10.8063,-0.0011,0.0098,0.0076,0.13,-2.06,95.19,-0.1535,-0.3184,9.8687,9.8750
4,10,2,4,0,34.577,34577,-0.1700,-0.2900,10.7300,10.7353,-0.0240,-0.0044,-0.0153,0.06,-2.06,95.19,-0.1557,-0.3147,9.9822,9.9884
