participant,rep,equipment_code,exercise_code,quality_code,timestamp,timestamp_ms,accelX,accelY,accelZ,accelMag,gyroX,gyroY,gyroZ,roll,pitch,yaw,filteredX,filteredY,filteredZ,filteredMag
26,1,2,4,0,00.000,0,-0.1600,-0.1400,9.7500,9.7523,0.0011,0.0000,-0.0022,1.00,-1.25,89.13,-0.1946,-0.1944,9.8069,9.8108
26,1,2,4,0,00.130,130,-0.1900,-0.2400,9.7700,9.7748,0.0000,0.0011,0.0011,1.00,-1.25,89.13,-0.1940,-0.2004,9.8021,9.8060
26,1,2,4,0,00.260,260,-0.1900,-0.1400,9.8100,9.8128,0.0022,0.0000,0.0000,1.00,-1.25,89.13,-0.1934,-0.1925,9.8031,9.8069
26,1,2,4,0,00.433,433,-0.1800,-0.1700,9.7800,9.7831,-0.0011,-0.0022,-0.0022,1.00,-1.25,89.13,-0.1917,-0.1895,9.8001,9.8038
26,1,2,4,0,00.564,564,-0.1500,-0.2400,9.7900,9.7941,0.0022,0.0000,0.0011,1.00,-1.25,89.13,-0.1862,-0.1962,9.7987,9.8025
26,1,2,4,0,00.696,696,-0.1500,-0.2000,9.7900,9.7932,-0.0011,0.0055,-0.0022,1.00,-1.25,89.13,-0.1814,-0.1967,9.7976,9.8012
26,1,2,4,0,00.827,827,-0.2300,-0.2300,9.8000,9.8054,0.0011,0.0022,0.0011,1.00,-1.19,89.13,-0.1878,-0.2011,9.7979,9.8018
26,1,2,4,0,00.962,962,-0.0500,-0.2100,9.7200,9.7224,0.0000,0.0055,0.0011,1.00,-1.19,89.13,-0.1697,-0.2022,9.7876,9.7912
26,1,2,4,0,01.093,1093,-0.1700,-0.2000,10.1000,10.1034,-0.0011,-0.0055,-0.0033,0.94,-1.19,89.13,-0.1697,-0.2019,9.8288,9.8323
26,1,2,4,0,01.224,1224,-0.1100,-0.1600,10.3400,10.3418,-0.0109,-0.0011,0.0044,0.94,-1.19,89.13,-0.1618,-0.1964,9.8962,9.8994
26,1,2,4,0,01.354,1354,-0.1000,-0.1600,10.2100,10.2117,0.0175,-0.0393,-0.0065,1.00,-1.19,89.13,-0.1537,-0.1916,9.9375,9.9406
26,1,2,4,0,01.527,1527,-0.2900,-0.2300,10.9800,10.9862,-0.0022,-0.0055,0.0065,1.06,-1.31,89.13,-0.1716,-0.1967,10.0749,10.0783
26,1,2,4,0,01.657,1657,-0.2000,-0.1200,10.5800,10.5826,-0.0305,0.0055,-0.0098,1.13,-1.25,89.06,-0.1754,-0.1866,10.1415,10.1447
26,1,2,4,0,01.788,1788,-0.0800,-0.3500,10.2600,10.2663,0.0218,-0.0196,0.0022,1.25,-1.31,89.06,-0.1628,-0.2081,10.1571,10.1605
26,1,2,4,0,01.922,1922,-0.2300,-0.2700,9.9700,9.9763,0.0185,-0.0316,0.0229,1.38,-1.38,89.13,-0.1717,-0.2163,10.1324,10.1362
26,1,2,4,0,02.055,2055,-0.1800,-0.2500,9.9600,9.9648,-0.0076,0.0076,0.0044,1.50,-1.31,89.19,-0.1728,-0.2207,10.1097,10.1136
26,1,2,4,0,02.185,2185,-0.1500,-0.1300,9.7000,9.7020,0.0218,0.0196,0.0022,1.38,-1.25,89.13,-0.1698,-0.2088,10.0557,10.0593
26,1,2,4,0,02.316,2316,-0.3900,-0.2400,8.7300,8.7420,0.0109,0.0164,-0.0044,1.50,-1.31,89.13,-0.1988,-0.2129,9.8810,9.8853
26,1,2,4,0,02.447,2447,-0.5200,-0.3900,9.0000,9.0234,0.0000,0.0076,-0.0055,1.75,-1.19,89.25,-0.2411,-0.2362,9.7649,9.7708
26,1,2,4,0,02.619,2619,-0.0900,-0.1200,7.8300,7.8314,0.0044,0.0251,0.0055,1.75,-1.19,89.25,-0.2212,-0.2209,9.5099,9.5151
26,1,2,4,0,02.749,2749,0.4400,-0.1800,8.4600,8.4733,0.0153,0.0567,-0.0185,1.56,-1.19,89.19,-0.1341,-0.2155,9.3716,9.3750
26,1,2,4,0,02.879,2879,-0.2600,-0.2000,9.3700,9.3757,-0.0087,0.0185,0.0207,1.75,-1.19,89.25,-0.1507,-0.2135,9.3714,9.3750
26,1,2,4,0,03.009,3009,-0.1500,-0.1400,9.1300,9.1323,0.0098,0.0371,-0.0164,1.69,-1.25,89.25,-0.1506,-0.2038,9.3396,9.3430
26,1,2,4,0,03.139,3139,-0.3600,0.1100,8.8800,8.8880,-0.0098,0.0196,-0.0196,1.63,-1.25,89.19,-0.1782,-0.1624,9.2790,9.2821
26,1,2,4,0,03.269,3269,-0.0400,-0.2900,9.3200,9.3246,-0.0185,-0.0011,-0.0131,1.69,-1.25,89.19,-0.1600,-0.1792,9.2844,9.2875
26,1,2,4,0,03.400,3400,-0.0500,-0.1400,9.1300,9.1312,-0.0065,0.0535,-0.0196,1.63,-1.25,89.13,-0.1455,-0.1741,9.2641,9.2668
26,2,2,4,0,03.530,3530,-0.1800,-0.0100,9.7400,9.7417,-0.0338,-0.0567,-0.0273,1.81,-1.19,89.13,-0.1500,-0.1525,9.3268,9.3292
26,2,2,4,0,03.703,3703,-0.3300,-0.3400,10.3000,10.3109,-0.0207,-0.0022,0.0011,1.88,-1.25,89.13,-0.1737,-0.1772,9.4550,9.4583
26,2,2,4,0,03.833,3833,-0.3400,-0.1200,10.4100,10.4162,0.0044,0.0164,0.0055,1.81,-1.25,89.06,-0.1957,-0.1696,9.5809,9.5844
26,2,2,4,0,03.963,3963,-0.1400,-0.2200,10.2100,10.2133,-0.0033,0.0251,0.0011,1.75,-1.25,89.06,-0.1883,-0.1763,9.6638,9.6672
26,2,2,4,0,04.093,4093,0.0000,-0.2600,9.9900,9.9934,-0.0011,-0.0131,0.0142,1.63,-1.19,89.06,-0.1635,-0.1873,9.7068,9.7099
26,2,2,4,0,04.223,4223,-0.0900,-0.1600,9.9100,9.9117,0.0185,-0.0087,0.0055,1.69,-1.19,89.06,-0.1538,-0.1837,9.7335,9.7365
26,2,2,4,0,04.353,4353,-0.0500,-0.2700,10.0000,10.0038,-0.0087,0.0175,-0.0033,1.63,-1.19,89.06,-0.1401,-0.1951,9.7687,9.7716
26,2,2,4,0,04.483,4483,-0.2800,-0.2900,10.0800,10.0881,-0.0076,-0.0175,0.0033,1.63,-1.25,89.06,-0.1586,-0.2076,9.8097,9.8132
26,2,2,4,0,04.613,4613,-0.1200,-0.2200,10.0400,10.0431,0.0033,-0.0065,0.0033,1.69,-1.19,89.06,-0.1535,-0.2092,9.8400,9.8435
26,2,2,4,0,04.786,4786,-0.2100,-0.2400,10.8700,10.8747,0.0087,-0.0055,-0.0087,1.69,-1.19,89.06,-0.1609,-0.2133,9.9758,9.9793
26,2,2,4,0,04.916,4916,0.0300,-0.1200,9.7300,9.7308,-0.0098,0.0087,0.0055,1.63,-1.13,89.06,-0.1358,-0.2010,9.9434,9.9463
26,2,2,4,0,05.047,5047,-0.2600,-0.2000,10.1100,10.1153,-0.0076,-0.0164,0.0109,1.63,-1.19,89.06,-0.1521,-0.2009,9.9653,9.9685
26,2,2,4,0,05.178,5178,-0.2200,-0.1700,10.6100,10.6136,0.0153,-0.0109,-0.0044,1.69,-1.19,89.06,-0.1611,-0.1968,10.0503,10.0535
26,2,2,4,0,05.310,5310,-0.2200,-0.3700,10.6700,10.6787,0.0284,-0.0142,0.0033,1.69,-1.19,89.06,-0.1688,-0.2196,10.1319,10.1357
26,2,2,4,0,05.441,5441,-0.2000,-0.1100,10.8300,10.8324,-0.0175,0.0076,0.0065,1.63,-1.19,89.06,-0.1730,-0.2052,10.2239,10.2275
26,2,2,4,0,05.575,5575,-0.0700,-0.3500,10.7900,10.7959,0.0131,0.0076,-0.0131,1.63,-1.31,89.06,-0.1594,-0.2243,10.2985,10.3022
26,2,2,4,0,05.706,5706,-0.2000,-0.2000,10.4400,10.4438,-0.0338,-0.0011,-0.0065,1.56,-1.25,89.00,-0.1647,-0.2211,10.3172,10.3208
26,2,2,4,0,05.879,5879,-0.5200,-0.1200,9.4900,9.5050,0.0229,-0.0425,0.0098,1.88,-1.31,89.06,-0.2116,-0.2077,10.2082,10.2125
26,2,2,4,0,06.010,6010,0.0500,-0.2400,9.3100,9.3132,0.0164,0.0011,0.0055,2.00,-1.31,89.06,-0.1771,-0.2120,10.0898,10.0936
26,2,2,4,0,06.141,6141,0.1400,-0.2300,9.4000,9.4039,0.0196,-0.0894,0.0153,1.94,-1.25,89.06,-0.1353,-0.2144,9.9989,10.0021
26,2,2,4,0,06.271,6271,-0.7000,-0.1200,9.3600,9.3869,-0.0524,0.0262,0.0240,2.13,-1.19,89.06,-0.2097,-0.2019,9.9147,9.9190
26,2,2,4,0,06.402,6402,-0.4900,-0.1300,8.6100,8.6249,0.0240,0.0284,-0.0022,2.13,-1.19,89.13,-0.2466,-0.1925,9.7428,9.7478
26,2,2,4,0,06.535,6535,-0.6400,-0.0900,8.7200,8.7439,0.0556,-0.0251,-0.0065,2.25,-1.13,89.13,-0.2985,-0.1790,9.6080,9.6143
26,2,2,4,0,06.669,6669,-0.5700,-0.2000,8.8100,8.8307,0.0229,-0.0055,0.0087,2.19,-1.19,89.13,-0.3343,-0.1817,9.5029,9.5105
26,2,2,4,0,06.800,6800,-0.1200,-0.1200,9.4600,9.4615,-0.0055,-0.0055,0.0098,2.19,-1.13,89.13,-0.3060,-0.1736,9.4972,9.5037
26,2,2,4,0,06.973,6973,0.0200,-0.0400,8.8100,8.8101,0.0131,-0.0360,-0.0087,2.25,-1.13,89.13,-0.2631,-0.1560,9.4067,9.4116
26,2,2,4,0,07.104,7104,-0.3100,-0.1700,9.0800,9.0869,0.0055,0.0076,0.0262,2.25,-1.13,89.13,-0.2693,-0.1578,9.3636,9.3688
26,2,2,4,0,07.235,7235,-0.1100,-0.1900,9.2500,9.2526,0.0109,0.0109,0.0055,2.19,-1.19,89.13,-0.2483,-0.1621,9.3486,9.3533
26,3,2,4,0,07.370,7370,-0.3200,-0.3100,9.5500,9.5604,0.0011,0.0284,-0.0033,2.19,-1.19,89.06,-0.2577,-0.1816,9.3752,9.3805
26,3,2,4,0,07.501,7501,-0.3100,-0.2800,9.6200,9.6291,-0.0076,-0.0109,-0.0164,2.25,-1.19,89.06,-0.2646,-0.1945,9.4074,9.4132
26,3,2,4,0,07.632,7632,-0.2800,-0.0900,9.6800,9.6845,0.0065,-0.0065,-0.0207,2.19,-1.13,89.06,-0.2666,-0.1808,9.4434,9.4488
26,3,2,4,0,07.762,7762,-0.2600,-0.3700,10.0200,10.0302,-0.0185,-0.0120,-0.0251,2.19,-1.19,89.00,-0.2658,-0.2057,9.5193,9.5253
26,3,2,4,0,07.893,7893,-0.3800,-0.1400,10.4900,10.4978,-0.0251,-0.0153,-0.0316,2.06,-1.13,88.94,-0.2808,-0.1970,9.6472,9.6533
26,3,2,4,0,08.066,8066,-0.0900,-0.2200,9.9600,9.9628,-0.0087,0.0164,-0.0022,1.88,-1.19,88.94,-0.2557,-0.2001,9.6885,9.6939
26,3,2,4,0,08.197,8197,-0.1400,-0.2300,9.8500,9.8537,-0.0055,-0.0175,0.0044,1.88,-1.19,88.94,-0.2404,-0.2040,9.7097,9.7149
26,3,2,4,0,08.329,8329,-0.3000,-0.1700,10.4000,10.4057,-0.0076,-0.0153,-0.0033,1.94,-1.13,88.94,-0.2483,-0.1995,9.8007,9.8059
26,3,2,4,0,08.464,8464,-0.2500,-0.2000,10.6900,10.6948,-0.0011,-0.0109,-0.0022,1.94,-1.13,88.94,-0.2485,-0.1996,9.9179,9.9230
26,3,2,4,0,08.595,8595,-0.2200,-0.2300,10.8900,10.8947,-0.0076,-0.0207,-0.0011,2.00,-1.13,88.94,-0.2447,-0.2036,10.0460,10.0510
26,3,2,4,0,08.725,8725,-0.0900,-0.2200,9.9800,9.9828,-0.0109,-0.0164,-0.0131,2.00,-1.13,88.88,-0.2244,-0.2058,10.0373,10.0419
26,3,2,4,0,08.856,8856,-0.0800,-0.3600,10.2100,10.2167,0.0033,0.0447,-0.0033,1.88,-1.25,88.94,-0.2053,-0.2261,10.0601,10.0647
26,3,2,4,0,08.986,8986,-0.3000,-0.1200,11.2000,11.2047,0.0251,-0.0087,0.0011,1.94,-1.13,88.94,-0.2178,-0.2121,10.2103,10.2148
26,3,2,4,0,09.159,9159,-0.0100,-0.3200,10.7900,10.7947,0.0000,-0.0120,0.0120,1.75,-1.13,88.94,-0.1904,-0.2263,10.2867,10.2909
26,3,2,4,0,09.290,9290,-0.0500,-0.2800,10.8000,10.8037,0.0295,-0.0218,0.0033,1.75,-1.25,88.94,-0.1719,-0.2334,10.3543,10.3584
26,3,2,4,0,09.421,9421,-0.3700,-0.1400,10.4000,10.4075,0.0033,-0.0371,0.0033,1.88,-1.19,88.88,-0.1980,-0.2211,10.3603,10.3646
26,3,2,4,0,09.552,9552,0.0000,-0.2400,9.7900,9.7929,0.0284,-0.0535,0.0229,2.00,-1.19,88.88,-0.1719,-0.2236,10.2852,10.2890
26,3,2,4,0,09.687,9687,-0.3100,-0.3100,9.9600,9.9696,-0.0240,-0.0654,-0.0033,2.19,-1.25,88.94,-0.1901,-0.2350,10.2423,10.2468
26,3,2,4,0,09.819,9819,-0.4900,-0.4500,9.7900,9.8126,-0.0175,0.0349,-0.0196,2.19,-1.19,89.00,-0.2296,-0.2633,10.1827,10.1887
26,3,2,4,0,09.950,9950,-0.0900,-0.1100,8.8900,8.8911,-0.0295,-0.0098,-0.0087,2.19,-1.25,89.00,-0.2112,-0.2431,10.0124,10.0176
26,3,2,4,0,10.080,10080,-0.3700,-0.3600,8.1200,8.1364,-0.0382,-0.0589,0.0164,2.31,-1.19,89.00,-0.2322,-0.2585,9.7630,9.7692
26,3,2,4,0,10.253,10253,-0.3200,-0.1400,8.4000,8.4073,-0.0175,-0.0175,0.0022,2.31,-1.13,89.06,-0.2437,-0.2429,9.5834,9.5896
26,3,2,4,0,10.383,10383,-0.2900,-0.2200,9.1400,9.1472,-0.0065,0.0284,-0.0022,2.25,-1.13,89.06,-0.2498,-0.2399,9.5250,9.5313
26,3,2,4,0,10.516,10516,-0.2700,-0.1800,9.2200,9.2257,-0.0033,0.0011,0.0000,2.31,-1.06,89.06,-0.2525,-0.2320,9.4848,9.4910
26,3,2,4,0,10.651,10651,-0.1700,-0.2200,8.8600,8.8644,-0.0055,0.0120,-0.0055,2.31,-1.13,89.06,-0.2416,-0.2304,9.4025,9.4084
26,3,2,4,0,10.782,10782,-0.1100,-0.2400,8.9000,8.9039,0.0044,0.0055,-0.0098,2.19,-1.13,89.06,-0.2243,-0.2317,9.3362,9.3418
26,4,2,4,0,10.912,10912,-0.2600,-0.1500,9.5600,9.5647,0.0055,-0.0218,-0.0022,2.19,-1.13,89.00,-0.2290,-0.2209,9.3657,9.3711
26,4,2,4,0,11.042,11042,-0.2900,-0.2200,9.7700,9.7768,-0.0142,-0.0229,0.0022,2.19,-1.13,89.00,-0.2370,-0.2208,9.4190,9.4246
26,4,2,4,0,11.173,11173,0.0000,-0.2700,9.5900,9.5938,0.0065,-0.0022,-0.0011,2.19,-1.13,89.00,-0.2058,-0.2273,9.4415,9.4465
26,4,2,4,0,11.346,11346,-0.3800,-0.3100,9.9600,9.9721,-0.0349,-0.0164,-0.0076,2.13,-1.25,89.00,-0.2287,-0.2382,9.5099,9.5156
26,4,2,4,0,11.477,11477,-0.0700,-0.3200,9.9400,9.9454,0.0273,0.0098,0.0076,2.00,-1.13,88.94,-0.2078,-0.2490,9.5665,9.5720
26,4,2,4,0,11.608,11608,-0.1600,-0.3100,10.1700,10.1760,0.0142,0.0011,0.0044,1.88,-1.19,88.94,-0.2015,-0.2570,9.6461,9.6516
26,4,2,4,0,11.743,11743,-0.3500,-0.2400,9.9800,9.9890,0.0000,0.0033,0.0076,1.94,-1.25,88.94,-0.2211,-0.2548,9.6901,9.6959
26,4,2,4,0,11.875,11875,-0.2600,-0.2000,10.2600,10.2652,0.0022,0.0033,0.0098,2.00,-1.19,88.94,-0.2262,-0.2475,9.7652,9.7709
26,4,2,4,0,12.006,12006,-0.3000,-0.0300,11.0300,11.0341,-0.0185,0.0065,-0.0076,2.00,-1.06,88.94,-0.2359,-0.2189,9.9318,9.9371
26,4,2,4,0,12.136,12136,-0.1500,-0.1000,11.5700,11.5714,-0.0480,-0.0196,-0.0262,2.06,-1.13,88.94,-0.2246,-0.2032,10.1477,10.1522
26,4,2,4,0,12.266,12266,-0.2900,-0.1200,9.3500,9.3553,-0.0185,0.0044,0.0000,2.06,-1.13,88.94,-0.2332,-0.1922,10.0426,10.0471
26,4,2,4,0,12.439,12439,-0.1100,-0.0400,10.4000,10.4007,0.0098,-0.0076,0.0000,2.06,-1.06,88.88,-0.2170,-0.1722,10.0897,10.0935
26,4,2,4,0,12.569,12569,-0.2200,-0.1100,10.8300,10.8328,-0.0360,-0.0185,-0.0087,1.94,-1.13,88.94,-0.2174,-0.1640,10.1872,10.1909
26,4,2,4,0,12.699,12699,-0.1900,-0.3400,10.7500,10.7571,-0.0153,0.0098,-0.0044,1.88,-1.19,88.94,-0.2138,-0.1872,10.2614,10.2653
26,4,2,4,0,12.830,12830,-0.0500,-0.3000,11.0600,11.0642,0.0142,0.0000,0.0033,1.88,-1.25,88.94,-0.1922,-0.2021,10.3666,10.3704
26,4,2,4,0,12.960,12960,-0.2200,-0.2400,10.6500,10.6550,-0.0022,-0.0044,-0.0098,1.75,-1.25,88.88,-0.1959,-0.2071,10.4040,10.4079
26,4,2,4,0,13.090,13090,-0.4200,-0.0200,10.3500,10.3585,0.0229,-0.0796,0.0207,1.94,-1.19,88.94,-0.2254,-0.1824,10.3969,10.4009
26,4,2,4,0,13.220,13220,-0.2100,-0.2000,9.1300,9.1346,0.0000,0.0295,0.0131,2.06,-1.19,89.00,-0.2234,-0.1847,10.2299,10.2340
26,4,2,4,0,13.350,13350,-0.3800,-0.4000,9.4100,9.4262,0.0305,0.0164,0.0011,2.13,-1.25,89.00,-0.2440,-0.2131,10.1219,10.1271
26,4,2,4,0,13.523,13523,-0.3800,-0.1200,8.8400,8.8490,0.0011,0.0338,-0.0044,2.19,-1.19,89.00,-0.2619,-0.2008,9.9530,9.9584
26,4,2,4,0,13.653,13653,-0.0400,-0.0300,7.6400,7.6402,0.0295,-0.0164,0.0000,2.25,-1.19,89.06,-0.2327,-0.1783,9.6482,9.6526
26,4,2,4,0,13.787,13787,-0.1300,-0.1300,7.8000,7.8022,0.0316,-0.0502,0.0087,2.25,-1.19,89.06,-0.2192,-0.1719,9.4046,9.4088
26,4,2,4,0,13.918,13918,-0.2800,-0.0500,9.5400,9.5442,0.0087,-0.0524,-0.0011,2.19,-1.13,89.06,-0.2272,-0.1559,9.4225,9.4265
26,4,2,4,0,14.051,14051,-0.5000,-0.3300,9.3500,9.3692,0.0055,0.0295,0.0109,2.25,-1.13,89.06,-0.2631,-0.1788,9.4129,9.4183
26,4,2,4,0,14.182,14182,-0.1700,-0.3500,8.5500,8.5588,0.0229,0.0295,-0.0251,2.31,-1.13,89.06,-0.2509,-0.2014,9.2992,9.3048
26,4,2,4,0,14.313,14313,-0.4300,-0.1000,8.8400,8.8510,-0.0196,-0.0087,-0.0196,2.31,-1.13,89.00,-0.2745,-0.1880,9.2387,9.2447
26,4,2,4,0,14.443,14443,-0.2500,-0.3400,9.0300,9.0399,0.0076,-0.0360,-0.0011,2.38,-1.19,89.00,-0.2712,-0.2080,9.2112,9.2175
26,5,2,4,0,14.616,14616,-0.2700,-0.2300,9.8900,9.8964,0.0087,-0.0142,0.0055,2.38,-1.13,89.00,-0.2711,-0.2109,9.3006,9.3070
26,5,2,4,0,14.746,14746,-0.1100,-0.2200,10.1400,10.1430,0.0360,0.0644,-0.0098,2.25,-1.19,88.94,-0.2498,-0.2121,9.4112,9.4170
26,5,2,4,0,14.877,14877,-0.3500,-0.1600,10.2900,10.2972,0.0055,0.0044,0.0011,2.25,-1.13,88.94,-0.2630,-0.2053,9.5270,9.5329
26,5,2,4,0,15.008,15008,-0.1200,-0.2200,10.0900,10.0931,0.0131,0.0262,0.0000,2.13,-1.19,88.88,-0.2442,-0.2072,9.6012,9.6066
26,5,2,4,0,15.144,15144,-0.2300,-0.1600,9.8300,9.8340,0.0065,0.0000,-0.0098,2.00,-1.19,88.94,-0.2423,-0.2010,9.6314,9.6365
26,5,2,4,0,15.274,15274,-0.1400,-0.1800,9.9100,9.9126,-0.0142,-0.0196,-0.0022,2.00,-1.19,88.94,-0.2288,-0.1982,9.6681,9.6728
26,5,2,4,0,15.406,15406,-0.1700,-0.2400,9.9900,9.9943,-0.0065,0.0240,0.0065,2.06,-1.13,88.94,-0.2211,-0.2037,9.7105,9.7152
26,5,2,4,0,15.536,15536,-0.2000,-0.3400,11.2300,11.2369,0.0087,-0.0109,0.0000,2.06,-1.19,88.94,-0.2183,-0.2217,9.9107,9.9156
26,5,2,4,0,15.709,15709,-0.1900,-0.2400,10.2400,10.2446,-0.0349,0.0022,0.0131,2.13,-1.13,88.94,-0.2146,-0.2241,9.9541,9.9590
26,5,2,4,0,15.842,15842,-0.1800,-0.2700,10.3400,10.3451,-0.0033,0.0218,-0.0142,2.00,-1.13,88.94,-0.2100,-0.2301,10.0050,10.0098
26,5,2,4,0,15.973,15973,-0.0300,-0.1800,10.7400,10.7415,0.0120,0.0153,0.0098,2.06,-1.13,88.94,-0.1863,-0.2235,10.1018,10.1060
26,5,2,4,0,16.107,16107,-0.0400,-0.1100,10.7400,10.7406,-0.0327,0.0000,0.0011,2.00,-1.06,88.94,-0.1670,-0.2086,10.1859,10.1894
26,5,2,4,0,16.237,16237,-0.1000,-0.2300,10.9400,10.9429,-0.0371,0.0196,-0.0153,1.94,-1.19,88.94,-0.1582,-0.2114,10.2853,10.2887
26,5,2,4,0,16.369,16369,0.0400,-0.3500,10.5800,10.5859,0.0175,-0.0109,-0.0055,1.94,-1.19,88.88,-0.1321,-0.2297,10.3241,10.3275
26,5,2,4,0,16.499,16499,-0.5000,-0.2200,10.1200,10.1347,0.0622,-0.0316,0.0098,2.13,-1.25,88.88,-0.1806,-0.2284,10.2972,10.3013
26,5,2,4,0,16.629,16629,0.0400,-0.3000,9.5700,9.5748,-0.0305,-0.0807,0.0044,2.31,-1.19,89.00,-0.1515,-0.2378,10.2014,10.2053
26,5,2,4,0,16.802,16802,0.0600,-0.3000,8.6500,8.6554,0.0218,0.0120,-0.0065,2.19,-1.25,88.94,-0.1236,-0.2460,9.9970,10.0008
26,5,2,4,0,16.933,16933,0.0900,-0.2700,8.3700,8.3748,-0.0044,-0.0240,-0.0055,2.31,-1.19,88.94,-0.0955,-0.2492,9.7826,9.7862
26,5,2,4,0,17.063,17063,-0.1100,-0.1900,8.2300,8.2329,-0.0164,-0.0142,-0.0011,2.38,-1.19,89.00,-0.0974,-0.2414,9.5780,9.5815
26,5,2,4,0,17.193,17193,-0.2400,-0.0200,8.7400,8.7433,-0.0011,0.0207,-0.0065,2.44,-1.13,89.00,-0.1162,-0.2122,9.4676,9.4706
26,5,2,4,0,17.324,17324,0.0900,-0.0200,9.0600,9.0605,-0.0022,0.0327,-0.0098,2.31,-1.06,89.00,-0.0890,-0.1869,9.4139,9.4161
26,5,2,4,0,17.454,17454,-0.1800,-0.2200,9.3000,9.3043,0.0305,-0.0076,-0.0120,2.38,-1.06,89.00,-0.1010,-0.1912,9.3988,9.4013
26,5,2,4,0,17.584,17584,-0.2300,-0.1400,8.7700,8.7741,0.0000,0.0065,0.0022,2.38,-1.13,89.00,-0.1180,-0.1845,9.3160,9.3186
26,5,2,4,0,17.714,17714,-0.3600,-0.0900,8.8400,8.8478,0.0022,0.0076,0.0055,2.31,-1.06,89.00,-0.1499,-0.1720,9.2533,9.2561
26,6,2,4,0,17.887,17887,-0.1900,-0.0100,9.4100,9.4119,-0.0185,0.0240,-0.0033,2.25,-1.13,88.94,-0.1552,-0.1507,9.2739,9.2764
26,6,2,4,0,18.022,18022,-0.5700,-0.2700,9.8300,9.8502,-0.0251,-0.0273,0.0000,2.31,-1.13,88.94,-0.2098,-0.1664,9.3472,9.3510
26,6,2,4,0,18.154,18154,0.1300,-0.2000,9.3500,9.3530,-0.0011,0.0000,0.0022,2.31,-1.13,88.94,-0.1651,-0.1708,9.3476,9.3506
26,6,2,4,0,18.284,18284,-0.1200,-0.3200,9.7600,9.7660,0.0175,-0.0098,0.0098,2.25,-1.25,88.94,-0.1591,-0.1905,9.4019,9.4052
26,6,2,4,0,18.415,18415,-0.3000,-0.2900,10.1200,10.1286,-0.0076,0.0153,0.0229,2.19,-1.13,88.81,-0.1777,-0.2036,9.4965,9.5004
26,6,2,4,0,18.545,18545,-0.2400,-0.1700,10.2800,10.2842,0.0175,0.0087,0.0131,2.06,-1.19,88.88,-0.1859,-0.1992,9.5998,9.6036
26,6,2,4,0,18.676,18676,-0.1500,-0.2400,10.1400,10.1439,0.0076,-0.0175,0.0065,2.00,-1.19,88.88,-0.1812,-0.2046,9.6710,9.6748
26,6,2,4,0,18.806,18806,-0.3700,-0.0800,9.9900,9.9972,-0.0240,-0.0469,0.0044,2.06,-1.19,88.88,-0.2060,-0.1881,9.7130,9.7170
26,6,2,4,0,18.979,18979,-0.2400,-0.2200,10.0800,10.0853,0.0087,-0.0131,-0.0098,2.13,-1.13,88.88,-0.2105,-0.1923,9.7614,9.7655
26,6,2,4,0,19.109,19109,-0.3100,-0.2400,11.4400,11.4467,-0.0065,-0.0185,-0.0076,2.06,-1.19,88.88,-0.2236,-0.1986,9.9826,9.9870
26,6,2,4,0,19.242,19242,-0.0900,-0.2600,10.1600,10.1637,-0.0076,0.0185,0.0022,2.13,-1.19,88.88,-0.2060,-0.2067,10.0059,10.0102
26,6,2,4,0,19.377,19377,-0.3100,-0.3000,9.6500,9.6596,0.0175,0.0185,0.0044,1.94,-1.25,88.94,-0.2197,-0.2190,9.9590,9.9639
26,6,2,4,0,19.508,19508,-0.3500,-0.1400,11.2000,11.2063,0.0142,-0.0033,0.0087,2.06,-1.06,88.88,-0.2369,-0.2086,10.1226,10.1275
26,6,2,4,0,19.638,19638,-0.1600,-0.1800,11.0500,11.0526,0.0262,0.0251,0.0000,2.00,-1.13,88.88,-0.2268,-0.2048,10.2448,10.2493
26,6,2,4,0,19.769,19769,-0.4700,-0.0600,11.2000,11.2100,0.0415,0.0000,-0.0044,2.06,-1.19,88.81,-0.2588,-0.1857,10.3707,10.3755
26,6,2,4,0,19.899,19899,0.1200,-0.4000,10.5000,10.5083,0.0142,0.0065,0.0022,2.13,-1.25,88.81,-0.2089,-0.2140,10.3877,10.3920
26,6,2,4,0,20.072,20072,-0.4300,-0.0900,10.5400,10.5492,-0.0153,-0.0654,0.0142,2.06,-1.19,88.81,-0.2380,-0.1976,10.4078,10.4124
26,6,2,4,0,20.203,20203,-0.4100,-0.1700,9.7900,9.8001,-0.0076,0.0033,0.0055,2.38,-1.25,88.81,-0.2607,-0.1940,10.3264,10.3315
26,6,2,4,0,20.334,20334,0.1800,-0.2100,9.2400,9.2441,-0.0033,-0.0425,-0.0065,2.31,-1.19,88.81,-0.2026,-0.1961,10.1832,10.1871
26,6,2,4,0,20.465,20465,-0.0400,-0.0900,9.0800,9.0805,-0.0098,-0.0229,-0.0033,2.38,-1.19,88.81,-0.1812,-0.1821,10.0378,10.0411
26,6,2,4,0,20.600,20600,-0.2300,0.0900,8.3100,8.3137,0.0153,0.0000,0.0076,2.50,-1.13,88.88,-0.1876,-0.1463,9.8101,9.8130
26,6,2,4,0,20.732,20732,0.0200,0.0000,7.7100,7.7100,0.0185,-0.0098,-0.0065,2.50,-1.13,88.88,-0.1603,-0.1270,9.5334,9.5356
26,6,2,4,0,20.862,20862,-0.4400,-0.0500,9.1200,9.1307,0.0142,-0.0524,0.0098,2.50,-1.19,88.88,-0.1971,-0.1168,9.4789,9.4817
26,6,2,4,0,20.992,20992,-0.5200,-0.2200,9.7300,9.7464,-0.0175,-0.0185,0.0262,2.63,-1.13,88.94,-0.2397,-0.1304,9.5120,9.5159
26,6,2,4,0,21.165,21165,-0.1800,-0.2600,8.3600,8.3660,0.0196,0.0033,-0.0131,2.56,-1.19,88.88,-0.2318,-0.1475,9.3602,9.3642
26,6,2,4,0,21.296,21296,-0.2000,-0.1300,8.7800,8.7832,-0.0033,-0.0229,0.0022,2.63,-1.19,88.81,-0.2276,-0.1452,9.2837,9.2877
26,6,2,4,0,21.426,21426,-0.3100,0.0000,9.3700,9.3751,-0.0098,0.0065,0.0229,2.63,-1.13,88.81,-0.2385,-0.1261,9.2951,9.2990
26,6,2,4,0,21.560,21560,0.0000,-0.1200,9.0100,9.0108,-0.0164,0.0131,0.0022,2.50,-1.19,88.81,-0.2070,-0.1253,9.2575,9.2607
26,7,2,4,0,21.691,21691,-0.5000,0.0400,10.1800,10.1924,-0.0153,-0.0818,-0.0033,2.56,-1.13,88.81,-0.2457,-0.1035,9.3791,9.3829
26,7,2,4,0,21.824,21824,-0.2700,-0.2200,10.2300,10.2359,0.0633,0.0415,-0.0262,2.56,-1.25,88.75,-0.2489,-0.1188,9.4912,9.4952
26,7,2,4,0,21.954,21954,-0.1100,-0.0700,9.7900,9.7909,-0.0218,0.0000,-0.0262,2.44,-1.19,88.69,-0.2306,-0.1124,9.5306,9.5340
26,7,2,4,0,22.086,22086,-0.3400,-0.2700,10.3400,10.3491,0.0098,-0.0491,-0.0109,2.31,-1.19,88.69,-0.2450,-0.1332,9.6373,9.6413
26,7,2,4,0,22.258,22258,-0.1600,-0.2900,10.1100,10.1154,-0.0218,-0.0295,0.0087,2.25,-1.19,88.75,-0.2338,-0.1538,9.6996,9.7036
26,7,2,4,0,22.388,22388,-0.1400,-0.3100,10.6800,10.6854,0.0207,-0.0142,-0.0131,2.31,-1.19,88.75,-0.2214,-0.1744,9.8287,9.8328
26,7,2,4,0,22.518,22518,-0.2900,-0.2900,11.9600,11.9670,0.0120,0.0011,0.0131,2.31,-1.13,88.69,-0.2305,-0.1896,10.1096,10.1140
26,7,2,4,0,22.648,22648,-0.2300,-0.1400,9.8800,9.8837,0.0120,0.0109,0.0000,2.38,-1.13,88.69,-0.2304,-0.1831,10.0793,10.0836
26,7,2,4,0,22.778,22778,0.0500,-0.3100,9.9900,9.9949,-0.0349,-0.0218,-0.0033,2.13,-1.25,88.75,-0.1935,-0.1998,10.0676,10.0714
26,7,2,4,0,22.908,22908,-0.3100,-0.3200,10.8500,10.8591,0.0338,0.0065,0.0164,2.25,-1.13,88.69,-0.2088,-0.2157,10.1707,10.1751
26,7,2,4,0,23.039,23039,-0.2900,-0.2800,10.9800,10.9874,0.0044,0.0273,0.0153,2.19,-1.06,88.69,-0.2195,-0.2241,10.2773,10.2821
26,7,2,4,0,23.169,23169,-0.2000,-0.1800,11.0600,11.0633,0.0120,-0.0218,0.0065,2.19,-1.13,88.69,-0.2169,-0.2183,10.3805,10.3850
26,7,2,4,0,23.342,23342,-0.1300,-0.2600,10.3000,10.3041,0.0218,-0.0327,0.0098,2.19,-1.13,88.63,-0.2055,-0.2238,10.3699,10.3743
26,7,2,4,0,23.472,23472,-0.0200,-0.3200,9.5800,9.5854,0.0556,-0.0109,0.0284,2.19,-1.25,88.69,-0.1810,-0.2365,10.2658,10.2701
26,7,2,4,0,23.605,23605,0.0900,-0.2200,9.3500,9.3530,0.0022,0.0196,-0.0164,2.44,-1.13,88.75,-0.1453,-0.2343,10.1451,10.1488
26,7,2,4,0,23.740,23740,-1.4100,-0.2500,10.0400,10.1416,0.0033,-0.1004,-0.0055,2.50,-1.19,88.75,-0.3120,-0.2364,10.1312,10.1388
26,7,2,4,0,23.871,23871,-0.1700,-0.1500,8.9600,8.9629,0.0644,0.0055,0.0022,2.56,-1.19,88.75,-0.2933,-0.2250,9.9769,9.9838
26,7,2,4,0,24.001,24001,-0.2700,-0.3900,8.1400,8.1538,-0.0011,-0.0055,0.0033,2.69,-1.13,88.75,-0.2902,-0.2467,9.7349,9.7423
26,7,2,4,0,24.132,24132,0.1000,-0.2700,7.0700,7.0759,0.0382,-0.0076,-0.0196,2.56,-1.13,88.75,-0.2388,-0.2498,9.3837,9.3901
26,7,2,4,0,24.262,24262,0.0000,0.0100,9.0500,9.0500,0.0033,-0.0436,-0.0175,2.50,-1.00,88.75,-0.2073,-0.2156,9.3397,9.3445
26,7,2,4,0,24.435,24435,-0.4300,-0.3000,9.4100,9.4246,-0.0120,0.0185,-0.0076,2.75,-1.06,88.81,-0.2367,-0.2267,9.3490,9.3547
26,7,2,4,0,24.567,24567,-0.1200,-0.0800,8.7500,8.7512,0.0240,0.0196,-0.0142,2.69,-1.13,88.75,-0.2213,-0.2074,9.2700,9.2750
26,7,2,4,0,24.698,24698,-0.1500,-0.1700,8.6100,8.6130,0.0022,-0.0393,-0.0185,2.63,-1.13,88.69,-0.2119,-0.2024,9.1831,9.1877
26,7,2,4,0,24.831,24831,-0.4200,-0.1300,9.0600,9.0707,-0.0207,-0.0175,0.0087,2.63,-1.13,88.69,-0.2393,-0.1929,9.1669,9.1720
26,8,2,4,0,24.977,24977,-0.1600,-0.2200,9.5300,9.5339,0.0022,-0.0131,0.0055,2.56,-1.13,88.69,-0.2289,-0.1965,9.2147,9.2196
26,8,2,4,0,25.108,25108,-0.8300,-0.1600,10.1500,10.1851,0.0065,-0.0447,-0.0055,2.63,-1.06,88.69,-0.3081,-0.1917,9.3380,9.3450
26,8,2,4,0,25.238,25238,-0.3600,-0.3100,10.0000,10.0113,0.0011,0.0131,-0.0076,2.50,-1.19,88.69,-0.3149,-0.2073,9.4252,9.4327
26,8,2,4,0,25.369,25369,-0.1600,-0.3000,9.8400,9.8459,0.0044,0.0251,-0.0065,2.38,-1.19,88.63,-0.2945,-0.2195,9.4799,9.4870
26,8,2,4,0,25.546,25546,-0.2900,-0.1900,9.9700,9.9760,-0.0011,0.0098,-0.0087,2.19,-1.19,88.63,-0.2939,-0.2156,9.5444,9.5514
26,8,2,4,0,25.676,25676,-0.0200,-0.2200,10.0800,10.0824,-0.0109,-0.0556,0.0273,2.19,-1.13,88.69,-0.2578,-0.2162,9.6150,9.6209
26,8,2,4,0,25.807,25807,-0.0800,-0.1600,10.0700,10.0716,-0.0185,-0.0098,-0.0022,2.19,-1.13,88.69,-0.2344,-0.2088,9.6750,9.6801
26,8,2,4,0,25.937,25937,-0.2200,-0.2800,10.7200,10.7259,-0.0284,-0.0262,-0.0120,2.31,-1.13,88.69,-0.2325,-0.2182,9.8127,9.8179
26,8,2,4,0,26.068,26068,-0.2300,-0.2900,11.8900,11.8958,-0.0382,0.0415,-0.0065,2.25,-1.13,88.63,-0.2322,-0.2276,10.0864,10.0917
26,8,2,4,0,26.198,26198,-0.2100,-0.1400,9.4400,9.4434,0.0011,0.0404,0.0076,2.25,-1.13,88.63,-0.2292,-0.2161,10.0012,10.0062
26,8,2,4,0,26.328,26328,-0.0300,-0.3100,9.9300,9.9349,-0.0513,-0.0425,-0.0011,2.13,-1.19,88.69,-0.2030,-0.2285,9.9918,9.9965
26,8,2,4,0,26.459,26459,-0.1500,-0.3400,10.4300,10.4366,-0.0055,0.0349,0.0044,2.19,-1.13,88.69,-0.1960,-0.2432,10.0496,10.0544
26,8,2,4,0,26.632,26632,-0.2800,-0.1800,10.6400,10.6452,-0.0098,0.0000,-0.0065,2.06,-1.06,88.63,-0.2071,-0.2348,10.1274,10.1322
26,8,2,4,0,26.763,26763,0.0000,-0.2900,10.4100,10.4140,0.0338,0.0055,0.0098,2.06,-1.13,88.69,-0.1798,-0.2421,10.1646,10.1691
26,8,2,4,0,26.893,26893,0.0000,-0.1300,10.3700,10.3708,0.0011,0.0055,0.0000,2.00,-1.19,88.69,-0.1561,-0.2273,10.1917,10.1954
26,8,2,4,0,27.024,27024,-0.2700,-0.1400,10.4600,10.4644,-0.0065,-0.0142,-0.0120,2.00,-1.13,88.63,-0.1711,-0.2158,10.2270,10.2308
26,8,2,4,0,27.155,27155,-0.3100,-0.1600,10.0100,10.0161,0.0404,-0.0207,-0.0076,2.13,-1.13,88.63,-0.1894,-0.2085,10.1984,10.2023
26,8,2,4,0,27.285,27285,-0.1100,-0.3000,9.8600,9.8652,-0.0065,-0.0087,0.0131,2.25,-1.19,88.69,-0.1789,-0.2205,10.1538,10.1578
26,8,2,4,0,27.419,27419,-0.2300,-0.0200,9.7100,9.7127,-0.0022,0.0076,-0.0044,2.31,-1.06,88.69,-0.1857,-0.1941,10.0954,10.0989
26,8,2,4,0,27.552,27552,0.0000,-0.2400,9.3200,9.3231,0.0120,-0.0251,-0.0022,2.25,-1.13,88.69,-0.1612,-0.2002,9.9932,9.9965
26,8,2,4,0,27.725,27725,-0.2200,-0.1400,9.1700,9.1737,0.0240,0.0033,0.0033,2.25,-1.06,88.69,-0.1690,-0.1922,9.8847,9.8880
26,8,2,4,0,27.855,27855,-0.1500,-0.1800,8.3300,8.3333,0.0120,0.0164,-0.0011,2.25,-1.06,88.69,-0.1665,-0.1906,9.6798,9.6831
26,8,2,4,0,27.985,27985,0.0800,-0.1500,8.6200,8.6217,0.0153,0.0065,-0.0076,2.25,-1.00,88.69,-0.1340,-0.1853,9.5402,9.5429
26,8,2,4,0,28.115,28115,-0.0800,-0.0400,7.9600,7.9605,0.0240,0.0142,0.0000,2.25,-1.00,88.69,-0.1269,-0.1661,9.3320,9.3343
26,8,2,4,0,28.245,28245,-0.1100,-0.2700,9.2500,9.2546,-0.0065,-0.0207,0.0087,2.25,-1.00,88.69,-0.1246,-0.1798,9.3212,9.3237
26,8,2,4,0,28.375,28375,-0.0500,-0.0700,8.7500,8.7504,0.0055,-0.0207,-0.0011,2.31,-1.00,88.69,-0.1148,-0.1653,9.2459,9.2481
26,8,2,4,0,28.505,28505,-0.2400,-0.2000,8.7600,8.7656,0.0022,-0.0240,0.0055,2.38,-1.06,88.69,-0.1313,-0.1699,9.1819,9.1844
26,9,2,4,0,28.635,28635,-0.1300,-0.3100,9.2100,9.2161,-0.0098,-0.0360,0.0087,2.31,-1.06,88.63,-0.1311,-0.1884,9.1856,9.1884
26,9,2,4,0,28.808,28808,-0.3200,-0.2800,9.4200,9.4296,0.0065,-0.0502,-0.0044,2.31,-1.06,88.63,-0.1560,-0.2004,9.2165,9.2200
26,9,2,4,0,28.938,28938,-0.2300,-0.1400,9.6400,9.6438,0.0185,-0.0120,0.0011,2.38,-1.00,88.63,-0.1658,-0.1925,9.2723,9.2758
26,9,2,4,0,29.068,29068,0.0000,-0.2100,9.9600,9.9622,0.0011,-0.0131,0.0000,2.19,-1.06,88.63,-0.1439,-0.1948,9.3629,9.3660
26,9,2,4,0,29.198,29198,-0.1100,-0.2200,9.9600,9.9630,0.0098,0.0371,-0.0087,2.25,-1.06,88.56,-0.1395,-0.1981,9.4416,9.4447
26,9,2,4,0,29.328,29328,-0.1400,-0.3800,9.9400,9.9482,0.0076,-0.0065,0.0065,2.06,-1.06,88.56,-0.1395,-0.2221,9.5073,9.5109
26,9,2,4,0,29.458,29458,-0.2000,-0.0600,10.1100,10.1122,-0.0120,-0.0349,0.0055,2.13,-1.00,88.56,-0.1475,-0.2007,9.5867,9.5899
26,9,2,4,0,29.588,29588,-0.0800,-0.2700,10.0600,10.0639,0.0098,-0.0044,0.0011,2.06,-1.06,88.63,-0.1386,-0.2098,9.6491,9.6523
26,9,2,4,0,29.719,29719,-0.2000,-0.1400,11.0700,11.0727,-0.0164,0.0185,0.0000,2.13,-1.00,88.56,-0.1467,-0.2006,9.8363,9.8394
26,9,2,4,0,29.893,29893,-0.1200,-0.3500,10.5400,10.5465,-0.0185,0.0327,0.0076,2.25,-1.00,88.56,-0.1432,-0.2203,9.9290,9.9325
26,9,2,4,0,30.024,30024,-0.1800,-0.3400,9.3600,9.3679,0.0327,0.0109,0.0120,2.13,-1.13,88.56,-0.1480,-0.2361,9.8540,9.8580
26,9,2,4,0,30.159,30159,-0.2200,-0.2400,10.2600,10.2652,0.0273,-0.0044,0.0120,2.19,-0.94,88.50,-0.1575,-0.2366,9.9075,9.9116
26,9,2,4,0,30.290,30290,-0.6100,-0.0600,10.9100,10.9272,-0.0044,-0.0513,-0.0131,2.19,-0.94,88.50,-0.2171,-0.2133,10.0396,10.0443
26,9,2,4,0,30.420,30420,-0.0400,-0.1900,10.6900,10.6918,-0.0251,0.0185,-0.0065,2.00,-1.06,88.56,-0.1938,-0.2103,10.1253,10.1294
26,9,2,4,0,30.551,30551,-0.2700,-0.1900,10.9700,10.9750,-0.0185,-0.0196,-0.0087,2.00,-1.13,88.56,-0.2038,-0.2076,10.2366,10.2408
26,9,2,4,0,30.682,30682,-0.2500,-0.3600,10.6300,10.6390,-0.0251,0.0044,-0.0207,1.94,-1.19,88.50,-0.2099,-0.2277,10.2885,10.2931
26,9,2,4,0,30.812,30812,0.1300,-0.3100,10.3500,10.3555,-0.0164,-0.0218,0.0098,2.00,-1.13,88.44,-0.1651,-0.2385,10.2966,10.3007
26,9,2,4,0,30.985,30985,-0.1000,-0.3600,9.8300,9.8371,-0.0207,-0.0676,0.0142,2.19,-1.19,88.56,-0.1565,-0.2545,10.2351,10.2395
26,9,2,4,0,31.116,31116,-0.3600,-0.2900,9.7600,9.7709,0.0185,0.0011,0.0011,2.25,-1.19,88.50,-0.1834,-0.2592,10.1725,10.1774
26,9,2,4,0,31.248,31248,0.0200,0.0300,8.5300,8.5301,-0.0327,-0.0262,0.0087,2.25,-1.13,88.56,-0.1566,-0.2211,9.9561,9.9597
26,9,2,4,0,31.379,31379,-0.1200,-0.0500,7.8600,7.8611,0.0196,-0.0327,-0.0065,2.44,-1.06,88.56,-0.1517,-0.1985,9.6798,9.6831
26,9,2,4,0,31.513,31513,-0.4300,-0.1800,7.9200,7.9337,-0.0055,-0.0273,0.0076,2.44,-1.13,88.56,-0.1884,-0.1961,9.4479,9.4519
26,9,2,4,0,31.644,31644,-0.5600,-0.2000,9.0700,9.0895,-0.0185,0.0600,0.0011,2.38,-1.06,88.56,-0.2374,-0.1966,9.3981,9.4032
26,9,2,4,0,31.775,31775,-0.3100,0.0500,8.7300,8.7356,0.0109,0.0120,-0.0131,2.44,-1.06,88.56,-0.2469,-0.1641,9.3101,9.3148
26,9,2,4,0,31.905,31905,0.0000,-0.2900,8.4100,8.4150,0.0044,-0.0098,-0.0207,2.44,-1.06,88.56,-0.2144,-0.1807,9.1915,9.1958
26,9,2,4,0,32.078,32078,-0.0200,0.0000,9.0600,9.0600,-0.0229,0.0644,0.0044,2.38,-1.06,88.56,-0.1888,-0.1569,9.1742,9.1774
26,10,2,4,0,32.208,32208,-0.3200,-0.2400,9.5700,9.5784,-0.0251,0.0011,-0.0044,2.44,-1.13,88.50,-0.2061,-0.1678,9.2263,9.2302
26,10,2,4,0,32.338,32338,-0.4200,-0.3500,9.5800,9.5956,0.0251,0.0022,-0.0109,2.50,-1.06,88.50,-0.2343,-0.1918,9.2729,9.2779
26,10,2,4,0,32.469,32469,-0.2700,-0.2600,9.8400,9.8471,0.0382,0.0349,0.0033,2.44,-1.19,88.44,-0.2390,-0.2008,9.3477,9.3529
26,10,2,4,0,32.599,32599,0.0500,-0.1700,10.2600,10.2615,0.0207,0.0338,0.0044,2.31,-1.06,88.38,-0.2009,-0.1968,9.4679,9.4721
26,10,2,4,0,32.729,32729,-0.2900,-0.1000,10.7800,10.7844,-0.0240,0.0164,0.0142,2.31,-1.13,88.38,-0.2126,-0.1840,9.6408,9.6449
26,10,2,4,0,32.859,32859,-0.1000,-0.1400,10.0200,10.0215,-0.0262,-0.0164,-0.0142,2.19,-1.19,88.44,-0.1978,-0.1782,9.6908,9.6944
26,10,2,4,0,32.989,32989,-0.1800,-0.2800,10.3100,10.3154,0.0055,-0.0131,-0.0109,2.19,-1.19,88.44,-0.1954,-0.1916,9.7724,9.7762
26,10,2,4,0,33.162,33162,-0.0300,-0.4700,10.5400,10.5505,0.0022,-0.0251,0.0295,2.13,-1.13,88.44,-0.1736,-0.2283,9.8735,9.8777
26,10,2,4,0,33.298,33298,-0.2300,-0.1900,11.4400,11.4439,0.0349,-0.0044,-0.0120,2.06,-1.06,88.44,-0.1811,-0.2233,10.0799,10.0840
26,10,2,4,0,33.428,33428,-0.3200,-0.1800,9.3800,9.3872,0.0295,0.0131,-0.0022,2.13,-1.06,88.38,-0.1994,-0.2176,9.9877,9.9921
26,10,2,4,0,33.560,33560,-0.2100,-0.1400,10.0300,10.0332,-0.0654,-0.0731,-0.0251,2.19,-1.06,88.38,-0.2008,-0.2073,9.9933,9.9974
26,10,2,4,0,33.690,33690,-0.1900,-0.2100,10.5000,10.5038,0.0011,0.0098,0.0033,2.00,-1.13,88.44,-0.1994,-0.2077,10.0600,10.0642
26,10,2,4,0,33.821,33821,-0.0300,-0.0800,10.6800,10.6803,-0.0087,0.0229,0.0011,2.00,-1.00,88.38,-0.1770,-0.1909,10.1417,10.1451
26,10,2,4,0,33.951,33951,-0.1700,-0.3500,10.7800,10.7870,0.0044,0.0120,-0.0164,1.94,-1.13,88.38,-0.1761,-0.2118,10.2258,10.2296
26,10,2,4,0,34.082,34082,0.0000,-0.2800,10.7500,10.7536,0.0022,-0.0011,-0.0087,1.88,-1.19,88.38,-0.1529,-0.2208,10.2949,10.2984
26,10,2,4,0,34.254,34254,0.1200,-0.1800,10.0000,10.0023,-0.0098,0.0131,-0.0033,1.88,-1.13,88.31,-0.1169,-0.2154,10.2561,10.2590
26,10,2,4,0,34.385,34385,-0.1000,-0.2500,10.3000,10.3035,-0.0055,-0.0556,0.0087,2.19,-1.19,88.38,-0.1147,-0.2200,10.2618,10.2648
26,10,2,4,0,34.515,34515,-0.3200,-0.1200,9.9400,9.9459,-0.0175,0.0055,0.0185,2.25,-1.13,88.38,-0.1418,-0.2068,10.2194,10.2225
26,10,2,4,0,34.646,34646,-0.2200,-0.0800,9.2100,9.2130,0.0251,-0.0185,0.0153,2.19,-1.13,88.44,-0.1521,-0.1901,10.0864,10.0894
26,10,2,4,0,34.777,34777,-0.0400,-0.3100,8.8900,8.8955,-0.0033,-0.0873,0.0196,2.31,-1.19,88.44,-0.1373,-0.2059,9.9288,9.9318
26,10,2,4,0,34.910,34910,-0.3300,-0.3000,8.6200,8.6315,-0.0175,-0.0273,0.0022,2.38,-1.13,88.44,-0.1627,-0.2183,9.7563,9.7601
26,10,2,4,0,35.044,35044,-0.2100,-0.0300,8.0900,8.0928,0.0153,-0.0087,-0.0142,2.38,-1.13,88.50,-0.1689,-0.1935,9.5367,9.5402
26,10,2,4,0,35.175,35175,-0.3300,-0.1400,8.0700,8.0780,0.0011,-0.0087,0.0120,2.38,-1.06,88.50,-0.1902,-0.1864,9.3434,9.3472
26,10,2,4,0,35.348,35348,-0.6500,-0.2500,9.1400,9.1665,-0.0218,-0.0436,-0.0033,2.44,-1.00,88.50,-0.2508,-0.1948,9.3166,9.3220
26,10,2,4,0,35.479,35479,-0.4600,-0.1700,8.9100,8.9235,0.0131,-0.0076,-0.0207,2.38,-1.00,88.44,-0.2783,-0.1915,9.2631,9.2692
26,10,2,4,0,35.609,35609,-0.2200,-0.2200,8.9000,8.9054,0.0044,0.0240,0.0000,2.31,-1.00,88.44,-0.2706,-0.1953,9.2152,9.2213
26,10,2,4,0,35.740,35740,0.1600,-0.1300,8.9400,8.9424,0.0284,0.0153,-0.0109,2.31,-1.06,88.44,-0.2139,-0.1867,9.1789,9.1833
26,10,2,4,0,35.876,35876,0.1000,-0.1300,9.4900,9.4914,-0.0262,-0.0927,0.0022,2.38,-1.06,88.44,-0.1725,-0.1792,9.2199,9.2233
26,10,2,4,0,36.007,36007,-1.2100,0.2800,10.7800,10.8513,0.0022,-0.1451,0.0055,2.50,-1.00,88.44,-0.3092,-0.1187,9.4255,9.4313
26,10,2,4,0,36.137,36137,-0.6900,-0.1300,9.9500,9.9747,0.0076,-0.0502,-0.0109,2.50,-1.06,88.44,-0.3594,-0.1202,9.4946,9.5022
26,10,2,4,0,36.268,36268,-0.1800,-0.3100,9.9800,9.9864,-0.0055,0.0120,-0.0131,2.44,-1.13,88.38,-0.3358,-0.1452,9.5586,9.5656
26,10,2,4,0,36.441,36441,-0.1500,-0.1500,9.9900,9.9923,0.0044,0.0120,0.0000,2.19,-1.13,88.31,-0.3113,-0.1458,9.6154,9.6216
26,10,2,4,0,36.573,36573,-0.2900,-0.2500,10.6100,10.6169,0.0055,-0.0207,0.0131,2.19,-1.13,88.31,-0.3085,-0.1596,9.7465,9.7527
