participant,rep,equipment_code,exercise_code,quality_code,timestamp,timestamp_ms,accelX,accelY,accelZ,accelMag,gyroX,gyroY,gyroZ,roll,pitch,yaw,filteredX,filteredY,filteredZ,filteredMag
28,1,2,4,0,00.000,0,-0.4800,-0.4100,9.8200,9.8403,0.0022,-0.0033,-0.0076,3.44,-2.81,90.63,-0.4694,-0.3940,9.8043,9.8235
28,1,2,4,0,00.130,130,-0.4500,-0.2800,9.8300,9.8443,-0.0033,-0.0164,-0.0044,3.44,-2.81,90.63,-0.4668,-0.3790,9.8077,9.8261
28,1,2,4,0,00.260,260,-0.4900,-0.5100,9.7800,9.8055,-0.0011,-0.0033,0.0033,3.44,-2.81,90.63,-0.4699,-0.3963,9.8041,9.8233
28,1,2,4,0,00.390,390,-0.5100,-0.3000,9.7200,9.7380,0.0044,0.0011,0.0076,3.44,-2.75,90.63,-0.4752,-0.3836,9.7930,9.8120
28,1,2,4,0,00.520,520,-0.4500,-0.5200,9.4600,9.4850,-0.0131,-0.0076,-0.0076,3.31,-2.81,90.63,-0.4718,-0.4016,9.7491,9.7688
28,1,2,4,0,00.693,693,-0.3400,-0.2800,8.9300,8.9409,0.0098,-0.0076,0.0055,3.44,-2.69,90.56,-0.4545,-0.3855,9.6412,9.6596
28,1,2,4,0,00.823,823,-0.6300,-0.8200,11.9900,12.0345,0.0360,0.0098,-0.0098,3.31,-2.88,90.56,-0.4776,-0.4428,9.9507,9.9720
28,1,2,4,0,00.953,953,-0.4600,-0.5400,12.8900,12.9095,0.0469,-0.0295,0.0065,3.56,-2.81,90.44,-0.4753,-0.4556,10.3380,10.3590
28,1,2,4,0,01.084,1084,-1.1800,-0.5500,11.4100,11.4840,0.0436,-0.0349,-0.0305,3.44,-2.88,90.63,-0.5681,-0.4680,10.4793,10.5051
28,1,2,4,0,01.215,1215,-0.1000,-0.2600,10.3400,10.3438,0.0545,0.0142,-0.0218,3.44,-2.81,90.44,-0.5065,-0.4406,10.4609,10.4824
28,1,2,4,0,01.346,1346,-0.5900,-0.7100,9.8600,9.9031,0.0404,0.0185,0.0229,3.56,-3.06,90.44,-0.5175,-0.4761,10.3817,10.4055
28,1,2,4,0,01.482,1482,-0.3400,-0.2600,9.2800,9.2899,-0.0164,-0.0175,-0.0098,3.56,-2.94,90.50,-0.4941,-0.4476,10.2366,10.2582
28,1,2,4,0,01.613,1613,-0.7200,-0.5300,8.5100,8.5568,0.0065,0.0120,-0.0044,3.69,-2.94,90.56,-0.5238,-0.4585,10.0090,10.0332
28,1,2,4,0,01.786,1786,-0.4000,-0.3900,6.6300,6.6535,-0.0087,-0.0305,0.0175,3.63,-3.06,90.56,-0.5075,-0.4495,9.5638,9.5878
28,1,2,4,0,01.917,1917,-1.1400,-0.4700,7.7400,7.8376,-0.0098,0.0218,-0.0120,3.63,-2.94,90.50,-0.5909,-0.4522,9.3234,9.3531
28,2,2,4,0,02.047,2047,0.0500,-0.1600,9.4200,9.4215,-0.0055,0.0600,0.0404,3.69,-2.94,90.56,-0.5064,-0.4137,9.3362,9.3590
28,2,2,4,0,02.178,2178,-0.3600,-0.5100,9.7700,9.7899,0.0327,0.0404,-0.0011,3.63,-2.88,90.50,-0.4871,-0.4264,9.3933,9.4156
28,2,2,4,0,02.312,2312,-0.6100,-0.1800,10.0400,10.0601,-0.0185,-0.0153,0.0262,3.69,-2.81,90.56,-0.5033,-0.3939,9.4785,9.5001
28,2,2,4,0,02.445,2445,-0.6300,-0.2800,9.9700,9.9938,0.0393,0.0207,-0.0229,3.63,-2.94,90.50,-0.5200,-0.3789,9.5433,9.5650
28,2,2,4,0,02.575,2575,-0.9600,-0.4000,9.8600,9.9147,0.0207,-0.0284,0.0065,3.69,-2.94,90.50,-0.5780,-0.3817,9.5850,9.6100
28,2,2,4,0,02.706,2706,-0.4100,-0.4100,9.4900,9.5077,0.0196,-0.0164,-0.0044,3.56,-3.06,90.50,-0.5559,-0.3854,9.5725,9.5964
28,2,2,4,0,02.878,2878,-0.5600,-0.3300,9.9900,10.0111,-0.0011,-0.0240,0.0131,3.56,-2.94,90.44,-0.5564,-0.3781,9.6275,9.6510
28,2,2,4,0,03.008,3008,-0.5400,-0.2800,9.9500,9.9686,0.0120,-0.0033,-0.0065,3.50,-2.94,90.38,-0.5542,-0.3652,9.6700,9.6928
28,2,2,4,0,03.138,3138,-0.4100,-0.4800,9.7900,9.8103,0.0175,-0.0251,0.0087,3.50,-2.94,90.50,-0.5352,-0.3803,9.6858,9.7081
28,2,2,4,0,03.268,3268,-0.5400,-0.3600,9.8600,9.8813,-0.0120,-0.0229,0.0109,3.56,-2.81,90.44,-0.5359,-0.3776,9.7088,9.7309
28,2,2,4,0,03.398,3398,-0.4600,-0.3600,10.1400,10.1568,-0.0055,-0.0109,-0.0065,3.63,-2.88,90.44,-0.5259,-0.3753,9.7656,9.7870
28,2,2,4,0,03.528,3528,-0.5500,-0.5100,10.8500,10.8759,-0.0131,0.0142,-0.0011,3.63,-2.88,90.44,-0.5290,-0.3931,9.9085,9.9304
28,2,2,4,0,03.658,3658,-0.6000,-0.4000,11.9100,11.9318,-0.0098,0.0305,-0.0142,3.50,-2.75,90.38,-0.5384,-0.3940,10.1722,10.1941
28,2,2,4,0,03.789,3789,-0.6900,-0.6000,12.2300,12.2641,0.0098,-0.0055,0.0044,3.38,-2.94,90.56,-0.5584,-0.4211,10.4434,10.4668
28,2,2,4,0,03.963,3963,-0.4700,-0.2700,11.4900,11.5028,0.0055,0.0011,0.0153,3.38,-2.88,90.50,-0.5467,-0.4012,10.5813,10.6030
28,2,2,4,0,04.099,4099,-0.3800,-0.4600,10.2700,10.2873,0.0142,-0.0022,-0.0185,3.38,-3.00,90.38,-0.5248,-0.4090,10.5403,10.5613
28,2,2,4,0,04.229,4229,-0.5400,-0.4400,9.7600,9.7848,0.0316,-0.0513,0.0065,3.50,-2.94,90.38,-0.5268,-0.4130,10.4375,10.4589
28,2,2,4,0,04.360,4360,-0.4500,-0.3800,9.0600,9.0791,-0.0087,0.0218,-0.0065,3.56,-2.94,90.38,-0.5166,-0.4087,10.2560,10.2771
28,2,2,4,0,04.490,4490,-0.6800,-0.5200,8.4600,8.5032,0.0022,0.0207,0.0098,3.69,-3.00,90.44,-0.5382,-0.4234,10.0193,10.0427
28,2,2,4,0,04.621,4621,-0.4500,-0.3200,7.4000,7.4206,0.0033,0.0065,0.0142,3.75,-3.00,90.44,-0.5266,-0.4097,9.6741,9.6971
28,2,2,4,0,04.751,4751,-0.6600,-0.3100,6.4400,6.4811,0.0273,0.0327,-0.0251,3.75,-3.06,90.44,-0.5441,-0.3966,9.2480,9.2724
28,2,2,4,0,04.881,4881,0.0900,-0.4000,8.6600,8.6697,-0.0535,-0.0578,0.0698,3.75,-3.06,90.44,-0.4606,-0.3970,9.1705,9.1906
28,3,2,4,0,05.054,5054,-0.3500,-0.2600,9.7500,9.7597,-0.0175,0.0087,0.0120,3.69,-3.00,90.38,-0.4460,-0.3790,9.2469,9.2654
28,3,2,4,0,05.185,5185,-0.3400,-0.4700,9.7700,9.7872,0.0251,-0.0022,0.0055,3.81,-3.13,90.38,-0.4320,-0.3910,9.3158,9.3340
28,3,2,4,0,05.315,5315,-0.6900,-0.4100,9.8100,9.8428,-0.0240,0.0360,-0.0022,3.75,-3.25,90.38,-0.4660,-0.3935,9.3809,9.4007
28,3,2,4,0,05.447,5447,-0.5000,-0.1400,9.7000,9.7139,0.0065,0.0065,-0.0262,3.88,-3.19,90.25,-0.4705,-0.3601,9.4230,9.4416
28,3,2,4,0,05.578,5578,-0.5000,-0.4800,9.9500,9.9741,0.0109,-0.0055,0.0044,3.69,-3.13,90.31,-0.4744,-0.3759,9.4924,9.5117
28,3,2,4,0,05.713,5713,-0.5400,-0.3000,9.9700,9.9891,0.0120,-0.0055,0.0098,3.63,-3.06,90.25,-0.4830,-0.3659,9.5553,9.5745
28,3,2,4,0,05.844,5844,-0.4100,-0.2300,9.8600,9.8712,0.0164,0.0185,-0.0044,3.56,-3.00,90.25,-0.4734,-0.3480,9.5955,9.6135
28,3,2,4,0,05.975,5975,-0.5300,-0.3700,10.1100,10.1306,-0.0044,-0.0153,-0.0011,3.44,-3.00,90.31,-0.4809,-0.3509,9.6633,9.6816
28,3,2,4,0,06.148,6148,-0.3700,-0.3800,9.7900,9.8044,-0.0011,-0.0011,-0.0120,3.50,-2.94,90.31,-0.4663,-0.3547,9.6800,9.6977
28,3,2,4,0,06.279,6279,-0.4700,-0.4200,9.7300,9.7504,0.0055,0.0218,0.0098,3.44,-2.94,90.31,-0.4668,-0.3633,9.6866,9.7046
28,3,2,4,0,06.412,6412,-0.6200,-0.2800,10.8300,10.8513,-0.0218,-0.0131,-0.0164,3.38,-2.88,90.25,-0.4869,-0.3523,9.8373,9.8556
28,3,2,4,0,06.543,6543,-0.5300,-0.3500,12.2700,12.2864,-0.0393,0.0098,-0.0240,3.44,-2.88,90.25,-0.4926,-0.3520,10.1578,10.1759
28,3,2,4,0,06.676,6676,-0.6400,-0.5100,12.5000,12.5268,-0.0120,-0.0076,0.0098,3.31,-3.00,90.31,-0.5120,-0.3728,10.4665,10.4856
28,3,2,4,0,06.807,6807,-0.4900,-0.6400,11.5800,11.6080,-0.0087,0.0033,0.0011,3.38,-3.00,90.25,-0.5091,-0.4081,10.6132,10.6332
28,3,2,4,0,06.937,6937,-0.5000,-0.4300,10.4400,10.4608,0.0098,0.0131,-0.0175,3.44,-3.06,90.25,-0.5079,-0.4109,10.5904,10.6105
28,3,2,4,0,07.067,7067,-0.6400,-0.1500,9.7100,9.7322,0.0425,0.0055,-0.0065,3.44,-3.06,90.19,-0.5253,-0.3766,10.4744,10.4943
28,3,2,4,0,07.240,7240,-0.3200,-0.1700,8.8500,8.8574,0.0076,0.0142,0.0055,3.63,-2.94,90.25,-0.4983,-0.3493,10.2603,10.2783
28,3,2,4,0,07.371,7371,-0.4700,-0.3900,8.0300,8.0532,0.0131,-0.0087,-0.0011,3.63,-3.00,90.25,-0.4946,-0.3547,9.9664,9.9850
28,3,2,4,0,07.506,7506,-0.2900,-0.2900,7.0200,7.0320,-0.0022,-0.0065,0.0065,3.81,-3.00,90.38,-0.4676,-0.3462,9.5782,9.5958
28,3,2,4,0,07.637,7637,-0.7800,-0.4000,7.3500,7.4021,-0.0011,0.0207,-0.0033,3.75,-3.00,90.31,-0.5088,-0.3533,9.2845,9.3052
28,3,2,4,0,07.769,7769,-0.3100,-0.1900,9.0100,9.0173,-0.0120,-0.0196,0.0535,3.75,-2.94,90.25,-0.4826,-0.3318,9.2484,9.2669
28,4,2,4,0,07.900,7900,-0.5300,-0.2900,9.5200,9.5392,-0.0360,0.0273,-0.0327,3.56,-3.00,90.19,-0.4888,-0.3262,9.2842,9.3027
28,4,2,4,0,08.030,8030,-0.6600,-0.3600,9.8300,9.8587,-0.0349,-0.0665,0.0273,3.75,-2.94,90.25,-0.5114,-0.3307,9.3561,9.3759
28,4,2,4,0,08.160,8160,-0.7400,-0.3100,10.0500,10.0820,0.0327,0.0022,-0.0153,3.75,-3.06,90.25,-0.5415,-0.3280,9.4475,9.4687
28,4,2,4,0,08.333,8333,-0.2200,-0.5000,9.9800,9.9949,0.0087,0.0142,0.0055,3.69,-3.06,90.06,-0.4991,-0.3506,9.5177,9.5372
28,4,2,4,0,08.463,8463,-0.8300,-0.3100,10.1600,10.1986,0.0295,0.0000,-0.0196,3.63,-3.06,90.13,-0.5427,-0.3453,9.6023,9.6239
28,4,2,4,0,08.594,8594,-0.4400,-0.4300,9.7300,9.7494,0.0076,-0.0240,0.0316,3.63,-3.13,90.13,-0.5292,-0.3564,9.6192,9.6403
28,4,2,4,0,08.724,8724,-0.8900,-0.2500,10.3900,10.4310,0.0065,-0.0185,-0.0065,3.69,-3.06,90.13,-0.5767,-0.3424,9.7207,9.7438
28,4,2,4,0,08.857,8857,-0.3700,-0.4400,10.6400,10.6555,-0.0011,0.0142,0.0000,3.56,-3.13,90.19,-0.5495,-0.3553,9.8419,9.8636
28,4,2,4,0,08.988,8988,-0.5900,-0.3300,10.3500,10.3721,-0.0338,-0.0251,-0.0022,3.63,-3.06,90.19,-0.5548,-0.3519,9.9088,9.9306
28,4,2,4,0,09.122,9122,-0.5500,-0.5000,9.7800,9.8082,0.0142,-0.0065,0.0055,3.63,-3.06,90.19,-0.5542,-0.3715,9.8919,9.9143
28,4,2,4,0,09.253,9253,-0.5400,-0.2800,9.8300,9.8488,0.0076,-0.0131,0.0022,3.56,-2.94,90.19,-0.5523,-0.3594,9.8837,9.9056
28,4,2,4,0,09.426,9426,-0.5300,-0.5500,10.9700,10.9966,0.0164,0.0109,0.0044,3.50,-2.94,90.13,-0.5494,-0.3845,10.0268,10.0492
28,4,2,4,0,09.560,9560,-0.5700,-0.4000,11.9000,11.9204,0.0055,-0.0131,-0.0044,3.44,-2.94,90.19,-0.5521,-0.3866,10.2737,10.2958
28,4,2,4,0,09.691,9691,-0.6300,-0.6000,12.1600,12.1911,0.0055,-0.0055,0.0065,3.38,-3.00,90.19,-0.5624,-0.4147,10.5222,10.5454
28,4,2,4,0,09.824,9824,-0.4900,-0.3900,10.9500,10.9679,0.0273,-0.0120,-0.0055,3.38,-3.00,90.19,-0.5528,-0.4114,10.5786,10.6010
28,4,2,4,0,09.955,9955,-0.4200,-0.4400,10.0500,10.0684,-0.0218,-0.0164,-0.0196,3.31,-3.00,90.13,-0.5353,-0.4152,10.5090,10.5308
28,4,2,4,0,10.086,10086,-0.6200,-0.4000,9.5000,9.5286,-0.0033,-0.0164,0.0175,3.56,-3.06,90.13,-0.5465,-0.4132,10.3760,10.3986
28,4,2,4,0,10.216,10216,-0.4300,-0.1200,8.7600,8.7714,-0.0251,-0.0327,0.0131,3.56,-2.94,90.13,-0.5311,-0.3746,10.1631,10.1838
28,4,2,4,0,10.346,10346,-0.3700,-0.3100,8.1400,8.1543,0.0371,-0.0076,-0.0109,3.69,-3.00,90.13,-0.5099,-0.3661,9.8965,9.9164
28,4,2,4,0,10.519,10519,-0.3300,-0.2800,6.6400,6.6541,0.0273,0.0305,-0.0175,3.69,-3.06,90.13,-0.4862,-0.3547,9.4673,9.4865
28,4,2,4,0,10.650,10650,-0.4400,-0.3400,8.0000,8.0193,0.0175,0.0393,0.0065,3.56,-3.06,90.13,-0.4801,-0.3528,9.2740,9.2931
28,5,2,4,0,10.780,10780,-0.7600,-0.3600,9.3800,9.4176,0.0687,-0.0316,0.0076,3.63,-3.06,90.13,-0.5170,-0.3537,9.2880,9.3091
28,5,2,4,0,10.915,10915,-0.5700,-0.4400,9.6700,9.6968,0.0480,0.0240,-0.0360,3.63,-3.06,90.13,-0.5240,-0.3651,9.3383,9.3601
28,5,2,4,0,11.048,11048,-0.3900,-0.4500,9.7800,9.7981,0.0131,0.0120,0.0033,3.75,-3.13,90.13,-0.5063,-0.3763,9.3965,9.4177
28,5,2,4,0,11.178,11178,-0.3800,-0.4200,10.0900,10.1059,-0.0273,-0.0393,0.0022,3.63,-3.25,90.13,-0.4897,-0.3820,9.4879,9.5082
28,5,2,4,0,11.309,11309,-0.1400,-0.5500,9.9400,9.9562,0.0556,0.0131,0.0033,3.69,-3.13,90.00,-0.4436,-0.4042,9.5475,9.5663
28,5,2,4,0,11.439,11439,-0.4500,-0.4100,10.0700,10.0884,0.0425,-0.0065,-0.0262,3.63,-3.19,90.00,-0.4444,-0.4049,9.6163,9.6351
28,5,2,4,0,11.612,11612,-0.1200,-0.7200,9.7700,9.7972,0.0098,-0.0120,0.0240,3.56,-3.06,90.06,-0.4017,-0.4465,9.6366,9.6553
28,5,2,4,0,11.743,11743,-0.4900,-0.3400,10.3600,10.3772,-0.0153,0.0305,0.0142,3.56,-3.06,90.06,-0.4133,-0.4324,9.7319,9.7503
28,5,2,4,0,11.873,11873,-0.6300,-0.3400,10.2200,10.2450,0.0000,0.0022,0.0000,3.50,-3.06,90.06,-0.4419,-0.4203,9.7962,9.8152
28,5,2,4,0,12.007,12007,-0.3200,-0.4000,9.8000,9.8134,-0.0164,-0.0109,-0.0033,3.50,-3.00,90.00,-0.4258,-0.4176,9.7967,9.8149
28,5,2,4,0,12.141,12141,-0.5300,-0.5300,10.0500,10.0779,0.0142,0.0207,-0.0055,3.44,-3.00,90.00,-0.4395,-0.4324,9.8301,9.8494
28,5,2,4,0,12.271,12271,-0.3400,-0.3900,10.7800,10.7924,0.0065,-0.0022,-0.0033,3.44,-2.94,90.00,-0.4264,-0.4268,9.9553,9.9735
28,5,2,4,0,12.402,12402,-0.6400,-0.4500,11.7900,11.8159,0.0098,0.0000,-0.0055,3.38,-3.00,90.00,-0.4546,-0.4299,10.1970,10.2162
28,5,2,4,0,12.532,12532,-0.4700,-0.4300,11.9600,11.9770,-0.0229,-0.0305,-0.0076,3.31,-3.00,90.00,-0.4566,-0.4299,10.4294,10.4482
28,5,2,4,0,12.705,12705,-0.4000,-0.4400,10.5200,10.5368,0.0436,-0.0109,-0.0033,3.25,-3.00,89.94,-0.4491,-0.4312,10.4413,10.4598
28,5,2,4,0,12.835,12835,-0.6100,-0.4400,9.7200,9.7491,-0.0251,-0.0207,-0.0022,3.31,-3.06,89.88,-0.4703,-0.4324,10.3462,10.3660
28,5,2,4,0,12.966,12966,-0.3500,-0.4200,9.3300,9.3460,0.0000,0.0076,0.0338,3.38,-3.06,89.94,-0.4545,-0.4307,10.2123,10.2315
28,5,2,4,0,13.097,13097,-0.4600,-0.2100,8.9500,8.9643,-0.0011,-0.0185,-0.0338,3.38,-2.94,89.94,-0.4552,-0.4017,10.0460,10.0643
28,5,2,4,0,13.229,13229,-0.3700,-0.1000,8.1300,8.1390,-0.0316,0.0098,-0.0044,3.56,-2.94,89.94,-0.4440,-0.3619,9.7935,9.8102
28,5,2,4,0,13.364,13364,-0.6700,-0.3600,7.2100,7.2500,-0.0185,-0.0153,0.0131,3.69,-3.06,90.00,-0.4738,-0.3617,9.4531,9.4718
28,5,2,4,0,13.495,13495,-0.4500,-0.1700,7.5700,7.5853,0.0131,0.0251,-0.0033,3.56,-3.06,89.88,-0.4706,-0.3364,9.2049,9.2231
28,5,2,4,0,13.625,13625,-0.3500,-0.4700,8.7800,8.7995,0.0229,0.0142,0.0164,3.63,-3.00,89.94,-0.4547,-0.3540,9.1489,9.1671
28,6,2,4,0,13.798,13798,-0.4400,-0.4600,9.6900,9.7109,0.0142,-0.0087,-0.0175,3.50,-3.00,89.94,-0.4528,-0.3680,9.2202,9.2387
28,6,2,4,0,13.928,13928,-0.6500,-0.2000,10.2300,10.2526,0.0284,-0.0098,0.0000,3.56,-3.06,89.94,-0.4788,-0.3458,9.3533,9.3719
28,6,2,4,0,14.059,14059,-0.3000,-0.4600,10.1500,10.1648,-0.0033,-0.0033,-0.0142,3.50,-3.06,89.88,-0.4552,-0.3609,9.4583,9.4761
28,6,2,4,0,14.190,14190,-0.2900,-0.4100,10.0700,10.0825,0.0076,0.0000,-0.0044,3.38,-2.94,89.81,-0.4335,-0.3674,9.5389,9.5558
28,6,2,4,0,14.325,14325,-0.6100,-0.3600,10.1500,10.1747,0.0011,-0.0011,-0.0011,3.38,-3.00,89.88,-0.4567,-0.3664,9.6194,9.6372
28,6,2,4,0,14.457,14457,-0.5600,-0.3700,10.1000,10.1223,0.0000,-0.0011,-0.0044,3.38,-2.94,89.88,-0.4703,-0.3669,9.6827,9.7011
28,6,2,4,0,14.588,14588,-0.6500,-0.3500,10.4300,10.4561,-0.0076,-0.0349,0.0087,3.44,-2.94,89.88,-0.4940,-0.3646,9.7812,9.8005
28,6,2,4,0,14.718,14718,-0.5600,-0.3700,10.3100,10.3318,-0.0055,-0.0076,-0.0164,3.50,-2.94,89.88,-0.5027,-0.3653,9.8509,9.8705
28,6,2,4,0,14.891,14891,-0.5100,-0.4200,10.1200,10.1415,0.0098,0.0098,0.0065,3.44,-2.88,89.88,-0.5037,-0.3725,9.8864,9.9062
28,6,2,4,0,15.022,15022,-0.5900,-0.2500,9.9500,9.9706,-0.0218,-0.0044,-0.0207,3.38,-2.81,89.81,-0.5150,-0.3564,9.8947,9.9145
28,6,2,4,0,15.153,15153,-0.4400,-0.3200,10.3100,10.3243,-0.0109,-0.0044,-0.0044,3.31,-2.88,89.88,-0.5052,-0.3516,9.9495,9.9685
28,6,2,4,0,15.288,15288,-0.4700,-0.4300,11.7800,11.7972,0.0044,0.0022,0.0240,3.31,-2.81,89.81,-0.5005,-0.3619,10.1907,10.2094
28,6,2,4,0,15.420,15420,-0.3900,-0.4000,12.0600,12.0729,-0.0011,-0.0087,0.0044,3.25,-2.88,89.81,-0.4860,-0.3669,10.4370,10.4548
28,6,2,4,0,15.550,15550,-0.3200,-0.3200,10.7700,10.7795,0.0033,-0.0142,-0.0142,3.25,-2.88,89.81,-0.4641,-0.3608,10.4809,10.4974
28,6,2,4,0,15.680,15680,-0.4100,-0.4400,9.9800,9.9981,-0.0305,-0.0153,0.0000,3.31,-2.88,89.75,-0.4570,-0.3712,10.4149,10.4315
28,6,2,4,0,15.811,15811,-0.4500,-0.6300,9.4900,9.5215,0.0065,-0.0196,0.0098,3.31,-2.94,89.75,-0.4560,-0.4053,10.2930,10.3111
28,6,2,4,0,15.984,15984,-0.5100,-0.3400,8.8000,8.8213,0.0273,-0.0207,0.0142,3.50,-2.75,89.81,-0.4632,-0.3967,10.0963,10.1147
28,6,2,4,0,16.115,16115,-0.0100,-0.5200,8.0500,8.0668,0.0273,0.0185,-0.0011,3.50,-2.88,89.75,-0.4034,-0.4129,9.8266,9.8436
28,6,2,4,0,16.247,16247,-0.4900,-0.0700,6.6600,6.6784,-0.0251,-0.0044,-0.0120,3.56,-2.88,89.81,-0.4148,-0.3678,9.4093,9.4257
28,6,2,4,0,16.382,16382,-0.8200,-0.3400,7.7600,7.8106,-0.0044,0.0164,-0.0055,3.50,-2.88,89.75,-0.4682,-0.3641,9.1920,9.2111
28,6,2,4,0,16.512,16512,-0.4900,-0.3200,8.8700,8.8893,0.0164,-0.0087,0.0218,3.56,-2.88,89.88,-0.4711,-0.3583,9.1496,9.1687
28,7,2,4,0,16.643,16643,-0.3900,-0.2800,9.5000,9.5121,0.0676,-0.0098,-0.0185,3.38,-2.88,89.75,-0.4604,-0.3480,9.1957,9.2138
28,7,2,4,0,16.773,16773,-0.1600,-0.4900,10.1100,10.1231,0.0065,-0.0284,0.0076,3.50,-2.88,89.75,-0.4208,-0.3667,9.3162,9.3329
28,7,2,4,0,16.904,16904,-0.6900,-0.3900,10.3400,10.3703,-0.0185,0.0175,-0.0284,3.44,-2.94,89.69,-0.4563,-0.3698,9.4511,9.4694
28,7,2,4,0,17.076,17076,-0.2700,-0.4100,10.0900,10.1019,-0.0044,0.0153,-0.0044,3.31,-2.88,89.63,-0.4317,-0.3751,9.5353,9.5525
28,7,2,4,0,17.206,17206,-0.7200,-0.4400,10.1400,10.1750,-0.0327,0.0000,0.0065,3.25,-2.94,89.63,-0.4697,-0.3836,9.6150,9.6341
28,7,2,4,0,17.336,17336,-0.4400,-0.3400,9.9400,9.9555,0.0175,0.0207,0.0011,3.38,-2.88,89.63,-0.4658,-0.3779,9.6578,9.6764
28,7,2,4,0,17.466,17466,-0.7100,-0.2600,10.3400,10.3676,-0.0229,-0.0295,0.0251,3.44,-2.88,89.69,-0.4980,-0.3623,9.7477,9.7672
28,7,2,4,0,17.596,17596,-0.4300,-0.2800,10.1400,10.1530,-0.0240,-0.0120,-0.0185,3.50,-2.88,89.69,-0.4890,-0.3515,9.7994,9.8179
28,7,2,4,0,17.726,17726,-0.5000,-0.2500,9.8300,9.8459,-0.0076,0.0087,0.0065,3.50,-2.81,89.63,-0.4905,-0.3381,9.8034,9.8215
28,7,2,4,0,17.856,17856,-0.4800,-0.4600,10.3400,10.3614,-0.0033,0.0164,0.0044,3.38,-2.88,89.69,-0.4891,-0.3542,9.8741,9.8926
28,7,2,4,0,17.986,17986,-0.4900,-0.5100,10.4200,10.4440,0.0425,0.0109,0.0087,3.31,-2.88,89.56,-0.4892,-0.3747,9.9461,9.9651
28,7,2,4,0,18.159,18159,-0.4000,-0.4100,11.5600,11.5742,-0.0098,0.0098,0.0033,3.25,-2.88,89.63,-0.4775,-0.3794,10.1588,10.1770
28,7,2,4,0,18.289,18289,-0.4800,-0.4100,11.6300,11.6471,-0.0153,-0.0229,-0.0153,3.31,-2.94,89.63,-0.4778,-0.3834,10.3526,10.3707
28,7,2,4,0,18.419,18419,-0.2300,-0.2100,10.4000,10.4047,-0.0185,0.0087,-0.0044,3.31,-2.88,89.63,-0.4451,-0.3605,10.3589,10.3747
28,7,2,4,0,18.550,18550,-0.3700,-0.3800,9.8300,9.8443,-0.0284,-0.0218,-0.0142,3.19,-3.06,89.56,-0.4352,-0.3631,10.2892,10.3048
28,7,2,4,0,18.680,18680,-0.2600,-0.4400,9.4300,9.4438,0.0131,-0.0295,0.0284,3.31,-2.94,89.56,-0.4121,-0.3732,10.1760,10.1911
28,7,2,4,0,18.811,18811,-0.5800,-0.1700,9.3700,9.3895,-0.0142,-0.0033,-0.0065,3.44,-2.88,89.56,-0.4343,-0.3465,10.0698,10.0851
28,7,2,4,0,18.941,18941,-0.4900,-0.3300,8.9700,8.9894,0.0109,-0.0044,-0.0076,3.44,-2.81,89.56,-0.4416,-0.3443,9.9248,9.9406
28,7,2,4,0,19.072,19072,-0.6300,-0.0700,8.4900,8.5136,0.0382,-0.0142,0.0098,3.50,-2.88,89.56,-0.4664,-0.3081,9.7358,9.7518
28,7,2,4,0,19.249,19249,-0.4200,-0.2800,7.5200,7.5369,0.0131,0.0284,-0.0033,3.50,-2.94,89.50,-0.4603,-0.3044,9.4438,9.4599
28,7,2,4,0,19.380,19380,-0.4700,-0.3000,8.6900,8.7079,0.0033,0.0076,0.0153,3.44,-2.94,89.50,-0.4616,-0.3039,9.3445,9.3608
28,7,2,4,0,19.510,19510,-0.2000,-0.3500,8.6400,8.6494,0.0044,0.0393,-0.0240,3.44,-2.94,89.56,-0.4271,-0.3099,9.2516,9.2667
28,8,2,4,0,19.640,19640,-0.4700,-0.3200,9.2600,9.2774,0.0109,0.0076,-0.0022,3.50,-2.88,89.56,-0.4328,-0.3113,9.2527,9.2681
28,8,2,4,0,19.771,19771,-0.9500,-0.4800,10.1200,10.1758,0.0273,-0.0153,-0.0055,3.56,-3.00,89.56,-0.5009,-0.3335,9.3670,9.3863
28,8,2,4,0,19.901,19901,-0.5400,-0.4800,10.3200,10.3453,-0.0055,0.0196,-0.0109,3.50,-3.00,89.56,-0.5061,-0.3528,9.4926,9.5126
28,8,2,4,0,20.031,20031,-0.3700,-0.4200,10.2800,10.2952,-0.0229,-0.0022,0.0196,3.38,-2.94,89.50,-0.4881,-0.3617,9.5964,9.6156
28,8,2,4,0,20.162,20162,-0.5500,-0.4400,10.2500,10.2742,-0.0087,-0.0022,0.0000,3.31,-2.94,89.50,-0.4963,-0.3720,9.6825,9.7023
28,8,2,4,0,20.335,20335,-0.3200,-0.4300,10.1100,10.1242,0.0185,-0.0142,0.0000,3.19,-2.88,89.50,-0.4731,-0.3796,9.7388,9.7577
28,8,2,4,0,20.466,20466,-0.5500,-0.3700,10.5300,10.5508,0.0011,-0.0131,-0.0131,3.19,-2.88,89.50,-0.4832,-0.3784,9.8431,9.8622
28,8,2,4,0,20.596,20596,-0.4900,-0.3800,10.1900,10.2088,0.0000,-0.0164,-0.0131,3.19,-2.88,89.50,-0.4841,-0.3786,9.8888,9.9079
28,8,2,4,0,20.732,20732,-0.4700,-0.4000,10.4300,10.4482,0.0120,0.0142,-0.0033,3.19,-2.88,89.44,-0.4822,-0.3814,9.9601,9.9791
28,8,2,4,0,20.864,20864,-0.6000,-0.2600,10.6000,10.6202,-0.0044,0.0022,-0.0087,3.19,-2.81,89.44,-0.4978,-0.3654,10.0444,10.0634
28,8,2,4,0,20.994,20994,-0.4700,-0.5400,9.6300,9.6566,0.0120,-0.0033,0.0033,3.19,-2.88,89.44,-0.4941,-0.3884,9.9898,10.0096
28,8,2,4,0,21.124,21124,-0.3600,-0.3700,9.8600,9.8735,-0.0011,0.0000,-0.0011,3.25,-2.88,89.44,-0.4764,-0.3860,9.9727,9.9915
28,8,2,4,0,21.255,21255,-0.5000,-0.4200,9.8100,9.8317,0.0076,-0.0044,0.0033,3.19,-2.88,89.44,-0.4795,-0.3905,9.9513,9.9705
28,8,2,4,0,21.427,21427,-0.4600,-0.3500,9.3800,9.3978,-0.0011,-0.0109,-0.0033,3.13,-2.81,89.44,-0.4770,-0.3851,9.8760,9.8950
28,8,2,4,0,21.558,21558,-0.4900,-0.4200,9.2700,9.2924,0.0076,0.0044,0.0011,3.19,-2.88,89.44,-0.4787,-0.3897,9.7961,9.8156
28,8,2,4,0,21.691,21691,-0.5300,-0.4300,12.1300,12.1492,0.0175,0.0164,-0.0033,3.19,-2.88,89.44,-0.4854,-0.3950,10.1037,10.1230
28,8,2,4,0,21.822,21822,-0.5700,-0.4800,12.1700,12.1928,-0.0022,-0.0153,-0.0207,3.19,-2.88,89.44,-0.4966,-0.4062,10.3760,10.3958
28,8,2,4,0,21.956,21956,-0.4100,-0.2900,11.1200,11.1313,-0.0098,0.0251,-0.0098,3.13,-2.88,89.44,-0.4852,-0.3909,10.4740,10.4925
28,8,2,4,0,22.087,22087,-0.5900,-0.4400,10.2100,10.2365,0.0207,0.0175,-0.0011,3.13,-2.94,89.38,-0.4990,-0.3974,10.4392,10.4587
28,8,2,4,0,22.218,22218,-0.4100,-0.2900,9.4400,9.4533,0.0044,-0.0425,0.0065,3.19,-2.88,89.31,-0.4873,-0.3832,10.3076,10.3262
28,8,2,4,0,22.348,22348,-0.4200,-0.5000,9.1600,9.1832,0.0098,-0.0131,-0.0055,3.31,-2.94,89.31,-0.4784,-0.3986,10.1563,10.1754
28,8,2,4,0,22.521,22521,-0.2800,-0.2100,8.6100,8.6171,0.0065,0.0033,-0.0033,3.38,-2.81,89.38,-0.4523,-0.3738,9.9526,9.9698
28,8,2,4,0,22.651,22651,-0.4700,-0.3400,8.4300,8.4499,0.0131,0.0011,-0.0098,3.44,-2.81,89.31,-0.4546,-0.3693,9.7519,9.7695
28,8,2,4,0,22.782,22782,-0.3800,-0.4200,7.5400,7.5612,0.0251,0.0000,-0.0055,3.38,-2.88,89.31,-0.4448,-0.3760,9.4605,9.4784
28,8,2,4,0,22.914,22914,-0.7500,-0.2100,8.4500,8.4858,-0.0218,-0.0229,0.0076,3.44,-2.88,89.31,-0.4850,-0.3541,9.3273,9.3466
28,8,2,4,0,23.049,23049,-0.8000,-0.3800,8.8700,8.9141,0.0207,-0.0055,0.0022,3.50,-2.81,89.31,-0.5265,-0.3575,9.2670,9.2889
28,8,2,4,0,23.180,23180,-0.5100,-0.3200,9.2500,9.2696,0.0196,-0.0120,-0.0175,3.44,-2.81,89.31,-0.5243,-0.3526,9.2648,9.2863
28,9,2,4,0,23.310,23310,-0.5700,-0.4400,9.9900,10.0159,0.0022,-0.0076,0.0076,3.44,-2.94,89.31,-0.5303,-0.3641,9.3604,9.3824
28,9,2,4,0,23.440,23440,-0.2500,-0.4400,10.1100,10.1227,-0.0273,0.0185,-0.0229,3.38,-2.88,89.25,-0.4934,-0.3741,9.4591,9.4794
28,9,2,4,0,23.613,23613,-0.6000,-0.4900,10.0600,10.0898,0.0436,-0.0076,-0.0033,3.25,-2.94,89.25,-0.5074,-0.3894,9.5383,9.5597
28,9,2,4,0,23.745,23745,-0.0900,-0.7200,10.0400,10.0662,0.0229,-0.0011,0.0142,3.25,-3.00,89.31,-0.4524,-0.4329,9.6044,9.6248
28,9,2,4,0,23.876,23876,-0.3600,-0.3800,10.2200,10.2334,-0.0142,0.0153,0.0022,3.31,-2.94,89.31,-0.4403,-0.4260,9.6855,9.7049
28,9,2,4,0,24.009,24009,-0.5500,-0.4300,10.4700,10.4933,-0.0240,-0.0295,0.0055,3.38,-2.94,89.31,-0.4547,-0.4265,9.7889,9.8087
28,9,2,4,0,24.142,24142,-0.3600,-0.4600,10.2000,10.2167,-0.0153,0.0011,-0.0044,3.38,-2.94,89.31,-0.4422,-0.4309,9.8431,9.8624
28,9,2,4,0,24.273,24273,-0.5500,-0.5600,10.9500,10.9781,-0.0120,0.0076,-0.0044,3.31,-2.94,89.31,-0.4564,-0.4479,9.9889,10.0094
28,9,2,4,0,24.403,24403,-0.6500,-0.2400,9.4500,9.4754,0.0044,-0.0120,-0.0131,3.44,-2.88,89.31,-0.4819,-0.4205,9.9179,9.9385
28,9,2,4,0,24.533,24533,-0.3400,-0.4800,9.9900,10.0073,0.0011,-0.0175,0.0011,3.44,-2.94,89.31,-0.4632,-0.4284,9.9274,9.9475
28,9,2,4,0,24.706,24706,-0.5100,-0.4400,9.7900,9.8131,0.0120,0.0044,0.0033,3.38,-2.94,89.31,-0.4694,-0.4299,9.9093,9.9297
28,9,2,4,0,24.836,24836,-0.4600,-0.3400,9.5100,9.5272,-0.0011,-0.0109,0.0033,3.38,-2.88,89.31,-0.4682,-0.4180,9.8567,9.8767
28,9,2,4,0,24.966,24966,-0.5400,-0.4300,9.5700,9.5949,0.0153,0.0000,0.0044,3.38,-2.88,89.31,-0.4776,-0.4196,9.8189,9.8395
28,9,2,4,0,25.096,25096,-0.5500,-0.5400,12.0300,12.0547,-0.0033,0.0022,-0.0087,3.31,-2.88,89.31,-0.4872,-0.4355,10.1103,10.1314
28,9,2,4,0,25.226,25226,-0.4800,-0.4600,11.7700,11.7888,0.0229,-0.0153,0.0087,3.31,-2.88,89.25,-0.4862,-0.4387,10.3290,10.3497
28,9,2,4,0,25.356,25356,-0.3700,-0.5300,10.6900,10.7095,0.0022,0.0022,-0.0044,3.25,-2.94,89.31,-0.4709,-0.4507,10.3766,10.3970
28,9,2,4,0,25.486,25486,-0.5800,-0.4000,9.7200,9.7455,0.0284,0.0185,-0.0022,3.19,-2.94,89.25,-0.4853,-0.4441,10.2900,10.3110
28,9,2,4,0,25.616,25616,-0.3500,-0.1000,9.2900,9.2971,0.0196,-0.0284,-0.0120,3.38,-2.88,89.19,-0.4675,-0.3987,10.1583,10.1768
28,9,2,4,0,25.789,25789,-0.6100,-0.4700,9.2800,9.3119,-0.0153,-0.0284,0.0022,3.50,-3.00,89.25,-0.4862,-0.4081,10.0425,10.0626
28,9,2,4,0,25.919,25919,-0.5300,-0.4000,8.9400,8.9646,0.0098,-0.0153,0.0153,3.63,-2.88,89.25,-0.4920,-0.4070,9.8972,9.9178
28,9,2,4,0,26.049,26049,-0.4000,-0.3300,8.4100,8.4260,0.0175,0.0153,-0.0022,3.56,-2.88,89.19,-0.4799,-0.3969,9.7013,9.7212
28,9,2,4,0,26.179,26179,-0.3700,-0.3800,7.9700,7.9876,-0.0022,-0.0175,-0.0098,3.50,-2.94,89.19,-0.4654,-0.3947,9.4731,9.4928
28,9,2,4,0,26.309,26309,-0.2600,-0.2800,8.3000,8.3088,-0.0196,-0.0109,-0.0033,3.56,-2.88,89.25,-0.4383,-0.3796,9.3185,9.3366
28,9,2,4,0,26.439,26439,-0.4500,-0.2800,8.0200,8.0375,0.0033,0.0022,-0.0131,3.63,-2.88,89.25,-0.4399,-0.3664,9.1474,9.1653
28,9,2,4,0,26.569,26569,-0.5500,-0.4500,8.9400,8.9682,-0.0185,-0.0229,0.0065,3.56,-2.88,89.25,-0.4544,-0.3774,9.1201,9.1392
28,10,2,4,0,26.699,26699,-0.4600,-0.3000,9.6300,9.6456,-0.0044,0.0087,-0.0055,3.63,-2.94,89.25,-0.4551,-0.3672,9.1873,9.2059
28,10,2,4,0,26.872,26872,-0.4700,-0.3400,10.4900,10.5060,0.0076,0.0240,-0.0087,3.50,-2.88,89.19,-0.4571,-0.3637,9.3589,9.3772
28,10,2,4,0,27.003,27003,-0.3200,-0.4400,10.3500,10.3643,0.0207,0.0164,0.0044,3.38,-2.94,89.19,-0.4390,-0.3737,9.4895,9.5070
28,10,2,4,0,27.134,27134,-0.6500,-0.2300,10.6000,10.6224,-0.0262,-0.0262,-0.0044,3.44,-2.88,89.19,-0.4668,-0.3548,9.6359,9.6537
28,10,2,4,0,27.264,27264,-0.3900,-0.3700,10.4900,10.5038,0.0120,-0.0044,-0.0142,3.44,-2.81,89.19,-0.4567,-0.3568,9.7484,9.7656
28,10,2,4,0,27.400,27400,-0.5000,-0.3600,10.5100,10.5280,-0.0033,-0.0022,0.0055,3.44,-2.81,89.19,-0.4624,-0.3572,9.8488,9.8661
28,10,2,4,0,27.531,27531,-0.4700,-0.4200,10.7900,10.8084,0.0142,0.0153,0.0065,3.38,-2.81,89.19,-0.4634,-0.3655,9.9728,9.9903
28,10,2,4,0,27.662,27662,-0.4000,-0.3200,10.0100,10.0231,-0.0065,0.0022,-0.0044,3.31,-2.81,89.19,-0.4551,-0.3595,9.9777,9.9945
28,10,2,4,0,27.792,27792,-0.5200,-0.4400,9.9100,9.9334,-0.0076,-0.0033,-0.0065,3.25,-2.94,89.19,-0.4636,-0.3701,9.9688,9.9864
28,10,2,4,0,27.965,27965,-0.5000,-0.4000,9.8200,9.8409,0.0098,0.0022,0.0087,3.25,-2.81,89.19,-0.4684,-0.3740,9.9492,9.9672
28,10,2,4,0,28.095,28095,-0.4500,-0.3600,9.8900,9.9068,-0.0022,0.0000,0.0033,3.25,-2.81,89.19,-0.4660,-0.3722,9.9414,9.9593
28,10,2,4,0,28.225,28225,-0.4700,-0.4100,9.7900,9.8098,0.0087,-0.0033,-0.0011,3.19,-2.75,89.19,-0.4665,-0.3772,9.9214,9.9396
28,10,2,4,0,28.356,28356,-0.4500,-0.3600,9.7400,9.7570,0.0022,-0.0087,-0.0011,3.19,-2.75,89.19,-0.4643,-0.3749,9.8975,9.9155
28,10,2,4,0,28.486,28486,-0.5300,-0.4100,9.8700,9.8927,0.0044,-0.0044,-0.0033,3.19,-2.75,89.19,-0.4730,-0.3795,9.8939,9.9125
28,10,2,4,0,28.616,28616,-0.4300,-0.3600,9.6000,9.6164,0.0044,0.0022,-0.0033,3.19,-2.75,89.19,-0.4673,-0.3770,9.8552,9.8734
28,10,2,4,0,28.746,28746,-0.4300,-0.4100,9.2800,9.2990,-0.0022,0.0011,0.0087,3.19,-2.75,89.19,-0.4624,-0.3813,9.7794,9.7977
28,10,2,4,0,28.876,28876,-0.4700,-0.3100,9.3500,9.3669,0.0273,0.0218,0.0011,3.19,-2.75,89.19,-0.4634,-0.3719,9.7228,9.7409
28,10,2,4,0,29.049,29049,-0.3300,-0.2600,11.7600,11.7675,-0.0262,-0.0305,-0.0055,3.19,-2.69,89.19,-0.4458,-0.3572,9.9912,10.0076
28,10,2,4,0,29.183,29183,-0.6900,-0.5400,11.5900,11.6231,-0.0164,0.0196,0.0360,3.19,-2.81,89.25,-0.4780,-0.3813,10.2019,10.2202
28,10,2,4,0,29.316,29316,-0.3500,-0.3100,10.3900,10.4005,0.0196,-0.0065,0.0011,3.13,-2.81,89.19,-0.4611,-0.3719,10.2267,10.2439
28,10,2,4,0,29.446,29446,-0.4800,-0.2700,9.7700,9.7855,0.0284,0.0000,-0.0273,3.06,-2.88,89.19,-0.4636,-0.3584,10.1665,10.1834
28,10,2,4,0,29.577,29577,-0.3600,-0.3000,9.4200,9.4316,0.0109,-0.0131,0.0065,3.13,-2.69,89.19,-0.4500,-0.3507,10.0682,10.0843
28,10,2,4,0,29.707,29707,-0.4200,-0.3400,9.2100,9.2258,-0.0044,-0.0109,0.0251,3.19,-2.75,89.19,-0.4460,-0.3493,9.9551,9.9712
28,10,2,4,0,29.838,29838,-0.5600,-0.3700,9.0500,9.0749,0.0196,-0.0087,0.0044,3.19,-2.69,89.25,-0.4610,-0.3521,9.8358,9.8529
28,10,2,4,0,29.968,29968,-0.5400,-0.3100,8.6700,8.6923,0.0109,-0.0196,-0.0055,3.25,-2.63,89.25,-0.4714,-0.3465,9.6822,9.6998
28,10,2,4,0,30.141,30141,-0.5100,-0.3400,7.5000,7.5250,0.0109,0.0044,-0.0120,3.25,-2.69,89.25,-0.4765,-0.3457,9.3946,9.4131
28,10,2,4,0,30.271,30271,-0.5300,-0.3000,8.5700,8.5916,-0.0153,0.0055,-0.0055,3.19,-2.63,89.25,-0.4836,-0.3396,9.2860,9.3047
28,10,2,4,0,30.402,30402,-0.6400,-0.3500,9.1900,9.2189,0.0044,0.0338,0.0033,3.19,-2.56,89.31,-0.5042,-0.3410,9.2733,9.2933
28,11,2,4,0,30.532,30532,-0.4300,-0.4100,9.4200,9.4387,0.0185,0.0175,0.0044,3.19,-2.63,89.31,-0.4944,-0.3501,9.2926,9.3124
28,11,2,4,0,30.668,30668,-0.7700,-0.3700,9.9600,9.9966,-0.0044,0.0175,-0.0033,3.06,-2.69,89.31,-0.5307,-0.3527,9.3806,9.4022
28,11,2,4,0,30.798,30798,-0.5600,-0.4800,10.1000,10.1269,-0.0436,-0.0022,0.0153,3.00,-2.69,89.31,-0.5346,-0.3695,9.4754,9.4976
28,11,2,4,0,30.930,30930,-0.5100,-0.3900,10.1700,10.1902,0.0011,0.0164,0.0153,3.00,-2.63,89.25,-0.5313,-0.3722,9.5669,9.5889
28,11,2,4,0,31.061,31061,-0.3800,-0.3500,9.9500,9.9634,0.0011,-0.0153,-0.0055,3.00,-2.63,89.31,-0.5114,-0.3693,9.6174,9.6381
28,11,2,4,0,31.233,31233,-0.4800,-0.4000,10.2600,10.2790,-0.0044,-0.0120,-0.0011,3.13,-2.63,89.31,-0.5073,-0.3733,9.7021,9.7225
28,11,2,4,0,31.363,31363,-0.5000,-0.3800,10.5200,10.5387,-0.0044,0.0055,-0.0109,3.13,-2.63,89.31,-0.5063,-0.3742,9.8099,9.8300
28,11,2,4,0,31.493,31493,-0.4800,-0.4200,10.1200,10.1401,0.0044,0.0153,0.0033,3.06,-2.63,89.38,-0.5028,-0.3802,9.8507,9.8709
28,11,2,4,0,31.623,31623,-0.4500,-0.4300,9.9100,9.9295,0.0153,0.0207,0.0098,2.94,-2.69,89.38,-0.4959,-0.3868,9.8585,9.8786
28,11,2,4,0,31.753,31753,-0.5200,-0.3700,10.1300,10.1501,-0.0142,-0.0087,-0.0011,2.94,-2.63,89.38,-0.4991,-0.3846,9.8943,9.9143
28,11,2,4,0,31.883,31883,-0.3400,-0.3500,10.3700,10.3815,-0.0044,0.0011,-0.0065,2.94,-2.63,89.38,-0.4781,-0.3800,9.9570,9.9757
28,11,2,4,0,32.013,32013,-0.5300,-0.3500,9.5500,9.5711,-0.0065,-0.0033,0.0044,2.88,-2.63,89.44,-0.4849,-0.3761,9.9034,9.9224
28,11,2,4,0,32.144,32144,-0.3400,-0.4300,9.7900,9.8053,0.0065,0.0033,0.0098,2.88,-2.63,89.38,-0.4658,-0.3832,9.8884,9.9068
28,11,2,4,0,32.316,32316,-0.4000,-0.3600,9.6200,9.6350,-0.0044,-0.0011,-0.0022,2.88,-2.63,89.38,-0.4572,-0.3801,9.8531,9.8710
28,11,2,4,0,32.446,32446,-0.6000,-0.3100,9.2500,9.2746,0.0033,-0.0022,-0.0076,2.88,-2.63,89.38,-0.4760,-0.3709,9.7736,9.7922
28,11,2,4,0,32.576,32576,-0.5400,-0.3300,10.2300,10.2496,-0.0251,-0.0415,-0.0120,2.94,-2.63,89.44,-0.4844,-0.3655,9.8337,9.8524
28,11,2,4,0,32.706,32706,-0.3400,-0.2400,11.3900,11.3976,0.0142,-0.0076,0.0316,2.81,-2.69,89.38,-0.4654,-0.3490,10.0388,10.0556
28,11,2,4,0,32.836,32836,-0.5000,-0.3500,11.6600,11.6760,-0.0153,-0.0011,-0.0044,2.88,-2.69,89.44,-0.4699,-0.3491,10.2524,10.2691
28,11,2,4,0,32.966,32966,-0.4400,-0.5000,10.8500,10.8704,-0.0131,0.0076,0.0022,2.88,-2.69,89.44,-0.4660,-0.3690,10.3312,10.3483
28,11,2,4,0,33.096,33096,-0.5700,-0.2600,9.9800,9.9996,0.0055,0.0153,-0.0065,2.81,-2.75,89.44,-0.4797,-0.3546,10.2849,10.3022
28,11,2,4,0,33.226,33226,-0.4600,-0.4300,9.2100,9.2315,-0.0382,-0.0371,-0.0022,2.75,-2.75,89.44,-0.4771,-0.3646,10.1433,10.1610
28,11,2,4,0,33.399,33399,-0.6400,-0.4500,9.3800,9.4126,0.0305,-0.0185,0.0185,2.94,-2.69,89.50,-0.4986,-0.3758,10.0427,10.0621
28,11,2,4,0,33.529,33529,-0.3700,-0.4400,9.1200,9.1381,0.0055,0.0022,-0.0065,2.88,-2.69,89.50,-0.4816,-0.3843,9.9211,9.9402
28,11,2,4,0,33.660,33660,-0.6200,-0.3300,9.1400,9.1669,-0.0098,-0.0316,0.0033,3.00,-2.63,89.56,-0.4999,-0.3771,9.8182,9.8381
28,11,2,4,0,33.790,33790,-0.5200,-0.3400,8.7400,8.7621,0.0022,0.0055,0.0131,3.00,-2.63,89.50,-0.5025,-0.3722,9.6761,9.6963
28,11,2,4,0,33.921,33921,-0.4500,-0.3000,8.6300,8.6469,-0.0164,0.0044,-0.0087,3.06,-2.56,89.56,-0.4956,-0.3627,9.5382,9.5580
28,12,2,4,0,34.052,34052,-0.4500,-0.4300,10.0800,10.0992,0.0076,-0.0055,0.0011,3.06,-2.56,89.56,-0.4896,-0.3716,9.6096,9.6293
28,12,2,4,0,34.182,34182,-0.5700,-0.3500,9.7300,9.7530,0.0022,0.0055,0.0065,3.06,-2.56,89.56,-0.5002,-0.3687,9.6255,9.6455
28,12,2,4,0,34.317,34317,-0.3900,-0.4200,9.7100,9.7269,-0.0022,-0.0120,0.0098,3.00,-2.56,89.56,-0.4857,-0.3755,9.6366,9.6562
28,12,2,4,0,34.490,34490,-0.5200,-0.3400,9.7600,9.7798,-0.0011,0.0022,0.0065,3.06,-2.50,89.56,-0.4902,-0.3708,9.6529,9.6724
28,12,2,4,0,34.620,34620,-0.5000,-0.3600,9.7500,9.7694,-0.0022,-0.0022,-0.0011,3.06,-2.50,89.56,-0.4915,-0.3694,9.6657,9.6852
28,12,2,4,0,34.750,34750,-0.5700,-0.3500,9.9100,9.9325,-0.0076,-0.0076,0.0022,3.06,-2.50,89.56,-0.5018,-0.3668,9.6979,9.7178
28,12,2,4,0,34.880,34880,-0.5100,-0.3600,9.3500,9.3708,0.0076,0.0131,0.0033,3.00,-2.50,89.56,-0.5029,-0.3659,9.6520,9.6721
28,12,2,4,0,35.011,35011,-0.5600,-0.3300,9.2200,9.2429,-0.0098,-0.0055,0.0055,3.06,-2.50,89.56,-0.5104,-0.3612,9.5951,9.6155
28,12,2,4,0,35.141,35141,-0.4700,-0.3800,9.4300,9.4493,0.0076,0.0131,-0.0098,3.06,-2.50,89.56,-0.5051,-0.3637,9.5733,9.5936
28,12,2,4,0,35.271,35271,-0.3600,-0.4100,9.5000,9.5157,0.0076,0.0022,-0.0011,3.06,-2.50,89.56,-0.4860,-0.3698,9.5637,9.5832
28,12,2,4,0,35.402,35402,-0.3400,-0.3700,9.5500,9.5632,0.0000,-0.0055,0.0142,3.06,-2.56,89.56,-0.4667,-0.3698,9.5619,9.5804
28,12,2,4,0,35.578,35578,-0.3000,-0.2700,9.2700,9.2788,0.0055,0.0131,-0.0120,3.00,-2.56,89.56,-0.4448,-0.3567,9.5234,9.5405
28,12,2,4,0,35.712,35712,-0.5700,-0.3400,9.5800,9.6030,-0.0065,-0.0087,0.0000,2.94,-2.50,89.50,-0.4613,-0.3545,9.5309,9.5486
28,12,2,4,0,35.843,35843,-0.3400,-0.4000,9.6000,9.6143,0.0087,0.0109,-0.0011,2.88,-2.50,89.50,-0.4453,-0.3605,9.5400,9.5572
28,12,2,4,0,35.973,35973,-0.5700,-0.3700,9.9600,9.9832,-0.0065,-0.0033,0.0109,2.81,-2.56,89.56,-0.4617,-0.3617,9.5953,9.6132
28,12,2,4,0,36.104,36104,-0.6300,-0.3300,10.8100,10.8334,0.0087,0.0153,-0.0011,2.88,-2.56,89.56,-0.4839,-0.3575,9.7554,9.7739
28,12,2,4,0,36.234,36234,-0.9100,-0.3500,11.9600,11.9997,-0.0142,-0.0415,-0.0207,3.00,-2.50,89.56,-0.5400,-0.3565,10.0459,10.0667
28,12,2,4,0,36.364,36364,-0.4300,-0.3900,9.4600,9.4778,0.0153,0.0185,0.0305,2.94,-2.56,89.56,-0.5255,-0.3610,9.9687,9.9891
28,12,2,4,0,36.494,36494,-0.3000,-0.3000,9.9000,9.9091,0.0044,0.0098,-0.0153,2.75,-2.63,89.56,-0.4958,-0.3529,9.9596,9.9782
28,12,2,4,0,36.667,36667,-0.5300,-0.4100,9.3700,9.3939,0.0011,-0.0164,-0.0207,2.81,-2.56,89.56,-0.5003,-0.3604,9.8819,9.9012
28,12,2,4,0,36.797,36797,-0.3800,-0.2200,7.9000,7.9122,0.0218,0.0065,0.0098,2.81,-2.56,89.56,-0.4845,-0.3419,9.6208,9.6390
28,12,2,4,0,36.927,36927,-0.4200,-0.4000,9.1200,9.1384,0.0011,-0.0120,-0.0087,2.75,-2.63,89.56,-0.4760,-0.3496,9.5548,9.5730
28,12,2,4,0,37.057,37057,-0.5800,-0.2800,9.5400,9.5617,0.0218,0.0055,0.0011,2.81,-2.56,89.56,-0.4897,-0.3404,9.5528,9.5714
28,12,2,4,0,37.187,37187,-0.5200,-0.5700,10.2300,10.2591,-0.0360,-0.0120,0.0000,2.81,-2.63,89.56,-0.4937,-0.3707,9.6421,9.6618
28,12,2,4,0,37.317,37317,-0.4700,-0.4900,10.2900,10.3124,0.0153,0.0011,0.0087,2.81,-2.69,89.56,-0.4906,-0.3864,9.7275,9.7475
28,12,2,4,0,37.447,37447,-0.4500,-0.6000,9.5100,9.5395,0.0240,0.0185,0.0098,2.75,-2.69,89.56,-0.4852,-0.4145,9.6988,9.7198
28,12,2,4,0,37.577,37577,-0.6900,-0.8600,17.0800,17.1156,0.0131,-0.0545,-0.0284,2.63,-2.75,89.63,-0.5122,-0.4732,10.6715,10.6942
28,12,2,4,0,37.750,37750,-0.1100,-0.7200,9.7900,9.8171,-0.0120,-0.0545,0.0349,2.63,-2.81,89.44,-0.4592,-0.5058,10.5553,10.5774
28,12,2,4,0,37.881,37881,-0.3600,-0.4100,9.7500,9.7653,0.0000,0.0349,0.0076,2.69,-2.75,89.50,-0.4461,-0.4931,10.4492,10.4703
28,12,2,4,0,38.012,38012,-0.5000,-0.4500,9.7100,9.7333,0.0153,-0.0055,0.0000,2.63,-2.75,89.50,-0.4532,-0.4875,10.3518,10.3732
28,12,2,4,0,38.144,38144,-0.6300,-0.5100,11.6200,11.6482,-0.0109,-0.0065,0.0087,2.63,-2.75,89.50,-0.4765,-0.4904,10.5189,10.5411
28,12,2,4,0,38.279,38279,-0.6000,-0.4300,9.8200,9.8477,0.0000,0.0011,0.0044,2.69,-2.63,89.56,-0.4928,-0.4825,10.4268,10.4496
28,12,2,4,0,38.410,38410,-0.4700,-0.3000,9.7800,9.7959,0.0011,-0.0022,0.0076,2.69,-2.63,89.50,-0.4898,-0.4584,10.3416,10.3633
28,12,2,4,0,38.540,38540,-0.4000,-0.4400,9.7500,9.7681,0.0065,0.0000,0.0229,2.69,-2.63,89.56,-0.4780,-0.4560,10.2636,10.2848
28,12,2,4,0,38.670,38670,-0.4600,-0.3600,9.8200,9.8374,0.0000,0.0087,0.0055,2.69,-2.63,89.56,-0.4756,-0.4433,10.2052,10.2258
28,12,2,4,0,38.843,38843,-0.4500,-0.3400,9.7800,9.7962,-0.0044,-0.0033,-0.0153,2.69,-2.63,89.56,-0.4722,-0.4297,10.1491,10.1692
