participant,rep,equipment_code,exercise_code,quality_code,timestamp,timestamp_ms,accelX,accelY,accelZ,accelMag,gyroX,gyroY,gyroZ,roll,pitch,yaw,filteredX,filteredY,filteredZ,filteredMag
30,1,2,4,0,00.000,0,-0.2000,-0.0600,9.7600,9.7622,0.0000,0.0011,0.0022,1.19,-0.31,286.13,-0.1999,-0.0888,9.7561,9.7585
30,1,2,4,0,00.131,131,-0.2700,-0.0800,9.7200,9.7241,0.0011,0.0011,0.0011,1.19,-0.31,286.13,-0.2091,-0.0876,9.7513,9.7540
30,1,2,4,0,00.261,261,-0.2600,-0.1100,9.6900,9.6941,0.0011,-0.0033,-0.0044,1.19,-0.31,286.13,-0.2158,-0.0906,9.7432,9.7460
30,1,2,4,0,00.433,433,-0.1000,-0.1700,9.6100,9.6120,-0.0011,0.0000,0.0011,1.19,-0.31,286.13,-0.2006,-0.1010,9.7257,9.7283
30,1,2,4,0,00.563,563,-0.1400,-0.1000,9.6400,9.6415,-0.0011,0.0022,-0.0055,1.19,-0.31,286.13,-0.1926,-0.1009,9.7144,9.7168
30,1,2,4,0,00.693,693,-0.1500,-0.1100,9.6000,9.6018,-0.0033,-0.0022,0.0164,1.19,-0.31,286.13,-0.1870,-0.1021,9.6993,9.7017
30,1,2,4,0,00.823,823,-0.0600,-0.1500,9.6500,9.6514,0.0033,-0.0065,0.0044,1.19,-0.31,286.13,-0.1702,-0.1084,9.6928,9.6949
30,1,2,4,0,00.953,953,-0.1700,-0.1100,9.9400,9.9421,0.0033,0.0000,0.0011,1.19,-0.31,286.13,-0.1702,-0.1086,9.7254,9.7275
30,1,2,4,0,01.084,1084,-0.2400,-0.0900,9.9600,9.9633,0.0011,-0.0044,0.0033,1.19,-0.31,286.13,-0.1794,-0.1062,9.7563,9.7585
30,1,2,4,0,01.214,1214,-0.3800,-0.0500,10.0300,10.0373,0.0033,-0.0098,0.0131,1.19,-0.31,286.19,-0.2058,-0.0988,9.7924,9.7950
30,1,2,4,0,01.344,1344,-0.1900,-0.0800,10.7100,10.7120,0.0044,0.0000,0.0109,1.25,-0.31,286.13,-0.2038,-0.0963,9.9133,9.9159
30,1,2,4,0,01.517,1517,-0.2500,-0.1200,10.8800,10.8835,0.0033,-0.0022,0.0109,1.25,-0.31,286.19,-0.2098,-0.0994,10.0407,10.0434
30,1,2,4,0,01.648,1648,-0.1600,-0.1500,10.8300,10.8322,0.0022,0.0022,0.0120,1.25,-0.31,286.19,-0.2033,-0.1061,10.1447,10.1473
30,1,2,4,0,01.779,1779,-0.3800,-0.1300,10.6300,10.6376,0.0022,-0.0033,0.0273,1.25,-0.31,286.31,-0.2266,-0.1092,10.2086,10.2117
30,1,2,4,0,01.909,1909,-0.4300,-0.5000,10.9400,10.9599,0.0076,-0.0055,0.0305,1.25,-0.31,286.56,-0.2534,-0.1607,10.3050,10.3094
30,1,2,4,0,02.040,2040,-0.1500,-0.0200,10.3500,10.3511,0.0000,0.0011,0.0273,1.25,-0.31,286.75,-0.2398,-0.1422,10.3109,10.3147
30,1,2,4,0,02.175,2175,-0.1600,0.0400,8.6100,8.6116,-0.0011,-0.0087,0.0131,1.25,-0.31,286.88,-0.2292,-0.1182,10.0868,10.0901
30,1,2,4,0,02.307,2307,-0.2700,0.0400,7.1100,7.1152,-0.0011,0.0022,-0.0055,1.25,-0.31,286.88,-0.2346,-0.0973,9.6945,9.6979
30,1,2,4,0,02.437,2437,-0.3500,0.1300,5.9300,5.9417,0.0011,0.0022,0.0055,1.25,-0.31,286.88,-0.2498,-0.0674,9.1985,9.2021
30,1,2,4,0,02.610,2610,-0.1500,0.0400,7.8500,7.8515,-0.0011,-0.0033,0.0065,1.25,-0.31,286.94,-0.2367,-0.0532,9.0208,9.0240
30,2,2,4,0,02.742,2742,-0.1300,-0.1400,9.4200,9.4219,0.0065,0.0044,-0.0033,1.25,-0.31,286.94,-0.2226,-0.0647,9.0734,9.0763
30,2,2,4,0,02.877,2877,-0.2200,-0.1200,10.4300,10.4330,0.0033,0.0055,0.0055,1.25,-0.31,286.94,-0.2223,-0.0720,9.2521,9.2551
30,2,2,4,0,03.009,3009,-0.2200,-0.1200,10.8900,10.8929,0.0022,-0.0011,-0.0065,1.25,-0.31,286.94,-0.2220,-0.0783,9.4680,9.4709
30,2,2,4,0,03.139,3139,-0.2800,-0.1400,10.0000,10.0049,0.0000,0.0000,-0.0011,1.25,-0.31,286.94,-0.2296,-0.0864,9.5381,9.5412
30,2,2,4,0,03.270,3270,-0.2200,-0.1000,9.8400,9.8430,0.0011,0.0033,-0.0022,1.25,-0.31,286.94,-0.2283,-0.0882,9.5779,9.5810
30,2,2,4,0,03.400,3400,-0.1500,-0.1200,9.7300,9.7319,0.0000,-0.0022,-0.0055,1.25,-0.31,286.94,-0.2180,-0.0924,9.5979,9.6008
30,2,2,4,0,03.531,3531,-0.2600,-0.0400,9.7700,9.7735,-0.0011,0.0000,-0.0120,1.25,-0.31,286.94,-0.2236,-0.0855,9.6206,9.6236
30,2,2,4,0,03.703,3703,-0.1900,-0.1200,9.9000,9.9025,0.0022,0.0022,0.0087,1.25,-0.31,286.88,-0.2191,-0.0900,9.6574,9.6603
30,2,2,4,0,03.833,3833,-0.1400,-0.1100,9.8500,9.8516,0.0011,0.0000,0.0000,1.25,-0.31,286.94,-0.2087,-0.0927,9.6828,9.6855
30,2,2,4,0,03.963,3963,-0.1500,-0.0600,9.9200,9.9213,0.0022,0.0000,0.0011,1.25,-0.31,286.94,-0.2010,-0.0884,9.7140,9.7165
30,2,2,4,0,04.093,4093,-0.1600,-0.1100,10.0100,10.0119,-0.0011,0.0033,0.0076,1.25,-0.31,286.94,-0.1956,-0.0912,9.7530,9.7554
30,2,2,4,0,04.223,4223,-0.2100,-0.0700,9.8800,9.8825,0.0011,-0.0022,0.0044,1.25,-0.31,286.94,-0.1975,-0.0884,9.7698,9.7722
30,2,2,4,0,04.353,4353,-0.2700,-0.1000,9.9400,9.9442,0.0022,0.0000,0.0022,1.25,-0.31,286.94,-0.2070,-0.0899,9.7922,9.7948
30,2,2,4,0,04.483,4483,-0.1900,-0.0800,9.9400,9.9421,0.0022,0.0000,0.0055,1.25,-0.31,286.94,-0.2048,-0.0886,9.8117,9.8142
30,2,2,4,0,04.613,4613,-0.1900,-0.0800,9.8600,9.8622,0.0022,0.0000,0.0033,1.25,-0.31,286.94,-0.2028,-0.0875,9.8180,9.8205
30,2,2,4,0,04.786,4786,-0.1700,-0.1100,9.6300,9.6321,0.0011,0.0000,0.0011,1.25,-0.31,286.94,-0.1985,-0.0905,9.7933,9.7957
30,2,2,4,0,04.916,4916,-0.1700,-0.0800,9.7300,9.7318,0.0011,0.0033,0.0033,1.25,-0.31,286.94,-0.1948,-0.0891,9.7849,9.7873
30,2,2,4,0,05.046,5046,-0.1800,-0.1100,9.7800,9.7823,0.0000,-0.0022,0.0011,1.25,-0.31,286.94,-0.1928,-0.0918,9.7843,9.7866
30,2,2,4,0,05.176,5176,-0.2100,-0.0900,9.6100,9.6127,0.0033,0.0000,-0.0011,1.25,-0.31,286.94,-0.1951,-0.0916,9.7613,9.7637
30,2,2,4,0,05.306,5306,-0.2300,-0.1000,9.7400,9.7432,0.0000,0.0011,-0.0022,1.25,-0.31,286.94,-0.1997,-0.0927,9.7585,9.7610
30,2,2,4,0,05.436,5436,-0.1800,-0.1000,9.7300,9.7322,0.0044,-0.0033,-0.0033,1.25,-0.31,286.94,-0.1971,-0.0937,9.7548,9.7572
30,2,2,4,0,05.566,5566,-0.2400,-0.0200,9.7400,9.7430,-0.0022,0.0022,0.0022,1.25,-0.31,286.94,-0.2027,-0.0840,9.7528,9.7553
30,2,2,4,0,05.696,5696,-0.2000,-0.0500,9.8700,9.8722,-0.0011,-0.0033,0.0055,1.25,-0.31,286.94,-0.2024,-0.0795,9.7682,9.7707
30,2,2,4,0,05.869,5869,-0.1700,-0.1300,10.5500,10.5522,0.0000,0.0011,0.0022,1.25,-0.31,286.94,-0.1981,-0.0861,9.8713,9.8736
30,2,2,4,0,06.002,6002,-0.3500,-0.1600,10.8700,10.8768,-0.0033,0.0044,0.0109,1.31,-0.38,286.88,-0.2181,-0.0959,10.0029,10.0057
30,2,2,4,0,06.137,6137,-0.1700,-0.1100,11.3800,11.3818,0.0022,0.0022,0.0131,1.31,-0.31,286.88,-0.2118,-0.0977,10.1843,10.1870
30,2,2,4,0,06.268,6268,-0.3500,-0.2400,10.8500,10.8583,0.0033,-0.0076,0.0033,1.31,-0.31,287.00,-0.2300,-0.1165,10.2721,10.2753
30,2,2,4,0,06.398,6398,-0.1500,-0.1200,10.3000,10.3018,0.0033,0.0011,0.0327,1.31,-0.31,287.06,-0.2195,-0.1169,10.2757,10.2787
30,2,2,4,0,06.528,6528,-0.2100,-0.0900,10.7400,10.7424,0.0000,-0.0076,0.0371,1.31,-0.31,287.25,-0.2182,-0.1134,10.3369,10.3398
30,2,2,4,0,06.660,6660,-0.2900,-0.0400,10.3700,10.3741,0.0011,-0.0022,0.0327,1.31,-0.31,287.44,-0.2277,-0.1037,10.3413,10.3443
30,2,2,4,0,06.790,6790,-0.2600,-0.2700,9.0000,9.0078,-0.0022,-0.0033,-0.0055,1.31,-0.31,287.56,-0.2319,-0.1256,10.1645,10.1680
30,2,2,4,0,06.968,6968,-0.2600,-0.1700,7.0400,7.0469,-0.0011,-0.0033,-0.0011,1.31,-0.31,287.56,-0.2356,-0.1315,9.7528,9.7565
30,2,2,4,0,07.100,7100,-0.1200,0.0200,6.3000,6.3012,-0.0011,-0.0065,0.0055,1.31,-0.31,287.63,-0.2204,-0.1115,9.2978,9.3011
30,2,2,4,0,07.230,7230,-0.1900,-0.0700,7.9400,7.9426,0.0022,-0.0011,-0.0033,1.31,-0.31,287.56,-0.2164,-0.1060,9.1189,9.1221
30,2,2,4,0,07.361,7361,-0.3900,-0.0400,9.0200,9.0285,0.0087,0.0000,0.0153,1.31,-0.31,287.69,-0.2393,-0.0973,9.1059,9.1095
30,3,2,4,0,07.491,7491,-0.1700,-0.1500,10.1600,10.1625,0.0065,0.0076,-0.0175,1.31,-0.31,287.63,-0.2301,-0.1043,9.2448,9.2482
30,3,2,4,0,07.621,7621,-0.2700,-0.0500,10.4000,10.4036,0.0065,0.0022,0.0000,1.31,-0.31,287.69,-0.2354,-0.0971,9.3970,9.4004
30,3,2,4,0,07.752,7752,-0.1900,-0.0800,10.0300,10.0321,-0.0033,0.0011,0.0076,1.31,-0.38,287.63,-0.2294,-0.0949,9.4804,9.4837
30,3,2,4,0,07.882,7882,-0.2000,-0.0800,9.5500,9.5524,0.0000,0.0044,-0.0076,1.31,-0.38,287.63,-0.2255,-0.0929,9.4896,9.4927
30,3,2,4,0,08.072,8072,-0.2700,-0.0900,9.7800,9.7841,-0.0022,0.0022,-0.0120,1.31,-0.38,287.63,-0.2314,-0.0925,9.5278,9.5311
30,3,2,4,0,08.203,8203,-0.3000,-0.1100,9.7900,9.7952,-0.0033,0.0022,-0.0142,1.31,-0.38,287.56,-0.2404,-0.0948,9.5624,9.5659
30,3,2,4,0,08.333,8333,-0.2100,-0.0400,9.7900,9.7923,-0.0033,0.0011,0.0109,1.31,-0.38,287.50,-0.2364,-0.0876,9.5924,9.5957
30,3,2,4,0,08.464,8464,-0.2500,-0.1800,9.9400,9.9448,-0.0033,-0.0011,-0.0218,1.31,-0.38,287.44,-0.2382,-0.0998,9.6382,9.6417
30,3,2,4,0,08.594,8594,-0.1800,-0.1100,10.0000,10.0022,0.0000,0.0022,-0.0044,1.31,-0.38,287.44,-0.2305,-0.1011,9.6859,9.6891
30,3,2,4,0,08.724,8724,-0.2300,-0.0700,10.2200,10.2228,-0.0022,0.0022,0.0033,1.31,-0.38,287.38,-0.2305,-0.0970,9.7563,9.7595
30,3,2,4,0,08.855,8855,-0.3000,-0.1200,10.0400,10.0452,-0.0011,0.0033,-0.0076,1.31,-0.38,287.38,-0.2396,-0.1001,9.7936,9.7971
30,3,2,4,0,08.985,8985,-0.2200,-0.0700,9.9900,9.9927,-0.0022,0.0044,-0.0044,1.31,-0.38,287.38,-0.2370,-0.0961,9.8195,9.8229
30,3,2,4,0,09.158,9158,-0.2000,-0.0700,9.7600,9.7623,-0.0011,0.0022,0.0011,1.31,-0.38,287.38,-0.2322,-0.0927,9.8117,9.8149
30,3,2,4,0,09.289,9289,-0.2100,-0.0800,9.8500,9.8526,0.0033,-0.0011,0.0011,1.31,-0.38,287.38,-0.2292,-0.0910,9.8167,9.8198
30,3,2,4,0,09.425,9425,-0.2500,-0.0400,9.7000,9.7033,-0.0033,-0.0044,0.0033,1.31,-0.38,287.38,-0.2320,-0.0843,9.8013,9.8045
30,3,2,4,0,09.556,9556,-0.2600,-0.1400,9.6100,9.6145,-0.0011,-0.0011,0.0011,1.31,-0.38,287.38,-0.2357,-0.0916,9.7761,9.7794
30,3,2,4,0,09.687,9687,-0.2100,-0.0500,9.7200,9.7224,-0.0022,-0.0011,0.0033,1.31,-0.38,287.38,-0.2323,-0.0861,9.7687,9.7719
30,3,2,4,0,09.817,9817,-0.3000,-0.1300,9.5900,9.5956,0.0011,0.0033,-0.0022,1.31,-0.38,287.38,-0.2412,-0.0919,9.7452,9.7486
30,3,2,4,0,09.948,9948,-0.2200,-0.1000,9.8900,9.8930,0.0000,-0.0011,-0.0055,1.31,-0.38,287.38,-0.2384,-0.0930,9.7643,9.7676
30,3,2,4,0,10.078,10078,-0.1600,-0.0700,9.7700,9.7716,0.0022,0.0000,0.0022,1.31,-0.38,287.38,-0.2281,-0.0899,9.7650,9.7681
30,3,2,4,0,10.251,10251,-0.2100,-0.0900,10.2200,10.2226,0.0011,0.0011,-0.0044,1.31,-0.38,287.38,-0.2257,-0.0900,9.8250,9.8280
30,3,2,4,0,10.381,10381,-0.2200,-0.0500,10.4100,10.4124,0.0011,0.0000,0.0011,1.31,-0.38,287.38,-0.2249,-0.0847,9.9021,9.9050
30,3,2,4,0,10.512,10512,-0.2200,-0.1600,10.7500,10.7534,0.0011,-0.0033,-0.0120,1.31,-0.38,287.31,-0.2243,-0.0946,10.0138,10.0168
30,3,2,4,0,10.643,10643,-0.3600,-0.0800,11.1500,11.1561,0.0033,-0.0055,0.0011,1.31,-0.38,287.31,-0.2422,-0.0927,10.1635,10.1668
30,3,2,4,0,10.779,10779,-0.3900,-0.1600,11.0500,11.0580,0.0044,-0.0011,0.0087,1.31,-0.38,287.38,-0.2617,-0.1016,10.2803,10.2842
30,3,2,4,0,10.910,10910,-0.0400,-0.1500,11.1100,11.1111,0.0076,-0.0044,0.0218,1.38,-0.38,287.44,-0.2324,-0.1079,10.3897,10.3928
30,3,2,4,0,11.041,11041,-0.5200,-0.3100,11.1400,11.1564,0.0065,-0.0055,0.0349,1.38,-0.38,287.63,-0.2703,-0.1346,10.4885,10.4929
30,3,2,4,0,11.171,11171,-0.2700,0.2800,10.1500,10.1575,-0.0011,0.0044,0.0327,1.38,-0.38,287.88,-0.2703,-0.0799,10.4439,10.4477
30,3,2,4,0,11.344,11344,-0.1000,0.0000,7.7300,7.7306,-0.0065,-0.0065,0.0164,1.38,-0.38,288.00,-0.2479,-0.0694,10.0863,10.0896
30,3,2,4,0,11.478,11478,-0.1700,0.0900,5.7500,5.7532,-0.0055,-0.0033,-0.0087,1.38,-0.38,287.94,-0.2376,-0.0484,9.5149,9.5180
30,3,2,4,0,11.612,11612,0.0000,0.4800,6.6600,6.6773,-0.0011,-0.0011,-0.0055,1.38,-0.38,288.00,-0.2063,0.0212,9.1387,9.1410
30,3,2,4,0,11.743,11743,-0.1500,0.1000,8.2300,8.2320,-0.0011,0.0022,0.0153,1.38,-0.38,288.00,-0.1989,0.0316,9.0189,9.0212
30,4,2,4,0,11.873,11873,-0.2600,-0.1800,9.5900,9.5952,0.0065,0.0022,-0.0284,1.38,-0.38,288.06,-0.2069,0.0037,9.0942,9.0966
30,4,2,4,0,12.004,12004,-0.1600,-0.1300,10.2200,10.2221,0.0011,0.0033,0.0153,1.38,-0.38,288.00,-0.2007,-0.0139,9.2425,9.2447
30,4,2,4,0,12.134,12134,-0.2400,-0.0700,10.0400,10.0431,0.0033,0.0011,-0.0185,1.38,-0.38,287.88,-0.2059,-0.0213,9.3476,9.3499
30,4,2,4,0,12.264,12264,-0.2200,-0.0200,9.9300,9.9325,-0.0033,0.0044,0.0011,1.38,-0.38,287.94,-0.2078,-0.0211,9.4244,9.4267
30,4,2,4,0,12.437,12437,-0.0400,0.2100,10.0300,10.0323,0.0022,0.0022,-0.0164,1.38,-0.44,287.69,-0.1857,0.0093,9.5042,9.5060
30,4,2,4,0,12.567,12567,-0.2200,0.0900,9.8400,9.8429,-0.0065,0.0000,-0.0011,1.38,-0.44,287.75,-0.1902,0.0200,9.5484,9.5503
30,4,2,4,0,12.697,12697,-0.2600,0.0000,9.9000,9.9034,0.0011,-0.0044,-0.0153,1.38,-0.44,287.56,-0.1994,0.0173,9.5948,9.5968
30,4,2,4,0,12.827,12827,-0.3000,-0.0500,10.1900,10.1945,0.0000,0.0022,-0.0153,1.38,-0.44,287.56,-0.2126,0.0085,9.6732,9.6755
30,4,2,4,0,12.957,12957,-0.3400,-0.0500,10.1100,10.1158,0.0000,0.0000,0.0044,1.38,-0.44,287.50,-0.2294,0.0008,9.7308,9.7335
30,4,2,4,0,13.087,13087,-0.2600,-0.0400,10.1000,10.1034,-0.0011,0.0011,-0.0087,1.31,-0.44,287.50,-0.2335,-0.0046,9.7794,9.7822
30,4,2,4,0,13.217,13217,-0.1500,-0.0900,9.9200,9.9215,-0.0011,0.0000,0.0055,1.31,-0.44,287.50,-0.2225,-0.0159,9.7979,9.8005
30,4,2,4,0,13.347,13347,-0.1500,-0.1700,9.8000,9.8026,0.0011,-0.0011,-0.0098,1.31,-0.44,287.50,-0.2129,-0.0362,9.7982,9.8006
30,4,2,4,0,13.520,13520,-0.2200,-0.0900,9.8300,9.8329,0.0011,-0.0022,-0.0076,1.31,-0.44,287.50,-0.2138,-0.0433,9.8024,9.8048
30,4,2,4,0,13.651,13651,-0.1600,-0.0800,9.6400,9.6417,0.0044,0.0044,-0.0022,1.31,-0.44,287.50,-0.2067,-0.0481,9.7810,9.7833
30,4,2,4,0,13.787,13787,-0.2000,-0.1000,9.8400,9.8425,0.0022,0.0000,0.0000,1.31,-0.44,287.50,-0.2059,-0.0549,9.7888,9.7911
30,4,2,4,0,13.918,13918,-0.2200,-0.0300,9.7700,9.7725,0.0000,0.0033,0.0033,1.31,-0.44,287.50,-0.2077,-0.0517,9.7863,9.7886
30,4,2,4,0,14.049,14049,-0.2600,-0.1700,9.7600,9.7649,-0.0033,-0.0011,0.0022,1.31,-0.44,287.50,-0.2146,-0.0673,9.7828,9.7854
30,4,2,4,0,14.179,14179,-0.1700,-0.0600,9.7700,9.7717,0.0000,-0.0011,-0.0011,1.31,-0.44,287.50,-0.2087,-0.0663,9.7811,9.7836
30,4,2,4,0,14.310,14310,-0.2400,-0.1000,9.6400,9.6435,0.0000,0.0000,-0.0011,1.31,-0.44,287.50,-0.2129,-0.0707,9.7625,9.7651
30,4,2,4,0,14.440,14440,-0.1900,-0.0800,9.6500,9.6522,0.0022,-0.0022,0.0000,1.31,-0.44,287.50,-0.2098,-0.0720,9.7477,9.7502
30,4,2,4,0,14.613,14613,-0.1800,-0.0500,9.8500,9.8518,0.0033,0.0000,0.0011,1.31,-0.44,287.50,-0.2059,-0.0691,9.7612,9.7636
30,4,2,4,0,14.743,14743,-0.1800,-0.1600,10.1900,10.1928,0.0011,-0.0033,0.0055,1.31,-0.44,287.50,-0.2025,-0.0810,9.8177,9.8201
30,4,2,4,0,14.877,14877,-0.1900,-0.2100,10.6200,10.6238,0.0000,-0.0022,-0.0087,1.38,-0.44,287.44,-0.2008,-0.0980,9.9234,9.9259
30,4,2,4,0,15.011,15011,-0.1900,-0.1100,11.1000,11.1022,0.0011,0.0011,0.0065,1.38,-0.44,287.44,-0.1994,-0.0996,10.0785,10.0809
30,4,2,4,0,15.142,15142,-0.2600,-0.1400,11.0300,11.0340,0.0044,0.0000,0.0109,1.38,-0.44,287.44,-0.2074,-0.1049,10.2039,10.2065
30,4,2,4,0,15.272,15272,-0.3500,-0.1500,11.0500,11.0566,0.0022,-0.0033,0.0218,1.38,-0.44,287.63,-0.2262,-0.1109,10.3154,10.3184
30,4,2,4,0,15.402,15402,-0.1200,-0.1700,11.3000,11.3019,0.0055,-0.0033,0.0284,1.38,-0.44,287.69,-0.2122,-0.1187,10.4451,10.4479
30,4,2,4,0,15.533,15533,-0.2200,0.0500,10.7400,10.7424,-0.0011,-0.0011,0.0393,1.38,-0.44,288.00,-0.2132,-0.0964,10.4840,10.4866
30,4,2,4,0,15.708,15708,-0.1900,0.0800,8.7500,8.7524,-0.0011,-0.0055,-0.0044,1.38,-0.44,288.19,-0.2102,-0.0732,10.2555,10.2579
30,4,2,4,0,15.843,15843,-0.1300,-0.1500,6.7700,6.7729,0.0011,0.0044,-0.0131,1.38,-0.44,288.19,-0.1996,-0.0833,9.7962,9.7986
30,4,2,4,0,15.974,15974,-0.3700,0.0700,5.2900,5.3034,0.0011,0.0000,0.0065,1.38,-0.44,288.25,-0.2221,-0.0631,9.2024,9.2053
30,4,2,4,0,16.104,16104,-0.1200,-0.0500,6.9700,6.9712,0.0076,0.0033,-0.0142,1.38,-0.44,288.19,-0.2086,-0.0614,8.9082,8.9109
30,4,2,4,0,16.235,16235,-0.2400,-0.1100,8.3500,8.3542,0.0033,0.0033,0.0218,1.38,-0.44,288.25,-0.2127,-0.0678,8.8346,8.8375
30,5,2,4,0,16.365,16365,-0.1300,-0.1700,10.0100,10.0123,0.0044,0.0065,-0.0371,1.38,-0.44,288.19,-0.2018,-0.0813,8.9895,8.9922
30,5,2,4,0,16.495,16495,-0.0900,0.0600,10.0100,10.0106,0.0022,0.0022,-0.0109,1.38,-0.44,288.25,-0.1871,-0.0626,9.1240,9.1261
30,5,2,4,0,16.626,16626,-0.3200,-0.1800,10.5200,10.5264,0.0022,0.0055,-0.0142,1.38,-0.44,288.06,-0.2046,-0.0781,9.3080,9.3105
30,5,2,4,0,16.799,16799,-0.1400,-0.2100,10.5800,10.5830,-0.0022,0.0055,0.0000,1.38,-0.44,287.94,-0.1961,-0.0955,9.4756,9.4781
30,5,2,4,0,16.931,16931,-0.2300,-0.1000,10.6000,10.6030,0.0000,0.0000,-0.0164,1.38,-0.44,287.88,-0.2006,-0.0961,9.6238,9.6263
30,5,2,4,0,17.066,17066,-0.1700,-0.1700,10.2700,10.2728,-0.0022,-0.0022,0.0065,1.38,-0.44,287.88,-0.1965,-0.1058,9.7089,9.7115
30,5,2,4,0,17.197,17197,-0.1500,-0.1200,10.1100,10.1118,-0.0022,0.0011,0.0000,1.38,-0.44,287.88,-0.1904,-0.1077,9.7618,9.7642
30,5,2,4,0,17.328,17328,-0.2100,-0.0900,9.8800,9.8826,-0.0044,0.0033,-0.0033,1.38,-0.44,287.88,-0.1930,-0.1054,9.7773,9.7798
30,5,2,4,0,17.458,17458,-0.2000,-0.1200,9.9000,9.9027,0.0000,-0.0011,0.0044,1.38,-0.44,287.88,-0.1939,-0.1073,9.7935,9.7960
30,5,2,4,0,17.588,17588,-0.1900,-0.0700,9.7000,9.7021,-0.0011,0.0011,0.0022,1.38,-0.44,287.88,-0.1934,-0.1024,9.7812,9.7836
30,5,2,4,0,17.719,17719,-0.1800,-0.1300,9.8700,9.8725,0.0000,0.0000,0.0000,1.38,-0.44,287.88,-0.1916,-0.1060,9.7929,9.7953
30,5,2,4,0,17.892,17892,-0.2000,-0.0900,9.7300,9.7325,0.0000,0.0022,-0.0055,1.38,-0.44,287.88,-0.1927,-0.1039,9.7846,9.7871
30,5,2,4,0,18.023,18023,-0.2000,-0.0500,9.8700,9.8722,-0.0011,-0.0011,0.0011,1.38,-0.44,287.88,-0.1937,-0.0968,9.7959,9.7982
30,5,2,4,0,18.153,18153,-0.2300,-0.1000,9.7500,9.7532,-0.0022,0.0000,0.0011,1.38,-0.44,287.88,-0.1985,-0.0972,9.7898,9.7923
30,5,2,4,0,18.286,18286,-0.2100,-0.0900,9.5900,9.5927,0.0022,-0.0022,0.0000,1.38,-0.44,287.88,-0.2000,-0.0963,9.7635,9.7660
30,5,2,4,0,18.420,18420,-0.2100,-0.1400,9.7700,9.7733,0.0000,0.0033,-0.0033,1.38,-0.44,287.88,-0.2013,-0.1020,9.7643,9.7669
30,5,2,4,0,18.551,18551,-0.1800,-0.0900,10.0000,10.0020,0.0000,0.0022,-0.0044,1.38,-0.44,287.88,-0.1985,-0.1004,9.7954,9.7979
30,5,2,4,0,18.681,18681,-0.2200,-0.1000,10.3200,10.3228,0.0022,0.0011,-0.0011,1.38,-0.44,287.88,-0.2013,-0.1004,9.8645,9.8671
30,5,2,4,0,18.812,18812,-0.3200,-0.1500,10.3800,10.3860,0.0000,-0.0011,-0.0109,1.44,-0.44,287.81,-0.2170,-0.1069,9.9325,9.9354
30,5,2,4,0,18.985,18985,-0.2900,-0.0700,10.9900,10.9940,0.0000,0.0000,-0.0055,1.44,-0.44,287.81,-0.2266,-0.1021,10.0718,10.0749
30,5,2,4,0,19.118,19118,-0.2800,-0.1100,11.0400,11.0441,0.0011,-0.0044,0.0055,1.44,-0.44,287.88,-0.2336,-0.1031,10.1994,10.2026
30,5,2,4,0,19.252,19252,-0.0700,0.1200,11.0100,11.0109,0.0011,0.0011,0.0207,1.44,-0.44,287.94,-0.2121,-0.0737,10.3062,10.3087
30,5,2,4,0,19.383,19383,-0.5200,-0.3300,10.5300,10.5480,0.0011,-0.0065,0.0044,1.44,-0.44,288.06,-0.2526,-0.1075,10.3357,10.3393
30,5,2,4,0,19.514,19514,0.0200,0.1500,10.4600,10.4611,0.0044,-0.0022,0.0273,1.44,-0.44,288.31,-0.2167,-0.0736,10.3521,10.3546
30,5,2,4,0,19.644,19644,-0.4300,-0.2700,9.5400,9.5535,-0.0065,-0.0185,0.0175,1.44,-0.44,288.50,-0.2448,-0.0994,10.2451,10.2485
30,5,2,4,0,19.775,19775,-0.2400,-0.1300,7.5600,7.5649,-0.0055,0.0000,0.0087,1.44,-0.38,288.56,-0.2442,-0.1035,9.8912,9.8948
30,5,2,4,0,19.905,19905,-0.1500,0.0900,6.3100,6.3124,-0.0076,0.0000,0.0011,1.44,-0.38,288.50,-0.2318,-0.0780,9.4193,9.4225
30,5,2,4,0,20.078,20078,-0.0600,-0.0900,7.4800,7.4808,0.0033,0.0098,-0.0120,1.44,-0.38,288.50,-0.2091,-0.0796,9.1638,9.1665
30,5,2,4,0,20.208,20208,-0.2600,-0.0600,8.5100,8.5142,0.0022,-0.0022,0.0131,1.44,-0.38,288.56,-0.2158,-0.0770,9.0776,9.0805
30,6,2,4,0,20.339,20339,-0.1400,-0.0900,9.7400,9.7414,0.0022,0.0011,-0.0240,1.44,-0.38,288.50,-0.2058,-0.0787,9.1649,9.1676
30,6,2,4,0,20.469,20469,-0.2800,-0.0300,10.5200,10.5238,0.0022,0.0000,0.0022,1.44,-0.38,288.50,-0.2156,-0.0723,9.3435,9.3462
30,6,2,4,0,20.600,20600,-0.2600,-0.0700,10.3200,10.3235,-0.0022,-0.0011,-0.0229,1.44,-0.38,288.44,-0.2215,-0.0720,9.4722,9.4750
30,6,2,4,0,20.731,20731,-0.2300,-0.1200,9.9300,9.9334,0.0033,0.0044,-0.0142,1.44,-0.38,288.38,-0.2226,-0.0783,9.5325,9.5354
30,6,2,4,0,20.861,20861,-0.2200,-0.0200,9.8500,9.8525,-0.0011,-0.0022,-0.0076,1.44,-0.38,288.31,-0.2223,-0.0706,9.5743,9.5772
30,6,2,4,0,20.997,20997,-0.2600,-0.1800,10.1000,10.1049,-0.0055,0.0022,-0.0131,1.44,-0.38,288.31,-0.2272,-0.0850,9.6436,9.6466
30,6,2,4,0,21.170,21170,-0.2300,-0.0300,10.0100,10.0127,-0.0033,0.0033,0.0033,1.44,-0.38,288.25,-0.2276,-0.0778,9.6919,9.6949
30,6,2,4,0,21.300,21300,-0.2200,-0.1500,10.1000,10.1035,-0.0022,0.0011,-0.0098,1.44,-0.38,288.19,-0.2266,-0.0873,9.7457,9.7487
30,6,2,4,0,21.430,21430,-0.2500,-0.1900,10.0600,10.0649,0.0000,0.0022,-0.0098,1.44,-0.38,288.19,-0.2297,-0.1008,9.7871,9.7903
30,6,2,4,0,21.560,21560,-0.1900,-0.0400,9.9100,9.9119,-0.0011,0.0011,0.0055,1.44,-0.38,288.19,-0.2244,-0.0928,9.8033,9.8063
30,6,2,4,0,21.690,21690,-0.2500,-0.1800,9.7800,9.7849,-0.0011,-0.0033,-0.0055,1.44,-0.38,288.19,-0.2278,-0.1043,9.8002,9.8034
30,6,2,4,0,21.820,21820,-0.2000,-0.0400,9.8000,9.8021,0.0000,0.0011,0.0022,1.44,-0.38,288.19,-0.2241,-0.0958,9.8002,9.8032
30,6,2,4,0,21.951,21951,-0.1700,-0.1600,9.8000,9.8028,-0.0044,-0.0022,0.0055,1.44,-0.38,288.19,-0.2170,-0.1043,9.8002,9.8031
30,6,2,4,0,22.081,22081,-0.2100,-0.1200,9.8500,9.8530,-0.0011,0.0011,0.0011,1.44,-0.38,288.19,-0.2161,-0.1064,9.8067,9.8097
30,6,2,4,0,22.254,22254,-0.1800,-0.0500,9.7300,9.7318,-0.0011,0.0033,0.0022,1.44,-0.38,288.19,-0.2113,-0.0989,9.7966,9.7994
30,6,2,4,0,22.385,22385,-0.1500,-0.1900,9.9000,9.9030,-0.0011,-0.0033,-0.0044,1.44,-0.38,288.19,-0.2033,-0.1109,9.8102,9.8130
30,6,2,4,0,22.515,22515,-0.2100,0.0000,9.8200,9.8222,0.0011,-0.0011,0.0000,1.44,-0.38,288.19,-0.2041,-0.0963,9.8115,9.8141
30,6,2,4,0,22.648,22648,-0.2200,-0.1200,9.7400,9.7432,-0.0011,-0.0011,-0.0022,1.44,-0.38,288.19,-0.2062,-0.0994,9.8021,9.8048
30,6,2,4,0,22.783,22783,-0.1900,-0.0400,9.9700,9.9719,0.0000,0.0000,0.0000,1.44,-0.38,288.19,-0.2041,-0.0916,9.8242,9.8268
30,6,2,4,0,22.913,22913,-0.2100,-0.0900,10.4100,10.4125,0.0011,-0.0011,-0.0022,1.44,-0.38,288.19,-0.2049,-0.0914,9.9014,9.9040
30,6,2,4,0,23.044,23044,-0.2800,-0.2300,11.0100,11.0160,-0.0022,-0.0033,-0.0065,1.50,-0.38,288.13,-0.2148,-0.1097,10.0475,10.0504
30,6,2,4,0,23.174,23174,-0.2700,-0.0700,11.5100,11.5134,-0.0011,-0.0011,0.0033,1.50,-0.38,288.13,-0.2220,-0.1044,10.2402,10.2432
30,6,2,4,0,23.347,23347,-0.3000,-0.0800,10.9600,10.9644,0.0044,-0.0076,0.0000,1.50,-0.38,288.19,-0.2323,-0.1012,10.3351,10.3382
30,6,2,4,0,23.478,23478,-0.3600,-0.2700,11.2000,11.2090,0.0087,0.0033,0.0360,1.50,-0.38,288.31,-0.2491,-0.1235,10.4490,10.4527
30,6,2,4,0,23.614,23614,-0.1400,-0.7000,11.0000,11.0231,0.0044,0.0011,0.0578,1.50,-0.38,288.56,-0.2348,-0.1994,10.5216,10.5262
30,6,2,4,0,23.746,23746,-0.1300,-0.1200,9.6200,9.6216,-0.0109,-0.0131,0.0218,1.50,-0.38,288.75,-0.2210,-0.1890,10.4028,10.4069
30,6,2,4,0,23.876,23876,-0.2000,0.0000,6.8700,6.8729,-0.0087,0.0000,0.0098,1.50,-0.38,288.81,-0.2182,-0.1641,9.9373,9.9410
30,6,2,4,0,24.006,24006,-0.0400,-0.2300,5.4800,5.4850,-0.0044,0.0065,0.0000,1.50,-0.31,288.69,-0.1947,-0.1728,9.3499,9.3536
30,6,2,4,0,24.137,24137,-0.2300,-0.1800,6.5000,6.5066,0.0011,0.0033,-0.0076,1.50,-0.31,288.75,-0.1994,-0.1737,8.9744,8.9783
30,6,2,4,0,24.267,24267,-0.3400,0.0100,8.0500,8.0572,0.0055,-0.0033,0.0196,1.50,-0.31,288.75,-0.2179,-0.1495,8.8526,8.8565
30,7,2,4,0,24.440,24440,-0.2100,-0.2800,10.3100,10.3159,0.0076,0.0055,-0.0436,1.50,-0.38,288.69,-0.2169,-0.1667,9.0446,9.0488
30,7,2,4,0,24.570,24570,-0.1600,-0.1400,10.8900,10.8921,0.0000,0.0033,-0.0022,1.50,-0.38,288.69,-0.2094,-0.1632,9.2878,9.2916
30,7,2,4,0,24.700,24700,-0.2800,-0.0500,10.2300,10.2340,-0.0022,0.0000,-0.0065,1.50,-0.38,288.56,-0.2187,-0.1483,9.4120,9.4157
30,7,2,4,0,24.831,24831,-0.1500,-0.0500,10.2400,10.2412,-0.0033,0.0044,-0.0196,1.50,-0.38,288.56,-0.2096,-0.1353,9.5211,9.5243
30,7,2,4,0,24.961,24961,-0.1300,-0.2000,10.0600,10.0628,0.0000,0.0022,0.0000,1.50,-0.38,288.38,-0.1991,-0.1438,9.5921,9.5952
30,7,2,4,0,25.091,25091,-0.2100,0.0100,9.7200,9.7223,-0.0011,0.0022,-0.0109,1.44,-0.38,288.38,-0.2006,-0.1236,9.6089,9.6118
30,7,2,4,0,25.221,25221,-0.1500,-0.1200,9.7400,9.7419,-0.0044,0.0000,-0.0033,1.44,-0.44,288.31,-0.1939,-0.1231,9.6262,9.6290
30,7,2,4,0,25.351,25351,-0.1300,-0.1500,9.8700,9.8720,-0.0033,0.0000,-0.0153,1.44,-0.44,288.25,-0.1855,-0.1266,9.6583,9.6610
30,7,2,4,0,25.524,25524,-0.3200,-0.2000,10.0900,10.0971,-0.0044,0.0055,-0.0098,1.44,-0.44,288.19,-0.2032,-0.1363,9.7152,9.7183
30,7,2,4,0,25.660,25660,-0.1200,-0.1200,9.9400,9.9414,-0.0011,0.0000,0.0055,1.44,-0.44,288.19,-0.1922,-0.1342,9.7448,9.7477
30,7,2,4,0,25.791,25791,-0.2100,-0.0300,9.9400,9.9423,-0.0022,0.0044,0.0000,1.44,-0.44,288.19,-0.1946,-0.1204,9.7706,9.7732
30,7,2,4,0,25.922,25922,-0.1300,-0.2200,9.8600,9.8633,0.0000,0.0000,-0.0044,1.44,-0.44,288.19,-0.1861,-0.1336,9.7823,9.7850
30,7,2,4,0,26.052,26052,-0.1800,-0.1200,9.5000,9.5025,0.0011,0.0000,-0.0109,1.44,-0.44,288.19,-0.1853,-0.1318,9.7451,9.7478
30,7,2,4,0,26.182,26182,-0.2700,-0.0300,9.6000,9.6038,0.0022,-0.0011,-0.0022,1.44,-0.44,288.19,-0.1964,-0.1184,9.7260,9.7287
30,7,2,4,0,26.313,26313,-0.2700,-0.1300,9.9900,9.9945,0.0044,-0.0076,-0.0033,1.44,-0.44,288.19,-0.2061,-0.1199,9.7608,9.7637
30,7,2,4,0,26.443,26443,-0.4600,-0.0400,9.7600,9.7709,0.0076,0.0033,-0.0458,1.44,-0.44,288.13,-0.2396,-0.1094,9.7607,9.7642
30,7,2,4,0,26.616,26616,0.0400,0.1000,10.3900,10.3906,-0.0011,0.0000,-0.0371,1.44,-0.50,288.25,-0.2027,-0.0818,9.8436,9.8460
30,7,2,4,0,26.747,26747,-0.2500,0.0400,10.5900,10.5930,-0.0109,-0.0011,0.0720,1.44,-0.50,288.19,-0.2090,-0.0657,9.9420,9.9444
30,7,2,4,0,26.877,26877,-0.2300,-0.1100,11.4000,11.4029,-0.0044,-0.0044,-0.0251,1.44,-0.50,288.19,-0.2117,-0.0716,10.1341,10.1366
30,7,2,4,0,27.008,27008,-0.3000,-0.3200,11.8900,11.8981,0.0055,0.0000,0.0371,1.44,-0.50,288.25,-0.2234,-0.1043,10.3655,10.3684
30,7,2,4,0,27.138,27138,0.0500,0.1100,11.4500,11.4506,0.0065,0.0044,0.0044,1.44,-0.50,288.44,-0.1873,-0.0761,10.5084,10.5103
30,7,2,4,0,27.274,27274,0.0400,0.3200,10.9600,10.9647,0.0011,-0.0065,0.0611,1.44,-0.50,288.63,-0.1574,-0.0239,10.5679,10.5691
30,7,2,4,0,27.405,27405,0.0600,-0.4400,9.8200,9.8300,-0.0022,0.0076,0.0164,1.44,-0.56,288.94,-0.1287,-0.0787,10.4694,10.4704
30,7,2,4,0,27.536,27536,-0.0600,-0.1700,7.7300,7.7321,-0.0098,-0.0022,0.0273,1.50,-0.56,289.06,-0.1197,-0.0907,10.1084,10.1095
30,7,2,4,0,27.709,27709,-0.0700,-0.0100,5.4300,5.4305,-0.0065,0.0022,0.0065,1.50,-0.50,289.00,-0.1131,-0.0801,9.4919,9.4929
30,7,2,4,0,27.842,27842,-0.2100,0.0200,6.7500,6.7533,0.0022,-0.0033,0.0076,1.50,-0.50,289.06,-0.1259,-0.0669,9.1306,9.1317
30,7,2,4,0,27.977,27977,-0.1000,-0.1200,8.1600,8.1615,0.0087,0.0022,0.0033,1.50,-0.50,289.06,-0.1225,-0.0739,9.0027,9.0038
30,8,2,4,0,28.107,28107,-0.3800,-0.3600,9.5600,9.5743,0.0120,0.0065,-0.0229,1.50,-0.56,289.13,-0.1564,-0.1116,9.0761,9.0782
30,8,2,4,0,28.238,28238,-0.2000,-0.0700,10.2200,10.2222,0.0065,0.0076,0.0153,1.50,-0.56,289.06,-0.1622,-0.1061,9.2269,9.2289
30,8,2,4,0,28.368,28368,-0.2800,-0.0500,10.2700,10.2739,-0.0044,-0.0011,-0.0142,1.50,-0.56,289.00,-0.1777,-0.0987,9.3643,9.3665
30,8,2,4,0,28.499,28499,-0.2600,0.0000,10.1000,10.1033,-0.0022,0.0044,-0.0076,1.50,-0.56,288.88,-0.1885,-0.0857,9.4613,9.4635
30,8,2,4,0,28.629,28629,-0.2600,-0.1400,10.2800,10.2842,-0.0022,0.0011,-0.0055,1.44,-0.56,288.81,-0.1980,-0.0929,9.5691,9.5716
30,8,2,4,0,28.802,28802,-0.3000,-0.1800,10.2800,10.2860,-0.0033,0.0022,-0.0055,1.44,-0.56,288.81,-0.2114,-0.1044,9.6628,9.6657
30,8,2,4,0,28.932,28932,-0.1700,-0.1500,10.0600,10.0626,0.0033,0.0022,-0.0044,1.44,-0.56,288.81,-0.2059,-0.1104,9.7152,9.7180
30,8,2,4,0,29.062,29062,-0.1800,-0.0800,9.9700,9.9719,0.0011,0.0022,0.0000,1.44,-0.56,288.81,-0.2025,-0.1064,9.7487,9.7514
30,8,2,4,0,29.192,29192,-0.2200,-0.0200,10.0100,10.0124,-0.0022,-0.0011,0.0044,1.44,-0.56,288.81,-0.2048,-0.0950,9.7832,9.7858
30,8,2,4,0,29.322,29322,-0.1900,-0.1500,9.9700,9.9729,-0.0011,0.0011,0.0022,1.44,-0.56,288.81,-0.2029,-0.1022,9.8078,9.8104
30,8,2,4,0,29.452,29452,-0.1500,-0.0800,9.7900,9.7915,-0.0011,0.0044,0.0000,1.44,-0.56,288.81,-0.1959,-0.0993,9.8054,9.8079
30,8,2,4,0,29.582,29582,-0.1900,-0.1000,9.7300,9.7324,0.0022,0.0000,-0.0055,1.44,-0.56,288.81,-0.1951,-0.0994,9.7955,9.7979
30,8,2,4,0,29.712,29712,-0.2100,-0.1000,9.8300,9.8328,-0.0011,-0.0011,0.0011,1.44,-0.56,288.81,-0.1971,-0.0995,9.8000,9.8025
30,8,2,4,0,29.885,29885,-0.2200,-0.0600,9.7600,9.7627,0.0011,0.0000,-0.0011,1.44,-0.56,288.81,-0.2001,-0.0943,9.7948,9.7973
30,8,2,4,0,30.018,30018,-0.2100,-0.0800,9.8100,9.8126,0.0000,-0.0011,0.0022,1.44,-0.56,288.81,-0.2014,-0.0924,9.7968,9.7993
30,8,2,4,0,30.153,30153,-0.2000,-0.0700,9.8000,9.8023,0.0022,-0.0011,-0.0011,1.44,-0.56,288.81,-0.2012,-0.0894,9.7972,9.7997
30,8,2,4,0,30.283,30283,-0.1900,-0.1100,9.6300,9.6325,0.0000,0.0011,0.0000,1.44,-0.56,288.81,-0.1997,-0.0922,9.7752,9.7776
30,8,2,4,0,30.414,30414,-0.2000,-0.0900,9.7900,9.7925,0.0011,-0.0022,-0.0011,1.44,-0.56,288.81,-0.1998,-0.0919,9.7771,9.7796
30,8,2,4,0,30.544,30544,-0.1900,-0.1100,10.0500,10.0524,0.0000,-0.0022,0.0022,1.44,-0.56,288.81,-0.1985,-0.0943,9.8131,9.8155
30,8,2,4,0,30.674,30674,-0.0900,-0.1500,10.4200,10.4215,0.0011,-0.0153,-0.0044,1.44,-0.56,288.81,-0.1842,-0.1016,9.8931,9.8953
30,8,2,4,0,30.805,30805,-0.2100,-0.0100,11.1100,11.1120,-0.0022,-0.0055,-0.0033,1.50,-0.56,288.75,-0.1876,-0.0895,10.0534,10.0556
30,8,2,4,0,30.978,30978,-0.2400,-0.1000,11.3900,11.3930,0.0011,0.0000,0.0087,1.50,-0.56,288.81,-0.1945,-0.0909,10.2295,10.2318
30,8,2,4,0,31.109,31109,-0.0800,-0.1300,11.7500,11.7510,0.0055,0.0011,0.0185,1.50,-0.56,288.94,-0.1794,-0.0961,10.4299,10.4319
30,8,2,4,0,31.239,31239,-0.5600,-0.2100,11.3000,11.3158,0.0022,-0.0044,0.0273,1.44,-0.56,289.13,-0.2296,-0.1111,10.5446,10.5476
30,8,2,4,0,31.370,31370,-0.3900,-0.0400,10.1800,10.1875,-0.0033,-0.0098,0.0251,1.44,-0.56,289.38,-0.2507,-0.1017,10.4965,10.5000
30,8,2,4,0,31.504,31504,-0.0600,0.1600,8.2000,8.2018,-0.0109,-0.0044,0.0098,1.50,-0.50,289.56,-0.2256,-0.0672,10.1939,10.1966
30,8,2,4,0,31.637,31637,0.0000,-0.2300,6.2800,6.2842,-0.0065,-0.0011,-0.0207,1.50,-0.50,289.56,-0.1959,-0.0887,9.6781,9.6805
30,8,2,4,0,31.768,31768,-0.0700,-0.1600,4.9500,4.9531,0.0011,0.0000,0.0076,1.50,-0.50,289.56,-0.1793,-0.0981,9.0551,9.0574
30,8,2,4,0,31.898,31898,-0.0800,0.0000,7.0900,7.0905,0.0087,0.0011,-0.0109,1.50,-0.50,289.56,-0.1662,-0.0851,8.7961,8.7981
30,9,2,4,0,32.071,32071,-0.4000,0.0900,9.3200,9.3290,0.0098,-0.0011,0.0131,1.50,-0.50,289.63,-0.1970,-0.0621,8.8652,8.8676
30,9,2,4,0,32.206,32206,-0.2000,-0.0500,10.5900,10.5920,0.0065,0.0087,0.0120,1.50,-0.50,289.50,-0.1974,-0.0605,9.0925,9.0948
30,9,2,4,0,32.339,32339,-0.2600,-0.1700,10.7700,10.7745,-0.0055,0.0000,-0.0196,1.50,-0.50,289.44,-0.2056,-0.0749,9.3135,9.3161
30,9,2,4,0,32.469,32469,-0.1300,-0.2200,10.8500,10.8530,-0.0011,-0.0044,-0.0098,1.44,-0.56,289.31,-0.1957,-0.0940,9.5160,9.5185
30,9,2,4,0,32.600,32600,-0.2500,-0.0700,10.1500,10.1533,-0.0022,0.0033,-0.0098,1.44,-0.56,289.25,-0.2028,-0.0909,9.5995,9.6021
30,9,2,4,0,32.730,32730,-0.2600,-0.1300,10.3200,10.3241,-0.0022,0.0022,0.0000,1.44,-0.56,289.19,-0.2104,-0.0960,9.6945,9.6972
30,9,2,4,0,32.861,32861,-0.2000,-0.0900,10.1800,10.1824,-0.0022,0.0011,-0.0087,1.44,-0.56,289.19,-0.2090,-0.0952,9.7585,9.7612
30,9,2,4,0,32.991,32991,-0.1900,-0.0900,9.9300,9.9322,-0.0011,0.0011,0.0011,1.44,-0.56,289.19,-0.2065,-0.0945,9.7811,9.7837
30,9,2,4,0,33.164,33164,-0.2200,-0.1000,10.1000,10.1029,0.0000,0.0011,0.0011,1.44,-0.56,289.19,-0.2083,-0.0953,9.8231,9.8258
30,9,2,4,0,33.294,33294,-0.2100,-0.0800,9.9200,9.9225,0.0000,0.0022,0.0033,1.44,-0.56,289.19,-0.2085,-0.0932,9.8359,9.8385
30,9,2,4,0,33.424,33424,-0.2000,-0.1500,9.7400,9.7432,0.0011,0.0011,0.0011,1.44,-0.56,289.19,-0.2074,-0.1007,9.8232,9.8259
30,9,2,4,0,33.554,33554,-0.2000,-0.0600,9.8300,9.8322,0.0011,0.0000,-0.0022,1.44,-0.56,289.19,-0.2064,-0.0954,9.8241,9.8268
30,9,2,4,0,33.684,33684,-0.2200,-0.1400,9.6000,9.6035,0.0000,0.0022,0.0044,1.44,-0.56,289.19,-0.2082,-0.1012,9.7946,9.7973
30,9,2,4,0,33.814,33814,-0.1900,-0.1000,9.8600,9.8623,0.0022,-0.0011,-0.0055,1.44,-0.56,289.19,-0.2058,-0.1011,9.8032,9.8059
30,9,2,4,0,33.944,33944,-0.2400,-0.0900,9.9100,9.9133,-0.0011,-0.0022,0.0011,1.44,-0.56,289.19,-0.2103,-0.0996,9.8173,9.8200
30,9,2,4,0,34.074,34074,-0.2200,-0.1100,9.6700,9.6731,-0.0011,0.0022,0.0011,1.44,-0.56,289.19,-0.2116,-0.1010,9.7979,9.8007
30,9,2,4,0,34.247,34247,-0.2100,-0.1100,9.7100,9.7129,0.0000,0.0000,0.0000,1.44,-0.56,289.19,-0.2114,-0.1022,9.7863,9.7891
30,9,2,4,0,34.378,34378,-0.2100,-0.0500,9.5800,9.5824,0.0000,-0.0011,0.0055,1.44,-0.56,289.19,-0.2112,-0.0953,9.7591,9.7619
30,9,2,4,0,34.512,34512,-0.2200,-0.0900,9.8200,9.8229,-0.0011,0.0000,-0.0011,1.44,-0.56,289.19,-0.2124,-0.0946,9.7671,9.7699
30,9,2,4,0,34.645,34645,-0.2100,-0.0900,10.0500,10.0526,-0.0011,0.0000,-0.0011,1.44,-0.56,289.19,-0.2120,-0.0940,9.8044,9.8072
30,9,2,4,0,34.776,34776,-0.0700,-0.0700,10.1700,10.1705,0.0011,-0.0065,-0.0011,1.44,-0.56,289.19,-0.1933,-0.0908,9.8526,9.8549
30,9,2,4,0,34.906,34906,-0.2000,-0.1300,11.1100,11.1126,0.0022,0.0011,0.0033,1.44,-0.56,289.13,-0.1942,-0.0960,10.0183,10.0206
30,9,2,4,0,35.037,35037,-0.2300,-0.1100,11.6200,11.6228,0.0022,0.0000,0.0076,1.44,-0.56,289.13,-0.1989,-0.0978,10.2293,10.2317
30,9,2,4,0,35.167,35167,-0.1500,-0.0100,11.4800,11.4810,0.0000,-0.0011,0.0120,1.44,-0.56,289.19,-0.1925,-0.0863,10.3941,10.3963
30,9,2,4,0,35.340,35340,-0.2300,-0.0400,11.4600,11.4624,0.0044,0.0000,0.0436,1.44,-0.56,289.44,-0.1974,-0.0802,10.5346,10.5368
30,9,2,4,0,35.471,35471,-0.2100,-0.3700,10.4000,10.4087,0.0011,-0.0065,0.0338,1.50,-0.50,289.69,-0.1991,-0.1184,10.5169,10.5194
30,9,2,4,0,35.601,35601,-0.3800,-0.9100,8.3300,8.3882,-0.0011,-0.0098,0.0044,1.50,-0.50,289.88,-0.2229,-0.2227,10.2287,10.2335
30,9,2,4,0,35.732,35732,-0.2700,-0.1800,6.4400,6.4482,-0.0065,0.0076,-0.0229,1.50,-0.50,289.88,-0.2291,-0.2171,9.7294,9.7346
30,9,2,4,0,35.864,35864,-0.1500,-0.0700,5.2000,5.2026,0.0000,0.0011,0.0109,1.50,-0.50,289.88,-0.2187,-0.1977,9.1326,9.1373
30,9,2,4,0,35.999,35999,0.0000,0.2400,6.9000,6.9042,-0.0033,0.0000,-0.0076,1.50,-0.50,289.88,-0.1899,-0.1400,8.8384,8.8415
30,9,2,4,0,36.129,36129,-0.1300,-0.2600,8.3500,8.3551,0.0022,0.0022,0.0262,1.50,-0.50,289.88,-0.1820,-0.1558,8.7740,8.7773
30,10,2,4,0,36.260,36260,-0.2200,-0.2500,10.0500,10.0555,0.0076,0.0065,-0.0447,1.50,-0.50,289.88,-0.1870,-0.1682,8.9422,8.9457
30,10,2,4,0,36.433,36433,-0.3200,-0.2100,10.6100,10.6169,0.0000,0.0011,-0.0131,1.50,-0.50,289.81,-0.2045,-0.1737,9.1619,9.1659
30,10,2,4,0,36.564,36564,-0.2300,-0.0900,10.1200,10.1230,-0.0011,0.0065,-0.0175,1.50,-0.50,289.69,-0.2079,-0.1627,9.2882,9.2919
30,10,2,4,0,36.700,36700,-0.1900,-0.2000,10.3300,10.3337,-0.0022,-0.0022,-0.0251,1.50,-0.50,289.56,-0.2055,-0.1676,9.4255,9.4292
30,10,2,4,0,36.832,36832,-0.2100,-0.0500,10.0100,10.0123,0.0000,0.0011,0.0011,1.50,-0.50,289.50,-0.2061,-0.1521,9.5025,9.5060
30,10,2,4,0,36.962,36962,-0.2700,-0.1400,10.0700,10.0746,-0.0022,0.0022,-0.0065,1.50,-0.50,289.50,-0.2145,-0.1505,9.5773,9.5809
30,10,2,4,0,37.093,37093,-0.1700,-0.1400,10.3000,10.3024,-0.0022,0.0044,0.0076,1.50,-0.50,289.50,-0.2087,-0.1491,9.6725,9.6759
30,10,2,4,0,37.223,37223,-0.1900,-0.1000,10.0300,10.0323,0.0011,0.0022,-0.0076,1.50,-0.50,289.50,-0.2062,-0.1427,9.7196,9.7229
30,10,2,4,0,37.353,37353,-0.2300,-0.0600,9.8900,9.8929,0.0033,0.0011,-0.0055,1.50,-0.50,289.50,-0.2093,-0.1318,9.7421,9.7452
30,10,2,4,0,37.526,37526,-0.2000,-0.0700,9.8300,9.8323,0.0011,0.0000,-0.0044,1.50,-0.50,289.50,-0.2081,-0.1236,9.7537,9.7567
30,10,2,4,0,37.656,37656,-0.1700,-0.0800,9.7600,9.7618,-0.0022,0.0022,-0.0011,1.50,-0.50,289.50,-0.2031,-0.1179,9.7545,9.7573
30,10,2,4,0,37.786,37786,-0.1700,-0.0900,9.6500,9.6519,-0.0022,-0.0022,-0.0011,1.50,-0.50,289.50,-0.1987,-0.1142,9.7407,9.7434
30,10,2,4,0,37.916,37916,-0.2200,-0.1000,9.7600,9.7630,0.0000,0.0076,0.0011,1.50,-0.50,289.50,-0.2015,-0.1123,9.7433,9.7460
30,10,2,4,0,38.046,38046,-0.1900,-0.1200,9.8500,9.8526,0.0022,-0.0011,0.0000,1.50,-0.50,289.50,-0.2000,-0.1133,9.7573,9.7600
30,10,2,4,0,38.176,38176,-0.1900,-0.0900,9.8800,9.8822,0.0022,-0.0011,-0.0022,1.50,-0.50,289.50,-0.1987,-0.1103,9.7735,9.7761
30,10,2,4,0,38.306,38306,-0.2000,-0.0500,9.7400,9.7422,0.0011,-0.0011,0.0000,1.50,-0.50,289.50,-0.1989,-0.1023,9.7691,9.7716
30,10,2,4,0,38.436,38436,-0.2100,-0.1000,9.8500,9.8527,0.0011,0.0000,0.0000,1.50,-0.50,289.50,-0.2003,-0.1020,9.7797,9.7823
30,10,2,4,0,38.609,38609,-0.1900,-0.0700,10.3700,10.3720,0.0000,-0.0011,0.0000,1.50,-0.50,289.50,-0.1990,-0.0978,9.8575,9.8600
30,10,2,4,0,38.742,38742,-0.3600,-0.0400,10.9500,10.9560,-0.0055,-0.0033,-0.0087,1.56,-0.50,289.44,-0.2202,-0.0902,10.0015,10.0043
30,10,2,4,0,38.877,38877,-0.2300,-0.0700,11.5500,11.5525,-0.0011,0.0044,0.0142,1.56,-0.50,289.44,-0.2215,-0.0875,10.2055,10.2083
30,10,2,4,0,39.008,39008,-0.2400,-0.1200,11.5600,11.5631,-0.0011,-0.0011,0.0022,1.56,-0.50,289.44,-0.2239,-0.0918,10.3840,10.3868
30,10,2,4,0,39.138,39138,-0.4700,0.0000,11.8700,11.8793,0.0000,0.0000,0.0229,1.56,-0.50,289.56,-0.2563,-0.0797,10.5798,10.5832
30,10,2,4,0,39.269,39269,-0.7900,-0.5900,11.1000,11.1437,0.0076,-0.0055,0.0502,1.56,-0.50,289.81,-0.3267,-0.1469,10.6484,10.6544
30,10,2,4,0,39.399,39399,0.4500,0.4100,9.2500,9.2700,0.0000,0.0109,0.0022,1.50,-0.50,290.06,-0.2243,-0.0736,10.4641,10.4668
30,10,2,4,0,39.530,39530,-0.0300,-0.6600,7.0800,7.1108,-0.0033,-0.0033,0.0196,1.56,-0.50,290.19,-0.1987,-0.1508,10.0182,10.0213
30,10,2,4,0,39.702,39702,0.0900,-0.1000,5.3000,5.3017,-0.0065,0.0087,-0.0098,1.56,-0.44,290.19,-0.1607,-0.1441,9.3964,9.3989
30,10,2,4,0,39.833,39833,-0.1900,0.0600,6.8200,6.8229,0.0076,0.0011,-0.0087,1.56,-0.44,290.19,-0.1645,-0.1172,9.0569,9.0592
30,10,2,4,0,39.963,39963,-0.1200,0.0500,8.3600,8.3610,0.0000,0.0000,0.0131,1.56,-0.44,290.19,-0.1587,-0.0952,8.9651,8.9670
30,10,2,4,0,40.097,40097,-0.2700,-0.2200,9.9000,9.9061,0.0065,0.0055,-0.0218,1.56,-0.44,290.13,-0.1733,-0.1116,9.0883,9.0906
30,10,2,4,0,40.231,40231,-0.1500,0.0200,10.5700,10.5711,0.0011,0.0055,-0.0044,1.56,-0.44,290.13,-0.1703,-0.0943,9.2835,9.2856
30,10,2,4,0,40.362,40362,-0.3600,-0.1500,10.7300,10.7371,-0.0044,0.0022,-0.0120,1.56,-0.44,290.00,-0.1953,-0.1016,9.4741,9.4767
30,10,2,4,0,40.492,40492,-0.2700,-0.0800,10.4000,10.4038,-0.0011,0.0087,-0.0142,1.56,-0.44,289.94,-0.2051,-0.0988,9.5962,9.5989
30,10,2,4,0,40.622,40622,-0.2500,-0.1700,9.8800,9.8846,-0.0022,0.0000,0.0011,1.56,-0.44,289.88,-0.2110,-0.1082,9.6336,9.6365
30,10,2,4,0,40.795,40795,-0.2100,-0.0700,9.7900,9.7925,-0.0022,0.0044,-0.0055,1.56,-0.44,289.81,-0.2109,-0.1031,9.6542,9.6570
