participant,rep,equipment_code,exercise_code,quality_code,timestamp,timestamp_ms,accelX,accelY,accelZ,accelMag,gyroX,gyroY,gyroZ,roll,pitch,yaw,filteredX,filteredY,filteredZ,filteredMag
1,1,2,5,0,00.000,0,-0.3900,-0.1800,9.6400,9.6496,0.0011,0.0000,0.0011,2.13,-0.63,291.19,-0.4006,-0.1185,9.7511,9.7600
1,1,2,5,0,00.173,173,-0.3500,-0.1700,9.8300,9.8377,-0.0033,0.0022,0.0000,2.13,-0.63,291.19,-0.3939,-0.1252,9.7615,9.7702
1,1,2,5,0,00.307,307,-0.3900,-0.1300,9.4700,9.4789,0.0022,0.0022,0.0000,2.13,-0.63,291.19,-0.3934,-0.1259,9.7231,9.7318
1,1,2,5,0,00.441,441,-0.4000,-0.1500,9.8000,9.8093,0.0033,-0.0022,0.0033,2.13,-0.63,291.19,-0.3943,-0.1291,9.7332,9.7420
1,1,2,5,0,00.571,571,-0.1700,0.0800,9.5800,9.5818,0.0022,0.0011,-0.0142,2.13,-0.63,291.19,-0.3647,-0.1015,9.7130,9.7204
1,1,2,5,0,00.702,702,-0.4000,-0.1300,10.2200,10.2287,0.0055,-0.0065,0.0000,2.19,-0.69,291.19,-0.3694,-0.1053,9.7798,9.7874
1,1,2,5,0,00.832,832,-0.3500,-0.1300,10.0400,10.0469,0.0044,-0.0011,0.0000,2.19,-0.69,291.19,-0.3668,-0.1085,9.8141,9.8216
1,1,2,5,0,00.962,962,-0.2900,-0.1800,9.6600,9.6660,-0.0044,-0.0022,0.0044,2.19,-0.69,291.19,-0.3567,-0.1179,9.7938,9.8010
1,1,2,5,0,01.093,1093,-0.4700,-0.0900,9.8900,9.9016,0.0109,0.0022,0.0022,2.19,-0.69,291.19,-0.3716,-0.1143,9.8065,9.8142
1,1,2,5,0,01.266,1266,-0.4100,-0.0700,9.8100,9.8188,0.0011,0.0120,0.0011,2.19,-0.69,291.19,-0.3767,-0.1084,9.8069,9.8148
1,1,2,5,0,01.397,1397,-0.4800,-0.0500,9.6900,9.7020,0.0044,-0.0065,0.0033,2.13,-0.75,291.19,-0.3903,-0.1007,9.7915,9.7998
1,1,2,5,0,01.527,1527,-0.4300,-0.1300,9.7400,9.7504,-0.0087,0.0000,-0.0076,2.13,-0.75,291.19,-0.3955,-0.1046,9.7847,9.7933
1,1,2,5,0,01.663,1663,-0.3100,-0.2300,9.6600,9.6677,0.0022,-0.0044,-0.0055,2.13,-0.75,291.19,-0.3843,-0.1211,9.7683,9.7766
1,1,2,5,0,01.795,1795,-0.3400,-0.1800,9.6100,9.6177,0.0044,-0.0022,-0.0033,2.13,-0.75,291.19,-0.3784,-0.1289,9.7474,9.7556
1,1,2,5,0,01.925,1925,-0.3700,-0.1800,9.0900,9.0993,-0.0011,0.0011,0.0065,2.13,-0.75,291.19,-0.3773,-0.1356,9.6608,9.6691
1,1,2,5,0,02.055,2055,-0.4200,-0.1900,9.3500,9.3614,-0.0033,0.0022,0.0087,2.13,-0.75,291.19,-0.3829,-0.1428,9.6199,9.6285
1,1,2,5,0,02.186,2186,-0.4300,-0.1200,9.6100,9.6204,0.0000,-0.0022,-0.0076,2.13,-0.75,291.19,-0.3891,-0.1398,9.6186,9.6274
1,1,2,5,0,02.358,2358,-0.2900,-0.1800,10.0300,10.0358,0.0011,0.0033,-0.0055,2.13,-0.69,291.19,-0.3761,-0.1451,9.6728,9.6812
1,1,2,5,0,02.489,2489,-0.3300,-0.1200,10.0200,10.0262,-0.0022,0.0022,-0.0022,2.13,-0.69,291.19,-0.3700,-0.1418,9.7185,9.7266
1,1,2,5,0,02.621,2621,-0.3900,-0.1800,9.7200,9.7295,0.0000,-0.0055,-0.0022,2.19,-0.69,291.19,-0.3726,-0.1468,9.7187,9.7270
1,1,2,5,0,02.751,2751,-0.4100,-0.1600,9.7300,9.7399,0.0000,-0.0011,-0.0011,2.19,-0.69,291.19,-0.3776,-0.1485,9.7202,9.7287
1,1,2,5,0,02.884,2884,-0.3700,-0.1700,9.8500,9.8584,-0.0011,0.0044,0.0011,2.19,-0.69,291.19,-0.3766,-0.1514,9.7373,9.7458
1,1,2,5,0,03.017,3017,-0.4300,-0.1000,9.7700,9.7800,-0.0055,-0.0011,-0.0033,2.19,-0.69,291.19,-0.3836,-0.1446,9.7416,9.7502
1,1,2,5,0,03.148,3148,-0.3800,-0.1400,9.9300,9.9383,0.0011,0.0033,-0.0033,2.19,-0.69,291.19,-0.3831,-0.1440,9.7664,9.7750
1,1,2,5,0,03.278,3278,-0.2800,-0.1400,9.8700,9.8750,0.0000,0.0033,0.0000,2.19,-0.69,291.19,-0.3695,-0.1435,9.7801,9.7881
1,1,2,5,0,03.451,3451,-0.4200,-0.1300,9.6800,9.6900,0.0022,-0.0011,0.0022,2.19,-0.69,291.19,-0.3762,-0.1417,9.7669,9.7752
1,1,2,5,0,03.581,3581,-0.4300,-0.1300,10.1600,10.1699,0.0033,-0.0011,0.0011,2.19,-0.69,291.19,-0.3833,-0.1402,9.8187,9.8272
1,1,2,5,0,03.711,3711,-0.3600,-0.1500,10.3300,10.3374,0.0033,-0.0055,0.0022,2.19,-0.69,291.19,-0.3802,-0.1415,9.8861,9.8944
1,1,2,5,0,03.841,3841,-0.4000,-0.1100,10.0800,10.0885,0.0065,-0.0044,0.0065,2.19,-0.69,291.19,-0.3828,-0.1373,9.9116,9.9200
1,1,2,5,0,03.971,3971,-0.4000,-0.1300,9.7100,9.7191,0.0087,-0.0098,0.0000,2.19,-0.69,291.19,-0.3851,-0.1363,9.8851,9.8935
1,1,2,5,0,04.101,4101,-0.3700,-0.0800,9.6700,9.6774,-0.0033,0.0000,0.0022,2.19,-0.69,291.19,-0.3831,-0.1289,9.8567,9.8650
1,1,2,5,0,04.231,4231,-0.3700,-0.1500,9.6900,9.6982,0.0044,0.0033,-0.0011,2.19,-0.69,291.19,-0.3814,-0.1317,9.8348,9.8430
1,1,2,5,0,04.361,4361,-0.2800,-0.2100,9.8000,9.8062,0.0000,0.0011,-0.0022,2.13,-0.69,291.19,-0.3680,-0.1420,9.8302,9.8381
1,1,2,5,0,04.534,4534,-0.3600,-0.2000,9.7600,9.7687,0.0055,-0.0022,0.0033,2.13,-0.69,291.19,-0.3670,-0.1497,9.8209,9.8289
1,1,2,5,0,04.664,4664,-0.2700,-0.3400,9.5000,9.5099,0.0120,-0.0120,0.0022,2.13,-0.69,291.19,-0.3542,-0.1747,9.7786,9.7866
1,1,2,5,0,04.795,4795,-0.3600,-0.2600,9.1200,9.1308,0.0011,-0.0011,-0.0044,2.13,-0.69,291.19,-0.3549,-0.1860,9.6918,9.7001
1,1,2,5,0,04.929,4929,-0.3200,-0.1600,9.1200,9.1270,0.0000,0.0033,0.0033,2.13,-0.69,291.19,-0.3503,-0.1826,9.6165,9.6246
1,1,2,5,0,05.063,5063,-0.4000,-0.1800,9.3100,9.3203,-0.0022,0.0022,-0.0109,2.13,-0.69,291.19,-0.3569,-0.1822,9.5761,9.5845
1,1,2,5,0,05.194,5194,-0.5000,-0.0900,9.6200,9.6334,0.0011,0.0033,0.0109,2.13,-0.69,291.19,-0.3757,-0.1701,9.5819,9.5908
1,1,2,5,0,05.324,5324,-0.3600,-0.1400,10.0000,10.0075,-0.0065,0.0098,-0.0076,2.13,-0.69,291.19,-0.3737,-0.1661,9.6370,9.6457
1,1,2,5,0,05.454,5454,-0.4400,-0.1500,10.0200,10.0308,0.0022,-0.0098,0.0000,2.13,-0.63,291.19,-0.3824,-0.1640,9.6875,9.6964
1,1,2,5,0,05.627,5627,-0.4500,-0.1800,9.6400,9.6522,-0.0022,0.0022,-0.0022,2.13,-0.63,291.19,-0.3913,-0.1661,9.6812,9.6905
1,1,2,5,0,05.757,5757,-0.3300,-0.2400,9.6500,9.6586,-0.0044,0.0022,0.0000,2.13,-0.63,291.19,-0.3832,-0.1758,9.6771,9.6863
1,1,2,5,0,05.887,5887,-0.3200,-0.1300,9.7700,9.7761,-0.0055,0.0011,-0.0011,2.13,-0.63,291.19,-0.3749,-0.1698,9.6893,9.6981
1,1,2,5,0,06.017,6017,-0.4600,-0.1600,9.7000,9.7122,-0.0065,0.0022,0.0000,2.13,-0.63,291.19,-0.3861,-0.1685,9.6907,9.6999
1,1,2,5,0,06.147,6147,-0.4400,-0.1000,9.5900,9.6006,-0.0033,0.0022,-0.0098,2.13,-0.63,291.19,-0.3932,-0.1595,9.6775,9.6868
1,1,2,5,0,06.277,6277,-0.4200,-0.1500,9.7000,9.7102,0.0022,0.0011,0.0011,2.13,-0.63,291.19,-0.3967,-0.1582,9.6804,9.6899
1,1,2,5,0,06.407,6407,-0.3900,-0.1200,10.0900,10.0982,0.0044,0.0033,0.0000,2.13,-0.63,291.19,-0.3959,-0.1532,9.7344,9.7437
1,1,2,5,0,06.537,6537,-0.3600,-0.1900,10.0700,10.0782,0.0044,0.0022,0.0011,2.13,-0.63,291.19,-0.3911,-0.1580,9.7786,9.7877
1,1,2,5,0,06.710,6710,-0.3400,-0.1500,10.1500,10.1568,0.0055,-0.0011,0.0011,2.13,-0.63,291.19,-0.3844,-0.1570,9.8276,9.8363
1,1,2,5,0,06.840,6840,-0.3800,-0.0900,10.1400,10.1475,0.0000,-0.0044,0.0033,2.13,-0.63,291.19,-0.3838,-0.1482,9.8687,9.8773
1,1,2,5,0,06.970,6970,-0.4400,-0.0700,10.1300,10.1398,0.0000,0.0033,0.0055,2.13,-0.69,291.19,-0.3912,-0.1379,9.9032,9.9118
1,1,2,5,0,07.100,7100,-0.3000,-0.2000,9.8200,9.8266,0.0055,0.0000,0.0044,2.13,-0.75,291.19,-0.3792,-0.1460,9.8922,9.9005
1,1,2,5,0,07.230,7230,-0.4200,-0.1800,9.7900,9.8007,0.0131,-0.0065,0.0044,2.13,-0.75,291.19,-0.3846,-0.1505,9.8787,9.8874
1,1,2,5,0,07.360,7360,-0.4000,-0.1300,9.9300,9.9389,0.0196,0.0098,0.0033,2.13,-0.81,291.19,-0.3866,-0.1478,9.8855,9.8942
1,1,2,5,0,07.490,7490,-0.2500,-0.2300,9.9300,9.9358,0.0076,-0.0087,0.0044,2.13,-0.81,291.19,-0.3686,-0.1586,9.8914,9.8995
1,1,2,5,0,07.620,7620,-0.2500,-0.2900,9.6200,9.6276,0.0065,-0.0142,-0.0033,2.13,-0.81,291.19,-0.3530,-0.1760,9.8556,9.8635
1,1,2,5,0,07.793,7793,-0.4000,-0.0900,9.0200,9.0293,0.0022,0.0000,0.0033,2.13,-0.88,291.19,-0.3592,-0.1646,9.7455,9.7535
1,1,2,5,0,07.927,7927,-0.4800,-0.2100,8.4700,8.4862,-0.0022,0.0011,0.0011,2.13,-0.88,291.19,-0.3751,-0.1706,9.5774,9.5863
1,1,2,5,0,08.061,8061,-0.4200,-0.2500,9.3400,9.3528,0.0055,0.0022,0.0065,2.13,-0.88,291.19,-0.3810,-0.1811,9.5461,9.5554
1,1,2,5,0,08.192,8192,-0.4900,-0.1500,10.0300,10.0431,0.0044,0.0196,-0.0022,2.13,-0.88,291.19,-0.3954,-0.1770,9.6099,9.6196
1,1,2,5,0,08.322,8322,-0.4100,-0.0800,10.2900,10.2985,-0.0022,-0.0207,-0.0022,2.13,-0.81,291.19,-0.3973,-0.1642,9.6995,9.7090
1,1,2,5,0,08.452,8452,-0.4300,-0.1100,10.1500,10.1597,-0.0022,0.0065,-0.0022,2.13,-0.81,291.19,-0.4016,-0.1571,9.7589,9.7684
1,1,2,5,0,08.583,8583,-0.2800,-0.1400,10.0300,10.0349,-0.0011,0.0033,0.0000,2.13,-0.81,291.19,-0.3856,-0.1548,9.7946,9.8034
1,1,2,5,0,08.713,8713,-0.2600,-0.1500,9.9500,9.9545,0.0044,0.0011,-0.0055,2.13,-0.81,291.19,-0.3690,-0.1542,9.8151,9.8232
1,1,2,5,0,08.886,8886,-0.5100,-0.0700,9.8100,9.8235,-0.0055,0.0033,-0.0033,2.13,-0.81,291.19,-0.3876,-0.1431,9.8144,9.8231
1,1,2,5,0,09.017,9017,-0.3900,-0.1400,9.9300,9.9386,0.0055,0.0044,-0.0011,2.13,-0.88,291.19,-0.3879,-0.1427,9.8296,9.8383
1,1,2,5,0,09.147,9147,-0.5300,-0.1200,9.9800,9.9948,0.0022,0.0055,0.0044,2.13,-0.88,291.19,-0.4066,-0.1397,9.8495,9.8588
1,1,2,5,0,09.283,9283,-0.2800,-0.2400,8.8000,8.8077,0.0153,0.0120,0.0098,2.19,-0.88,291.25,-0.3900,-0.1529,9.7112,9.7202
1,1,2,5,0,09.415,9415,-0.2500,-0.1800,10.0700,10.0747,-0.0033,0.0033,-0.0011,2.19,-0.88,291.25,-0.3715,-0.1565,9.7584,9.7668
1,1,2,5,0,09.545,9545,-0.5100,-0.7800,10.1300,10.1728,0.0905,-0.0404,0.0818,2.19,-0.94,291.38,-0.3898,-0.2386,9.8074,9.8181
1,1,2,5,0,09.676,9676,-0.5200,0.0000,10.3100,10.3231,-0.0087,0.0033,-0.0098,2.19,-0.88,291.38,-0.4069,-0.2072,9.8736,9.8842
1,1,2,5,0,09.806,9806,-0.3200,-0.2800,9.7200,9.7293,0.0109,0.0087,0.0131,2.19,-0.94,291.38,-0.3955,-0.2168,9.8534,9.8637
1,1,2,5,0,09.979,9979,-0.4200,-0.1200,9.6700,9.6799,0.0055,-0.0044,0.0044,2.19,-1.00,291.38,-0.3987,-0.2040,9.8292,9.8394
1,1,2,5,0,10.111,10111,-0.4000,-0.0800,9.8300,9.8385,0.0109,0.0044,0.0011,2.19,-1.00,291.38,-0.3989,-0.1877,9.8293,9.8392
1,1,2,5,0,10.246,10246,-0.3300,-0.2400,9.8200,9.8285,0.0120,-0.0076,0.0055,2.13,-1.00,291.38,-0.3898,-0.1946,9.8281,9.8378
1,1,2,5,0,10.377,10377,-0.3700,-0.2200,9.6600,9.6696,0.0044,-0.0044,0.0011,2.13,-1.06,291.38,-0.3872,-0.1979,9.8059,9.8156
1,1,2,5,0,10.508,10508,-0.4000,-0.1900,9.6500,9.6602,-0.0011,-0.0022,0.0065,2.19,-1.06,291.38,-0.3889,-0.1969,9.7854,9.7951
1,1,2,5,0,10.638,10638,-0.4800,-0.2500,9.3700,9.3856,-0.0011,0.0000,-0.0011,2.19,-1.06,291.38,-0.4009,-0.2039,9.7307,9.7410
1,1,2,5,0,10.769,10769,-0.3200,-0.0400,8.8100,8.8159,0.0065,0.0022,-0.0011,2.13,-1.06,291.38,-0.3902,-0.1823,9.6093,9.6190
1,1,2,5,0,10.899,10899,-0.3000,-0.1300,9.4100,9.4157,0.0055,-0.0022,0.0055,2.13,-1.06,291.38,-0.3783,-0.1754,9.5831,9.5921
1,1,2,5,0,11.072,11072,-0.2100,-0.1900,9.5500,9.5542,0.0000,0.0131,0.0022,2.13,-1.06,291.44,-0.3562,-0.1773,9.5787,9.5870
1,1,2,5,0,11.202,11202,-0.4400,-0.1700,10.0700,10.0810,0.0076,0.0044,-0.0033,2.13,-1.06,291.44,-0.3672,-0.1764,9.6435,9.6521
1,1,2,5,0,11.333,11333,-0.3600,-0.1000,9.8900,9.8971,-0.0175,-0.0251,-0.0011,2.13,-1.06,291.44,-0.3663,-0.1663,9.6759,9.6843
1,1,2,5,0,11.463,11463,-0.4000,-0.1000,10.0500,10.0585,-0.0262,0.0153,-0.0011,2.19,-1.06,291.44,-0.3707,-0.1576,9.7252,9.7336
1,1,2,5,0,11.597,11597,-0.3500,-0.2500,10.0600,10.0692,0.0076,-0.0033,-0.0109,2.19,-1.06,291.44,-0.3680,-0.1697,9.7693,9.7777
1,1,2,5,0,11.729,11729,-0.3000,-0.1800,10.3500,10.3559,0.0087,0.0000,0.0022,2.19,-1.06,291.44,-0.3590,-0.1711,9.8459,9.8539
1,1,2,5,0,11.861,11861,-0.4100,-0.1200,9.2000,9.2099,-0.0022,-0.0022,0.0098,2.19,-1.06,291.44,-0.3657,-0.1644,9.7608,9.7690
1,1,2,5,0,11.992,11992,-0.4100,-0.2100,9.2100,9.2215,0.0011,0.0044,-0.0033,2.19,-1.06,291.44,-0.3716,-0.1704,9.6882,9.6968
1,1,2,5,0,12.164,12164,-0.3300,-0.1300,9.9200,9.9263,-0.0065,0.0000,0.0011,2.19,-1.06,291.44,-0.3661,-0.1651,9.7187,9.7270
1,1,2,5,0,12.294,12294,-0.3400,-0.1800,10.1300,10.1373,0.0033,0.0011,0.0011,2.19,-1.06,291.44,-0.3627,-0.1670,9.7729,9.7811
1,1,2,5,0,12.424,12424,-0.4200,-0.1300,9.9000,9.9098,0.0044,0.0000,0.0000,2.19,-1.06,291.44,-0.3702,-0.1621,9.7897,9.7980
1,1,2,5,0,12.554,12554,-0.4000,-0.1000,9.7500,9.7587,-0.0033,0.0022,0.0076,2.19,-1.06,291.44,-0.3741,-0.1540,9.7844,9.7928
1,1,2,5,0,12.684,12684,-0.4000,-0.1300,10.3300,10.3386,0.0044,-0.0011,-0.0033,2.19,-1.06,291.44,-0.3775,-0.1508,9.8563,9.8647
1,1,2,5,0,12.814,12814,-0.3900,-0.1200,10.2800,10.2881,0.0000,-0.0044,0.0011,2.19,-1.06,291.44,-0.3792,-0.1467,9.9122,9.9205
1,1,2,5,0,12.944,12944,-0.4300,-0.1500,10.1000,10.1103,0.0044,-0.0011,0.0033,2.19,-1.06,291.44,-0.3859,-0.1472,9.9369,9.9455
1,1,2,5,0,13.075,13075,-0.3200,-0.2600,9.6200,9.6288,0.0055,-0.0033,0.0022,2.19,-1.06,291.44,-0.3772,-0.1620,9.8952,9.9037
1,1,2,5,0,13.248,13248,-0.4000,-0.1400,9.6100,9.6193,0.0033,0.0000,0.0022,2.19,-1.06,291.44,-0.3802,-0.1591,9.8576,9.8662
1,1,2,5,0,13.379,13379,-0.5900,0.0000,10.0900,10.1072,-0.0033,0.0120,0.0022,2.13,-1.13,291.44,-0.4078,-0.1382,9.8882,9.8976
1,1,2,5,0,13.509,13509,-0.4000,-0.1300,9.8800,9.8889,0.0055,-0.0098,0.0033,2.13,-1.13,291.44,-0.4068,-0.1371,9.8871,9.8964
1,1,2,5,0,13.643,13643,-0.4400,-0.1200,9.9200,9.9305,-0.0011,-0.0087,-0.0044,2.13,-1.13,291.44,-0.4112,-0.1348,9.8915,9.9009
1,1,2,5,0,13.776,13776,-0.3400,-0.1300,9.6000,9.6069,0.0022,-0.0033,0.0022,2.13,-1.13,291.44,-0.4018,-0.1342,9.8530,9.8622
1,1,2,5,0,13.907,13907,-0.4500,-0.1000,8.8400,8.8520,-0.0011,0.0109,0.0087,2.13,-1.13,291.44,-0.4082,-0.1297,9.7196,9.7290
1,1,2,5,0,14.037,14037,-0.4200,-0.0800,9.1800,9.1900,-0.0142,0.0065,0.0011,2.13,-1.13,291.44,-0.4097,-0.1231,9.6485,9.6579
1,1,2,5,0,14.168,14168,-0.3600,-0.1500,9.4800,9.4880,-0.0033,0.0022,-0.0087,2.13,-1.13,291.44,-0.4032,-0.1267,9.6263,9.6355
1,1,2,5,0,14.340,14340,-0.3500,-0.1600,9.8500,9.8575,-0.0033,0.0055,-0.0087,2.13,-1.13,291.44,-0.3962,-0.1311,9.6557,9.6648
1,1,2,5,0,14.470,14470,-0.4000,-0.1800,10.0300,10.0396,0.0011,0.0000,-0.0011,2.13,-1.13,291.44,-0.3967,-0.1375,9.7051,9.7141
1,1,2,5,0,14.600,14600,-0.3900,-0.0900,10.1200,10.1279,-0.0022,0.0011,-0.0065,2.19,-1.13,291.44,-0.3958,-0.1313,9.7597,9.7686
1,1,2,5,0,14.730,14730,-0.3300,-0.2200,9.8400,9.8480,0.0076,0.0033,-0.0109,2.19,-1.13,291.44,-0.3871,-0.1430,9.7703,9.7790
1,1,2,5,0,14.860,14860,-0.3300,-0.1500,9.6400,9.6468,-0.0109,0.0011,0.0000,2.19,-1.13,291.44,-0.3796,-0.1439,9.7531,9.7616
1,1,2,5,0,14.990,14990,-0.4000,-0.1300,9.7100,9.7191,-0.0098,0.0055,0.0044,2.19,-1.13,291.44,-0.3823,-0.1421,9.7475,9.7560
1,1,2,5,0,15.120,15120,-0.4200,-0.0800,9.6300,9.6395,-0.0055,-0.0011,0.0000,2.19,-1.13,291.44,-0.3873,-0.1339,9.7320,9.7406
1,1,2,5,0,15.250,15250,-0.3900,-0.1100,9.7200,9.7284,0.0000,-0.0011,0.0000,2.19,-1.13,291.44,-0.3876,-0.1307,9.7304,9.7390
1,1,2,5,0,15.423,15423,-0.3700,-0.1100,9.7100,9.7177,-0.0055,-0.0011,0.0033,2.19,-1.13,291.44,-0.3853,-0.1280,9.7277,9.7362
1,1,2,5,0,15.554,15554,-0.3900,-0.1800,10.1600,10.1691,0.0000,0.0000,0.0011,2.19,-1.13,291.44,-0.3859,-0.1349,9.7847,9.7932
1,1,2,5,0,15.685,15685,-0.3500,-0.1600,9.9800,9.9874,0.0022,-0.0055,0.0011,2.19,-1.13,291.44,-0.3812,-0.1382,9.8104,9.8188
1,1,2,5,0,15.816,15816,-0.3900,-0.1300,9.8900,9.8985,0.0033,-0.0033,0.0055,2.19,-1.13,291.44,-0.3823,-0.1371,9.8209,9.8293
1,1,2,5,0,15.951,15951,-0.4000,-0.1100,10.0300,10.0386,0.0065,-0.0022,0.0000,2.19,-1.13,291.44,-0.3847,-0.1335,9.8485,9.8569
1,1,2,5,0,16.083,16083,-0.3800,-0.1300,10.0200,10.0280,0.0055,-0.0076,0.0000,2.19,-1.13,291.44,-0.3841,-0.1331,9.8711,9.8794
1,1,2,5,0,16.213,16213,-0.4300,-0.1400,9.7000,9.7105,0.0131,0.0175,0.0033,2.19,-1.13,291.44,-0.3901,-0.1340,9.8485,9.8572
1,1,2,5,0,16.343,16343,-0.3500,-0.0700,9.7000,9.7066,0.0044,-0.0109,-0.0022,2.13,-1.13,291.44,-0.3848,-0.1255,9.8289,9.8373
1,1,2,5,0,16.516,16516,-0.3300,-0.2200,9.6900,9.6981,0.0011,-0.0076,-0.0022,2.13,-1.13,291.44,-0.3776,-0.1380,9.8106,9.8189
1,1,2,5,0,16.648,16648,-0.4300,-0.1700,9.7200,9.7310,-0.0011,-0.0033,0.0000,2.13,-1.13,291.44,-0.3845,-0.1422,9.7987,9.8073
1,1,2,5,0,16.783,16783,-0.3800,-0.0900,8.6500,8.6588,0.0022,-0.0011,-0.0109,2.06,-1.13,291.44,-0.3839,-0.1353,9.6473,9.6559
1,1,2,5,0,16.914,16914,-0.2200,-0.2500,8.8900,8.8962,-0.0033,-0.0120,0.0142,2.06,-1.13,291.44,-0.3623,-0.1504,9.5475,9.5556
1,1,2,5,0,17.045,17045,-0.3300,-0.1000,9.4800,9.4863,0.0120,-0.0033,-0.0076,2.13,-1.06,291.38,-0.3581,-0.1438,9.5386,9.5464
1,1,2,5,0,17.175,17175,-0.4300,-0.0900,10.0000,10.0096,-0.0142,0.0120,-0.0120,2.06,-1.06,291.38,-0.3675,-0.1367,9.5994,9.6074
1,1,2,5,0,17.306,17306,-0.3400,-0.0800,10.1600,10.1660,-0.0316,-0.0360,-0.0076,2.06,-1.00,291.38,-0.3639,-0.1292,9.6733,9.6810
1,1,2,5,0,17.436,17436,-0.3100,-0.1400,10.1500,10.1557,-0.0120,0.0109,0.0000,2.13,-0.94,291.38,-0.3568,-0.1307,9.7361,9.7435
1,1,2,5,0,17.609,17609,-0.3300,-0.1700,9.5600,9.5672,0.0000,0.0000,-0.0011,2.13,-0.94,291.38,-0.3533,-0.1358,9.7129,9.7203
1,1,2,5,0,17.740,17740,-0.4500,-0.1400,9.6300,9.6415,-0.0087,0.0011,0.0011,2.13,-0.94,291.38,-0.3660,-0.1364,9.7020,9.7098
1,1,2,5,0,17.870,17870,-0.4000,-0.1500,9.8000,9.8093,-0.0065,0.0055,0.0000,2.13,-0.94,291.38,-0.3705,-0.1382,9.7149,9.7229
1,1,2,5,0,18.006,18006,-0.3800,-0.1500,10.2200,10.2282,0.0011,0.0044,-0.0087,2.13,-0.94,291.38,-0.3717,-0.1397,9.7815,9.7895
1,1,2,5,0,18.138,18138,-0.3900,-0.1300,10.0400,10.0484,-0.0044,0.0011,-0.0044,2.13,-0.94,291.38,-0.3742,-0.1385,9.8155,9.8236
1,1,2,5,0,18.268,18268,-0.3700,-0.1300,9.7600,9.7679,-0.0011,0.0022,0.0011,2.13,-0.94,291.38,-0.3736,-0.1373,9.8082,9.8163
1,1,2,5,0,18.399,18399,-0.3700,-0.1600,9.8800,9.8882,0.0000,0.0044,-0.0022,2.13,-0.94,291.38,-0.3731,-0.1403,9.8177,9.8258
1,1,2,5,0,18.529,18529,-0.3600,-0.1600,10.4000,10.4075,-0.0055,-0.0011,0.0000,2.13,-0.94,291.38,-0.3714,-0.1429,9.8944,9.9024
1,1,2,5,0,18.702,18702,-0.3600,-0.1900,10.1200,10.1282,0.0044,-0.0065,0.0000,2.13,-0.94,291.38,-0.3699,-0.1491,9.9241,9.9321
1,1,2,5,0,18.834,18834,-0.3900,-0.1500,9.6100,9.6191,0.0109,-0.0076,0.0055,2.13,-0.94,291.38,-0.3725,-0.1492,9.8827,9.8909
1,1,2,5,0,18.969,18969,-0.4000,-0.1200,9.6900,9.6990,0.0087,-0.0098,0.0055,2.13,-0.94,291.38,-0.3762,-0.1454,9.8573,9.8656
1,1,2,5,0,19.100,19100,-0.4500,-0.1100,9.8500,9.8609,0.0076,0.0076,0.0033,2.13,-0.94,291.38,-0.3859,-0.1407,9.8564,9.8649
1,1,2,5,0,19.231,19231,-0.3800,-0.1400,9.6900,9.6985,0.0000,-0.0033,0.0000,2.06,-0.94,291.38,-0.3851,-0.1406,9.8344,9.8430
1,1,2,5,0,19.361,19361,-0.3800,-0.1300,9.5900,9.5984,-0.0022,-0.0065,0.0044,2.06,-0.94,291.38,-0.3844,-0.1392,9.8022,9.8108
1,1,2,5,0,19.492,19492,-0.4100,-0.1400,9.6400,9.6497,0.0033,-0.0055,-0.0022,2.06,-0.94,291.38,-0.3878,-0.1393,9.7809,9.7895
1,1,2,5,0,19.622,19622,-0.5800,-0.2400,9.0100,9.0318,-0.0109,-0.0011,0.0087,2.06,-0.94,291.38,-0.4131,-0.1526,9.6793,9.6893
1,1,2,5,0,19.795,19795,-0.3500,-0.0900,9.1500,9.1571,-0.0033,0.0033,-0.0109,2.06,-0.94,291.38,-0.4048,-0.1443,9.6095,9.6191
1,1,2,5,0,19.925,19925,-0.3300,-0.0200,9.6200,9.6257,0.0065,0.0055,0.0065,2.06,-0.94,291.38,-0.3950,-0.1280,9.6109,9.6199
1,1,2,5,0,20.056,20056,-0.4000,-0.1300,9.6900,9.6991,-0.0164,0.0055,0.0044,2.06,-0.88,291.38,-0.3956,-0.1282,9.6213,9.6303
1,1,2,5,0,20.192,20192,-0.5400,0.0400,9.8300,9.8449,-0.0360,-0.0207,-0.0098,2.06,-0.88,291.38,-0.4146,-0.1061,9.6488,9.6583
1,1,2,5,0,20.324,20324,-0.3200,-0.2300,9.8800,9.8879,-0.0065,0.0076,0.0033,2.06,-0.81,291.38,-0.4022,-0.1224,9.6793,9.6884
1,1,2,5,0,20.454,20454,-0.3300,-0.1800,9.8800,9.8871,0.0011,0.0011,-0.0065,2.06,-0.81,291.38,-0.3927,-0.1300,9.7057,9.7146
1,1,2,5,0,20.584,20584,-0.3800,-0.1400,9.8900,9.8983,-0.0033,0.0033,0.0000,2.06,-0.81,291.38,-0.3910,-0.1313,9.7300,9.7388
1,1,2,5,0,20.715,20715,-0.3400,-0.1800,9.9400,9.9474,-0.0011,0.0000,-0.0055,2.06,-0.81,291.38,-0.3843,-0.1377,9.7577,9.7662
1,1,2,5,0,20.888,20888,-0.3800,-0.1700,9.7400,9.7489,-0.0087,0.0033,-0.0022,2.06,-0.81,291.38,-0.3837,-0.1420,9.7554,9.7639
1,1,2,5,0,21.024,21024,-0.3600,-0.1600,10.0200,10.0277,0.0000,0.0000,0.0011,2.06,-0.81,291.38,-0.3806,-0.1443,9.7902,9.7987
1,1,2,5,0,21.154,21154,-0.5100,-0.2400,10.2700,10.2855,-0.0218,-0.0284,0.0000,2.13,-0.75,291.38,-0.3976,-0.1570,9.8535,9.8627
1,1,2,5,0,21.286,21286,-0.2200,-0.1800,10.0200,10.0240,-0.0120,0.0000,-0.0087,2.13,-0.81,291.44,-0.3742,-0.1600,9.8754,9.8838
1,1,2,5,0,21.416,21416,-0.3300,-0.1400,10.0000,10.0064,0.0022,-0.0022,0.0044,2.13,-0.81,291.44,-0.3684,-0.1574,9.8918,9.8999
1,1,2,5,0,21.547,21547,-0.3400,-0.1400,9.7800,9.7869,0.0011,-0.0098,0.0011,2.13,-0.81,291.44,-0.3647,-0.1551,9.8771,9.8850
1,1,2,5,0,21.677,21677,-0.3000,-0.2600,9.6300,9.6382,0.0087,0.0022,0.0055,2.13,-0.81,291.44,-0.3561,-0.1689,9.8445,9.8524
1,1,2,5,0,21.807,21807,-0.3900,-0.2200,9.8000,9.8102,0.0076,0.0022,0.0011,2.13,-0.81,291.44,-0.3606,-0.1756,9.8387,9.8468
1,1,2,5,0,21.980,21980,-0.3400,-0.1700,9.5200,9.5276,0.0000,-0.0065,0.0033,2.06,-0.81,291.44,-0.3579,-0.1749,9.7967,9.8048
1,1,2,5,0,22.112,22112,-0.5400,-0.1500,9.6900,9.7062,0.0011,-0.0022,0.0011,2.06,-0.81,291.44,-0.3819,-0.1716,9.7826,9.7916
1,1,2,5,0,22.242,22242,-0.4000,-0.0900,9.4000,9.4089,0.0044,-0.0044,-0.0011,2.13,-0.81,291.44,-0.3843,-0.1609,9.7322,9.7411
1,1,2,5,0,22.375,22375,-0.4000,-0.1300,9.1000,9.1097,-0.0022,0.0000,-0.0055,2.13,-0.81,291.44,-0.3863,-0.1568,9.6489,9.6579
1,1,2,5,0,22.509,22509,-0.4600,-0.0900,9.5600,9.5715,-0.0044,0.0022,0.0033,2.13,-0.81,291.44,-0.3961,-0.1480,9.6372,9.6464
1,1,2,5,0,22.640,22640,-0.2700,-0.2300,9.7400,9.7465,-0.0011,0.0044,-0.0022,2.13,-0.81,291.44,-0.3794,-0.1588,9.6507,9.6595
1,1,2,5,0,22.770,22770,-0.4500,-0.1600,9.6500,9.6618,-0.0044,0.0000,0.0055,2.13,-0.81,291.44,-0.3887,-0.1590,9.6506,9.6598
1,1,2,5,0,22.901,22901,-0.3100,-0.0900,9.7400,9.7453,-0.0011,-0.0262,0.0055,2.13,-0.81,291.44,-0.3784,-0.1499,9.6624,9.6710
1,1,2,5,0,23.073,23073,-0.3700,-0.1500,9.9700,9.9780,0.0022,0.0022,-0.0033,2.13,-0.75,291.44,-0.3773,-0.1499,9.7029,9.7114
1,1,2,5,0,23.204,23204,-0.3200,-0.1300,10.3100,10.3158,0.0000,0.0022,-0.0033,2.13,-0.75,291.44,-0.3697,-0.1473,9.7829,9.7910
1,1,2,5,0,23.334,23334,-0.3900,-0.1700,9.8600,9.8692,-0.0065,0.0033,0.0076,2.13,-0.75,291.44,-0.3724,-0.1503,9.7931,9.8013
1,1,2,5,0,23.465,23465,-0.4100,-0.1500,9.5900,9.5999,0.0000,0.0011,-0.0022,2.13,-0.75,291.44,-0.3773,-0.1502,9.7663,9.7748
1,1,2,5,0,23.600,23600,-0.3800,-0.1300,9.7900,9.7982,-0.0033,0.0033,-0.0022,2.13,-0.75,291.44,-0.3777,-0.1476,9.7694,9.7779
1,1,2,5,0,23.732,23732,-0.3900,-0.1300,9.9600,9.9685,-0.0011,0.0011,-0.0011,2.13,-0.75,291.44,-0.3793,-0.1452,9.7946,9.8030
1,1,2,5,0,23.863,23863,-0.4100,-0.1900,10.1900,10.2000,-0.0011,0.0044,-0.0011,2.13,-0.75,291.44,-0.3834,-0.1511,9.8467,9.8553
1,1,2,5,0,23.993,23993,-0.3800,-0.1600,10.3400,10.3482,0.0033,-0.0033,0.0011,2.13,-0.75,291.44,-0.3829,-0.1523,9.9117,9.9202
1,1,2,5,0,24.166,24166,-0.4300,-0.1300,9.8800,9.8902,0.0000,-0.0022,0.0011,2.13,-0.81,291.44,-0.3891,-0.1494,9.9075,9.9163
1,1,2,5,0,24.297,24297,-0.3800,-0.1600,9.8300,9.8386,0.0055,-0.0011,0.0022,2.13,-0.81,291.44,-0.3879,-0.1508,9.8973,9.9060
1,1,2,5,0,24.432,24432,-0.4200,-0.0800,9.9600,9.9692,0.0011,0.0044,-0.0022,2.13,-0.88,291.44,-0.3921,-0.1414,9.9056,9.9143
1,1,2,5,0,24.564,24564,-0.3200,-0.1400,9.6400,9.6463,0.0044,-0.0022,-0.0011,2.13,-0.88,291.44,-0.3826,-0.1413,9.8706,9.8790
1,1,2,5,0,24.695,24695,-0.4000,-0.2400,9.6500,9.6613,0.0011,-0.0011,0.0044,2.13,-0.88,291.44,-0.3849,-0.1543,9.8415,9.8502
1,1,2,5,0,24.825,24825,-0.3300,-0.1700,9.6800,9.6871,0.0076,-0.0011,-0.0011,2.13,-0.88,291.44,-0.3777,-0.1563,9.8202,9.8287
1,1,2,5,0,24.956,24956,-0.3400,-0.0600,8.9800,8.9866,0.0044,0.0044,-0.0076,2.13,-0.88,291.44,-0.3727,-0.1436,9.7095,9.7177
1,1,2,5,0,25.086,25086,-0.5100,-0.0600,9.5000,9.5139,-0.0011,-0.0022,0.0022,2.13,-0.81,291.44,-0.3908,-0.1326,9.6819,9.6907
1,1,2,5,0,25.259,25259,-0.4400,-0.1200,9.7300,9.7407,0.0011,0.0000,0.0022,2.13,-0.81,291.44,-0.3973,-0.1310,9.6882,9.6973
1,1,2,5,0,25.389,25389,-0.2800,-0.1800,9.3700,9.3759,0.0022,0.0055,-0.0011,2.13,-0.88,291.44,-0.3818,-0.1374,9.6463,9.6548
1,1,2,5,0,25.520,25520,-0.1900,-0.2000,9.7300,9.7339,0.0011,0.0076,0.0044,2.13,-0.88,291.44,-0.3566,-0.1457,9.6573,9.6650
1,1,2,5,0,25.656,25656,-0.3400,-0.2500,9.7400,9.7491,0.0065,-0.0055,0.0000,2.13,-0.81,291.44,-0.3544,-0.1594,9.6682,9.6760
1,1,2,5,0,25.787,25787,-0.4100,-0.1000,9.7000,9.7092,-0.0033,0.0044,0.0011,2.13,-0.81,291.44,-0.3617,-0.1516,9.6724,9.6804
1,1,2,5,0,25.918,25918,-0.3900,-0.1400,9.9000,9.9087,0.0011,0.0033,-0.0011,2.13,-0.81,291.44,-0.3654,-0.1501,9.7024,9.7104
1,1,2,5,0,26.048,26048,-0.2300,-0.2500,9.7100,9.7159,0.0011,0.0055,-0.0011,2.13,-0.81,291.44,-0.3476,-0.1632,9.7034,9.7110
1,1,2,5,0,26.178,26178,-0.4100,-0.1500,9.9500,9.9596,-0.0011,0.0044,0.0022,2.13,-0.81,291.44,-0.3558,-0.1615,9.7359,9.7437
1,1,2,5,0,26.351,26351,-0.4000,-0.1400,10.3800,10.3886,0.0022,-0.0044,0.0055,2.13,-0.81,291.38,-0.3616,-0.1587,9.8208,9.8287
1,1,2,5,0,26.482,26482,-0.4500,-0.1600,10.2000,10.2112,0.0065,-0.0011,-0.0011,2.13,-0.81,291.44,-0.3733,-0.1588,9.8707,9.8791
1,1,2,5,0,26.613,26613,-0.4700,-0.1600,10.0400,10.0523,0.0098,-0.0098,0.0098,2.13,-0.81,291.44,-0.3860,-0.1590,9.8930,9.9019
1,1,2,5,0,26.743,26743,-0.4500,-0.1700,9.9800,9.9916,0.0109,-0.0065,0.0000,2.13,-0.81,291.44,-0.3945,-0.1604,9.9045,9.9137
1,1,2,5,0,26.879,26879,-0.3900,-0.1500,9.9400,9.9488,0.0164,0.0164,0.0022,2.13,-0.88,291.44,-0.3939,-0.1591,9.9092,9.9183
1,1,2,5,0,27.011,27011,-0.5400,-0.1900,9.4700,9.4873,0.0022,0.0000,0.0033,2.06,-0.88,291.44,-0.4131,-0.1631,9.8513,9.8613
1,1,2,5,0,27.141,27141,-0.4600,0.0100,9.4000,9.4113,0.0033,-0.0044,-0.0033,2.13,-0.88,291.44,-0.4193,-0.1403,9.7918,9.8018
1,1,2,5,0,27.271,27271,-0.3700,-0.1000,9.5100,9.5177,0.0033,0.0000,-0.0033,2.13,-0.88,291.44,-0.4128,-0.1350,9.7547,9.7644
1,1,2,5,0,27.444,27444,-0.3100,-0.0800,9.0000,9.0057,-0.0011,0.0044,-0.0055,2.13,-0.88,291.44,-0.3993,-0.1278,9.6552,9.6643
1,1,2,5,0,27.575,27575,-0.3900,-0.1300,9.5500,9.5588,-0.0011,0.0011,0.0033,2.13,-0.88,291.44,-0.3980,-0.1281,9.6414,9.6504
1,1,2,5,0,27.711,27711,0.0000,-0.4700,9.2400,9.2519,0.0153,0.0164,-0.0065,2.13,-0.88,291.44,-0.3456,-0.1731,9.5885,9.5963
1,1,2,5,0,27.843,27843,-0.2600,-0.1300,9.7600,9.7643,0.0022,0.0033,0.0033,2.06,-0.94,291.44,-0.3343,-0.1674,9.6111,9.6184
1,1,2,5,0,27.973,27973,-0.2700,-0.2800,9.6400,9.6478,-0.0033,0.0055,0.0000,2.06,-0.94,291.44,-0.3258,-0.1823,9.6149,9.6221
1,1,2,5,0,28.104,28104,-0.4300,-0.1000,9.8200,9.8299,-0.0065,0.0044,-0.0022,2.13,-0.88,291.44,-0.3396,-0.1714,9.6419,9.6494
1,1,2,5,0,28.234,28234,-0.4000,-0.1800,10.0800,10.0895,0.0022,-0.0022,-0.0022,2.13,-0.88,291.44,-0.3475,-0.1726,9.6997,9.7074
1,1,2,5,0,28.364,28364,-0.3300,-0.1600,9.9600,9.9667,0.0022,0.0044,0.0000,2.13,-0.88,291.44,-0.3452,-0.1709,9.7340,9.7416
1,1,2,5,0,28.537,28537,-0.3200,-0.1500,9.7300,9.7364,-0.0022,-0.0011,-0.0044,2.13,-0.88,291.44,-0.3419,-0.1681,9.7334,9.7409
1,1,2,5,0,28.668,28668,-0.3500,-0.1200,9.7800,9.7870,-0.0022,0.0055,-0.0011,2.13,-0.88,291.44,-0.3430,-0.1618,9.7396,9.7470
1,1,2,5,0,28.798,28798,-0.4500,-0.0600,10.0400,10.0503,-0.0044,-0.0011,0.0055,2.13,-0.88,291.44,-0.3571,-0.1484,9.7792,9.7868
1,1,2,5,0,28.929,28929,-0.1700,-0.2000,11.1600,11.1631,0.0480,-0.0196,0.0044,2.13,-0.88,291.44,-0.3324,-0.1552,9.9611,9.9679
1,1,2,5,0,29.061,29061,-0.4400,-0.1900,10.1900,10.2013,-0.0022,-0.0109,0.0109,2.13,-0.88,291.44,-0.3466,-0.1598,9.9913,9.9986
1,1,2,5,0,29.196,29196,-0.3800,-0.1400,10.0000,10.0082,0.0065,-0.0076,0.0011,2.13,-0.88,291.44,-0.3510,-0.1572,9.9924,9.9998
1,2,2,5,0,29.327,29327,-0.3800,-0.1200,9.8400,9.8481,0.0076,-0.0055,0.0055,2.13,-0.94,291.50,-0.3548,-0.1523,9.9723,9.9798
1,2,2,5,0,29.457,29457,-0.4000,-0.1500,9.8700,9.8792,0.0055,-0.0109,0.0033,2.13,-0.94,291.50,-0.3608,-0.1520,9.9589,9.9665
1,2,2,5,0,29.630,29630,-0.4500,-0.1300,9.7700,9.7812,0.0044,-0.0022,0.0011,2.13,-1.00,291.50,-0.3725,-0.1491,9.9340,9.9421
1,2,2,5,0,29.761,29761,-0.4200,-0.1100,9.7400,9.7497,0.0076,-0.0055,0.0044,2.13,-1.00,291.50,-0.3788,-0.1439,9.9084,9.9167
1,2,2,5,0,29.897,29897,-0.4400,-0.1100,9.1000,9.1113,0.0044,-0.0055,0.0000,2.19,-1.00,291.50,-0.3869,-0.1395,9.8019,9.8105
1,2,2,5,0,30.028,30028,-0.3800,-0.1800,9.1600,9.1696,0.0011,-0.0055,-0.0011,2.19,-1.00,291.50,-0.3859,-0.1448,9.7173,9.7260
1,2,2,5,0,30.159,30159,-0.3700,-0.1500,9.6100,9.6183,0.0022,-0.0033,0.0000,2.19,-1.00,291.50,-0.3838,-0.1455,9.7032,9.7118
1,2,2,5,0,30.289,30289,-0.4600,-0.2200,9.6600,9.6734,0.0065,0.0011,0.0142,2.19,-1.00,291.50,-0.3939,-0.1553,9.6975,9.7067
1,2,2,5,0,30.420,30420,-0.4900,-0.1900,9.7800,9.7941,-0.0131,0.0076,-0.0033,2.19,-1.00,291.50,-0.4065,-0.1599,9.7083,9.7182
1,2,2,5,0,30.550,30550,-0.4500,-0.1100,10.0200,10.0307,-0.0033,-0.0022,-0.0055,2.25,-0.94,291.50,-0.4123,-0.1533,9.7494,9.7593
1,2,2,5,0,30.723,30723,-0.4200,-0.1300,10.0800,10.0896,-0.0087,-0.0033,0.0000,2.25,-0.94,291.50,-0.4133,-0.1502,9.7930,9.8028
1,2,2,5,0,30.853,30853,-0.4500,-0.1300,9.6700,9.6813,-0.0076,-0.0011,0.0033,2.25,-0.94,291.50,-0.4181,-0.1476,9.7768,9.7868
1,2,2,5,0,30.984,30984,-0.4200,-0.1300,9.5800,9.5901,-0.0022,-0.0022,0.0000,2.25,-0.94,291.50,-0.4184,-0.1453,9.7508,9.7609
1,2,2,5,0,31.118,31118,-0.4100,-0.1600,9.9300,9.9397,-0.0044,-0.0033,0.0055,2.25,-0.94,291.50,-0.4173,-0.1472,9.7745,9.7845
1,2,2,5,0,31.251,31251,-0.3400,-0.1700,10.3100,10.3170,0.0033,0.0022,-0.0022,2.25,-0.94,291.50,-0.4071,-0.1502,9.8450,9.8546
1,2,2,5,0,31.382,31382,-0.3900,-0.1300,10.4800,10.4881,0.0000,-0.0011,0.0022,2.25,-0.94,291.50,-0.4048,-0.1475,9.9287,9.9380
1,2,2,5,0,31.512,31512,-0.4000,-0.1400,10.1200,10.1289,0.0033,-0.0055,0.0055,2.25,-0.94,291.50,-0.4042,-0.1465,9.9539,9.9632
1,2,2,5,0,31.643,31643,-0.3500,-0.1000,9.7300,9.7368,0.0076,-0.0109,0.0044,2.25,-1.00,291.50,-0.3971,-0.1404,9.9244,9.9333
1,2,2,5,0,31.815,31815,-0.3500,-0.1000,9.7900,9.7968,0.0087,-0.0033,0.0065,2.25,-1.00,291.50,-0.3909,-0.1351,9.9067,9.9153
1,2,2,5,0,31.945,31945,-0.2300,-0.2400,10.1600,10.1654,0.0120,-0.0087,-0.0033,2.19,-1.06,291.50,-0.3697,-0.1489,9.9401,9.9481
1,2,2,5,0,32.075,32075,-0.1800,-0.1100,10.1300,10.1322,0.0109,-0.0076,0.0076,2.19,-1.00,291.50,-0.3447,-0.1438,9.9651,9.9721
1,2,2,5,0,32.205,32205,-0.3600,-0.1400,9.6500,9.6577,0.0000,-0.0055,0.0011,2.19,-1.00,291.50,-0.3467,-0.1433,9.9236,9.9307
1,2,2,5,0,32.335,32335,-0.3600,-0.1000,8.6600,8.6681,-0.0033,-0.0022,-0.0011,2.19,-1.00,291.50,-0.3484,-0.1376,9.7571,9.7643
1,2,2,5,0,32.465,32465,-0.4000,-0.1300,9.2100,9.2196,-0.0033,0.0011,0.0055,2.19,-1.00,291.50,-0.3552,-0.1366,9.6850,9.6925
1,2,2,5,0,32.595,32595,-0.4800,-0.1200,9.7100,9.7226,-0.0055,0.0142,-0.0065,2.19,-1.00,291.50,-0.3717,-0.1344,9.6883,9.6963
1,2,2,5,0,32.726,32726,-0.4000,-0.1800,9.9000,9.9097,-0.0109,0.0131,0.0033,2.13,-0.94,291.50,-0.3754,-0.1404,9.7162,9.7244
1,2,2,5,0,32.898,32898,-0.3600,-0.1800,10.0900,10.0980,0.0011,-0.0022,-0.0076,2.19,-0.88,291.44,-0.3734,-0.1456,9.7654,9.7737
1,2,2,5,0,33.028,33028,-0.4000,-0.1300,10.1700,10.1787,-0.0065,0.0022,-0.0044,2.19,-0.88,291.44,-0.3769,-0.1436,9.8187,9.8270
1,2,2,5,0,33.158,33158,-0.4200,-0.1800,10.3600,10.3701,-0.0033,0.0044,-0.0076,2.19,-0.88,291.44,-0.3826,-0.1484,9.8901,9.8986
1,2,2,5,0,33.288,33288,-0.4100,-0.1200,9.9300,9.9392,-0.0033,0.0000,0.0000,2.19,-0.88,291.44,-0.3862,-0.1446,9.8953,9.9039
1,2,2,5,0,33.418,33418,-0.4000,-0.1400,9.7200,9.7292,-0.0076,0.0044,-0.0055,2.19,-0.88,291.44,-0.3880,-0.1440,9.8722,9.8809
1,2,2,5,0,33.548,33548,-0.4100,-0.1300,10.2300,10.2390,-0.0011,0.0055,-0.0065,2.19,-0.88,291.44,-0.3909,-0.1422,9.9194,9.9281
1,2,2,5,0,33.678,33678,-0.3800,-0.1900,10.2100,10.2188,-0.0033,0.0033,-0.0033,2.19,-0.88,291.44,-0.3895,-0.1485,9.9577,9.9664
1,2,2,5,0,33.808,33808,-0.3700,-0.1400,10.5300,10.5374,-0.0044,-0.0011,0.0000,2.19,-0.88,291.44,-0.3869,-0.1474,10.0331,10.0416
1,2,2,5,0,33.981,33981,-0.3500,-0.1700,10.4200,10.4273,0.0022,-0.0044,-0.0033,2.19,-0.88,291.44,-0.3820,-0.1503,10.0841,10.0924
1,2,2,5,0,34.111,34111,-0.3400,-0.0900,9.7800,9.7863,0.0022,-0.0022,0.0022,2.19,-0.88,291.44,-0.3765,-0.1424,10.0440,10.0521
1,2,2,5,0,34.241,34241,-0.3900,-0.1800,9.6900,9.6995,0.0055,0.0033,-0.0011,2.19,-0.88,291.44,-0.3783,-0.1473,9.9974,10.0056
1,2,2,5,0,34.371,34371,-0.2900,-0.2900,9.8300,9.8386,0.0033,-0.0055,-0.0011,2.13,-0.88,291.44,-0.3666,-0.1661,9.9753,9.9834
1,2,2,5,0,34.501,34501,-0.3800,-0.1600,9.6900,9.6988,-0.0142,-0.0229,-0.0055,2.13,-0.88,291.44,-0.3684,-0.1653,9.9377,9.9459
1,2,2,5,0,34.631,34631,-0.4100,-0.2100,8.7800,8.7921,0.0011,0.0000,0.0044,2.13,-0.88,291.44,-0.3739,-0.1712,9.7852,9.7938
1,2,2,5,0,34.761,34761,-0.3500,-0.1900,8.5200,8.5293,-0.0055,0.0033,-0.0022,2.13,-0.88,291.44,-0.3707,-0.1737,9.6184,9.6271
1,2,2,5,0,34.891,34891,-0.2400,-0.1600,9.2000,9.2045,-0.0011,0.0044,-0.0033,2.13,-0.88,291.44,-0.3535,-0.1719,9.5633,9.5714
1,3,2,5,0,35.064,35064,-0.2500,-0.1800,9.9600,9.9648,-0.0011,0.0065,-0.0087,2.13,-0.88,291.44,-0.3399,-0.1730,9.6156,9.6231
1,3,2,5,0,35.198,35198,-0.4600,-0.1200,10.3400,10.3509,0.0000,-0.0022,0.0011,2.13,-0.81,291.38,-0.3557,-0.1660,9.7110,9.7190
1,3,2,5,0,35.332,35332,-0.3600,-0.2200,10.2100,10.2187,-0.0022,0.0087,-0.0098,2.13,-0.81,291.38,-0.3563,-0.1731,9.7768,9.7848
1,3,2,5,0,35.463,35463,-0.3900,-0.1300,9.8800,9.8885,-0.0076,0.0076,0.0000,2.13,-0.81,291.38,-0.3607,-0.1674,9.7904,9.7985
1,3,2,5,0,35.593,35593,-0.4000,-0.1200,9.7700,9.7789,-0.0033,-0.0011,-0.0087,2.13,-0.81,291.38,-0.3659,-0.1612,9.7877,9.7959
1,3,2,5,0,35.723,35723,-0.3900,-0.0800,9.6800,9.6882,-0.0055,0.0044,-0.0011,2.13,-0.81,291.38,-0.3691,-0.1505,9.7735,9.7816
1,3,2,5,0,35.854,35854,-0.4500,-0.1200,10.1700,10.1807,-0.0044,0.0055,-0.0065,2.13,-0.81,291.38,-0.3797,-0.1465,9.8258,9.8342
1,3,2,5,0,35.984,35984,-0.4000,-0.1200,10.4100,10.4184,-0.0055,0.0022,-0.0011,2.13,-0.81,291.38,-0.3824,-0.1430,9.9027,9.9112
1,3,2,5,0,36.157,36157,-0.3600,-0.1300,10.3300,10.3371,-0.0033,0.0000,0.0044,2.13,-0.81,291.38,-0.3795,-0.1413,9.9590,9.9673
1,3,2,5,0,36.288,36288,-0.4800,-0.0900,10.0200,10.0319,0.0022,0.0011,-0.0011,2.13,-0.81,291.38,-0.3927,-0.1345,9.9671,9.9757
1,3,2,5,0,36.420,36420,-0.4100,-0.1400,9.9900,9.9994,0.0022,0.0011,0.0000,2.13,-0.81,291.38,-0.3950,-0.1352,9.9701,9.9788
1,3,2,5,0,36.555,36555,-0.3800,-0.1300,9.5200,9.5285,0.0076,-0.0044,0.0022,2.06,-0.81,291.38,-0.3930,-0.1345,9.9108,9.9195
1,3,2,5,0,36.686,36686,-0.2800,-0.2300,9.1000,9.1072,-0.0076,-0.0098,0.0022,2.06,-0.81,291.38,-0.3781,-0.1471,9.8039,9.8123
1,3,2,5,0,36.816,36816,-0.4100,-0.1400,8.8200,8.8306,0.0011,-0.0011,-0.0065,2.06,-0.81,291.31,-0.3823,-0.1462,9.6743,9.6829
1,3,2,5,0,36.946,36946,-0.3900,-0.1300,8.7700,8.7796,-0.0055,0.0033,0.0022,2.06,-0.81,291.31,-0.3833,-0.1441,9.5551,9.5639
1,3,2,5,0,37.077,37077,-0.4100,-0.1900,9.1600,9.1711,-0.0033,0.0044,0.0011,2.06,-0.81,291.31,-0.3868,-0.1501,9.5031,9.5121
1,3,2,5,0,37.250,37250,-0.2100,-0.2200,9.8000,9.8047,-0.0033,0.0131,0.0000,2.00,-0.81,291.31,-0.3635,-0.1593,9.5422,9.5504
1,3,2,5,0,37.381,37381,-0.5100,-0.1300,9.9200,9.9340,-0.0120,-0.0022,-0.0033,2.06,-0.75,291.31,-0.3828,-0.1555,9.5920,9.6009
1,3,2,5,0,37.517,37517,-0.4700,-0.1300,10.0500,10.0618,-0.0076,0.0044,0.0011,2.00,-0.75,291.31,-0.3943,-0.1521,9.6523,9.6616
1,3,2,5,0,37.648,37648,-0.3400,-0.2100,10.0600,10.0679,-0.0044,0.0044,-0.0055,2.00,-0.75,291.25,-0.3872,-0.1597,9.7061,9.7151
1,3,2,5,0,37.779,37779,-0.3800,-0.1200,9.9400,9.9480,-0.0011,0.0044,-0.0033,2.00,-0.75,291.25,-0.3862,-0.1545,9.7369,9.7458
1,3,2,5,0,37.909,37909,-0.3500,-0.1300,9.8900,9.8970,-0.0022,0.0033,-0.0065,2.00,-0.75,291.25,-0.3814,-0.1513,9.7571,9.7657
1,3,2,5,0,38.040,38040,-0.3800,-0.1600,9.9200,9.9286,-0.0022,0.0011,-0.0022,2.00,-0.75,291.25,-0.3813,-0.1524,9.7785,9.7871
1,3,2,5,0,38.170,38170,-0.4500,-0.1400,10.3100,10.3208,0.0000,-0.0044,0.0033,2.00,-0.75,291.25,-0.3903,-0.1508,9.8486,9.8574
1,3,2,5,0,38.343,38343,-0.3900,-0.1300,10.3200,10.3282,0.0065,-0.0055,0.0011,2.00,-0.75,291.25,-0.3903,-0.1480,9.9107,9.9195
1,3,2,5,0,38.473,38473,-0.3000,-0.1900,9.9300,9.9363,0.0055,-0.0033,0.0044,2.00,-0.75,291.25,-0.3784,-0.1536,9.9132,9.9216
1,3,2,5,0,38.604,38604,-0.3500,-0.1400,9.8700,9.8772,0.0033,0.0065,0.0033,2.06,-0.75,291.25,-0.3746,-0.1518,9.9075,9.9158
1,3,2,5,0,38.738,38738,-0.3500,-0.2400,9.6900,9.6993,0.0120,-0.0164,0.0098,2.00,-0.81,291.25,-0.3714,-0.1634,9.8789,9.8872
1,3,2,5,0,38.871,38871,-0.4800,-0.0100,9.3300,9.3423,-0.0011,-0.0076,0.0044,2.06,-0.81,291.25,-0.3857,-0.1432,9.8065,9.8152
1,3,2,5,0,39.002,39002,-0.3800,-0.1300,8.9600,8.9690,0.0011,0.0011,-0.0055,2.06,-0.81,291.25,-0.3850,-0.1415,9.6950,9.7037
1,3,2,5,0,39.132,39132,-0.5000,-0.2200,8.8500,8.8668,-0.0065,-0.0033,0.0044,2.06,-0.81,291.25,-0.4001,-0.1518,9.5836,9.5932
1,3,2,5,0,39.263,39263,-0.4100,-0.1900,9.2100,9.2211,0.0011,0.0022,0.0000,2.06,-0.81,291.31,-0.4014,-0.1568,9.5344,9.5441
1,3,2,5,0,39.435,39435,-0.3000,-0.1200,9.5900,9.5954,0.0000,0.0076,0.0011,2.06,-0.81,291.31,-0.3881,-0.1520,9.5417,9.5508
1,3,2,5,0,39.565,39565,-0.3100,-0.2900,9.7000,9.7093,-0.0033,-0.0098,-0.0022,2.13,-0.75,291.25,-0.3778,-0.1702,9.5626,9.5716
1,3,2,5,0,39.696,39696,-0.5100,-0.0200,10.1600,10.1728,-0.0087,-0.0065,-0.0022,2.13,-0.75,291.25,-0.3952,-0.1504,9.6413,9.6506
1,3,2,5,0,39.826,39826,-0.4100,-0.1500,10.0200,10.0295,-0.0022,0.0033,-0.0033,2.13,-0.75,291.25,-0.3971,-0.1503,9.6912,9.7005
1,3,2,5,0,39.956,39956,-0.3600,-0.1100,10.2700,10.2769,0.0033,-0.0033,-0.0044,2.13,-0.75,291.25,-0.3922,-0.1450,9.7675,9.7764
1,3,2,5,0,40.087,40087,-0.4000,-0.1600,10.0800,10.0892,0.0000,0.0000,0.0011,2.13,-0.75,291.25,-0.3933,-0.1470,9.8087,9.8176
1,3,2,5,0,40.220,40220,-0.3500,-0.1300,9.5300,9.5373,-0.0011,0.0000,0.0033,2.13,-0.75,291.25,-0.3876,-0.1448,9.7719,9.7807
1,3,2,5,0,40.351,40351,-0.3100,-0.1200,9.6400,9.6457,0.0000,0.0000,-0.0044,2.13,-0.75,291.25,-0.3773,-0.1415,9.7546,9.7629
1,3,2,5,0,40.526,40526,-0.4500,-0.1400,10.0900,10.1010,0.0011,0.0011,-0.0011,2.13,-0.75,291.25,-0.3869,-0.1413,9.7988,9.8074
1,3,2,5,0,40.656,40656,-0.3400,-0.1400,9.7000,9.7070,0.0022,0.0000,0.0022,2.13,-0.75,291.25,-0.3807,-0.1411,9.7857,9.7942
