participant,rep,equipment_code,exercise_code,quality_code,timestamp,timestamp_ms,accelX,accelY,accelZ,accelMag,gyroX,gyroY,gyroZ,roll,pitch,yaw,filteredX,filteredY,filteredZ,filteredMag
1,1,2,5,0,00.000,0,-0.4300,-0.1000,9.7900,9.7999,0.0000,0.0011,0.0000,2.38,-0.63,267.75,-0.4002,-0.1173,9.7734,9.7823
1,1,2,5,0,00.130,130,-0.4000,-0.0700,9.7800,9.7884,0.0000,0.0022,-0.0022,2.38,-0.63,267.75,-0.4001,-0.1111,9.7742,9.7831
1,1,2,5,0,00.260,260,-0.4100,-0.0900,9.7900,9.7990,0.0000,0.0000,-0.0011,2.38,-0.63,267.75,-0.4014,-0.1083,9.7763,9.7852
1,1,2,5,0,00.390,390,-0.2900,0.1800,9.9300,9.9359,0.0120,-0.0044,0.0033,2.38,-0.63,267.75,-0.3868,-0.0703,9.7966,9.8045
1,1,2,5,0,00.520,520,-0.7800,0.0600,9.2800,9.3129,-0.0698,0.1320,-0.0404,2.81,-1.19,267.94,-0.4386,-0.0531,9.7285,9.7385
1,1,2,5,0,00.650,650,-0.4900,-0.1400,9.8800,9.8931,-0.0011,0.0033,-0.0044,2.56,-1.00,267.56,-0.4454,-0.0646,9.7485,9.7588
1,1,2,5,0,00.780,780,-0.6100,-0.2600,10.5000,10.5209,0.0011,-0.0044,-0.0011,2.56,-1.00,267.56,-0.4670,-0.0903,9.8475,9.8590
1,1,2,5,0,00.953,953,-0.4900,-0.2400,10.3300,10.3444,0.0044,-0.0011,0.0055,2.56,-1.00,267.56,-0.4701,-0.1101,9.9111,9.9228
1,1,2,5,0,01.084,1084,-0.6000,0.0600,9.3600,9.3794,0.0065,0.0022,0.0000,2.56,-1.00,267.56,-0.4872,-0.0876,9.8385,9.8509
1,1,2,5,0,01.215,1215,-0.4300,-0.2200,9.6100,9.6221,0.0098,0.0000,0.0022,2.56,-1.00,267.56,-0.4797,-0.1051,9.8084,9.8206
1,1,2,5,0,01.346,1346,-0.4900,-0.2600,9.7600,9.7758,0.0076,-0.0120,0.0109,2.63,-1.00,267.56,-0.4810,-0.1255,9.8020,9.8146
1,1,2,5,0,01.481,1481,-0.4400,-0.3200,9.8100,9.8251,0.0044,-0.0055,0.0022,2.63,-1.00,267.56,-0.4756,-0.1511,9.8030,9.8157
1,1,2,5,0,01.612,1612,-0.5200,-0.2600,9.9000,9.9171,0.0022,0.0022,0.0011,2.63,-1.00,267.56,-0.4815,-0.1655,9.8158,9.8290
1,1,2,5,0,01.743,1743,-0.6300,0.1500,9.8400,9.8613,0.0000,-0.0065,0.0044,2.56,-1.06,267.56,-0.5010,-0.1239,9.8190,9.8326
1,1,2,5,0,01.873,1873,-0.4100,0.0200,9.9100,9.9185,0.0011,-0.0011,0.0120,2.56,-1.06,267.56,-0.4890,-0.1049,9.8310,9.8437
1,1,2,5,0,02.046,2046,-0.4300,-0.1900,9.0200,9.0322,0.0055,0.0033,-0.0164,2.56,-1.06,267.56,-0.4813,-0.1162,9.7241,9.7367
1,1,2,5,0,02.176,2176,-0.3500,-0.1900,9.4200,9.4284,0.0000,-0.0011,-0.0022,2.56,-1.06,267.56,-0.4640,-0.1259,9.6841,9.6960
1,1,2,5,0,02.306,2306,-0.3600,-0.2000,9.3400,9.3491,0.0011,0.0022,-0.0011,2.56,-1.06,267.56,-0.4503,-0.1356,9.6387,9.6502
1,1,2,5,0,02.437,2437,-0.4900,-0.1900,9.5900,9.6044,0.0011,-0.0022,0.0044,2.56,-1.06,267.56,-0.4555,-0.1428,9.6323,9.6441
1,1,2,5,0,02.567,2567,-0.4300,-0.1600,9.8200,9.8307,-0.0022,-0.0011,-0.0033,2.56,-1.06,267.56,-0.4521,-0.1451,9.6570,9.6687
1,1,2,5,0,02.698,2698,-0.4100,-0.2100,10.0400,10.0506,0.0000,0.0033,0.0022,2.56,-1.06,267.56,-0.4466,-0.1536,9.7075,9.7190
1,1,2,5,0,02.828,2828,-0.5700,-0.1300,9.8100,9.8274,-0.0044,-0.0011,0.0098,2.56,-1.06,267.56,-0.4628,-0.1505,9.7210,9.7332
1,1,2,5,0,02.961,2961,-0.4800,-0.3300,10.2100,10.2266,-0.0087,-0.0087,-0.0087,2.56,-1.06,267.56,-0.4651,-0.1742,9.7854,9.7980
1,1,2,5,0,03.136,3136,-0.5100,-0.1200,9.9200,9.9338,-0.0033,-0.0022,-0.0142,2.56,-1.06,267.56,-0.4710,-0.1670,9.8032,9.8159
1,1,2,5,0,03.267,3267,-0.5000,-0.2100,9.4100,9.4256,-0.0033,-0.0022,-0.0011,2.56,-1.06,267.56,-0.4748,-0.1727,9.7514,9.7644
1,1,2,5,0,03.398,3398,-0.4400,-0.2700,9.9100,9.9234,0.0022,0.0033,0.0120,2.56,-1.06,267.56,-0.4703,-0.1855,9.7723,9.7853
1,1,2,5,0,03.528,3528,-0.5200,-0.1500,9.4200,9.4355,0.0022,-0.0011,-0.0044,2.56,-1.06,267.56,-0.4768,-0.1808,9.7258,9.7392
1,1,2,5,0,03.658,3658,-0.5200,-0.2100,9.6500,9.6663,-0.0011,0.0022,-0.0033,2.56,-1.06,267.56,-0.4825,-0.1847,9.7159,9.7296
1,1,2,5,0,03.788,3788,-0.4700,-0.1200,9.9200,9.9319,-0.0011,-0.0011,-0.0065,2.56,-1.06,267.56,-0.4809,-0.1762,9.7428,9.7562
1,1,2,5,0,03.919,3919,-0.4400,-0.2200,9.6400,9.6525,-0.0011,0.0044,-0.0022,2.56,-1.06,267.56,-0.4755,-0.1819,9.7292,9.7425
1,1,2,5,0,04.049,4049,-0.4000,-0.2400,9.8500,9.8610,0.0000,0.0065,-0.0022,2.56,-1.06,267.56,-0.4655,-0.1896,9.7451,9.7581
1,1,2,5,0,04.222,4222,-0.4300,-0.1900,9.8600,9.8712,0.0033,-0.0120,0.0033,2.63,-1.06,267.56,-0.4608,-0.1896,9.7603,9.7730
1,1,2,5,0,04.353,4353,-0.5500,-0.1900,10.0600,10.0768,-0.0022,-0.0011,-0.0033,2.63,-1.06,267.56,-0.4726,-0.1897,9.7998,9.8130
1,1,2,5,0,04.483,4483,-0.5100,-0.1100,9.4500,9.4644,0.0022,0.0000,-0.0011,2.63,-1.06,267.56,-0.4775,-0.1792,9.7537,9.7670
1,1,2,5,0,04.616,4616,-0.4000,-0.1100,9.9500,9.9586,0.0000,0.0022,-0.0076,2.63,-1.06,267.56,-0.4673,-0.1701,9.7795,9.7922
1,1,2,5,0,04.751,4751,-0.4600,-0.1000,9.9600,9.9711,0.0000,-0.0011,-0.0033,2.63,-1.06,267.56,-0.4663,-0.1608,9.8033,9.8157
1,1,2,5,0,04.881,4881,-0.4900,-0.2100,9.5100,9.5249,0.0000,-0.0011,0.0022,2.63,-1.06,267.56,-0.4695,-0.1673,9.7647,9.7774
1,1,2,5,0,05.012,5012,-0.3900,-0.2400,9.1300,9.1415,0.0022,0.0022,0.0000,2.63,-1.06,267.56,-0.4590,-0.1769,9.6810,9.6935
1,1,2,5,0,05.142,5142,-0.4000,-0.1800,9.3700,9.3803,-0.0033,0.0022,-0.0033,2.63,-1.06,267.56,-0.4512,-0.1773,9.6401,9.6522
1,1,2,5,0,05.315,5315,-0.4100,-0.3000,9.8800,9.8931,-0.0033,-0.0022,-0.0044,2.63,-1.06,267.56,-0.4458,-0.1935,9.6717,9.6839
1,1,2,5,0,05.446,5446,-0.5000,-0.1900,10.3100,10.3239,-0.0011,0.0011,0.0000,2.63,-1.06,267.56,-0.4529,-0.1930,9.7558,9.7682
1,1,2,5,0,05.582,5582,-0.4600,-0.1400,10.0100,10.0215,-0.0033,0.0044,-0.0022,2.63,-1.06,267.56,-0.4539,-0.1860,9.7893,9.8016
1,1,2,5,0,05.713,5713,-0.4200,-0.1200,10.2400,10.2493,-0.0044,-0.0022,-0.0022,2.63,-1.06,267.56,-0.4494,-0.1773,9.8487,9.8605
1,1,2,5,0,05.844,5844,-0.4700,-0.1300,10.5300,10.5413,-0.0055,-0.0044,-0.0011,2.63,-1.06,267.56,-0.4521,-0.1711,9.9385,9.9502
1,1,2,5,0,05.974,5974,-0.5000,-0.1100,10.8700,10.8820,-0.0022,0.0022,-0.0022,2.63,-1.06,267.56,-0.4584,-0.1630,10.0612,10.0730
1,1,2,5,0,06.105,6105,-0.5000,-0.1400,10.0500,10.0634,-0.0011,-0.0022,0.0022,2.63,-1.06,267.56,-0.4639,-0.1600,10.0597,10.0717
1,1,2,5,0,06.235,6235,-0.4200,-0.1900,9.7700,9.7809,0.0000,0.0011,-0.0011,2.63,-1.06,267.56,-0.4581,-0.1640,10.0216,10.0334
1,1,2,5,0,06.408,6408,-0.5200,-0.1700,10.1300,10.1448,-0.0022,0.0000,-0.0011,2.63,-1.06,267.56,-0.4663,-0.1648,10.0358,10.0480
1,1,2,5,0,06.538,6538,-0.4500,-0.1900,10.0100,10.0219,0.0022,-0.0065,-0.0011,2.63,-1.06,267.56,-0.4641,-0.1681,10.0324,10.0446
1,1,2,5,0,06.672,6672,-0.5100,-0.5800,10.2300,10.2591,0.0109,-0.0142,0.0109,2.63,-1.06,267.56,-0.4702,-0.2224,10.0585,10.0719
1,2,2,5,0,06.806,6806,-0.4700,-0.5300,9.7000,9.7258,0.0175,-0.0022,0.0076,2.63,-1.13,267.56,-0.4701,-0.2629,10.0112,10.0257
1,2,2,5,0,06.937,6937,-0.0700,-0.7200,9.4700,9.4976,0.0055,-0.0218,-0.0033,2.69,-1.13,267.56,-0.4174,-0.3231,9.9399,9.9539
1,2,2,5,0,07.067,7067,0.1400,-0.8800,9.4400,9.4820,0.0393,0.0535,-0.0098,2.63,-1.19,267.56,-0.3440,-0.3965,9.8740,9.8880
1,2,2,5,0,07.197,7197,-0.5700,-0.1900,9.5900,9.6088,0.0131,0.0076,-0.0011,2.69,-1.19,267.56,-0.3738,-0.3693,9.8366,9.8506
1,2,2,5,0,07.328,7328,-0.5700,-0.1900,9.9400,9.9581,0.0065,0.0033,0.0011,2.63,-1.25,267.56,-0.3996,-0.3457,9.8502,9.8644
1,2,2,5,0,07.502,7502,-0.4600,-0.1200,8.1500,8.1639,0.0218,0.0229,-0.0175,2.63,-1.31,267.50,-0.4076,-0.3159,9.6262,9.6400
1,2,2,5,0,07.638,7638,-0.4700,-0.1900,8.7800,8.7946,-0.0098,-0.0185,0.0142,2.63,-1.25,267.50,-0.4158,-0.2993,9.5147,9.5285
1,2,2,5,0,07.769,7769,-0.4000,-0.1300,10.0600,10.0688,0.0000,-0.0011,0.0076,2.63,-1.25,267.50,-0.4137,-0.2770,9.5865,9.5995
1,2,2,5,0,07.899,7899,-0.4900,-0.2800,9.9200,9.9360,-0.0011,0.0011,0.0087,2.63,-1.25,267.50,-0.4238,-0.2774,9.6305,9.6438
1,2,2,5,0,08.030,8030,-0.5200,-0.2700,9.8700,9.8874,-0.0022,-0.0033,-0.0065,2.63,-1.25,267.50,-0.4364,-0.2764,9.6620,9.6758
1,2,2,5,0,08.160,8160,-0.4500,-0.1900,9.5400,9.5525,-0.0022,-0.0044,-0.0022,2.63,-1.25,267.50,-0.4382,-0.2650,9.6460,9.6595
1,2,2,5,0,08.291,8291,-0.4300,-0.2300,9.5700,9.5824,-0.0022,0.0000,0.0011,2.63,-1.25,267.50,-0.4371,-0.2604,9.6360,9.6494
1,2,2,5,0,08.421,8421,-0.4900,-0.2400,9.8900,9.9050,0.0000,0.0033,0.0044,2.63,-1.25,267.50,-0.4441,-0.2577,9.6694,9.6831
1,2,2,5,0,08.595,8595,-0.5800,-0.2100,9.6200,9.6398,0.0011,-0.0044,-0.0011,2.63,-1.25,267.50,-0.4620,-0.2514,9.6629,9.6772
1,2,2,5,0,08.731,8731,-0.4300,-0.2100,9.4600,9.4721,0.0022,-0.0011,-0.0044,2.63,-1.25,267.50,-0.4578,-0.2460,9.6362,9.6502
1,2,2,5,0,08.862,8862,-0.4500,-0.1800,9.4500,9.4624,0.0011,0.0000,-0.0044,2.63,-1.25,267.50,-0.4568,-0.2373,9.6116,9.6254
1,2,2,5,0,08.992,8992,-0.5400,-0.1500,9.7900,9.8060,0.0000,0.0011,-0.0022,2.63,-1.25,267.50,-0.4677,-0.2258,9.6351,9.6491
1,2,2,5,0,09.122,9122,-0.3800,-0.1900,9.7300,9.7393,-0.0011,0.0033,0.0044,2.63,-1.25,267.50,-0.4562,-0.2211,9.6476,9.6610
1,2,2,5,0,09.253,9253,-0.5000,-0.1700,9.6800,9.6944,-0.0011,-0.0011,-0.0011,2.63,-1.25,267.50,-0.4620,-0.2143,9.6519,9.6653
1,2,2,5,0,09.383,9383,-0.5200,-0.1600,9.4700,9.4856,-0.0065,-0.0087,0.0055,2.63,-1.25,267.50,-0.4696,-0.2072,9.6279,9.6416
1,2,2,5,0,09.514,9514,-0.4600,-0.2100,9.7300,9.7431,-0.0022,0.0000,0.0022,2.63,-1.25,267.50,-0.4683,-0.2076,9.6414,9.6550
1,2,2,5,0,09.686,9686,-0.4400,-0.2000,9.6000,9.6122,0.0022,-0.0033,-0.0033,2.63,-1.25,267.50,-0.4646,-0.2066,9.6359,9.6493
1,2,2,5,0,09.817,9817,-0.4600,-0.2300,9.6500,9.6637,0.0022,-0.0033,-0.0033,2.63,-1.25,267.50,-0.4640,-0.2096,9.6378,9.6512
1,2,2,5,0,09.947,9947,-0.4900,-0.1700,9.8700,9.8836,0.0000,-0.0044,0.0022,2.63,-1.25,267.50,-0.4674,-0.2044,9.6684,9.6818
1,2,2,5,0,10.078,10078,-0.3700,-0.1300,10.3500,10.3574,0.0033,-0.0011,-0.0022,2.63,-1.25,267.50,-0.4546,-0.1946,9.7582,9.7707
1,2,2,5,0,10.213,10213,-0.5300,-0.1500,10.2200,10.2348,0.0000,0.0000,-0.0022,2.63,-1.25,267.50,-0.4645,-0.1887,9.8191,9.8319
1,2,2,5,0,10.346,10346,-0.5500,-0.1600,9.7600,9.7768,0.0000,-0.0076,0.0022,2.63,-1.25,267.50,-0.4758,-0.1849,9.8113,9.8245
1,2,2,5,0,10.476,10476,-0.3900,-0.1500,9.3100,9.3194,-0.0011,0.0022,-0.0033,2.63,-1.25,267.50,-0.4645,-0.1803,9.7452,9.7580
1,2,2,5,0,10.606,10606,-0.4500,-0.1400,8.7700,8.7827,-0.0065,0.0065,0.0000,2.63,-1.25,267.50,-0.4626,-0.1750,9.6167,9.6294
1,2,2,5,0,10.779,10779,-0.7000,-0.1000,10.1800,10.2045,-0.0022,-0.0087,0.0044,2.63,-1.25,267.50,-0.4939,-0.1651,9.6909,9.7049
1,2,2,5,0,10.911,10911,-0.3700,-0.1300,9.1000,9.1084,-0.0033,0.0033,-0.0033,2.63,-1.25,267.50,-0.4775,-0.1605,9.6131,9.6263
1,2,2,5,0,11.047,11047,-0.4400,-0.1000,8.4800,8.4920,-0.0011,-0.0044,0.0000,2.63,-1.25,267.50,-0.4726,-0.1525,9.4638,9.4768
1,2,2,5,0,11.178,11178,-0.5000,-0.1600,9.2000,9.2150,-0.0033,-0.0033,-0.0022,2.63,-1.25,267.50,-0.4762,-0.1535,9.4290,9.4423
1,2,2,5,0,11.308,11308,-0.4400,-0.1700,9.9300,9.9412,-0.0011,-0.0022,-0.0087,2.63,-1.25,267.50,-0.4714,-0.1557,9.4950,9.5080
1,2,2,5,0,11.439,11439,-0.5000,-0.1400,9.8900,9.9036,-0.0033,0.0000,0.0011,2.63,-1.25,267.50,-0.4752,-0.1536,9.5471,9.5601
1,2,2,5,0,11.569,11569,-0.5600,-0.1800,10.6800,10.6962,0.0000,0.0011,-0.0022,2.63,-1.25,267.50,-0.4864,-0.1571,9.6964,9.7098
1,2,2,5,0,11.699,11699,-0.4400,-0.2200,10.7300,10.7413,0.0022,-0.0055,0.0022,2.63,-1.25,267.50,-0.4803,-0.1654,9.8326,9.8457
1,2,2,5,0,11.872,11872,-0.2700,-0.2800,10.0800,10.0875,0.0055,-0.0011,0.0000,2.69,-1.25,267.50,-0.4526,-0.1805,9.8652,9.8772
1,2,2,5,0,12.002,12002,-0.6100,-0.1900,9.8400,9.8607,0.0120,-0.0229,0.0055,2.69,-1.25,267.50,-0.4733,-0.1817,9.8619,9.8749
1,2,2,5,0,12.132,12132,-0.4500,-0.1700,10.2400,10.2513,0.0087,-0.0076,-0.0076,2.81,-1.31,267.50,-0.4702,-0.1802,9.9117,9.9245
1,2,2,5,0,12.262,12262,-0.0900,-0.7400,10.1000,10.1275,-0.0044,-0.0044,0.0284,2.75,-1.31,267.50,-0.4201,-0.2540,9.9365,9.9486
1,3,2,5,0,12.392,12392,-1.1800,0.4100,9.7300,9.8099,0.0185,0.0033,-0.0305,2.75,-1.38,267.50,-0.5203,-0.1665,9.9093,9.9243
1,3,2,5,0,12.522,12522,-0.4900,-0.1800,8.7400,8.7556,0.0076,0.0022,-0.0011,2.75,-1.38,267.44,-0.5163,-0.1683,9.7552,9.7703
1,3,2,5,0,12.652,12652,-0.4200,-0.1200,8.3300,8.3414,-0.0011,0.0055,0.0011,2.75,-1.38,267.44,-0.5036,-0.1619,9.5674,9.5820
1,3,2,5,0,12.782,12782,-0.5000,-0.1700,9.7000,9.7144,-0.0033,-0.0022,0.0142,2.75,-1.38,267.50,-0.5031,-0.1630,9.5849,9.5995
1,3,2,5,0,12.955,12955,-0.4500,-0.2300,10.1400,10.1526,0.0011,-0.0044,0.0065,2.75,-1.38,267.50,-0.4961,-0.1718,9.6580,9.6723
1,3,2,5,0,13.089,13089,-0.4400,-0.3000,10.2600,10.2738,0.0011,-0.0011,-0.0065,2.75,-1.38,267.50,-0.4887,-0.1887,9.7374,9.7514
1,3,2,5,0,13.223,13223,-0.4300,-0.1700,9.9400,9.9507,-0.0033,-0.0044,0.0011,2.75,-1.38,267.50,-0.4810,-0.1862,9.7641,9.7777
1,3,2,5,0,13.353,13353,-0.4100,-0.1600,10.0800,10.0896,-0.0011,-0.0022,0.0076,2.75,-1.38,267.50,-0.4716,-0.1828,9.8057,9.8187
1,3,2,5,0,13.484,13484,-0.6500,-0.1700,9.9300,9.9527,0.0011,-0.0055,0.0000,2.75,-1.31,267.50,-0.4951,-0.1811,9.8221,9.8362
1,3,2,5,0,13.614,13614,-0.4600,-0.2000,9.7900,9.8028,0.0011,0.0000,0.0011,2.81,-1.31,267.50,-0.4905,-0.1836,9.8178,9.8318
1,3,2,5,0,13.745,13745,-0.3700,-0.1500,9.7900,9.7981,-0.0011,0.0044,0.0033,2.75,-1.31,267.50,-0.4746,-0.1792,9.8142,9.8273
1,3,2,5,0,13.875,13875,-0.4600,-0.2100,9.6100,9.6233,0.0011,-0.0044,0.0022,2.75,-1.31,267.50,-0.4727,-0.1832,9.7873,9.8004
1,3,2,5,0,14.048,14048,-0.3900,-0.2000,10.1100,10.1195,0.0011,-0.0022,-0.0011,2.75,-1.31,267.50,-0.4618,-0.1854,9.8298,9.8424
1,3,2,5,0,14.179,14179,-0.5200,-0.1800,9.8500,9.8654,-0.0076,-0.0098,-0.0011,2.81,-1.31,267.50,-0.4695,-0.1847,9.8325,9.8454
1,3,2,5,0,14.309,14309,-0.4800,-0.1800,9.9000,9.9133,0.0044,0.0011,0.0022,2.75,-1.31,267.50,-0.4709,-0.1841,9.8414,9.8543
1,3,2,5,0,14.440,14440,-0.3900,-0.1600,10.0600,10.0688,0.0055,0.0033,-0.0055,2.75,-1.31,267.50,-0.4602,-0.1809,9.8702,9.8825
1,3,2,5,0,14.571,14571,-0.4900,-0.1300,9.4400,9.4536,0.0022,0.0000,0.0000,2.75,-1.31,267.50,-0.4641,-0.1742,9.8135,9.8260
1,3,2,5,0,14.706,14706,-0.4900,-0.2000,9.7700,9.7843,0.0011,0.0022,0.0033,2.75,-1.31,267.50,-0.4675,-0.1776,9.8078,9.8205
1,3,2,5,0,14.837,14837,-0.5300,-0.1400,9.6600,9.6755,0.0022,0.0022,0.0055,2.75,-1.31,267.50,-0.4758,-0.1727,9.7883,9.8014
1,3,2,5,0,14.968,14968,-0.4000,-0.1700,10.1500,10.1593,0.0033,0.0011,-0.0033,2.75,-1.31,267.50,-0.4658,-0.1723,9.8359,9.8485
1,3,2,5,0,15.141,15141,-0.3300,-0.1900,8.6900,8.6983,0.0033,0.0076,-0.0055,2.75,-1.31,267.50,-0.4479,-0.1746,9.6849,9.6969
1,3,2,5,0,15.272,15272,-0.4600,-0.1400,8.9100,8.9230,0.0022,0.0011,-0.0033,2.75,-1.31,267.50,-0.4495,-0.1701,9.5828,9.5949
1,3,2,5,0,15.408,15408,-0.3600,-0.2500,8.6700,8.6811,0.0000,0.0033,0.0011,2.75,-1.31,267.50,-0.4377,-0.1806,9.4625,9.4744
1,3,2,5,0,15.539,15539,-0.5000,-0.1800,9.3100,9.3252,-0.0022,0.0055,-0.0033,2.75,-1.31,267.50,-0.4459,-0.1805,9.4424,9.4547
1,3,2,5,0,15.670,15670,-0.4800,-0.2100,9.6400,9.6542,-0.0033,0.0098,-0.0065,2.75,-1.31,267.50,-0.4504,-0.1844,9.4685,9.4810
1,3,2,5,0,15.800,15800,-0.5500,-0.0300,11.0400,11.0537,-0.0022,-0.0076,-0.0011,2.75,-1.31,267.50,-0.4635,-0.1641,9.6756,9.6880
1,3,2,5,0,15.931,15931,-0.5600,-0.1000,10.9900,11.0047,0.0000,0.0022,-0.0033,2.75,-1.31,267.50,-0.4762,-0.1556,9.8488,9.8615
1,3,2,5,0,16.061,16061,-0.4300,-0.0300,10.5000,10.5088,-0.0022,0.0065,-0.0044,2.75,-1.31,267.50,-0.4701,-0.1391,9.9346,9.9467
1,3,2,5,0,16.234,16234,-0.5100,-0.1800,10.7300,10.7436,0.0022,0.0098,0.0000,2.75,-1.31,267.50,-0.4754,-0.1445,10.0394,10.0517
1,4,2,5,0,16.364,16364,-0.4200,-0.1700,9.5700,9.5807,0.0022,0.0022,0.0000,2.75,-1.31,267.50,-0.4681,-0.1478,9.9775,9.9896
1,4,2,5,0,16.498,16498,-0.4400,-0.1700,10.1900,10.2009,0.0011,0.0044,-0.0011,2.75,-1.31,267.50,-0.4644,-0.1507,10.0055,10.0174
1,4,2,5,0,16.632,16632,-0.5300,-0.1900,10.1100,10.1257,0.0033,0.0011,0.0011,2.75,-1.31,267.50,-0.4730,-0.1559,10.0193,10.0317
1,4,2,5,0,16.763,16763,-0.4300,-0.2000,10.4200,10.4308,0.0076,-0.0022,0.0000,2.75,-1.31,267.50,-0.4674,-0.1617,10.0721,10.0842
1,4,2,5,0,16.893,16893,-0.4500,-0.0500,10.3900,10.3999,0.0120,-0.0087,0.0044,2.75,-1.38,267.50,-0.4651,-0.1470,10.1140,10.1258
1,4,2,5,0,17.023,17023,-0.3200,-0.3700,9.8600,9.8721,0.0142,-0.0142,0.0044,2.81,-1.44,267.50,-0.4460,-0.1764,10.0805,10.0919
1,4,2,5,0,17.154,17154,-0.5900,-0.2500,10.0200,10.0405,0.0120,0.0011,0.0022,2.81,-1.56,267.50,-0.4649,-0.1861,10.0726,10.0850
1,4,2,5,0,17.327,17327,-0.3800,-0.4900,8.7000,8.7221,0.0087,0.0033,0.0109,2.75,-1.63,267.50,-0.4537,-0.2261,9.8917,9.9047
1,4,2,5,0,17.463,17463,-0.3200,-0.1300,8.7300,8.7368,0.0098,0.0033,-0.0131,2.75,-1.69,267.44,-0.4361,-0.2135,9.7386,9.7507
1,4,2,5,0,17.595,17595,-0.4200,-0.1300,8.4600,8.4714,0.0033,-0.0011,0.0011,2.75,-1.69,267.44,-0.4340,-0.2025,9.5701,9.5821
1,4,2,5,0,17.725,17725,-0.5900,-0.2400,9.4500,9.4714,0.0022,-0.0011,0.0098,2.75,-1.69,267.44,-0.4546,-0.2074,9.5543,9.5673
1,4,2,5,0,17.856,17856,-0.4800,-0.2500,9.4800,9.4954,0.0011,0.0065,-0.0022,2.75,-1.69,267.44,-0.4579,-0.2130,9.5445,9.5579
1,4,2,5,0,17.987,17987,-0.3700,-0.1800,9.6000,9.6088,0.0033,0.0022,0.0000,2.75,-1.69,267.44,-0.4463,-0.2087,9.5518,9.5645
1,4,2,5,0,18.117,18117,-0.4000,-0.3300,10.5500,10.5627,0.0033,0.0055,0.0153,2.75,-1.69,267.50,-0.4402,-0.2247,9.6833,9.6960
1,4,2,5,0,18.247,18247,-0.6900,-0.1100,8.8000,8.8277,0.0087,0.0000,0.0164,2.75,-1.69,267.50,-0.4731,-0.2096,9.5669,9.5809
1,4,2,5,0,18.421,18421,-0.3100,-0.2800,9.8600,9.8688,-0.0022,0.0109,-0.0011,2.75,-1.69,267.44,-0.4516,-0.2188,9.6056,9.6187
1,4,2,5,0,18.557,18557,-0.5300,-0.1700,10.3400,10.3550,0.0000,-0.0022,0.0000,2.75,-1.63,267.44,-0.4620,-0.2124,9.7023,9.7157
1,4,2,5,0,18.688,18688,-0.6400,-0.1600,9.7300,9.7523,0.0022,0.0044,0.0022,2.75,-1.63,267.44,-0.4854,-0.2055,9.7060,9.7203
1,4,2,5,0,18.818,18818,-0.5000,-0.1500,9.0900,9.1050,0.0055,0.0022,0.0065,2.75,-1.63,267.44,-0.4873,-0.1982,9.6248,9.6392
1,4,2,5,0,18.949,18949,-0.4200,-0.2200,9.3100,9.3221,0.0044,0.0065,-0.0011,2.75,-1.63,267.44,-0.4785,-0.2011,9.5833,9.5974
1,4,2,5,0,19.079,19079,-0.5200,-0.1400,8.5700,8.5869,0.0055,0.0022,-0.0022,2.75,-1.63,267.44,-0.4839,-0.1930,9.4498,9.4642
1,4,2,5,0,19.209,19209,-0.3200,-0.2200,8.7100,8.7187,0.0000,0.0044,0.0076,2.75,-1.63,267.44,-0.4623,-0.1966,9.3523,9.3658
1,4,2,5,0,19.340,19340,-0.5200,-0.2000,9.1100,9.1270,0.0000,0.0033,-0.0011,2.75,-1.63,267.44,-0.4699,-0.1970,9.3204,9.3343
1,4,2,5,0,19.513,19513,-0.4100,-0.1000,10.7200,10.7283,-0.0011,0.0022,0.0000,2.75,-1.63,267.44,-0.4620,-0.1842,9.5048,9.5178
1,4,2,5,0,19.644,19644,-0.5400,-0.1300,10.6300,10.6445,0.0000,0.0055,-0.0022,2.75,-1.63,267.44,-0.4723,-0.1771,9.6531,9.6663
1,4,2,5,0,19.776,19776,-0.3800,-0.1200,10.0500,10.0579,0.0000,0.0076,-0.0055,2.75,-1.63,267.44,-0.4601,-0.1696,9.7054,9.7178
1,4,2,5,0,19.911,19911,-0.5000,-0.0900,10.2600,10.2726,0.0000,0.0022,-0.0022,2.75,-1.63,267.44,-0.4654,-0.1591,9.7785,9.7908
1,4,2,5,0,20.042,20042,-0.3800,-0.1000,9.9900,9.9977,-0.0033,-0.0011,-0.0055,2.75,-1.63,267.44,-0.4541,-0.1513,9.8063,9.8180
1,4,2,5,0,20.172,20172,-0.5100,-0.0500,9.8100,9.8234,0.0022,0.0022,-0.0055,2.75,-1.63,267.44,-0.4615,-0.1379,9.8068,9.8187
1,4,2,5,0,20.302,20302,-0.4100,-0.1600,10.3000,10.3094,0.0000,0.0076,-0.0044,2.75,-1.63,267.44,-0.4547,-0.1409,9.8718,9.8833
1,4,2,5,0,20.432,20432,-0.4100,-0.1600,9.9900,9.9997,0.0022,0.0065,-0.0022,2.75,-1.63,267.44,-0.4488,-0.1434,9.8874,9.8986
1,4,2,5,0,20.605,20605,-0.0100,0.5500,9.6300,9.6457,-0.0120,0.0109,-0.0185,2.75,-1.63,267.50,-0.3910,-0.0520,9.8535,9.8614
1,4,2,5,0,20.737,20737,0.1200,-0.4900,12.9100,12.9199,0.0022,0.0055,-0.0098,2.69,-1.69,267.44,-0.3237,-0.1097,10.2562,10.2619
1,4,2,5,0,20.870,20870,-0.6300,-0.2300,11.5100,11.5295,0.0120,-0.0033,-0.0033,2.75,-1.69,267.50,-0.3640,-0.1256,10.4215,10.4286
1,4,2,5,0,21.004,21004,-0.3400,-0.1300,11.1000,11.1060,0.0120,-0.0076,0.0022,2.75,-1.75,267.50,-0.3609,-0.1262,10.5109,10.5178
1,5,2,5,0,21.134,21134,-0.5500,0.4100,10.1900,10.2131,0.0175,-0.0153,0.0142,2.81,-1.88,267.56,-0.3858,-0.0555,10.4686,10.4758
1,5,2,5,0,21.265,21265,-0.4200,-0.5100,10.2800,10.3012,0.0382,0.0589,-0.0098,2.81,-2.00,267.56,-0.3903,-0.1154,10.4437,10.4517
1,5,2,5,0,21.395,21395,-0.3200,-0.4000,9.2700,9.2841,0.0022,0.0055,0.0120,2.75,-2.00,267.56,-0.3810,-0.1529,10.2891,10.2973
1,5,2,5,0,21.525,21525,0.0300,-0.6100,9.0900,9.1105,0.0055,0.0087,-0.0087,2.75,-2.06,267.50,-0.3269,-0.2131,10.1311,10.1386
1,5,2,5,0,21.698,21698,-0.4000,-0.0700,8.3100,8.3199,0.0033,0.0055,-0.0153,2.75,-2.00,267.44,-0.3365,-0.1943,9.8911,9.8987
1,5,2,5,0,21.828,21828,-0.3800,-0.1700,9.3400,9.3493,-0.0011,0.0022,0.0033,2.75,-2.00,267.50,-0.3422,-0.1911,9.8185,9.8263
1,5,2,5,0,21.959,21959,-0.5900,-0.1500,10.4200,10.4378,-0.0044,0.0022,0.0022,2.75,-2.00,267.50,-0.3749,-0.1857,9.8977,9.9066
1,5,2,5,0,22.090,22090,-0.4300,-0.3000,9.3500,9.3647,0.0033,0.0011,0.0065,2.75,-2.00,267.50,-0.3821,-0.2007,9.8256,9.8350
1,5,2,5,0,22.226,22226,-0.5700,-0.2800,10.6800,10.6989,0.0033,0.0033,0.0153,2.75,-1.94,267.56,-0.4069,-0.2112,9.9382,9.9487
1,5,2,5,0,22.357,22357,-0.3200,-0.2700,9.8100,9.8189,0.0055,0.0044,-0.0011,2.75,-1.94,267.50,-0.3955,-0.2189,9.9213,9.9316
1,5,2,5,0,22.488,22488,-0.5100,-0.3000,9.7900,9.8079,-0.0065,-0.0033,0.0098,2.75,-1.94,267.50,-0.4105,-0.2296,9.9040,9.9151
1,5,2,5,0,22.618,22618,-0.5300,-0.1700,10.0000,10.0155,0.0044,0.0000,0.0022,2.75,-1.88,267.50,-0.4263,-0.2218,9.9166,9.9283
1,5,2,5,0,22.791,22791,-0.4600,-0.2000,9.1200,9.1338,0.0022,0.0022,0.0022,2.75,-1.88,267.50,-0.4307,-0.2189,9.8116,9.8235
1,5,2,5,0,22.925,22925,-0.4000,-0.2100,9.3500,9.3609,0.0022,0.0033,-0.0033,2.75,-1.88,267.50,-0.4267,-0.2177,9.7508,9.7626
1,5,2,5,0,23.059,23059,-0.3400,-0.1700,9.7800,9.7874,0.0011,0.0000,-0.0055,2.75,-1.88,267.50,-0.4153,-0.2114,9.7547,9.7658
1,5,2,5,0,23.190,23190,-0.5200,-0.1300,9.1200,9.1357,0.0011,0.0055,-0.0044,2.75,-1.88,267.50,-0.4291,-0.2007,9.6710,9.6826
1,5,2,5,0,23.320,23320,-0.4700,-0.2000,9.6900,9.7035,0.0011,0.0033,0.0011,2.75,-1.88,267.50,-0.4345,-0.2006,9.6735,9.6854
1,5,2,5,0,23.451,23451,-0.4500,-0.1300,9.8500,9.8611,0.0000,0.0044,-0.0076,2.75,-1.88,267.50,-0.4365,-0.1913,9.6968,9.7085
1,5,2,5,0,23.581,23581,-0.4200,-0.1900,9.2200,9.2315,0.0000,0.0098,-0.0044,2.75,-1.88,267.50,-0.4343,-0.1911,9.6340,9.6456
1,5,2,5,0,23.711,23711,-0.5000,-0.1800,8.8100,8.8260,-0.0011,0.0076,-0.0022,2.75,-1.88,267.50,-0.4430,-0.1897,9.5254,9.5376
1,5,2,5,0,23.884,23884,-0.4600,-0.1700,11.1600,11.1708,0.0000,0.0055,-0.0076,2.75,-1.88,267.50,-0.4452,-0.1871,9.7408,9.7527
1,5,2,5,0,24.020,24020,-0.4000,-0.1000,11.3000,11.3075,0.0033,0.0000,-0.0076,2.75,-1.88,267.50,-0.4393,-0.1756,9.9462,9.9575
1,5,2,5,0,24.152,24152,-0.5700,-0.1200,9.9700,9.9870,0.0022,0.0087,-0.0011,2.75,-1.88,267.50,-0.4565,-0.1683,9.9494,9.9613
1,5,2,5,0,24.282,24282,-0.4000,-0.1300,9.9900,9.9988,0.0011,0.0055,-0.0065,2.75,-1.88,267.50,-0.4490,-0.1632,9.9547,9.9662
1,5,2,5,0,24.413,24413,-0.5100,-0.2400,9.7500,9.7663,0.0055,0.0022,0.0033,2.75,-1.88,267.50,-0.4571,-0.1733,9.9278,9.9398
1,5,2,5,0,24.543,24543,-0.4200,-0.1500,9.9100,9.9200,0.0022,0.0065,-0.0011,2.75,-1.88,267.50,-0.4522,-0.1703,9.9254,9.9372
1,5,2,5,0,24.673,24673,-0.4400,-0.1500,9.7900,9.8010,0.0033,0.0076,-0.0033,2.75,-1.88,267.50,-0.4506,-0.1676,9.9076,9.9192
1,5,2,5,0,24.804,24804,-0.4900,-0.1600,10.7200,10.7324,0.0055,0.0055,-0.0033,2.75,-1.88,267.50,-0.4558,-0.1666,10.0146,10.0264
1,5,2,5,0,24.977,24977,-0.5300,-0.1700,10.3700,10.3849,0.0087,-0.0044,0.0022,2.75,-1.81,267.50,-0.4656,-0.1670,10.0615,10.0736
1,5,2,5,0,25.108,25108,-0.3000,-0.0600,10.1900,10.1946,0.0131,-0.0087,0.0109,2.69,-1.81,267.50,-0.4437,-0.1529,10.0784,10.0893
1,6,2,5,0,25.241,25241,-0.3500,-0.0400,9.8400,9.8463,0.0175,0.0109,0.0022,2.75,-1.88,267.50,-0.4314,-0.1381,10.0470,10.0572
1,6,2,5,0,25.375,25375,-0.5200,-0.1500,9.8300,9.8449,0.0131,-0.0131,-0.0055,2.81,-1.94,267.50,-0.4431,-0.1396,10.0184,10.0292
1,6,2,5,0,25.506,25506,-0.4600,-0.0500,9.3200,9.3315,0.0033,-0.0098,0.0044,2.75,-2.00,267.56,-0.4453,-0.1278,9.9264,9.9372
1,6,2,5,0,25.637,25637,-0.8900,0.1700,9.8900,9.9314,0.0142,0.0044,-0.0109,2.75,-2.06,267.50,-0.5039,-0.0886,9.9216,9.9347
1,6,2,5,0,25.767,25767,-0.3900,-0.1300,9.2500,9.2591,0.0033,0.0044,-0.0142,2.75,-2.13,267.50,-0.4889,-0.0940,9.8331,9.8457
1,6,2,5,0,25.897,25897,-0.5500,-0.0200,8.0900,8.1087,0.0000,-0.0022,-0.0011,2.69,-2.13,267.44,-0.4969,-0.0843,9.6034,9.6166
1,6,2,5,0,26.073,26073,-0.2800,-0.2300,9.3200,9.3270,0.0000,0.0055,0.0185,2.75,-2.06,267.44,-0.4684,-0.1035,9.5660,9.5781
1,6,2,5,0,26.207,26207,-0.4700,-0.2000,8.8600,8.8747,0.0033,-0.0033,-0.0098,2.75,-2.06,267.50,-0.4686,-0.1162,9.4730,9.4853
1,6,2,5,0,26.338,26338,-0.1600,-0.4000,9.9800,9.9893,-0.0131,-0.0087,0.0033,2.75,-2.06,267.50,-0.4279,-0.1536,9.5398,9.5506
1,6,2,5,0,26.468,26468,-0.5200,-0.2600,10.2100,10.2265,0.0000,0.0000,0.0000,2.75,-2.06,267.50,-0.4400,-0.1676,9.6281,9.6396
1,6,2,5,0,26.598,26598,-0.3500,-0.1700,10.0900,10.0975,0.0022,-0.0022,-0.0142,2.75,-2.06,267.50,-0.4282,-0.1679,9.6890,9.6999
1,6,2,5,0,26.729,26729,-0.5000,-0.1300,9.6200,9.6339,0.0033,-0.0011,-0.0098,2.75,-2.06,267.50,-0.4376,-0.1629,9.6799,9.6912
1,6,2,5,0,26.859,26859,-0.5300,-0.1900,9.7400,9.7563,0.0076,0.0011,-0.0055,2.75,-2.00,267.50,-0.4498,-0.1665,9.6878,9.6997
1,6,2,5,0,26.990,26990,-0.6200,0.0000,9.9400,9.9593,-0.0044,0.0000,0.0000,2.75,-1.94,267.50,-0.4722,-0.1446,9.7210,9.7336
1,6,2,5,0,27.163,27163,-0.5400,-0.1500,9.7100,9.7262,0.0033,0.0033,0.0044,2.75,-1.94,267.50,-0.4812,-0.1453,9.7196,9.7326
1,6,2,5,0,27.293,27293,-0.5200,-0.1400,9.2100,9.2257,0.0033,0.0044,-0.0011,2.75,-1.94,267.50,-0.4863,-0.1446,9.6524,9.6658
1,6,2,5,0,27.427,27427,-0.4200,-0.1800,9.3200,9.3312,0.0055,0.0000,0.0022,2.75,-1.94,267.50,-0.4776,-0.1492,9.6086,9.6217
1,6,2,5,0,27.561,27561,-0.4400,-0.2200,9.4900,9.5027,0.0044,0.0033,0.0033,2.75,-1.94,267.50,-0.4726,-0.1586,9.5930,9.6059
1,6,2,5,0,27.691,27691,-0.4100,-0.2200,9.5900,9.6013,0.0011,0.0065,-0.0022,2.75,-1.88,267.50,-0.4644,-0.1667,9.5926,9.6053
1,6,2,5,0,27.822,27822,-0.4300,-0.2700,9.8100,9.8231,0.0011,0.0055,0.0011,2.75,-1.88,267.50,-0.4598,-0.1803,9.6213,9.6339
1,6,2,5,0,27.952,27952,-0.5100,-0.2200,10.6200,10.6345,0.0022,0.0044,-0.0033,2.75,-1.88,267.50,-0.4664,-0.1855,9.7529,9.7658
1,6,2,5,0,28.082,28082,-0.5700,-0.1800,10.8400,10.8565,0.0065,0.0076,0.0000,2.75,-1.88,267.50,-0.4801,-0.1848,9.8961,9.9095
1,6,2,5,0,28.255,28255,-0.3800,-0.2500,9.3400,9.3511,0.0033,0.0022,0.0000,2.75,-1.88,267.50,-0.4669,-0.1934,9.8228,9.8358
1,6,2,5,0,28.386,28386,-0.5700,-0.1300,9.5400,9.5579,-0.0022,-0.0033,0.0000,2.75,-1.81,267.50,-0.4805,-0.1850,9.7856,9.7991
1,6,2,5,0,28.517,28517,-0.5200,-0.2100,10.2200,10.2354,0.0033,-0.0011,0.0000,2.75,-1.81,267.50,-0.4857,-0.1883,9.8428,9.8566
1,6,2,5,0,28.650,28650,-0.4100,-0.1900,10.2500,10.2600,0.0011,0.0055,-0.0022,2.75,-1.81,267.50,-0.4757,-0.1885,9.8965,9.9097
1,6,2,5,0,28.784,28784,-0.4300,-0.1700,9.8800,9.8908,0.0022,0.0044,-0.0022,2.75,-1.75,267.50,-0.4697,-0.1861,9.8943,9.9072
1,6,2,5,0,28.915,28915,-0.4300,-0.1800,9.4700,9.4815,0.0033,0.0011,0.0000,2.75,-1.75,267.50,-0.4645,-0.1853,9.8384,9.8511
1,6,2,5,0,29.045,29045,-0.4000,-0.1500,9.3600,9.3697,0.0033,0.0033,-0.0011,2.75,-1.75,267.50,-0.4560,-0.1806,9.7753,9.7876
1,6,2,5,0,29.175,29175,-0.4600,-0.1700,8.8800,8.8935,0.0033,0.0000,0.0000,2.75,-1.75,267.50,-0.4565,-0.1792,9.6574,9.6698
1,6,2,5,0,29.348,29348,-0.4500,-0.1400,10.0800,10.0910,-0.0011,0.0022,-0.0011,2.75,-1.75,267.50,-0.4556,-0.1741,9.7131,9.7253
1,6,2,5,0,29.478,29478,-0.4900,-0.1900,10.1600,10.1736,0.0044,0.0022,0.0000,2.75,-1.75,267.50,-0.4602,-0.1762,9.7720,9.7844
1,6,2,5,0,29.609,29609,-0.5000,-0.1800,10.9500,10.9629,0.0065,-0.0022,0.0000,2.75,-1.69,267.50,-0.4654,-0.1767,9.9272,9.9397
1,6,2,5,0,29.743,29743,-0.3000,-0.1800,10.3200,10.3259,0.0142,0.0022,0.0011,2.69,-1.75,267.50,-0.4436,-0.1771,9.9790,9.9904
1,6,2,5,0,29.874,29874,-0.5200,-0.1500,9.8500,9.8649,0.0153,-0.0175,0.0055,2.75,-1.81,267.50,-0.4537,-0.1735,9.9620,9.9738
1,6,2,5,0,30.007,30007,-0.4900,-0.1100,10.0000,10.0126,0.0098,-0.0055,-0.0055,2.81,-1.88,267.50,-0.4585,-0.1652,9.9670,9.9789
1,6,2,5,0,30.138,30138,-0.3900,-0.4400,9.6400,9.6579,0.0011,-0.0044,0.0218,2.75,-1.94,267.50,-0.4494,-0.2014,9.9239,9.9361
1,6,2,5,0,30.268,30268,-0.8600,0.4800,10.1000,10.1479,0.0120,0.0098,-0.0382,2.69,-2.00,267.44,-0.5035,-0.1116,9.9471,9.9605
1,6,2,5,0,30.441,30441,-0.6000,-0.3700,8.2000,8.2302,0.0218,0.0207,-0.0131,2.69,-2.06,267.44,-0.5163,-0.1456,9.7169,9.7317
1,6,2,5,0,30.572,30572,-0.5800,-0.1400,7.9300,7.9524,0.0044,0.0055,0.0022,2.63,-2.06,267.44,-0.5247,-0.1449,9.4814,9.4970
1,7,2,5,0,30.703,30703,-0.5200,-0.2600,9.7400,9.7573,0.0044,0.0011,0.0044,2.69,-2.00,267.44,-0.5240,-0.1601,9.5155,9.5312
1,7,2,5,0,30.839,30839,-0.4200,-0.1500,10.2400,10.2497,0.0011,0.0033,0.0065,2.69,-2.00,267.44,-0.5103,-0.1587,9.6110,9.6258
1,7,2,5,0,30.970,30970,-0.4100,-0.1300,9.8600,9.8694,0.0011,0.0011,0.0033,2.69,-2.00,267.50,-0.4971,-0.1550,9.6438,9.6578
1,7,2,5,0,31.100,31100,-0.3400,-0.2700,10.4900,10.4990,0.0022,0.0011,0.0055,2.69,-2.00,267.50,-0.4764,-0.1701,9.7553,9.7684
1,7,2,5,0,31.231,31231,-0.5100,-0.2200,9.2700,9.2866,0.0022,0.0055,0.0065,2.69,-2.00,267.50,-0.4808,-0.1767,9.6913,9.7049
1,7,2,5,0,31.361,31361,-0.4400,-0.1900,9.7100,9.7218,0.0022,0.0055,0.0000,2.69,-2.00,267.50,-0.4755,-0.1784,9.6938,9.7071
1,7,2,5,0,31.534,31534,-0.5100,-0.1700,9.8800,9.8946,0.0044,0.0055,0.0000,2.69,-2.00,267.50,-0.4800,-0.1773,9.7183,9.7318
1,7,2,5,0,31.669,31669,-0.4700,-0.1100,9.8500,9.8618,0.0044,-0.0055,0.0065,2.69,-1.94,267.50,-0.4787,-0.1685,9.7357,9.7489
1,7,2,5,0,31.802,31802,-0.4500,-0.1600,9.0400,9.0526,0.0022,0.0033,0.0044,2.75,-1.94,267.50,-0.4749,-0.1673,9.6440,9.6571
1,7,2,5,0,31.932,31932,-0.5200,-0.1700,9.0000,9.0166,0.0055,0.0055,0.0022,2.75,-1.94,267.50,-0.4808,-0.1677,9.5591,9.5727
1,7,2,5,0,32.063,32063,-0.3500,-0.1900,9.4000,9.4084,0.0033,0.0033,0.0022,2.75,-1.94,267.50,-0.4636,-0.1706,9.5382,9.5510
1,7,2,5,0,32.193,32193,-0.4400,-0.2100,8.9300,8.9433,0.0000,0.0011,-0.0033,2.75,-1.94,267.50,-0.4605,-0.1758,9.4580,9.4709
1,7,2,5,0,32.324,32324,-0.4200,-0.2100,9.2000,9.2120,0.0022,0.0065,0.0011,2.75,-1.94,267.50,-0.4552,-0.1803,9.4240,9.4367
1,7,2,5,0,32.454,32454,-0.4200,-0.1500,9.6000,9.6104,0.0022,0.0011,-0.0022,2.75,-1.94,267.50,-0.4505,-0.1763,9.4472,9.4596
1,7,2,5,0,32.627,32627,-0.4100,-0.1600,9.4000,9.4103,0.0033,0.0055,-0.0022,2.75,-1.94,267.50,-0.4452,-0.1742,9.4410,9.4531
1,7,2,5,0,32.757,32757,-0.5000,-0.1200,8.8800,8.8949,0.0022,0.0000,-0.0011,2.75,-1.94,267.50,-0.4524,-0.1670,9.3671,9.3795
1,7,2,5,0,32.892,32892,-0.4100,-0.1400,9.3000,9.3101,0.0011,0.0022,-0.0033,2.75,-1.94,267.50,-0.4468,-0.1635,9.3582,9.3703
1,7,2,5,0,33.025,33025,-0.4500,-0.1800,9.1900,9.2028,0.0011,0.0022,0.0022,2.75,-1.94,267.50,-0.4472,-0.1657,9.3361,9.3482
1,7,2,5,0,33.155,33155,-0.4500,-0.1800,9.1600,9.1728,-0.0033,0.0055,-0.0011,2.75,-1.94,267.50,-0.4476,-0.1675,9.3129,9.3251
1,7,2,5,0,33.286,33286,-0.4600,-0.1700,9.3000,9.3129,-0.0033,0.0022,0.0000,2.75,-1.94,267.50,-0.4492,-0.1679,9.3112,9.3235
1,7,2,5,0,33.416,33416,-0.3800,-0.1300,9.6000,9.6084,-0.0022,0.0022,-0.0055,2.75,-1.94,267.50,-0.4401,-0.1629,9.3492,9.3610
1,7,2,5,0,33.546,33546,-0.4200,-0.2200,10.2600,10.2709,0.0022,-0.0011,0.0011,2.69,-1.94,267.50,-0.4375,-0.1704,9.4692,9.4809
1,7,2,5,0,33.719,33719,-0.3800,-0.1900,10.2700,10.2788,0.0033,0.0011,-0.0011,2.69,-1.88,267.50,-0.4299,-0.1730,9.5748,9.5860
1,7,2,5,0,33.849,33849,-0.6600,-0.4900,10.8800,10.9110,0.0120,-0.0131,0.0055,2.69,-1.88,267.50,-0.4602,-0.2148,9.7468,9.7600
1,7,2,5,0,33.979,33979,-0.6400,-0.2200,10.3400,10.3621,0.0240,0.0055,0.0109,2.69,-1.94,267.50,-0.4839,-0.2155,9.8249,9.8392
1,7,2,5,0,34.109,34109,-0.5000,-0.0400,9.7400,9.7529,0.0076,-0.0033,-0.0011,2.75,-2.00,267.50,-0.4860,-0.1923,9.8137,9.8277
1,7,2,5,0,34.239,34239,-0.4500,0.0600,9.3600,9.3710,-0.0044,0.0055,-0.0044,2.69,-2.06,267.50,-0.4813,-0.1591,9.7540,9.7671
1,7,2,5,0,34.369,34369,-1.1200,0.5600,9.7200,9.8003,0.0164,0.0033,-0.0196,2.69,-2.13,267.44,-0.5654,-0.0643,9.7495,9.7661
1,7,2,5,0,34.499,34499,-0.3800,-0.0100,8.3700,8.3786,0.0044,0.0033,-0.0065,2.69,-2.13,267.44,-0.5410,-0.0572,9.5677,9.5832
1,7,2,5,0,34.630,34630,-0.5300,-0.1600,8.4100,8.4282,-0.0022,-0.0033,0.0087,2.69,-2.13,267.44,-0.5396,-0.0707,9.4151,9.4309
1,7,2,5,0,34.802,34802,-0.2800,-0.1600,9.8700,9.8753,-0.0011,0.0000,-0.0087,2.69,-2.13,267.44,-0.5054,-0.0825,9.4751,9.4889
1,7,2,5,0,34.933,34933,-0.0900,1.0700,1.4400,1.7963,-0.0316,0.0033,-0.0033,2.69,-2.00,267.50,-0.4506,0.0694,8.4163,8.4286
1,7,2,5,0,35.063,35063,-1.9300,-2.6000,0.4500,3.2692,-0.3523,0.1898,0.0458,2.56,-1.75,267.69,-0.6456,-0.2824,7.3665,7.4001
1,7,2,5,0,35.194,35194,-0.0700,-6.0200,39.2300,39.6893,0.1833,-0.0687,0.1309,2.63,-1.88,267.56,-0.5697,-1.0384,11.5653,11.6258
1,7,2,5,0,35.324,35324,-3.2700,-2.6200,9.8000,10.6582,0.2094,-0.2585,-0.0851,2.81,-2.25,267.56,-0.9255,-1.2469,11.3327,11.4386
1,7,2,5,0,35.458,35458,0.2600,2.9800,4.1900,5.1482,-0.1265,0.0535,-0.0644,2.38,-1.69,267.63,-0.7693,-0.6899,10.3915,10.4427
1,7,2,5,0,35.589,35589,0.5200,-0.4600,5.5300,5.5734,-0.0164,0.0055,-0.1167,2.63,-2.19,267.69,-0.5994,-0.6596,9.7508,9.7915
1,7,2,5,0,35.722,35722,-0.1100,-0.8000,7.4900,7.5334,0.0589,0.0120,0.0295,2.56,-2.19,267.69,-0.5349,-0.6781,9.4529,9.4923
1,7,2,5,0,35.894,35894,-0.5400,-0.1800,10.4600,10.4755,0.0284,-0.0469,0.0131,2.56,-2.06,267.56,-0.5356,-0.6124,9.5856,9.6201
1,7,2,5,0,36.024,36024,-0.5400,0.2400,9.9000,9.9176,0.0207,-0.0185,0.0142,2.50,-2.13,267.50,-0.5362,-0.5001,9.6271,9.6549
1,7,2,5,0,36.154,36154,-0.7200,0.2800,10.0200,10.0497,-0.0011,0.0098,-0.0109,2.56,-2.13,267.56,-0.5604,-0.3973,9.6788,9.7032
1,7,2,5,0,36.284,36284,-0.4500,-0.3100,10.2800,10.2945,-0.0055,0.0305,-0.0142,2.50,-2.13,267.56,-0.5459,-0.3858,9.7581,9.7809
1,7,2,5,0,36.414,36414,-0.4200,-0.2200,9.9200,9.9313,-0.0033,0.0098,-0.0011,2.44,-2.13,267.56,-0.5293,-0.3640,9.7794,9.8005
1,7,2,5,0,36.544,36544,-0.5300,-0.2100,10.0800,10.0961,0.0033,0.0000,0.0000,2.44,-2.13,267.56,-0.5294,-0.3437,9.8190,9.8393
1,7,2,5,0,36.675,36675,-0.4400,-0.1600,10.0300,10.0409,0.0011,-0.0033,0.0000,2.44,-2.13,267.56,-0.5176,-0.3195,9.8468,9.8656
1,7,2,5,0,36.805,36805,-0.4800,-0.1500,9.5900,9.6032,0.0098,-0.0055,0.0011,2.44,-2.13,267.56,-0.5126,-0.2971,9.8130,9.8308
1,7,2,5,0,36.978,36978,-0.5100,-0.1900,9.9300,9.9449,0.0109,-0.0011,-0.0022,2.44,-2.13,267.56,-0.5123,-0.2830,9.8284,9.8458
