participant,rep,equipment_code,exercise_code,quality_code,timestamp,timestamp_ms,accelX,accelY,accelZ,accelMag,gyroX,gyroY,gyroZ,roll,pitch,yaw,filteredX,filteredY,filteredZ,filteredMag
4,1,2,5,0,00.000,0,-0.1800,-0.3100,9.7900,9.7966,0.0000,0.0000,0.0011,1.13,-1.75,344.38,-0.2233,-0.1966,9.6950,9.6995
4,1,2,5,0,00.130,130,-0.1900,-0.3300,9.7500,9.7574,0.0000,0.0022,0.0000,1.13,-1.75,344.38,-0.2189,-0.2142,9.7022,9.7071
4,1,2,5,0,00.264,264,-0.1900,-0.2900,9.7600,9.7662,0.0033,-0.0022,0.0011,1.13,-1.75,344.38,-0.2151,-0.2242,9.7098,9.7148
4,1,2,5,0,00.398,398,-0.1900,-0.2900,9.7600,9.7662,0.0011,-0.0011,-0.0022,1.13,-1.75,344.38,-0.2118,-0.2328,9.7164,9.7215
4,1,2,5,0,00.528,528,-0.2000,-0.3100,9.7900,9.7969,0.0000,-0.0011,0.0000,1.13,-1.75,344.38,-0.2103,-0.2430,9.7261,9.7314
4,1,2,5,0,00.659,659,-0.2000,-0.2900,9.7900,9.7963,0.0011,0.0000,-0.0011,1.13,-1.75,344.38,-0.2089,-0.2492,9.7346,9.7400
4,1,2,5,0,00.789,789,-0.2000,-0.2800,9.7800,9.7861,-0.0011,0.0022,0.0011,1.13,-1.75,344.38,-0.2077,-0.2533,9.7405,9.7460
4,1,2,5,0,00.962,962,-0.2000,-0.2900,9.7900,9.7963,-0.0011,0.0000,0.0011,1.13,-1.75,344.38,-0.2067,-0.2581,9.7471,9.7527
4,1,2,5,0,01.093,1093,-0.2300,-0.2700,9.7700,9.7764,-0.0022,0.0011,0.0011,1.13,-1.75,344.38,-0.2098,-0.2597,9.7501,9.7558
4,1,2,5,0,01.229,1229,-0.0400,-0.2600,10.6000,10.6033,0.0567,-0.0556,-0.0044,1.19,-1.81,344.38,-0.1874,-0.2597,9.8621,9.8673
4,1,2,5,0,01.359,1359,-0.8600,-0.6300,10.0400,10.0964,0.0567,-0.0545,-0.0611,1.31,-1.88,344.25,-0.2760,-0.3085,9.8855,9.8942
4,1,2,5,0,01.491,1491,-0.3000,-0.2500,9.7900,9.7978,0.0098,-0.0044,0.0262,1.31,-1.88,344.25,-0.2792,-0.3008,9.8729,9.8815
4,1,2,5,0,01.621,1621,-0.2300,-0.1400,9.6600,9.6638,-0.0120,-0.0011,0.0305,1.44,-2.00,344.44,-0.2727,-0.2796,9.8449,9.8526
4,1,2,5,0,01.752,1752,-0.2600,-0.2000,9.7500,9.7555,0.0000,-0.0033,0.0022,1.31,-1.88,344.31,-0.2710,-0.2691,9.8324,9.8398
4,1,2,5,0,01.882,1882,-0.3900,0.7900,9.7600,9.7997,-0.0796,0.0993,-0.1571,1.25,-1.81,344.31,-0.2867,-0.1296,9.8228,9.8279
4,1,2,5,0,02.055,2055,-0.2600,-0.5700,9.6500,9.6703,0.0131,-0.0207,-0.0044,1.25,-1.81,344.19,-0.2832,-0.1876,9.8001,9.8059
4,1,2,5,0,02.185,2185,-0.5000,-0.3300,9.7800,9.7983,-0.0055,0.0109,0.0076,1.31,-1.88,344.19,-0.3118,-0.2064,9.7974,9.8045
4,1,2,5,0,02.316,2316,-0.2900,-0.4900,10.1000,10.1160,0.0022,-0.0065,0.0022,1.31,-1.88,344.25,-0.3089,-0.2437,9.8373,9.8452
4,1,2,5,0,02.449,2449,0.0000,-0.3300,9.4000,9.4058,0.0087,-0.0142,-0.0098,1.38,-1.94,344.19,-0.2682,-0.2551,9.7797,9.7867
4,1,2,5,0,02.584,2584,-0.3900,-0.3200,9.3200,9.3336,0.0109,0.0065,0.0022,1.44,-1.94,344.25,-0.2842,-0.2637,9.7191,9.7268
4,1,2,5,0,02.715,2715,-0.0200,-0.2800,9.9300,9.9340,0.0087,-0.0065,0.0087,1.38,-1.94,344.19,-0.2494,-0.2658,9.7469,9.7537
4,1,2,5,0,02.845,2845,-0.1300,-0.3100,9.6000,9.6059,0.0044,-0.0055,0.0011,1.38,-1.94,344.19,-0.2337,-0.2716,9.7275,9.7341
4,1,2,5,0,02.975,2975,-0.2500,-0.3800,8.5300,8.5421,0.0000,-0.0033,0.0055,1.31,-2.00,344.19,-0.2358,-0.2859,9.5697,9.5769
4,1,2,5,0,03.148,3148,-0.1000,-0.3500,9.4600,9.4670,-0.0022,0.0011,0.0000,1.31,-2.00,344.19,-0.2179,-0.2944,9.5553,9.5623
4,1,2,5,0,03.279,3279,-0.2700,-0.3200,9.8700,9.8789,-0.0055,-0.0022,0.0033,1.38,-1.94,344.19,-0.2248,-0.2977,9.5967,9.6040
4,1,2,5,0,03.410,3410,-0.2200,-0.4500,9.8800,9.8927,-0.0033,-0.0022,-0.0033,1.38,-1.94,344.19,-0.2242,-0.3178,9.6341,9.6419
4,1,2,5,0,03.540,3540,-0.2500,-0.3600,9.7100,9.7199,-0.0022,0.0000,0.0055,1.38,-1.94,344.19,-0.2276,-0.3234,9.6441,9.6522
4,1,2,5,0,03.671,3671,-0.3900,-0.8600,9.6400,9.6861,0.0022,-0.0513,0.0153,1.38,-1.88,344.19,-0.2490,-0.3941,9.6435,9.6548
4,1,2,5,0,03.804,3804,-0.2900,-0.3400,10.0700,10.0799,-0.0011,0.0044,-0.0022,1.44,-1.88,344.19,-0.2544,-0.3870,9.6997,9.7108
4,1,2,5,0,03.938,3938,-0.2000,-0.4100,10.3100,10.3201,-0.0109,0.0076,-0.0044,1.38,-1.88,344.19,-0.2472,-0.3900,9.7802,9.7910
4,1,2,5,0,04.069,4069,-0.3100,-0.4700,10.4800,10.4951,-0.0087,0.0076,-0.0022,1.38,-1.88,344.19,-0.2555,-0.4005,9.8724,9.8838
4,1,2,5,0,04.241,4241,-0.2600,-0.3900,9.7800,9.7912,-0.0087,0.0044,-0.0087,1.38,-1.88,344.19,-0.2561,-0.3991,9.8602,9.8716
4,1,2,5,0,04.372,4372,-0.2200,-0.3500,9.9100,9.9186,-0.0044,0.0000,-0.0011,1.38,-1.88,344.19,-0.2513,-0.3927,9.8668,9.8778
4,1,2,5,0,04.502,4502,-0.2500,-0.3300,9.9300,9.9386,0.0000,0.0065,-0.0022,1.38,-1.88,344.19,-0.2512,-0.3844,9.8751,9.8858
4,1,2,5,0,04.632,4632,-0.2000,0.0700,9.6900,9.6923,-0.0360,0.0371,0.0676,1.31,-1.81,344.31,-0.2444,-0.3245,9.8507,9.8591
4,1,2,5,0,04.762,4762,-0.1500,-0.4300,9.7900,9.8006,0.0000,0.0033,0.0033,1.31,-1.81,344.19,-0.2320,-0.3384,9.8427,9.8513
4,1,2,5,0,04.892,4892,-0.2100,-0.0900,9.2500,9.2528,0.0076,-0.0076,0.0240,1.31,-1.81,344.19,-0.2291,-0.3057,9.7646,9.7721
4,1,2,5,0,05.022,5022,-0.2200,-0.0700,9.5400,9.5428,-0.0131,-0.0131,0.0295,1.56,-2.06,344.44,-0.2279,-0.2746,9.7350,9.7415
4,1,2,5,0,05.152,5152,0.3100,-0.8100,9.3400,9.3802,-0.0175,0.0393,-0.0065,1.56,-2.06,344.44,-0.1570,-0.3452,9.6830,9.6904
4,1,2,5,0,05.325,5325,0.1300,-1.6300,9.4700,9.6101,0.0644,-0.0480,0.0633,1.50,-2.06,344.44,-0.1192,-0.5145,9.6549,9.6693
4,1,2,5,0,05.455,5455,-0.3500,-0.1900,9.7700,9.7781,-0.0065,-0.0011,-0.0022,1.19,-1.69,344.38,-0.1496,-0.4717,9.6701,9.6827
4,1,2,5,0,05.586,5586,-0.2300,-0.3100,9.7800,9.7876,0.0011,0.0033,0.0011,1.19,-1.69,344.38,-0.1602,-0.4504,9.6845,9.6963
4,1,2,5,0,05.717,5717,-0.2300,-0.2800,9.7900,9.7967,-0.0011,-0.0022,-0.0011,1.19,-1.69,344.38,-0.1694,-0.4280,9.6984,9.7094
4,1,2,5,0,05.847,5847,-0.2000,-0.3100,9.7500,9.7570,-0.0022,-0.0022,-0.0044,1.19,-1.69,344.38,-0.1734,-0.4124,9.7052,9.7155
4,1,2,5,0,05.978,5978,-0.1800,-0.3500,9.6200,9.6280,0.0011,0.0000,0.0000,1.19,-1.69,344.38,-0.1743,-0.4042,9.6940,9.7040
4,1,2,5,0,06.113,6113,-0.2200,-0.2700,9.7900,9.7962,-0.0022,0.0000,0.0011,1.19,-1.69,344.38,-0.1803,-0.3865,9.7067,9.7160
4,1,2,5,0,06.245,6245,-0.0100,-0.0100,11.3000,11.3000,0.0524,-0.0371,0.0164,1.19,-1.75,344.38,-0.1579,-0.3369,9.9166,9.9236
4,1,2,5,0,06.418,6418,-0.3700,-0.1100,9.2600,9.2680,-0.0033,-0.0033,0.0033,1.31,-1.75,344.19,-0.1858,-0.3070,9.8301,9.8366
4,1,2,5,0,06.548,6548,-0.0200,-0.3300,10.8100,10.8151,0.0087,-0.0011,-0.0022,1.31,-1.75,344.19,-0.1640,-0.3100,9.9592,9.9654
4,1,2,5,0,06.679,6679,-0.0100,-0.3100,10.3000,10.3047,0.0055,0.0196,0.0065,1.31,-1.75,344.19,-0.1437,-0.3100,10.0041,10.0100
4,1,2,5,0,06.810,6810,-0.3300,-0.4300,9.6700,9.6852,0.0131,-0.0011,0.0175,1.31,-1.81,344.25,-0.1682,-0.3258,9.9601,9.9668
4,1,2,5,0,06.944,6944,-0.3200,-0.2100,9.4000,9.4078,0.0087,-0.0065,0.0011,1.38,-1.81,344.25,-0.1882,-0.3106,9.8863,9.8930
4,1,2,5,0,07.078,7078,-0.3300,-0.3300,9.2500,9.2618,0.0087,-0.0087,0.0011,1.44,-1.88,344.25,-0.2069,-0.3131,9.8024,9.8096
4,1,2,5,0,07.208,7208,-0.4600,-0.5100,9.8000,9.8240,0.0065,-0.0055,0.0131,1.31,-1.88,344.25,-0.2403,-0.3391,9.8021,9.8109
4,1,2,5,0,07.339,7339,-0.1900,-0.2700,10.1300,10.1354,0.0033,-0.0033,-0.0273,1.38,-1.88,344.19,-0.2336,-0.3300,9.8453,9.8536
4,1,2,5,0,07.512,7512,-0.1200,-0.4300,8.4300,8.4418,-0.0033,0.0076,0.0011,1.31,-1.88,344.19,-0.2187,-0.3432,9.6588,9.6674
4,1,2,5,0,07.643,7643,-0.1900,-0.4100,8.6300,8.6418,-0.0011,0.0022,-0.0120,1.31,-1.88,344.19,-0.2149,-0.3520,9.5233,9.5322
4,2,2,5,0,07.774,7774,-0.3200,-0.2400,9.6100,9.6183,-0.0229,-0.0087,0.0076,1.31,-1.88,344.19,-0.2287,-0.3372,9.5347,9.5434
4,2,2,5,0,07.904,7904,-0.1900,-0.3800,10.0100,10.0190,0.0000,-0.0022,0.0022,1.31,-1.88,344.19,-0.2236,-0.3428,9.5973,9.6060
4,2,2,5,0,08.036,8036,-0.1900,-0.3500,9.8100,9.8181,-0.0011,0.0033,0.0153,1.31,-1.88,344.19,-0.2192,-0.3438,9.6253,9.6340
4,2,2,5,0,08.171,8171,-0.2200,-0.3400,9.3700,9.3787,-0.0044,0.0011,-0.0098,1.31,-1.88,344.19,-0.2193,-0.3433,9.5917,9.6003
4,2,2,5,0,08.302,8302,-0.1800,-0.4300,9.7100,9.7212,-0.0044,0.0087,0.0076,1.31,-1.88,344.19,-0.2141,-0.3547,9.6073,9.6162
4,2,2,5,0,08.432,8432,-0.2100,-0.2600,9.7500,9.7557,-0.0033,-0.0360,0.0087,1.38,-1.88,344.19,-0.2136,-0.3422,9.6261,9.6345
4,2,2,5,0,08.605,8605,-0.1800,-0.3600,9.6700,9.6784,-0.0076,0.0044,0.0087,1.44,-1.88,344.19,-0.2092,-0.3446,9.6319,9.6403
4,2,2,5,0,08.735,8735,-0.3100,-0.4100,9.7700,9.7835,0.0055,-0.0076,0.0011,1.44,-1.88,344.19,-0.2224,-0.3532,9.6501,9.6591
4,2,2,5,0,08.865,8865,-0.2400,-0.2000,9.8300,9.8350,-0.0055,0.0087,-0.0033,1.38,-1.88,344.19,-0.2248,-0.3330,9.6738,9.6821
4,2,2,5,0,08.995,8995,-0.2300,-0.2900,9.6700,9.6771,-0.0033,-0.0055,-0.0033,1.38,-1.88,344.19,-0.2255,-0.3273,9.6733,9.6815
4,2,2,5,0,09.125,9125,-0.2900,-0.3700,10.1600,10.1709,-0.0044,0.0044,-0.0022,1.38,-1.88,344.19,-0.2340,-0.3330,9.7374,9.7459
4,2,2,5,0,09.255,9255,-0.2200,-0.3100,9.9800,9.9872,-0.0033,0.0033,-0.0065,1.38,-1.88,344.19,-0.2321,-0.3299,9.7694,9.7777
4,2,2,5,0,09.385,9385,-0.2100,-0.2900,9.8100,9.8165,0.0000,-0.0033,-0.0033,1.38,-1.88,344.19,-0.2292,-0.3247,9.7747,9.7828
4,2,2,5,0,09.515,9515,-0.2500,-0.2900,9.9200,9.9274,-0.0022,0.0011,-0.0033,1.38,-1.88,344.19,-0.2319,-0.3201,9.7939,9.8019
4,2,2,5,0,09.688,9688,-0.4600,-0.3400,9.5900,9.6070,0.0011,-0.0055,0.0000,1.31,-1.81,344.25,-0.2620,-0.3227,9.7670,9.7759
4,2,2,5,0,09.819,9819,-0.1900,-0.2100,9.7400,9.7441,-0.0044,-0.0011,-0.0044,1.31,-1.81,344.25,-0.2525,-0.3079,9.7635,9.7716
4,2,2,5,0,09.953,9953,-0.4200,-0.8600,10.2400,10.2846,0.0720,-0.0480,0.0535,1.44,-2.00,344.44,-0.2746,-0.3806,9.8263,9.8375
4,2,2,5,0,10.084,10084,-0.0500,-0.1400,9.8000,9.8011,-0.0513,0.0491,-0.0185,1.38,-2.00,344.38,-0.2450,-0.3489,9.8228,9.8320
4,2,2,5,0,10.217,10217,-0.2100,-0.3300,9.7100,9.7179,0.0087,-0.0065,-0.0022,1.50,-2.00,344.44,-0.2404,-0.3464,9.8079,9.8170
4,2,2,5,0,10.348,10348,-0.2100,-0.3400,9.8100,9.8181,-0.0011,0.0000,-0.0087,1.25,-1.75,344.38,-0.2364,-0.3456,9.8082,9.8171
4,2,2,5,0,10.478,10478,-0.2000,-0.2800,9.7800,9.7861,0.0011,0.0000,-0.0011,1.25,-1.75,344.38,-0.2316,-0.3369,9.8045,9.8130
4,2,2,5,0,10.609,10609,-0.2800,-0.6300,10.0600,10.0836,0.0840,-0.0709,-0.0076,1.31,-1.88,344.38,-0.2380,-0.3756,9.8382,9.8482
4,2,2,5,0,10.782,10782,-0.1100,-0.3400,9.7400,9.7466,0.0011,0.0044,-0.0109,1.38,-1.88,344.25,-0.2211,-0.3709,9.8252,9.8347
4,2,2,5,0,10.912,10912,-0.0500,-0.3200,10.1700,10.1752,0.0022,-0.0011,0.0065,1.38,-1.88,344.25,-0.1986,-0.3642,9.8707,9.8794
4,2,2,5,0,11.047,11047,-0.1800,-0.4000,10.5200,10.5291,-0.0011,-0.0033,0.0142,1.44,-1.88,344.25,-0.1961,-0.3689,9.9562,9.9650
4,2,2,5,0,11.180,11180,0.0600,-0.2900,9.7900,9.7945,0.0055,-0.0011,0.0033,1.44,-1.88,344.25,-0.1624,-0.3585,9.9343,9.9421
4,2,2,5,0,11.311,11311,-0.0800,0.0100,9.7800,9.7803,0.0207,-0.0436,0.0065,1.44,-1.94,344.25,-0.1515,-0.3099,9.9140,9.9200
4,2,2,5,0,11.441,11441,-0.3200,-0.1900,9.4600,9.4673,0.0076,-0.0120,0.0055,1.56,-1.94,344.31,-0.1737,-0.2941,9.8542,9.8601
4,2,2,5,0,11.571,11571,-0.8300,-0.4400,9.4500,9.4966,-0.0076,0.0000,0.0109,1.44,-2.00,344.31,-0.2602,-0.3134,9.8009,9.8094
4,2,2,5,0,11.702,11702,-0.1800,-0.0800,9.5800,9.5820,0.0033,-0.0055,-0.0153,1.50,-2.00,344.25,-0.2496,-0.2826,9.7718,9.7791
4,2,2,5,0,11.875,11875,-0.0500,-0.2500,8.9300,8.9336,0.0065,0.0087,-0.0175,1.50,-2.00,344.25,-0.2233,-0.2783,9.6609,9.6675
4,2,2,5,0,12.011,12011,-0.2000,-0.4100,9.0700,9.0815,-0.0055,0.0044,0.0033,1.44,-2.00,344.25,-0.2202,-0.2957,9.5830,9.5901
4,2,2,5,0,12.143,12143,-0.3500,-0.3600,9.8900,9.9027,-0.0044,-0.0011,0.0044,1.50,-1.94,344.25,-0.2373,-0.3041,9.6235,9.6312
4,2,2,5,0,12.273,12273,-0.3600,-0.4700,9.8800,9.8977,-0.0044,-0.0044,-0.0011,1.50,-1.94,344.25,-0.2535,-0.3260,9.6573,9.6661
4,2,2,5,0,12.404,12404,-0.2600,-0.3200,9.6600,9.6688,-0.0011,0.0000,-0.0011,1.50,-1.94,344.25,-0.2544,-0.3252,9.6576,9.6664
4,2,2,5,0,12.535,12535,-0.2100,-0.3000,9.3600,9.3672,0.0000,0.0022,-0.0022,1.50,-1.94,344.25,-0.2485,-0.3219,9.6184,9.6270
4,2,2,5,0,12.665,12665,-0.2700,-0.3700,9.7400,9.7508,0.0000,0.0055,0.0000,1.50,-1.94,344.25,-0.2513,-0.3282,9.6344,9.6433
4,2,2,5,0,12.795,12795,-0.0300,-0.6000,9.8000,9.8184,-0.0131,0.0000,0.0022,1.44,-1.94,344.25,-0.2222,-0.3640,9.6562,9.6657
4,2,2,5,0,12.968,12968,-0.3000,-0.3200,9.4000,9.4102,-0.0022,0.0033,0.0022,1.50,-1.94,344.25,-0.2324,-0.3582,9.6225,9.6320
4,2,2,5,0,13.099,13099,-0.3500,-0.4000,9.8600,9.8743,-0.0055,0.0065,0.0065,1.50,-1.94,344.25,-0.2479,-0.3637,9.6538,9.6638
4,2,2,5,0,13.235,13235,-0.1900,-0.2700,9.4300,9.4358,-0.0044,0.0098,-0.0098,1.50,-1.94,344.25,-0.2403,-0.3514,9.6243,9.6337
4,2,2,5,0,13.367,13367,-0.2300,-0.6500,9.5200,9.5449,-0.0131,0.0153,-0.0142,1.44,-1.94,344.19,-0.2389,-0.3907,9.6105,9.6215
4,2,2,5,0,13.497,13497,-0.1900,-0.3500,9.9000,9.9080,-0.0022,-0.0044,-0.0022,1.44,-1.88,344.19,-0.2325,-0.3854,9.6487,9.6592
4,2,2,5,0,13.628,13628,-0.1600,-0.0900,9.9400,9.9417,-0.0044,-0.0120,0.0011,1.44,-1.88,344.19,-0.2229,-0.3464,9.6871,9.6958
4,2,2,5,0,13.758,13758,-0.2000,-0.3100,9.9600,9.9668,0.0000,0.0055,-0.0055,1.44,-1.88,344.19,-0.2199,-0.3416,9.7230,9.7315
4,2,2,5,0,13.889,13889,-0.2700,-0.2500,9.7200,9.7270,0.0011,0.0065,-0.0022,1.44,-1.88,344.19,-0.2265,-0.3296,9.7226,9.7309
4,2,2,5,0,14.061,14061,-0.2500,-0.3500,9.8200,9.8294,0.0164,-0.0153,-0.0087,1.44,-1.88,344.31,-0.2296,-0.3323,9.7355,9.7438
4,2,2,5,0,14.192,14192,-0.3000,-0.3600,9.8200,9.8312,-0.0011,-0.0055,0.0022,1.44,-1.88,344.25,-0.2389,-0.3359,9.7466,9.7553
4,2,2,5,0,14.322,14322,-0.2400,-0.1800,7.7200,7.7258,0.0436,-0.0295,0.0513,1.44,-1.94,344.31,-0.2390,-0.3154,9.4796,9.4878
4,2,2,5,0,14.455,14455,-0.3500,-0.3700,9.8900,9.9031,-0.0065,-0.0011,-0.0033,1.25,-1.75,344.44,-0.2537,-0.3226,9.5336,9.5425
4,2,2,5,0,14.590,14590,-0.2700,-0.2600,9.8300,9.8371,-0.0011,-0.0065,-0.0033,1.25,-1.75,344.44,-0.2558,-0.3143,9.5727,9.5813
4,2,2,5,0,14.721,14721,-0.1900,-0.3000,9.8200,9.8264,0.0000,-0.0011,-0.0011,1.25,-1.75,344.44,-0.2471,-0.3124,9.6053,9.6135
4,2,2,5,0,14.851,14851,-0.2100,-0.2600,9.8100,9.8157,0.0011,-0.0011,0.0000,1.25,-1.75,344.44,-0.2422,-0.3055,9.6323,9.6401
4,2,2,5,0,14.982,14982,-0.2100,-0.2500,9.8200,9.8254,-0.0011,0.0011,-0.0011,1.25,-1.75,344.44,-0.2380,-0.2982,9.6570,9.6645
4,2,2,5,0,15.155,15155,1.4100,-0.2900,13.1500,13.2286,-0.0578,0.0611,-0.0753,1.31,-1.75,344.25,-0.0208,-0.2971,10.1173,10.1217
4,2,2,5,0,15.285,15285,0.4700,0.2000,11.6200,11.6312,-0.0109,0.0076,-0.0076,1.31,-1.75,344.25,0.0438,-0.2316,10.3153,10.3180
4,2,2,5,0,15.418,15418,-0.4700,-0.3900,11.1500,11.1667,0.0131,-0.0207,0.0175,1.44,-1.81,344.31,-0.0239,-0.2525,10.4253,10.4284
4,2,2,5,0,15.549,15549,-0.5600,0.0800,11.0500,11.0645,0.0142,-0.0273,0.0065,1.38,-1.81,344.31,-0.0945,-0.2087,10.5076,10.5101
4,3,2,5,0,15.683,15683,-0.2200,-0.2900,10.1400,10.1465,0.0207,-0.0153,0.0142,1.50,-1.94,344.31,-0.1110,-0.2194,10.4592,10.4621
4,3,2,5,0,15.814,15814,-0.2000,-0.3800,9.7700,9.7794,0.0033,-0.0120,0.0076,1.50,-2.06,344.31,-0.1228,-0.2406,10.3684,10.3719
4,3,2,5,0,15.945,15945,0.0000,-0.4400,8.6700,8.6812,-0.0011,-0.0076,-0.0098,1.50,-2.00,344.31,-0.1066,-0.2668,10.1446,10.1486
4,3,2,5,0,16.075,16075,0.2100,-0.6600,7.7000,7.7311,0.0033,0.0164,0.0087,1.44,-2.13,344.31,-0.0649,-0.3186,9.8224,9.8278
4,3,2,5,0,16.248,16248,-0.0800,-0.3200,9.1600,9.1659,-0.0120,-0.0076,-0.0109,1.50,-2.13,344.31,-0.0669,-0.3188,9.7351,9.7406
4,3,2,5,0,16.378,16378,-0.3000,-0.3400,10.2700,10.2800,-0.0033,0.0033,0.0011,1.50,-2.13,344.31,-0.0976,-0.3216,9.8056,9.8114
4,3,2,5,0,16.509,16509,-0.1700,-0.3700,10.0800,10.0882,-0.0065,-0.0011,0.0000,1.50,-2.06,344.31,-0.1071,-0.3280,9.8418,9.8478
4,3,2,5,0,16.640,16640,-0.1000,-0.3500,9.8100,9.8168,0.0000,-0.0022,0.0022,1.50,-2.06,344.31,-0.1062,-0.3309,9.8376,9.8437
4,3,2,5,0,16.772,16772,-0.1600,-0.4400,9.4500,9.4616,-0.0033,0.0033,0.0011,1.50,-2.06,344.31,-0.1133,-0.3453,9.7865,9.7933
4,3,2,5,0,16.903,16903,-0.3000,-0.3200,9.5200,9.5301,-0.0065,-0.0011,0.0022,1.50,-2.06,344.31,-0.1379,-0.3419,9.7514,9.7584
4,3,2,5,0,17.037,17037,-0.2800,-0.3700,9.9100,9.9209,-0.0087,-0.0011,0.0044,1.44,-2.06,344.31,-0.1566,-0.3456,9.7723,9.7797
4,3,2,5,0,17.168,17168,-0.2700,-0.3200,9.7000,9.7090,-0.0065,0.0044,-0.0033,1.44,-2.06,344.31,-0.1716,-0.3423,9.7628,9.7703
4,3,2,5,0,17.341,17341,-0.1100,-0.3200,9.7000,9.7059,-0.0087,0.0055,-0.0087,1.44,-2.06,344.31,-0.1634,-0.3393,9.7545,9.7618
4,3,2,5,0,17.472,17472,-0.2100,-0.3400,9.7200,9.7282,-0.0055,-0.0033,-0.0022,1.44,-2.00,344.31,-0.1696,-0.3394,9.7500,9.7573
4,3,2,5,0,17.603,17603,-0.3400,-0.2300,9.4100,9.4189,-0.0011,-0.0044,0.0000,1.44,-2.00,344.31,-0.1920,-0.3250,9.7052,9.7125
4,3,2,5,0,17.733,17733,-0.2700,-0.3500,9.9400,9.9498,-0.0033,0.0011,-0.0033,1.44,-2.00,344.31,-0.2023,-0.3283,9.7361,9.7437
4,3,2,5,0,17.864,17864,-0.2000,-0.2700,9.9100,9.9157,-0.0065,0.0055,-0.0044,1.44,-2.00,344.31,-0.2020,-0.3206,9.7590,9.7664
4,3,2,5,0,17.998,17998,-0.1800,-0.3100,9.8600,9.8665,0.0000,-0.0011,0.0000,1.44,-2.00,344.31,-0.1991,-0.3192,9.7723,9.7796
4,3,2,5,0,18.131,18131,-0.2200,-0.2800,9.8500,9.8564,-0.0033,0.0022,-0.0055,1.44,-2.00,344.31,-0.2019,-0.3140,9.7826,9.7897
4,3,2,5,0,18.261,18261,0.4600,0.1500,24.4800,24.4848,0.0305,0.0709,0.0415,1.38,-2.06,344.31,-0.1146,-0.2529,11.7193,11.7226
4,4,2,5,0,18.434,18434,-0.4100,-1.6500,6.3800,6.6027,0.0185,0.0894,0.0153,1.69,-2.31,344.38,-0.1536,-0.4370,11.0157,11.0255
4,4,2,5,0,18.564,18564,-0.0900,-0.5400,9.7600,9.7753,-0.0065,0.0011,-0.0055,1.56,-2.13,344.25,-0.1452,-0.4506,10.8503,10.8606
4,4,2,5,0,18.694,18694,3.5700,1.0800,14.9100,15.3694,-0.4058,0.2443,-0.0905,1.31,-1.88,344.38,0.3444,-0.2489,11.3852,11.3931
4,4,2,5,0,18.824,18824,-0.2400,-0.4000,9.7900,9.8011,-0.0022,-0.0033,0.0022,1.31,-2.00,344.44,0.2674,-0.2688,11.1750,11.1814
4,4,2,5,0,18.954,18954,-0.2000,-0.2800,9.8200,9.8260,-0.0033,-0.0011,0.0022,1.31,-2.00,344.44,0.2058,-0.2703,10.9965,11.0017
4,4,2,5,0,19.085,19085,-0.0300,0.0000,15.7000,15.7000,0.0807,-0.0611,-0.0142,1.38,-2.06,344.38,0.1747,-0.2347,11.6163,11.6199
4,4,2,5,0,19.215,19215,-0.6800,0.1900,8.5000,8.5293,0.0120,-0.0185,0.0393,1.38,-1.94,344.25,0.0621,-0.1787,11.2056,11.2072
4,4,2,5,0,19.345,19345,-0.2900,-0.8400,9.4900,9.5315,0.0065,-0.0131,0.0196,1.44,-2.13,344.31,0.0157,-0.2658,10.9795,10.9828
4,4,2,5,0,19.518,19518,-0.5400,0.1800,10.4100,10.4256,-0.0218,0.0044,0.0033,1.44,-2.06,344.25,-0.0575,-0.2071,10.9045,10.9066
4,4,2,5,0,19.649,19649,-0.4200,-0.0900,10.5800,10.5887,-0.0022,-0.0044,-0.0044,1.50,-2.13,344.31,-0.1053,-0.1917,10.8617,10.8639
4,4,2,5,0,19.783,19783,-0.2500,-0.3100,10.0700,10.0779,0.0425,0.0447,-0.0022,1.56,-2.25,344.31,-0.1244,-0.2073,10.7574,10.7601
4,4,2,5,0,19.914,19914,0.2100,-0.7800,8.7300,8.7673,0.0055,0.0153,-0.0185,1.56,-2.31,344.31,-0.0803,-0.2827,10.4902,10.4944
4,4,2,5,0,20.047,20047,-0.2200,-0.2500,8.0700,8.0769,0.0076,-0.0011,-0.0033,1.56,-2.38,344.25,-0.0987,-0.2784,10.1713,10.1756
4,4,2,5,0,20.178,20178,-0.3200,-0.1600,8.5400,8.5475,0.0065,-0.0087,-0.0033,1.56,-2.44,344.25,-0.1279,-0.2628,9.9564,9.9606
4,4,2,5,0,20.308,20308,-0.3200,-0.4200,9.7000,9.7144,-0.0076,0.0055,0.0055,1.56,-2.44,344.25,-0.1532,-0.2835,9.9226,9.9278
4,4,2,5,0,20.439,20439,-0.1700,-0.6000,9.9700,9.9895,-0.0055,-0.0087,-0.0109,1.63,-2.38,344.25,-0.1554,-0.3252,9.9288,9.9354
4,4,2,5,0,20.612,20612,-0.2100,-0.4800,10.1100,10.1236,0.0000,-0.0022,0.0011,1.63,-2.38,344.25,-0.1626,-0.3456,9.9527,9.9600
4,4,2,5,0,20.742,20742,-0.1100,-0.2700,9.3500,9.3545,-0.0131,-0.0044,-0.0022,1.63,-2.38,344.25,-0.1557,-0.3357,9.8733,9.8802
4,4,2,5,0,20.875,20875,-0.1300,-0.4100,9.8600,9.8694,-0.0076,-0.0131,-0.0076,1.56,-2.38,344.25,-0.1523,-0.3455,9.8715,9.8787
4,4,2,5,0,21.010,21010,-0.1900,-0.1700,10.0600,10.0632,-0.0131,0.0076,-0.0011,1.63,-2.31,344.25,-0.1573,-0.3223,9.8964,9.9029
4,4,2,5,0,21.141,21141,-0.1200,-0.2400,9.6400,9.6437,-0.0087,0.0011,-0.0076,1.56,-2.31,344.25,-0.1523,-0.3115,9.8626,9.8687
4,4,2,5,0,21.271,21271,-0.1800,-0.3000,9.8900,9.8962,-0.0065,0.0065,-0.0033,1.56,-2.31,344.25,-0.1560,-0.3100,9.8662,9.8723
4,4,2,5,0,21.401,21401,-0.1900,-0.3300,9.6500,9.6575,0.0000,-0.0055,0.0000,1.56,-2.31,344.25,-0.1605,-0.3126,9.8377,9.8440
4,4,2,5,0,21.532,21532,-0.2200,-0.3500,9.5900,9.5989,-0.0044,-0.0065,-0.0022,1.56,-2.31,344.25,-0.1683,-0.3175,9.8051,9.8116
4,4,2,5,0,21.705,21705,-0.2800,-0.2900,9.9500,9.9582,-0.0055,0.0011,-0.0033,1.56,-2.31,344.25,-0.1830,-0.3139,9.8242,9.8309
4,4,2,5,0,21.838,21838,-0.2900,-0.3300,10.1200,10.1295,-0.0044,0.0065,0.0000,1.56,-2.31,344.25,-0.1971,-0.3160,9.8631,9.8702
4,4,2,5,0,21.969,21969,-0.2000,-0.2600,9.7500,9.7555,-0.0022,-0.0022,-0.0022,1.56,-2.31,344.25,-0.1975,-0.3086,9.8482,9.8551
4,4,2,5,0,22.103,22103,-1.1300,-0.4700,9.6200,9.6975,0.0240,0.0207,0.0600,1.50,-2.38,344.31,-0.3204,-0.3299,9.8182,9.8289
4,4,2,5,0,22.234,22234,-0.1600,-0.3400,9.6800,9.6873,-0.0044,0.0087,-0.0011,1.50,-2.38,344.31,-0.2993,-0.3312,9.8000,9.8101
4,4,2,5,0,22.365,22365,-0.2200,-0.3400,9.7600,9.7684,-0.0033,-0.0022,-0.0011,1.50,-2.38,344.31,-0.2888,-0.3324,9.7947,9.8046
4,4,2,5,0,22.495,22495,0.9200,-0.3200,8.1200,8.1782,-0.1484,0.1909,-0.0262,1.38,-2.31,344.44,-0.1295,-0.3308,9.5740,9.5806
4,4,2,5,0,22.625,22625,-0.2800,-0.2700,9.6400,9.6478,-0.0011,-0.0044,-0.0011,1.38,-2.19,344.44,-0.1493,-0.3228,9.5827,9.5893
4,4,2,5,0,22.798,22798,-0.1900,-0.1000,9.4900,9.4924,0.0665,-0.0971,0.0371,1.63,-2.50,344.50,-0.1547,-0.2934,9.5705,9.5762
4,4,2,5,0,22.929,22929,-0.1000,-0.6700,9.7900,9.8134,-0.0545,0.0644,-0.0764,1.50,-2.38,344.38,-0.1475,-0.3430,9.5994,9.6067
4,4,2,5,0,23.059,23059,-0.1800,-0.3300,9.7400,9.7473,0.0000,-0.0011,-0.0109,1.38,-2.19,344.38,-0.1518,-0.3413,9.6179,9.6252
4,4,2,5,0,23.190,23190,-0.2500,-0.3100,9.7800,9.7881,0.0011,-0.0033,-0.0011,1.44,-2.25,344.38,-0.1647,-0.3372,9.6393,9.6466
4,4,2,5,0,23.321,23321,-0.1400,-0.3800,10.4300,10.4379,0.0240,-0.0196,0.0022,1.44,-2.25,344.38,-0.1615,-0.3428,9.7435,9.7509
4,4,2,5,0,23.454,23454,0.2300,-0.3200,10.4900,10.4974,0.0055,0.0011,-0.0229,1.50,-2.25,344.19,-0.1099,-0.3398,9.8419,9.8483
4,4,2,5,0,23.585,23585,0.0200,0.0300,10.7500,10.7501,0.0153,-0.0175,-0.0295,1.50,-2.25,344.19,-0.0928,-0.2911,9.9615,9.9662
4,4,2,5,0,23.718,23718,-0.1800,-0.0200,10.2800,10.2816,-0.0076,-0.0022,0.0131,1.50,-2.25,344.19,-0.1043,-0.2554,10.0035,10.0073
4,5,2,5,0,23.891,23891,-0.3100,0.0700,9.4400,9.4453,0.0044,-0.0164,0.0131,1.50,-2.25,344.19,-0.1314,-0.2125,9.9292,9.9324
4,5,2,5,0,24.022,24022,-0.5500,-0.2300,9.8300,9.8481,0.0131,-0.0153,-0.0076,1.63,-2.31,344.25,-0.1865,-0.2148,9.9162,9.9202
4,5,2,5,0,24.152,24152,-0.3100,-0.3900,9.6700,9.6828,0.0022,-0.0044,-0.0033,1.63,-2.31,344.25,-0.2028,-0.2379,9.8837,9.8887
4,5,2,5,0,24.286,24286,-0.3900,-0.5600,9.6300,9.6541,0.0065,-0.0120,0.0087,1.56,-2.38,344.25,-0.2275,-0.2803,9.8503,9.8569
4,5,2,5,0,24.420,24420,-0.2200,-0.4900,9.8000,9.8147,0.0055,-0.0033,0.0087,1.56,-2.31,344.25,-0.2265,-0.3080,9.8437,9.8511
4,5,2,5,0,24.551,24551,-0.1700,-0.3900,9.4900,9.4995,0.0076,0.0076,0.0011,1.50,-2.31,344.19,-0.2190,-0.3188,9.7971,9.8047
4,5,2,5,0,24.681,24681,-0.2300,-0.4000,9.2800,9.2915,-0.0044,-0.0022,-0.0055,1.50,-2.31,344.19,-0.2205,-0.3295,9.7289,9.7370
4,5,2,5,0,24.811,24811,-0.2200,-0.3500,9.0400,9.0494,-0.0022,0.0000,-0.0055,1.50,-2.31,344.19,-0.2204,-0.3322,9.6381,9.6464
4,5,2,5,0,24.984,24984,-0.2700,-0.2800,9.7900,9.7977,-0.0055,-0.0098,-0.0022,1.50,-2.31,344.19,-0.2270,-0.3253,9.6582,9.6663
4,5,2,5,0,25.114,25114,-0.1800,-0.3500,9.9900,9.9977,-0.0033,-0.0011,-0.0076,1.50,-2.31,344.19,-0.2208,-0.3286,9.7019,9.7100
4,5,2,5,0,25.244,25244,-0.1800,-0.3600,9.7400,9.7483,0.0000,0.0011,-0.0076,1.50,-2.31,344.19,-0.2154,-0.3327,9.7069,9.7150
4,5,2,5,0,25.374,25374,-0.1800,-0.3000,9.3000,9.3066,-0.0022,0.0044,-0.0011,1.50,-2.31,344.19,-0.2107,-0.3284,9.6533,9.6612
4,5,2,5,0,25.504,25504,-0.2300,-0.3700,9.6900,9.6998,-0.0022,-0.0011,0.0022,1.50,-2.31,344.19,-0.2133,-0.3339,9.6581,9.6662
4,5,2,5,0,25.634,25634,-0.2100,-0.3400,10.0100,10.0180,-0.0011,0.0033,0.0011,1.50,-2.31,344.19,-0.2128,-0.3347,9.7045,9.7126
4,5,2,5,0,25.764,25764,-0.2100,-0.4900,9.6100,9.6248,-0.0055,0.0109,0.0000,1.50,-2.31,344.19,-0.2125,-0.3551,9.6920,9.7009
4,5,2,5,0,25.895,25895,-0.1600,-0.2700,9.6700,9.6751,0.0000,-0.0098,-0.0109,1.56,-2.25,344.19,-0.2056,-0.3439,9.6891,9.6974
4,5,2,5,0,26.068,26068,-0.2600,-0.3800,9.8700,9.8807,-0.0022,0.0000,0.0000,1.56,-2.25,344.19,-0.2127,-0.3487,9.7130,9.7216
4,5,2,5,0,26.200,26200,-0.1300,-0.3300,9.7400,9.7465,0.0022,-0.0033,-0.0011,1.56,-2.25,344.19,-0.2018,-0.3462,9.7165,9.7248
4,5,2,5,0,26.331,26331,-0.2200,-0.1200,9.7500,9.7532,-0.0098,0.0087,0.0022,1.50,-2.25,344.19,-0.2042,-0.3164,9.7209,9.7282
4,5,2,5,0,26.466,26466,-0.2100,-0.2700,9.7700,9.7760,-0.0011,-0.0065,-0.0055,1.50,-2.25,344.19,-0.2050,-0.3103,9.7274,9.7345
4,5,2,5,0,26.597,26597,-0.2700,-0.5000,9.8500,9.8664,-0.0076,0.0000,-0.0033,1.50,-2.19,344.19,-0.2135,-0.3353,9.7436,9.7517
4,5,2,5,0,26.728,26728,-0.3200,-0.5100,10.0700,10.0880,-0.0044,-0.0142,0.0022,1.50,-2.19,344.19,-0.2276,-0.3583,9.7866,9.7958
4,5,2,5,0,26.858,26858,-0.2200,-0.2900,9.8900,9.8967,-0.0011,0.0011,-0.0033,1.50,-2.19,344.19,-0.2266,-0.3493,9.8002,9.8090
4,5,2,5,0,26.988,26988,-0.2200,-0.3500,9.6100,9.6189,-0.0022,0.0065,-0.0022,1.50,-2.19,344.19,-0.2257,-0.3494,9.7751,9.7840
4,5,2,5,0,27.161,27161,0.0000,-0.3700,9.8800,9.8869,0.0447,-0.0284,0.0382,1.50,-2.13,344.38,-0.1960,-0.3521,9.7890,9.7973
4,5,2,5,0,27.291,27291,-0.1600,-0.5400,9.8600,9.8761,-0.0055,0.0044,0.0087,1.44,-2.13,344.19,-0.1912,-0.3769,9.7983,9.8074
4,5,2,5,0,27.422,27422,-0.4000,-0.3500,9.6100,9.6247,0.0131,-0.0044,0.0698,1.50,-2.13,344.31,-0.2187,-0.3733,9.7735,9.7831
4,5,2,5,0,27.555,27555,-0.7000,-0.3200,9.5300,9.5610,-0.1200,0.0731,-0.0284,1.56,-2.19,344.38,-0.2822,-0.3663,9.7414,9.7524
4,5,2,5,0,27.686,27686,-0.1600,-0.3600,9.7600,9.7679,-0.0011,0.0022,0.0011,1.50,-2.13,344.19,-0.2661,-0.3655,9.7439,9.7543
4,5,2,5,0,27.820,27820,0.8600,-0.1800,9.7600,9.7995,-0.0458,0.0567,-0.0207,1.50,-2.19,344.38,-0.1177,-0.3410,9.7460,9.7527
4,5,2,5,0,27.951,27951,-0.2400,-0.2200,9.9100,9.9153,0.0044,0.0000,0.0033,1.25,-1.88,344.31,-0.1338,-0.3251,9.7676,9.7739
4,5,2,5,0,28.082,28082,1.4200,-0.1900,8.8100,8.9257,0.0742,-0.1058,0.0545,1.56,-2.19,344.38,0.0710,-0.3073,9.6414,9.6466
4,5,2,5,0,28.254,28254,-0.0200,-0.1100,8.2800,8.2808,-0.0033,-0.0120,0.0153,1.50,-2.13,344.13,0.0590,-0.2813,9.4620,9.4664
4,5,2,5,0,28.385,28385,-0.2500,-0.5700,9.4200,9.4405,-0.0055,-0.0033,0.0055,1.50,-2.13,344.13,0.0183,-0.3193,9.4565,9.4619
4,5,2,5,0,28.515,28515,-0.3100,-0.3900,9.5300,9.5430,0.0109,-0.0087,0.0109,1.50,-2.13,344.13,-0.0250,-0.3286,9.4662,9.4719
4,5,2,5,0,28.646,28646,-0.7700,-0.3300,9.3100,9.3476,0.0098,-0.0273,0.0065,1.50,-2.19,344.19,-0.1232,-0.3288,9.4456,9.4521
4,5,2,5,0,28.776,28776,-0.1800,-0.3400,9.0600,9.0682,0.0022,-0.0055,0.0022,1.56,-2.19,344.19,-0.1307,-0.3303,9.3948,9.4015
4,5,2,5,0,28.909,28909,-0.1400,-0.1100,9.3100,9.3117,0.0240,0.0513,-0.0305,1.50,-2.19,344.13,-0.1319,-0.3013,9.3836,9.3894
4,5,2,5,0,29.040,29040,-0.2800,-0.2800,9.6000,9.6082,0.0011,-0.0044,-0.0022,1.50,-2.19,344.13,-0.1514,-0.2985,9.4121,9.4181
4,5,2,5,0,29.174,29174,-0.2600,-0.3800,10.1700,10.1804,0.0022,-0.0033,-0.0022,1.50,-2.19,344.13,-0.1657,-0.3092,9.5120,9.5185
4,5,2,5,0,29.347,29347,-0.1700,-0.4400,8.6900,8.7028,0.0011,0.0044,0.0000,1.50,-2.19,344.13,-0.1663,-0.3264,9.4037,9.4108
4,5,2,5,0,29.478,29478,-0.1900,-0.3000,8.8900,8.8971,-0.0044,0.0065,-0.0011,1.44,-2.19,344.13,-0.1694,-0.3230,9.3360,9.3431
4,6,2,5,0,29.608,29608,-0.1800,-0.2900,9.4700,9.4761,-0.0196,-0.0055,0.0087,1.44,-2.19,344.13,-0.1708,-0.3186,9.3536,9.3606
4,6,2,5,0,29.738,29738,-0.2100,-0.4800,10.0500,10.0636,0.0011,-0.0011,-0.0011,1.50,-2.19,344.19,-0.1760,-0.3399,9.4454,9.4532
4,6,2,5,0,29.868,29868,-0.2400,-0.3400,9.5700,9.5790,-0.0022,0.0000,-0.0033,1.50,-2.19,344.19,-0.1844,-0.3399,9.4618,9.4697
4,6,2,5,0,29.998,29998,-0.3100,-0.3600,9.9300,9.9414,0.0044,0.0011,0.0033,1.50,-2.19,344.19,-0.2010,-0.3425,9.5235,9.5318
4,6,2,5,0,30.128,30128,-0.2500,-0.4700,10.3300,10.3437,0.0033,0.0000,0.0011,1.50,-2.19,344.19,-0.2074,-0.3593,9.6298,9.6387
4,6,2,5,0,30.258,30258,-0.2300,-0.2900,9.7800,9.7870,0.0033,-0.0273,-0.0175,1.50,-2.13,344.19,-0.2104,-0.3502,9.6496,9.6582
4,6,2,5,0,30.431,30431,-0.2900,-0.4200,9.5900,9.6036,0.0055,-0.0022,0.0000,1.50,-2.06,344.19,-0.2209,-0.3594,9.6417,9.6510
4,6,2,5,0,30.562,30562,-0.2800,-0.0900,9.7500,9.7544,-0.0065,-0.0022,-0.0120,1.50,-2.06,344.19,-0.2287,-0.3239,9.6560,9.6641
4,6,2,5,0,30.693,30693,-0.3000,-0.4000,9.7100,9.7229,-0.0065,0.0120,0.0207,1.50,-2.00,344.13,-0.2381,-0.3339,9.6631,9.6718
4,6,2,5,0,30.823,30823,-0.2100,-0.3700,9.6500,9.6594,-0.0087,0.0076,-0.0055,1.44,-2.00,344.13,-0.2344,-0.3387,9.6614,9.6702
4,6,2,5,0,30.959,30959,-0.2300,-0.2900,9.8100,9.8170,-0.0076,0.0011,-0.0033,1.44,-2.00,344.13,-0.2338,-0.3323,9.6810,9.6895
4,6,2,5,0,31.091,31091,-0.2100,-0.3200,9.8500,9.8574,0.0000,0.0011,-0.0033,1.44,-2.00,344.13,-0.2307,-0.3307,9.7032,9.7116
4,6,2,5,0,31.221,31221,-0.2500,-0.3300,9.9500,9.9586,-0.0033,0.0011,0.0011,1.44,-2.00,344.13,-0.2332,-0.3306,9.7358,9.7442
4,6,2,5,0,31.352,31352,-0.2400,-0.3200,9.7500,9.7582,-0.0011,0.0044,-0.0033,1.44,-2.00,344.13,-0.2341,-0.3292,9.7376,9.7460
4,6,2,5,0,31.524,31524,-0.2400,-0.0900,9.9000,9.9033,-0.0120,0.0000,0.0196,1.44,-1.94,344.19,-0.2349,-0.2977,9.7590,9.7664
4,6,2,5,0,31.654,31654,-0.1300,-0.8900,9.6200,9.6620,-0.0098,0.0076,-0.0349,1.38,-1.94,344.13,-0.2211,-0.3757,9.7407,9.7505
4,6,2,5,0,31.784,31784,-0.2100,-0.2500,9.7400,9.7455,0.0011,-0.0022,0.0076,1.38,-1.94,344.13,-0.2196,-0.3591,9.7406,9.7497
4,6,2,5,0,31.914,31914,0.2500,-0.1700,9.3100,9.3149,-0.0349,0.0295,-0.0087,1.56,-2.13,344.38,-0.1577,-0.3342,9.6839,9.6909
4,6,2,5,0,32.044,32044,-0.4000,-0.5600,9.6600,9.6845,0.0207,-0.0327,0.0164,1.44,-2.06,344.38,-0.1896,-0.3640,9.6807,9.6894
4,6,2,5,0,32.174,32174,-0.2500,-0.3100,9.8100,9.8181,-0.0654,0.0774,-0.0316,1.44,-2.06,344.31,-0.1976,-0.3569,9.6978,9.7063
4,6,2,5,0,32.304,32304,-0.1500,-0.3200,9.8000,9.8064,-0.0011,0.0000,-0.0055,1.25,-1.81,344.31,-0.1913,-0.3520,9.7112,9.7195
4,6,2,5,0,32.435,32435,-0.1600,-0.2800,9.7600,9.7653,0.0000,0.0011,0.0022,1.25,-1.81,344.31,-0.1872,-0.3425,9.7177,9.7255
4,6,2,5,0,32.608,32608,-0.1700,-0.3000,9.8100,9.8161,0.0000,0.0000,-0.0011,1.25,-1.81,344.31,-0.1849,-0.3369,9.7298,9.7374
4,6,2,5,0,32.739,32739,-0.2000,-0.2700,9.8500,9.8557,0.0011,-0.0011,0.0098,1.25,-1.81,344.31,-0.1869,-0.3281,9.7457,9.7530
4,6,2,5,0,32.875,32875,0.0600,2.0700,9.7500,9.9675,-0.0436,0.0491,-0.0567,1.31,-1.88,344.06,-0.1544,-0.0121,9.7462,9.7475
4,6,2,5,0,33.007,33007,-0.1100,-0.0800,10.3800,10.3809,0.0098,-0.0131,-0.0185,1.38,-1.88,344.06,-0.1485,-0.0210,9.8297,9.8309
4,6,2,5,0,33.137,33137,-0.5200,-0.3700,10.2900,10.3098,-0.0022,-0.0022,0.0022,1.38,-1.88,344.13,-0.1975,-0.0670,9.8904,9.8926
4,6,2,5,0,33.268,33268,-0.2600,-0.4400,10.4200,10.4325,0.0033,0.0000,-0.0033,1.44,-1.88,344.13,-0.2057,-0.1162,9.9602,9.9630
4,6,2,5,0,33.398,33398,-0.0600,-0.2000,10.1800,10.1821,0.0011,0.0044,-0.0044,1.44,-1.88,344.13,-0.1865,-0.1272,9.9892,9.9917
4,6,2,5,0,33.528,33528,-0.2900,-0.1300,10.2000,10.2049,0.0076,-0.0076,0.0044,1.44,-1.94,344.13,-0.2002,-0.1276,10.0169,10.0197
4,6,2,5,0,33.701,33701,-0.3200,-0.3100,9.3700,9.3806,0.0011,0.0000,0.0022,1.50,-1.94,344.19,-0.2159,-0.1516,9.9317,9.9352
4,6,2,5,0,33.831,33831,-0.2900,-0.1600,9.6600,9.6657,-0.0055,0.0011,-0.0109,1.44,-2.00,344.19,-0.2257,-0.1527,9.8959,9.8996
4,6,2,5,0,33.961,33961,-0.1900,-0.3200,9.8300,9.8370,0.0022,-0.0044,-0.0033,1.44,-2.00,344.19,-0.2210,-0.1748,9.8872,9.8912
4,6,2,5,0,34.091,34091,0.1200,-0.5100,8.8600,8.8755,-0.0033,0.0295,-0.0055,1.44,-2.00,344.19,-0.1761,-0.2189,9.7518,9.7559
4,6,2,5,0,34.221,34221,-0.2300,-0.3300,8.6900,8.6993,0.0011,-0.0011,0.0098,1.44,-2.00,344.19,-0.1832,-0.2336,9.6119,9.6165
4,6,2,5,0,34.351,34351,-0.1700,-0.3900,9.5400,9.5495,0.0164,-0.0109,-0.0044,1.44,-2.00,344.19,-0.1814,-0.2542,9.6024,9.6075
4,6,2,5,0,34.481,34481,-0.4300,-0.4000,9.8700,9.8875,-0.0098,0.0000,-0.0022,1.44,-2.00,344.19,-0.2142,-0.2734,9.6377,9.6440
4,6,2,5,0,34.612,34612,-0.2400,-0.4200,10.1200,10.1316,0.0022,0.0000,-0.0011,1.44,-2.00,344.19,-0.2176,-0.2927,9.7013,9.7081
4,6,2,5,0,34.785,34785,-0.2800,-0.3600,9.7700,9.7806,-0.0022,-0.0022,-0.0011,1.44,-2.00,344.19,-0.2258,-0.3016,9.7103,9.7176
4,6,2,5,0,34.916,34916,-0.2300,-0.3600,9.7900,9.7993,-0.0011,-0.0011,0.0000,1.44,-2.00,344.19,-0.2264,-0.3093,9.7208,9.7284
4,6,2,5,0,35.050,35050,-0.3200,-0.3300,9.7600,9.7708,-0.0011,-0.0033,0.0022,1.44,-2.00,344.19,-0.2387,-0.3120,9.7260,9.7339
4,6,2,5,0,35.183,35183,-0.3300,-0.3400,9.7900,9.8015,-0.0011,0.0000,0.0000,1.44,-2.00,344.19,-0.2507,-0.3157,9.7344,9.7428
4,6,2,5,0,35.314,35314,-0.2400,-0.3400,9.1900,9.1994,-0.0033,0.0000,0.0011,1.44,-2.00,344.19,-0.2493,-0.3189,9.6627,9.6711
4,6,2,5,0,35.444,35444,-0.2900,-0.3300,9.5900,9.6001,-0.0011,0.0000,0.0000,1.44,-2.00,344.19,-0.2547,-0.3204,9.6531,9.6618
4,6,2,5,0,35.575,35575,-0.3300,-0.7700,9.7500,9.7859,0.0120,-0.0458,0.0295,1.50,-2.00,344.25,-0.2646,-0.3796,9.6659,9.6769
4,6,2,5,0,35.706,35706,-0.2800,-0.3100,10.0100,10.0187,-0.0065,0.0022,0.0000,1.50,-2.00,344.19,-0.2666,-0.3704,9.7112,9.7219
4,6,2,5,0,35.878,35878,-0.1900,-0.3400,9.7000,9.7078,-0.0022,0.0065,0.0011,1.50,-2.00,344.19,-0.2565,-0.3664,9.7097,9.7200
4,6,2,5,0,36.009,36009,-0.2100,-0.3300,9.4800,9.4881,-0.0033,0.0033,-0.0033,1.50,-2.00,344.19,-0.2504,-0.3616,9.6795,9.6895
4,6,2,5,0,36.139,36139,-0.2000,-0.3300,9.6900,9.6977,-0.0011,0.0022,-0.0044,1.50,-2.00,344.19,-0.2438,-0.3575,9.6809,9.6905
4,6,2,5,0,36.270,36270,-0.2900,-0.3200,9.7600,9.7695,-0.0022,-0.0076,0.0000,1.50,-2.00,344.19,-0.2499,-0.3525,9.6913,9.7009
4,6,2,5,0,36.403,36403,-0.3200,-0.4100,9.9500,9.9636,0.0000,-0.0055,-0.0011,1.50,-2.00,344.19,-0.2591,-0.3601,9.7254,9.7355
4,6,2,5,0,36.537,36537,-0.2300,-0.3500,9.9200,9.9288,0.0000,0.0044,-0.0044,1.50,-2.00,344.19,-0.2553,-0.3588,9.7510,9.7610
4,6,2,5,0,36.668,36668,-0.2400,-0.3000,9.5100,9.5178,-0.0011,0.0022,0.0000,1.50,-2.00,344.19,-0.2533,-0.3510,9.7193,9.7289
4,6,2,5,0,36.799,36799,-0.1300,-0.0300,9.4600,9.4609,-0.0240,0.0262,0.0622,1.44,-1.94,344.38,-0.2370,-0.3087,9.6851,9.6929
4,6,2,5,0,36.972,36972,-0.2600,-0.2500,9.7400,9.7467,0.0011,-0.0011,-0.0033,1.50,-2.00,344.25,-0.2400,-0.3010,9.6923,9.7000
4,6,2,5,0,37.105,37105,3.6600,1.6300,13.9800,14.5428,-0.4451,0.2411,-0.0436,1.38,-1.81,344.44,0.2739,-0.0465,10.2573,10.2611
4,6,2,5,0,37.240,37240,-0.4800,-0.3100,9.7900,9.8067,0.0044,-0.0055,0.0044,1.38,-1.88,344.44,0.1745,-0.0812,10.1958,10.1976
4,6,2,5,0,37.370,37370,-0.2500,-0.3000,9.8100,9.8178,0.0033,0.0033,0.0033,1.38,-1.88,344.44,0.1186,-0.1101,10.1449,10.1462
4,6,2,5,0,37.501,37501,-0.1400,-0.2300,9.8900,9.8937,0.0611,-0.0404,-0.0295,1.44,-2.00,344.44,0.0845,-0.1259,10.1113,10.1125
4,6,2,5,0,37.631,37631,-0.1400,-0.2900,9.7500,9.7553,0.0000,0.0011,-0.0055,1.38,-1.81,344.38,0.0549,-0.1475,10.0637,10.0649
4,6,2,5,0,37.762,37762,-0.1300,-0.2700,9.8300,9.8346,0.0044,-0.0022,0.0000,1.38,-1.81,344.38,0.0306,-0.1636,10.0329,10.0343
4,6,2,5,0,37.892,37892,-0.1400,0.0500,10.5900,10.5910,0.0044,-0.0055,-0.0022,1.38,-1.81,344.38,0.0081,-0.1355,10.1063,10.1072
4,6,2,5,0,38.065,38065,-0.8900,-0.2900,8.0600,8.1142,0.0382,-0.0327,0.0469,1.50,-2.00,344.31,-0.1103,-0.1559,9.8367,9.8385
4,6,2,5,0,38.195,38195,0.0100,-0.0700,9.4000,9.4003,-0.0295,0.0295,-0.0185,1.50,-2.00,344.31,-0.0944,-0.1445,9.7791,9.7807
4,6,2,5,0,38.326,38326,0.4000,-0.1100,9.2300,9.2393,0.0153,-0.0196,-0.0316,1.50,-2.06,344.31,-0.0293,-0.1400,9.7068,9.7078
4,6,2,5,0,38.456,38456,-0.1100,-0.1700,9.4000,9.4022,0.0076,-0.0098,0.0185,1.56,-2.13,344.31,-0.0399,-0.1439,9.6663,9.6675
4,6,2,5,0,38.589,38589,-0.2500,-0.5400,9.4300,9.4488,0.0142,-0.0065,0.0076,1.63,-2.19,344.31,-0.0676,-0.1961,9.6352,9.6374
4,6,2,5,0,38.721,38721,-0.1600,-0.1800,9.6600,9.6630,0.0120,0.0055,0.0033,1.63,-2.25,344.31,-0.0798,-0.1940,9.6385,9.6408
4,6,2,5,0,38.854,38854,-0.2300,-0.2900,9.6700,9.6771,0.0011,0.0022,0.0000,1.63,-2.31,344.31,-0.0996,-0.2067,9.6426,9.6454
4,6,2,5,0,38.985,38985,-0.3800,-0.1500,8.8000,8.8095,-0.0044,0.0044,-0.0262,1.63,-2.38,344.25,-0.1365,-0.1992,9.5316,9.5346
4,6,2,5,0,39.158,39158,-0.2600,-0.3700,8.9300,8.9414,0.0065,-0.0044,0.0131,1.63,-2.44,344.31,-0.1528,-0.2217,9.4523,9.4561
4,6,2,5,0,39.289,39289,-0.1200,-0.3900,9.9000,9.9084,0.0142,-0.0022,0.0065,1.69,-2.44,344.31,-0.1485,-0.2439,9.5113,9.5156
4,6,2,5,0,39.420,39420,-0.3600,-0.3000,10.2900,10.3007,-0.0033,0.0000,0.0011,1.69,-2.44,344.31,-0.1763,-0.2513,9.6139,9.6188
4,6,2,5,0,39.550,39550,-0.1600,-0.4000,9.8200,9.8294,-0.0109,0.0098,-0.0033,1.69,-2.38,344.31,-0.1742,-0.2709,9.6411,9.6465
4,6,2,5,0,39.684,39684,-0.2100,-0.3800,9.3800,9.3900,0.0022,-0.0022,0.0000,1.69,-2.38,344.31,-0.1789,-0.2853,9.6067,9.6126
4,6,2,5,0,39.818,39818,-0.3000,-0.3100,9.4300,9.4399,0.0055,0.0033,0.0011,1.75,-2.44,344.31,-0.1949,-0.2885,9.5834,9.5897
4,6,2,5,0,39.948,39948,-0.2000,-0.4200,9.6500,9.6612,0.0000,-0.0011,0.0033,1.75,-2.38,344.31,-0.1955,-0.3058,9.5922,9.5990
4,6,2,5,0,40.079,40079,-0.2700,-0.3500,9.7300,9.7400,0.0000,-0.0022,0.0022,1.75,-2.38,344.31,-0.2054,-0.3117,9.6103,9.6176
4,6,2,5,0,40.251,40251,-0.2400,-0.2000,9.6900,9.6950,-0.0076,0.0044,-0.0033,1.75,-2.38,344.31,-0.2099,-0.2969,9.6208,9.6277
4,6,2,5,0,40.381,40381,-0.2500,-0.2700,9.8900,9.8968,-0.0022,-0.0338,0.0131,1.75,-2.38,344.31,-0.2152,-0.2934,9.6563,9.6632
4,6,2,5,0,40.511,40511,-0.1700,-0.3200,9.9000,9.9066,-0.0044,0.0011,-0.0022,1.75,-2.38,344.38,-0.2092,-0.2969,9.6884,9.6952
4,6,2,5,0,40.641,40641,-0.2000,-0.1700,9.7800,9.7835,-0.0033,0.0000,0.0000,1.75,-2.38,344.38,-0.2080,-0.2802,9.7005,9.7068
4,6,2,5,0,40.771,40771,-0.1900,-0.3200,9.8200,9.8270,-0.0011,0.0011,-0.0033,1.75,-2.31,344.38,-0.2057,-0.2854,9.7162,9.7226
4,6,2,5,0,40.901,40901,-0.2900,-0.3100,9.5800,9.5894,-0.0011,-0.0033,-0.0011,1.69,-2.31,344.38,-0.2168,-0.2887,9.6983,9.7050
4,6,2,5,0,41.032,41032,-0.2800,-0.2500,9.6700,9.6773,0.0011,-0.0065,-0.0022,1.69,-2.31,344.38,-0.2251,-0.2836,9.6946,9.7013
4,6,2,5,0,41.162,41162,-0.2200,-0.2400,10.0500,10.0553,0.0000,0.0033,-0.0033,1.69,-2.25,344.38,-0.2244,-0.2778,9.7414,9.7479
4,6,2,5,0,41.335,41335,-0.2600,-0.2800,9.7600,9.7675,-0.0011,0.0022,-0.0022,1.69,-2.25,344.38,-0.2291,-0.2781,9.7438,9.7505
4,6,2,5,0,41.465,41465,-0.2400,-0.3100,9.6100,9.6180,0.0000,-0.0033,-0.0022,1.63,-2.19,344.38,-0.2305,-0.2823,9.7262,9.7330
4,6,2,5,0,41.595,41595,0.6200,-0.5600,9.1800,9.2179,0.0284,-0.0022,0.0807,1.56,-2.25,344.50,-0.1185,-0.3189,9.6542,9.6602
4,6,2,5,0,41.725,41725,-0.1100,-0.3100,9.7900,9.7955,0.0033,0.0055,0.0055,1.56,-2.25,344.38,-0.1174,-0.3177,9.6721,9.6781
4,6,2,5,0,41.855,41855,-0.2200,-0.3100,9.7400,9.7474,-0.0033,-0.0033,0.0022,1.56,-2.25,344.38,-0.1309,-0.3167,9.6811,9.6871
4,6,2,5,0,41.985,41985,1.7900,-0.6500,8.2300,8.4475,-0.1713,0.1985,-0.0240,1.44,-2.13,344.56,0.1222,-0.3606,9.4899,9.4975
4,6,2,5,0,42.115,42115,-0.2600,-0.3000,9.7100,9.7181,0.0065,0.0033,-0.0055,1.44,-2.06,344.56,0.0719,-0.3526,9.5189,9.5257
4,6,2,5,0,42.245,42245,-0.1400,-0.1500,9.8100,9.8121,0.0011,-0.0022,0.0000,1.38,-2.06,344.56,0.0440,-0.3259,9.5572,9.5629
4,6,2,5,0,42.418,42418,-0.1700,-0.2800,9.7900,9.7955,0.0044,0.0033,0.0011,1.38,-2.06,344.56,0.0158,-0.3199,9.5879,9.5932
4,6,2,5,0,42.548,42548,0.3400,1.3200,10.6900,10.7766,-0.2356,0.0087,0.0491,1.56,-1.94,344.56,0.0585,-0.1038,9.7331,9.7339
4,6,2,5,0,42.678,42678,-0.0200,-0.3000,8.3800,8.3854,-0.0011,-0.0087,-0.0087,1.44,-2.06,344.38,0.0481,-0.1296,9.5548,9.5558
4,6,2,5,0,42.808,42808,-0.1400,-0.4800,10.1100,10.1224,0.0273,0.0011,-0.0011,1.50,-2.19,344.38,0.0234,-0.1758,9.6280,9.6296
4,6,2,5,0,42.938,42938,-0.0900,-0.3500,10.5200,10.5262,-0.0087,0.0011,-0.0044,1.44,-2.13,344.38,0.0084,-0.1988,9.7455,9.7476
4,6,2,5,0,43.068,43068,-0.2500,-0.2700,9.8100,9.8169,0.0120,-0.0109,0.0076,1.44,-2.13,344.38,-0.0256,-0.2082,9.7540,9.7563
4,6,2,5,0,43.198,43198,-0.2500,-0.2000,9.5800,9.5853,0.0131,-0.0076,0.0098,1.44,-2.13,344.38,-0.0552,-0.2071,9.7311,9.7334
4,6,2,5,0,43.329,43329,-0.4300,-0.4100,9.9800,9.9977,0.0000,-0.0033,0.0022,1.44,-2.19,344.38,-0.1046,-0.2338,9.7639,9.7672
4,6,2,5,0,43.501,43501,-0.2000,-0.4900,9.3300,9.3450,0.0109,-0.0142,0.0011,1.50,-2.19,344.38,-0.1172,-0.2676,9.7067,9.7111
4,6,2,5,0,43.632,43632,-0.2000,-0.3600,9.8000,9.8086,0.0109,-0.0087,-0.0076,1.50,-2.19,344.38,-0.1281,-0.2798,9.7190,9.7239
4,6,2,5,0,43.762,43762,-0.0900,-0.4800,9.7800,9.7922,0.0000,-0.0098,0.0033,1.44,-2.25,344.44,-0.1231,-0.3061,9.7270,9.7326
4,6,2,5,0,43.892,43892,-0.3000,-0.3300,9.7600,9.7702,0.0185,-0.0109,0.0000,1.50,-2.31,344.38,-0.1464,-0.3093,9.7314,9.7374
4,6,2,5,0,44.022,44022,-0.0800,-0.2900,9.3600,9.3648,0.0044,0.0011,0.0044,1.50,-2.31,344.38,-0.1376,-0.3067,9.6824,9.6883
4,6,2,5,0,44.152,44152,-0.2400,-0.3200,9.0700,9.0788,0.0033,0.0022,-0.0022,1.44,-2.31,344.38,-0.1511,-0.3085,9.6017,9.6079
4,6,2,5,0,44.282,44282,-0.0400,-0.5000,9.4800,9.4933,0.0120,-0.0098,0.0000,1.50,-2.38,344.38,-0.1365,-0.3337,9.5857,9.5925
4,6,2,5,0,44.412,44412,-0.1800,-0.3700,10.0200,10.0284,0.0044,0.0011,0.0175,1.56,-2.44,344.31,-0.1422,-0.3385,9.6429,9.6499
4,6,2,5,0,44.585,44585,-0.1200,-0.3800,9.7300,9.7382,0.0022,-0.0076,-0.0044,1.56,-2.38,344.38,-0.1393,-0.3440,9.6544,9.6615
4,6,2,5,0,44.715,44715,-0.2600,-0.3200,9.5000,9.5089,0.0033,0.0033,0.0044,1.56,-2.38,344.38,-0.1552,-0.3408,9.6341,9.6413
4,6,2,5,0,44.845,44845,-0.2400,-0.3800,9.4300,9.4407,0.0011,-0.0022,0.0000,1.56,-2.38,344.38,-0.1664,-0.3460,9.6072,9.6148
4,6,2,5,0,44.975,44975,-0.2100,-0.2900,9.7700,9.7766,-0.0011,-0.0011,0.0022,1.63,-2.38,344.38,-0.1721,-0.3386,9.6286,9.6361
4,6,2,5,0,45.105,45105,-0.2000,-0.3700,9.7100,9.7191,0.0022,0.0120,0.0022,1.56,-2.38,344.38,-0.1758,-0.3427,9.6393,9.6470
4,6,2,5,0,45.235,45235,-0.2000,-0.2400,9.7100,9.7150,-0.0033,-0.0055,-0.0033,1.56,-2.38,344.38,-0.1790,-0.3292,9.6487,9.6559
4,6,2,5,0,45.365,45365,-0.2300,-0.3400,9.6100,9.6188,-0.0044,0.0087,-0.0011,1.56,-2.38,344.38,-0.1857,-0.3306,9.6436,9.6510
4,6,2,5,0,45.495,45495,-0.2000,-0.3200,9.7200,9.7273,-0.0022,0.0011,-0.0011,1.56,-2.38,344.38,-0.1876,-0.3292,9.6536,9.6611
4,6,2,5,0,45.668,45668,-0.2100,-0.3000,9.7600,9.7669,-0.0011,-0.0044,-0.0011,1.56,-2.38,344.38,-0.1905,-0.3254,9.6677,9.6750
4,6,2,5,0,45.799,45799,-0.2600,-0.2900,9.7500,9.7578,-0.0022,0.0000,-0.0022,1.56,-2.38,344.38,-0.1997,-0.3207,9.6785,9.6859
4,6,2,5,0,45.932,45932,-0.2500,-0.2500,9.8300,9.8364,-0.0011,-0.0022,-0.0011,1.56,-2.38,344.38,-0.2063,-0.3114,9.6985,9.7057
4,6,2,5,0,46.066,46066,-0.2700,-0.2700,9.8100,9.8174,-0.0022,0.0011,-0.0011,1.56,-2.38,344.38,-0.2147,-0.3059,9.7132,9.7204
4,6,2,5,0,46.197,46197,-0.2200,-0.3300,9.9400,9.9479,0.0011,0.0000,-0.0011,1.56,-2.38,344.38,-0.2154,-0.3091,9.7431,9.7503
4,6,2,5,0,46.328,46328,-0.2100,-0.2900,9.8100,9.8165,0.0000,0.0000,-0.0055,1.56,-2.38,344.38,-0.2147,-0.3066,9.7519,9.7591
4,6,2,5,0,46.458,46458,-0.2100,-0.2800,9.7000,9.7063,0.0011,0.0022,-0.0033,1.56,-2.38,344.38,-0.2141,-0.3031,9.7450,9.7521
4,6,2,5,0,46.589,46589,-0.4600,-0.2100,10.3000,10.3124,-0.0153,0.0065,0.0065,1.50,-2.50,344.44,-0.2465,-0.2908,9.8182,9.8256
4,6,2,5,0,46.761,46761,-0.3100,-0.3100,9.8300,9.8398,0.0022,-0.0033,0.0044,1.50,-2.44,344.44,-0.2549,-0.2933,9.8197,9.8274
4,6,2,5,0,46.891,46891,-0.2200,-0.1200,9.3800,9.3833,0.0164,-0.0087,0.0207,1.50,-2.38,344.44,-0.2503,-0.2705,9.7618,9.7687
4,6,2,5,0,47.021,47021,-0.3500,-0.2400,9.6000,9.6094,0.0065,-0.0295,0.0076,1.81,-2.69,344.56,-0.2634,-0.2665,9.7405,9.7477
4,6,2,5,0,47.151,47151,-0.2000,-0.3500,9.8100,9.8183,0.0000,0.0033,-0.0164,1.69,-2.63,344.56,-0.2550,-0.2775,9.7496,9.7569
4,6,2,5,0,47.281,47281,-0.1700,-0.2900,9.8200,9.8258,0.0153,-0.0207,-0.0109,1.75,-2.63,344.56,-0.2438,-0.2791,9.7589,9.7659
4,6,2,5,0,47.411,47411,-0.3600,-0.3900,9.8000,9.8144,0.0022,-0.0022,0.0033,1.75,-2.63,344.56,-0.2591,-0.2937,9.7643,9.7722
4,6,2,5,0,47.542,47542,-0.1300,-0.2600,9.7900,9.7943,0.0011,-0.0022,-0.0022,1.31,-2.13,344.50,-0.2421,-0.2893,9.7677,9.7750
4,6,2,5,0,47.672,47672,-0.1600,-0.2700,9.7800,9.7850,-0.0011,-0.0033,-0.0011,1.25,-2.13,344.50,-0.2313,-0.2868,9.7693,9.7763
4,6,2,5,0,47.845,47845,-0.2000,-0.2600,9.8100,9.8155,0.0011,0.0000,-0.0011,1.25,-2.06,344.50,-0.2272,-0.2832,9.7747,9.7814
4,6,2,5,0,47.975,47975,-0.1800,-0.2200,9.7800,9.7841,0.0022,-0.0044,0.0000,1.25,-2.06,344.50,-0.2210,-0.2749,9.7754,9.7817
4,6,2,5,0,48.106,48106,2.3700,-4.5100,8.0400,9.5183,0.2094,0.0644,-0.1047,1.44,-2.25,344.38,0.1205,-0.8330,9.5467,9.5837
4,6,2,5,0,48.236,48236,0.2200,-1.1900,10.5900,10.6589,-0.0098,0.0262,-0.0251,1.44,-2.25,344.38,0.1336,-0.8800,9.6842,9.7250
4,6,2,5,0,48.372,48372,0.0100,-0.5500,10.9000,10.9139,0.0087,-0.0033,-0.0207,1.44,-2.25,344.31,0.1173,-0.8365,9.8444,9.8806
4,6,2,5,0,48.504,48504,0.3200,-0.3400,9.6700,9.6813,0.0033,0.0055,-0.0011,1.38,-2.31,344.38,0.1440,-0.7711,9.8214,9.8527
4,6,2,5,0,48.634,48634,-0.0300,-0.4200,9.7400,9.7491,0.0098,-0.0065,0.0065,1.50,-2.38,344.38,0.1211,-0.7248,9.8107,9.8382
4,6,2,5,0,48.765,48765,-0.3500,-0.3300,10.0500,10.0615,0.0076,0.0098,0.0229,1.56,-2.44,344.38,0.0590,-0.6728,9.8422,9.8654
4,6,2,5,0,48.938,48938,-0.1700,-0.4300,9.2900,9.3015,0.0218,-0.0207,-0.0022,1.56,-2.50,344.38,0.0288,-0.6408,9.7695,9.7905
4,6,2,5,0,49.073,49073,-0.2100,-0.3800,8.5400,8.5510,-0.0098,-0.0033,-0.0218,1.56,-2.63,344.38,-0.0026,-0.6064,9.6074,9.6266
4,6,2,5,0,49.206,49206,-0.2100,-0.5300,8.7100,8.7286,0.0022,0.0000,0.0065,1.56,-2.63,344.38,-0.0300,-0.5964,9.4892,9.5080
4,6,2,5,0,49.337,49337,-0.2000,-0.4400,9.8200,9.8319,-0.0022,-0.0131,-0.0109,1.63,-2.63,344.31,-0.0524,-0.5758,9.5328,9.5503
4,6,2,5,0,49.467,49467,-0.3500,-0.3900,10.4800,10.4931,-0.0011,-0.0055,0.0098,1.63,-2.63,344.38,-0.0916,-0.5513,9.6576,9.6738
4,6,2,5,0,49.598,49598,-0.1900,-0.3200,10.1500,10.1568,-0.0011,-0.0022,-0.0087,1.56,-2.56,344.38,-0.1046,-0.5208,9.7225,9.7370
4,6,2,5,0,49.728,49728,-0.1700,-0.3700,9.4200,9.4288,0.0011,-0.0011,0.0033,1.56,-2.56,344.31,-0.1132,-0.5009,9.6826,9.6962
4,6,2,5,0,49.858,49858,-0.1000,-0.3100,9.6800,9.6855,-0.0011,-0.0087,-0.0033,1.63,-2.56,344.31,-0.1114,-0.4758,9.6823,9.6946
4,6,2,5,0,50.031,50031,-0.3600,-0.3600,9.7300,9.7433,-0.0022,-0.0065,0.0000,1.63,-2.56,344.31,-0.1442,-0.4605,9.6886,9.7006
4,6,2,5,0,50.162,50162,-0.2200,-0.3400,9.3600,9.3688,-0.0044,-0.0022,-0.0022,1.63,-2.56,344.31,-0.1542,-0.4446,9.6453,9.6567
4,6,2,5,0,50.296,50296,-0.2600,-0.2600,9.6400,9.6470,-0.0044,-0.0044,0.0044,1.63,-2.56,344.31,-0.1681,-0.4203,9.6446,9.6552
4,6,2,5,0,50.429,50429,-0.3400,-0.3000,10.0200,10.0303,-0.0022,0.0044,0.0000,1.63,-2.56,344.31,-0.1908,-0.4045,9.6940,9.7044
4,6,2,5,0,50.560,50560,-0.2800,-0.3400,9.5900,9.6001,-0.0022,-0.0055,0.0000,1.63,-2.56,344.31,-0.2025,-0.3960,9.6803,9.6905
4,6,2,5,0,50.691,50691,-0.2800,-0.3400,9.2900,9.3004,0.0033,-0.0044,0.0076,1.69,-2.56,344.31,-0.2127,-0.3886,9.6289,9.6391
4,6,2,5,0,50.821,50821,-0.3300,-0.2800,9.5500,9.5598,-0.0087,0.0131,-0.0076,1.63,-2.56,344.31,-0.2282,-0.3743,9.6185,9.6285
4,6,2,5,0,50.952,50952,-0.2100,-0.2500,9.7500,9.7555,-0.0033,-0.0044,-0.0022,1.63,-2.56,344.31,-0.2258,-0.3579,9.6358,9.6451
4,6,2,5,0,51.124,51124,-0.2500,-0.3000,9.9200,9.9277,0.0000,-0.0011,0.0044,1.63,-2.56,344.31,-0.2290,-0.3503,9.6733,9.6823
4,6,2,5,0,51.255,51255,-0.2900,-0.3000,9.8100,9.8189,0.0011,-0.0055,-0.0011,1.63,-2.56,344.31,-0.2370,-0.3436,9.6913,9.7003
4,6,2,5,0,51.385,51385,-0.3400,-0.2800,9.7000,9.7100,-0.0011,-0.0044,-0.0011,1.63,-2.56,344.31,-0.2506,-0.3353,9.6924,9.7015
4,6,2,5,0,51.516,51516,-0.2300,-0.2900,9.9600,9.9669,-0.0022,0.0011,-0.0033,1.63,-2.56,344.31,-0.2479,-0.3293,9.7277,9.7364
4,6,2,5,0,51.650,51650,-0.1900,-0.3100,10.1700,10.1765,0.0000,0.0076,-0.0022,1.63,-2.56,344.31,-0.2403,-0.3268,9.7860,9.7944
4,6,2,5,0,51.783,51783,-0.2400,-0.4900,9.5300,9.5456,0.0011,-0.0011,-0.0153,1.56,-2.56,344.38,-0.2402,-0.3483,9.7523,9.7614
4,6,2,5,0,51.914,51914,-0.3400,-0.3100,9.8300,9.8408,0.0000,-0.0022,0.0044,1.56,-2.50,344.38,-0.2534,-0.3432,9.7625,9.7718
4,6,2,5,0,52.044,52044,-0.2100,-0.1300,8.4500,8.4536,0.0600,-0.0316,0.0556,1.56,-2.50,344.50,-0.2477,-0.3151,9.5895,9.5979
4,6,2,5,0,52.217,52217,-0.3100,-0.2900,9.5900,9.5994,0.0316,-0.0415,0.0142,1.81,-2.75,344.56,-0.2559,-0.3118,9.5896,9.5981
4,6,2,5,0,52.347,52347,-0.2900,-0.4400,9.6000,9.6145,-0.0055,0.0153,-0.0229,1.81,-2.69,344.56,-0.2604,-0.3287,9.5910,9.6001
4,6,2,5,0,52.477,52477,-0.2800,-0.3000,9.9000,9.9085,0.0022,-0.0076,0.0022,1.81,-2.69,344.56,-0.2630,-0.3249,9.6317,9.6408
4,6,2,5,0,52.607,52607,-0.2300,-0.3300,9.7800,9.7883,0.0011,-0.0022,-0.0022,1.75,-2.63,344.56,-0.2586,-0.3256,9.6512,9.6602
4,6,2,5,0,52.737,52737,-0.2800,-0.3400,9.8000,9.8099,0.0033,-0.0011,0.0000,1.75,-2.63,344.56,-0.2614,-0.3275,9.6708,9.6799
4,6,2,5,0,52.867,52867,-0.2400,-0.3700,9.7600,9.7700,0.0022,-0.0044,0.0011,1.75,-2.56,344.56,-0.2586,-0.3331,9.6826,9.6918
4,6,2,5,0,52.997,52997,-0.2300,-0.3800,9.7800,9.7901,0.0022,-0.0011,0.0000,1.75,-2.56,344.56,-0.2548,-0.3393,9.6954,9.7047
4,6,2,5,0,53.128,53128,-0.2600,-0.3500,9.7700,9.7797,0.0000,0.0000,-0.0022,1.75,-2.50,344.56,-0.2555,-0.3407,9.7053,9.7146
4,6,2,5,0,53.301,53301,-0.2300,-0.3400,9.7800,9.7886,0.0011,0.0011,-0.0022,1.75,-2.50,344.56,-0.2522,-0.3406,9.7151,9.7243
4,6,2,5,0,53.433,53433,-0.2600,-0.3600,9.7700,9.7801,0.0000,-0.0011,0.0000,1.75,-2.50,344.56,-0.2532,-0.3432,9.7223,9.7317
4,6,2,5,0,53.564,53564,-0.2800,-0.3700,9.8200,9.8310,0.0011,-0.0011,0.0000,1.75,-2.50,344.56,-0.2567,-0.3467,9.7352,9.7448
4,6,2,5,0,53.699,53699,-0.2300,-0.3400,9.6500,9.6587,0.0033,-0.0022,-0.0022,1.75,-2.50,344.56,-0.2532,-0.3458,9.7240,9.7334
