participant,rep,equipment_code,exercise_code,quality_code,timestamp,timestamp_ms,accelX,accelY,accelZ,accelMag,gyroX,gyroY,gyroZ,roll,pitch,yaw,filteredX,filteredY,filteredZ,filteredMag
24,1,2,5,0,00.000,0,-0.3000,-0.2600,9.8400,9.8480,0.0000,-0.0011,0.0011,1.56,-1.31,272.94,-0.3372,-0.2682,9.9588,9.9681
24,1,2,5,0,00.111,111,-0.3100,-0.3000,9.8700,9.8794,0.0022,-0.0011,0.0000,1.56,-1.31,272.94,-0.3336,-0.2724,9.9471,9.9564
24,1,2,5,0,00.213,213,-0.3000,-0.2900,9.8600,9.8688,-0.0022,-0.0011,0.0011,1.56,-1.31,272.94,-0.3292,-0.2747,9.9356,9.9449
24,1,2,5,0,00.324,324,-0.3000,-0.2900,9.8500,9.8588,0.0011,0.0022,-0.0011,1.56,-1.31,272.94,-0.3254,-0.2767,9.9243,9.9335
24,1,2,5,0,00.431,431,-0.3000,-0.2600,9.8600,9.8680,0.0011,0.0000,-0.0011,1.56,-1.31,272.94,-0.3220,-0.2745,9.9159,9.9249
24,1,2,5,0,00.542,542,-0.3500,-0.2500,11.1100,11.1183,0.0000,0.0000,-0.0033,1.56,-1.31,272.94,-0.3257,-0.2713,10.0732,10.0821
24,1,2,5,0,00.644,644,0.2800,-0.5200,10.5500,10.5665,-0.0044,0.0055,-0.0076,1.63,-1.38,272.94,-0.2459,-0.3040,10.1361,10.1436
24,1,2,5,0,00.753,753,-0.0800,-0.4800,8.9900,9.0032,0.0273,-0.0033,0.0044,1.63,-1.38,273.00,-0.2240,-0.3272,9.9850,9.9929
24,1,2,5,0,00.855,855,-0.3100,-0.2300,9.1200,9.1282,0.0065,0.0065,0.0109,1.63,-1.38,273.00,-0.2354,-0.3144,9.8710,9.8789
24,1,2,5,0,00.964,964,-0.3700,-0.1200,8.7000,8.7087,-0.0033,-0.0011,-0.0087,1.63,-1.38,273.00,-0.2531,-0.2888,9.7167,9.7243
24,1,2,5,0,01.066,1066,0.0100,-0.1700,9.6000,9.6015,-0.0240,0.0000,-0.0022,1.63,-1.38,273.00,-0.2184,-0.2731,9.7013,9.7076
24,1,2,5,0,01.175,1175,-0.2500,-0.4500,10.7400,10.7523,-0.0022,-0.0044,-0.0044,1.63,-1.38,273.00,-0.2226,-0.2965,9.8382,9.8452
24,1,2,5,0,01.277,1277,-0.3600,-0.2900,10.1700,10.1805,0.0011,-0.0011,-0.0011,1.63,-1.38,273.00,-0.2407,-0.2956,9.8819,9.8893
24,1,2,5,0,01.391,1391,-0.3700,-0.1800,10.3200,10.3282,0.0033,-0.0022,-0.0011,1.63,-1.38,273.00,-0.2577,-0.2804,9.9397,9.9470
24,1,2,5,0,01.495,1495,-0.3600,-0.3500,11.5000,11.5110,0.0044,-0.0044,0.0022,1.63,-1.38,273.00,-0.2712,-0.2895,10.1453,10.1530
24,1,2,5,0,01.606,1606,0.0500,0.1600,10.9900,10.9913,0.0109,-0.0273,0.0076,1.63,-1.38,273.00,-0.2289,-0.2303,10.2566,10.2617
24,1,2,5,0,01.708,1708,-0.1400,-0.6400,10.3100,10.3308,-0.0262,-0.0044,0.0131,1.63,-1.44,273.00,-0.2172,-0.2843,10.2636,10.2699
24,1,2,5,0,01.817,1817,0.1100,-0.1200,9.7400,9.7414,0.0382,0.0218,-0.0055,1.69,-1.56,273.00,-0.1741,-0.2626,10.1946,10.1995
24,1,2,5,0,01.919,1919,-0.0700,1.9000,8.9100,9.1106,0.0131,0.0000,-0.0316,1.63,-1.56,273.00,-0.1603,0.0223,10.0253,10.0267
24,1,2,5,0,02.028,2028,-0.3000,-1.0000,8.1300,8.1968,0.0033,0.0022,-0.0011,1.69,-1.69,272.94,-0.1787,-0.1124,9.7756,9.7779
24,1,2,5,0,02.133,2133,-0.4800,-0.3400,9.8000,9.8176,0.0196,0.0098,-0.0098,1.69,-1.75,272.94,-0.2184,-0.1424,9.7788,9.7823
24,1,2,5,0,02.247,2247,0.0000,-0.1800,9.2700,9.2717,0.0142,-0.0131,0.0011,1.63,-1.75,272.94,-0.1897,-0.1473,9.7118,9.7147
24,1,2,5,0,02.349,2349,-0.1400,-0.3900,8.5800,8.5900,0.0044,0.0033,0.0109,1.69,-1.75,272.94,-0.1831,-0.1793,9.5626,9.5661
24,1,2,5,0,02.459,2459,-0.2800,-0.3100,9.2200,9.2295,0.0000,0.0120,0.0098,1.63,-1.75,272.94,-0.1959,-0.1965,9.5175,9.5215
24,2,2,5,0,02.561,2561,-0.6700,0.0000,9.5600,9.5834,0.0415,-0.0458,-0.0011,1.69,-1.69,272.94,-0.2584,-0.1706,9.5231,9.5281
24,2,2,5,0,02.670,2670,-0.3100,-0.4500,9.8800,9.8951,-0.0076,0.0044,0.0033,1.75,-1.69,272.94,-0.2652,-0.2074,9.5701,9.5760
24,2,2,5,0,02.774,2774,-0.4100,-0.5300,9.6600,9.6832,-0.0164,-0.0065,0.0120,1.75,-1.63,272.94,-0.2843,-0.2500,9.5820,9.5894
24,2,2,5,0,02.888,2888,-0.2500,-0.3800,9.6100,9.6208,-0.0185,0.0109,0.0109,1.75,-1.63,273.00,-0.2797,-0.2671,9.5856,9.5934
24,2,2,5,0,02.991,2991,-0.2200,-0.2700,9.4900,9.4964,0.0033,0.0076,-0.0022,1.75,-1.63,273.00,-0.2719,-0.2675,9.5730,9.5806
24,2,2,5,0,03.101,3101,-0.7500,-0.6700,9.8100,9.8614,0.0382,-0.0305,-0.0131,1.75,-1.56,273.00,-0.3349,-0.3205,9.6043,9.6154
24,2,2,5,0,03.203,3203,-0.4500,-0.3500,10.0600,10.0761,-0.0044,0.0185,-0.0033,1.81,-1.56,273.00,-0.3500,-0.3244,9.6643,9.6761
24,2,2,5,0,03.314,3314,-0.5300,-0.2800,10.3000,10.3174,0.0055,0.0000,0.0000,1.75,-1.50,273.00,-0.3738,-0.3185,9.7481,9.7605
24,2,2,5,0,03.416,3416,-0.3800,-0.3400,10.0300,10.0430,-0.0033,0.0153,0.0044,1.69,-1.56,273.00,-0.3746,-0.3214,9.7852,9.7977
24,2,2,5,0,03.530,3530,-0.4200,-0.2600,9.7800,9.7925,0.0044,-0.0055,-0.0065,1.69,-1.50,273.00,-0.3806,-0.3133,9.7845,9.7970
24,2,2,5,0,03.633,3633,-0.5400,-0.1900,10.0400,10.0563,-0.0033,0.0175,-0.0022,1.69,-1.50,273.00,-0.4016,-0.2970,9.8182,9.8309
24,2,2,5,0,03.742,3742,-0.2600,-0.3500,10.0900,10.0994,0.0033,-0.0055,-0.0033,1.69,-1.50,273.00,-0.3829,-0.3040,9.8540,9.8661
24,2,2,5,0,03.844,3844,-0.2400,-0.1600,10.0600,10.0641,-0.0033,0.0065,0.0000,1.69,-1.50,273.00,-0.3641,-0.2850,9.8812,9.8920
24,2,2,5,0,03.954,3954,-0.3300,-0.3000,10.1100,10.1198,0.0022,-0.0044,0.0000,1.69,-1.50,273.00,-0.3596,-0.2870,9.9113,9.9220
24,2,2,5,0,04.056,4056,-0.3700,-0.3100,10.2700,10.2813,0.0011,-0.0011,0.0011,1.69,-1.50,273.00,-0.3610,-0.2900,9.9586,9.9693
24,2,2,5,0,04.167,4167,-0.4000,-0.3700,11.2600,11.2732,0.0000,0.0000,0.0022,1.69,-1.50,273.00,-0.3661,-0.3006,10.1301,10.1411
24,2,2,5,0,04.270,4270,-0.0600,-0.4600,11.1900,11.1996,0.0065,-0.0240,0.0065,1.69,-1.56,273.00,-0.3258,-0.3216,10.2697,10.2799
24,2,2,5,0,04.379,4379,0.2700,-0.8300,10.3100,10.3469,0.0284,-0.0120,0.0011,1.75,-1.63,273.00,-0.2473,-0.3886,10.2751,10.2854
24,2,2,5,0,04.484,4484,0.2900,-0.1400,9.7900,9.7953,0.0153,-0.0076,0.0022,1.88,-1.69,273.00,-0.1765,-0.3558,10.2111,10.2189
24,2,2,5,0,04.594,4594,-0.5200,0.8600,9.0200,9.0758,0.0185,-0.0240,-0.0044,1.81,-1.69,273.00,-0.2217,-0.1956,10.0542,10.0585
24,2,2,5,0,04.696,4696,-0.9900,-0.0600,9.5100,9.5616,-0.0218,0.0120,-0.0164,1.81,-1.81,273.00,-0.3230,-0.1777,9.9825,9.9893
24,2,2,5,0,04.805,4805,-0.3700,-0.6800,8.9500,8.9834,0.0153,-0.0164,0.0033,1.81,-1.81,273.00,-0.3292,-0.2439,9.8464,9.8549
24,2,2,5,0,04.907,4907,-0.2300,-0.0600,8.4500,8.4533,-0.0098,0.0055,0.0000,1.75,-1.88,272.94,-0.3161,-0.2197,9.6624,9.6701
24,2,2,5,0,05.016,5016,-0.3200,-0.2000,8.5900,8.5983,0.0000,-0.0044,-0.0120,1.81,-1.88,272.94,-0.3166,-0.2171,9.5211,9.5288
24,2,2,5,0,05.118,5118,-0.3700,-0.3600,8.8900,8.9050,0.0044,0.0044,0.0055,1.81,-1.88,272.94,-0.3237,-0.2359,9.4379,9.4464
24,2,2,5,0,05.228,5228,-0.1400,0.3800,9.3000,9.3088,0.0153,-0.0120,-0.0142,1.81,-1.81,272.94,-0.2994,-0.1548,9.4198,9.4258
24,3,2,5,0,05.336,5336,-0.1000,-0.4500,9.7000,9.7109,-0.0175,0.0175,-0.0109,1.88,-1.88,273.00,-0.2732,-0.1937,9.4567,9.4626
24,3,2,5,0,05.447,5447,-0.4200,-0.7300,9.8100,9.8461,0.0076,-0.0131,0.0153,1.88,-1.81,273.00,-0.2925,-0.2643,9.5032,9.5114
24,3,2,5,0,05.549,5549,-0.4400,-0.1900,9.4600,9.4721,-0.0055,0.0011,0.0164,1.88,-1.75,273.00,-0.3120,-0.2545,9.4975,9.5061
24,3,2,5,0,05.659,5659,-0.4200,-0.0800,9.2300,9.2399,-0.0109,0.0153,0.0076,1.81,-1.75,273.00,-0.3262,-0.2315,9.4623,9.4707
24,3,2,5,0,05.763,5763,0.1000,-0.1400,9.9700,9.9715,0.0000,-0.0109,0.0218,1.88,-1.69,273.00,-0.2700,-0.2195,9.5292,9.5355
24,3,2,5,0,05.873,5873,-0.0500,-0.5700,10.1500,10.1661,-0.0065,0.0098,0.0109,1.88,-1.75,273.00,-0.2410,-0.2657,9.6110,9.6177
24,3,2,5,0,05.978,5978,-0.2700,-0.0200,10.3900,10.3935,-0.0065,0.0098,-0.0164,1.81,-1.69,272.94,-0.2449,-0.2333,9.7136,9.7195
24,3,2,5,0,06.089,6089,-0.3300,-0.4100,10.5300,10.5431,-0.0120,-0.0109,0.0000,1.88,-1.69,272.94,-0.2561,-0.2566,9.8212,9.8279
24,3,2,5,0,06.191,6191,-0.2100,-0.2900,10.3600,10.3662,-0.0011,0.0109,0.0022,1.81,-1.69,272.94,-0.2500,-0.2610,9.8922,9.8988
24,3,2,5,0,06.302,6302,-0.3000,-0.1800,9.9300,9.9362,-0.0022,-0.0011,-0.0011,1.81,-1.69,272.94,-0.2566,-0.2503,9.8972,9.9037
24,3,2,5,0,06.407,6407,-0.2900,-0.3500,9.8100,9.8205,-0.0044,-0.0098,-0.0044,1.81,-1.69,272.94,-0.2610,-0.2635,9.8857,9.8927
24,3,2,5,0,06.520,6520,-0.2700,-0.3500,10.0300,10.0397,-0.0022,0.0033,0.0022,1.81,-1.69,272.94,-0.2622,-0.2749,9.9047,9.9120
24,3,2,5,0,06.622,6622,-0.3000,-0.3000,9.9200,9.9291,0.0011,0.0022,0.0000,1.81,-1.69,272.94,-0.2672,-0.2782,9.9067,9.9142
24,3,2,5,0,06.733,6733,-0.3000,-0.2600,10.0400,10.0478,-0.0011,-0.0087,0.0011,1.81,-1.69,272.94,-0.2715,-0.2758,9.9243,9.9318
24,3,2,5,0,06.839,6839,-0.3500,-0.3100,9.9800,9.9909,0.0044,-0.0044,-0.0033,1.88,-1.69,272.94,-0.2818,-0.2803,9.9316,9.9396
24,3,2,5,0,06.951,6951,-0.3900,-0.3300,10.6700,10.6822,-0.0131,0.0109,0.0055,1.75,-1.63,272.94,-0.2961,-0.2868,10.0289,10.0374
24,3,2,5,0,07.053,7053,-0.2800,-0.3200,11.3000,11.3080,0.0196,-0.0164,0.0000,1.81,-1.69,272.94,-0.2940,-0.2912,10.1964,10.2048
24,3,2,5,0,07.162,7162,-0.5700,-0.1200,10.8200,10.8357,-0.0098,0.0000,0.0087,1.81,-1.75,272.94,-0.3303,-0.2686,10.2786,10.2874
24,3,2,5,0,07.264,7264,0.2200,-1.1600,9.8000,9.8709,0.0185,-0.0251,-0.0087,1.88,-1.81,273.00,-0.2578,-0.3861,10.2155,10.2261
24,3,2,5,0,07.374,7374,0.2400,-0.5500,9.5000,9.5189,0.0273,0.0360,0.0065,2.00,-1.88,273.00,-0.1922,-0.4077,10.1212,10.1313
24,3,2,5,0,07.476,7476,0.6500,-0.8600,9.1500,9.2133,0.0164,0.0055,0.0044,1.94,-1.94,272.94,-0.0812,-0.4673,9.9933,10.0045
24,3,2,5,0,07.585,7585,-0.1400,-0.3300,9.3700,9.3769,0.0033,0.0218,0.0033,1.94,-2.00,272.94,-0.0890,-0.4492,9.9111,9.9217
24,3,2,5,0,07.688,7688,-0.2300,-0.4500,8.7600,8.7746,0.0284,0.0098,0.0000,1.94,-2.00,272.88,-0.1076,-0.4493,9.7594,9.7704
24,3,2,5,0,07.803,7803,-0.2700,-0.3500,8.4600,8.4715,-0.0033,0.0087,0.0109,1.94,-2.06,272.88,-0.1290,-0.4362,9.5882,9.5990
24,3,2,5,0,07.905,7905,-0.3500,-0.1300,8.3900,8.3983,0.0076,-0.0098,0.0098,1.94,-2.06,272.88,-0.1581,-0.3959,9.4303,9.4399
24,3,2,5,0,08.014,8014,-0.4900,-0.3100,9.1700,9.1883,0.0131,0.0218,0.0044,1.94,-2.06,272.88,-0.2018,-0.3846,9.3960,9.4060
24,3,2,5,0,08.117,8117,-0.0200,-0.2800,9.2900,9.2942,0.0196,-0.0196,0.0120,1.94,-1.94,272.88,-0.1779,-0.3708,9.3820,9.3910
24,3,2,5,0,08.227,8227,-0.4800,-0.1900,9.3900,9.4042,-0.0262,0.0055,0.0185,2.00,-1.94,272.94,-0.2177,-0.3470,9.3831,9.3920
24,3,2,5,0,08.329,8329,-0.3300,-0.6100,9.3200,9.3458,0.0087,-0.0142,0.0044,2.00,-1.88,272.94,-0.2325,-0.3816,9.3748,9.3854
24,4,2,5,0,08.438,8438,-1.7100,1.0000,9.6600,9.8610,-0.0524,-0.0262,0.0164,2.00,-1.88,272.94,-0.4272,-0.1996,9.4124,9.4242
24,4,2,5,0,08.545,8545,0.2700,0.0300,10.1800,10.1836,0.0011,-0.0098,-0.0065,2.00,-1.81,273.00,-0.3353,-0.1693,9.5135,9.5209
24,4,2,5,0,08.656,8656,-0.2600,-0.1900,10.4500,10.4550,-0.0153,0.0207,-0.0011,2.00,-1.81,272.94,-0.3254,-0.1720,9.6369,9.6439
24,4,2,5,0,08.758,8758,0.0800,-0.2100,10.1500,10.1525,0.0033,-0.0076,-0.0087,1.94,-1.81,272.94,-0.2720,-0.1770,9.7045,9.7100
24,4,2,5,0,08.868,8868,-0.2400,-0.2500,10.2000,10.2059,-0.0055,-0.0011,0.0022,1.94,-1.81,272.94,-0.2678,-0.1867,9.7698,9.7753
24,4,2,5,0,08.970,8970,-0.3000,-0.3100,10.2100,10.2191,-0.0033,0.0251,-0.0044,1.88,-1.81,272.94,-0.2720,-0.2029,9.8278,9.8337
24,4,2,5,0,09.080,9080,-0.2800,-0.2800,10.3300,10.3376,0.0087,-0.0033,-0.0044,1.88,-1.75,272.94,-0.2731,-0.2131,9.8940,9.9001
24,4,2,5,0,09.182,9182,-0.3000,-0.2700,10.0500,10.0581,-0.0044,-0.0065,0.0044,1.94,-1.75,272.94,-0.2766,-0.2206,9.9146,9.9209
24,4,2,5,0,09.297,9297,-0.2100,-0.3000,10.1100,10.1166,-0.0011,0.0109,0.0000,1.88,-1.75,272.94,-0.2678,-0.2310,9.9403,9.9466
24,4,2,5,0,09.399,9399,-0.2800,-0.3500,10.3500,10.3597,-0.0065,0.0000,0.0033,1.88,-1.75,272.94,-0.2694,-0.2467,9.9943,10.0010
24,4,2,5,0,09.509,9509,-0.3100,-0.3600,11.1000,11.1102,0.0098,-0.0065,0.0022,1.88,-1.75,272.94,-0.2748,-0.2616,10.1400,10.1471
24,4,2,5,0,09.611,9611,-0.3700,-0.3400,11.0100,11.0215,0.0022,0.0033,0.0065,1.88,-1.75,272.94,-0.2873,-0.2720,10.2546,10.2623
24,4,2,5,0,09.721,9721,-0.4800,-1.3100,10.5600,10.6518,0.0120,-0.0415,0.0120,1.94,-1.81,273.00,-0.3127,-0.4088,10.2949,10.3077
24,4,2,5,0,09.829,9829,-0.7700,-0.5500,10.0600,10.1044,0.0262,-0.0251,-0.0033,2.00,-1.88,273.00,-0.3730,-0.4274,10.2639,10.2796
24,4,2,5,0,09.940,9940,-0.9800,-0.9200,9.4700,9.5649,0.0000,0.0076,-0.0120,1.94,-1.94,272.94,-0.4530,-0.4923,10.1593,10.1813
24,4,2,5,0,10.042,10042,-0.4700,-0.0200,9.6500,9.6615,-0.0065,0.0065,-0.0175,1.94,-2.00,272.94,-0.4552,-0.4300,10.0922,10.1116
24,4,2,5,0,10.152,10152,-0.0500,-0.2800,8.9300,8.9345,0.0196,0.0055,-0.0087,1.94,-2.06,272.94,-0.4018,-0.4103,9.9390,9.9556
24,4,2,5,0,10.258,10258,-0.4300,-0.3300,8.4700,8.4873,-0.0055,0.0011,-0.0109,1.94,-2.06,272.88,-0.4055,-0.3997,9.7455,9.7621
24,4,2,5,0,10.371,10371,-0.2600,-0.0800,8.4500,8.4544,0.0065,-0.0065,-0.0044,1.94,-2.06,272.88,-0.3864,-0.3576,9.5748,9.5892
24,4,2,5,0,10.473,10473,-0.3300,-0.4700,9.1000,9.1181,-0.0065,0.0065,0.0076,1.94,-2.06,272.88,-0.3789,-0.3724,9.5122,9.5270
24,4,2,5,0,10.583,10583,-0.4600,-0.6300,9.4100,9.4423,0.0327,-0.0360,-0.0098,1.94,-2.00,272.88,-0.3896,-0.4063,9.4987,9.5154
24,5,2,5,0,10.685,10685,-0.6000,-0.1100,9.7400,9.7591,0.0011,0.0164,-0.0142,2.06,-2.00,272.94,-0.4173,-0.3673,9.5305,9.5467
24,5,2,5,0,10.794,10794,0.1800,-1.4500,9.7400,9.8490,-0.0109,-0.0175,0.0098,2.06,-1.94,272.94,-0.3386,-0.5100,9.5581,9.5777
24,5,2,5,0,10.902,10902,-0.4500,-0.1200,10.0500,10.0608,-0.0011,0.0109,0.0065,2.06,-1.94,272.94,-0.3533,-0.4586,9.6229,9.6403
24,5,2,5,0,11.013,11013,-0.0100,-0.1300,9.7500,9.7509,0.0011,-0.0098,0.0033,2.00,-1.81,272.94,-0.3081,-0.4153,9.6397,9.6535
24,5,2,5,0,11.115,11115,-0.4600,-0.1600,10.3800,10.3914,-0.0011,0.0371,0.0022,2.00,-1.88,272.94,-0.3281,-0.3816,9.7372,9.7502
24,5,2,5,0,11.226,11226,-0.4700,-0.5700,10.3500,10.3763,-0.0087,0.0044,-0.0185,1.94,-1.81,272.88,-0.3468,-0.4065,9.8180,9.8325
24,5,2,5,0,11.333,11333,-0.3700,-0.3100,10.4600,10.4711,0.0000,-0.0065,-0.0087,2.00,-1.81,272.88,-0.3498,-0.3937,9.9026,9.9166
24,5,2,5,0,11.444,11444,-0.3800,0.2000,10.5600,10.5687,-0.0207,-0.0055,-0.0033,1.94,-1.75,272.88,-0.3538,-0.3155,9.9892,10.0005
24,5,2,5,0,11.546,11546,-0.2200,-0.3900,10.1400,10.1499,0.0087,-0.0065,-0.0065,1.94,-1.75,272.88,-0.3362,-0.3253,10.0091,10.0200
24,5,2,5,0,11.655,11655,-0.2600,-0.2600,10.0200,10.0267,0.0044,0.0109,0.0011,2.00,-1.75,272.88,-0.3261,-0.3167,10.0105,10.0208
24,5,2,5,0,11.757,11757,-0.2500,-0.2300,10.4000,10.4055,-0.0076,0.0109,-0.0022,1.88,-1.75,272.88,-0.3161,-0.3053,10.0618,10.0714
24,5,2,5,0,11.866,11866,-0.4000,-0.3500,11.1800,11.1926,0.0022,-0.0033,-0.0022,1.88,-1.75,272.88,-0.3272,-0.3112,10.2092,10.2192
24,5,2,5,0,11.968,11968,-0.3900,-0.3200,11.3300,11.3412,0.0109,-0.0033,0.0044,1.88,-1.75,272.88,-0.3354,-0.3123,10.3569,10.3670
24,5,2,5,0,12.078,12078,-0.1300,-0.1900,10.6200,10.6225,0.0131,-0.0055,0.0033,1.88,-1.75,272.88,-0.3084,-0.2962,10.3916,10.4004
24,5,2,5,0,12.186,12186,-0.4800,-0.0400,10.0800,10.0915,0.0284,-0.0393,0.0033,2.00,-1.88,272.94,-0.3310,-0.2625,10.3505,10.3591
24,5,2,5,0,12.295,12295,-1.8500,0.9400,9.4300,9.6556,-0.0065,0.0065,-0.0055,2.00,-2.00,272.94,-0.5312,-0.1040,10.2292,10.2435
24,5,2,5,0,12.397,12397,-0.4300,-0.5000,9.1000,9.1239,0.0098,-0.0109,0.0131,2.00,-2.00,272.94,-0.5178,-0.1562,10.0804,10.0949
24,5,2,5,0,12.507,12507,-0.1600,-0.4900,9.4900,9.5040,0.0022,0.0109,0.0011,1.94,-2.06,272.88,-0.4707,-0.2002,10.0026,10.0157
24,5,2,5,0,12.609,12609,-1.5500,0.4400,9.3100,9.4484,0.0011,-0.0142,-0.0076,1.94,-2.13,272.88,-0.6129,-0.1158,9.9113,9.9309
24,5,2,5,0,12.719,12719,-0.3900,-0.5000,8.3200,8.3441,0.0000,0.0011,-0.0022,1.94,-2.13,272.88,-0.5835,-0.1664,9.7016,9.7206
24,5,2,5,0,12.824,12824,-0.3800,-0.1800,8.4100,8.4205,0.0087,-0.0076,-0.0011,1.94,-2.13,272.88,-0.5567,-0.1682,9.5314,9.5492
24,5,2,5,0,12.938,12938,-0.7800,-0.1200,9.2400,9.2736,-0.0131,0.0065,-0.0022,1.88,-2.13,272.88,-0.5861,-0.1619,9.4930,9.5125
24,6,2,5,0,13.040,13040,-0.7200,-0.5000,9.6100,9.6499,0.0207,-0.0338,0.0218,1.94,-2.06,272.88,-0.6038,-0.2064,9.5084,9.5298
24,6,2,5,0,13.150,13150,-0.4600,0.3200,9.5900,9.6064,-0.0218,0.0087,0.0262,1.94,-2.00,272.94,-0.5848,-0.1371,9.5192,9.5381
24,6,2,5,0,13.252,13252,-0.4500,-0.2800,9.7300,9.7444,0.0033,0.0000,0.0033,2.00,-2.00,272.94,-0.5671,-0.1559,9.5470,9.5651
24,6,2,5,0,13.362,13362,0.0000,-0.2900,10.0300,10.0342,-0.0044,0.0142,-0.0022,2.00,-1.88,272.94,-0.4923,-0.1736,9.6106,9.6248
24,6,2,5,0,13.469,13469,-0.0500,0.0000,10.3300,10.3301,-0.0196,0.0120,-0.0022,2.00,-1.88,272.94,-0.4340,-0.1507,9.7054,9.7163
24,6,2,5,0,13.580,13580,-0.9700,0.0900,10.3300,10.3758,-0.0218,-0.0011,0.0011,1.88,-1.88,272.94,-0.5047,-0.1190,9.7877,9.8014
24,6,2,5,0,13.682,13682,-0.3000,-0.4800,10.1300,10.1458,-0.0153,-0.0240,-0.0044,1.94,-1.88,272.94,-0.4777,-0.1666,9.8328,9.8458
24,6,2,5,0,13.792,13792,-0.4600,-0.2400,10.0200,10.0334,-0.0076,0.0131,0.0000,1.94,-1.81,272.94,-0.4754,-0.1762,9.8575,9.8705
24,6,2,5,0,13.894,13894,-0.1800,-0.2600,10.3500,10.3548,-0.0065,0.0033,0.0000,1.88,-1.81,272.94,-0.4364,-0.1873,9.9224,9.9337
24,6,2,5,0,14.004,14004,-0.1700,-0.3800,10.4700,10.4783,0.0044,-0.0076,-0.0076,1.94,-1.81,272.94,-0.4013,-0.2127,9.9946,10.0049
24,6,2,5,0,14.111,14111,-0.4900,-0.3200,10.3100,10.3266,0.0000,0.0218,-0.0011,1.88,-1.81,272.94,-0.4130,-0.2268,10.0361,10.0472
24,6,2,5,0,14.222,14222,-0.3100,-0.3900,10.7200,10.7316,0.0044,-0.0055,0.0022,1.81,-1.81,272.94,-0.3994,-0.2483,10.1262,10.1372
24,6,2,5,0,14.324,14324,-0.1900,-0.4200,11.3200,11.3294,0.0011,-0.0022,0.0022,1.81,-1.81,272.94,-0.3718,-0.2709,10.2835,10.2938
24,6,2,5,0,14.436,14436,-0.3300,0.6600,10.8000,10.8252,0.0120,-0.0087,0.0076,1.81,-1.81,272.94,-0.3663,-0.1483,10.3516,10.3591
24,6,2,5,0,14.542,14542,-1.1600,0.3500,10.7600,10.8280,0.0175,-0.0076,0.0087,1.88,-1.88,272.94,-0.4709,-0.0826,10.4054,10.4164
24,6,2,5,0,14.653,14653,-0.1900,0.2700,9.9700,9.9755,0.0109,-0.0055,-0.0011,2.00,-1.94,272.94,-0.4339,-0.0361,10.3480,10.3572
24,6,2,5,0,14.755,14755,-0.6400,-0.0800,9.4500,9.4720,0.0065,0.0098,-0.0207,1.94,-2.00,272.94,-0.4611,-0.0419,10.2297,10.2402
24,6,2,5,0,14.865,14865,-1.0000,0.2100,9.4000,9.4554,0.0065,-0.0022,-0.0218,1.94,-2.13,272.88,-0.5321,-0.0087,10.1204,10.1343
24,6,2,5,0,14.973,14973,-0.4200,-0.5500,8.7700,8.7973,0.0480,0.0164,-0.0175,1.94,-2.19,272.88,-0.5173,-0.0801,9.9424,9.9562
24,6,2,5,0,15.084,15084,-0.2300,-0.3200,8.3600,8.3693,0.0120,-0.0055,0.0065,1.94,-2.19,272.88,-0.4794,-0.1117,9.7339,9.7463
24,6,2,5,0,15.186,15186,-0.3300,-0.1900,8.5000,8.5085,0.0044,0.0000,0.0076,1.94,-2.19,272.88,-0.4598,-0.1220,9.5713,9.5831
24,6,2,5,0,15.296,15296,-0.5000,-0.2800,9.4300,9.4474,0.0022,0.0087,0.0065,1.94,-2.19,272.88,-0.4651,-0.1428,9.5527,9.5651
24,7,2,5,0,15.398,15398,-0.2400,-0.5100,9.7400,9.7563,-0.0044,-0.0011,0.0087,1.94,-2.13,272.88,-0.4354,-0.1912,9.5774,9.5892
24,7,2,5,0,15.508,15508,-0.6400,0.0900,10.3500,10.3702,-0.0153,0.0087,0.0098,2.00,-2.13,272.88,-0.4624,-0.1541,9.6792,9.6914
24,7,2,5,0,15.615,15615,-0.5000,-0.4700,10.1100,10.1333,0.0000,-0.0011,0.0109,1.94,-2.06,272.88,-0.4673,-0.1958,9.7360,9.7491
24,7,2,5,0,15.726,15726,-0.3200,-0.4100,9.8300,9.8437,-0.0011,0.0022,0.0055,1.94,-2.06,272.88,-0.4479,-0.2240,9.7483,9.7612
24,7,2,5,0,15.828,15828,-0.3700,-0.1500,9.4600,9.4684,0.0087,-0.0044,-0.0109,1.94,-2.00,272.94,-0.4376,-0.2142,9.7103,9.7226
24,7,2,5,0,15.937,15937,-0.3100,-0.2300,9.2600,9.2680,-0.0055,0.0153,-0.0044,1.94,-2.00,272.94,-0.4208,-0.2163,9.6510,9.6626
24,7,2,5,0,16.039,16039,-0.2100,-0.6100,9.6300,9.6516,0.0175,-0.0229,-0.0109,1.94,-1.94,272.94,-0.3930,-0.2682,9.6482,9.6600
24,7,2,5,0,16.149,16149,-0.4100,-0.2300,10.0200,10.0310,-0.0120,0.0153,0.0076,2.00,-1.94,272.88,-0.3953,-0.2632,9.6972,9.7088
24,7,2,5,0,16.251,16251,-0.8200,-0.2400,10.2400,10.2756,0.0033,-0.0109,0.0055,1.94,-1.94,272.94,-0.4512,-0.2601,9.7687,9.7826
24,7,2,5,0,16.361,16361,-0.4400,-0.3300,9.9600,9.9752,0.0000,0.0120,0.0011,1.94,-1.94,272.88,-0.4498,-0.2693,9.7940,9.8080
24,7,2,5,0,16.467,16467,-0.3300,-0.2900,9.9800,9.9897,0.0011,0.0022,-0.0055,1.88,-1.94,272.88,-0.4340,-0.2720,9.8185,9.8318
24,7,2,5,0,16.578,16578,-0.2500,-0.2900,9.6900,9.6976,-0.0033,-0.0055,-0.0011,1.88,-1.94,272.88,-0.4097,-0.2744,9.8015,9.8139
24,7,2,5,0,16.680,16680,-0.2700,-0.3900,9.9300,9.9413,-0.0098,0.0087,-0.0022,1.88,-1.88,272.88,-0.3913,-0.2896,9.8185,9.8305
24,7,2,5,0,16.789,16789,-0.3000,-0.3200,10.0100,10.0196,0.0087,-0.0022,-0.0033,1.88,-1.88,272.88,-0.3793,-0.2936,9.8437,9.8554
24,7,2,5,0,16.891,16891,-0.3600,-0.2700,9.8900,9.9002,-0.0011,0.0044,0.0000,1.88,-1.88,272.88,-0.3767,-0.2905,9.8498,9.8613
24,7,2,5,0,17.001,17001,-0.4200,-0.2600,10.0900,10.1021,-0.0044,-0.0044,-0.0011,1.88,-1.88,272.88,-0.3824,-0.2865,9.8815,9.8930
24,7,2,5,0,17.103,17103,-0.3600,-0.2500,9.7400,9.7499,-0.0044,-0.0087,-0.0011,1.88,-1.88,272.88,-0.3795,-0.2817,9.8628,9.8741
24,7,2,5,0,17.212,17212,-0.2900,-0.3300,9.8600,9.8698,0.0000,0.0142,0.0022,1.88,-1.88,272.88,-0.3677,-0.2881,9.8624,9.8735
24,7,2,5,0,17.317,17317,-0.3600,-0.2900,9.9700,9.9807,0.0033,0.0000,0.0000,1.88,-1.88,272.88,-0.3667,-0.2883,9.8766,9.8876
24,7,2,5,0,17.430,17430,-0.3500,-0.2700,9.8700,9.8799,0.0000,-0.0033,-0.0022,1.88,-1.88,272.88,-0.3645,-0.2859,9.8757,9.8866
24,7,2,5,0,17.532,17532,-0.3300,-0.2400,9.8700,9.8784,-0.0011,0.0011,0.0000,1.88,-1.88,272.88,-0.3599,-0.2799,9.8750,9.8855
24,7,2,5,0,17.642,17642,-0.2800,-0.2800,9.8300,9.8380,0.0011,0.0011,0.0000,1.88,-1.88,272.88,-0.3494,-0.2799,9.8691,9.8792
24,7,2,5,0,17.744,17744,-0.3300,-0.3000,9.9700,9.9800,0.0000,-0.0055,0.0000,1.88,-1.88,272.88,-0.3468,-0.2825,9.8824,9.8925
24,7,2,5,0,17.855,17855,-0.0100,-0.3500,10.0400,10.0461,0.0022,0.0229,-0.0022,1.81,-1.88,272.88,-0.3025,-0.2914,9.9031,9.9120
24,7,2,5,0,17.957,17957,-0.3400,-0.3200,10.5100,10.5204,0.0033,-0.0065,0.0011,1.81,-1.88,272.88,-0.3074,-0.2952,9.9831,9.9922
24,7,2,5,0,18.071,18071,-0.3400,-0.3000,10.9100,10.9194,0.0000,0.0011,0.0055,1.81,-1.88,272.88,-0.3117,-0.2958,10.1052,10.1144
24,7,2,5,0,18.174,18174,-0.6600,0.0000,10.3100,10.3311,0.0044,-0.0098,0.0065,1.81,-1.88,272.94,-0.3576,-0.2568,10.1322,10.1418
24,7,2,5,0,18.285,18285,-0.2100,-0.1400,9.3700,9.3734,0.0022,-0.0087,0.0000,1.88,-1.94,272.94,-0.3381,-0.2414,10.0318,10.0404
24,7,2,5,0,18.392,18392,0.1700,-0.8500,8.9200,8.9620,0.0055,-0.0076,0.0087,1.94,-1.94,272.94,-0.2712,-0.3216,9.8853,9.8942
24,7,2,5,0,18.503,18503,-0.2900,-0.5100,9.5900,9.6079,0.0022,0.0033,0.0076,1.94,-2.00,272.94,-0.2737,-0.3465,9.8464,9.8563
24,7,2,5,0,18.606,18606,-0.0700,-0.4300,10.1100,10.1194,0.0360,0.0218,-0.0076,1.94,-2.06,272.94,-0.2468,-0.3575,9.8811,9.8907
24,7,2,5,0,18.715,18715,-0.1400,-0.4700,10.2000,10.2118,0.0196,-0.0175,0.0000,1.94,-2.00,272.94,-0.2328,-0.3723,9.9231,9.9328
24,7,2,5,0,18.817,18817,-0.1000,-0.4200,9.9500,9.9594,-0.0011,0.0087,0.0065,1.94,-2.06,272.88,-0.2153,-0.3786,9.9267,9.9362
24,7,2,5,0,18.927,18927,-0.4800,-0.3500,9.9100,9.9278,0.0142,-0.0044,-0.0055,1.94,-2.13,272.88,-0.2501,-0.3748,9.9245,9.9347
24,7,2,5,0,19.034,19034,-0.4000,-0.3800,9.0400,9.0568,0.0055,0.0065,0.0022,1.94,-2.13,272.88,-0.2699,-0.3755,9.8079,9.8188
24,7,2,5,0,19.145,19145,-0.4100,-0.1800,8.6600,8.6716,0.0044,0.0000,-0.0076,1.88,-2.13,272.88,-0.2884,-0.3497,9.6567,9.6673
24,7,2,5,0,19.247,19247,-0.3400,-0.2400,9.2500,9.2594,0.0000,-0.0011,-0.0098,1.94,-2.13,272.88,-0.2952,-0.3353,9.6031,9.6135
24,7,2,5,0,19.356,19356,-0.3600,-0.4100,9.7500,9.7653,-0.0022,-0.0011,0.0011,1.94,-2.13,272.88,-0.3037,-0.3451,9.6224,9.6334
24,7,2,5,0,19.458,19458,-0.2600,-0.2400,9.4300,9.4366,0.0000,0.0022,-0.0022,1.94,-2.13,272.88,-0.2979,-0.3313,9.5971,9.6074
24,8,2,5,0,19.569,19569,-0.3600,-0.4400,9.6300,9.6468,0.0033,0.0033,0.0011,1.94,-2.13,272.88,-0.3061,-0.3456,9.6014,9.6125
24,8,2,5,0,19.676,19676,-0.5400,-0.4700,9.8500,9.8760,-0.0196,-0.0065,0.0055,1.94,-2.06,272.88,-0.3369,-0.3620,9.6342,9.6469
24,8,2,5,0,19.787,19787,-0.3900,-0.3100,9.9700,9.9824,0.0022,-0.0065,0.0000,1.94,-2.06,272.88,-0.3439,-0.3551,9.6784,9.6910
24,8,2,5,0,19.889,19889,-0.3300,-0.3900,9.7600,9.7734,-0.0044,0.0011,0.0011,1.94,-2.06,272.88,-0.3421,-0.3597,9.6892,9.7019
24,8,2,5,0,19.999,19999,-0.3000,-0.3700,9.6700,9.6817,0.0033,-0.0033,0.0011,1.94,-2.06,272.88,-0.3365,-0.3611,9.6866,9.6992
24,8,2,5,0,20.101,20101,-0.3000,-0.3300,9.6300,9.6403,-0.0033,0.0011,0.0022,1.94,-2.06,272.88,-0.3317,-0.3570,9.6792,9.6914
24,8,2,5,0,20.211,20211,-0.2400,-0.4400,9.4400,9.4533,-0.0044,-0.0022,0.0011,1.94,-2.06,272.88,-0.3196,-0.3679,9.6477,9.6600
24,8,2,5,0,20.313,20313,-0.3700,-0.3000,9.7000,9.7117,0.0000,-0.0033,0.0033,2.00,-2.00,272.88,-0.3263,-0.3590,9.6546,9.6667
24,8,2,5,0,20.428,20428,-0.3500,-0.3700,9.8200,9.8332,0.0022,-0.0033,0.0076,2.00,-2.00,272.88,-0.3294,-0.3604,9.6764,9.6887
24,8,2,5,0,20.530,20530,-0.3700,-0.3100,9.8200,9.8319,0.0000,0.0022,0.0011,2.00,-2.00,272.88,-0.3348,-0.3538,9.6953,9.7075
24,8,2,5,0,20.641,20641,-0.4200,-0.0900,9.9700,9.9792,-0.0022,0.0076,-0.0065,1.94,-2.00,272.88,-0.3460,-0.3190,9.7315,9.7429
24,8,2,5,0,20.748,20748,-0.1000,-0.3900,10.2300,10.2379,0.0142,-0.0196,0.0033,2.00,-1.94,272.88,-0.3136,-0.3284,9.7972,9.8077
24,8,2,5,0,20.860,20860,-0.1600,-0.2800,10.2600,10.2651,-0.0022,0.0076,0.0044,2.00,-1.94,272.88,-0.2933,-0.3220,9.8582,9.8678
24,8,2,5,0,20.962,20962,-0.2000,-0.1300,9.8200,9.8229,-0.0022,0.0033,-0.0098,2.00,-1.94,272.88,-0.2810,-0.2967,9.8531,9.8616
24,8,2,5,0,21.071,21071,-0.2900,-0.4200,9.6000,9.6136,-0.0065,0.0207,-0.0055,2.00,-1.94,272.88,-0.2822,-0.3129,9.8198,9.8288
24,8,2,5,0,21.173,21173,-0.3000,-0.3000,9.8700,9.8791,0.0120,-0.0065,0.0011,2.00,-1.94,272.88,-0.2846,-0.3112,9.8264,9.8354
24,8,2,5,0,21.283,21283,-0.2400,-0.3400,9.9600,9.9687,0.0000,0.0120,-0.0022,1.94,-1.88,272.88,-0.2787,-0.3150,9.8440,9.8530
24,8,2,5,0,21.387,21387,-0.3000,-0.3200,9.9700,9.9796,-0.0044,0.0120,-0.0044,1.94,-1.88,272.88,-0.2815,-0.3157,9.8606,9.8697
24,8,2,5,0,21.501,21501,-0.2700,-0.3500,9.7500,9.7600,0.0022,-0.0065,-0.0044,1.94,-1.88,272.88,-0.2800,-0.3202,9.8460,9.8552
24,8,2,5,0,21.603,21603,-0.3800,-0.2400,9.7600,9.7703,-0.0022,0.0044,-0.0011,1.94,-1.88,272.88,-0.2932,-0.3096,9.8347,9.8439
24,8,2,5,0,21.714,21714,-0.3100,-0.3300,10.0200,10.0302,-0.0011,-0.0044,-0.0022,1.94,-1.88,272.88,-0.2954,-0.3123,9.8591,9.8685
24,8,2,5,0,21.816,21816,-0.3300,-0.3100,10.0200,10.0302,-0.0022,0.0033,-0.0033,1.94,-1.88,272.88,-0.2999,-0.3120,9.8803,9.8898
24,8,2,5,0,21.928,21928,-0.3400,-0.3500,10.0200,10.0319,0.0011,-0.0011,-0.0011,1.94,-1.88,272.88,-0.3052,-0.3170,9.8987,9.9085
24,8,2,5,0,22.033,22033,-0.3400,-0.2700,9.7700,9.7796,0.0011,0.0055,-0.0022,1.94,-1.88,272.88,-0.3098,-0.3108,9.8818,9.8915
24,8,2,5,0,22.143,22143,-0.3300,-0.3000,9.9500,9.9600,-0.0011,0.0011,-0.0011,1.94,-1.88,272.88,-0.3125,-0.3094,9.8908,9.9005
24,8,2,5,0,22.245,22245,-0.3300,-0.2500,9.8800,9.8887,-0.0033,-0.0022,-0.0011,1.94,-1.88,272.88,-0.3148,-0.3016,9.8893,9.8989
24,8,2,5,0,22.355,22355,-0.3000,-0.3200,10.1300,10.1395,0.0022,0.0055,-0.0022,1.94,-1.88,272.88,-0.3128,-0.3040,9.9210,9.9306
24,8,2,5,0,22.459,22459,-0.2700,-0.3300,10.4800,10.4887,-0.0033,0.0065,0.0033,1.94,-1.88,272.88,-0.3072,-0.3074,9.9947,10.0041
24,8,2,5,0,22.570,22570,-0.3000,-0.3000,10.9800,10.9882,0.0055,-0.0065,0.0000,1.94,-1.88,272.88,-0.3062,-0.3064,10.1245,10.1338
24,8,2,5,0,22.674,22674,0.0000,-0.5300,10.6000,10.6132,0.0175,0.0120,0.0033,1.94,-1.88,272.94,-0.2659,-0.3359,10.1872,10.1962
24,8,2,5,0,22.785,22785,0.2500,-0.5200,9.5600,9.5774,0.0273,-0.0109,0.0098,1.94,-1.94,272.94,-0.1979,-0.3602,10.1045,10.1129
24,8,2,5,0,22.887,22887,-0.4100,0.0600,9.2900,9.2992,0.0087,-0.0033,0.0033,2.00,-2.00,272.94,-0.2259,-0.3048,9.9972,10.0044
24,8,2,5,0,22.997,22997,-0.5300,0.1000,9.3300,9.3456,0.0065,-0.0033,0.0022,2.06,-2.00,272.94,-0.2659,-0.2515,9.9093,9.9160
24,8,2,5,0,23.102,23102,-0.3000,-0.4600,9.9100,9.9252,0.0120,0.0065,-0.0022,2.06,-2.00,272.94,-0.2704,-0.2789,9.9094,9.9170
24,8,2,5,0,23.216,23216,-0.3600,-0.2000,10.0200,10.0285,-0.0011,0.0000,0.0022,1.94,-2.00,272.94,-0.2822,-0.2685,9.9240,9.9316
24,8,2,5,0,23.318,23318,-0.4500,-0.0700,9.9300,9.9404,-0.0044,0.0109,0.0000,2.00,-2.06,272.88,-0.3043,-0.2424,9.9248,9.9324
24,8,2,5,0,23.427,23427,0.0900,-0.4000,9.6600,9.6687,0.0153,-0.0011,0.0087,2.00,-2.13,272.94,-0.2524,-0.2631,9.8899,9.8966
24,8,2,5,0,23.529,23529,-0.2500,-0.1400,9.9700,9.9741,0.0044,0.0022,0.0087,2.00,-2.13,272.88,-0.2521,-0.2469,9.9004,9.9067
24,8,2,5,0,23.638,23638,-0.2300,-0.3100,9.2300,9.2381,0.0153,0.0044,0.0033,2.00,-2.13,272.88,-0.2492,-0.2552,9.8121,9.8186
24,8,2,5,0,23.740,23740,-0.2000,-0.3800,9.0900,9.1001,-0.0109,0.0120,0.0000,1.94,-2.13,272.88,-0.2427,-0.2717,9.7169,9.7238
24,8,2,5,0,23.850,23850,-0.3500,-0.1600,9.0300,9.0382,0.0033,-0.0055,0.0011,1.94,-2.13,272.88,-0.2568,-0.2570,9.6264,9.6333
24,9,2,5,0,23.957,23957,-0.3200,-0.3700,9.6800,9.6924,0.0000,0.0055,0.0011,1.94,-2.19,272.88,-0.2651,-0.2719,9.6335,9.6410
24,9,2,5,0,24.069,24069,-0.3400,-0.4900,9.8800,9.8980,0.0000,-0.0087,0.0022,1.94,-2.13,272.88,-0.2750,-0.3006,9.6660,9.6745
24,9,2,5,0,24.171,24171,-0.2800,-0.2400,10.0100,10.0168,-0.0098,0.0065,-0.0033,2.00,-2.13,272.88,-0.2757,-0.2926,9.7113,9.7196
24,9,2,5,0,24.281,24281,-0.4000,-0.4500,9.9400,9.9582,-0.0022,0.0011,0.0055,2.00,-2.13,272.88,-0.2920,-0.3134,9.7414,9.7508
24,9,2,5,0,24.383,24383,-0.3200,-0.3100,9.6800,9.6902,0.0044,-0.0044,0.0098,2.00,-2.13,272.88,-0.2957,-0.3129,9.7333,9.7429
24,9,2,5,0,24.493,24493,-0.3300,-0.3100,9.6100,9.6207,-0.0011,-0.0022,-0.0022,2.00,-2.13,272.88,-0.3002,-0.3125,9.7171,9.7267
24,9,2,5,0,24.599,24599,-0.4100,-0.3800,9.5200,9.5364,-0.0022,0.0065,-0.0022,2.00,-2.13,272.88,-0.3147,-0.3214,9.6911,9.7015
24,9,2,5,0,24.710,24710,-0.3400,-0.5000,9.7300,9.7488,0.0076,-0.0109,0.0033,2.00,-2.06,272.88,-0.3180,-0.3450,9.6962,9.7076
24,9,2,5,0,24.813,24813,-0.3900,-0.1700,9.9200,9.9291,0.0022,-0.0011,0.0044,2.00,-2.06,272.88,-0.3275,-0.3219,9.7257,9.7366
24,9,2,5,0,24.924,24924,-0.3600,-0.2000,9.7000,9.7087,-0.0022,0.0055,-0.0022,2.00,-2.06,272.88,-0.3318,-0.3058,9.7223,9.7328
24,9,2,5,0,25.026,25026,-0.4100,-0.0800,9.9900,9.9987,-0.0447,0.0011,0.0153,2.00,-2.00,272.88,-0.3421,-0.2761,9.7576,9.7675
24,9,2,5,0,25.138,25138,-0.5700,-0.3500,9.8400,9.8627,0.0011,-0.0087,-0.0087,2.06,-2.00,272.88,-0.3721,-0.2858,9.7685,9.7797
24,9,2,5,0,25.242,25242,-0.3700,-0.4200,9.5800,9.5963,0.0022,-0.0022,-0.0011,2.06,-2.00,272.88,-0.3719,-0.3035,9.7436,9.7554
24,9,2,5,0,25.352,25352,-0.3700,-0.4000,10.0000,10.0148,-0.0055,0.0076,0.0087,2.06,-2.00,272.88,-0.3716,-0.3162,9.7774,9.7896
24,9,2,5,0,25.454,25454,-0.4900,-0.1700,9.8200,9.8337,-0.0055,0.0044,0.0011,2.00,-2.00,272.88,-0.3872,-0.2969,9.7830,9.7952
24,9,2,5,0,25.564,25564,-0.2900,-0.2700,9.8800,9.8879,-0.0087,0.0033,-0.0011,2.00,-2.00,272.88,-0.3744,-0.2934,9.7958,9.8073
24,9,2,5,0,25.666,25666,-0.3300,-0.3000,9.9400,9.9500,-0.0033,-0.0033,0.0000,2.00,-2.00,272.88,-0.3686,-0.2943,9.8148,9.8261
24,9,2,5,0,25.777,25777,-0.3000,-0.2800,9.9900,9.9984,-0.0065,0.0011,-0.0022,1.94,-1.94,272.88,-0.3595,-0.2924,9.8379,9.8488
24,9,2,5,0,25.879,25879,-0.3500,-0.3000,10.2100,10.2204,-0.0044,-0.0044,-0.0011,1.94,-1.94,272.88,-0.3583,-0.2934,9.8869,9.8978
24,9,2,5,0,25.993,25993,-0.3100,-0.3100,9.9400,9.9497,-0.0022,0.0044,0.0011,1.94,-1.94,272.88,-0.3519,-0.2956,9.8939,9.9046
24,9,2,5,0,26.096,26096,-0.3600,-0.2900,9.8800,9.8908,0.0000,0.0000,0.0011,1.94,-1.94,272.88,-0.3530,-0.2948,9.8921,9.9028
24,9,2,5,0,26.206,26206,-0.3300,-0.2700,10.0500,10.0590,-0.0011,0.0044,-0.0011,1.94,-1.94,272.88,-0.3499,-0.2916,9.9129,9.9234
24,9,2,5,0,26.309,26309,-0.2900,-0.2900,10.1000,10.1083,-0.0011,0.0000,0.0011,1.94,-1.94,272.88,-0.3420,-0.2914,9.9375,9.9477
24,9,2,5,0,26.425,26425,-0.3600,-0.2900,10.8300,10.8399,-0.0076,0.0044,0.0011,1.94,-1.94,272.88,-0.3444,-0.2912,10.0552,10.0653
24,9,2,5,0,26.527,26527,-0.3700,-0.2700,10.6400,10.6499,0.0120,-0.0109,0.0022,1.94,-2.00,272.88,-0.3478,-0.2884,10.1322,10.1423
24,9,2,5,0,26.636,26636,-0.3000,0.1800,10.5300,10.5358,-0.0109,0.0098,0.0109,1.94,-2.00,272.94,-0.3415,-0.2267,10.1846,10.1929
24,9,2,5,0,26.738,26738,-0.2400,-0.2000,10.3100,10.3147,0.0240,-0.0120,0.0044,2.00,-2.00,272.94,-0.3281,-0.2232,10.2012,10.2089
24,9,2,5,0,26.847,26847,-0.7600,0.2900,9.8600,9.8935,0.0196,-0.0109,0.0022,2.00,-2.06,272.94,-0.3850,-0.1555,10.1562,10.1647
24,9,2,5,0,26.949,26949,0.0300,-0.5800,9.4500,9.4678,0.0109,-0.0076,-0.0044,2.06,-2.06,272.94,-0.3303,-0.2115,10.0631,10.0708
24,9,2,5,0,27.059,27059,-0.6700,-0.1800,9.9200,9.9442,-0.0011,0.0000,-0.0120,2.00,-2.06,272.94,-0.3751,-0.2073,10.0443,10.0534
24,9,2,5,0,27.166,27166,0.0300,-0.5200,9.5500,9.5642,0.0164,-0.0131,-0.0120,2.06,-2.19,272.94,-0.3217,-0.2485,9.9791,9.9874
24,9,2,5,0,27.278,27278,-0.1800,-0.7300,9.8200,9.8487,0.0065,-0.0098,-0.0087,2.00,-2.19,272.88,-0.3030,-0.3120,9.9582,9.9677
24,9,2,5,0,27.380,27380,-0.3700,-0.1700,9.5200,9.5287,0.0076,-0.0011,-0.0087,2.06,-2.19,272.88,-0.3119,-0.2933,9.9004,9.9097
24,9,2,5,0,27.489,27489,-0.5900,0.5200,8.8300,8.8650,-0.0131,0.0033,0.0011,1.94,-2.25,272.88,-0.3485,-0.1861,9.7594,9.7674
24,9,2,5,0,27.591,27591,-0.3300,-0.3600,8.5900,8.6039,0.0055,-0.0087,0.0098,2.00,-2.25,272.88,-0.3461,-0.2090,9.6053,9.6138
24,9,2,5,0,27.700,27700,-0.1200,-0.3200,9.1600,9.1664,0.0011,0.0055,0.0087,2.00,-2.25,272.88,-0.3163,-0.2236,9.5466,9.5545
24,10,2,5,0,27.805,27805,-0.6500,-0.2900,9.5900,9.6164,0.0022,-0.0087,-0.0055,2.00,-2.19,272.88,-0.3603,-0.2324,9.5523,9.5619
24,10,2,5,0,27.919,27919,-0.5300,-0.2800,9.9800,9.9980,-0.0098,0.0098,-0.0022,2.06,-2.19,272.94,-0.3826,-0.2387,9.6087,9.6193
24,10,2,5,0,28.021,28021,-0.7100,-0.1200,10.1600,10.1855,-0.0098,-0.0142,0.0076,2.00,-2.13,272.94,-0.4258,-0.2230,9.6813,9.6933
24,10,2,5,0,28.131,28131,-0.7900,0.0200,10.2300,10.2605,-0.0284,0.0033,0.0033,2.06,-2.13,272.94,-0.4738,-0.1910,9.7536,9.7670
24,10,2,5,0,28.233,28233,-0.3600,-0.3100,9.7900,9.8015,-0.0033,0.0098,-0.0055,2.06,-2.13,272.94,-0.4588,-0.2067,9.7584,9.7714
24,10,2,5,0,28.342,28342,-0.0200,-0.6100,9.4000,9.4198,0.0065,-0.0120,-0.0109,2.06,-2.00,273.00,-0.4010,-0.2598,9.7112,9.7229
24,10,2,5,0,28.449,28449,-0.5800,-0.2300,9.8200,9.8398,0.0033,0.0000,-0.0098,2.13,-2.06,273.00,-0.4245,-0.2559,9.7255,9.7382
24,10,2,5,0,28.561,28561,-0.7900,-0.0900,10.2500,10.2808,-0.0131,0.0087,-0.0033,2.06,-2.00,273.00,-0.4727,-0.2340,9.7946,9.8088
24,10,2,5,0,28.663,28663,-0.5300,-0.4100,10.4800,10.5014,-0.0022,0.0011,0.0022,2.06,-2.00,273.00,-0.4803,-0.2572,9.8850,9.9000
24,10,2,5,0,28.774,28774,-0.4000,-0.2600,9.7700,9.7816,-0.0076,0.0011,-0.0044,2.00,-2.00,273.00,-0.4697,-0.2576,9.8698,9.8843
24,10,2,5,0,28.881,28881,-0.3700,-0.2900,9.7700,9.7813,-0.0076,-0.0087,-0.0022,2.00,-2.00,273.00,-0.4565,-0.2619,9.8567,9.8707
24,10,2,5,0,28.992,28992,-0.3600,-0.3500,9.9100,9.9227,0.0000,0.0153,-0.0022,2.00,-2.00,273.00,-0.4438,-0.2735,9.8637,9.8775
24,10,2,5,0,29.094,29094,-0.0800,-0.3700,10.0600,10.0671,0.0055,-0.0011,-0.0022,2.00,-2.00,273.00,-0.3959,-0.2862,9.8896,9.9016
24,10,2,5,0,29.205,29205,-0.3100,-0.2300,10.0000,10.0074,0.0000,-0.0044,-0.0022,2.00,-2.00,273.00,-0.3846,-0.2788,9.9041,9.9155
24,10,2,5,0,29.309,29309,-0.1800,-0.4200,10.0900,10.1003,0.0000,0.0109,-0.0022,2.00,-2.00,273.00,-0.3576,-0.2974,9.9286,9.9395
24,10,2,5,0,29.423,29423,-0.2900,-0.3200,9.8300,9.8395,0.0033,-0.0044,0.0022,2.00,-1.94,273.00,-0.3487,-0.3004,9.9156,9.9263
24,10,2,5,0,29.525,29525,-0.3200,-0.2700,9.7600,9.7690,0.0000,0.0033,0.0011,2.00,-1.94,273.00,-0.3449,-0.2964,9.8951,9.9055
24,10,2,5,0,29.635,29635,-0.4700,-0.1600,9.8700,9.8825,-0.0055,0.0033,0.0011,1.94,-1.94,273.00,-0.3614,-0.2784,9.8918,9.9023
24,10,2,5,0,29.737,29737,-0.3100,-0.3000,10.3400,10.3490,0.0044,-0.0065,0.0000,1.94,-1.94,273.00,-0.3546,-0.2812,9.9509,9.9611
24,10,2,5,0,29.847,29847,-0.3700,-0.4100,10.9000,10.9140,0.0000,-0.0033,0.0065,1.94,-1.94,273.00,-0.3567,-0.2982,10.0759,10.0867
24,10,2,5,0,29.954,29954,0.0000,-0.5600,10.5700,10.5848,0.0196,0.0065,0.0044,1.94,-2.00,273.00,-0.3097,-0.3327,10.1410,10.1512
24,10,2,5,0,30.065,30065,-0.2400,-0.4800,10.1100,10.1242,0.0229,-0.0033,0.0044,1.94,-2.00,273.00,-0.3005,-0.3521,10.1369,10.1475
24,10,2,5,0,30.167,30167,-0.6500,0.2600,9.9300,9.9546,0.0055,0.0011,0.0065,2.00,-2.06,273.00,-0.3465,-0.2715,10.1097,10.1193
24,10,2,5,0,30.278,30278,-0.4100,0.2000,9.7300,9.7407,0.0055,0.0000,0.0044,2.06,-2.13,273.00,-0.3549,-0.2093,10.0596,10.0681
24,10,2,5,0,30.385,30385,-0.1100,-0.7300,9.5400,9.5685,-0.0393,0.0175,0.0055,2.00,-2.13,273.00,-0.3226,-0.2779,9.9912,10.0002
24,10,2,5,0,30.496,30496,-0.6200,0.1100,9.8600,9.8801,0.0055,-0.0120,-0.0076,2.06,-2.19,273.00,-0.3618,-0.2268,9.9739,9.9830
24,10,2,5,0,30.599,30599,-0.5500,0.1900,9.6300,9.6476,0.0000,0.0044,-0.0098,1.94,-2.19,273.00,-0.3866,-0.1719,9.9286,9.9376
24,10,2,5,0,30.709,30709,-0.2500,-0.3100,8.8700,8.8789,0.0087,-0.0065,-0.0076,1.94,-2.25,272.94,-0.3686,-0.1901,9.7891,9.7979
24,10,2,5,0,30.817,30817,-0.2600,-0.3300,9.0000,9.0098,0.0087,0.0142,-0.0076,1.94,-2.25,272.94,-0.3543,-0.2085,9.6851,9.6938
24,10,2,5,0,30.928,30928,-0.3900,-0.3300,8.8900,8.9047,-0.0044,-0.0153,0.0087,1.88,-2.25,272.94,-0.3590,-0.2245,9.5803,9.5897
24,10,2,5,0,31.030,31030,-0.3000,-0.3000,9.5200,9.5294,0.0033,-0.0109,0.0120,2.00,-2.25,273.00,-0.3512,-0.2345,9.5724,9.5817
24,10,2,5,0,31.140,31140,-0.2500,-0.3700,9.7600,9.7702,-0.0065,0.0044,0.0065,1.94,-2.25,273.00,-0.3379,-0.2523,9.5971,9.6064
24,10,2,5,0,31.242,31242,-0.3200,-0.3800,9.5000,9.5130,0.0033,-0.0109,0.0065,2.00,-2.25,273.00,-0.3355,-0.2692,9.5843,9.5940
24,10,2,5,0,31.355,31355,-0.6200,-0.3600,9.4400,9.4672,-0.0065,-0.0055,0.0022,2.00,-2.19,273.00,-0.3730,-0.2811,9.5653,9.5767
24,10,2,5,0,31.459,31459,-0.4300,-0.1300,9.4300,9.4407,-0.0076,0.0011,0.0033,2.00,-2.19,273.00,-0.3805,-0.2612,9.5475,9.5586
24,11,2,5,0,31.569,31569,-0.4300,-0.3300,9.6200,9.6353,-0.0044,0.0000,0.0087,2.00,-2.19,273.00,-0.3870,-0.2703,9.5570,9.5687
24,11,2,5,0,31.672,31672,-0.3600,0.1700,10.5200,10.5275,-0.0535,-0.0044,0.0262,1.94,-2.13,273.00,-0.3835,-0.2123,9.6839,9.6938
24,11,2,5,0,31.782,31782,-0.3900,-0.1900,10.3100,10.3191,-0.0098,-0.0022,-0.0131,2.00,-2.13,273.00,-0.3843,-0.2093,9.7664,9.7762
24,11,2,5,0,31.890,31890,-0.1600,-0.0700,9.9700,9.9715,-0.0120,0.0153,-0.0076,2.00,-2.13,273.00,-0.3548,-0.1910,9.7932,9.8015
24,11,2,5,0,32.001,32001,-0.4400,-0.3300,10.1500,10.1649,-0.0109,-0.0011,0.0044,2.00,-2.13,273.00,-0.3660,-0.2093,9.8403,9.8493
24,11,2,5,0,32.103,32103,-0.0200,-0.1500,9.6400,9.6412,-0.0142,0.0175,-0.0044,1.94,-2.06,273.00,-0.3204,-0.2015,9.8139,9.8212
24,11,2,5,0,32.213,32213,-0.3200,-0.3200,9.7800,9.7905,0.0000,-0.0087,-0.0011,1.94,-2.06,273.00,-0.3204,-0.2171,9.8094,9.8170
24,11,2,5,0,32.315,32315,-0.3200,-0.3900,9.9100,9.9228,0.0000,0.0076,0.0033,1.94,-2.06,273.00,-0.3203,-0.2399,9.8227,9.8308
24,11,2,5,0,32.428,32428,-0.4100,-0.2000,10.1500,10.1602,-0.0011,0.0022,-0.0022,1.88,-2.06,273.00,-0.3321,-0.2346,9.8658,9.8742
24,11,2,5,0,32.532,32532,-0.3600,-0.2400,9.8700,9.8795,0.0022,-0.0044,0.0011,1.88,-2.06,273.00,-0.3358,-0.2353,9.8663,9.8749
24,11,2,5,0,32.642,32642,-0.2200,-0.4300,10.0500,10.0616,-0.0076,0.0055,-0.0033,1.88,-2.00,273.00,-0.3205,-0.2610,9.8905,9.8992
24,11,2,5,0,32.745,32745,-0.2900,-0.3500,9.8700,9.8805,0.0065,-0.0022,0.0022,1.88,-2.00,273.00,-0.3165,-0.2727,9.8878,9.8967
24,11,2,5,0,32.855,32855,-0.3000,-0.2900,9.8700,9.8788,-0.0022,0.0033,0.0000,1.88,-2.00,273.00,-0.3143,-0.2750,9.8855,9.8943
24,11,2,5,0,32.961,32961,-0.3100,-0.2800,10.0000,10.0087,0.0011,0.0000,-0.0011,1.88,-2.00,273.00,-0.3138,-0.2757,9.9006,9.9094
24,11,2,5,0,33.073,33073,-0.3300,-0.3200,9.9100,9.9207,-0.0044,0.0033,0.0011,1.88,-2.00,273.00,-0.3159,-0.2815,9.9018,9.9109
24,11,2,5,0,33.176,33176,-0.3600,-0.3000,10.3400,10.3506,-0.0011,0.0044,0.0011,1.88,-2.00,273.00,-0.3217,-0.2839,9.9596,9.9688
24,11,2,5,0,33.287,33287,-0.3600,-0.3200,10.9700,10.9806,0.0076,-0.0076,0.0022,1.88,-2.00,273.00,-0.3268,-0.2887,10.0927,10.1021
24,11,2,5,0,33.394,33394,-0.5500,-0.2400,11.0600,11.0763,0.0065,0.0000,0.0022,1.88,-2.06,273.00,-0.3562,-0.2823,10.2202,10.2303
24,11,2,5,0,33.505,33505,-0.9300,-0.5200,10.2300,10.2853,-0.0087,-0.0196,0.0022,1.94,-2.13,273.00,-0.4318,-0.3136,10.2215,10.2354
24,11,2,5,0,33.607,33607,-0.2400,-0.8300,9.6900,9.7284,0.0153,-0.0109,0.0000,2.00,-2.19,273.00,-0.4065,-0.3816,10.1514,10.1667
24,11,2,5,0,33.717,33717,-0.5600,0.5000,9.4600,9.4897,-0.0229,0.0076,0.0142,1.94,-2.19,273.06,-0.4267,-0.2655,10.0603,10.0729
24,11,2,5,0,33.825,33825,0.0000,-0.7400,9.1500,9.1799,-0.0087,-0.0098,0.0033,2.00,-2.25,273.06,-0.3705,-0.3280,9.9404,9.9527
24,11,2,5,0,33.936,33936,0.0300,-0.4700,9.0800,9.0922,0.0185,-0.0044,-0.0044,1.94,-2.31,273.00,-0.3177,-0.3467,9.8270,9.8382
24,11,2,5,0,34.038,34038,-0.2400,-0.1100,9.1200,9.1238,0.0065,-0.0011,-0.0022,1.94,-2.31,273.00,-0.3075,-0.3155,9.7338,9.7438
24,11,2,5,0,34.147,34147,-0.2700,-0.3500,9.2700,9.2805,-0.0284,0.0120,-0.0011,1.88,-2.31,273.00,-0.3026,-0.3201,9.6727,9.6827
24,11,2,5,0,34.249,34249,-0.2900,-0.4000,9.2900,9.3031,0.0033,-0.0065,0.0087,1.88,-2.25,273.00,-0.3009,-0.3306,9.6223,9.6327
24,12,2,5,0,34.358,34358,-0.3100,-0.1100,9.7700,9.7755,-0.0098,-0.0055,0.0033,1.88,-2.25,273.00,-0.3021,-0.3015,9.6417,9.6512
24,12,2,5,0,34.460,34460,-0.2400,-0.3700,9.8100,9.8199,0.0011,0.0011,0.0011,1.94,-2.25,273.06,-0.2939,-0.3106,9.6639,9.6734
24,12,2,5,0,34.571,34571,-0.3400,-0.4000,9.6600,9.6743,0.0011,-0.0011,0.0011,1.94,-2.19,273.06,-0.3000,-0.3223,9.6634,9.6734
24,12,2,5,0,34.677,34677,-0.3900,-0.3100,9.6900,9.7028,-0.0022,0.0011,0.0011,1.94,-2.19,273.06,-0.3118,-0.3207,9.6669,9.6772
24,12,2,5,0,34.788,34788,-0.3200,-0.2800,9.7500,9.7593,-0.0033,0.0033,0.0033,1.94,-2.19,273.06,-0.3129,-0.3153,9.6779,9.6880
24,12,2,5,0,34.890,34890,-0.3300,-0.1500,9.8100,9.8167,0.0011,-0.0087,0.0022,1.94,-2.13,273.06,-0.3152,-0.2936,9.6953,9.7048
24,12,2,5,0,34.999,34999,-0.3700,-0.2600,9.7400,9.7505,-0.0065,0.0044,0.0022,1.94,-2.13,273.06,-0.3224,-0.2891,9.7012,9.7108
24,12,2,5,0,35.101,35101,-0.4100,-0.2700,9.8500,9.8622,-0.0065,0.0120,0.0033,1.94,-2.13,273.06,-0.3339,-0.2866,9.7208,9.7307
24,12,2,5,0,35.210,35210,-0.1700,-0.2400,9.7800,9.7844,-0.0535,0.0000,0.0207,1.94,-2.06,273.06,-0.3123,-0.2805,9.7286,9.7376
24,12,2,5,0,35.312,35312,-0.6500,-0.2700,10.0300,10.0547,-0.0044,-0.0044,-0.0109,2.00,-2.06,273.06,-0.3568,-0.2791,9.7683,9.7788
24,12,2,5,0,35.421,35421,-0.2900,-0.4700,9.7200,9.7357,-0.0022,0.0011,0.0044,2.00,-2.06,273.06,-0.3480,-0.3042,9.7619,9.7729
24,12,2,5,0,35.523,35523,-0.4200,-0.2100,9.9900,10.0010,0.0033,-0.0033,0.0011,1.94,-2.06,273.06,-0.3575,-0.2918,9.7920,9.8029
24,12,2,5,0,35.634,35634,-0.5500,-0.2100,10.1300,10.1471,-0.0218,0.0022,-0.0022,1.88,-2.00,273.06,-0.3829,-0.2810,9.8365,9.8480
24,12,2,5,0,35.740,35740,-0.3200,-0.4200,9.9100,9.9241,0.0033,-0.0098,-0.0011,1.94,-2.00,273.06,-0.3746,-0.2994,9.8462,9.8579
24,12,2,5,0,35.851,35851,-0.3200,-0.3100,9.9300,9.9400,-0.0033,0.0131,0.0022,1.94,-2.00,273.06,-0.3674,-0.3008,9.8573,9.8687
24,12,2,5,0,35.954,35954,-0.4400,0.0400,10.2000,10.2096,-0.0044,-0.0065,0.0000,1.88,-1.94,273.06,-0.3770,-0.2559,9.9024,9.9129
24,12,2,5,0,36.064,36064,-0.4400,-0.2000,10.3500,10.3613,-0.0011,-0.0120,-0.0022,1.94,-1.94,273.06,-0.3853,-0.2485,9.9614,9.9719
24,12,2,5,0,36.168,36168,-0.3600,-0.3300,10.0700,10.0818,0.0000,0.0131,0.0000,1.94,-1.94,273.06,-0.3819,-0.2592,9.9757,9.9864
24,12,2,5,0,36.282,36282,-0.3100,-0.3300,9.7100,9.7206,0.0022,-0.0055,0.0022,1.88,-1.94,273.06,-0.3725,-0.2686,9.9407,9.9513
24,12,2,5,0,36.384,36384,-0.3100,-0.2400,9.6800,9.6879,-0.0011,0.0076,-0.0011,1.88,-1.94,273.06,-0.3642,-0.2648,9.9063,9.9166
24,12,2,5,0,36.493,36493,-0.3500,-0.2600,9.8600,9.8696,-0.0033,0.0033,0.0000,1.88,-1.94,273.06,-0.3624,-0.2642,9.9002,9.9104
24,12,2,5,0,36.595,36595,-0.3100,-0.3100,10.0800,10.0895,0.0000,-0.0076,-0.0011,1.88,-1.88,273.06,-0.3555,-0.2702,9.9239,9.9340
24,12,2,5,0,36.706,36706,-0.3400,-0.3200,10.3200,10.3306,0.0011,-0.0022,0.0022,1.88,-1.88,273.06,-0.3534,-0.2768,9.9761,9.9862
24,12,2,5,0,36.808,36808,-0.4000,-0.2900,11.3400,11.3508,-0.0076,0.0022,0.0033,1.88,-1.88,273.06,-0.3596,-0.2785,10.1558,10.1660
24,12,2,5,0,36.920,36920,-0.4200,-0.2600,11.5800,11.5905,0.0153,-0.0022,0.0044,1.88,-1.94,273.06,-0.3675,-0.2761,10.3435,10.3537
24,12,2,5,0,37.024,37024,-0.5300,-0.1800,10.7800,10.7945,0.0273,-0.0011,0.0011,1.88,-1.94,273.06,-0.3889,-0.2634,10.4010,10.4116
24,12,2,5,0,37.135,37135,0.2300,-0.3900,9.2700,9.2811,0.0218,-0.0218,0.0000,2.00,-2.06,273.13,-0.3074,-0.2801,10.2520,10.2604
24,12,2,5,0,37.237,37237,-0.5000,0.3400,8.6100,8.6312,-0.0491,0.0229,-0.0011,2.00,-2.06,273.13,-0.3328,-0.1984,10.0356,10.0431
24,12,2,5,0,37.347,37347,-0.6800,-0.7200,9.4800,9.5316,-0.0022,-0.0142,0.0022,2.00,-2.19,273.06,-0.3785,-0.2671,9.9624,9.9732
24,12,2,5,0,37.455,37455,-0.4100,-0.0300,9.7500,9.7587,-0.0011,0.0065,-0.0087,1.94,-2.13,273.06,-0.3827,-0.2359,9.9344,9.9446
24,12,2,5,0,37.566,37566,-0.3300,-0.3600,9.4100,9.4227,0.0022,0.0033,-0.0131,2.00,-2.13,273.06,-0.3757,-0.2522,9.8653,9.8757
24,12,2,5,0,37.668,37668,-0.4100,-0.4500,9.3000,9.3199,0.0251,0.0240,-0.0109,1.94,-2.19,273.00,-0.3802,-0.2783,9.7908,9.8021
24,12,2,5,0,37.778,37778,-0.4300,-0.3800,8.7800,8.7987,0.0120,-0.0087,0.0098,1.94,-2.19,273.00,-0.3868,-0.2917,9.6576,9.6698
24,12,2,5,0,37.885,37885,-0.4100,-0.2100,8.9500,8.9618,-0.0022,-0.0011,0.0033,1.94,-2.19,273.00,-0.3899,-0.2809,9.5644,9.5764
24,12,2,5,0,37.997,37997,-0.9700,-0.2800,9.6500,9.7027,-0.0393,-0.0065,0.0164,1.94,-2.13,273.06,-0.4663,-0.2808,9.5757,9.5911
24,12,2,5,0,38.099,38099,-0.2900,-0.3500,9.9100,9.9204,0.0087,-0.0196,0.0196,2.00,-2.13,273.06,-0.4431,-0.2899,9.6197,9.6343
24,12,2,5,0,38.208,38208,-0.1900,-0.2600,9.8700,9.8753,-0.0055,0.0044,0.0076,1.94,-2.06,273.06,-0.4097,-0.2860,9.6527,9.6656
24,12,2,5,0,38.310,38310,-0.3300,-0.2600,9.6600,9.6691,0.0011,-0.0044,-0.0033,2.00,-2.06,273.06,-0.3992,-0.2826,9.6537,9.6660
24,12,2,5,0,38.420,38420,-0.7300,-0.2400,9.7400,9.7703,-0.0120,-0.0022,-0.0022,2.00,-2.06,273.06,-0.4428,-0.2769,9.6650,9.6791
24,12,2,5,0,38.528,38528,-0.4000,-0.3500,9.2600,9.2752,0.0033,-0.0109,0.0011,2.00,-2.06,273.06,-0.4372,-0.2866,9.6117,9.6259
24,12,2,5,0,38.639,38639,-0.4400,-0.3800,9.8000,9.8172,-0.0022,0.0033,0.0000,2.00,-2.06,273.06,-0.4375,-0.2989,9.6365,9.6510
24,12,2,5,0,38.741,38741,-0.4000,-0.2100,9.9400,9.9503,-0.0011,0.0098,-0.0033,2.00,-2.06,273.06,-0.4326,-0.2872,9.6765,9.6904
