participant,rep,equipment_code,exercise_code,quality_code,timestamp,timestamp_ms,accelX,accelY,accelZ,accelMag,gyroX,gyroY,gyroZ,roll,pitch,yaw,filteredX,filteredY,filteredZ,filteredMag
3,1,2,4,1,00.000,0,-0.3300,0.0700,9.7600,9.7658,0.0022,-0.0022,0.0044,2.06,0.38,345.88,-0.3299,0.0563,9.7605,9.7662
3,1,2,4,1,00.130,130,-0.3300,0.0500,9.6500,9.6558,0.0000,-0.0033,0.0000,2.06,0.38,345.88,-0.3299,0.0554,9.7459,9.7516
3,1,2,4,1,00.261,261,-0.3400,0.0700,9.7700,9.7762,-0.0011,0.0000,0.0011,2.06,0.38,345.88,-0.3312,0.0574,9.7491,9.7549
3,1,2,4,1,00.434,434,-0.3100,0.0800,9.0000,9.0057,0.0033,0.0022,-0.0011,2.06,0.31,345.88,-0.3284,0.0603,9.6504,9.6561
3,1,2,4,1,00.564,564,-0.2700,0.0800,11.2000,11.2035,-0.0087,-0.0131,-0.0055,2.06,0.38,345.88,-0.3207,0.0629,9.8546,9.8600
3,1,2,4,1,00.700,700,-0.4300,-0.1100,12.0500,12.0582,0.0065,0.0033,0.0098,2.06,0.31,345.88,-0.3351,0.0401,10.1439,10.1495
3,1,2,4,1,00.832,832,-0.3600,0.1200,11.5300,11.5362,0.0120,0.0087,0.0022,2.13,0.31,345.88,-0.3384,0.0507,10.3265,10.3322
3,1,2,4,1,00.962,962,-0.2500,0.1800,12.5400,12.5438,-0.0022,-0.0098,-0.0131,2.13,0.44,345.81,-0.3268,0.0677,10.6182,10.6234
3,1,2,4,1,01.093,1093,-0.1300,0.3100,10.4700,10.4754,0.0687,0.0251,-0.0098,2.06,0.19,345.63,-0.3008,0.0996,10.5987,10.6034
3,1,2,4,1,01.223,1223,-0.4600,-0.3100,8.4100,8.4283,-0.0076,-0.0033,-0.0065,2.13,0.06,345.69,-0.3218,0.0457,10.3103,10.3154
3,1,2,4,1,01.354,1354,-0.8200,0.1500,6.0300,6.0873,-0.0196,0.0196,-0.0142,2.50,0.00,345.38,-0.3875,0.0594,9.7462,9.7541
3,1,2,4,1,01.526,1526,-0.4700,0.5100,7.2000,7.2333,-0.0218,0.0513,0.0305,2.31,0.06,345.63,-0.3983,0.1188,9.4107,9.4199
3,1,2,4,1,01.657,1657,0.2000,0.0900,8.5500,8.5528,0.0513,0.0338,-0.0120,2.25,0.06,345.56,-0.3195,0.1150,9.2973,9.3035
3,1,2,4,1,01.788,1788,-0.1500,0.0800,8.0300,8.0318,-0.0207,0.0142,0.0207,2.31,0.13,345.56,-0.2972,0.1104,9.1303,9.1358
3,1,2,4,1,01.918,1918,-0.2600,0.1300,8.6800,8.6849,0.0044,0.0709,0.0120,2.25,0.19,345.63,-0.2923,0.1130,9.0710,9.0764
3,1,2,4,1,02.049,2049,-0.3000,-0.2400,10.1700,10.1773,-0.0404,0.0458,0.0000,2.13,0.13,345.63,-0.2933,0.0665,9.2158,9.2207
3,1,2,4,1,02.181,2181,-0.5900,0.5200,10.0500,10.0807,-0.0164,-0.0175,-0.0185,2.06,0.06,345.63,-0.3324,0.1262,9.3257,9.3325
3,1,2,4,1,02.316,2316,-0.3900,-0.0200,10.0500,10.0576,-0.0098,0.0218,0.0218,2.13,0.13,345.63,-0.3400,0.1070,9.4212,9.4279
3,1,2,4,1,02.446,2446,-0.5500,0.0000,10.3500,10.3646,0.0142,0.0098,0.0033,2.06,0.19,345.75,-0.3676,0.0929,9.5436,9.5511
3,1,2,4,1,02.619,2619,-0.5000,0.0700,10.8200,10.8318,-0.0065,-0.0262,0.0022,2.00,0.13,345.75,-0.3851,0.0898,9.7118,9.7198
3,1,2,4,1,02.749,2749,-0.3400,0.0800,10.2900,10.2959,-0.0065,-0.0011,0.0044,2.00,0.13,345.75,-0.3791,0.0885,9.7880,9.7957
3,1,2,4,1,02.879,2879,-0.2200,0.0600,10.1500,10.1526,0.0033,0.0196,0.0000,2.00,0.13,345.75,-0.3582,0.0848,9.8357,9.8425
3,1,2,4,1,03.009,3009,-0.2300,0.0900,10.2000,10.2030,0.0120,0.0055,-0.0153,1.94,0.06,345.75,-0.3413,0.0855,9.8837,9.8899
3,1,2,4,1,03.139,3139,-0.4300,0.0200,11.7100,11.7179,-0.0065,-0.0065,0.0175,1.94,0.06,345.75,-0.3530,0.0768,10.1243,10.1308
3,1,2,4,1,03.269,3269,-0.3000,0.0100,13.3300,13.3334,0.0098,0.0000,-0.0120,1.94,0.13,345.75,-0.3460,0.0680,10.5468,10.5527
3,1,2,4,1,03.400,3400,-0.4600,-0.1000,13.8200,13.8280,0.0033,-0.0076,0.0120,2.00,0.06,345.75,-0.3610,0.0459,10.9781,10.9841
3,2,2,4,1,03.530,3530,-1.4700,-0.0400,9.7600,9.8702,0.0240,-0.0633,-0.0513,2.00,-0.06,345.56,-0.5072,0.0346,10.8176,10.8295
3,2,2,4,1,03.703,3703,-0.3000,-0.1100,6.2100,6.2182,-0.0131,0.0055,-0.0305,2.13,0.00,345.56,-0.4799,0.0155,10.2104,10.2217
3,2,2,4,1,03.833,3833,-0.9000,0.9200,7.7500,7.8561,-0.0327,-0.0229,-0.0055,2.31,-0.13,345.31,-0.5352,0.1347,9.8862,9.9016
3,2,2,4,1,03.964,3964,-0.4700,-0.4600,7.6000,7.6284,0.0927,-0.0131,-0.0055,2.25,-0.31,345.44,-0.5266,0.0563,9.5849,9.5996
3,2,2,4,1,04.095,4095,-0.4000,0.0000,8.0800,8.0899,0.0185,-0.0524,-0.0022,2.19,-0.06,345.38,-0.5099,0.0489,9.3866,9.4006
3,2,2,4,1,04.226,4226,-0.2000,0.1600,8.0400,8.0441,0.0458,0.0491,-0.0131,2.13,-0.13,345.44,-0.4691,0.0636,9.2092,9.2213
3,2,2,4,1,04.357,4357,-0.4300,-0.2700,8.7400,8.7547,-0.0131,-0.0458,0.0207,1.94,-0.13,345.50,-0.4639,0.0196,9.1473,9.1591
3,2,2,4,1,04.492,4492,-0.1900,0.1200,8.7600,8.7629,0.0055,0.0251,0.0044,1.94,-0.06,345.50,-0.4278,0.0328,9.0963,9.1064
3,2,2,4,1,04.623,4623,0.0000,-0.0100,9.8200,9.8200,0.0153,-0.0218,0.0120,1.94,0.00,345.56,-0.3715,0.0272,9.1917,9.1992
3,2,2,4,1,04.796,4796,-0.3900,0.2700,10.3400,10.3509,0.0044,0.0164,0.0000,1.94,0.00,345.56,-0.3739,0.0592,9.3430,9.3507
3,2,2,4,1,04.926,4926,-0.1800,0.1700,10.7200,10.7229,-0.0589,0.0164,-0.0022,1.88,0.00,345.63,-0.3484,0.0738,9.5244,9.5311
3,2,2,4,1,05.057,5057,-0.3300,0.0700,9.9500,9.9557,0.0142,-0.0098,0.0098,1.88,0.00,345.69,-0.3459,0.0733,9.5805,9.5870
3,2,2,4,1,05.189,5189,-0.2900,0.0400,9.9900,9.9943,0.0120,0.0000,0.0044,1.81,-0.06,345.63,-0.3386,0.0689,9.6345,9.6407
3,2,2,4,1,05.325,5325,-0.3900,0.1400,10.3700,10.3783,-0.0065,-0.0218,0.0011,1.88,0.00,345.69,-0.3453,0.0783,9.7314,9.7378
3,2,2,4,1,05.456,5456,-0.3800,0.0300,11.0900,11.0965,0.0098,0.0098,-0.0044,1.81,0.00,345.69,-0.3499,0.0719,9.9104,9.9169
3,2,2,4,1,05.586,5586,-0.3100,0.1100,10.0600,10.0654,-0.0044,-0.0109,0.0044,1.81,-0.06,345.69,-0.3447,0.0769,9.9301,9.9364
3,2,2,4,1,05.717,5717,-0.4000,0.0100,10.9100,10.9173,-0.0065,-0.0076,-0.0120,1.81,-0.06,345.69,-0.3519,0.0681,10.0593,10.0656
3,2,2,4,1,05.889,5889,-0.4600,-0.0700,14.3300,14.3376,0.0229,-0.0120,0.0087,1.88,-0.06,345.69,-0.3662,0.0499,10.6220,10.6285
3,2,2,4,1,06.020,6020,-0.5100,0.6700,12.1800,12.2091,0.0044,0.0044,-0.0327,1.81,-0.06,345.63,-0.3851,0.1316,10.8273,10.8350
3,3,2,4,1,06.151,6151,-0.1400,-0.2500,8.4300,8.4349,0.0284,-0.0120,-0.0044,1.88,-0.25,345.44,-0.3528,0.0813,10.5114,10.5177
3,3,2,4,1,06.282,6282,-0.2100,0.5100,6.0000,6.0253,-0.0284,-0.0164,0.0033,1.94,-0.19,345.44,-0.3340,0.1378,9.9169,9.9235
3,3,2,4,1,06.418,6418,-0.2700,-0.1200,6.0000,6.0073,0.0087,-0.0055,-0.0185,2.06,-0.38,345.25,-0.3256,0.1038,9.4008,9.4070
3,3,2,4,1,06.549,6549,-0.3100,-0.2900,7.7400,7.7516,-0.0044,-0.0044,0.0164,2.06,-0.31,345.38,-0.3235,0.0519,9.1819,9.1878
3,3,2,4,1,06.679,6679,-0.2700,0.2100,8.5200,8.5269,-0.0153,0.0316,0.0120,1.88,-0.31,345.44,-0.3165,0.0728,9.0947,9.1005
3,3,2,4,1,06.809,6809,-0.9600,0.0400,8.2400,8.2958,-0.0164,-0.0556,0.0098,1.88,-0.38,345.31,-0.4013,0.0685,8.9821,8.9913
3,3,2,4,1,06.982,6982,-0.3400,0.3300,9.2700,9.2821,-0.0589,-0.0087,-0.0131,1.88,-0.19,345.50,-0.3932,0.1029,9.0200,9.0292
3,3,2,4,1,07.113,7113,-0.1200,0.0200,9.4500,9.4508,0.0415,0.0196,0.0011,1.81,-0.19,345.44,-0.3572,0.0920,9.0767,9.0842
3,3,2,4,1,07.243,7243,-0.4000,-0.0200,9.9300,9.9381,0.0033,-0.0109,-0.0011,1.75,-0.25,345.50,-0.3628,0.0772,9.1891,9.1966
3,3,2,4,1,07.374,7374,-0.3300,-0.2400,10.2500,10.2581,0.0196,-0.0011,0.0087,1.81,-0.31,345.50,-0.3585,0.0354,9.3289,9.3359
3,3,2,4,1,07.505,7505,-0.4200,0.0300,10.2900,10.2986,-0.0153,-0.0142,0.0218,1.81,-0.13,345.63,-0.3666,0.0347,9.4556,9.4627
3,3,2,4,1,07.635,7635,-0.2300,0.0200,10.2700,10.2726,0.0349,0.0164,-0.0131,1.75,-0.25,345.63,-0.3486,0.0328,9.5629,9.5693
3,3,2,4,1,07.766,7766,-0.3300,-0.0200,10.5600,10.5652,-0.0033,-0.0076,0.0164,1.75,-0.25,345.69,-0.3462,0.0258,9.6943,9.7005
3,3,2,4,1,07.902,7902,-0.3100,0.1000,10.7400,10.7449,-0.0076,0.0076,-0.0098,1.75,-0.19,345.69,-0.3414,0.0356,9.8321,9.8381
3,3,2,4,1,08.075,8075,-0.2500,0.0000,10.4200,10.4230,-0.0164,-0.0076,-0.0011,1.69,-0.25,345.69,-0.3294,0.0309,9.9096,9.9151
3,3,2,4,1,08.205,8205,-0.2500,-0.0400,10.0000,10.0032,0.0000,0.0011,-0.0044,1.69,-0.25,345.69,-0.3189,0.0216,9.9215,9.9266
3,3,2,4,1,08.335,8335,-0.3100,0.0300,10.3200,10.3247,0.0185,0.0044,0.0033,1.69,-0.19,345.69,-0.3177,0.0227,9.9740,9.9791
3,3,2,4,1,08.465,8465,-0.3700,0.0000,11.5200,11.5259,0.0142,0.0044,-0.0022,1.75,-0.19,345.69,-0.3246,0.0197,10.1777,10.1829
3,3,2,4,1,08.595,8595,-0.3700,0.2100,13.7100,13.7166,-0.0044,-0.0153,0.0065,1.75,-0.19,345.69,-0.3306,0.0448,10.6432,10.6484
3,3,2,4,1,08.725,8725,-0.1100,-0.0200,13.1700,13.1705,-0.0076,-0.0022,-0.0273,1.69,-0.19,345.63,-0.3015,0.0362,10.9761,10.9803
3,4,2,4,1,08.856,8856,-0.0500,0.1300,8.9800,8.9811,0.0273,-0.0087,-0.0098,1.69,-0.50,345.38,-0.2684,0.0486,10.7131,10.7166
3,4,2,4,1,08.986,8986,-0.1700,-0.3100,5.7000,5.7110,0.0033,-0.0175,0.0087,1.75,-0.44,345.44,-0.2554,0.0013,10.0525,10.0558
3,4,2,4,1,09.159,9159,0.4600,0.2600,5.6800,5.7045,0.0480,0.0709,0.1233,1.88,-0.50,345.38,-0.1611,0.0354,9.4763,9.4778
3,4,2,4,1,09.289,9289,-0.2000,0.0300,7.2200,7.2228,-0.0404,0.0098,-0.0022,1.88,-0.63,345.38,-0.1663,0.0347,9.1790,9.1806
3,4,2,4,1,09.420,9420,-1.0000,0.3400,9.4500,9.5088,-0.0905,0.0044,0.0022,1.94,-0.50,345.31,-0.2761,0.0749,9.2147,9.2191
3,4,2,4,1,09.550,9550,-0.4100,0.4700,8.3000,8.3234,0.0404,0.0611,0.0175,1.69,-0.50,345.31,-0.2938,0.1270,9.0942,9.0998
3,4,2,4,1,09.682,9682,-0.0200,0.1600,8.3000,8.3016,0.0196,0.0305,0.0109,1.69,-0.38,345.44,-0.2577,0.1313,8.9895,8.9942
3,4,2,4,1,09.812,9812,-0.1800,-0.2100,9.0300,9.0342,-0.0033,0.0044,-0.0109,1.75,-0.38,345.44,-0.2475,0.0864,8.9949,8.9987
3,4,2,4,1,09.947,9947,-0.0500,-0.1700,10.0900,10.0916,0.0371,0.0316,0.0371,1.63,-0.50,345.44,-0.2214,0.0526,9.1392,9.1420
3,4,2,4,1,10.079,10079,-0.6600,-0.3600,10.7200,10.7463,-0.0480,-0.0600,0.0033,1.75,-0.50,345.44,-0.2792,-0.0018,9.3475,9.3517
3,4,2,4,1,10.251,10251,-0.2100,-0.0700,11.2500,11.2522,0.0098,0.0600,0.0109,1.69,-0.25,345.63,-0.2701,-0.0108,9.5982,9.6020
3,4,2,4,1,10.382,10382,-0.7000,0.2400,10.4200,10.4462,-0.0436,-0.0295,0.0076,1.63,-0.50,345.56,-0.3268,0.0223,9.7065,9.7120
3,4,2,4,1,10.513,10513,-0.2600,0.0500,9.4000,9.4037,-0.0044,0.0251,-0.0131,1.63,-0.44,345.63,-0.3180,0.0259,9.6661,9.6714
3,4,2,4,1,10.643,10643,-0.3200,0.1400,10.2900,10.2959,-0.0218,0.0044,0.0109,1.63,-0.44,345.56,-0.3182,0.0410,9.7483,9.7536
3,4,2,4,1,10.774,10774,-0.3900,0.1400,10.7100,10.7180,0.0055,0.0044,-0.0175,1.63,-0.44,345.63,-0.3277,0.0540,9.8750,9.8806
3,4,2,4,1,10.907,10907,-0.3500,-0.0100,10.8300,10.8357,0.0033,-0.0022,0.0087,1.63,-0.38,345.56,-0.3306,0.0456,10.0009,10.0064
3,4,2,4,1,11.041,11041,-0.3400,0.1100,10.6400,10.6460,0.0131,-0.0022,-0.0044,1.63,-0.38,345.56,-0.3319,0.0541,10.0851,10.0907
3,4,2,4,1,11.172,11172,-0.3800,0.1100,11.6000,11.6067,-0.0022,-0.0055,0.0033,1.63,-0.38,345.56,-0.3382,0.0614,10.2847,10.2905
3,4,2,4,1,11.345,11345,-0.1400,0.1900,12.8000,12.8022,-0.0218,0.0371,-0.0142,1.63,-0.31,345.56,-0.3121,0.0784,10.6162,10.6210
3,4,2,4,1,11.476,11476,-0.2400,0.8400,11.1200,11.1543,-0.0382,-0.0033,-0.0262,1.69,-0.50,345.44,-0.3026,0.1787,10.6826,10.6883
3,5,2,4,1,11.608,11608,-0.1300,-0.1000,9.0400,9.0415,-0.0098,0.0175,-0.0044,1.63,-0.56,345.31,-0.2798,0.1420,10.4661,10.4708
3,5,2,4,1,11.743,11743,-0.4000,0.1900,6.2400,6.2557,-0.0305,-0.0164,-0.0393,1.69,-0.50,345.25,-0.2957,0.1483,9.9092,9.9147
3,5,2,4,1,11.873,11873,0.0600,0.2900,5.9400,5.9474,0.0185,0.0305,0.0676,1.75,-0.63,345.31,-0.2488,0.1670,9.3862,9.3910
3,5,2,4,1,12.004,12004,-0.1100,-0.1300,8.3700,8.3717,-0.0513,0.0142,0.0109,1.75,-0.69,345.31,-0.2305,0.1279,9.2523,9.2560
3,5,2,4,1,12.135,12135,-0.2600,-0.3300,8.8800,8.8899,-0.0316,0.0022,-0.0196,1.75,-0.63,345.31,-0.2344,0.0675,9.2032,9.2064
3,5,2,4,1,12.265,12265,-0.2000,0.4000,8.0200,8.0325,-0.0055,0.0284,0.0404,1.63,-0.63,345.31,-0.2299,0.1113,9.0473,9.0509
3,5,2,4,1,12.438,12438,-0.2400,-0.3200,8.7700,8.7791,-0.0338,-0.0676,0.0284,1.69,-0.56,345.31,-0.2312,0.0545,9.0108,9.0139
3,5,2,4,1,12.569,12569,-0.5500,0.1700,9.7400,9.7570,-0.0033,-0.0262,0.0065,1.63,-0.38,345.50,-0.2732,0.0697,9.1069,9.1112
3,5,2,4,1,12.699,12699,-0.1200,-0.1000,10.2700,10.2712,0.0000,0.0044,0.0284,1.50,-0.63,345.38,-0.2530,0.0474,9.2601,9.2637
3,5,2,4,1,12.830,12830,-0.4500,0.0300,10.7900,10.7994,0.0131,-0.0273,-0.0175,1.69,-0.50,345.50,-0.2790,0.0451,9.4617,9.4659
3,5,2,4,1,12.960,12960,-0.3600,0.1200,10.5500,10.5568,0.0044,-0.0055,0.0142,1.63,-0.50,345.50,-0.2897,0.0549,9.6051,9.6097
3,5,2,4,1,13.091,13091,-0.1400,-0.0900,10.1500,10.1514,0.0491,-0.0076,-0.0382,1.56,-0.56,345.56,-0.2699,0.0358,9.6769,9.6808
3,5,2,4,1,13.222,13222,-0.3500,0.0000,10.2100,10.2160,-0.0196,-0.0076,0.0349,1.56,-0.44,345.50,-0.2805,0.0311,9.7472,9.7513
3,5,2,4,1,13.357,13357,-0.5500,0.0600,10.8000,10.8142,0.0218,-0.0076,-0.0142,1.56,-0.50,345.63,-0.3160,0.0349,9.8859,9.8910
3,5,2,4,1,13.530,13530,-0.3900,0.0000,10.5100,10.5172,-0.0327,-0.0011,0.0175,1.50,-0.56,345.56,-0.3258,0.0303,9.9682,9.9735
3,5,2,4,1,13.660,13660,-0.3100,0.0800,10.7700,10.7748,0.0185,-0.0022,-0.0153,1.56,-0.44,345.56,-0.3237,0.0369,10.0738,10.0791
3,5,2,4,1,13.790,13790,-0.3500,0.0400,11.8500,11.8552,-0.0087,-0.0065,0.0218,1.56,-0.56,345.56,-0.3271,0.0373,10.3079,10.3131
3,5,2,4,1,13.920,13920,-0.3600,0.0000,12.7300,12.7351,0.0153,-0.0022,-0.0109,1.56,-0.50,345.63,-0.3315,0.0324,10.6270,10.6323
3,5,2,4,1,14.050,14050,-0.4900,0.4100,12.4900,12.5063,0.0578,0.0022,0.0065,1.56,-0.44,345.56,-0.3524,0.0821,10.8725,10.8786
3,6,2,4,1,14.181,14181,-0.3300,0.2900,8.8900,8.9008,0.0491,-0.0218,-0.0185,1.56,-0.69,345.31,-0.3494,0.1095,10.6113,10.6176
3,6,2,4,1,14.311,14311,-0.3300,-0.7100,7.1100,7.1530,0.0469,-0.0273,0.0120,1.63,-0.63,345.44,-0.3469,0.0015,10.1499,10.1558
3,6,2,4,1,14.441,14441,-0.3300,-0.4200,7.4200,7.4392,0.0055,-0.0131,-0.0360,1.81,-0.88,345.19,-0.3446,-0.0540,9.7902,9.7964
3,6,2,4,1,14.614,14614,-0.4900,-0.6500,7.5100,7.5540,0.0633,-0.0065,-0.0022,1.75,-0.88,345.25,-0.3638,-0.1326,9.4897,9.4976
3,6,2,4,1,14.746,14746,-0.5100,-0.1100,8.2900,8.3064,-0.0142,0.0327,0.0229,1.56,-0.81,345.38,-0.3831,-0.1296,9.3316,9.3404
3,6,2,4,1,14.877,14877,-0.3400,0.2600,8.2200,8.2311,0.0360,-0.0098,0.0229,1.50,-0.81,345.25,-0.3774,-0.0782,9.1851,9.1932
3,6,2,4,1,15.012,15012,-0.3000,0.1100,8.8900,8.8957,-0.0327,-0.0436,-0.0295,1.56,-0.75,345.25,-0.3672,-0.0534,9.1462,9.1538
3,6,2,4,1,15.143,15143,-0.7700,0.0800,10.0300,10.0598,-0.0022,0.0000,0.0076,1.69,-0.56,345.44,-0.4203,-0.0359,9.2627,9.2723
3,6,2,4,1,15.274,15274,-0.5800,0.0700,9.9900,10.0071,0.0011,0.0633,-0.0022,1.50,-0.63,345.44,-0.4413,-0.0219,9.3585,9.3690
3,6,2,4,1,15.404,15404,0.0600,0.0600,9.7300,9.7304,0.0709,0.0469,0.0109,1.38,-0.69,345.44,-0.3753,-0.0111,9.4075,9.4150
3,6,2,4,1,15.534,15534,-0.2200,0.0000,9.3100,9.3126,0.0109,0.0545,-0.0098,1.50,-0.63,345.50,-0.3548,-0.0096,9.3946,9.4013
3,6,2,4,1,15.707,15707,-0.2000,0.2700,9.9300,9.9357,0.0175,0.0087,-0.0142,1.44,-0.56,345.50,-0.3344,0.0272,9.4652,9.4711
3,6,2,4,1,15.838,15838,-0.3500,0.0100,9.9800,9.9861,0.0033,-0.0044,0.0305,1.38,-0.56,345.63,-0.3365,0.0249,9.5330,9.5390
3,6,2,4,1,15.968,15968,-0.2900,-0.0900,10.0300,10.0346,0.0502,0.0240,0.0000,1.44,-0.63,345.56,-0.3303,0.0098,9.5985,9.6042
3,6,2,4,1,16.099,16099,-0.2400,0.0300,9.8900,9.8930,-0.0175,0.0327,0.0153,1.44,-0.56,345.63,-0.3184,0.0125,9.6369,9.6422
3,6,2,4,1,16.229,16229,-0.2600,0.0000,11.2200,11.2230,0.0196,-0.0109,-0.0087,1.38,-0.56,345.56,-0.3107,0.0108,9.8455,9.8504
3,6,2,4,1,16.359,16359,-0.3100,0.1100,11.2200,11.2248,-0.0109,0.0011,0.0098,1.38,-0.56,345.56,-0.3106,0.0239,10.0267,10.0315
3,6,2,4,1,16.490,16490,-0.2900,0.0700,10.3700,10.3743,0.0087,-0.0044,-0.0131,1.38,-0.56,345.50,-0.3079,0.0300,10.0719,10.0766
3,6,2,4,1,16.626,16626,-0.3600,-0.0200,10.6700,10.6761,-0.0175,0.0142,0.0120,1.44,-0.56,345.56,-0.3148,0.0234,10.1507,10.1556
3,6,2,4,1,16.799,16799,-0.3000,-0.0100,11.6700,11.6739,-0.0142,0.0109,-0.0033,1.44,-0.50,345.56,-0.3128,0.0190,10.3509,10.3557
3,6,2,4,1,16.929,16929,-0.2400,0.1000,12.9000,12.9026,-0.0196,0.0218,-0.0011,1.44,-0.44,345.56,-0.3032,0.0297,10.6868,10.6912
3,6,2,4,1,17.059,17059,-0.4800,0.4200,11.7700,11.7873,-0.0644,-0.0185,-0.0251,1.56,-0.63,345.44,-0.3265,0.0811,10.8296,10.8348
3,7,2,4,1,17.189,17189,-0.5800,0.7100,7.6300,7.6849,0.0175,0.0175,-0.0153,1.56,-0.56,345.38,-0.3599,0.1640,10.4079,10.4154
3,7,2,4,1,17.319,17319,-0.5700,-0.2800,6.0900,6.1230,0.0404,-0.0327,-0.0458,1.69,-0.75,345.19,-0.3876,0.1055,9.8389,9.8471
3,7,2,4,1,17.450,17450,-0.1400,-0.1000,6.7500,6.7522,-0.0829,-0.0360,0.0076,1.63,-0.75,345.13,-0.3550,0.0784,9.4319,9.4389
3,7,2,4,1,17.580,17580,-0.1800,0.1000,8.5900,8.5925,0.0611,0.0262,0.0055,1.56,-0.81,345.19,-0.3319,0.0812,9.3210,9.3272
3,7,2,4,1,17.710,17710,-0.4800,-0.4600,9.2200,9.2439,0.0098,-0.0644,-0.0338,1.50,-0.81,345.25,-0.3514,0.0099,9.3077,9.3143
3,7,2,4,1,17.883,17883,0.0400,0.0200,8.1700,8.1701,-0.0087,-0.0087,0.0360,1.44,-0.69,345.25,-0.2999,0.0112,9.1577,9.1627
3,7,2,4,1,18.013,18013,-0.4300,0.1200,9.9600,9.9700,0.0055,-0.0469,-0.0131,1.56,-0.63,345.25,-0.3170,0.0256,9.2635,9.2689
3,7,2,4,1,18.144,18144,-0.1300,0.0400,9.4200,9.4210,0.0175,0.0524,0.0218,1.44,-0.69,345.38,-0.2924,0.0275,9.2841,9.2887
3,7,2,4,1,18.274,18274,-0.1400,-0.1400,9.1600,9.1621,0.0142,0.0087,-0.0207,1.44,-0.75,345.31,-0.2723,0.0054,9.2677,9.2717
3,7,2,4,1,18.405,18405,-0.3600,-0.1300,10.1200,10.1272,-0.0185,-0.0109,0.0229,1.50,-0.56,345.38,-0.2838,-0.0124,9.3800,9.3843
3,7,2,4,1,18.536,18536,-0.6100,0.1900,9.7500,9.7709,0.0175,-0.0120,0.0000,1.50,-0.56,345.44,-0.3268,0.0142,9.4288,9.4345
3,7,2,4,1,18.666,18666,-0.5800,0.1100,10.0000,10.0174,-0.0229,0.0076,0.0120,1.50,-0.56,345.44,-0.3602,0.0269,9.5041,9.5109
3,7,2,4,1,18.802,18802,-0.3300,0.0100,10.6000,10.6051,0.0175,0.0076,0.0098,1.44,-0.56,345.50,-0.3562,0.0246,9.6485,9.6551
3,7,2,4,1,18.975,18975,-0.1300,0.0200,9.8200,9.8209,0.0131,0.0415,0.0033,1.44,-0.63,345.50,-0.3264,0.0240,9.6711,9.6766
3,7,2,4,1,19.105,19105,-0.2600,0.1600,9.4800,9.4849,0.0087,0.0142,-0.0044,1.44,-0.56,345.50,-0.3176,0.0419,9.6459,9.6512
3,7,2,4,1,19.235,19235,-0.3500,0.1400,10.5800,10.5867,-0.0033,-0.0033,0.0120,1.44,-0.56,345.50,-0.3219,0.0549,9.7690,9.7744
3,7,2,4,1,19.366,19366,-0.2800,0.0900,11.0500,11.0539,-0.0022,-0.0011,-0.0065,1.44,-0.56,345.50,-0.3164,0.0595,9.9378,9.9430
3,7,2,4,1,19.496,19496,-0.2900,0.0800,13.1200,13.1234,-0.0131,0.0044,0.0044,1.44,-0.50,345.50,-0.3129,0.0622,10.3571,10.3620
3,7,2,4,1,19.626,19626,-0.3300,-0.1800,14.3900,14.3949,0.0065,0.0000,0.0011,1.44,-0.56,345.50,-0.3152,0.0303,10.8886,10.8932
3,7,2,4,1,19.756,19756,-0.1800,0.7300,12.6700,12.6923,0.0785,0.0393,-0.0229,1.44,-0.50,345.44,-0.2974,0.1225,11.1233,11.1280
3,8,2,4,1,19.887,19887,-0.1100,-0.0900,7.8000,7.8013,0.0098,-0.0044,-0.0196,1.44,-0.81,345.25,-0.2727,0.0945,10.6854,10.6893
3,8,2,4,1,20.060,20060,-0.2800,-0.3600,5.7400,5.7581,0.0218,-0.0731,-0.0567,1.63,-0.69,345.19,-0.2736,0.0346,10.0337,10.0375
3,8,2,4,1,20.191,20191,-0.2100,0.2400,7.9100,7.9164,-0.0404,-0.0305,0.0164,1.69,-0.81,345.13,-0.2652,0.0617,9.7539,9.7577
3,8,2,4,1,20.321,20321,-0.3900,-0.0700,8.0800,8.0897,-0.0338,0.0349,0.0109,1.69,-0.75,345.25,-0.2817,0.0443,9.5333,9.5375
3,8,2,4,1,20.452,20452,-0.1200,-0.1100,8.7200,8.7215,0.0327,-0.0120,0.0000,1.50,-0.75,345.19,-0.2604,0.0240,9.4261,9.4297
3,8,2,4,1,20.587,20587,-0.3100,0.0200,8.4600,8.4657,-0.0033,0.0229,0.0076,1.44,-0.81,345.19,-0.2669,0.0235,9.2988,9.3027
3,8,2,4,1,20.719,20719,-0.1500,0.2200,8.6800,8.6841,-0.0251,0.0098,0.0087,1.50,-0.63,345.19,-0.2515,0.0494,9.2173,9.2208
3,8,2,4,1,20.849,20849,-0.3600,0.3400,9.6100,9.6227,0.0393,0.0076,0.0175,1.50,-0.69,345.25,-0.2658,0.0877,9.2690,9.2732
3,8,2,4,1,20.995,20995,-0.6900,-0.0700,10.5200,10.5428,0.0087,-0.0284,-0.0109,1.50,-0.69,345.31,-0.3217,0.0669,9.4339,9.4396
3,8,2,4,1,21.170,21170,-0.2600,0.0700,9.7800,9.7837,0.0011,-0.0175,0.0142,1.38,-0.63,345.25,-0.3136,0.0673,9.4795,9.4849
3,8,2,4,1,21.300,21300,-0.2100,0.0500,9.6200,9.6224,0.0120,-0.0142,-0.0033,1.44,-0.63,345.31,-0.2999,0.0650,9.4980,9.5029
3,8,2,4,1,21.431,21431,-0.3900,0.1600,9.6100,9.6192,-0.0131,-0.0055,0.0055,1.44,-0.63,345.31,-0.3118,0.0775,9.5128,9.5182
3,8,2,4,1,21.561,21561,-0.1500,-0.1500,9.6800,9.6823,0.0284,0.0076,0.0185,1.44,-0.56,345.38,-0.2905,0.0475,9.5348,9.5393
3,8,2,4,1,21.692,21692,-0.6000,0.0400,10.1600,10.1778,0.0055,-0.0131,0.0098,1.50,-0.56,345.38,-0.3313,0.0466,9.6172,9.6230
3,8,2,4,1,21.822,21822,-0.3100,0.0300,10.2500,10.2547,-0.0011,0.0153,0.0065,1.50,-0.50,345.44,-0.3285,0.0444,9.7006,9.7062
3,8,2,4,1,21.953,21953,-0.3700,0.0300,10.7100,10.7164,0.0055,-0.0033,-0.0011,1.50,-0.50,345.38,-0.3339,0.0425,9.8336,9.8393
3,8,2,4,1,22.083,22083,-0.3000,0.0500,10.8700,10.8743,-0.0087,-0.0065,0.0000,1.50,-0.44,345.38,-0.3295,0.0435,9.9702,9.9757
3,8,2,4,1,22.256,22256,-0.2700,0.0600,11.0000,11.0035,-0.0218,0.0055,0.0044,1.50,-0.44,345.38,-0.3216,0.0456,10.1059,10.1111
3,8,2,4,1,22.386,22386,-0.3400,-0.0100,12.1100,12.1148,0.0109,-0.0098,0.0022,1.50,-0.44,345.38,-0.3240,0.0383,10.3700,10.3751
3,8,2,4,1,22.517,22517,-0.3400,-0.0200,13.1800,13.1844,0.0087,-0.0033,0.0033,1.56,-0.44,345.38,-0.3262,0.0306,10.7403,10.7452
3,8,2,4,1,22.648,22648,-0.1500,-0.2300,12.3100,12.3131,0.1167,0.0022,-0.0360,1.50,-0.50,345.31,-0.3029,-0.0037,10.9471,10.9513
3,9,2,4,1,22.778,22778,-0.3900,0.3500,7.3600,7.3786,0.0502,-0.0524,0.0033,1.56,-0.63,345.19,-0.3144,0.0429,10.4744,10.4792
3,9,2,4,1,22.909,22909,-0.5900,-0.8200,6.0300,6.1140,0.0829,-0.0982,-0.0491,1.69,-0.56,345.19,-0.3507,-0.0708,9.8888,9.8952
3,9,2,4,1,23.039,23039,-0.2600,-0.2200,6.4500,6.4590,0.0000,-0.0535,-0.0873,1.69,-1.00,345.06,-0.3388,-0.0905,9.4356,9.4421
3,9,2,4,1,23.175,23175,-0.3800,0.5400,7.8500,7.8777,0.0076,0.0262,-0.0207,1.75,-0.63,345.13,-0.3442,-0.0074,9.2267,9.2331
3,9,2,4,1,23.347,23347,0.0400,0.1200,8.0400,8.0410,0.0415,0.0284,0.0011,1.50,-0.63,345.13,-0.2936,0.0094,9.0703,9.0751
3,9,2,4,1,23.477,23477,-0.1100,0.2600,8.7200,8.7246,-0.0240,-0.0011,-0.0022,1.56,-0.69,345.13,-0.2694,0.0424,9.0241,9.0283
3,9,2,4,1,23.607,23607,-0.4300,0.0100,9.3800,9.3899,-0.0262,-0.0131,0.0142,1.63,-0.50,345.13,-0.2905,0.0381,9.0710,9.0758
3,9,2,4,1,23.738,23738,-0.1800,0.3400,9.4600,9.4678,0.0513,0.0360,-0.0196,1.50,-0.56,345.25,-0.2760,0.0779,9.1223,9.1268
3,9,2,4,1,23.868,23868,-0.1800,0.2100,9.9900,9.9938,-0.0131,0.0578,0.0262,1.38,-0.56,345.19,-0.2633,0.0953,9.2366,9.2409
3,9,2,4,1,23.999,23999,-0.8600,0.0800,10.7500,10.7846,0.0120,-0.0513,-0.0295,1.56,-0.50,345.19,-0.3420,0.0933,9.4361,9.4427
3,9,2,4,1,24.129,24129,-0.3700,0.2500,10.0800,10.0899,-0.0153,-0.0175,0.0295,1.50,-0.44,345.31,-0.3457,0.1140,9.5209,9.5279
3,9,2,4,1,24.260,24260,-0.9200,-0.0600,10.4300,10.4707,0.0447,-0.0404,-0.0284,1.44,-0.44,345.38,-0.4213,0.0910,9.6407,9.6503
3,9,2,4,1,24.433,24433,-0.4400,0.1500,10.1300,10.1407,-0.0175,0.0022,0.0207,1.50,-0.38,345.38,-0.4238,0.0988,9.7052,9.7149
3,9,2,4,1,24.564,24564,-0.2700,0.0400,11.1400,11.1433,0.0207,0.0098,-0.0273,1.44,-0.38,345.31,-0.4035,0.0911,9.8943,9.9029
3,9,2,4,1,24.696,24696,-0.2500,0.1500,10.9700,10.9739,-0.0196,0.0142,0.0185,1.44,-0.44,345.31,-0.3833,0.0988,10.0360,10.0438
3,9,2,4,1,24.831,24831,-0.3200,0.0300,10.1100,10.1151,0.0076,-0.0011,-0.0120,1.44,-0.38,345.31,-0.3750,0.0898,10.0458,10.0532
3,9,2,4,1,24.962,24962,-0.3300,0.1200,10.7200,10.7257,0.0131,0.0022,0.0076,1.44,-0.38,345.31,-0.3690,0.0937,10.1346,10.1418
3,9,2,4,1,25.092,25092,-0.3100,0.0100,13.1300,13.1337,-0.0120,-0.0065,0.0022,1.44,-0.38,345.31,-0.3613,0.0827,10.5293,10.5358
3,9,2,4,1,25.223,25223,-0.5200,-0.1000,13.8100,13.8201,0.0153,0.0065,-0.0065,1.50,-0.38,345.31,-0.3822,0.0586,10.9616,10.9684
3,9,2,4,1,25.353,25353,0.0000,1.2200,10.9900,11.0575,-0.0349,-0.0011,-0.0447,1.50,-0.56,345.06,-0.3318,0.2117,10.9654,10.9724
3,10,2,4,1,25.526,25526,-0.2000,-0.0700,6.0700,6.0737,-0.0567,0.0065,-0.0098,1.50,-0.63,345.06,-0.3144,0.1746,10.3203,10.3266
3,10,2,4,1,25.656,25656,-0.6000,0.2000,5.8000,5.8344,-0.0185,0.0240,-0.0076,1.75,-0.69,344.81,-0.3521,0.1779,9.7246,9.7326
3,10,2,4,1,25.786,25786,-0.6100,-0.0300,8.6500,8.6715,0.0033,-0.0480,0.0796,1.69,-0.56,345.00,-0.3861,0.1505,9.5830,9.5920
3,10,2,4,1,25.916,25916,-0.0200,0.3300,8.3200,8.3266,0.0338,0.0709,0.0120,1.56,-0.63,345.00,-0.3378,0.1742,9.4166,9.4243
3,10,2,4,1,26.046,26046,-0.1500,0.4100,8.4300,8.4413,-0.0120,-0.0316,0.0196,1.38,-0.63,345.00,-0.3131,0.2052,9.2866,9.2941
3,10,2,4,1,26.176,26176,-0.4500,0.0000,9.0400,9.0512,-0.0327,0.0011,0.0109,1.50,-0.69,345.00,-0.3311,0.1782,9.2541,9.2617
3,10,2,4,1,26.306,26306,0.0600,0.2900,9.3900,9.3947,-0.0065,0.0360,0.0153,1.44,-0.38,345.06,-0.2796,0.1929,9.2720,9.2782
3,10,2,4,1,26.436,26436,-0.5500,0.2200,9.9900,10.0075,-0.0371,0.0022,-0.0142,1.44,-0.56,345.06,-0.3152,0.1965,9.3666,9.3740
3,10,2,4,1,26.609,26609,-0.2100,-0.2000,9.9100,9.9142,0.0600,-0.0273,-0.0185,1.31,-0.69,345.13,-0.3013,0.1442,9.4382,9.4441
3,10,2,4,1,26.739,26739,-0.6200,0.1000,9.8300,9.8500,-0.0295,0.0087,0.0229,1.38,-0.50,345.13,-0.3433,0.1384,9.4898,9.4971
3,10,2,4,1,26.870,26870,-0.4700,0.2500,9.3700,9.3851,-0.0109,-0.0240,-0.0153,1.44,-0.50,345.13,-0.3600,0.1531,9.4741,9.4821
3,10,2,4,1,27.000,27000,-0.2100,0.0600,9.9200,9.9224,-0.0153,0.0087,0.0316,1.44,-0.38,345.19,-0.3403,0.1408,9.5328,9.5399
3,10,2,4,1,27.130,27130,-0.5000,0.1000,10.1600,10.1728,-0.0098,0.0022,-0.0218,1.44,-0.44,345.25,-0.3613,0.1355,9.6155,9.6232
3,10,2,4,1,27.260,27260,-0.3300,-0.0100,10.4200,10.4252,-0.0273,0.0098,0.0142,1.50,-0.44,345.25,-0.3572,0.1163,9.7215,9.7287
3,10,2,4,1,27.390,27390,-0.1300,0.0000,11.0900,11.0908,0.0196,0.0175,-0.0196,1.44,-0.38,345.25,-0.3272,0.1010,9.9018,9.9077
3,10,2,4,1,27.520,27520,-0.3600,0.2400,11.3100,11.3183,-0.0207,-0.0055,0.0207,1.44,-0.38,345.25,-0.3316,0.1193,10.0874,10.0935
3,10,2,4,1,27.693,27693,-0.4200,0.0800,10.3500,10.3588,0.0185,-0.0120,-0.0022,1.44,-0.44,345.19,-0.3432,0.1141,10.1220,10.1284
3,10,2,4,1,27.829,27829,-0.3400,0.0300,11.9500,11.9549,0.0196,-0.0076,0.0175,1.44,-0.38,345.25,-0.3428,0.1030,10.3629,10.3691
3,10,2,4,1,27.961,27961,-0.4100,0.0700,13.2800,13.2865,0.0120,-0.0098,0.0044,1.50,-0.44,345.25,-0.3516,0.0987,10.7473,10.7535
3,10,2,4,1,28.091,28091,-0.2200,-0.3900,12.3300,12.3381,0.1069,-0.0098,-0.0371,1.44,-0.44,345.19,-0.3343,0.0343,10.9558,10.9610
3,11,2,4,1,28.221,28221,-0.3000,0.4100,8.0000,8.0161,0.0502,-0.0578,0.0033,1.56,-0.63,345.00,-0.3298,0.0838,10.5663,10.5718
3,11,2,4,1,28.352,28352,-0.4400,-1.1000,7.6500,7.7412,0.0556,-0.0753,-0.0207,1.63,-0.63,344.94,-0.3443,-0.0722,10.1820,10.1881
3,11,2,4,1,28.482,28482,-0.9300,2.6700,6.8200,7.3828,-0.1451,-0.0687,-0.0076,1.63,-0.75,344.81,-0.4215,0.2892,9.7390,9.7524
3,11,2,4,1,28.613,28613,0.1800,-0.6300,6.0300,6.0655,0.0829,-0.0087,-0.0502,1.63,-0.75,344.94,-0.3422,0.1680,9.2503,9.2581
3,11,2,4,1,28.787,28787,-0.0900,0.0300,8.6700,8.6705,0.0589,0.0316,-0.0098,1.50,-0.75,344.88,-0.3090,0.1498,9.1738,9.1802
3,11,2,4,1,28.918,28918,-0.6800,0.0800,9.6300,9.6543,-0.0480,-0.0316,-0.0055,1.50,-0.63,344.94,-0.3579,0.1406,9.2339,9.2419
3,11,2,4,1,29.053,29053,-0.2000,0.2100,9.5300,9.5344,0.0076,0.0022,0.0153,1.56,-0.56,344.94,-0.3371,0.1498,9.2729,9.2803
3,11,2,4,1,29.184,29184,-0.4700,-0.0100,9.6500,9.6614,-0.0011,-0.0196,-0.0076,1.63,-0.56,345.00,-0.3546,0.1287,9.3226,9.3302
3,11,2,4,1,29.315,29315,-0.4000,0.2700,9.2700,9.2826,0.0338,0.0295,0.0153,1.44,-0.63,345.06,-0.3606,0.1473,9.3157,9.3238
3,11,2,4,1,29.445,29445,-0.3300,-0.3500,9.6100,9.6220,0.0284,-0.0087,0.0196,1.44,-0.69,345.06,-0.3565,0.0818,9.3545,9.3616
3,11,2,4,1,29.575,29575,-0.5000,-0.0800,9.7100,9.7232,-0.0033,-0.0022,0.0011,1.44,-0.50,345.06,-0.3754,0.0605,9.4013,9.4090
3,11,2,4,1,29.706,29706,-0.2300,-0.3200,9.2400,9.2484,-0.0120,0.0720,0.0065,1.38,-0.63,345.06,-0.3563,0.0103,9.3801,9.3868
3,11,2,4,1,29.878,29878,-0.5000,0.1400,9.7600,9.7738,-0.0371,-0.0011,0.0011,1.44,-0.50,345.13,-0.3752,0.0274,9.4301,9.4376
3,11,2,4,1,30.008,30008,-0.4400,0.1000,10.7300,10.7395,0.0393,0.0033,0.0065,1.38,-0.50,345.19,-0.3838,0.0370,9.6014,9.6092
3,11,2,4,1,30.138,30138,-0.5400,0.2300,10.3100,10.3267,-0.0185,-0.0142,-0.0065,1.44,-0.50,345.19,-0.4043,0.0624,9.6948,9.7034
3,11,2,4,1,30.268,30268,-0.3200,0.0000,10.1100,10.1151,-0.0011,0.0033,0.0033,1.44,-0.50,345.13,-0.3932,0.0542,9.7495,9.7576
3,11,2,4,1,30.398,30398,-0.2800,-0.0400,10.9800,10.9836,0.0131,0.0033,-0.0065,1.44,-0.50,345.13,-0.3783,0.0418,9.9117,9.9190
3,11,2,4,1,30.528,30528,-0.3500,0.0500,10.3500,10.3560,0.0022,0.0076,-0.0033,1.44,-0.50,345.13,-0.3746,0.0429,9.9694,9.9765
3,11,2,4,1,30.658,30658,-0.2800,0.0700,8.7400,8.7448,0.0000,-0.0087,-0.0022,1.50,-0.44,345.13,-0.3621,0.0464,9.8074,9.8142
3,11,2,4,1,30.789,30789,-0.2300,-0.1100,10.4000,10.4031,0.0142,0.0000,-0.0022,1.44,-0.50,345.13,-0.3447,0.0258,9.8855,9.8915
3,11,2,4,1,30.962,30962,-0.3100,0.1600,9.9800,9.9861,-0.0087,0.0011,-0.0033,1.50,-0.50,345.13,-0.3401,0.0435,9.8979,9.9039
3,11,2,4,1,31.096,31096,-0.3800,0.0300,10.5100,10.5169,-0.0011,-0.0087,0.0033,1.50,-0.44,345.13,-0.3454,0.0417,9.9786,9.9847
3,11,2,4,1,31.228,31228,-0.3900,-0.0900,9.4700,9.4785,0.0425,-0.0120,0.0065,1.50,-0.56,345.13,-0.3513,0.0244,9.9116,9.9178
3,11,2,4,1,31.360,31360,-0.4300,0.1500,10.6800,10.6897,-0.0142,-0.0120,0.0109,1.50,-0.44,345.13,-0.3616,0.0409,10.0128,10.0195
3,11,2,4,1,31.491,31491,-0.2000,0.1500,13.2700,13.2724,0.0087,-0.0164,-0.0022,1.50,-0.50,345.13,-0.3403,0.0553,10.4421,10.4477
3,11,2,4,1,31.622,31622,-0.4900,0.0700,13.5700,13.5790,-0.0284,-0.0022,-0.0055,1.50,-0.56,345.19,-0.3601,0.0572,10.8542,10.8604
3,11,2,4,1,31.752,31752,-0.1900,-0.4100,11.1700,11.1791,0.0447,-0.0218,-0.0404,1.44,-0.63,345.06,-0.3377,-0.0043,10.8958,10.9011
3,12,2,4,1,31.882,31882,-0.7600,-0.0700,8.4800,8.5143,-0.0480,-0.0633,0.0033,1.56,-0.88,344.94,-0.3933,-0.0130,10.5775,10.5848
3,12,2,4,1,32.055,32055,-0.2200,-0.3700,5.1600,5.1779,0.0567,-0.0175,-0.0458,1.69,-0.81,344.69,-0.3705,-0.0600,9.8636,9.8707
3,12,2,4,1,32.186,32186,-0.5500,-0.0800,6.7100,6.7330,-0.0175,-0.0240,0.0175,1.69,-0.75,344.81,-0.3941,-0.0627,9.4480,9.4565
3,12,2,4,1,32.316,32316,-0.1600,0.0000,9.1400,9.1414,0.0218,-0.0164,0.0327,1.69,-0.75,344.88,-0.3633,-0.0544,9.4075,9.4146
3,12,2,4,1,32.447,32447,-0.4100,-0.3700,8.8000,8.8173,0.0142,-0.0284,-0.0033,1.50,-0.69,344.88,-0.3694,-0.0960,9.3274,9.3352
3,12,2,4,1,32.578,32578,-0.1800,-0.2200,8.9400,8.9445,-0.0491,0.0316,-0.0033,1.50,-0.88,344.81,-0.3445,-0.1123,9.2764,9.2834
3,12,2,4,1,32.710,32710,-0.2900,0.3400,8.6300,8.6416,-0.0545,0.0545,0.0131,1.50,-0.50,344.94,-0.3373,-0.0527,9.1912,9.1975
3,12,2,4,1,32.841,32841,-0.1100,-0.3400,9.1600,9.1670,0.0644,0.0567,0.0011,1.44,-0.75,344.88,-0.3073,-0.0906,9.1871,9.1927
3,12,2,4,1,32.975,32975,-0.4800,-0.0800,10.3300,10.3415,-0.0120,0.0175,0.0044,1.38,-0.69,345.00,-0.3301,-0.0892,9.3377,9.3439
3,12,2,4,1,33.148,33148,-0.3300,-0.2700,10.1400,10.1490,0.0578,0.0360,0.0273,1.38,-0.69,345.00,-0.3301,-0.1130,9.4434,9.4498
3,12,2,4,1,33.278,33278,-0.1400,-0.1300,9.8100,9.8119,0.0164,0.0185,0.0164,1.38,-0.63,345.13,-0.3050,-0.1153,9.4917,9.4973
3,12,2,4,1,33.408,33408,-0.2800,0.0500,10.3400,10.3439,-0.0022,0.0305,-0.0033,1.38,-0.69,345.06,-0.3017,-0.0935,9.6035,9.6087
3,12,2,4,1,33.538,33538,-0.3600,0.0000,10.9300,10.9359,-0.0371,0.0327,0.0185,1.38,-0.63,345.19,-0.3094,-0.0812,9.7783,9.7835
3,12,2,4,1,33.668,33668,-0.2500,0.1900,11.0200,11.0245,0.0196,0.0338,-0.0316,1.31,-0.63,345.13,-0.3016,-0.0454,9.9419,9.9466
3,12,2,4,1,33.798,33798,-0.2100,0.0600,10.6500,10.6522,-0.0185,-0.0087,0.0240,1.31,-0.69,345.06,-0.2895,-0.0315,10.0352,10.0395
3,12,2,4,1,33.928,33928,-0.3300,0.0200,10.6500,10.6551,0.0055,-0.0120,-0.0109,1.38,-0.56,345.13,-0.2948,-0.0247,10.1162,10.1206
3,12,2,4,1,34.059,34059,-0.3000,0.1200,11.7100,11.7145,-0.0011,-0.0098,0.0120,1.38,-0.63,345.13,-0.2955,-0.0057,10.3263,10.3305
3,12,2,4,1,34.232,34232,-0.3900,-0.0700,12.9100,12.9161,-0.0218,0.0185,-0.0098,1.38,-0.56,345.13,-0.3080,-0.0141,10.6667,10.6712
3,12,2,4,1,34.362,34362,-0.8200,0.5400,10.6700,10.7151,-0.0480,-0.0076,-0.0229,1.44,-0.69,345.00,-0.3754,0.0589,10.6672,10.6739
3,13,2,4,1,34.493,34493,-0.5100,-0.2500,7.8300,7.8506,0.0622,0.0175,0.0044,1.44,-0.88,344.94,-0.3932,0.0182,10.2933,10.3008
3,13,2,4,1,34.623,34623,-0.6500,0.2600,5.9400,5.9811,0.0382,-0.0185,-0.0251,1.56,-0.75,344.88,-0.4270,0.0500,9.7196,9.7291
3,13,2,4,1,34.754,34754,-0.2700,-0.3900,6.7000,6.7168,-0.0087,-0.0371,-0.0076,1.63,-0.94,344.75,-0.4063,-0.0079,9.3217,9.3306
3,13,2,4,1,34.885,34885,-0.3900,0.2900,8.9300,8.9432,0.0196,0.0011,-0.0022,1.50,-0.81,344.88,-0.4042,0.0313,9.2701,9.2790
3,13,2,4,1,35.020,35020,-0.3900,0.2700,8.5500,8.5631,0.0044,-0.0022,-0.0109,1.44,-0.75,344.88,-0.4023,0.0628,9.1752,9.1842
3,13,2,4,1,35.152,35152,-0.1600,0.0700,8.0700,8.0719,0.0098,-0.0305,0.0360,1.50,-0.75,344.88,-0.3704,0.0637,9.0296,9.0374
3,13,2,4,1,35.324,35324,-0.2700,-0.1600,8.6600,8.6657,0.0240,0.0436,-0.0011,1.56,-0.63,344.94,-0.3572,0.0342,8.9809,8.9880
3,13,2,4,1,35.454,35454,-0.5200,0.0400,10.0700,10.0835,0.0033,0.0076,0.0142,1.44,-0.56,345.00,-0.3786,0.0350,9.1244,9.1323
3,13,2,4,1,35.584,35584,-0.5300,0.4500,10.5900,10.6128,-0.0360,-0.0207,-0.0131,1.38,-0.69,344.94,-0.3986,0.0897,9.3175,9.3265
3,13,2,4,1,35.714,35714,-0.2700,0.1600,10.4600,10.4647,-0.0469,0.0327,0.0076,1.38,-0.56,345.00,-0.3816,0.0990,9.4681,9.4763
3,13,2,4,1,35.844,35844,-0.2700,0.0900,10.0900,10.0940,0.0371,0.0240,0.0000,1.38,-0.44,345.13,-0.3669,0.0978,9.5500,9.5576
3,13,2,4,1,35.974,35974,-0.2400,0.0000,9.9700,9.9729,0.0022,0.0087,0.0044,1.38,-0.56,345.06,-0.3502,0.0849,9.6054,9.6121
3,13,2,4,1,36.104,36104,-0.2900,0.1400,10.3600,10.3650,-0.0131,-0.0011,-0.0011,1.38,-0.50,345.06,-0.3423,0.0922,9.7048,9.7113
3,13,2,4,1,36.235,36235,-0.3200,-0.0200,11.0400,11.0447,0.0273,0.0120,-0.0065,1.31,-0.50,345.06,-0.3393,0.0774,9.8808,9.8869
3,13,2,4,1,36.408,36408,-0.3200,0.0900,10.2400,10.2454,-0.0087,-0.0055,0.0131,1.38,-0.50,345.06,-0.3368,0.0790,9.9281,9.9341
3,13,2,4,1,36.539,36539,-0.3400,0.0200,10.8400,10.8453,0.0164,0.0011,-0.0055,1.38,-0.50,345.06,-0.3372,0.0713,10.0483,10.0542
3,13,2,4,1,36.670,36670,-0.3100,0.0600,11.6800,11.6843,-0.0142,-0.0044,0.0076,1.38,-0.50,345.06,-0.3336,0.0698,10.2633,10.2689
3,13,2,4,1,36.806,36806,-0.3700,0.0000,12.6500,12.6554,-0.0185,-0.0087,-0.0142,1.38,-0.50,345.06,-0.3384,0.0606,10.5778,10.5834
3,13,2,4,1,36.937,36937,-0.2000,0.1400,12.7700,12.7723,0.0502,0.0262,-0.0207,1.31,-0.50,345.00,-0.3202,0.0710,10.8667,10.8716
3,14,2,4,1,37.067,37067,-0.2200,-0.4700,9.5400,9.5541,0.0087,-0.0436,-0.0142,1.38,-0.75,344.81,-0.3070,-0.0003,10.6918,10.6963
3,14,2,4,1,37.198,37198,-0.0800,-0.3200,6.2400,6.2487,0.0251,-0.0633,0.0360,1.44,-0.63,344.81,-0.2771,-0.0424,10.1052,10.1091
3,14,2,4,1,37.328,37328,-0.1400,-0.0300,5.6700,5.6718,-0.0120,-0.0218,0.0175,1.44,-0.88,344.63,-0.2590,-0.0408,9.5208,9.5244
3,14,2,4,1,37.501,37501,-0.3700,0.1300,7.7900,7.7999,-0.0371,0.0011,0.0131,1.56,-0.88,344.75,-0.2736,-0.0183,9.2927,9.2967
3,14,2,4,1,37.631,37631,-0.4900,-0.0200,9.0100,9.0233,0.0207,0.0382,-0.0087,1.44,-0.81,344.75,-0.3021,-0.0185,9.2554,9.2604
3,14,2,4,1,37.761,37761,-0.7900,-0.1700,9.3300,9.3649,-0.0589,-0.0338,0.0065,1.44,-0.81,344.75,-0.3664,-0.0384,9.2653,9.2726
3,14,2,4,1,37.891,37891,-0.0400,-0.0200,8.7000,8.7001,0.0065,0.0338,0.0000,1.44,-0.63,344.75,-0.3234,-0.0360,9.1908,9.1965
3,14,2,4,1,38.021,38021,-0.0500,0.0500,9.7200,9.7203,0.0022,0.0185,0.0087,1.44,-0.69,344.81,-0.2874,-0.0247,9.2605,9.2650
3,14,2,4,1,38.151,38151,-0.0800,-0.0500,9.5800,9.5805,-0.0404,-0.0415,-0.0131,1.31,-0.69,344.88,-0.2601,-0.0280,9.3026,9.3063
3,14,2,4,1,38.281,38281,-0.1800,0.0500,9.4300,9.4319,0.0371,0.0316,0.0120,1.31,-0.81,344.81,-0.2495,-0.0177,9.3194,9.3228
3,14,2,4,1,38.411,38411,-0.4600,0.0400,9.9600,9.9707,-0.0055,-0.0327,0.0076,1.38,-0.63,344.94,-0.2772,-0.0101,9.4038,9.4079
3,14,2,4,1,38.584,38584,-0.3800,0.0500,9.7100,9.7176,0.0022,-0.0011,0.0164,1.38,-0.69,344.88,-0.2908,-0.0022,9.4442,9.4486
3,14,2,4,1,38.714,38714,-0.3400,0.1900,10.3000,10.3074,0.0044,-0.0022,0.0033,1.31,-0.56,345.06,-0.2973,0.0231,9.5569,9.5616
3,14,2,4,1,38.844,38844,-0.4500,0.0800,9.8900,9.9006,0.0044,0.0087,0.0055,1.44,-0.56,345.00,-0.3174,0.0306,9.6008,9.6061
3,14,2,4,1,38.974,38974,-0.4200,0.0200,10.8000,10.8082,0.0087,0.0109,0.0076,1.44,-0.50,345.06,-0.3309,0.0292,9.7588,9.7645
3,14,2,4,1,39.104,39104,-0.3100,0.0000,11.7700,11.7741,0.0087,-0.0065,-0.0142,1.38,-0.56,345.00,-0.3282,0.0254,10.0239,10.0293
3,14,2,4,1,39.234,39234,-0.3500,0.0400,11.3400,11.3455,0.0033,0.0087,0.0076,1.38,-0.50,345.06,-0.3310,0.0273,10.1973,10.2027
3,14,2,4,1,39.364,39364,-0.2500,-0.0100,12.4500,12.4525,0.0076,-0.0120,0.0033,1.44,-0.50,345.00,-0.3204,0.0224,10.4941,10.4991
3,14,2,4,1,39.495,39495,-0.4300,-0.1600,13.3600,13.3679,-0.0109,-0.0055,-0.0065,1.44,-0.50,345.06,-0.3348,-0.0017,10.8718,10.8769
3,15,2,4,1,39.668,39668,-0.5100,-0.3700,10.8500,10.8683,-0.0371,0.0305,-0.0229,1.44,-0.63,344.88,-0.3579,-0.0502,10.8689,10.8749
3,15,2,4,1,39.799,39799,-0.3600,0.7200,6.4900,6.5397,-0.0229,0.0600,-0.0175,1.50,-0.63,344.75,-0.3582,0.0513,10.2919,10.2983
3,15,2,4,1,39.930,39930,-0.4000,-0.0100,5.2800,5.2951,0.0545,-0.0076,-0.0240,1.63,-0.81,344.63,-0.3637,0.0432,9.6315,9.6384
3,15,2,4,1,40.065,40065,-0.5900,0.1300,7.5800,7.6040,0.0044,-0.0120,-0.0065,1.56,-0.81,344.63,-0.3935,0.0547,9.3611,9.3696
3,15,2,4,1,40.197,40197,-0.0600,0.4700,9.2200,9.2322,0.0131,0.0720,0.0218,1.44,-0.88,344.69,-0.3496,0.1094,9.3425,9.3497
3,15,2,4,1,40.327,40327,-0.8500,0.2500,9.2400,9.2824,-0.0415,-0.0458,-0.0185,1.44,-0.88,344.56,-0.4155,0.1279,9.3290,9.3391
3,15,2,4,1,40.458,40458,-0.1400,0.1500,8.4800,8.4825,0.0076,0.0185,-0.0196,1.44,-0.81,344.69,-0.3792,0.1308,9.2171,9.2259
3,15,2,4,1,40.588,40588,-0.1400,0.1300,8.9800,8.9820,-0.0371,-0.0044,0.0109,1.38,-0.75,344.69,-0.3477,0.1307,9.1859,9.1934
3,15,2,4,1,40.761,40761,-0.3600,-0.1000,9.7400,9.7472,0.0262,-0.0065,-0.0022,1.38,-0.81,344.75,-0.3493,0.1003,9.2589,9.2660
3,15,2,4,1,40.891,40891,-0.6200,-0.0600,9.9500,9.9695,-0.0196,-0.0044,0.0000,1.38,-0.81,344.75,-0.3850,0.0792,9.3500,9.3582
3,15,2,4,1,41.022,41022,-0.1400,0.1200,9.7800,9.7817,-0.0218,0.0207,0.0098,1.38,-0.63,344.81,-0.3527,0.0846,9.4066,9.4136
3,15,2,4,1,41.153,41153,-0.4600,0.0100,9.5900,9.6010,0.0065,-0.0153,-0.0131,1.44,-0.56,344.81,-0.3668,0.0747,9.4308,9.4382
3,15,2,4,1,41.283,41283,-0.3900,0.0300,9.3900,9.3981,-0.0065,0.0305,0.0065,1.44,-0.56,344.81,-0.3699,0.0688,9.4254,9.4329
3,15,2,4,1,41.419,41419,-0.1700,0.0000,9.5200,9.5215,0.0011,0.0022,0.0109,1.44,-0.50,344.81,-0.3435,0.0598,9.4379,9.4443
3,15,2,4,1,41.551,41551,-0.3300,-0.0400,10.2100,10.2154,0.0000,0.0087,0.0120,1.50,-0.50,344.81,-0.3418,0.0466,9.5396,9.5459
3,15,2,4,1,41.681,41681,-0.2900,0.0400,10.8700,10.8739,0.0033,0.0011,-0.0120,1.50,-0.44,344.88,-0.3349,0.0458,9.7149,9.7208
3,15,2,4,1,41.854,41854,-0.4400,0.1200,12.0700,12.0786,0.0011,-0.0196,0.0142,1.50,-0.50,344.81,-0.3488,0.0555,10.0253,10.0315
3,15,2,4,1,41.984,41984,-0.2600,0.0400,10.9200,10.9232,0.0022,0.0000,-0.0131,1.44,-0.44,344.81,-0.3371,0.0535,10.1432,10.1489
3,15,2,4,1,42.115,42115,-0.4200,-0.0100,11.6200,11.6276,0.0033,0.0000,0.0109,1.50,-0.44,344.88,-0.3480,0.0451,10.3378,10.3437
3,15,2,4,1,42.249,42249,-0.3500,0.0100,13.0500,13.0547,0.0109,-0.0022,-0.0033,1.50,-0.44,344.88,-0.3483,0.0405,10.6952,10.7009
3,15,2,4,1,42.383,42383,-0.2700,-0.6000,13.3900,13.4062,0.1265,0.0033,0.0011,1.50,-0.50,344.81,-0.3380,-0.0439,11.0503,11.0555
3,15,2,4,1,42.513,42513,-0.1400,0.2900,9.9200,9.9252,0.0087,-0.0524,-0.0109,1.50,-0.69,344.56,-0.3119,0.0001,10.9014,10.9058
3,15,2,4,1,42.644,42644,-0.6600,0.6000,5.1300,5.2070,-0.0055,-0.0415,-0.0273,1.56,-0.63,344.56,-0.3577,0.0791,10.1408,10.1475
3,15,2,4,1,42.775,42775,-0.2500,-0.0600,4.6300,4.6371,0.0360,-0.0044,0.0022,1.63,-1.00,344.44,-0.3435,0.0608,9.4146,9.4211
3,15,2,4,1,42.947,42947,-0.1000,-0.1600,7.6800,7.6823,0.0065,0.0175,0.0000,1.69,-0.69,344.63,-0.3115,0.0317,9.1861,9.1914
3,15,2,4,1,43.078,43078,-0.8000,-0.0400,9.3500,9.3842,-0.0567,-0.0109,0.0065,1.56,-0.69,344.63,-0.3758,0.0223,9.2077,9.2154
3,15,2,4,1,43.209,43209,-0.5800,-0.4000,9.0500,9.0774,0.0087,-0.0295,0.0185,1.50,-0.75,344.56,-0.4027,-0.0334,9.1869,9.1958
3,15,2,4,1,43.339,43339,-0.3300,-0.0700,9.6100,9.6159,-0.0327,-0.0273,0.0087,1.63,-0.56,344.63,-0.3932,-0.0382,9.2426,9.2511
3,15,2,4,1,43.470,43470,-0.7200,0.3800,9.6600,9.6942,0.0065,0.0164,0.0273,1.69,-0.50,344.63,-0.4362,0.0169,9.2976,9.3079
3,15,2,4,1,43.600,43600,-0.3900,-0.2100,10.1500,10.1597,0.0164,0.0611,-0.0338,1.50,-0.69,344.69,-0.4301,-0.0130,9.4100,9.4198
3,15,2,4,1,43.735,43735,-0.2100,0.3600,10.1000,10.1086,-0.0469,0.0295,0.0185,1.44,-0.63,344.69,-0.4011,0.0362,9.5009,9.5094
3,15,2,4,1,43.866,43866,-0.0400,0.3900,9.2900,9.2983,0.0175,0.0142,-0.0098,1.38,-0.56,344.69,-0.3535,0.0828,9.4731,9.4801
3,15,2,4,1,44.039,44039,-0.9900,0.3600,9.7900,9.8465,-0.0316,-0.0425,0.0142,1.44,-0.63,344.81,-0.4374,0.1193,9.5149,9.5257
3,15,2,4,1,44.169,44169,-0.4300,-0.2200,9.6400,9.6521,0.0436,-0.0218,0.0185,1.38,-0.63,344.81,-0.4364,0.0746,9.5314,9.5416
3,15,2,4,1,44.299,44299,-0.3600,-0.2200,10.1800,10.1887,0.0251,0.0175,-0.0076,1.38,-0.69,344.88,-0.4264,0.0358,9.6168,9.6263
3,15,2,4,1,44.430,44430,-0.5500,0.2400,10.9700,10.9864,-0.0567,0.0196,-0.0022,1.38,-0.63,344.88,-0.4427,0.0627,9.7951,9.8053
3,15,2,4,1,44.560,44560,-0.2500,0.0600,11.7400,11.7428,0.0087,-0.0044,-0.0022,1.31,-0.56,344.88,-0.4173,0.0623,10.0514,10.0603
3,15,2,4,1,44.690,44690,-0.3100,0.0200,10.0800,10.0848,0.0065,0.0185,0.0000,1.38,-0.63,344.88,-0.4031,0.0568,10.0552,10.0634
3,15,2,4,1,44.821,44821,-0.3900,0.1200,8.9800,8.9893,0.0098,0.0000,0.0011,1.38,-0.63,344.88,-0.4014,0.0651,9.9135,9.9218
3,15,2,4,1,44.951,44951,-0.3200,0.1000,9.6300,9.6358,0.0011,0.0076,0.0022,1.38,-0.56,344.88,-0.3907,0.0697,9.8761,9.8841
3,15,2,4,1,45.124,45124,-0.2800,0.0500,9.9200,9.9241,0.0011,-0.0033,0.0044,1.44,-0.56,344.88,-0.3761,0.0671,9.8819,9.8893
3,15,2,4,1,45.255,45255,-0.3300,0.0400,9.8300,9.8356,0.0055,0.0033,-0.0044,1.44,-0.50,344.88,-0.3700,0.0635,9.8751,9.8822
3,15,2,4,1,45.386,45386,-0.2900,0.0500,9.7400,9.7444,0.0000,0.0033,-0.0011,1.50,-0.44,344.88,-0.3595,0.0617,9.8573,9.8640
3,15,2,4,1,45.517,45517,-0.3600,0.0700,9.7600,9.7669,0.0011,0.0011,0.0000,1.50,-0.38,344.88,-0.3595,0.0628,9.8445,9.8512
3,15,2,4,1,45.649,45649,-0.3300,0.0400,9.7300,9.7357,-0.0022,-0.0011,0.0044,1.50,-0.31,344.88,-0.3556,0.0598,9.8294,9.8360
3,15,2,4,1,45.783,45783,-0.3200,0.0700,9.7600,9.7655,0.0022,0.0000,0.0000,1.56,-0.31,344.88,-0.3510,0.0612,9.8202,9.8267
3,15,2,4,1,45.914,45914,-0.3400,0.0800,9.6700,9.6763,0.0011,0.0000,0.0000,1.56,-0.25,344.88,-0.3495,0.0636,9.8004,9.8069
3,15,2,4,1,46.044,46044,-0.3600,0.0600,9.7500,9.7568,0.0055,-0.0022,-0.0022,1.56,-0.25,344.88,-0.3509,0.0632,9.7938,9.8003
