participant,rep,equipment_code,exercise_code,quality_code,timestamp,timestamp_ms,accelX,accelY,accelZ,accelMag,gyroX,gyroY,gyroZ,roll,pitch,yaw,filteredX,filteredY,filteredZ,filteredMag
11,1,2,4,1,00.000,0,-0.3200,-0.4000,9.8000,9.8134,-0.0011,0.0022,0.0000,1.69,-2.31,103.50,-0.2762,-0.3867,9.7798,9.7914
11,1,2,4,1,00.130,130,-0.3100,-0.4100,9.7900,9.8035,0.0000,-0.0011,0.0022,1.69,-2.31,103.50,-0.2806,-0.3897,9.7812,9.7930
11,1,2,4,1,00.260,260,-0.2500,-0.3900,9.7300,9.7410,0.0011,-0.0022,0.0000,1.69,-2.31,103.50,-0.2766,-0.3898,9.7744,9.7861
11,1,2,4,1,00.390,390,-0.2600,-0.3900,9.7800,9.7912,0.0000,0.0000,0.0044,1.69,-2.31,103.50,-0.2744,-0.3898,9.7752,9.7868
11,1,2,4,1,00.520,520,-0.2800,-0.3600,9.8000,9.8106,0.0000,0.0033,0.0022,1.69,-2.31,103.50,-0.2752,-0.3859,9.7784,9.7899
11,1,2,4,1,00.693,693,-0.2000,-0.3400,9.6800,9.6880,0.0055,0.0076,0.0022,1.56,-2.31,103.50,-0.2653,-0.3798,9.7655,9.7765
11,1,2,4,1,00.824,824,-0.2500,-0.4200,9.8300,9.8421,-0.0033,-0.0065,0.0000,1.56,-2.31,103.50,-0.2632,-0.3851,9.7740,9.7851
11,1,2,4,1,00.960,960,-0.4100,-0.3600,11.5100,11.5229,0.0055,0.0164,0.0065,1.56,-2.31,103.50,-0.2826,-0.3818,10.0027,10.0140
11,1,2,4,1,01.090,1090,-0.2900,-0.2500,14.2100,14.2152,-0.0295,-0.0404,-0.0196,1.56,-2.31,103.50,-0.2836,-0.3644,10.5571,10.5672
11,1,2,4,1,01.222,1222,-0.7400,-0.3900,12.9700,12.9969,-0.0338,-0.0207,-0.0055,1.63,-2.31,103.63,-0.3437,-0.3678,10.8751,10.8867
11,1,2,4,1,01.352,1352,-0.2400,-0.2400,9.9300,9.9358,-0.0218,-0.0251,-0.0218,1.56,-2.38,103.44,-0.3300,-0.3510,10.7506,10.7613
11,1,2,4,1,01.483,1483,-0.4300,-0.5700,6.0000,6.0423,0.0055,0.0055,0.0273,1.69,-2.38,103.63,-0.3432,-0.3798,10.1246,10.1375
11,1,2,4,1,01.613,1613,-0.1700,0.1000,4.5200,4.5243,-0.0120,0.0022,-0.0196,1.69,-2.31,103.44,-0.3204,-0.3166,9.3860,9.3968
11,1,2,4,1,01.786,1786,-0.4200,-0.4500,6.8700,6.8975,-0.0055,-0.0185,-0.0022,1.69,-2.31,103.50,-0.3335,-0.3342,9.0545,9.0668
11,1,2,4,1,01.916,1916,-0.0600,-0.0400,8.9000,8.9003,0.0033,-0.0164,-0.0076,1.69,-2.31,103.56,-0.2975,-0.2954,9.0341,9.0438
11,2,2,4,1,02.047,2047,-0.1000,-0.5200,10.4700,10.4834,0.0065,0.0076,-0.0044,1.75,-2.31,103.56,-0.2714,-0.3250,9.2233,9.2330
11,2,2,4,1,02.180,2180,-0.5000,-0.1900,10.3600,10.3738,-0.0022,0.0011,-0.0153,1.69,-2.38,103.56,-0.3016,-0.3072,9.3731,9.3830
11,2,2,4,1,02.315,2315,-0.4000,-0.4000,10.4400,10.4553,-0.0065,-0.0011,0.0076,1.69,-2.31,103.50,-0.3145,-0.3194,9.5137,9.5243
11,2,2,4,1,02.445,2445,-0.3800,-0.2800,10.0300,10.0411,0.0044,0.0098,-0.0022,1.69,-2.38,103.50,-0.3232,-0.3142,9.5817,9.5923
11,2,2,4,1,02.576,2576,-0.2100,-0.3800,10.0700,10.0794,-0.0044,-0.0055,-0.0011,1.69,-2.38,103.50,-0.3083,-0.3229,9.6461,9.6564
11,2,2,4,1,02.706,2706,-0.4400,-0.4400,9.9600,9.9794,-0.0022,-0.0022,0.0044,1.69,-2.31,103.50,-0.3256,-0.3383,9.6874,9.6988
11,2,2,4,1,02.879,2879,-0.3200,-0.6000,9.7900,9.8136,0.0120,-0.0044,0.0120,1.69,-2.38,103.50,-0.3249,-0.3728,9.7010,9.7136
11,2,2,4,1,03.009,3009,-0.3400,-1.3900,9.8900,9.9930,0.0251,-0.0076,-0.0109,1.75,-2.44,103.50,-0.3269,-0.5069,9.7259,9.7446
11,2,2,4,1,03.140,3140,-0.1100,-0.5800,9.8600,9.8777,0.0207,0.0218,0.0175,1.69,-2.44,103.50,-0.2983,-0.5165,9.7435,9.7618
11,2,2,4,1,03.270,3270,-0.2900,-0.5000,9.9300,9.9468,-0.0098,-0.0044,0.0109,1.63,-2.44,103.50,-0.2972,-0.5143,9.7681,9.7862
11,2,2,4,1,03.400,3400,-0.2400,-0.3500,10.4300,10.4386,0.0000,0.0033,0.0087,1.63,-2.44,103.44,-0.2897,-0.4927,9.8553,9.8719
11,2,2,4,1,03.530,3530,-0.2600,-0.4700,10.4000,10.4139,0.0000,0.0033,-0.0022,1.63,-2.44,103.50,-0.2858,-0.4897,9.9271,9.9433
11,2,2,4,1,03.660,3660,-0.3300,-0.3200,9.9400,9.9506,0.0022,0.0065,-0.0164,1.63,-2.44,103.44,-0.2916,-0.4673,9.9288,9.9441
11,2,2,4,1,03.790,3790,-0.3400,-0.3900,12.1600,12.1710,0.0065,0.0229,0.0185,1.50,-2.38,103.50,-0.2980,-0.4571,10.2228,10.2374
11,2,2,4,1,03.968,3968,0.0500,-0.7900,13.5000,13.5232,0.0240,-0.0076,0.0175,1.56,-2.38,103.44,-0.2521,-0.5010,10.6547,10.6694
11,2,2,4,1,04.098,4098,-0.1400,-0.9000,11.7600,11.7952,0.0873,0.0327,-0.0033,1.56,-2.44,103.56,-0.2373,-0.5536,10.8003,10.8171
11,2,2,4,1,04.230,4230,-0.0200,-0.5700,8.3700,8.3894,-0.0142,-0.0218,0.0611,1.69,-2.38,103.44,-0.2087,-0.5557,10.4801,10.4969
11,2,2,4,1,04.361,4361,-0.1300,-0.5000,5.5700,5.5939,-0.0349,0.0011,-0.0567,1.63,-2.38,103.56,-0.1983,-0.5484,9.8330,9.8503
11,2,2,4,1,04.491,4491,-0.3200,-0.0300,5.0700,5.0802,-0.0305,-0.0076,0.0327,1.63,-2.31,103.50,-0.2144,-0.4801,9.2054,9.2204
11,2,2,4,1,04.621,4621,-0.9600,-0.6600,6.7000,6.8005,0.0218,-0.0109,0.0065,1.63,-2.31,103.44,-0.3126,-0.5038,8.8753,8.8950
11,2,2,4,1,04.752,4752,-0.1800,-0.1200,7.5200,7.5231,0.0131,-0.0153,-0.0055,1.69,-2.31,103.44,-0.2951,-0.4532,8.6967,8.7135
11,3,2,4,1,04.882,4882,-0.1900,-0.5200,9.5900,9.6060,0.0153,0.0131,-0.0153,1.75,-2.31,103.50,-0.2813,-0.4620,8.8144,8.8310
11,3,2,4,1,05.055,5055,-0.2500,-0.4200,11.2300,11.2406,0.0120,0.0109,0.0022,1.69,-2.38,103.38,-0.2772,-0.4565,9.1327,9.1483
11,3,2,4,1,05.189,5189,-0.2600,-0.4300,10.8800,10.8916,-0.0044,0.0011,0.0044,1.69,-2.38,103.38,-0.2749,-0.4530,9.3629,9.3779
11,3,2,4,1,05.323,5323,-0.3200,-0.3600,10.5400,10.5510,-0.0055,-0.0109,-0.0153,1.69,-2.38,103.44,-0.2808,-0.4407,9.5181,9.5324
11,3,2,4,1,05.453,5453,-0.3200,0.4600,10.4000,10.4151,-0.0447,-0.0011,0.0055,1.69,-2.38,103.50,-0.2860,-0.3220,9.6343,9.6439
11,3,2,4,1,05.584,5584,-0.2300,-0.4500,10.0300,10.0427,-0.0044,-0.0055,0.0142,1.69,-2.38,103.44,-0.2786,-0.3389,9.6864,9.6963
11,3,2,4,1,05.714,5714,-0.3200,-0.7200,9.7800,9.8117,-0.0011,0.0109,0.0109,1.69,-2.44,103.38,-0.2841,-0.3891,9.6988,9.7107
11,3,2,4,1,05.845,5845,-0.2900,-0.4600,9.7000,9.7152,0.0033,0.0044,-0.0033,1.63,-2.38,103.44,-0.2849,-0.3985,9.6989,9.7113
11,3,2,4,1,05.975,5975,-0.3300,-0.3400,10.1800,10.1910,0.0033,-0.0022,-0.0120,1.63,-2.38,103.38,-0.2908,-0.3908,9.7623,9.7745
11,3,2,4,1,06.148,6148,-0.2800,-0.3700,10.7200,10.7300,0.0022,0.0142,-0.0098,1.56,-2.38,103.38,-0.2894,-0.3880,9.8885,9.9003
11,3,2,4,1,06.278,6278,-0.1400,-0.4100,9.7400,9.7496,0.0011,0.0033,-0.0076,1.56,-2.38,103.38,-0.2697,-0.3909,9.8689,9.8804
11,3,2,4,1,06.412,6412,-0.3100,-0.4700,10.0200,10.0358,0.0033,0.0055,0.0044,1.56,-2.44,103.38,-0.2750,-0.4013,9.8888,9.9008
11,3,2,4,1,06.546,6546,-0.2400,-0.4300,10.8400,10.8512,-0.0055,0.0022,0.0087,1.50,-2.44,103.44,-0.2704,-0.4051,10.0142,10.0260
11,3,2,4,1,06.677,6677,-0.3200,-0.5600,13.3100,13.3256,-0.0196,-0.0033,0.0033,1.56,-2.44,103.38,-0.2769,-0.4255,10.4485,10.4608
11,3,2,4,1,06.807,6807,-0.5100,-0.4300,12.9100,12.9272,0.0185,-0.0022,0.0185,1.56,-2.44,103.44,-0.3076,-0.4261,10.7729,10.7857
11,3,2,4,1,06.937,6937,-0.1200,-0.1600,11.6500,11.6517,-0.0044,-0.0153,-0.0622,1.56,-2.50,103.31,-0.2829,-0.3910,10.8884,10.8991
11,3,2,4,1,07.068,7068,-0.7200,-1.0700,8.4900,8.5874,0.0240,-0.0491,0.0851,1.69,-2.50,103.38,-0.3405,-0.4805,10.5724,10.5888
11,3,2,4,1,07.241,7241,-0.2700,-0.0900,4.2600,4.2695,0.0055,-0.0022,-0.0229,1.63,-2.44,103.25,-0.3312,-0.4291,9.7406,9.7556
11,3,2,4,1,07.376,7376,-0.0600,-0.5700,5.2900,5.3210,0.0022,-0.0109,-0.0207,1.69,-2.38,103.38,-0.2955,-0.4476,9.1541,9.1698
11,3,2,4,1,07.507,7507,-0.2000,-0.2200,6.6900,6.6966,-0.0022,-0.0284,0.0218,1.75,-2.38,103.38,-0.2829,-0.4176,8.8294,8.8438
11,3,2,4,1,07.639,7639,-0.4900,-0.3100,8.7200,8.7393,0.0153,0.0000,0.0076,1.75,-2.38,103.38,-0.3102,-0.4035,8.8150,8.8297
11,4,2,4,1,07.770,7770,-0.1300,-0.6100,11.3000,11.3172,0.0098,0.0131,0.0000,1.75,-2.44,103.31,-0.2864,-0.4307,9.1424,9.1571
11,4,2,4,1,07.900,7900,0.0000,-0.2700,11.1100,11.1133,0.0098,0.0164,-0.0142,1.69,-2.44,103.31,-0.2487,-0.4095,9.4017,9.4139
11,4,2,4,1,08.030,8030,-0.4700,-0.9900,11.1000,11.1540,-0.0011,0.0153,0.0185,1.69,-2.44,103.38,-0.2779,-0.4860,9.6255,9.6418
11,4,2,4,1,08.161,8161,-0.2700,-0.3600,10.5000,10.5096,-0.0087,-0.0142,0.0076,1.75,-2.38,103.31,-0.2768,-0.4694,9.7407,9.7560
11,4,2,4,1,08.334,8334,-0.1200,-0.5600,9.8500,9.8666,0.0000,0.0065,0.0153,1.75,-2.38,103.38,-0.2562,-0.4813,9.7551,9.7704
11,4,2,4,1,08.465,8465,-0.1500,-0.5800,9.4600,9.4790,0.0196,0.0087,0.0022,1.75,-2.38,103.31,-0.2422,-0.4943,9.7162,9.7318
11,4,2,4,1,08.601,8601,-0.3000,-0.5300,9.6800,9.6991,-0.0033,-0.0011,0.0000,1.75,-2.44,103.31,-0.2498,-0.4990,9.7115,9.7275
11,4,2,4,1,08.732,8732,-0.4400,-0.4800,10.1800,10.2008,0.0055,0.0207,-0.0044,1.69,-2.50,103.31,-0.2749,-0.4965,9.7732,9.7897
11,4,2,4,1,08.862,8862,-0.3300,-0.3800,10.2900,10.3023,0.0000,0.0033,-0.0022,1.69,-2.50,103.31,-0.2821,-0.4812,9.8413,9.8571
11,4,2,4,1,08.993,8993,-0.2300,-0.5000,9.9000,9.9153,0.0044,0.0000,0.0033,1.69,-2.50,103.31,-0.2753,-0.4837,9.8490,9.8648
11,4,2,4,1,09.123,9123,-0.2500,-0.4600,9.9000,9.9138,0.0011,-0.0011,0.0011,1.69,-2.50,103.31,-0.2719,-0.4805,9.8558,9.8712
11,4,2,4,1,09.254,9254,-0.2500,-0.3800,10.0500,10.0603,0.0011,0.0011,-0.0022,1.69,-2.44,103.31,-0.2690,-0.4673,9.8814,9.8961
11,4,2,4,1,09.426,9426,-0.3400,-0.2700,10.6900,10.6988,0.0109,0.0316,0.0109,1.63,-2.44,103.38,-0.2784,-0.4413,9.9879,10.0015
11,4,2,4,1,09.556,9556,-0.1200,-0.5300,11.9200,11.9324,-0.0349,-0.0349,0.0065,1.56,-2.44,103.38,-0.2575,-0.4530,10.2425,10.2558
11,4,2,4,1,09.686,9686,-0.5700,-0.3500,12.3500,12.3681,-0.0327,-0.0371,-0.0164,1.63,-2.44,103.38,-0.2987,-0.4394,10.5202,10.5336
11,4,2,4,1,09.816,9816,-0.2500,-0.4500,12.2500,12.2608,-0.0065,-0.0044,0.0120,1.63,-2.44,103.38,-0.2923,-0.4408,10.7482,10.7612
11,4,2,4,1,09.946,9946,0.0100,-0.5300,10.5500,10.5633,0.0284,-0.0087,-0.0076,1.63,-2.44,103.31,-0.2524,-0.4526,10.7221,10.7346
11,4,2,4,1,10.076,10076,-0.0400,-0.3400,7.3800,7.3879,0.0087,0.0131,0.0175,1.75,-2.38,103.38,-0.2244,-0.4377,10.2817,10.2934
11,4,2,4,1,10.206,10206,-0.2700,-0.3200,5.0500,5.0673,0.0076,0.0109,-0.0087,1.75,-2.38,103.31,-0.2305,-0.4222,9.5923,9.6043
11,4,2,4,1,10.336,10336,-0.3400,-0.4900,5.8400,5.8704,-0.0131,-0.0044,0.0055,1.69,-2.38,103.31,-0.2449,-0.4311,9.0978,9.1113
11,4,2,4,1,10.509,10509,-0.2000,-0.3900,8.8300,8.8409,-0.0065,-0.0196,0.0087,1.81,-2.31,103.38,-0.2390,-0.4257,9.0625,9.0757
11,5,2,4,1,10.639,10639,-0.3400,-0.2000,10.2500,10.2576,-0.0033,-0.0044,-0.0196,1.81,-2.31,103.38,-0.2523,-0.3960,9.2190,9.2309
11,5,2,4,1,10.770,10770,-0.0400,-0.3500,10.4600,10.4659,-0.0120,-0.0011,-0.0065,1.81,-2.31,103.31,-0.2243,-0.3899,9.3825,9.3933
11,5,2,4,1,10.904,10904,-0.3300,-0.4600,9.6900,9.7065,-0.0033,-0.0087,-0.0185,1.75,-2.38,103.25,-0.2382,-0.3992,9.4230,9.4345
11,5,2,4,1,11.038,11038,-0.0400,-0.3100,9.7800,9.7850,-0.0033,0.0131,0.0022,1.75,-2.38,103.31,-0.2121,-0.3874,9.4701,9.4804
11,5,2,4,1,11.169,11169,-0.1800,-0.4600,9.8900,9.9023,-0.0022,0.0000,0.0175,1.69,-2.38,103.25,-0.2079,-0.3970,9.5254,9.5360
11,5,2,4,1,11.299,11299,-0.3200,-0.3200,9.9700,9.9803,-0.0076,-0.0055,-0.0055,1.69,-2.38,103.31,-0.2227,-0.3868,9.5840,9.5944
11,5,2,4,1,11.429,11429,-0.0500,-1.1900,9.8200,9.8920,0.0164,-0.0044,-0.0065,1.69,-2.38,103.31,-0.1999,-0.4927,9.6151,9.6298
11,5,2,4,1,11.602,11602,-0.2900,-0.3000,9.9800,9.9887,-0.0044,-0.0055,-0.0076,1.69,-2.38,103.31,-0.2118,-0.4673,9.6632,9.6768
11,5,2,4,1,11.732,11732,-0.3500,-0.1600,9.7100,9.7176,0.0033,0.0076,0.0022,1.69,-2.38,103.25,-0.2300,-0.4268,9.6694,9.6815
11,5,2,4,1,11.863,11863,-0.2400,-0.3200,10.0700,10.0779,-0.0044,-0.0033,0.0055,1.69,-2.44,103.25,-0.2313,-0.4127,9.7221,9.7337
11,5,2,4,1,11.993,11993,-0.2200,-0.0500,10.7000,10.7024,-0.0065,-0.0033,-0.0207,1.69,-2.44,103.25,-0.2298,-0.3649,9.8510,9.8604
11,5,2,4,1,12.124,12124,-0.4000,-0.4100,10.6100,10.6255,0.0087,0.0044,-0.0142,1.63,-2.44,103.25,-0.2522,-0.3709,9.9510,9.9611
11,5,2,4,1,12.257,12257,-0.4000,-0.3000,9.7600,9.7728,0.0033,-0.0011,-0.0098,1.63,-2.44,103.25,-0.2717,-0.3615,9.9258,9.9361
11,5,2,4,1,12.391,12391,-0.3400,-0.4000,11.2900,11.3022,0.0098,0.0207,0.0120,1.63,-2.44,103.25,-0.2807,-0.3666,10.1056,10.1162
11,5,2,4,1,12.521,12521,-0.0300,-0.5200,13.6700,13.6799,-0.0207,-0.0240,-0.0120,1.50,-2.44,103.25,-0.2477,-0.3868,10.5753,10.5853
11,5,2,4,1,12.694,12694,-0.4100,-0.6100,11.5900,11.6133,0.0175,0.0065,-0.0349,1.69,-2.38,103.31,-0.2691,-0.4162,10.7090,10.7205
11,5,2,4,1,12.825,12825,-0.3200,-0.1600,10.2200,10.2263,0.0065,0.0000,0.0175,1.63,-2.50,103.19,-0.2758,-0.3825,10.6446,10.6550
11,5,2,4,1,12.959,12959,-0.2900,-0.3600,7.7900,7.8037,-0.0327,-0.0196,-0.0033,1.75,-2.38,103.31,-0.2777,-0.3795,10.2684,10.2792
11,5,2,4,1,13.093,13093,-0.2300,-0.2400,5.2300,5.2406,-0.0120,0.0011,0.0076,1.75,-2.38,103.25,-0.2714,-0.3611,9.6045,9.6151
11,5,2,4,1,13.224,13224,0.1000,-0.5100,4.5400,4.5696,-0.0120,-0.0196,0.0022,1.69,-2.38,103.19,-0.2224,-0.3807,8.9371,8.9480
11,5,2,4,1,13.354,13354,-0.3700,-0.3100,7.2200,7.2361,-0.0120,-0.0218,-0.0087,1.75,-2.38,103.19,-0.2419,-0.3714,8.7108,8.7221
11,6,2,4,1,13.484,13484,-0.2100,-0.3700,9.8800,9.8892,0.0109,-0.0033,0.0153,1.88,-2.38,103.31,-0.2377,-0.3712,8.8649,8.8759
11,6,2,4,1,13.615,13615,-0.1500,-0.3400,11.2700,11.2761,0.0055,0.0098,0.0044,1.81,-2.38,103.19,-0.2261,-0.3671,9.1818,9.1920
11,6,2,4,1,13.789,13789,-0.4400,-0.4900,10.4500,10.4707,-0.0011,-0.0022,-0.0087,1.81,-2.38,103.19,-0.2543,-0.3833,9.3489,9.3603
11,6,2,4,1,13.920,13920,-0.4100,-0.5300,9.7700,9.7930,0.0065,0.0087,-0.0011,1.75,-2.38,103.19,-0.2748,-0.4026,9.4044,9.4171
11,6,2,4,1,14.055,14055,-0.2200,-0.5500,9.5900,9.6083,-0.0065,0.0022,0.0076,1.75,-2.38,103.19,-0.2676,-0.4221,9.4289,9.4421
11,6,2,4,1,14.186,14186,-0.4300,-0.3100,9.8800,9.8942,-0.0044,0.0044,0.0022,1.75,-2.38,103.19,-0.2890,-0.4073,9.4883,9.5015
11,6,2,4,1,14.317,14317,-0.1500,-0.5200,9.6700,9.6851,-0.0153,-0.0109,-0.0022,1.75,-2.38,103.25,-0.2707,-0.4221,9.5123,9.5255
11,6,2,4,1,14.447,14447,-0.3200,-0.3600,9.9900,10.0016,-0.0087,-0.0022,-0.0098,1.75,-2.38,103.19,-0.2772,-0.4140,9.5752,9.5882
11,6,2,4,1,14.577,14577,-0.4100,0.2700,10.1200,10.1319,0.0185,0.0022,-0.0076,1.81,-2.38,103.19,-0.2947,-0.3238,9.6470,9.6569
11,6,2,4,1,14.708,14708,-0.3000,-0.3400,10.0100,10.0203,0.0076,0.0055,0.0098,1.81,-2.38,103.19,-0.2954,-0.3260,9.6948,9.7048
11,6,2,4,1,14.880,14880,-0.2900,-0.4300,10.2400,10.2531,0.0000,-0.0065,-0.0022,1.81,-2.44,103.19,-0.2947,-0.3397,9.7667,9.7770
11,6,2,4,1,15.010,15010,-0.4100,-0.4700,10.7700,10.7880,0.0109,0.0153,0.0098,1.75,-2.44,103.19,-0.3099,-0.3568,9.8989,9.9102
11,6,2,4,1,15.140,15140,-0.3700,-0.3700,10.1400,10.1535,0.0022,-0.0033,-0.0142,1.75,-2.44,103.19,-0.3178,-0.3586,9.9307,9.9422
11,6,2,4,1,15.270,15270,-0.3100,-0.3800,11.4300,11.4405,0.0164,0.0142,0.0044,1.63,-2.44,103.19,-0.3168,-0.3614,10.1282,10.1396
11,6,2,4,1,15.400,15400,-0.5100,-0.3200,12.9600,12.9740,-0.0371,-0.0611,-0.0109,1.69,-2.38,103.19,-0.3422,-0.3559,10.5014,10.5130
11,6,2,4,1,15.530,15530,-0.1300,-0.3500,11.9400,11.9458,0.0305,0.0262,0.0251,1.69,-2.38,103.19,-0.3143,-0.3552,10.6910,10.7015
11,6,2,4,1,15.660,15660,-0.1500,-0.3300,11.0100,11.0160,-0.0196,-0.0033,-0.0065,1.63,-2.50,103.19,-0.2926,-0.3518,10.7330,10.7428
11,6,2,4,1,15.791,15791,0.0500,-0.6300,9.1200,9.1419,-0.0273,-0.0360,0.0044,1.75,-2.44,103.19,-0.2475,-0.3885,10.5205,10.5305
11,6,2,4,1,15.963,15963,-0.2900,-0.4700,4.9500,4.9807,0.0153,0.0153,-0.0262,1.75,-2.44,103.19,-0.2531,-0.3992,9.7864,9.7978
11,6,2,4,1,16.094,16094,-0.1800,-0.5900,5.1200,5.1570,0.0164,-0.0011,0.0142,1.69,-2.44,103.19,-0.2434,-0.4244,9.1715,9.1845
11,6,2,4,1,16.225,16225,-0.1400,-0.2400,7.3900,7.3952,-0.0098,-0.0185,-0.0065,1.81,-2.31,103.19,-0.2298,-0.4001,8.9367,8.9486
11,7,2,4,1,16.356,16356,-0.1200,-0.6100,9.5600,9.5802,0.0076,0.0120,-0.0109,1.88,-2.38,103.31,-0.2153,-0.4277,9.0189,9.0316
11,7,2,4,1,16.491,16491,-0.4700,-0.3900,11.1900,11.2067,-0.0033,-0.0033,0.0087,1.81,-2.38,103.25,-0.2489,-0.4228,9.3050,9.3179
11,7,2,4,1,16.623,16623,-0.4300,-0.3100,11.1100,11.1226,-0.0055,-0.0033,-0.0055,1.81,-2.44,103.19,-0.2728,-0.4079,9.5428,9.5554
11,7,2,4,1,16.753,16753,-0.4500,-0.3600,10.1100,10.1264,-0.0011,0.0207,-0.0175,1.81,-2.44,103.19,-0.2961,-0.4016,9.6176,9.6305
11,7,2,4,1,16.884,16884,-0.3300,-0.4400,9.3900,9.4061,-0.0011,-0.0022,0.0262,1.75,-2.44,103.19,-0.3006,-0.4067,9.5876,9.6009
11,7,2,4,1,17.057,17057,-0.4500,-0.3300,9.9700,9.9856,-0.0011,0.0065,0.0098,1.75,-2.44,103.19,-0.3203,-0.3966,9.6380,9.6514
11,7,2,4,1,17.188,17188,-0.2700,-0.2700,9.9000,9.9074,-0.0087,-0.0087,-0.0175,1.75,-2.38,103.19,-0.3136,-0.3799,9.6725,9.6850
11,7,2,4,1,17.322,17322,-0.3200,-0.3900,10.0000,10.0127,-0.0065,0.0087,-0.0022,1.75,-2.38,103.25,-0.3145,-0.3812,9.7157,9.7282
11,7,2,4,1,17.455,17455,-0.2700,-0.5800,10.1700,10.1901,0.0360,-0.0044,0.0055,1.75,-2.44,103.19,-0.3086,-0.4074,9.7755,9.7889
11,7,2,4,1,17.585,17585,-0.3100,-0.1300,9.8800,9.8857,0.0131,0.0087,0.0120,1.75,-2.44,103.19,-0.3088,-0.3709,9.7893,9.8012
11,7,2,4,1,17.716,17716,-0.2200,-0.2800,9.9300,9.9364,-0.0044,-0.0011,-0.0065,1.75,-2.44,103.19,-0.2971,-0.3589,9.8078,9.8189
11,7,2,4,1,17.846,17846,-0.3100,-0.4300,10.0400,10.0540,0.0011,0.0011,-0.0044,1.75,-2.44,103.19,-0.2988,-0.3683,9.8384,9.8499
11,7,2,4,1,17.977,17977,-0.3100,-0.4200,10.8400,10.8526,0.0000,0.0022,0.0011,1.75,-2.44,103.19,-0.3003,-0.3751,9.9704,9.9820
11,7,2,4,1,18.149,18149,-0.2500,-0.4700,10.1500,10.1640,0.0207,0.0349,0.0044,1.63,-2.50,103.19,-0.2937,-0.3876,9.9941,10.0059
11,7,2,4,1,18.279,18279,-0.1900,-0.3300,12.4400,12.4458,0.0240,0.0022,-0.0098,1.63,-2.44,103.19,-0.2800,-0.3800,10.3164,10.3272
11,7,2,4,1,18.409,18409,0.1800,-0.7300,11.9100,11.9337,0.0295,0.0273,0.0153,1.75,-2.44,103.19,-0.2194,-0.4261,10.5264,10.5373
11,7,2,4,1,18.539,18539,-0.2000,-0.1900,12.1900,12.1931,0.0305,0.0120,0.0207,1.75,-2.44,103.19,-0.2168,-0.3950,10.7456,10.7550
11,7,2,4,1,18.669,18669,-0.1800,-0.5800,10.5800,10.5974,-0.0011,-0.0076,-0.0196,1.69,-2.50,103.13,-0.2120,-0.4194,10.7238,10.7341
11,7,2,4,1,18.799,18799,0.0400,-0.4200,7.8400,7.8513,-0.0022,-0.0033,0.0218,1.88,-2.38,103.25,-0.1788,-0.4195,10.3438,10.3538
11,7,2,4,1,18.929,18929,-0.3400,-0.3900,5.7000,5.7234,-0.0076,0.0044,-0.0011,1.81,-2.44,103.19,-0.2000,-0.4156,9.7318,9.7428
11,7,2,4,1,19.060,19060,0.2200,-0.1900,5.1000,5.1083,0.0011,0.0055,-0.0022,1.81,-2.44,103.19,-0.1447,-0.3859,9.1215,9.1308
11,7,2,4,1,19.233,19233,-0.2600,-0.2200,7.5100,7.5177,-0.0055,-0.0153,0.0262,1.94,-2.31,103.19,-0.1599,-0.3640,8.9091,8.9180
11,8,2,4,1,19.363,19363,-0.1000,-0.3300,9.6800,9.6861,0.0033,-0.0022,-0.0229,1.94,-2.38,103.19,-0.1520,-0.3595,9.0107,9.0192
11,8,2,4,1,19.498,19498,-0.1600,-0.4200,11.5200,11.5288,0.0044,0.0076,-0.0131,1.88,-2.38,103.19,-0.1530,-0.3675,9.3414,9.3499
11,8,2,4,1,19.631,19631,-0.2300,-0.4200,10.8600,10.8706,0.0000,0.0131,0.0022,1.88,-2.38,103.13,-0.1632,-0.3744,9.5415,9.5502
11,8,2,4,1,19.761,19761,-0.1800,-0.4100,9.9700,9.9801,-0.0055,-0.0044,-0.0011,1.88,-2.38,103.13,-0.1654,-0.3791,9.5980,9.6069
11,8,2,4,1,19.892,19892,-0.1700,-0.3600,9.7100,9.7182,-0.0022,0.0022,-0.0033,1.88,-2.38,103.13,-0.1660,-0.3766,9.6127,9.6215
11,8,2,4,1,20.022,20022,-0.1200,-0.4100,9.6700,9.6794,-0.0022,0.0033,0.0076,1.88,-2.38,103.19,-0.1599,-0.3810,9.6203,9.6291
11,8,2,4,1,20.152,20152,-0.2700,-0.1800,9.8700,9.8753,0.0022,-0.0044,0.0011,1.88,-2.38,103.19,-0.1744,-0.3545,9.6532,9.6613
11,8,2,4,1,20.325,20325,-0.3800,-0.7700,9.7600,9.7977,0.0229,0.0000,-0.0076,1.88,-2.44,103.19,-0.2015,-0.4093,9.6673,9.6780
11,8,2,4,1,20.455,20455,-0.2400,-0.3500,10.1900,10.1988,-0.0011,0.0055,-0.0033,1.81,-2.44,103.19,-0.2066,-0.4014,9.7361,9.7466
11,8,2,4,1,20.586,20586,-0.1900,-0.5000,9.9100,9.9244,0.0098,-0.0044,0.0164,1.81,-2.44,103.13,-0.2044,-0.4144,9.7590,9.7700
11,8,2,4,1,20.716,20716,-0.2300,-0.3400,10.2500,10.2582,-0.0011,0.0153,-0.0011,1.81,-2.44,103.13,-0.2078,-0.4046,9.8237,9.8343
11,8,2,4,1,20.846,20846,-0.2700,-0.4200,10.8800,10.8915,0.0065,0.0076,-0.0044,1.75,-2.44,103.13,-0.2160,-0.4066,9.9629,9.9736
11,8,2,4,1,20.977,20977,-0.2600,-0.3100,10.1100,10.1181,0.0164,0.0175,0.0044,1.75,-2.44,103.13,-0.2218,-0.3939,9.9823,9.9925
11,8,2,4,1,21.107,21107,-0.2800,-0.4500,11.7400,11.7520,0.0087,0.0109,-0.0033,1.69,-2.44,103.13,-0.2295,-0.4013,10.2139,10.2244
11,8,2,4,1,21.238,21238,-0.4900,-0.4500,12.0200,12.0384,0.0131,-0.0175,-0.0044,1.75,-2.38,103.13,-0.2638,-0.4077,10.4519,10.4632
11,8,2,4,1,21.415,21415,0.0000,-0.4100,11.6000,11.6072,0.0327,0.0262,-0.0022,1.75,-2.44,103.19,-0.2290,-0.4080,10.6032,10.6135
11,8,2,4,1,21.546,21546,-0.3800,-0.5500,10.3900,10.4115,-0.0218,-0.0175,-0.0044,1.69,-2.50,103.06,-0.2489,-0.4267,10.5751,10.5866
11,8,2,4,1,21.676,21676,-0.1200,-0.5200,8.7200,8.7363,-0.0164,-0.0142,0.0022,1.81,-2.38,103.13,-0.2319,-0.4390,10.3307,10.3426
11,8,2,4,1,21.807,21807,-0.3100,-0.3300,6.4200,6.4359,-0.0262,-0.0011,-0.0076,1.81,-2.38,103.13,-0.2422,-0.4247,9.8153,9.8275
11,8,2,4,1,21.938,21938,-0.2200,-0.2900,4.6800,4.6941,0.0055,0.0087,0.0044,1.81,-2.38,103.06,-0.2393,-0.4069,9.1386,9.1508
11,8,2,4,1,22.068,22068,-0.2400,-0.4400,6.9000,6.9182,-0.0120,-0.0120,-0.0044,1.88,-2.38,103.06,-0.2394,-0.4113,8.8436,8.8564
11,8,2,4,1,22.198,22198,-0.4000,-0.3900,8.6800,8.6980,0.0055,-0.0076,0.0076,1.88,-2.38,103.13,-0.2606,-0.4085,8.8221,8.8354
11,9,2,4,1,22.328,22328,-0.2800,-0.4100,10.5300,10.5417,0.0033,0.0153,-0.0087,1.88,-2.38,103.00,-0.2631,-0.4087,9.0471,9.0602
11,9,2,4,1,22.501,22501,-0.4600,-0.5100,10.7000,10.7220,0.0109,0.0120,-0.0044,1.81,-2.38,103.06,-0.2891,-0.4220,9.2649,9.2790
11,9,2,4,1,22.631,22631,-0.2400,-0.3800,10.9300,10.9392,-0.0065,-0.0164,-0.0033,1.81,-2.38,103.13,-0.2826,-0.4165,9.4844,9.4977
11,9,2,4,1,22.761,22761,-0.2900,-0.3500,10.7800,10.7896,-0.0098,-0.0044,0.0142,1.81,-2.38,103.13,-0.2836,-0.4077,9.6551,9.6678
11,9,2,4,1,22.891,22891,-0.4300,-0.3200,10.2100,10.2241,0.0033,-0.0098,-0.0109,1.81,-2.38,103.13,-0.3029,-0.3962,9.7282,9.7410
11,9,2,4,1,23.021,23021,-0.2200,-1.0000,9.6100,9.6644,0.0055,0.0196,0.0022,1.81,-2.44,103.13,-0.2919,-0.4757,9.7126,9.7287
11,9,2,4,1,23.151,23151,-0.3600,-0.5400,9.8900,9.9113,0.0055,0.0022,0.0087,1.75,-2.44,103.13,-0.3009,-0.4842,9.7360,9.7527
11,9,2,4,1,23.281,23281,-0.1600,-0.4000,10.0800,10.0892,-0.0055,-0.0251,0.0076,1.81,-2.44,103.06,-0.2823,-0.4731,9.7813,9.7968
11,9,2,4,1,23.411,23411,-0.3200,-0.4500,10.1400,10.1550,0.0011,0.0142,-0.0044,1.81,-2.44,103.06,-0.2873,-0.4701,9.8286,9.8440
11,9,2,4,1,23.584,23584,-0.2400,-0.4300,10.0600,10.0720,-0.0044,-0.0065,0.0000,1.75,-2.44,103.06,-0.2811,-0.4648,9.8591,9.8740
11,9,2,4,1,23.714,23714,-0.3000,-0.4000,9.9800,9.9925,0.0022,-0.0044,-0.0011,1.81,-2.44,103.06,-0.2836,-0.4562,9.8750,9.8896
11,9,2,4,1,23.844,23844,-0.2300,-0.3700,11.0200,11.0286,0.0076,0.0338,0.0087,1.69,-2.38,103.06,-0.2765,-0.4449,10.0259,10.0396
11,9,2,4,1,23.974,23974,-0.3200,-0.3400,13.3200,13.3282,-0.0327,-0.0251,-0.0098,1.63,-2.44,103.13,-0.2822,-0.4311,10.4600,10.4727
11,9,2,4,1,24.104,24104,-0.6400,-0.9300,12.6100,12.6604,0.0131,-0.0295,0.0371,1.75,-2.38,103.19,-0.3294,-0.4968,10.7433,10.7598
11,9,2,4,1,24.234,24234,-0.4000,-0.2900,11.4000,11.4107,0.0142,0.0065,0.0000,1.75,-2.44,103.06,-0.3387,-0.4696,10.8298,10.8453
11,9,2,4,1,24.364,24364,0.0100,-0.4000,8.4300,8.4395,0.0338,0.0120,0.0076,1.81,-2.44,103.06,-0.2927,-0.4604,10.5136,10.5277
11,9,2,4,1,24.495,24495,-0.2200,-0.4000,5.4100,5.4292,-0.0327,0.0000,-0.0076,1.81,-2.44,103.13,-0.2832,-0.4524,9.8411,9.8555
11,9,2,4,1,24.667,24667,-0.0500,-0.6900,5.2700,5.3152,0.0142,-0.0087,0.0175,1.75,-2.38,103.00,-0.2524,-0.4837,9.2387,9.2548
11,9,2,4,1,24.798,24798,-0.2400,-0.5000,7.2000,7.2213,-0.0109,-0.0175,-0.0044,1.88,-2.38,103.00,-0.2508,-0.4859,8.9701,8.9867
11,10,2,4,1,24.928,24928,-0.2800,-0.1500,9.5500,9.5553,-0.0153,-0.0164,0.0175,1.94,-2.31,103.06,-0.2546,-0.4416,9.0465,9.0608
11,10,2,4,1,25.059,25059,-0.3100,-0.3500,10.4500,10.4605,0.0044,0.0076,0.0000,1.94,-2.31,103.00,-0.2619,-0.4295,9.2314,9.2451
11,10,2,4,1,25.190,25190,-0.2100,-0.4400,10.7400,10.7511,0.0142,0.0109,-0.0175,1.88,-2.38,102.94,-0.2551,-0.4309,9.4302,9.4435
11,10,2,4,1,25.324,25324,-0.3400,-0.4300,10.2600,10.2746,-0.0033,-0.0022,0.0142,1.81,-2.38,103.00,-0.2663,-0.4308,9.5396,9.5530
11,10,2,4,1,25.457,25457,-0.2700,-0.4600,10.3000,10.3138,-0.0033,0.0000,0.0065,1.81,-2.38,102.94,-0.2668,-0.4347,9.6398,9.6533
11,10,2,4,1,25.587,25587,-0.3100,-0.4000,10.1600,10.1726,-0.0044,-0.0109,-0.0065,1.81,-2.38,103.00,-0.2725,-0.4301,9.7083,9.7217
11,10,2,4,1,25.760,25760,-0.2600,-0.1800,9.8400,9.8451,-0.0011,-0.0044,-0.0076,1.81,-2.31,103.00,-0.2708,-0.3971,9.7257,9.7376
11,10,2,4,1,25.892,25892,-0.4300,0.0500,9.7100,9.7196,0.0033,0.0044,-0.0055,1.81,-2.38,103.00,-0.2918,-0.3382,9.7236,9.7339
11,10,2,4,1,26.028,26028,-0.2900,-0.4600,9.9800,9.9948,0.0055,0.0044,-0.0065,1.81,-2.38,103.00,-0.2916,-0.3543,9.7574,9.7682
11,10,2,4,1,26.159,26159,-0.3100,-0.4500,11.0600,11.0735,0.0065,0.0065,-0.0055,1.81,-2.38,103.00,-0.2940,-0.3669,9.9290,9.9402
11,10,2,4,1,26.289,26289,-0.3500,-0.3500,10.2400,10.2520,0.0011,0.0076,-0.0011,1.81,-2.38,103.00,-0.3014,-0.3647,9.9700,9.9812
11,10,2,4,1,26.420,26420,-0.2800,-0.4400,9.7500,9.7639,-0.0076,-0.0033,0.0087,1.75,-2.44,103.00,-0.2986,-0.3746,9.9410,9.9526
11,10,2,4,1,26.550,26550,-0.2700,-0.3300,9.7500,9.7593,0.0196,0.0087,-0.0022,1.75,-2.44,102.94,-0.2948,-0.3687,9.9159,9.9271
11,10,2,4,1,26.680,26680,-0.3000,-0.4200,10.1600,10.1731,0.0011,-0.0022,-0.0022,1.75,-2.44,103.00,-0.2955,-0.3755,9.9480,9.9595
11,10,2,4,1,26.853,26853,-0.1700,-0.4200,11.6200,11.6288,-0.0185,-0.0131,-0.0033,1.75,-2.44,103.00,-0.2789,-0.3813,10.1684,10.1793
11,10,2,4,1,26.983,26983,-0.3600,-0.4400,12.2800,12.2932,-0.0087,0.0011,0.0065,1.81,-2.38,103.00,-0.2896,-0.3891,10.4466,10.4579
11,10,2,4,1,27.114,27114,-0.1100,-0.4900,11.2600,11.2712,0.0229,0.0109,0.0033,1.81,-2.44,103.00,-0.2660,-0.4024,10.5538,10.5648
11,10,2,4,1,27.244,27244,-0.2600,-0.5400,10.5500,10.5670,0.0044,-0.0033,-0.0033,1.75,-2.50,103.00,-0.2652,-0.4205,10.5533,10.5650
11,10,2,4,1,27.375,27375,-0.2200,-0.3000,8.9400,8.9477,0.0120,-0.0011,-0.0044,1.94,-2.44,103.06,-0.2592,-0.4046,10.3407,10.3519
11,10,2,4,1,27.506,27506,-0.2800,-0.2800,6.3400,6.3524,-0.0131,0.0000,0.0044,1.94,-2.44,103.00,-0.2620,-0.3882,9.8135,9.8247
11,10,2,4,1,27.639,27639,-0.2100,-0.0600,4.8000,4.8050,0.0044,0.0185,-0.0185,1.94,-2.38,103.00,-0.2551,-0.3450,9.1529,9.1629
11,10,2,4,1,27.773,27773,-0.2700,-0.5100,7.1900,7.2131,0.0087,-0.0033,0.0065,1.94,-2.38,103.00,-0.2571,-0.3667,8.8942,8.9055
11,11,2,4,1,27.945,27945,-0.3900,-0.4600,9.3500,9.3694,-0.0044,-0.0142,-0.0044,2.00,-2.38,103.06,-0.2746,-0.3790,8.9543,8.9665
11,11,2,4,1,28.075,28075,-0.1800,-0.4200,10.3900,10.4000,0.0109,0.0142,0.0022,2.00,-2.44,103.00,-0.2621,-0.3844,9.1435,9.1553
11,11,2,4,1,28.205,28205,-0.4600,-0.5400,10.5800,10.6038,0.0055,0.0065,-0.0109,1.94,-2.44,103.00,-0.2882,-0.4049,9.3328,9.3460
11,11,2,4,1,28.335,28335,-0.2700,-0.3600,10.5300,10.5396,-0.0065,-0.0055,0.0087,1.94,-2.44,103.00,-0.2858,-0.3990,9.4905,9.5032
11,11,2,4,1,28.465,28465,-0.3500,-0.5200,10.6300,10.6485,-0.0011,-0.0022,0.0175,1.94,-2.44,103.06,-0.2943,-0.4149,9.6407,9.6541
11,11,2,4,1,28.595,28595,-0.2700,-0.2500,10.3700,10.3765,-0.0065,-0.0011,-0.0175,1.94,-2.44,103.00,-0.2911,-0.3932,9.7368,9.7491
11,11,2,4,1,28.725,28725,-0.2700,-0.2300,10.1300,10.1362,0.0022,-0.0055,-0.0044,2.00,-2.44,103.00,-0.2883,-0.3717,9.7886,9.7999
11,11,2,4,1,28.856,28856,-0.2500,-0.4600,9.7800,9.7940,0.0142,0.0076,0.0000,1.94,-2.50,103.00,-0.2832,-0.3833,9.7875,9.7991
11,11,2,4,1,29.029,29029,-0.3400,-0.5400,10.0700,10.0902,-0.0022,-0.0251,0.0000,1.94,-2.50,103.00,-0.2907,-0.4040,9.8247,9.8373
11,11,2,4,1,29.160,29160,-0.3700,-0.3000,10.0200,10.0313,0.0022,0.0055,-0.0098,1.94,-2.50,103.00,-0.3012,-0.3903,9.8504,9.8628
11,11,2,4,1,29.290,29290,-0.2900,-0.4800,10.0800,10.0956,0.0033,0.0033,0.0022,1.88,-2.50,103.00,-0.2997,-0.4021,9.8807,9.8934
11,11,2,4,1,29.423,29423,-0.3000,-0.4300,10.3200,10.3333,0.0000,-0.0131,-0.0076,1.94,-2.50,103.00,-0.2997,-0.4058,9.9386,9.9514
11,11,2,4,1,29.557,29557,-0.3900,-0.4100,10.9500,10.9646,0.0065,0.0305,-0.0022,1.88,-2.50,103.00,-0.3116,-0.4063,10.0719,10.0849
11,11,2,4,1,29.688,29688,0.0100,-0.2300,12.5500,12.5521,-0.0033,0.0022,-0.0022,1.75,-2.63,103.06,-0.2692,-0.3831,10.3984,10.4089
11,11,2,4,1,29.818,29818,-0.2600,-0.4300,11.6800,11.6908,-0.0033,-0.0142,0.0044,1.88,-2.50,103.06,-0.2680,-0.3893,10.5673,10.5779
11,11,2,4,1,29.949,29949,-0.1500,-0.5000,10.5400,10.5529,0.0185,0.0076,0.0273,1.88,-2.56,103.00,-0.2525,-0.4039,10.5637,10.5744
11,11,2,4,1,30.122,30122,-0.1300,-0.5100,8.9800,8.9954,0.0098,-0.0022,0.0229,1.94,-2.56,102.94,-0.2363,-0.4179,10.3550,10.3661
11,11,2,4,1,30.252,30252,-0.3700,-0.3300,7.4900,7.5064,0.0065,0.0109,-0.0207,2.06,-2.50,103.00,-0.2540,-0.4063,9.9775,9.9890
11,11,2,4,1,30.384,30384,-0.2200,-0.5200,5.8300,5.8573,0.0087,0.0011,-0.0011,2.00,-2.56,103.06,-0.2495,-0.4213,9.4309,9.4436
11,11,2,4,1,30.515,30515,-0.9100,0.0400,7.0000,7.0590,-0.0218,-0.0065,0.0295,2.00,-2.50,102.94,-0.3365,-0.3605,9.1106,9.1239
11,11,2,4,1,30.650,30650,-0.0800,-0.2500,7.7900,7.7944,-0.0120,-0.0142,-0.0185,2.06,-2.50,103.00,-0.3027,-0.3459,8.9366,8.9484
11,12,2,4,1,30.781,30781,-0.3200,-0.2800,9.3800,9.3896,0.0044,0.0055,-0.0175,2.06,-2.50,102.94,-0.3050,-0.3372,8.9950,9.0065
11,12,2,4,1,30.912,30912,-0.2500,-0.4300,10.6100,10.6217,0.0065,0.0033,0.0011,2.00,-2.56,102.94,-0.2977,-0.3495,9.2078,9.2193
11,12,2,4,1,31.042,31042,-0.2100,-0.2600,10.5300,10.5353,-0.0055,-0.0011,0.0000,2.00,-2.56,102.88,-0.2862,-0.3377,9.3821,9.3925
11,12,2,4,1,31.215,31215,-0.2800,0.0100,10.4400,10.4438,-0.0055,0.0120,-0.0087,2.00,-2.50,102.94,-0.2854,-0.2919,9.5215,9.5302
11,12,2,4,1,31.345,31345,-0.6100,-0.4400,10.4300,10.4571,-0.0480,-0.0065,-0.0087,2.00,-2.56,103.00,-0.3281,-0.3114,9.6412,9.6518
11,12,2,4,1,31.476,31476,-0.2900,-0.6000,10.5400,10.5610,0.0011,-0.0033,0.0087,1.94,-2.56,102.94,-0.3231,-0.3494,9.7596,9.7712
11,12,2,4,1,31.608,31608,-0.2800,-0.4500,10.3800,10.3935,0.0022,0.0022,-0.0011,1.94,-2.56,102.94,-0.3174,-0.3627,9.8414,9.8532
11,12,2,4,1,31.743,31743,-0.2000,-0.3600,10.2500,10.2583,0.0022,0.0076,0.0011,1.94,-2.50,102.94,-0.3020,-0.3623,9.8952,9.9065
11,12,2,4,1,31.874,31874,-0.3400,-0.4300,9.8800,9.8952,0.0022,-0.0022,-0.0098,1.88,-2.50,102.94,-0.3070,-0.3712,9.8932,9.9049
11,12,2,4,1,32.004,32004,-0.2800,-0.4300,10.4600,10.4726,0.0022,-0.0011,0.0000,1.88,-2.50,102.94,-0.3034,-0.3790,9.9679,9.9797
11,12,2,4,1,32.134,32134,-0.3100,-0.2100,10.8400,10.8465,0.0305,0.0338,0.0087,1.75,-2.50,102.94,-0.3043,-0.3567,10.0828,10.0937
11,12,2,4,1,32.307,32307,0.0200,-0.4500,12.1500,12.1583,0.0098,0.0142,0.0098,1.75,-2.50,102.94,-0.2616,-0.3690,10.3552,10.3651
11,12,2,4,1,32.438,32438,-0.0500,-0.5500,11.1500,11.1637,0.0229,0.0284,-0.0109,1.88,-2.44,102.94,-0.2337,-0.3929,10.4600,10.4699
11,12,2,4,1,32.569,32569,-0.1300,-0.4700,10.5100,10.5213,-0.0033,0.0055,0.0109,1.75,-2.56,103.00,-0.2200,-0.4030,10.4666,10.4766
11,12,2,4,1,32.701,32701,-0.1500,-0.4800,9.3700,9.3835,0.0044,-0.0109,0.0065,1.88,-2.44,102.88,-0.2108,-0.4132,10.3221,10.3325
11,12,2,4,1,32.836,32836,-0.3800,-0.3800,7.0100,7.0306,-0.0044,0.0055,-0.0120,1.94,-2.44,102.94,-0.2331,-0.4088,9.8856,9.8968
11,12,2,4,1,32.967,32967,-0.2000,-0.2400,5.2600,5.2693,0.0000,0.0131,-0.0142,1.88,-2.50,102.94,-0.2287,-0.3866,9.2761,9.2869
11,12,2,4,1,33.097,33097,-0.0800,-0.1200,6.3100,6.3116,-0.0338,-0.0153,0.0011,1.94,-2.44,102.94,-0.2091,-0.3514,8.8852,8.8946
11,12,2,4,1,33.227,33227,-0.2900,-0.4800,7.5800,7.6007,0.0076,-0.0076,0.0175,2.13,-2.38,103.00,-0.2198,-0.3684,8.7132,8.7238
11,12,2,4,1,33.400,33400,-0.2900,-0.3300,10.5000,10.5092,0.0044,0.0196,0.0000,1.94,-2.50,102.88,-0.2290,-0.3633,8.9487,8.9590
11,12,2,4,1,33.531,33531,-0.3400,-0.3700,10.8000,10.8117,-0.0076,-0.0011,-0.0087,1.94,-2.50,102.88,-0.2437,-0.3642,9.1926,9.2031
11,12,2,4,1,33.667,33667,-0.2900,0.5300,10.3700,10.3876,0.0022,-0.0011,0.0185,1.88,-2.44,102.94,-0.2498,-0.2464,9.3478,9.3544
11,12,2,4,1,33.799,33799,-0.0800,-2.0100,10.7600,10.9464,0.0567,-0.0011,0.0033,1.88,-2.56,102.94,-0.2274,-0.4788,9.5339,9.5486
11,12,2,4,1,33.929,33929,-0.4200,-0.4200,11.0800,11.0959,0.0360,0.0436,0.0044,1.81,-2.56,102.94,-0.2528,-0.4710,9.7376,9.7523
11,12,2,4,1,34.059,34059,-0.2700,-0.3500,11.0400,11.0488,0.0033,0.0175,0.0055,1.81,-2.56,102.94,-0.2550,-0.4551,9.9092,9.9230
11,12,2,4,1,34.190,34190,-0.4600,-0.4400,9.2200,9.2419,0.0055,-0.0065,0.0131,1.88,-2.56,102.88,-0.2821,-0.4531,9.8184,9.8329
11,12,2,4,1,34.320,34320,-0.2000,-0.2800,8.9200,8.9266,0.0000,0.0065,-0.0142,1.88,-2.56,102.88,-0.2712,-0.4303,9.7000,9.7134
11,12,2,4,1,34.493,34493,-0.3000,-0.4900,10.0500,10.0664,-0.0033,-0.0044,-0.0011,1.81,-2.56,102.88,-0.2750,-0.4381,9.7461,9.7599
11,12,2,4,1,34.624,34624,-0.3400,-0.2800,9.9300,9.9398,0.0109,0.0120,-0.0076,1.81,-2.56,102.81,-0.2836,-0.4173,9.7704,9.7834
11,12,2,4,1,34.754,34754,-0.2000,-0.4900,9.5900,9.6046,0.0000,-0.0022,-0.0044,1.81,-2.56,102.88,-0.2726,-0.4269,9.7466,9.7598
