participant,rep,equipment_code,exercise_code,quality_code,timestamp,timestamp_ms,accelX,accelY,accelZ,accelMag,gyroX,gyroY,gyroZ,roll,pitch,yaw,filteredX,filteredY,filteredZ,filteredMag
34,1,2,4,1,00.000,0,-0.3800,-0.3400,9.8100,9.8232,-0.0011,0.0000,0.0000,2.25,-1.75,36.06,-0.3731,-0.3024,9.8903,9.9020
34,1,2,4,1,00.130,130,-0.3800,-0.2800,9.9300,9.9412,0.0011,0.0011,-0.0022,2.25,-1.75,36.06,-0.3740,-0.2994,9.8956,9.9072
34,1,2,4,1,00.303,303,-0.3600,-0.3100,10.6100,10.6206,-0.0022,0.0044,-0.0022,2.25,-1.75,36.06,-0.3722,-0.3008,9.9897,10.0012
34,1,2,4,1,00.438,438,-0.4000,-0.3600,11.3200,11.3328,0.0011,-0.0033,0.0076,2.25,-1.75,36.06,-0.3759,-0.3086,10.1650,10.1766
34,1,2,4,1,00.570,570,-0.3500,-0.4500,11.3300,11.3443,0.0044,0.0098,0.0076,2.25,-1.75,36.06,-0.3724,-0.3272,10.3185,10.3304
34,1,2,4,1,00.701,701,0.3000,-0.5800,11.3500,11.3688,-0.0044,0.0229,0.0251,2.25,-1.75,36.06,-0.2838,-0.3606,10.4544,10.4645
34,1,2,4,1,00.831,831,0.4400,-0.1200,11.3900,11.3991,0.0011,0.0284,0.0327,2.19,-1.75,36.13,-0.1885,-0.3289,10.5777,10.5845
34,1,2,4,1,00.961,961,-0.2900,-0.1800,10.6600,10.6655,0.0109,0.0087,0.0218,2.19,-1.81,36.25,-0.2018,-0.3092,10.5886,10.5950
34,1,2,4,1,01.092,1092,-0.7600,-0.4100,9.8000,9.8380,0.0164,-0.0044,0.0262,2.25,-1.81,36.38,-0.2754,-0.3225,10.4847,10.4932
34,1,2,4,1,01.222,1222,-0.7600,-0.2700,9.0600,9.0958,-0.0120,-0.0011,0.0393,2.25,-1.81,36.56,-0.3392,-0.3156,10.2969,10.3073
34,1,2,4,1,01.395,1395,-0.4000,-0.2900,8.3500,8.3646,-0.0142,-0.0033,0.0033,2.31,-1.75,36.69,-0.3473,-0.3122,10.0404,10.0512
34,1,2,4,1,01.526,1526,-0.3400,-0.3300,6.9300,6.9462,-0.0131,-0.0055,-0.0033,2.31,-1.75,36.69,-0.3463,-0.3146,9.6305,9.6419
34,1,2,4,1,01.658,1658,-0.3300,-0.5000,7.0600,7.0854,0.0087,-0.0055,0.0000,2.31,-1.75,36.69,-0.3441,-0.3390,9.2918,9.3043
34,1,2,4,1,01.792,1792,-0.3800,-0.2900,9.1500,9.1625,0.0098,0.0011,-0.0044,2.31,-1.75,36.69,-0.3489,-0.3325,9.2731,9.2856
34,2,2,4,1,01.924,1924,-0.4800,-0.2700,9.9900,10.0052,0.0055,0.0044,0.0033,2.31,-1.75,36.69,-0.3662,-0.3243,9.3676,9.3803
34,2,2,4,1,02.054,2054,-0.3900,-0.2600,9.6600,9.6714,0.0000,0.0022,0.0044,2.31,-1.75,36.69,-0.3693,-0.3158,9.4061,9.4186
34,2,2,4,1,02.184,2184,-0.4200,-0.3000,9.2400,9.2544,0.0011,0.0033,-0.0044,2.31,-1.75,36.69,-0.3760,-0.3137,9.3842,9.3970
34,2,2,4,1,02.314,2314,-0.2900,-0.3800,9.4600,9.4721,0.0033,0.0044,-0.0109,2.31,-1.75,36.69,-0.3646,-0.3225,9.3942,9.4068
34,2,2,4,1,02.487,2487,-0.3900,-0.3300,9.6100,9.6236,0.0022,0.0044,-0.0055,2.31,-1.75,36.69,-0.3680,-0.3235,9.4226,9.4354
34,2,2,4,1,02.618,2618,-0.4300,-0.3600,9.7500,9.7661,0.0011,-0.0022,-0.0185,2.31,-1.75,36.56,-0.3762,-0.3283,9.4658,9.4789
34,2,2,4,1,02.752,2752,-0.3400,-0.2500,9.7400,9.7491,-0.0011,0.0033,-0.0087,2.31,-1.75,36.56,-0.3714,-0.3180,9.5019,9.5145
34,2,2,4,1,02.885,2885,-0.3200,-0.3900,9.9700,9.9828,-0.0065,0.0033,-0.0109,2.31,-1.75,36.50,-0.3646,-0.3275,9.5636,9.5761
34,2,2,4,1,03.016,3016,-0.3900,-0.3200,10.1700,10.1825,0.0000,-0.0033,-0.0153,2.31,-1.75,36.44,-0.3680,-0.3265,9.6435,9.6560
34,2,2,4,1,03.146,3146,-0.2700,-0.2500,9.9400,9.9468,0.0000,-0.0022,0.0000,2.31,-1.75,36.44,-0.3551,-0.3164,9.6826,9.6942
34,2,2,4,1,03.276,3276,-0.3700,-0.3400,10.0700,10.0825,-0.0011,0.0033,-0.0164,2.31,-1.75,36.38,-0.3570,-0.3195,9.7336,9.7454
34,2,2,4,1,03.407,3407,-0.3700,-0.3500,10.2300,10.2427,0.0011,-0.0011,0.0044,2.31,-1.75,36.31,-0.3587,-0.3235,9.7990,9.8109
34,2,2,4,1,03.580,3580,-0.3600,-0.3300,10.1600,10.1717,-0.0011,0.0033,0.0044,2.31,-1.75,36.31,-0.3589,-0.3244,9.8466,9.8585
34,2,2,4,1,03.710,3710,-0.3400,-0.3600,10.1500,10.1621,0.0000,-0.0065,-0.0011,2.31,-1.75,36.31,-0.3564,-0.3291,9.8866,9.8985
34,2,2,4,1,03.844,3844,-0.3600,-0.2400,10.2600,10.2691,0.0000,0.0022,-0.0022,2.31,-1.75,36.31,-0.3569,-0.3173,9.9358,9.9473
34,2,2,4,1,03.977,3977,-0.3900,-0.4200,10.1300,10.1462,-0.0044,0.0011,0.0011,2.31,-1.75,36.31,-0.3612,-0.3309,9.9614,9.9734
34,2,2,4,1,04.108,4108,-0.4000,-0.2200,10.2700,10.2801,-0.0011,0.0000,0.0022,2.31,-1.75,36.31,-0.3664,-0.3163,10.0020,10.0138
34,2,2,4,1,04.238,4238,-0.3800,-0.3600,9.8800,9.8939,0.0011,-0.0011,-0.0109,2.31,-1.75,36.31,-0.3682,-0.3220,9.9860,9.9979
34,2,2,4,1,04.368,4368,-0.4000,-0.3400,9.9700,9.9838,-0.0033,0.0011,0.0033,2.31,-1.75,36.31,-0.3723,-0.3244,9.9839,9.9961
34,2,2,4,1,04.499,4499,-0.3800,-0.2800,10.4600,10.4706,0.0011,0.0011,0.0033,2.31,-1.75,36.31,-0.3734,-0.3185,10.0466,10.0586
34,2,2,4,1,04.672,4672,-0.3800,-0.3600,10.5000,10.5130,0.0000,-0.0022,0.0011,2.31,-1.75,36.31,-0.3742,-0.3240,10.1064,10.1185
34,2,2,4,1,04.805,4805,-0.3800,-0.2900,11.1100,11.1203,0.0022,0.0011,0.0022,2.31,-1.75,36.31,-0.3750,-0.3195,10.2386,10.2505
34,2,2,4,1,04.936,4936,-0.4100,-0.3600,11.2400,11.2532,0.0022,-0.0033,0.0011,2.31,-1.75,36.31,-0.3796,-0.3249,10.3706,10.3826
34,2,2,4,1,05.070,5070,-0.4300,-0.3500,11.1200,11.1338,0.0022,0.0033,-0.0033,2.31,-1.75,36.31,-0.3862,-0.3282,10.4693,10.4816
34,2,2,4,1,05.200,5200,-0.2600,-0.1900,10.5500,10.5549,0.0033,0.0011,0.0109,2.31,-1.75,36.31,-0.3696,-0.3100,10.4800,10.4910
34,2,2,4,1,05.331,5331,-0.5400,-0.3400,10.1600,10.1800,-0.0033,-0.0022,0.0153,2.31,-1.75,36.44,-0.3921,-0.3139,10.4378,10.4499
34,2,2,4,1,05.461,5461,-0.2000,-0.3500,9.5800,9.5885,0.0087,-0.0011,0.0251,2.31,-1.75,36.56,-0.3668,-0.3187,10.3248,10.3362
34,2,2,4,1,05.591,5591,-0.2000,-0.3100,8.8600,8.8677,-0.0076,0.0011,0.0240,2.31,-1.75,36.69,-0.3448,-0.3175,10.1317,10.1426
34,2,2,4,1,05.764,5764,-0.3200,-0.2100,7.6600,7.6696,-0.0044,0.0055,-0.0011,2.31,-1.69,36.81,-0.3415,-0.3034,9.8060,9.8167
34,2,2,4,1,05.899,5899,-0.2600,0.0100,5.8700,5.8758,-0.0120,0.0022,-0.0120,2.31,-1.69,36.75,-0.3308,-0.2621,9.2874,9.2969
34,2,2,4,1,06.032,6032,-0.1000,-0.0300,6.6400,6.6408,-0.0022,-0.0033,0.0131,2.31,-1.69,36.81,-0.3004,-0.2315,8.9385,8.9465
34,3,2,4,1,06.162,6162,-0.3000,-0.1400,9.1900,9.1960,-0.0011,-0.0011,-0.0044,2.31,-1.69,36.75,-0.3003,-0.2194,8.9716,8.9794
34,3,2,4,1,06.292,6292,-0.4200,-0.1500,9.6600,9.6703,0.0033,0.0098,-0.0109,2.31,-1.69,36.75,-0.3161,-0.2103,9.0624,9.0703
34,3,2,4,1,06.423,6423,-0.3000,-0.2300,9.4700,9.4775,0.0065,0.0022,0.0000,2.31,-1.69,36.75,-0.3140,-0.2129,9.1161,9.1240
34,3,2,4,1,06.553,6553,-0.3400,-0.1600,9.1300,9.1377,-0.0022,0.0011,-0.0022,2.31,-1.63,36.75,-0.3174,-0.2059,9.1179,9.1258
34,3,2,4,1,06.684,6684,-0.3000,-0.2200,8.9000,8.9078,0.0000,0.0000,-0.0109,2.25,-1.63,36.75,-0.3151,-0.2078,9.0892,9.0970
34,3,2,4,1,06.856,6856,-0.1800,-0.1800,9.0900,9.0936,0.0011,-0.0011,-0.0033,2.25,-1.63,36.69,-0.2973,-0.2041,9.0893,9.0964
34,3,2,4,1,06.986,6986,-0.0100,-0.3000,9.1500,9.1549,-0.0044,0.0109,-0.0087,2.25,-1.63,36.63,-0.2594,-0.2167,9.0973,9.1036
34,3,2,4,1,07.116,7116,-0.3500,-0.2400,9.1700,9.1798,0.0000,-0.0022,-0.0142,2.25,-1.63,36.50,-0.2714,-0.2198,9.1069,9.1136
34,3,2,4,1,07.246,7246,-0.2900,-0.1000,9.4400,9.4450,-0.0076,0.0011,-0.0120,2.25,-1.63,36.50,-0.2738,-0.2040,9.1508,9.1571
34,3,2,4,1,07.376,7376,-0.3600,-0.2000,9.3700,9.3790,-0.0044,0.0055,-0.0076,2.19,-1.63,36.38,-0.2852,-0.2035,9.1797,9.1863
34,3,2,4,1,07.506,7506,-0.3300,-0.1700,9.3300,9.3374,-0.0055,0.0076,-0.0142,2.19,-1.63,36.31,-0.2911,-0.1991,9.1995,9.2062
34,3,2,4,1,07.636,7636,-0.2600,-0.1900,9.3300,9.3356,-0.0044,-0.0011,-0.0065,2.19,-1.63,36.19,-0.2870,-0.1979,9.2167,9.2233
34,3,2,4,1,07.766,7766,-0.3500,-0.2100,9.6000,9.6087,-0.0033,-0.0022,-0.0262,2.19,-1.63,36.19,-0.2953,-0.1995,9.2672,9.2740
34,3,2,4,1,07.939,7939,-0.2900,-0.1500,9.5400,9.5456,-0.0055,-0.0011,-0.0055,2.19,-1.63,36.06,-0.2946,-0.1930,9.3031,9.3098
34,3,2,4,1,08.069,8069,-0.3100,-0.1900,9.5200,9.5269,-0.0011,-0.0065,0.0033,2.19,-1.63,36.06,-0.2966,-0.1926,9.3317,9.3384
34,3,2,4,1,08.203,8203,-0.3400,-0.1600,9.5800,9.5874,-0.0033,0.0022,-0.0076,2.19,-1.63,36.06,-0.3023,-0.1883,9.3644,9.3712
34,3,2,4,1,08.349,8349,-0.2600,-0.2100,9.7500,9.7557,0.0000,0.0011,-0.0044,2.19,-1.63,36.06,-0.2968,-0.1911,9.4152,9.4219
34,3,2,4,1,08.480,8480,-0.3500,-0.2400,9.7100,9.7193,-0.0022,-0.0011,0.0011,2.19,-1.63,36.06,-0.3038,-0.1976,9.4541,9.4610
34,3,2,4,1,08.614,8614,-0.3200,-0.2000,9.5600,9.5674,0.0000,0.0000,0.0011,2.19,-1.63,36.06,-0.3059,-0.1979,9.4680,9.4750
34,3,2,4,1,08.747,8747,-0.3300,-0.2200,9.6000,9.6082,0.0000,0.0000,0.0000,2.19,-1.63,36.06,-0.3091,-0.2008,9.4854,9.4926
34,3,2,4,1,08.878,8878,-0.3400,-0.2300,10.1900,10.1983,0.0011,0.0033,-0.0022,2.19,-1.63,36.06,-0.3132,-0.2047,9.5783,9.5856
34,3,2,4,1,09.050,9050,-0.3500,-0.2300,10.7900,10.7981,-0.0011,0.0000,0.0022,2.19,-1.63,36.06,-0.3180,-0.2080,9.7379,9.7454
34,3,2,4,1,09.181,9181,-0.3500,-0.2700,11.2400,11.2487,0.0000,0.0022,0.0033,2.19,-1.63,36.06,-0.3222,-0.2162,9.9359,9.9435
34,3,2,4,1,09.312,9312,-0.2000,-0.1200,10.9600,10.9625,0.0033,0.0011,0.0000,2.19,-1.63,36.06,-0.3061,-0.2035,10.0708,10.0775
34,3,2,4,1,09.443,9443,-0.2300,-0.2200,10.7000,10.7047,0.0033,0.0033,0.0087,2.19,-1.56,36.06,-0.2961,-0.2057,10.1537,10.1601
34,3,2,4,1,09.578,9578,0.2600,-0.1400,10.4100,10.4142,0.0033,0.0065,0.0404,2.19,-1.56,36.19,-0.2228,-0.1970,10.1875,10.1918
34,3,2,4,1,09.709,9709,-0.4000,-0.1600,9.6400,9.6496,0.0087,-0.0011,0.0240,2.19,-1.63,36.31,-0.2462,-0.1921,10.1154,10.1202
34,3,2,4,1,09.840,9840,-0.5700,-0.1300,8.7600,8.7795,-0.0087,0.0000,0.0196,2.19,-1.63,36.50,-0.2888,-0.1839,9.9368,9.9427
34,3,2,4,1,09.970,9970,-0.2600,-0.5900,7.7000,7.7269,-0.0033,-0.0055,0.0022,2.25,-1.63,36.63,-0.2850,-0.2375,9.6420,9.6491
34,3,2,4,1,10.143,10143,-0.3300,-0.2700,5.5800,5.5963,-0.0076,-0.0011,-0.0076,2.25,-1.63,36.56,-0.2910,-0.2417,9.1067,9.1146
34,3,2,4,1,10.273,10273,-0.3500,-0.2000,6.9300,6.9417,0.0087,-0.0055,0.0022,2.25,-1.56,36.63,-0.2987,-0.2362,8.8199,8.8281
34,4,2,4,1,10.404,10404,-0.2300,-0.1600,8.8800,8.8844,0.0055,-0.0044,-0.0055,2.25,-1.56,36.63,-0.2897,-0.2262,8.8278,8.8355
34,4,2,4,1,10.536,10536,-0.4300,-0.3000,9.7700,9.7841,0.0065,0.0044,-0.0055,2.25,-1.56,36.56,-0.3082,-0.2359,8.9520,8.9604
34,4,2,4,1,10.671,10671,-0.2100,-0.2400,9.3400,9.3454,-0.0011,-0.0022,0.0087,2.19,-1.56,36.56,-0.2952,-0.2365,9.0031,9.0111
34,4,2,4,1,10.802,10802,-0.3000,-0.2500,9.2300,9.2383,-0.0011,-0.0076,0.0087,2.19,-1.56,36.56,-0.2959,-0.2382,9.0330,9.0410
34,4,2,4,1,10.932,10932,-0.3500,-0.2100,9.1600,9.1691,0.0011,0.0000,-0.0142,2.19,-1.56,36.50,-0.3030,-0.2345,9.0497,9.0578
34,4,2,4,1,11.082,11082,-0.1200,-0.2600,8.9100,8.9146,0.0098,0.0065,-0.0033,2.19,-1.56,36.50,-0.2789,-0.2379,9.0313,9.0388
34,4,2,4,1,11.255,11255,-0.3000,-0.2800,9.0200,9.0293,0.0022,-0.0022,-0.0153,2.19,-1.56,36.31,-0.2817,-0.2434,9.0298,9.0375
34,4,2,4,1,11.385,11385,-0.2900,-0.2000,9.4600,9.4666,-0.0022,-0.0011,-0.0065,2.13,-1.56,36.31,-0.2828,-0.2377,9.0865,9.0940
34,4,2,4,1,11.515,11515,-0.3800,-0.1700,9.4600,9.4692,-0.0044,0.0022,-0.0175,2.13,-1.56,36.19,-0.2956,-0.2288,9.1357,9.1434
34,4,2,4,1,11.646,11646,-0.3800,-0.2200,9.4400,9.4502,-0.0044,-0.0033,-0.0120,2.13,-1.56,36.13,-0.3067,-0.2276,9.1758,9.1838
34,4,2,4,1,11.776,11776,-0.3000,-0.1400,9.3400,9.3459,-0.0011,0.0000,-0.0131,2.13,-1.56,36.06,-0.3058,-0.2161,9.1975,9.2051
34,4,2,4,1,11.906,11906,-0.2300,-0.1700,9.6600,9.6642,-0.0011,-0.0044,-0.0175,2.13,-1.56,36.06,-0.2958,-0.2100,9.2584,9.2655
34,4,2,4,1,12.036,12036,-0.3000,-0.2400,9.6500,9.6576,0.0022,0.0065,-0.0065,2.13,-1.56,35.94,-0.2964,-0.2140,9.3100,9.3172
34,4,2,4,1,12.166,12166,-0.4100,-0.2900,9.5900,9.6031,0.0055,-0.0142,-0.0022,2.19,-1.56,35.94,-0.3114,-0.2240,9.3469,9.3548
34,4,2,4,1,12.340,12340,-0.3300,-0.2500,9.7800,9.7888,0.0011,-0.0065,-0.0120,2.19,-1.56,35.88,-0.3138,-0.2274,9.4040,9.4120
34,4,2,4,1,12.475,12475,-0.1700,-0.1600,9.7300,9.7328,-0.0022,0.0044,-0.0131,2.19,-1.56,35.94,-0.2949,-0.2185,9.4469,9.4541
34,4,2,4,1,12.606,12606,-0.2300,-0.1000,9.7300,9.7332,0.0022,-0.0022,0.0131,2.19,-1.56,35.88,-0.2863,-0.2029,9.4842,9.4907
34,4,2,4,1,12.736,12736,-0.3200,-0.2400,9.4300,9.4385,-0.0022,-0.0033,-0.0044,2.19,-1.56,35.88,-0.2908,-0.2078,9.4771,9.4838
34,4,2,4,1,12.866,12866,-0.3500,-0.1600,9.6000,9.6077,-0.0022,0.0011,-0.0065,2.19,-1.56,35.88,-0.2986,-0.2015,9.4933,9.5001
34,4,2,4,1,12.997,12997,-0.2900,-0.2500,9.9600,9.9674,0.0033,-0.0033,-0.0033,2.19,-1.56,35.88,-0.2974,-0.2079,9.5548,9.5617
34,4,2,4,1,13.127,13127,-0.3400,-0.2700,9.7800,9.7896,-0.0022,-0.0033,-0.0044,2.19,-1.56,35.88,-0.3030,-0.2161,9.5845,9.5917
34,4,2,4,1,13.257,13257,-0.3000,-0.1500,10.0900,10.0956,0.0022,-0.0044,0.0033,2.19,-1.56,35.88,-0.3026,-0.2074,9.6511,9.6581
34,4,2,4,1,13.430,13430,-0.3500,-0.2500,10.8700,10.8785,0.0011,-0.0022,0.0022,2.19,-1.56,35.88,-0.3089,-0.2130,9.8117,9.8189
34,4,2,4,1,13.562,13562,-0.2900,-0.2100,10.9600,10.9658,0.0022,-0.0055,-0.0011,2.19,-1.56,35.88,-0.3064,-0.2126,9.9630,9.9700
34,4,2,4,1,13.697,13697,-0.3300,-0.1900,11.1100,11.1165,0.0000,0.0033,0.0076,2.19,-1.56,35.88,-0.3095,-0.2096,10.1142,10.1211
34,4,2,4,1,13.828,13828,-0.5500,-0.2800,10.8700,10.8875,0.0022,0.0065,0.0196,2.19,-1.56,35.94,-0.3412,-0.2189,10.2138,10.2218
34,4,2,4,1,13.959,13959,-0.7800,-0.5500,9.9700,10.0156,0.0131,-0.0185,0.0098,2.19,-1.56,36.06,-0.3990,-0.2625,10.1816,10.1928
34,4,2,4,1,14.089,14089,-0.6500,-0.4600,8.7000,8.7364,0.0055,0.0044,0.0371,2.19,-1.56,36.25,-0.4321,-0.2885,9.9864,9.9999
34,4,2,4,1,14.219,14219,-0.0400,0.2200,7.6600,7.6633,-0.0044,-0.0065,0.0065,2.19,-1.56,36.38,-0.3804,-0.2215,9.6798,9.6898
34,4,2,4,1,14.350,14350,-0.4000,-0.0300,6.1500,6.1631,-0.0131,0.0022,-0.0164,2.19,-1.56,36.38,-0.3830,-0.1963,9.2147,9.2247
34,4,2,4,1,14.522,14522,-0.3300,0.0200,6.0800,6.0890,-0.0065,-0.0065,0.0120,2.19,-1.56,36.38,-0.3760,-0.1678,8.8016,8.8112
34,4,2,4,1,14.653,14653,-0.3300,-0.2900,8.7000,8.7111,-0.0011,-0.0022,-0.0076,2.19,-1.56,36.38,-0.3700,-0.1839,8.7882,8.7979
34,5,2,4,1,14.784,14784,-0.3300,-0.3600,9.6500,9.6623,0.0087,-0.0011,0.0000,2.19,-1.56,36.38,-0.3647,-0.2071,8.9018,8.9117
34,5,2,4,1,14.920,14920,-0.2700,-0.2400,9.3700,9.3770,0.0065,0.0098,-0.0098,2.19,-1.56,36.38,-0.3522,-0.2114,8.9635,8.9729
34,5,2,4,1,15.051,15051,-0.3600,-0.2700,9.1900,9.2010,-0.0022,-0.0055,-0.0044,2.19,-1.56,36.38,-0.3532,-0.2192,8.9933,9.0029
34,5,2,4,1,15.181,15181,-0.0600,-0.3300,9.4000,9.4060,0.0022,0.0175,-0.0109,2.19,-1.56,36.38,-0.3146,-0.2338,9.0469,9.0554
34,5,2,4,1,15.311,15311,-0.2200,-0.2400,9.4600,9.4656,-0.0044,-0.0033,-0.0175,2.19,-1.56,36.31,-0.3021,-0.2346,9.1014,9.1094
34,5,2,4,1,15.442,15442,-0.3200,-0.2300,9.2600,9.2684,-0.0022,0.0011,-0.0109,2.19,-1.56,36.25,-0.3045,-0.2340,9.1223,9.1303
34,5,2,4,1,15.615,15615,-0.2700,-0.1600,9.3700,9.3753,-0.0098,0.0033,-0.0055,2.19,-1.56,36.19,-0.2999,-0.2242,9.1549,9.1626
34,5,2,4,1,15.750,15750,-0.3700,-0.2300,9.2700,9.2802,-0.0055,0.0044,-0.0142,2.19,-1.56,36.06,-0.3092,-0.2250,9.1701,9.1780
34,5,2,4,1,15.882,15882,-0.3400,-0.2500,9.3700,9.3795,-0.0011,0.0033,-0.0109,2.19,-1.56,36.00,-0.3132,-0.2283,9.1964,9.2046
34,5,2,4,1,16.013,16013,-0.1900,-0.1400,9.6600,9.6629,-0.0022,0.0011,-0.0142,2.19,-1.56,36.00,-0.2970,-0.2167,9.2575,9.2648
34,5,2,4,1,16.143,16143,-0.2900,-0.2700,9.5300,9.5382,-0.0011,0.0022,-0.0098,2.19,-1.56,35.88,-0.2961,-0.2237,9.2934,9.3008
34,5,2,4,1,16.273,16273,-0.2000,-0.1000,9.7200,9.7226,0.0022,-0.0131,-0.0044,2.19,-1.56,35.88,-0.2834,-0.2074,9.3496,9.3562
34,5,2,4,1,16.404,16404,-0.4300,-0.2300,9.8400,9.8521,-0.0033,-0.0022,-0.0131,2.19,-1.56,35.88,-0.3027,-0.2104,9.4142,9.4215
34,5,2,4,1,16.534,16534,-0.3200,-0.2600,10.0000,10.0085,0.0000,0.0033,0.0109,2.19,-1.56,35.88,-0.3050,-0.2169,9.4914,9.4988
34,5,2,4,1,16.707,16707,-0.3100,-0.1200,10.0000,10.0055,-0.0076,0.0055,0.0087,2.19,-1.56,35.81,-0.3057,-0.2041,9.5584,9.5655
34,5,2,4,1,16.837,16837,-0.3100,-0.2400,9.7800,9.7879,0.0000,-0.0022,-0.0011,2.19,-1.56,35.81,-0.3062,-0.2089,9.5876,9.5948
34,5,2,4,1,16.968,16968,-0.3300,-0.2100,9.5600,9.5680,0.0000,0.0011,-0.0055,2.19,-1.56,35.81,-0.3094,-0.2090,9.5840,9.5913
34,5,2,4,1,17.103,17103,-0.3000,-0.2100,9.8400,9.8468,-0.0011,0.0022,-0.0033,2.19,-1.56,35.81,-0.3081,-0.2091,9.6177,9.6249
34,5,2,4,1,17.235,17235,-0.3600,-0.2400,9.9900,9.9994,0.0033,0.0000,-0.0065,2.19,-1.56,35.81,-0.3150,-0.2132,9.6668,9.6743
34,5,2,4,1,17.366,17366,-0.3400,-0.2600,10.7000,10.7086,0.0011,-0.0022,0.0000,2.19,-1.56,35.81,-0.3183,-0.2194,9.8029,9.8106
34,5,2,4,1,17.496,17496,-0.3200,-0.2300,11.1400,11.1470,-0.0011,0.0044,0.0033,2.19,-1.56,35.81,-0.3185,-0.2208,9.9791,9.9867
34,5,2,4,1,17.626,17626,-0.3100,-0.2900,11.0300,11.0382,0.0065,-0.0033,0.0011,2.19,-1.56,35.81,-0.3174,-0.2299,10.1176,10.1252
34,5,2,4,1,17.799,17799,-0.4800,-0.2100,11.0900,11.1024,0.0011,0.0065,0.0218,2.19,-1.56,35.81,-0.3388,-0.2273,10.2457,10.2539
34,5,2,4,1,17.929,17929,-0.5300,-0.2100,10.3400,10.3557,0.0153,-0.0153,0.0251,2.19,-1.56,36.00,-0.3640,-0.2250,10.2582,10.2671
34,5,2,4,1,18.060,18060,-0.3300,-0.5900,8.8300,8.8558,0.0109,-0.0055,0.0371,2.25,-1.63,36.19,-0.3595,-0.2731,10.0700,10.0801
34,5,2,4,1,18.190,18190,-0.2800,-0.1000,7.8400,7.8456,-0.0033,-0.0065,0.0131,2.25,-1.63,36.31,-0.3490,-0.2503,9.7761,9.7855
34,5,2,4,1,18.325,18325,-0.4700,0.0100,6.8100,6.8262,-0.0098,-0.0098,0.0044,2.25,-1.63,36.31,-0.3650,-0.2160,9.3853,9.3948
34,5,2,4,1,18.458,18458,-0.1700,-0.2900,4.8900,4.9015,-0.0055,-0.0022,0.0087,2.25,-1.56,36.31,-0.3393,-0.2257,8.7929,8.8023
34,5,2,4,1,18.588,18588,-0.1800,-0.1600,7.2300,7.2340,0.0087,0.0065,-0.0196,2.25,-1.56,36.31,-0.3183,-0.2171,8.5869,8.5956
34,6,2,4,1,18.719,18719,-0.2500,-0.1900,9.5600,9.5652,0.0011,0.0011,-0.0044,2.25,-1.56,36.31,-0.3093,-0.2135,8.7152,8.7233
34,6,2,4,1,18.892,18892,-0.2800,-0.2200,9.2300,9.2369,0.0044,-0.0011,-0.0033,2.25,-1.56,36.31,-0.3054,-0.2144,8.7830,8.7909
34,6,2,4,1,19.028,19028,-0.2800,-0.2400,9.2600,9.2673,0.0000,0.0076,-0.0033,2.25,-1.56,36.31,-0.3021,-0.2177,8.8459,8.8537
34,6,2,4,1,19.160,19160,-0.3500,-0.1900,9.0700,9.0787,-0.0022,-0.0076,-0.0164,2.25,-1.56,36.25,-0.3084,-0.2141,8.8754,8.8833
34,6,2,4,1,19.290,19290,-0.6400,-0.1500,9.4800,9.5028,-0.0011,-0.0011,-0.0087,2.25,-1.56,36.19,-0.3521,-0.2056,8.9551,8.9644
34,6,2,4,1,19.420,19420,-0.3500,-0.2400,9.2200,9.2298,-0.0055,0.0011,-0.0120,2.25,-1.56,36.13,-0.3518,-0.2102,8.9900,8.9993
34,6,2,4,1,19.550,19550,-0.3000,-0.2200,9.2400,9.2475,-0.0076,0.0022,-0.0131,2.25,-1.63,36.00,-0.3450,-0.2115,9.0229,9.0320
34,6,2,4,1,19.681,19681,-0.2900,-0.1700,9.5600,9.5659,-0.0065,0.0022,-0.0175,2.25,-1.63,36.00,-0.3377,-0.2060,9.0937,9.1023
34,6,2,4,1,19.811,19811,-0.3000,-0.2000,9.5800,9.5868,0.0000,0.0044,-0.0087,2.25,-1.63,35.88,-0.3328,-0.2052,9.1578,9.1661
34,6,2,4,1,19.984,19984,-0.3500,-0.2300,9.8300,9.8389,-0.0033,-0.0022,-0.0175,2.25,-1.63,35.81,-0.3350,-0.2085,9.2464,9.2548
34,6,2,4,1,20.115,20115,-0.3300,-0.2300,9.6300,9.6384,-0.0011,-0.0011,-0.0022,2.25,-1.63,35.75,-0.3344,-0.2113,9.2969,9.3053
34,6,2,4,1,20.246,20246,-0.2600,-0.2700,9.4900,9.4974,-0.0022,0.0000,0.0011,2.25,-1.63,35.75,-0.3246,-0.2190,9.3224,9.3306
34,6,2,4,1,20.381,20381,-0.3500,-0.2000,9.6000,9.6085,-0.0022,-0.0055,-0.0044,2.25,-1.63,35.75,-0.3279,-0.2165,9.3589,9.3672
34,6,2,4,1,20.512,20512,-0.3300,-0.2400,9.9600,9.9684,-0.0011,-0.0033,-0.0033,2.25,-1.63,35.75,-0.3282,-0.2196,9.4382,9.4464
34,6,2,4,1,20.643,20643,-0.2900,-0.1900,10.0700,10.0760,0.0022,0.0011,-0.0011,2.25,-1.63,35.75,-0.3232,-0.2157,9.5214,9.5293
34,6,2,4,1,20.773,20773,-0.2900,-0.1800,9.6500,9.6560,0.0022,0.0011,-0.0011,2.25,-1.63,35.75,-0.3188,-0.2110,9.5384,9.5460
34,6,2,4,1,20.903,20903,-0.3100,-0.2400,9.7100,9.7179,0.0011,0.0044,-0.0011,2.25,-1.63,35.75,-0.3176,-0.2148,9.5610,9.5687
34,6,2,4,1,21.076,21076,-0.3300,-0.2100,9.6700,9.6779,-0.0011,0.0044,0.0000,2.25,-1.63,35.75,-0.3193,-0.2142,9.5753,9.5831
34,6,2,4,1,21.209,21209,-0.3100,-0.2200,9.4600,9.4676,0.0022,0.0033,-0.0033,2.25,-1.63,35.75,-0.3180,-0.2150,9.5601,9.5678
34,6,2,4,1,21.343,21343,-0.3400,-0.2400,10.5100,10.5182,0.0011,0.0011,0.0011,2.25,-1.63,35.75,-0.3209,-0.2183,9.6853,9.6931
34,6,2,4,1,21.474,21474,-0.3500,-0.2500,11.4100,11.4181,0.0011,0.0033,0.0033,2.25,-1.63,35.75,-0.3248,-0.2224,9.9126,9.9204
34,6,2,4,1,21.604,21604,-0.3300,-0.2600,11.2500,11.2578,0.0044,-0.0022,-0.0033,2.25,-1.63,35.75,-0.3255,-0.2274,10.0888,10.0966
34,6,2,4,1,21.735,21735,-0.4800,-0.3000,11.1600,11.1743,0.0033,-0.0011,0.0011,2.25,-1.63,35.81,-0.3458,-0.2370,10.2300,10.2386
34,6,2,4,1,21.865,21865,-0.9200,-0.2400,10.6300,10.6724,0.0011,-0.0022,0.0175,2.25,-1.63,35.88,-0.4215,-0.2374,10.2827,10.2941
34,6,2,4,1,21.995,21995,0.0300,0.1200,9.9300,9.9308,0.0131,-0.0011,0.0284,2.25,-1.63,36.06,-0.3620,-0.1903,10.2362,10.2444
34,6,2,4,1,22.168,22168,-0.1900,0.0500,8.0700,8.0724,0.0000,-0.0033,0.0218,2.25,-1.69,36.31,-0.3393,-0.1586,9.9508,9.9578
34,6,2,4,1,22.298,22298,-0.1700,0.0500,6.9400,6.9423,-0.0055,0.0044,0.0000,2.25,-1.69,36.38,-0.3170,-0.1311,9.5540,9.5602
34,6,2,4,1,22.429,22429,-0.3700,-0.1100,5.1200,5.1345,-0.0065,-0.0011,0.0011,2.25,-1.63,36.31,-0.3240,-0.1283,8.9697,8.9765
34,6,2,4,1,22.565,22565,-0.4300,-0.1100,6.5500,6.5650,0.0011,-0.0011,0.0065,2.25,-1.63,36.38,-0.3380,-0.1259,8.6509,8.6584
34,7,2,4,1,22.697,22697,-0.2700,-0.1100,8.9700,8.9747,0.0076,0.0033,-0.0076,2.25,-1.63,36.31,-0.3290,-0.1238,8.6929,8.7000
34,7,2,4,1,22.827,22827,-0.0900,-0.3600,9.4900,9.4973,0.0196,0.0109,-0.0131,2.19,-1.69,36.31,-0.2975,-0.1549,8.7980,8.8043
34,7,2,4,1,22.957,22957,-0.2300,-0.2800,9.4500,9.4569,0.0033,0.0065,-0.0033,2.25,-1.69,36.31,-0.2886,-0.1714,8.8839,8.8902
34,7,2,4,1,23.087,23087,-0.3700,-0.2300,9.3900,9.4001,0.0000,0.0011,-0.0076,2.19,-1.69,36.31,-0.2993,-0.1791,8.9506,8.9574
34,7,2,4,1,23.260,23260,-0.1400,-0.2300,9.0500,9.0540,-0.0011,0.0055,-0.0120,2.13,-1.69,36.31,-0.2783,-0.1858,8.9637,8.9699
34,7,2,4,1,23.390,23390,-0.6900,-0.1900,8.9700,8.9985,-0.0033,-0.0011,-0.0153,2.13,-1.63,36.25,-0.3326,-0.1864,8.9645,8.9726
34,7,2,4,1,23.520,23520,-0.3200,-0.1700,8.9200,8.9274,-0.0011,0.0011,-0.0142,2.13,-1.63,36.13,-0.3309,-0.1842,8.9586,8.9666
34,7,2,4,1,23.650,23650,-0.2900,-0.2900,9.3200,9.3290,-0.0033,0.0022,-0.0011,2.13,-1.63,36.13,-0.3255,-0.1982,9.0063,9.0143
34,7,2,4,1,23.780,23780,-0.3100,-0.2000,9.3300,9.3373,-0.0055,-0.0011,-0.0262,2.06,-1.63,36.00,-0.3235,-0.1984,9.0489,9.0569
34,7,2,4,1,23.910,23910,-0.2300,-0.1900,9.3200,9.3248,-0.0011,0.0044,-0.0011,2.06,-1.63,36.00,-0.3112,-0.1973,9.0846,9.0921
34,7,2,4,1,24.040,24040,-0.2900,-0.2300,9.7400,9.7470,-0.0022,0.0065,-0.0175,2.06,-1.63,35.81,-0.3084,-0.2016,9.1710,9.1784
34,7,2,4,1,24.170,24170,-0.3300,-0.1600,9.5400,9.5470,0.0022,-0.0033,-0.0065,2.06,-1.56,35.81,-0.3112,-0.1961,9.2196,9.2270
34,7,2,4,1,24.343,24343,-0.3700,-0.2200,9.7500,9.7595,-0.0011,-0.0011,-0.0022,2.06,-1.56,35.81,-0.3190,-0.1993,9.2895,9.2971
34,7,2,4,1,24.474,24474,-0.3600,-0.1600,9.8300,9.8379,0.0000,0.0087,0.0044,2.06,-1.56,35.81,-0.3244,-0.1941,9.3607,9.3684
34,7,2,4,1,24.604,24604,-0.3100,-0.2500,10.1900,10.1978,0.0000,0.0044,-0.0022,2.06,-1.56,35.81,-0.3225,-0.2015,9.4700,9.4776
34,7,2,4,1,24.740,24740,-0.3700,-0.1800,9.9200,9.9285,-0.0022,0.0065,-0.0055,2.06,-1.56,35.81,-0.3287,-0.1986,9.5293,9.5370
34,7,2,4,1,24.871,24871,-0.3000,-0.1600,9.1500,9.1563,0.0022,0.0022,-0.0022,2.06,-1.56,35.81,-0.3250,-0.1935,9.4793,9.4869
34,7,2,4,1,25.001,25001,-0.3200,-0.2700,9.5200,9.5292,0.0000,0.0022,-0.0022,2.06,-1.56,35.81,-0.3243,-0.2036,9.4847,9.4924
34,7,2,4,1,25.132,25132,-0.3500,-0.1600,9.9100,9.9175,-0.0011,0.0033,0.0011,2.06,-1.56,35.81,-0.3277,-0.1979,9.5407,9.5484
34,7,2,4,1,25.262,25262,-0.2900,-0.2500,9.3900,9.3978,0.0033,0.0033,-0.0022,2.06,-1.56,35.81,-0.3227,-0.2047,9.5209,9.5285
34,7,2,4,1,25.435,25435,-0.3000,-0.1800,9.6200,9.6264,-0.0011,0.0000,0.0011,2.06,-1.56,35.81,-0.3197,-0.2015,9.5339,9.5414
34,7,2,4,1,25.567,25567,-0.3200,-0.2500,10.4500,10.4579,0.0000,0.0011,0.0022,2.06,-1.56,35.81,-0.3198,-0.2079,9.6546,9.6622
34,7,2,4,1,25.702,25702,-0.3300,-0.2500,11.3400,11.3476,-0.0011,0.0044,0.0033,2.06,-1.56,35.81,-0.3211,-0.2134,9.8767,9.8843
34,7,2,4,1,25.833,25833,-0.5400,-0.2400,11.1700,11.1856,0.0033,-0.0033,0.0022,2.06,-1.56,35.81,-0.3500,-0.2169,10.0472,10.0556
34,7,2,4,1,25.963,25963,-0.3700,-0.2800,11.2000,11.2096,0.0011,-0.0011,0.0065,2.06,-1.56,35.81,-0.3526,-0.2252,10.1991,10.2076
34,7,2,4,1,26.094,26094,0.0300,-0.2000,10.6600,10.6619,0.0011,0.0098,0.0458,2.00,-1.56,35.94,-0.3022,-0.2219,10.2598,10.2667
34,7,2,4,1,26.224,26224,-0.0200,-0.4500,9.5200,9.5307,0.0065,0.0055,0.0349,2.06,-1.63,36.13,-0.2650,-0.2520,10.1623,10.1689
34,7,2,4,1,26.354,26354,-0.5700,-0.4000,8.6000,8.6281,-0.0055,-0.0011,0.0262,2.06,-1.63,36.31,-0.3052,-0.2715,9.9564,9.9648
34,7,2,4,1,26.527,26527,-0.1800,-0.3900,6.9500,6.9633,-0.0044,-0.0033,-0.0033,2.06,-1.56,36.44,-0.2887,-0.2871,9.5603,9.5689
34,7,2,4,1,26.657,26657,-0.3500,-0.1000,4.9300,4.9434,-0.0044,-0.0033,-0.0022,2.06,-1.56,36.44,-0.2968,-0.2624,8.9501,8.9589
34,7,2,4,1,26.791,26791,-0.4100,-0.1700,6.7000,6.7147,0.0011,-0.0022,0.0055,2.06,-1.56,36.44,-0.3117,-0.2503,8.6536,8.6628
34,8,2,4,1,26.925,26925,-0.1800,-0.2400,9.2700,9.2749,0.0044,0.0055,-0.0109,2.06,-1.56,36.44,-0.2943,-0.2489,8.7348,8.7433
34,8,2,4,1,27.056,27056,-0.3300,-0.2900,9.7800,9.7899,0.0011,-0.0044,0.0033,2.06,-1.56,36.44,-0.2990,-0.2543,8.8726,8.8812
34,8,2,4,1,27.186,27186,-0.4700,-0.1500,9.4400,9.4529,0.0022,0.0011,0.0044,2.06,-1.56,36.44,-0.3216,-0.2406,8.9473,8.9563
34,8,2,4,1,27.316,27316,-0.1600,-0.2600,9.1400,9.1451,0.0044,0.0044,-0.0055,2.13,-1.56,36.44,-0.3003,-0.2431,8.9727,8.9810
34,8,2,4,1,27.446,27446,-0.2500,-0.3200,9.2100,9.2189,-0.0011,0.0011,-0.0044,2.06,-1.56,36.44,-0.2937,-0.2533,9.0040,9.0123
34,8,2,4,1,27.619,27619,-0.2300,-0.2100,9.2400,9.2452,-0.0033,-0.0033,-0.0087,2.06,-1.56,36.44,-0.2853,-0.2476,9.0351,9.0430
34,8,2,4,1,27.749,27749,-0.3200,-0.2400,9.2000,9.2087,-0.0033,0.0033,-0.0098,2.06,-1.56,36.44,-0.2898,-0.2466,9.0568,9.0648
34,8,2,4,1,27.879,27879,-0.2700,-0.1800,9.2300,9.2357,-0.0022,0.0011,-0.0065,2.06,-1.56,36.38,-0.2872,-0.2378,9.0796,9.0873
34,8,2,4,1,28.009,28009,-0.3800,-0.2100,9.4400,9.4500,-0.0055,0.0022,-0.0153,2.06,-1.50,36.38,-0.2995,-0.2341,9.1271,9.1350
34,8,2,4,1,28.139,28139,-0.3600,-0.2200,9.2000,9.2097,-0.0044,0.0000,-0.0098,2.06,-1.50,36.38,-0.3074,-0.2323,9.1367,9.1449
34,8,2,4,1,28.269,28269,-0.2700,-0.2100,9.3100,9.3163,0.0011,0.0011,-0.0131,2.06,-1.50,36.31,-0.3025,-0.2293,9.1596,9.1674
34,8,2,4,1,28.399,28399,-0.2700,-0.1700,9.4000,9.4054,-0.0011,-0.0011,-0.0033,2.06,-1.50,36.31,-0.2982,-0.2215,9.1912,9.1988
34,8,2,4,1,28.529,28529,-0.3300,-0.2100,9.5100,9.5180,0.0000,0.0044,-0.0164,2.06,-1.50,36.19,-0.3024,-0.2200,9.2333,9.2408
34,8,2,4,1,28.702,28702,-0.2800,-0.2000,9.7500,9.7561,-0.0022,-0.0098,-0.0055,2.06,-1.50,36.19,-0.2995,-0.2174,9.3013,9.3087
34,8,2,4,1,28.833,28833,-0.3600,-0.2000,9.6600,9.6688,-0.0033,-0.0011,-0.0055,2.06,-1.50,36.19,-0.3074,-0.2151,9.3486,9.3561
34,8,2,4,1,28.963,28963,-0.3000,-0.1900,9.8600,9.8664,-0.0022,0.0000,0.0065,2.06,-1.50,36.19,-0.3065,-0.2118,9.4160,9.4234
34,8,2,4,1,29.098,29098,-0.3400,-0.1800,9.7600,9.7676,-0.0011,0.0000,0.0022,2.06,-1.50,36.19,-0.3109,-0.2076,9.4613,9.4687
34,8,2,4,1,29.230,29230,-0.3100,-0.1900,9.5600,9.5669,-0.0022,0.0011,-0.0033,2.06,-1.50,36.19,-0.3108,-0.2053,9.4743,9.4816
34,8,2,4,1,29.361,29361,-0.3500,-0.2300,10.2900,10.2985,-0.0011,-0.0033,-0.0011,2.06,-1.50,36.19,-0.3159,-0.2085,9.5818,9.5893
34,8,2,4,1,29.491,29491,-0.3200,-0.2100,9.4100,9.4178,-0.0011,0.0022,-0.0033,2.06,-1.50,36.19,-0.3165,-0.2087,9.5592,9.5667
34,8,2,4,1,29.621,29621,-0.3300,-0.2200,9.3900,9.3984,0.0022,0.0000,-0.0022,2.06,-1.50,36.19,-0.3182,-0.2102,9.5369,9.5445
34,8,2,4,1,29.794,29794,-0.3400,-0.2300,9.3200,9.3290,-0.0011,-0.0011,-0.0011,2.06,-1.50,36.19,-0.3211,-0.2128,9.5083,9.5161
34,8,2,4,1,29.925,29925,-0.3300,-0.2200,9.9500,9.9579,-0.0022,-0.0011,0.0055,2.06,-1.50,36.19,-0.3223,-0.2138,9.5665,9.5743
34,8,2,4,1,30.059,30059,-0.3200,-0.2500,10.3900,10.3979,-0.0022,0.0011,0.0055,2.06,-1.50,36.19,-0.3220,-0.2185,9.6750,9.6828
34,8,2,4,1,30.192,30192,-0.3200,-0.2200,10.7700,10.7770,-0.0022,0.0055,0.0065,2.06,-1.50,36.19,-0.3217,-0.2187,9.8193,9.8270
34,8,2,4,1,30.323,30323,-0.2300,-0.1600,10.9600,10.9636,0.0033,-0.0033,0.0000,2.06,-1.50,36.19,-0.3096,-0.2110,9.9696,9.9767
34,8,2,4,1,30.453,30453,-0.2000,-0.2000,11.0700,11.0736,0.0011,-0.0022,0.0131,2.06,-1.50,36.19,-0.2952,-0.2095,10.1146,10.1211
34,8,2,4,1,30.583,30583,-0.1900,-0.1900,10.7200,10.7234,0.0033,0.0109,0.0327,2.06,-1.50,36.31,-0.2813,-0.2070,10.1944,10.2004
34,8,2,4,1,30.714,30714,-0.4600,-0.5100,9.7000,9.7243,0.0087,0.0011,0.0262,2.06,-1.56,36.44,-0.3049,-0.2469,10.1292,10.1368
34,8,2,4,1,30.887,30887,-0.4100,-0.3200,8.4800,8.4959,-0.0022,-0.0087,0.0142,2.06,-1.56,36.69,-0.3187,-0.2565,9.9119,9.9204
34,8,2,4,1,31.019,31019,-0.2800,0.1700,7.0300,7.0376,-0.0065,-0.0055,-0.0011,2.13,-1.56,36.75,-0.3136,-0.2003,9.5322,9.5394
34,8,2,4,1,31.154,31154,-0.2800,-0.0200,4.6600,4.6684,-0.0076,-0.0011,-0.0044,2.13,-1.56,36.69,-0.3092,-0.1766,8.8901,8.8973
34,8,2,4,1,31.285,31285,-0.5400,0.0400,6.3800,6.4029,0.0022,0.0011,-0.0098,2.13,-1.56,36.75,-0.3396,-0.1480,8.5594,8.5674
34,9,2,4,1,31.415,31415,-0.2400,-0.1400,9.7600,9.7640,0.0076,-0.0011,-0.0076,2.13,-1.56,36.69,-0.3265,-0.1470,8.7176,8.7249
34,9,2,4,1,31.545,31545,-0.2500,-0.2100,10.0500,10.0553,0.0000,0.0022,0.0044,2.13,-1.56,36.69,-0.3164,-0.1553,8.8932,8.9001
34,9,2,4,1,31.676,31676,-0.3400,-0.1500,9.2300,9.2375,0.0044,0.0000,-0.0011,2.13,-1.56,36.69,-0.3195,-0.1546,8.9375,8.9446
34,9,2,4,1,31.807,31807,-0.4700,-0.1200,9.0400,9.0530,0.0022,-0.0011,0.0011,2.13,-1.56,36.69,-0.3393,-0.1500,8.9510,8.9587
34,9,2,4,1,31.985,31985,-0.2700,-0.2900,8.9200,8.9288,0.0033,0.0076,-0.0120,2.13,-1.56,36.63,-0.3302,-0.1685,8.9470,8.9546
34,9,2,4,1,32.116,32116,-0.1500,-0.2300,9.0400,9.0442,0.0000,-0.0076,-0.0098,2.06,-1.56,36.63,-0.3065,-0.1766,8.9592,8.9662
34,9,2,4,1,32.247,32247,-0.2100,-0.2600,9.2500,9.2560,-0.0011,0.0033,-0.0164,2.06,-1.56,36.50,-0.2937,-0.1876,8.9975,9.0043
34,9,2,4,1,32.377,32377,-0.3200,-0.1900,9.5800,9.5872,0.0000,0.0000,-0.0120,2.06,-1.56,36.44,-0.2972,-0.1879,9.0743,9.0811
34,9,2,4,1,32.507,32507,-0.3300,-0.1800,9.2900,9.2976,-0.0065,0.0098,-0.0076,2.06,-1.56,36.44,-0.3015,-0.1869,9.1027,9.1096
34,9,2,4,1,32.638,32638,-0.3800,-0.2100,9.4800,9.4899,-0.0044,-0.0033,-0.0196,2.06,-1.56,36.25,-0.3119,-0.1899,9.1524,9.1597
34,9,2,4,1,32.768,32768,-0.3900,-0.2200,9.1300,9.1410,-0.0033,-0.0033,-0.0055,2.06,-1.56,36.25,-0.3222,-0.1939,9.1495,9.1572
34,9,2,4,1,32.898,32898,-0.3200,-0.2000,9.5300,9.5375,0.0000,0.0044,-0.0207,2.06,-1.56,36.13,-0.3219,-0.1947,9.1996,9.2073
34,9,2,4,1,33.071,33071,-0.2600,-0.1900,9.4100,9.4155,0.0000,0.0011,0.0000,2.06,-1.56,36.06,-0.3137,-0.1941,9.2273,9.2347
34,9,2,4,1,33.203,33203,-0.2900,-0.2300,9.4200,9.4273,0.0022,0.0033,-0.0022,2.06,-1.63,35.94,-0.3106,-0.1988,9.2527,9.2601
34,9,2,4,1,33.338,33338,-0.3200,-0.2200,9.8100,9.8177,0.0022,-0.0076,0.0033,2.06,-1.63,35.94,-0.3118,-0.2016,9.3262,9.3336
34,9,2,4,1,33.469,33469,-0.4400,-0.2700,10.0500,10.0633,0.0022,-0.0087,-0.0022,2.13,-1.63,35.94,-0.3287,-0.2106,9.4215,9.4296
34,9,2,4,1,33.600,33600,-0.3000,-0.1900,9.8800,9.8864,0.0011,-0.0022,-0.0044,2.13,-1.63,35.94,-0.3249,-0.2079,9.4820,9.4898
34,9,2,4,1,33.730,33730,-0.3200,-0.2300,9.6100,9.6181,0.0011,-0.0022,-0.0076,2.13,-1.63,35.94,-0.3243,-0.2108,9.4988,9.5067
34,9,2,4,1,33.860,33860,-0.3500,-0.2300,10.2500,10.2586,0.0011,-0.0044,-0.0044,2.13,-1.63,35.94,-0.3277,-0.2133,9.5978,9.6058
34,9,2,4,1,33.991,33991,-0.3200,-0.1800,9.3600,9.3672,-0.0011,-0.0011,-0.0022,2.13,-1.63,35.94,-0.3267,-0.2089,9.5665,9.5743
34,9,2,4,1,34.164,34164,-0.3200,-0.2200,9.3900,9.3980,0.0000,0.0011,-0.0065,2.13,-1.63,35.94,-0.3258,-0.2104,9.5432,9.5511
34,9,2,4,1,34.295,34295,-0.3200,-0.1900,9.8900,9.8970,0.0000,-0.0011,0.0011,2.13,-1.63,35.94,-0.3250,-0.2077,9.5889,9.5967
34,9,2,4,1,34.428,34428,-0.3600,-0.2200,10.2700,10.2787,0.0022,0.0000,0.0044,2.13,-1.63,35.94,-0.3296,-0.2093,9.6787,9.6865
34,9,2,4,1,34.561,34561,-0.3500,-0.2400,11.2000,11.2080,-0.0011,-0.0011,0.0033,2.13,-1.63,35.94,-0.3323,-0.2134,9.8791,9.8870
34,9,2,4,1,34.692,34692,-0.5000,-0.2600,11.2500,11.2641,0.0022,-0.0011,0.0000,2.13,-1.63,35.94,-0.3544,-0.2195,10.0598,10.0684
34,9,2,4,1,34.823,34823,-0.4800,-0.2800,10.9000,10.9142,0.0000,0.0000,0.0087,2.06,-1.56,36.00,-0.3710,-0.2275,10.1705,10.1798
34,9,2,4,1,34.953,34953,0.5100,-0.0500,10.6600,10.6723,0.0000,0.0109,0.0262,2.06,-1.56,36.06,-0.2549,-0.2041,10.2350,10.2402
34,9,2,4,1,35.083,35083,0.1000,0.1300,9.7500,9.7514,0.0022,0.0044,0.0262,2.06,-1.63,36.19,-0.2081,-0.1601,10.1711,10.1745
34,9,2,4,1,35.257,35257,-0.8400,-0.2200,8.1600,8.2061,-0.0065,-0.0109,0.0098,2.13,-1.56,36.44,-0.2914,-0.1680,9.9061,9.9118
34,9,2,4,1,35.393,35393,-0.3700,0.1300,7.0100,7.0210,-0.0076,-0.0011,-0.0033,2.13,-1.56,36.44,-0.3017,-0.1287,9.5245,9.5301
34,9,2,4,1,35.524,35524,-0.2500,-0.0500,5.1400,5.1463,-0.0044,0.0000,-0.0055,2.13,-1.50,36.44,-0.2949,-0.1183,8.9467,8.9523
34,9,2,4,1,35.654,35654,-0.4600,-0.0500,7.0500,7.0652,0.0000,-0.0022,-0.0065,2.13,-1.50,36.44,-0.3167,-0.1093,8.6968,8.7032
34,10,2,4,1,35.784,35784,-0.2800,-0.2400,9.1500,9.1574,0.0033,0.0022,-0.0142,2.13,-1.50,36.38,-0.3118,-0.1265,8.7565,8.7629
34,10,2,4,1,35.915,35915,-0.3400,-0.2900,9.7800,9.7902,0.0011,0.0033,-0.0044,2.13,-1.50,36.38,-0.3156,-0.1481,8.8914,8.8982
34,10,2,4,1,36.045,36045,-0.2900,-0.2300,9.2100,9.2174,0.0011,0.0011,0.0000,2.13,-1.50,36.38,-0.3122,-0.1589,8.9333,8.9402
34,10,2,4,1,36.175,36175,-0.4000,-0.1300,9.0200,9.0298,0.0033,0.0011,-0.0065,2.13,-1.50,36.38,-0.3238,-0.1551,8.9448,8.9520
34,10,2,4,1,36.348,36348,-0.3300,-0.2400,9.3900,9.3989,0.0000,0.0000,-0.0164,2.13,-1.50,36.38,-0.3246,-0.1663,9.0034,9.0108
34,10,2,4,1,36.478,36478,-0.1500,-0.2400,9.3800,9.3843,0.0033,0.0076,-0.0044,2.06,-1.50,36.25,-0.3016,-0.1760,9.0531,9.0598
34,10,2,4,1,36.608,36608,-0.3700,-0.2400,9.1500,9.1606,-0.0055,-0.0011,-0.0185,2.06,-1.50,36.19,-0.3106,-0.1844,9.0658,9.0730
34,10,2,4,1,36.738,36738,-0.3000,-0.1900,8.8900,8.8971,-0.0022,0.0022,-0.0142,2.06,-1.50,36.13,-0.3092,-0.1852,9.0427,9.0498
34,10,2,4,1,36.868,36868,-0.3200,-0.1800,9.2800,9.2873,-0.0055,0.0033,-0.0196,2.06,-1.50,36.06,-0.3106,-0.1845,9.0739,9.0811
34,10,2,4,1,36.998,36998,-0.2700,-0.3100,9.3000,9.3091,-0.0065,0.0044,-0.0044,2.06,-1.50,36.00,-0.3053,-0.2010,9.1037,9.1111
34,10,2,4,1,37.128,37128,-0.3700,-0.2000,9.5100,9.5193,-0.0033,0.0022,-0.0175,2.06,-1.50,35.88,-0.3138,-0.2009,9.1573,9.1648
34,10,2,4,1,37.258,37258,-0.2900,-0.2200,9.7000,9.7068,-0.0011,-0.0044,-0.0033,2.06,-1.50,35.81,-0.3107,-0.2034,9.2288,9.2362
34,10,2,4,1,37.434,37434,-0.3000,-0.2100,9.5000,9.5071,-0.0033,0.0076,-0.0207,2.06,-1.50,35.63,-0.3093,-0.2043,9.2645,9.2719
34,10,2,4,1,37.568,37568,-0.2500,-0.0700,9.6800,9.6835,0.0000,-0.0131,0.0055,2.06,-1.50,35.63,-0.3014,-0.1866,9.3193,9.3260
34,10,2,4,1,37.699,37699,-0.3500,-0.2900,9.8400,9.8505,-0.0033,0.0065,-0.0240,2.06,-1.50,35.56,-0.3078,-0.2002,9.3879,9.3951
34,10,2,4,1,37.829,37829,-0.5700,-0.2800,9.6000,9.6210,0.0044,-0.0120,0.0131,2.06,-1.50,35.56,-0.3424,-0.2107,9.4158,9.4244
34,10,2,4,1,37.959,37959,-0.1600,-0.1500,9.7900,9.7925,0.0022,-0.0022,-0.0142,2.06,-1.50,35.50,-0.3184,-0.2027,9.4651,9.4727
34,10,2,4,1,38.089,38089,-0.3000,-0.2000,9.6700,9.6767,-0.0022,-0.0011,-0.0153,2.06,-1.50,35.50,-0.3159,-0.2024,9.4921,9.4996
34,10,2,4,1,38.219,38219,-0.3300,-0.1900,9.6100,9.6175,-0.0022,0.0011,0.0033,2.06,-1.50,35.50,-0.3178,-0.2007,9.5077,9.5151
34,10,2,4,1,38.350,38350,-0.3400,-0.2200,9.7800,9.7884,-0.0022,-0.0011,0.0011,2.06,-1.50,35.44,-0.3207,-0.2033,9.5436,9.5511
34,10,2,4,1,38.523,38523,-0.3200,-0.1800,9.6000,9.6070,0.0000,-0.0022,0.0011,2.06,-1.50,35.44,-0.3206,-0.2002,9.5510,9.5585
34,10,2,4,1,38.654,38654,-0.3100,-0.2100,9.3600,9.3675,-0.0011,0.0000,-0.0033,2.00,-1.50,35.44,-0.3192,-0.2015,9.5258,9.5333
34,10,2,4,1,38.784,38784,-0.2900,-0.2000,9.1000,9.1068,-0.0022,0.0011,-0.0065,2.00,-1.50,35.44,-0.3154,-0.2013,9.4697,9.4771
34,10,2,4,1,38.920,38920,-0.3000,-0.2000,9.3700,9.3769,-0.0022,0.0011,-0.0033,2.00,-1.44,35.44,-0.3133,-0.2011,9.4566,9.4639
34,10,2,4,1,39.051,39051,-0.3100,-0.2100,9.6100,9.6173,-0.0011,0.0011,0.0000,2.00,-1.44,35.44,-0.3129,-0.2023,9.4768,9.4841
34,10,2,4,1,39.181,39181,-0.3500,-0.1900,9.8300,9.8381,-0.0011,-0.0011,-0.0022,2.00,-1.44,35.44,-0.3178,-0.2007,9.5233,9.5307
34,10,2,4,1,39.312,39312,-0.3300,-0.2500,10.5800,10.5881,-0.0011,0.0000,-0.0011,2.00,-1.44,35.44,-0.3194,-0.2072,9.6626,9.6701
34,10,2,4,1,39.442,39442,-0.3500,-0.2500,11.2800,11.2882,0.0000,-0.0011,0.0044,2.00,-1.44,35.44,-0.3234,-0.2128,9.8757,9.8833
34,10,2,4,1,39.615,39615,-0.1400,-0.2300,11.1800,11.1832,0.0044,-0.0011,0.0033,2.00,-1.44,35.44,-0.2993,-0.2151,10.0476,10.0543
34,10,2,4,1,39.748,39748,-0.4700,-0.3000,10.8200,10.8344,0.0011,-0.0065,0.0076,2.00,-1.44,35.44,-0.3218,-0.2263,10.1494,10.1570
34,10,2,4,1,39.882,39882,-0.7800,-0.2600,10.2000,10.2331,0.0011,0.0000,0.0142,2.00,-1.44,35.63,-0.3821,-0.2307,10.1560,10.1658
34,10,2,4,1,40.013,40013,-0.4600,-0.5500,9.2400,9.2678,-0.0087,-0.0098,0.0044,2.06,-1.50,35.75,-0.3924,-0.2728,10.0353,10.0467
34,10,2,4,1,40.144,40144,-0.7600,-0.0600,8.4500,8.4843,0.0000,0.0065,0.0316,2.06,-1.50,35.94,-0.4408,-0.2448,9.8264,9.8394
34,10,2,4,1,40.274,40274,-0.1600,-0.1400,7.3000,7.3031,-0.0098,-0.0055,0.0087,2.06,-1.50,36.00,-0.4038,-0.2309,9.4935,9.5049
34,10,2,4,1,40.404,40404,-0.5000,-0.2100,5.4800,5.5068,-0.0011,-0.0011,-0.0033,2.13,-1.44,36.00,-0.4165,-0.2282,8.9646,8.9772
34,10,2,4,1,40.535,40535,-0.3400,-0.2500,6.5800,6.5935,-0.0044,-0.0055,0.0120,2.13,-1.44,36.00,-0.4064,-0.2311,8.6504,8.6630
34,11,2,4,1,40.708,40708,-0.3800,-0.1100,9.1300,9.1386,0.0098,0.0098,-0.0109,2.13,-1.50,36.00,-0.4029,-0.2151,8.7136,8.7256
34,11,2,4,1,40.838,40838,-0.4200,-0.1800,9.3400,9.3512,-0.0022,0.0011,0.0000,2.06,-1.50,36.00,-0.4052,-0.2105,8.7961,8.8080
34,11,2,4,1,40.974,40974,-0.4900,-0.1600,9.2100,9.2244,0.0022,0.0022,-0.0033,2.06,-1.50,36.00,-0.4164,-0.2038,8.8507,8.8628
34,11,2,4,1,41.106,41106,-0.2400,-0.1900,9.4400,9.4450,-0.0011,0.0065,-0.0055,2.06,-1.50,36.00,-0.3931,-0.2020,8.9283,8.9393
34,11,2,4,1,41.236,41236,-0.5700,-0.2100,9.6600,9.6791,0.0055,-0.0022,-0.0229,2.06,-1.50,35.94,-0.4164,-0.2031,9.0247,9.0366
34,11,2,4,1,41.366,41366,-0.1500,-0.1700,9.3900,9.3927,-0.0011,0.0033,-0.0044,2.06,-1.50,35.88,-0.3813,-0.1987,9.0729,9.0831
34,11,2,4,1,41.497,41497,-0.3200,-0.3000,9.2700,9.2804,-0.0033,0.0033,-0.0142,2.06,-1.50,35.88,-0.3732,-0.2121,9.0989,9.1090
34,11,2,4,1,41.627,41627,-0.3200,-0.2100,9.4600,9.4677,-0.0011,0.0033,-0.0055,2.06,-1.50,35.81,-0.3662,-0.2118,9.1464,9.1562
34,11,2,4,1,41.800,41800,-0.3100,-0.2300,9.3400,9.3480,-0.0065,0.0065,-0.0175,2.00,-1.44,35.81,-0.3588,-0.2142,9.1720,9.1815
34,11,2,4,1,41.931,41931,-0.3100,-0.1600,9.2600,9.2666,-0.0022,0.0033,0.0055,2.00,-1.44,35.75,-0.3524,-0.2070,9.1836,9.1926
34,11,2,4,1,42.062,42062,-0.3200,-0.2000,9.2900,9.2977,-0.0011,0.0022,-0.0087,2.00,-1.44,35.69,-0.3481,-0.2061,9.1976,9.2065
34,11,2,4,1,42.195,42195,-0.2700,-0.1700,9.5500,9.5553,-0.0033,0.0022,-0.0164,2.00,-1.44,35.63,-0.3378,-0.2014,9.2440,9.2524
34,11,2,4,1,42.328,42328,-0.2700,-0.1700,9.5900,9.5953,-0.0011,0.0000,-0.0033,2.00,-1.44,35.63,-0.3289,-0.1972,9.2896,9.2975
34,11,2,4,1,42.459,42459,-0.3800,-0.2100,9.5900,9.5998,0.0011,-0.0044,-0.0022,2.00,-1.44,35.63,-0.3356,-0.1989,9.3292,9.3373
34,11,2,4,1,42.589,42589,-0.2600,-0.2200,9.6400,9.6460,-0.0033,0.0022,-0.0033,2.00,-1.44,35.63,-0.3257,-0.2017,9.3702,9.3780
34,11,2,4,1,42.719,42719,-0.3000,-0.2000,9.8800,9.8866,-0.0033,0.0011,0.0044,2.00,-1.44,35.63,-0.3223,-0.2015,9.4373,9.4450
34,11,2,4,1,42.892,42892,-0.3100,-0.2300,9.7700,9.7776,-0.0011,0.0022,0.0044,2.00,-1.44,35.63,-0.3207,-0.2052,9.4812,9.4888
34,11,2,4,1,43.025,43025,-0.3500,-0.2100,9.4500,9.4588,-0.0011,0.0044,-0.0044,2.00,-1.44,35.63,-0.3245,-0.2059,9.4771,9.4849
34,11,2,4,1,43.160,43160,-0.3200,-0.2100,9.5100,9.5177,0.0000,-0.0011,-0.0033,2.00,-1.44,35.63,-0.3239,-0.2064,9.4814,9.4892
34,11,2,4,1,43.290,43290,-0.3300,-0.2100,10.1800,10.1875,0.0011,0.0000,0.0000,2.00,-1.44,35.63,-0.3247,-0.2069,9.5735,9.5812
34,11,2,4,1,43.440,43440,-0.3300,-0.2000,9.4300,9.4379,0.0011,-0.0011,-0.0044,2.00,-1.44,35.63,-0.3254,-0.2060,9.5546,9.5623
34,11,2,4,1,43.571,43571,-0.3000,-0.1900,9.4100,9.4167,0.0011,-0.0022,-0.0033,2.00,-1.44,35.63,-0.3221,-0.2039,9.5355,9.5431
34,11,2,4,1,43.701,43701,-0.3200,-0.1700,9.3300,9.3370,0.0011,-0.0044,0.0022,2.00,-1.44,35.63,-0.3218,-0.1994,9.5084,9.5160
34,11,2,4,1,43.831,43831,-0.3200,-0.2100,9.3700,9.3778,0.0022,0.0000,0.0022,2.00,-1.44,35.63,-0.3216,-0.2008,9.4902,9.4978
34,11,2,4,1,44.004,44004,-0.3000,-0.2000,9.1600,9.1671,0.0022,0.0000,-0.0033,2.00,-1.44,35.63,-0.3187,-0.2007,9.4467,9.4542
34,11,2,4,1,44.135,44135,-0.3200,-0.1800,9.4800,9.4871,-0.0022,0.0022,0.0011,2.00,-1.44,35.63,-0.3189,-0.1980,9.4511,9.4585
34,11,2,4,1,44.266,44266,-0.3800,-0.2400,9.9100,9.9202,-0.0033,0.0022,-0.0055,2.00,-1.44,35.63,-0.3269,-0.2035,9.5115,9.5193
34,11,2,4,1,44.401,44401,-0.3300,-0.2200,11.0400,11.0471,0.0000,-0.0011,0.0044,2.00,-1.44,35.63,-0.3273,-0.2057,9.7130,9.7206
34,11,2,4,1,44.533,44533,-0.3500,-0.2500,11.4300,11.4381,-0.0033,0.0033,0.0044,2.00,-1.44,35.63,-0.3303,-0.2115,9.9392,9.9470
34,11,2,4,1,44.663,44663,-0.6000,-0.3700,10.9300,10.9527,0.0098,-0.0087,-0.0055,2.00,-1.44,35.63,-0.3659,-0.2324,10.0698,10.0791
34,11,2,4,1,44.794,44794,-0.1900,-0.1500,10.6800,10.6827,0.0033,0.0000,0.0120,2.00,-1.44,35.63,-0.3427,-0.2215,10.1502,10.1584
34,11,2,4,1,44.924,44924,-1.0500,-0.4500,9.9700,10.0352,0.0033,-0.0076,0.0153,2.00,-1.44,35.75,-0.4359,-0.2516,10.1264,10.1389
34,11,2,4,1,45.099,45099,-0.9200,-0.6200,8.8300,8.8994,-0.0022,-0.0044,0.0065,2.06,-1.50,35.94,-0.4997,-0.3002,9.9556,9.9727
34,11,2,4,1,45.234,45234,-0.3500,0.6100,7.8500,7.8814,-0.0033,0.0000,0.0175,2.06,-1.50,36.13,-0.4800,-0.1802,9.6781,9.6917
34,11,2,4,1,45.365,45365,-0.0200,-0.4900,6.4500,6.4686,-0.0120,-0.0022,-0.0055,2.06,-1.50,36.13,-0.4194,-0.2211,9.2528,9.2649
34,11,2,4,1,45.495,45495,-0.4900,0.0200,5.0100,5.0339,-0.0033,-0.0065,0.0065,2.06,-1.50,36.06,-0.4287,-0.1893,8.6937,8.7063
34,11,2,4,1,45.625,45625,-0.2600,-0.1800,7.5100,7.5167,0.0076,-0.0011,-0.0087,2.06,-1.50,36.13,-0.4064,-0.1881,8.5377,8.5494
34,11,2,4,1,45.756,45756,-0.3200,-0.2700,9.3200,9.3294,0.0065,0.0065,0.0044,2.06,-1.50,36.06,-0.3950,-0.1989,8.6408,8.6521
34,11,2,4,1,45.886,45886,-0.4500,-0.2100,9.6100,9.6228,0.0000,-0.0022,-0.0022,2.06,-1.50,36.13,-0.4023,-0.2003,8.7685,8.7800
34,11,2,4,1,46.016,46016,-0.1800,-0.2700,9.3600,9.3656,0.0022,0.0000,-0.0109,2.06,-1.50,36.06,-0.3730,-0.2095,8.8464,8.8568
34,11,2,4,1,46.189,46189,-0.4600,-0.1500,9.5000,9.5123,0.0011,0.0076,-0.0022,2.06,-1.50,36.06,-0.3845,-0.2017,8.9326,8.9431
34,11,2,4,1,46.320,46320,-0.4800,-0.2300,9.4900,9.5049,-0.0033,-0.0022,-0.0175,2.06,-1.50,35.94,-0.3971,-0.2054,9.0060,9.0171
34,11,2,4,1,46.450,46450,-0.3400,-0.1900,9.1200,9.1283,0.0011,-0.0033,-0.0087,2.06,-1.50,35.94,-0.3895,-0.2034,9.0210,9.0317
34,11,2,4,1,46.586,46586,-0.2600,-0.2600,8.6200,8.6278,-0.0033,0.0033,-0.0153,2.00,-1.50,35.81,-0.3725,-0.2108,8.9682,8.9784
34,11,2,4,1,46.718,46718,-0.3100,-0.2300,8.9700,8.9783,-0.0065,0.0000,-0.0175,2.00,-1.50,35.75,-0.3642,-0.2134,8.9684,8.9784
34,11,2,4,1,46.848,46848,-0.3300,-0.1600,9.1000,9.1074,-0.0087,0.0044,-0.0164,2.00,-1.50,35.63,-0.3597,-0.2063,8.9858,8.9953
34,11,2,4,1,46.978,46978,-0.3300,-0.2300,9.2200,9.2288,-0.0033,0.0022,-0.0164,2.00,-1.50,35.56,-0.3558,-0.2094,9.0166,9.0261
34,11,2,4,1,47.124,47124,-0.3400,-0.1200,9.6100,9.6168,-0.0033,-0.0011,-0.0120,2.00,-1.50,35.44,-0.3537,-0.1977,9.0948,9.1038
34,11,2,4,1,47.299,47299,-0.2500,-0.2700,10.1500,10.1567,0.0011,-0.0098,0.0011,2.00,-1.50,35.44,-0.3401,-0.2072,9.2339,9.2425
34,11,2,4,1,47.429,47429,-0.4100,-0.2500,12.0300,12.0396,0.0022,-0.0120,-0.0087,2.06,-1.50,35.44,-0.3493,-0.2128,9.6023,9.6110
34,11,2,4,1,47.560,47560,-0.4100,-0.3100,10.7300,10.7423,0.0000,0.0011,-0.0098,2.06,-1.50,35.44,-0.3573,-0.2256,9.7509,9.7601
34,11,2,4,1,47.690,47690,-0.3100,-0.2000,9.2700,9.2773,-0.0011,-0.0022,0.0033,2.06,-1.50,35.38,-0.3510,-0.2223,9.6876,9.6965
34,11,2,4,1,47.820,47820,-0.2900,-0.1600,8.4700,8.4765,0.0000,0.0033,-0.0098,2.06,-1.50,35.38,-0.3430,-0.2141,9.5271,9.5357
34,11,2,4,1,47.951,47951,-0.3500,-0.2600,9.2100,9.2203,-0.0022,-0.0011,-0.0022,2.06,-1.50,35.38,-0.3439,-0.2201,9.4853,9.4941
34,11,2,4,1,48.081,48081,-0.3000,-0.1700,9.1500,9.1565,-0.0011,-0.0022,0.0055,2.06,-1.50,35.38,-0.3381,-0.2135,9.4411,9.4496
34,11,2,4,1,48.211,48211,-0.3200,-0.2100,8.7900,8.7983,-0.0022,0.0000,-0.0044,2.06,-1.50,35.38,-0.3357,-0.2130,9.3553,9.3638
34,11,2,4,1,48.384,48384,-0.3100,-0.2100,8.7400,8.7480,-0.0022,-0.0011,-0.0087,2.06,-1.50,35.38,-0.3324,-0.2126,9.2742,9.2826
34,11,2,4,1,48.516,48516,-0.2900,-0.1700,9.5200,9.5259,-0.0011,-0.0022,-0.0087,2.06,-1.50,35.38,-0.3268,-0.2070,9.3066,9.3147
34,11,2,4,1,48.651,48651,-0.3500,-0.2600,9.4800,9.4900,-0.0011,-0.0033,-0.0076,2.06,-1.50,35.38,-0.3298,-0.2140,9.3295,9.3378
34,11,2,4,1,48.783,48783,-0.3300,-0.1700,9.2200,9.2275,0.0011,-0.0055,-0.0033,2.06,-1.50,35.38,-0.3299,-0.2082,9.3151,9.3232
34,11,2,4,1,48.913,48913,-0.3700,-0.2100,8.6000,8.6105,0.0022,-0.0044,-0.0098,2.06,-1.50,35.38,-0.3351,-0.2084,9.2208,9.2293
34,11,2,4,1,49.043,49043,-0.2800,-0.1500,7.7200,7.7265,-0.0022,-0.0044,-0.0065,2.06,-1.50,35.38,-0.3279,-0.2007,9.0231,9.0312
34,11,2,4,1,49.174,49174,-0.4000,-0.1500,8.0100,8.0214,0.0000,-0.0055,-0.0065,2.06,-1.50,35.38,-0.3374,-0.1941,8.8896,8.8981
34,11,2,4,1,49.304,49304,-0.0300,0.5300,-0.7700,0.9353,-1.9570,-0.8443,3.0740,1.81,0.19,41.75,-0.2969,-0.0986,7.6167,7.6231
34,11,2,4,1,49.477,49477,-0.0600,-1.4300,6.2300,6.3923,-0.1134,-0.1309,0.1789,1.06,-2.00,43.06,-0.2657,-0.2741,7.4339,7.4437
