participant,rep,equipment_code,exercise_code,quality_code,timestamp,timestamp_ms,accelX,accelY,accelZ,accelMag,gyroX,gyroY,gyroZ,roll,pitch,yaw,filteredX,filteredY,filteredZ,filteredMag
34,1,2,4,1,00.000,0,0.0800,-0.5800,11.6800,11.6947,0.0033,-0.0022,0.0022,2.44,-0.25,37.19,-0.4476,-0.1594,9.4575,9.4694
34,1,2,4,1,00.136,136,-0.2000,-0.0100,9.4200,9.4221,0.0022,-0.0022,-0.0065,2.44,-0.25,37.19,-0.4150,-0.1397,9.4526,9.4627
34,1,2,4,1,00.268,268,-0.4600,-0.0200,9.6400,9.6510,-0.0011,-0.0022,-0.0076,2.50,-0.25,37.13,-0.4209,-0.1240,9.4773,9.4874
34,1,2,4,1,00.398,398,0.3300,-0.0500,11.6900,11.6948,0.0076,0.0011,0.0284,2.56,-0.31,37.31,-0.3220,-0.1142,9.7689,9.7748
34,1,2,4,1,00.529,529,-0.9500,0.3400,10.1100,10.1602,-0.0044,-0.0022,-0.0218,2.50,-0.31,37.19,-0.4047,-0.0544,9.8138,9.8223
34,1,2,4,1,00.659,659,-0.8900,0.2300,8.2400,8.2911,-0.0033,-0.0076,0.0164,2.56,-0.31,37.25,-0.4687,-0.0169,9.6064,9.6179
34,1,2,4,1,00.832,832,-0.5400,0.1200,8.8000,8.8174,-0.0109,0.0087,0.0033,2.50,-0.31,37.25,-0.4781,0.0012,9.5002,9.5122
34,1,2,4,1,00.966,966,-0.6500,0.7800,9.3400,9.3950,-0.0513,-0.0742,-0.0109,2.50,-0.25,37.19,-0.5007,0.1038,9.4791,9.4928
34,1,2,4,1,01.099,1099,-0.2900,-0.2900,9.3600,9.3690,-0.0131,0.0262,-0.0033,2.44,-0.25,37.13,-0.4730,0.0519,9.4634,9.4753
34,1,2,4,1,01.230,1230,0.0300,-0.0800,9.3300,9.3304,0.0065,-0.0065,-0.0011,2.44,-0.25,37.13,-0.4067,0.0345,9.4458,9.4546
34,1,2,4,1,01.361,1361,-0.2800,-0.0400,9.0100,9.0144,-0.0044,0.0120,-0.0371,2.38,-0.25,37.00,-0.3900,0.0247,9.3884,9.3965
34,1,2,4,1,01.491,1491,-0.5100,-0.0400,8.8700,8.8847,-0.0044,-0.0022,0.0153,2.44,-0.31,36.94,-0.4058,0.0162,9.3201,9.3289
34,1,2,4,1,01.621,1621,-0.1200,0.0000,9.2100,9.2108,-0.0044,-0.0055,-0.0273,2.38,-0.31,36.94,-0.3681,0.0140,9.3056,9.3128
34,1,2,4,1,01.752,1752,-0.8500,-0.2500,10.0000,10.0392,0.0087,0.0164,-0.0218,2.31,-0.31,36.75,-0.4316,-0.0208,9.3971,9.4070
34,1,2,4,1,01.925,1925,-0.2800,-0.0800,10.3200,10.3241,0.0011,-0.0131,-0.0229,2.38,-0.25,36.75,-0.4117,-0.0286,9.5187,9.5276
34,1,2,4,1,02.055,2055,-0.7100,-0.0900,10.3300,10.3548,0.0055,0.0131,0.0044,2.25,-0.25,36.63,-0.4510,-0.0367,9.6256,9.6362
34,1,2,4,1,02.186,2186,-0.4800,0.0500,9.8700,9.8818,0.0011,-0.0251,-0.0044,2.38,-0.25,36.69,-0.4548,-0.0252,9.6578,9.6685
34,1,2,4,1,02.320,2320,-0.5000,0.0900,9.7500,9.7632,-0.0055,0.0087,0.0000,2.31,-0.25,36.63,-0.4608,-0.0101,9.6699,9.6809
34,1,2,4,1,02.453,2453,-0.3200,-0.0500,10.0800,10.0852,0.0022,-0.0076,0.0098,2.38,-0.25,36.63,-0.4422,-0.0153,9.7240,9.7340
34,1,2,4,1,02.583,2583,-0.2600,-0.1200,10.8300,10.8338,-0.0044,0.0022,-0.0131,2.31,-0.25,36.56,-0.4182,-0.0291,9.8697,9.8786
34,1,2,4,1,02.714,2714,0.5300,0.1800,10.3400,10.3551,0.0175,-0.0284,0.0316,2.38,-0.25,36.63,-0.2932,-0.0016,9.9317,9.9360
34,1,2,4,1,02.844,2844,-0.4000,-0.0800,11.0100,11.0176,-0.0033,0.0022,-0.0305,2.38,-0.25,36.50,-0.3073,-0.0119,10.0738,10.0785
34,1,2,4,1,03.017,3017,-0.0300,-0.0900,11.6500,11.6504,0.0033,-0.0033,0.0000,2.31,-0.25,36.56,-0.2708,-0.0222,10.2815,10.2851
34,1,2,4,1,03.151,3151,-0.0100,-0.1300,11.7200,11.7207,0.0065,-0.0065,0.0153,2.31,-0.25,36.50,-0.2364,-0.0364,10.4711,10.4738
34,1,2,4,1,03.282,3282,-0.0300,0.1800,11.6100,11.6114,-0.0153,0.0349,0.0175,2.31,-0.25,36.56,-0.2092,-0.0079,10.6211,10.6232
34,2,2,4,1,03.415,3415,-0.9400,-0.3200,10.1900,10.2383,0.0011,-0.0164,0.0164,2.38,-0.25,36.81,-0.3055,-0.0490,10.5643,10.5689
34,2,2,4,1,03.546,3546,0.1100,0.2200,8.7500,8.7535,0.0022,-0.0044,0.0436,2.38,-0.25,37.06,-0.2508,-0.0136,10.3252,10.3283
34,2,2,4,1,03.676,3676,-0.5800,0.2100,7.5300,7.5552,-0.0175,-0.0033,0.0316,2.38,-0.19,37.25,-0.2941,0.0159,9.9569,9.9613
34,2,2,4,1,03.806,3806,-0.3600,0.1000,7.1400,7.1498,-0.0033,-0.0055,-0.0098,2.38,-0.13,37.25,-0.3028,0.0270,9.5857,9.5905
34,2,2,4,1,03.937,3937,-0.3400,-0.0800,6.1500,6.1599,-0.0033,-0.0055,0.0022,2.38,-0.13,37.19,-0.3077,0.0129,9.1330,9.1382
34,2,2,4,1,04.109,4109,-0.4000,-0.1300,9.0900,9.0997,-0.0022,0.0044,-0.0065,2.31,-0.13,37.19,-0.3199,-0.0059,9.1273,9.1329
34,2,2,4,1,04.240,4240,-0.4000,-0.1500,9.5600,9.5695,-0.0011,-0.0011,0.0120,2.31,-0.19,37.19,-0.3304,-0.0249,9.1843,9.1903
34,2,2,4,1,04.376,4376,-0.5200,-0.0800,9.7300,9.7442,0.0022,0.0011,-0.0142,2.31,-0.19,37.13,-0.3554,-0.0322,9.2562,9.2631
34,2,2,4,1,04.508,4508,-0.3200,-0.1200,9.3200,9.3263,-0.0011,0.0022,0.0098,2.31,-0.19,37.13,-0.3507,-0.0438,9.2646,9.2714
34,2,2,4,1,04.638,4638,-0.3700,-0.0900,8.9000,8.9081,0.0033,0.0011,-0.0142,2.31,-0.19,37.06,-0.3533,-0.0498,9.2166,9.2235
34,2,2,4,1,04.768,4768,-0.3600,-0.0400,8.8200,8.8274,-0.0055,0.0022,0.0022,2.31,-0.19,37.06,-0.3542,-0.0486,9.1643,9.1713
34,2,2,4,1,04.899,4899,-0.3100,-0.0800,9.2700,9.2755,-0.0011,-0.0022,-0.0109,2.31,-0.19,37.00,-0.3484,-0.0527,9.1782,9.1850
34,2,2,4,1,05.029,5029,-0.3300,-0.0900,9.5700,9.5761,-0.0022,0.0000,-0.0262,2.31,-0.19,36.88,-0.3459,-0.0576,9.2299,9.2365
34,2,2,4,1,05.203,5203,-0.4600,-0.3000,9.6500,9.6656,-0.0011,-0.0065,-0.0164,2.31,-0.25,36.69,-0.3610,-0.0896,9.2852,9.2927
34,2,2,4,1,05.334,5334,-0.5200,0.0000,9.8900,9.9037,-0.0033,0.0000,-0.0262,2.31,-0.25,36.63,-0.3819,-0.0778,9.3649,9.3730
34,2,2,4,1,05.469,5469,-0.3400,-0.0600,9.6700,9.6762,-0.0033,0.0044,0.0011,2.31,-0.25,36.50,-0.3764,-0.0754,9.4051,9.4130
34,2,2,4,1,05.599,5599,-0.5400,-0.1200,10.0100,10.0253,-0.0033,0.0055,-0.0262,2.31,-0.25,36.44,-0.3980,-0.0813,9.4848,9.4935
34,2,2,4,1,05.731,5731,-0.3600,-0.2000,9.9000,9.9086,-0.0033,0.0000,0.0109,2.25,-0.25,36.38,-0.3930,-0.0969,9.5395,9.5481
34,2,2,4,1,05.861,5861,-0.2500,0.0300,9.8000,9.8032,0.0065,0.0098,-0.0065,2.25,-0.25,36.25,-0.3741,-0.0802,9.5739,9.5815
34,2,2,4,1,05.991,5991,-0.3100,-0.0300,9.7900,9.7950,-0.0022,-0.0087,0.0153,2.31,-0.25,36.31,-0.3657,-0.0736,9.6023,9.6096
34,2,2,4,1,06.121,6121,-0.5200,-0.0800,10.0200,10.0338,-0.0033,0.0055,-0.0240,2.31,-0.25,36.19,-0.3860,-0.0744,9.6574,9.6654
34,2,2,4,1,06.294,6294,-0.1900,-0.0900,9.8800,9.8822,0.0000,-0.0055,-0.0065,2.31,-0.25,36.25,-0.3602,-0.0765,9.6867,9.6937
34,2,2,4,1,06.424,6424,-0.6000,-0.0700,10.1100,10.1280,-0.0022,-0.0033,0.0000,2.31,-0.25,36.13,-0.3918,-0.0756,9.7425,9.7507
34,2,2,4,1,06.554,6554,-0.2900,-0.0500,10.0900,10.0943,-0.0022,0.0011,-0.0164,2.31,-0.25,36.19,-0.3784,-0.0723,9.7883,9.7959
34,2,2,4,1,06.684,6684,-0.3800,-0.0700,10.2100,10.2173,-0.0011,-0.0044,0.0153,2.31,-0.31,36.06,-0.3786,-0.0720,9.8439,9.8514
34,2,2,4,1,06.814,6814,-0.4400,-0.0800,10.2300,10.2398,-0.0011,0.0033,-0.0175,2.31,-0.31,36.06,-0.3867,-0.0730,9.8947,9.9026
34,2,2,4,1,06.944,6944,-0.4000,-0.0900,9.7400,9.7486,-0.0011,-0.0055,0.0033,2.25,-0.31,36.06,-0.3884,-0.0753,9.8744,9.8823
34,2,2,4,1,07.074,7074,-0.6500,-0.2100,10.6700,10.6918,-0.0044,0.0065,-0.0175,2.38,-0.31,36.06,-0.4229,-0.0930,9.9792,9.9886
34,2,2,4,1,07.204,7204,-0.3300,-0.1500,11.6000,11.6057,0.0011,-0.0055,0.0109,2.31,-0.31,36.06,-0.4107,-0.1005,10.1928,10.2015
34,2,2,4,1,07.377,7377,-0.2600,-0.0200,11.2000,11.2030,0.0022,-0.0044,0.0076,2.31,-0.31,36.06,-0.3908,-0.0899,10.3255,10.3333
34,2,2,4,1,07.513,7513,-0.3100,-0.1600,11.3000,11.3054,-0.0065,0.0065,-0.0055,2.31,-0.31,36.06,-0.3802,-0.0991,10.4539,10.4613
34,2,2,4,1,07.643,7643,-0.4200,-0.4600,11.2900,11.3072,0.0240,-0.0055,0.0535,2.31,-0.31,36.13,-0.3854,-0.1467,10.5641,10.5721
34,3,2,4,1,07.775,7775,-0.3900,0.3100,10.0100,10.0224,0.0207,-0.0011,0.0349,2.31,-0.31,36.44,-0.3860,-0.0865,10.4911,10.4985
34,3,2,4,1,07.905,7905,-0.4300,0.6000,8.4400,8.4722,-0.0218,0.0033,0.0295,2.31,-0.31,36.69,-0.3918,0.0039,10.2208,10.2283
34,3,2,4,1,08.036,8036,-0.2200,0.2900,7.1700,7.1792,-0.0033,-0.0065,-0.0175,2.31,-0.25,36.75,-0.3692,0.0416,9.8188,9.8258
34,3,2,4,1,08.166,8166,-0.2800,-0.1100,5.5200,5.5282,-0.0033,0.0065,-0.0087,2.31,-0.19,36.69,-0.3574,0.0217,9.2523,9.2592
34,3,2,4,1,08.296,8296,-0.5200,-0.0100,7.7200,7.7375,-0.0044,0.0044,0.0033,2.31,-0.19,36.75,-0.3788,0.0175,9.0504,9.0583
34,3,2,4,1,08.469,8469,-0.3600,-0.0300,9.8200,9.8266,-0.0022,-0.0022,0.0011,2.31,-0.19,36.69,-0.3764,0.0112,9.1518,9.1595
34,3,2,4,1,08.600,8600,-0.3900,-0.0600,10.3200,10.3275,0.0022,0.0022,-0.0065,2.31,-0.19,36.75,-0.3782,0.0018,9.3057,9.3134
34,3,2,4,1,08.736,8736,-0.3800,-0.0700,9.4000,9.4079,-0.0011,0.0033,0.0011,2.31,-0.19,36.69,-0.3784,-0.0076,9.3182,9.3258
34,3,2,4,1,08.867,8867,-0.4100,-0.0600,8.9800,8.9896,-0.0022,0.0011,-0.0087,2.31,-0.19,36.69,-0.3826,-0.0145,9.2736,9.2815
34,3,2,4,1,08.998,8998,-0.3700,-0.0300,9.1400,9.1475,-0.0022,0.0055,-0.0065,2.31,-0.19,36.69,-0.3809,-0.0166,9.2560,9.2638
34,3,2,4,1,09.128,9128,-0.3300,-0.0800,9.2600,9.2662,0.0000,0.0022,-0.0164,2.31,-0.19,36.63,-0.3742,-0.0249,9.2565,9.2641
34,3,2,4,1,09.258,9258,-0.4600,0.0100,9.4000,9.4113,-0.0011,0.0033,-0.0087,2.31,-0.19,36.56,-0.3855,-0.0203,9.2754,9.2835
34,3,2,4,1,09.389,9389,-0.4200,-0.1500,9.5900,9.6004,-0.0033,0.0022,-0.0295,2.31,-0.19,36.38,-0.3901,-0.0374,9.3169,9.3251
34,3,2,4,1,09.561,9561,-0.2100,-0.0600,9.9000,9.9024,-0.0033,0.0109,-0.0044,2.25,-0.25,36.31,-0.3663,-0.0404,9.3937,9.4010
34,3,2,4,1,09.692,9692,-0.4200,-0.1500,9.7200,9.7302,-0.0022,-0.0055,-0.0164,2.25,-0.25,36.19,-0.3734,-0.0548,9.4367,9.4443
34,3,2,4,1,09.822,9822,-0.4000,-0.0500,9.6300,9.6384,-0.0033,0.0055,-0.0076,2.25,-0.25,36.19,-0.3769,-0.0542,9.4622,9.4698
34,3,2,4,1,09.953,9953,-0.3900,-0.0900,9.5200,9.5284,0.0022,0.0207,-0.0425,2.25,-0.25,35.94,-0.3786,-0.0589,9.4698,9.4776
34,3,2,4,1,10.083,10083,-0.3000,0.0100,9.7500,9.7546,0.0000,0.0000,0.0011,2.25,-0.25,35.94,-0.3683,-0.0498,9.5067,9.5140
34,3,2,4,1,10.214,10214,-0.5000,-0.1700,9.7300,9.7443,0.0175,0.0131,-0.0240,2.25,-0.25,35.75,-0.3856,-0.0657,9.5361,9.5442
34,3,2,4,1,10.345,10345,-0.0300,0.0300,10.3100,10.3101,0.0033,-0.0098,-0.0011,2.31,-0.25,35.88,-0.3388,-0.0531,9.6381,9.6442
34,3,2,4,1,10.478,10478,-0.7200,-0.0900,10.0000,10.0263,-0.0011,0.0175,-0.0131,2.25,-0.25,35.69,-0.3890,-0.0579,9.6858,9.6938
34,3,2,4,1,10.651,10651,0.0000,-0.0700,10.3900,10.3902,0.0044,-0.0076,-0.0207,2.31,-0.25,35.81,-0.3377,-0.0595,9.7786,9.7846
34,3,2,4,1,10.782,10782,-0.7800,-0.0200,10.0600,10.0902,-0.0011,-0.0055,0.0022,2.25,-0.25,35.69,-0.3960,-0.0543,9.8157,9.8238
34,3,2,4,1,10.912,10912,-0.1400,0.0500,9.6800,9.6811,-0.0044,0.0000,-0.0033,2.25,-0.25,35.75,-0.3623,-0.0406,9.7978,9.8046
34,3,2,4,1,11.043,11043,-0.5800,-0.0600,9.8300,9.8473,-0.0022,-0.0011,-0.0076,2.25,-0.25,35.63,-0.3910,-0.0431,9.8020,9.8099
34,3,2,4,1,11.173,11173,-0.3700,-0.0900,10.5300,10.5369,-0.0044,0.0044,0.0000,2.25,-0.25,35.63,-0.3882,-0.0493,9.8980,9.9057
34,3,2,4,1,11.303,11303,-0.4600,-0.0600,10.9000,10.9099,0.0000,-0.0076,0.0076,2.25,-0.25,35.63,-0.3977,-0.0507,10.0300,10.0380
34,3,2,4,1,11.433,11433,0.0100,-0.0100,12.1900,12.1900,-0.0109,0.0436,-0.0098,2.25,-0.25,35.63,-0.3439,-0.0453,10.3146,10.3205
34,3,2,4,1,11.563,11563,-0.5200,0.0900,11.9200,11.9317,-0.0142,0.0491,0.0000,2.25,-0.25,35.63,-0.3671,-0.0275,10.5262,10.5326
34,3,2,4,1,11.736,11736,-0.6600,-0.3900,10.8100,10.8371,0.0175,-0.0207,0.0415,2.31,-0.25,35.56,-0.4057,-0.0753,10.5636,10.5716
34,3,2,4,1,11.869,11869,-0.2800,0.3000,10.7600,10.7678,-0.0065,0.0065,0.0185,2.31,-0.25,35.81,-0.3892,-0.0258,10.5895,10.5967
34,4,2,4,1,12.000,12000,-0.6300,-0.0700,9.3900,9.4114,0.0000,-0.0076,0.0360,2.31,-0.31,35.94,-0.4209,-0.0316,10.4314,10.4399
34,4,2,4,1,12.134,12134,-0.3500,-0.2300,8.4700,8.4803,0.0033,-0.0022,0.0120,2.31,-0.25,36.25,-0.4116,-0.0578,10.1729,10.1814
34,4,2,4,1,12.265,12265,-0.2800,0.5400,7.3700,7.3951,-0.0055,-0.0109,-0.0131,2.38,-0.25,36.25,-0.3942,0.0210,9.8036,9.8115
34,4,2,4,1,12.396,12396,-0.2700,0.1900,5.8500,5.8593,0.0065,0.0011,-0.0120,2.38,-0.19,36.25,-0.3779,0.0433,9.2826,9.2904
34,4,2,4,1,12.526,12526,-0.3600,0.1900,7.1900,7.2015,-0.0033,-0.0033,0.0196,2.38,-0.19,36.25,-0.3755,0.0626,9.0069,9.0149
34,4,2,4,1,12.657,12657,-0.4000,-0.0200,9.2500,9.2587,0.0033,-0.0022,-0.0164,2.38,-0.19,36.25,-0.3787,0.0517,9.0389,9.0470
34,4,2,4,1,12.835,12835,-0.3700,-0.0400,9.5500,9.5572,0.0022,-0.0011,0.0011,2.38,-0.19,36.25,-0.3776,0.0396,9.1062,9.1142
34,4,2,4,1,12.966,12966,-0.3700,-0.0700,9.5000,9.5075,-0.0011,0.0055,0.0000,2.38,-0.19,36.19,-0.3766,0.0252,9.1581,9.1659
34,4,2,4,1,13.097,13097,-0.3900,0.0000,9.5900,9.5979,-0.0011,0.0011,-0.0109,2.38,-0.19,36.19,-0.3783,0.0219,9.2150,9.2228
34,4,2,4,1,13.227,13227,-0.4500,-0.0300,9.2300,9.2410,-0.0033,0.0000,0.0000,2.38,-0.19,36.13,-0.3878,0.0150,9.2170,9.2252
34,4,2,4,1,13.357,13357,-0.3000,-0.1400,9.6600,9.6657,0.0022,0.0011,-0.0120,2.38,-0.19,36.06,-0.3762,-0.0054,9.2754,9.2830
34,4,2,4,1,13.488,13488,-0.2900,-0.1500,9.6700,9.6755,0.0000,0.0033,-0.0251,2.38,-0.19,35.94,-0.3649,-0.0245,9.3274,9.3346
34,4,2,4,1,13.618,13618,-0.4000,-0.1000,9.5900,9.5989,-0.0065,0.0000,-0.0120,2.38,-0.19,35.81,-0.3695,-0.0344,9.3620,9.3693
34,4,2,4,1,13.748,13748,-0.6200,-0.0100,9.8400,9.8595,-0.0055,0.0011,-0.0120,2.38,-0.19,35.75,-0.4025,-0.0312,9.4250,9.4336
34,4,2,4,1,13.921,13921,-0.3600,-0.0800,9.7500,9.7570,-0.0044,-0.0022,-0.0131,2.38,-0.19,35.63,-0.3969,-0.0376,9.4678,9.4762
34,4,2,4,1,14.052,14052,-0.4800,-0.0700,9.5300,9.5423,-0.0033,0.0000,-0.0087,2.38,-0.19,35.63,-0.4079,-0.0419,9.4760,9.4849
34,4,2,4,1,14.182,14182,-0.3800,-0.1200,9.8500,9.8581,-0.0011,-0.0011,-0.0153,2.38,-0.25,35.50,-0.4042,-0.0522,9.5253,9.5340
34,4,2,4,1,14.313,14313,-0.4500,-0.1500,9.8600,9.8714,-0.0033,-0.0044,-0.0240,2.31,-0.25,35.44,-0.4102,-0.0651,9.5694,9.5784
34,4,2,4,1,14.446,14446,-0.4200,-0.0900,9.6300,9.6396,-0.0065,-0.0044,-0.0065,2.31,-0.25,35.38,-0.4115,-0.0684,9.5774,9.5865
34,4,2,4,1,14.580,14580,-0.3600,-0.0700,9.9300,9.9368,0.0011,-0.0033,-0.0065,2.31,-0.25,35.38,-0.4047,-0.0686,9.6238,9.6326
34,4,2,4,1,14.710,14710,-0.4100,-0.0400,10.0400,10.0484,-0.0033,-0.0076,0.0033,2.38,-0.25,35.38,-0.4054,-0.0648,9.6787,9.6874
34,4,2,4,1,14.841,14841,-0.3500,-0.0500,10.2200,10.2261,0.0000,0.0011,-0.0142,2.38,-0.25,35.31,-0.3981,-0.0629,9.7500,9.7583
34,4,2,4,1,15.014,15014,-0.3400,-0.0800,10.0400,10.0461,0.0011,-0.0055,0.0087,2.38,-0.25,35.31,-0.3905,-0.0651,9.7882,9.7962
34,4,2,4,1,15.148,15148,-0.4700,-0.1000,9.7500,9.7618,-0.0055,0.0011,-0.0120,2.38,-0.25,35.19,-0.4009,-0.0697,9.7832,9.7917
34,4,2,4,1,15.281,15281,-0.3500,-0.0300,10.0600,10.0661,-0.0011,-0.0011,0.0000,2.38,-0.25,35.19,-0.3942,-0.0645,9.8197,9.8278
34,4,2,4,1,15.412,15412,-0.4300,-0.1100,10.3600,10.3695,-0.0033,0.0011,-0.0044,2.38,-0.25,35.19,-0.3989,-0.0705,9.8909,9.8992
34,4,2,4,1,15.542,15542,-0.4400,-0.0600,10.2300,10.2396,0.0011,-0.0175,-0.0011,2.38,-0.25,35.25,-0.4044,-0.0691,9.9356,9.9440
34,4,2,4,1,15.673,15673,-0.3000,-0.2100,11.5900,11.5958,-0.0033,0.0087,0.0011,2.38,-0.25,35.13,-0.3906,-0.0877,10.1536,10.1615
34,4,2,4,1,15.803,15803,0.0200,0.0400,11.8800,11.8801,-0.0065,0.0207,0.0011,2.38,-0.25,35.19,-0.3365,-0.0708,10.3811,10.3868
34,4,2,4,1,15.933,15933,0.1400,-0.2300,11.7300,11.7331,0.0033,-0.0011,0.0011,2.38,-0.25,35.13,-0.2737,-0.0918,10.5588,10.5628
34,4,2,4,1,16.106,16106,0.4600,-0.7200,10.9200,10.9534,-0.0065,0.0164,0.0240,2.38,-0.25,35.25,-0.1770,-0.1746,10.6064,10.6093
34,4,2,4,1,16.236,16236,-0.5000,-0.1400,10.2000,10.2132,0.0065,-0.0065,0.0393,2.44,-0.25,35.44,-0.2196,-0.1700,10.5529,10.5565
34,4,2,4,1,16.367,16367,0.3100,0.4100,9.2400,9.2543,-0.0185,0.0000,0.0436,2.44,-0.25,35.75,-0.1498,-0.0936,10.3799,10.3814
34,4,2,4,1,16.497,16497,-0.2300,-0.1800,7.9600,7.9654,-0.0164,0.0120,0.0022,2.44,-0.19,35.88,-0.1604,-0.1050,10.0610,10.0628
34,4,2,4,1,16.632,16632,-0.3600,0.1000,5.4500,5.4628,-0.0131,-0.0011,-0.0044,2.50,-0.06,35.81,-0.1867,-0.0780,9.4534,9.4555
34,4,2,4,1,16.765,16765,-0.2100,-0.0200,6.2200,6.2236,0.0011,-0.0055,0.0153,2.50,-0.06,35.81,-0.1897,-0.0703,9.0273,9.0296
34,5,2,4,1,16.895,16895,-0.1700,-0.0400,9.0900,9.0917,-0.0022,0.0087,-0.0185,2.50,-0.06,35.88,-0.1871,-0.0663,9.0356,9.0377
34,5,2,4,1,17.026,17026,-0.5400,-0.0400,10.1900,10.2044,0.0065,-0.0011,0.0055,2.50,-0.06,35.81,-0.2336,-0.0629,9.1877,9.1909
34,5,2,4,1,17.199,17199,-0.4500,-0.0900,9.8200,9.8307,-0.0044,0.0022,0.0011,2.50,-0.06,35.81,-0.2622,-0.0664,9.2710,9.2750
34,5,2,4,1,17.335,17335,-0.3400,-0.1100,9.4700,9.4767,0.0022,0.0022,-0.0065,2.50,-0.06,35.81,-0.2724,-0.0722,9.2972,9.3015
34,5,2,4,1,17.467,17467,-0.3300,-0.1100,9.3800,9.3864,-0.0011,0.0044,-0.0087,2.50,-0.06,35.81,-0.2800,-0.0772,9.3081,9.3127
34,5,2,4,1,17.597,17597,-0.3200,-0.1400,9.1800,9.1866,-0.0011,-0.0022,-0.0065,2.50,-0.06,35.81,-0.2853,-0.0854,9.2913,9.2960
34,5,2,4,1,17.727,17727,-0.5700,0.0700,9.3800,9.3976,0.0000,0.0011,-0.0240,2.50,-0.06,35.69,-0.3228,-0.0650,9.3029,9.3088
34,5,2,4,1,17.858,17858,-0.4000,-0.0500,9.5600,9.5685,-0.0076,0.0000,-0.0120,2.50,-0.06,35.56,-0.3330,-0.0630,9.3368,9.3430
34,5,2,4,1,17.988,17988,-0.3900,-0.0800,9.6200,9.6282,-0.0055,0.0000,-0.0175,2.44,-0.06,35.44,-0.3405,-0.0652,9.3741,9.3805
34,5,2,4,1,18.118,18118,-0.5800,0.0700,9.8100,9.8274,-0.0065,-0.0065,-0.0164,2.44,-0.13,35.38,-0.3720,-0.0474,9.4316,9.4390
34,5,2,4,1,18.291,18291,-0.4600,-0.1600,9.7600,9.7721,-0.0044,0.0000,-0.0185,2.44,-0.13,35.31,-0.3836,-0.0622,9.4749,9.4828
34,5,2,4,1,18.421,18421,-0.3300,-0.0300,10.0800,10.0854,-0.0011,0.0044,-0.0109,2.44,-0.13,35.19,-0.3766,-0.0580,9.5546,9.5622
34,5,2,4,1,18.551,18551,-0.4600,-0.0800,9.8800,9.8910,-0.0033,0.0087,-0.0098,2.44,-0.13,35.13,-0.3876,-0.0609,9.5975,9.6055
34,5,2,4,1,18.681,18681,-0.4600,-0.0800,9.5400,9.5514,0.0000,-0.0044,-0.0011,2.44,-0.13,35.13,-0.3971,-0.0634,9.5899,9.5983
34,5,2,4,1,18.811,18811,-0.3400,-0.0200,9.8400,9.8459,-0.0033,-0.0033,-0.0076,2.38,-0.19,35.13,-0.3896,-0.0577,9.6229,9.6309
34,5,2,4,1,18.941,18941,-0.3900,-0.0800,9.9400,9.9480,-0.0011,-0.0087,0.0011,2.38,-0.19,35.13,-0.3896,-0.0606,9.6646,9.6727
34,5,2,4,1,19.071,19071,-0.3700,-0.1400,10.3500,10.3576,-0.0033,0.0022,-0.0098,2.38,-0.19,35.13,-0.3870,-0.0711,9.7550,9.7629
34,5,2,4,1,19.201,19201,-0.4500,-0.1400,10.2800,10.2908,0.0000,-0.0022,0.0011,2.38,-0.19,35.06,-0.3953,-0.0802,9.8241,9.8324
34,5,2,4,1,19.374,19374,-0.4200,-0.0900,10.1900,10.1990,-0.0033,0.0011,-0.0120,2.38,-0.19,35.00,-0.3986,-0.0815,9.8724,9.8807
34,5,2,4,1,19.508,19508,-0.3800,-0.0300,10.1700,10.1771,-0.0033,0.0044,-0.0076,2.38,-0.19,35.00,-0.3961,-0.0747,9.9116,9.9198
34,5,2,4,1,19.641,19641,-0.3700,-0.0900,9.6700,9.6775,-0.0033,0.0011,0.0065,2.38,-0.19,35.00,-0.3927,-0.0767,9.8797,9.8878
34,5,2,4,1,19.772,19772,-0.3900,-0.0500,9.6100,9.6180,-0.0022,-0.0022,-0.0055,2.38,-0.19,34.94,-0.3923,-0.0732,9.8442,9.8523
34,5,2,4,1,19.902,19902,-0.3900,-0.0200,9.7700,9.7778,0.0000,0.0011,-0.0076,2.38,-0.19,34.94,-0.3920,-0.0662,9.8344,9.8425
34,5,2,4,1,20.032,20032,-0.3900,-0.0900,9.6700,9.6783,0.0000,0.0011,0.0011,2.38,-0.19,34.94,-0.3918,-0.0693,9.8128,9.8208
34,5,2,4,1,20.163,20163,-0.2900,-0.1100,10.4000,10.4046,0.0044,-0.0175,-0.0164,2.44,-0.19,34.94,-0.3784,-0.0747,9.8901,9.8977
34,5,2,4,1,20.293,20293,-0.5000,-0.1000,11.9200,11.9309,0.0011,-0.0011,0.0338,2.44,-0.19,34.88,-0.3944,-0.0780,10.1576,10.1656
34,5,2,4,1,20.466,20466,-0.4500,-0.1600,11.7000,11.7097,0.0033,-0.0175,-0.0131,2.44,-0.19,34.88,-0.4017,-0.0888,10.3609,10.3690
34,5,2,4,1,20.596,20596,-1.1000,0.2300,11.5800,11.6344,-0.0087,0.0000,-0.0055,2.44,-0.19,34.94,-0.4937,-0.0468,10.5215,10.5332
34,5,2,4,1,20.726,20726,-0.4900,-0.2300,11.1300,11.1432,0.0120,-0.0273,0.0185,2.44,-0.13,35.00,-0.4932,-0.0709,10.6017,10.6134
34,5,2,4,1,20.856,20856,-0.7300,-0.5200,10.0400,10.0799,0.0087,-0.0142,0.0589,2.44,-0.19,35.31,-0.5244,-0.1301,10.5277,10.5415
34,5,2,4,1,20.987,20987,-0.5200,0.1800,8.6900,8.7074,-0.0218,-0.0055,0.0327,2.44,-0.13,35.56,-0.5239,-0.0893,10.2855,10.2992
34,5,2,4,1,21.118,21118,-0.1900,0.2000,7.1100,7.1153,-0.0164,0.0000,-0.0044,2.44,-0.06,35.63,-0.4799,-0.0511,9.8671,9.8789
34,5,2,4,1,21.250,21250,-0.4900,0.0500,4.5900,4.6164,-0.0098,0.0033,-0.0022,2.50,0.00,35.63,-0.4812,-0.0378,9.1717,9.1844
34,5,2,4,1,21.381,21381,-0.6300,0.4900,6.5800,6.6282,0.0000,-0.0098,0.0251,2.50,0.00,35.63,-0.5008,0.0317,8.8302,8.8444
34,6,2,4,1,21.556,21556,-0.3600,-0.1100,10.2700,10.2769,0.0033,0.0044,-0.0087,2.50,0.00,35.63,-0.4823,0.0131,9.0199,9.0328
34,6,2,4,1,21.686,21686,-0.3200,-0.0800,9.8800,9.8855,0.0055,0.0022,0.0055,2.50,0.00,35.56,-0.4609,0.0008,9.1332,9.1449
34,6,2,4,1,21.817,21817,-0.4600,-0.0600,9.3700,9.3815,0.0011,0.0033,-0.0120,2.50,0.00,35.56,-0.4608,-0.0072,9.1644,9.1760
34,6,2,4,1,21.947,21947,-0.3100,-0.1300,9.2200,9.2261,-0.0011,0.0000,-0.0033,2.50,-0.06,35.56,-0.4409,-0.0234,9.1718,9.1824
34,6,2,4,1,22.077,22077,-0.4200,0.0100,9.4600,9.4693,0.0000,-0.0011,-0.0142,2.44,-0.06,35.44,-0.4381,-0.0190,9.2097,9.2202
34,6,2,4,1,22.207,22207,-0.4200,-0.1100,9.5900,9.5998,-0.0022,0.0055,-0.0218,2.44,-0.06,35.38,-0.4357,-0.0310,9.2599,9.2702
34,6,2,4,1,22.337,22337,-0.3200,-0.0900,9.6600,9.6657,-0.0022,-0.0065,-0.0142,2.44,-0.06,35.19,-0.4205,-0.0388,9.3126,9.3222
34,6,2,4,1,22.468,22468,-0.4400,0.0600,9.8400,9.8500,-0.0022,0.0022,-0.0131,2.38,-0.13,35.19,-0.4231,-0.0257,9.3821,9.3917
34,6,2,4,1,22.641,22641,-0.3100,-0.2000,9.6100,9.6171,0.0011,-0.0065,0.0076,2.38,-0.13,35.06,-0.4082,-0.0487,9.4121,9.4211
34,6,2,4,1,22.772,22772,-0.5100,-0.0300,9.8000,9.8133,-0.0033,0.0142,-0.0360,2.38,-0.13,34.94,-0.4216,-0.0462,9.4632,9.4727
34,6,2,4,1,22.905,22905,-0.1600,0.3200,9.7500,9.7566,-0.0076,-0.0273,0.0207,2.38,-0.13,34.81,-0.3871,0.0020,9.5010,9.5089
34,6,2,4,1,23.036,23036,-0.5500,-0.1000,9.6900,9.7061,-0.0033,0.0120,-0.0404,2.38,-0.13,34.81,-0.4086,-0.0114,9.5259,9.5347
34,6,2,4,1,23.169,23169,-0.6100,-0.1700,10.2800,10.2995,0.0033,-0.0218,0.0338,2.38,-0.13,34.75,-0.4351,-0.0323,9.6253,9.6352
34,6,2,4,1,23.300,23300,-0.6600,-0.0200,10.0600,10.0816,-0.0033,0.0164,-0.0338,2.31,-0.13,34.69,-0.4648,-0.0307,9.6826,9.6938
34,6,2,4,1,23.430,23430,-0.6000,-0.0600,9.6900,9.7087,-0.0044,-0.0120,0.0338,2.31,-0.19,34.69,-0.4826,-0.0346,9.6836,9.6956
34,6,2,4,1,23.560,23560,-0.2900,-0.0200,10.1100,10.1142,-0.0098,0.0022,-0.0360,2.38,-0.19,34.69,-0.4572,-0.0326,9.7397,9.7505
34,6,2,4,1,23.733,23733,-0.4400,-0.0300,9.7400,9.7500,0.0011,-0.0142,0.0305,2.50,-0.19,34.63,-0.4549,-0.0323,9.7398,9.7505
34,6,2,4,1,23.863,23863,-0.2500,-0.0100,9.7200,9.7232,-0.0076,0.0044,-0.0273,2.44,-0.19,34.56,-0.4279,-0.0294,9.7372,9.7466
34,6,2,4,1,23.993,23993,-0.4700,-0.0900,10.5200,10.5309,0.0000,0.0000,0.0065,2.44,-0.19,34.50,-0.4335,-0.0373,9.8403,9.8499
34,6,2,4,1,24.124,24124,-0.1500,-0.1600,9.6700,9.6725,-0.0011,-0.0044,-0.0185,2.38,-0.19,34.50,-0.3961,-0.0535,9.8179,9.8260
34,6,2,4,1,24.254,24254,-0.4800,-0.0800,9.6600,9.6722,0.0000,-0.0011,0.0164,2.44,-0.19,34.56,-0.4072,-0.0570,9.7971,9.8057
34,6,2,4,1,24.384,24384,-0.2500,-0.0300,9.7000,9.7033,0.0000,-0.0044,-0.0120,2.38,-0.19,34.50,-0.3865,-0.0534,9.7843,9.7921
34,6,2,4,1,24.514,24514,-0.4200,-0.1000,9.6600,9.6696,0.0000,0.0055,-0.0044,2.38,-0.19,34.50,-0.3909,-0.0596,9.7679,9.7759
34,6,2,4,1,24.644,24644,-0.3600,-0.0400,9.7200,9.7267,0.0011,-0.0044,-0.0022,2.38,-0.25,34.50,-0.3868,-0.0570,9.7616,9.7694
34,6,2,4,1,24.822,24822,-0.4200,-0.1200,10.4000,10.4092,0.0011,-0.0142,-0.0055,2.38,-0.25,34.50,-0.3912,-0.0653,9.8457,9.8537
34,6,2,4,1,24.953,24953,-0.7600,-0.0800,11.2100,11.2360,-0.0011,0.0022,0.0142,2.44,-0.25,34.44,-0.4398,-0.0672,10.0255,10.0354
34,6,2,4,1,25.084,25084,-0.2900,-0.2300,11.7400,11.7458,-0.0044,-0.0076,-0.0153,2.38,-0.25,34.50,-0.4200,-0.0887,10.2514,10.2604
34,6,2,4,1,25.214,25214,-1.0700,-0.0900,11.4700,11.5202,-0.0022,-0.0109,0.0076,2.44,-0.25,34.44,-0.5057,-0.0889,10.4120,10.4247
34,6,2,4,1,25.344,25344,-0.4500,-0.5000,11.2300,11.2501,-0.0044,0.0131,0.0076,2.44,-0.25,34.56,-0.4984,-0.1430,10.5198,10.5326
34,6,2,4,1,25.475,25475,0.5800,0.3100,10.6800,10.7002,0.0011,0.0284,0.0404,2.38,-0.25,34.69,-0.3563,-0.0833,10.5409,10.5473
34,6,2,4,1,25.605,25605,0.4300,0.3400,9.4100,9.4260,0.0033,-0.0120,0.0393,2.38,-0.25,35.00,-0.2526,-0.0276,10.3919,10.3950
34,6,2,4,1,25.735,25735,-0.2200,-0.0400,8.0000,8.0031,-0.0033,-0.0087,0.0131,2.44,-0.19,35.13,-0.2483,-0.0292,10.0767,10.0798
34,6,2,4,1,25.908,25908,-0.4800,-0.1200,5.9700,5.9905,-0.0011,-0.0033,-0.0087,2.44,-0.13,35.13,-0.2789,-0.0412,9.5355,9.5397
34,6,2,4,1,26.042,26042,-0.4200,0.2200,6.1200,6.1383,0.0000,-0.0022,0.0055,2.44,-0.13,35.06,-0.2975,-0.0067,9.0855,9.0903
34,6,2,4,1,26.176,26176,-0.4300,0.0000,8.5900,8.6008,0.0011,0.0000,-0.0175,2.44,-0.13,35.13,-0.3149,-0.0059,9.0202,9.0257
34,7,2,4,1,26.306,26306,-0.5100,-0.0500,9.6200,9.6336,0.0055,0.0044,0.0098,2.44,-0.13,35.06,-0.3406,-0.0117,9.0992,9.1056
34,7,2,4,1,26.437,26437,-0.3900,-0.1000,9.6600,9.6684,-0.0011,-0.0022,-0.0076,2.44,-0.13,35.06,-0.3471,-0.0233,9.1731,9.1797
34,7,2,4,1,26.567,26567,-0.3800,-0.0700,9.7500,9.7577,0.0055,0.0098,-0.0120,2.44,-0.13,35.06,-0.3515,-0.0295,9.2491,9.2558
34,7,2,4,1,26.697,26697,-0.2900,-0.1200,9.5600,9.5652,-0.0065,-0.0055,-0.0098,2.38,-0.19,35.00,-0.3434,-0.0414,9.2901,9.2965
34,7,2,4,1,26.828,26828,-0.5000,-0.0400,9.5700,9.5831,-0.0022,0.0076,-0.0240,2.38,-0.19,34.94,-0.3640,-0.0412,9.3270,9.3342
34,7,2,4,1,27.001,27001,-0.0900,-0.2100,9.5600,9.5627,-0.0022,0.0044,-0.0055,2.38,-0.19,34.69,-0.3279,-0.0635,9.3577,9.3636
34,7,2,4,1,27.132,27132,-0.6300,-0.0100,9.9200,9.9400,-0.0044,0.0065,-0.0196,2.38,-0.19,34.63,-0.3677,-0.0564,9.4318,9.4391
34,7,2,4,1,27.262,27262,-0.2600,-0.1100,9.8600,9.8640,0.0000,-0.0087,0.0055,2.38,-0.19,34.56,-0.3535,-0.0635,9.4882,9.4950
34,7,2,4,1,27.393,27393,-0.4000,-0.0300,9.8100,9.8182,-0.0044,0.0087,-0.0262,2.31,-0.19,34.50,-0.3596,-0.0591,9.5306,9.5376
34,7,2,4,1,27.528,27528,-0.2600,0.5300,10.1000,10.1172,-0.0131,-0.0305,0.0164,2.31,-0.19,34.31,-0.3465,0.0186,9.6056,9.6119
34,7,2,4,1,27.659,27659,-0.4000,-0.2000,9.8200,9.8302,-0.0022,0.0153,-0.0338,2.31,-0.19,34.31,-0.3536,-0.0102,9.6339,9.6404
34,7,2,4,1,27.789,27789,-0.7600,-0.1800,10.0600,10.0903,0.0000,-0.0295,0.0284,2.38,-0.19,34.25,-0.4071,-0.0326,9.6900,9.6986
34,7,2,4,1,27.920,27920,-0.5000,-0.0700,10.1900,10.2025,-0.0065,0.0120,-0.0305,2.38,-0.19,34.25,-0.4194,-0.0375,9.7559,9.7650
34,7,2,4,1,28.093,28093,-0.2700,-0.0900,10.1600,10.1640,0.0011,-0.0218,0.0218,2.44,-0.25,34.25,-0.3997,-0.0444,9.8092,9.8174
34,7,2,4,1,28.226,28226,-0.6400,-0.0600,10.0000,10.0206,-0.0065,0.0142,-0.0382,2.38,-0.25,34.13,-0.4313,-0.0465,9.8343,9.8439
34,7,2,4,1,28.361,28361,-0.3800,-0.1000,9.7500,9.7579,0.0033,-0.0131,0.0251,2.44,-0.25,34.13,-0.4246,-0.0535,9.8232,9.8325
34,7,2,4,1,28.491,28491,-0.3400,-0.0600,9.7200,9.7261,-0.0033,0.0000,-0.0284,2.38,-0.25,34.06,-0.4134,-0.0544,9.8096,9.8185
34,7,2,4,1,28.622,28622,-0.4200,-0.0700,10.0200,10.0290,-0.0011,0.0000,0.0044,2.38,-0.25,34.06,-0.4143,-0.0565,9.8373,9.8462
34,7,2,4,1,28.752,28752,-0.2900,-0.0300,10.0100,10.0142,-0.0011,-0.0022,-0.0142,2.38,-0.25,34.00,-0.3979,-0.0530,9.8601,9.8683
34,7,2,4,1,28.883,28883,-0.4600,-0.0900,9.6500,9.6614,-0.0022,0.0033,-0.0044,2.38,-0.25,34.00,-0.4061,-0.0578,9.8324,9.8410
34,7,2,4,1,29.013,29013,-0.3600,-0.0900,9.6300,9.6371,-0.0022,0.0011,-0.0044,2.38,-0.25,34.00,-0.4000,-0.0621,9.8057,9.8141
34,7,2,4,1,29.186,29186,-0.3300,-0.0700,9.7000,9.7059,0.0000,-0.0011,-0.0011,2.38,-0.25,34.00,-0.3908,-0.0631,9.7918,9.7998
34,7,2,4,1,29.316,29316,-0.3800,-0.1000,9.4600,9.4682,-0.0044,-0.0022,-0.0033,2.38,-0.25,34.00,-0.3894,-0.0680,9.7481,9.7561
34,7,2,4,1,29.447,29447,-0.3700,-0.0300,9.6100,9.6172,-0.0011,0.0033,-0.0011,2.38,-0.25,34.00,-0.3868,-0.0630,9.7299,9.7378
34,7,2,4,1,29.583,29583,-0.3900,-0.0600,10.1200,10.1277,-0.0011,0.0011,-0.0044,2.38,-0.25,34.00,-0.3872,-0.0626,9.7813,9.7892
34,7,2,4,1,29.714,29714,-0.3800,-0.0900,10.0300,10.0376,0.0022,-0.0109,0.0011,2.38,-0.25,34.06,-0.3863,-0.0662,9.8141,9.8219
34,7,2,4,1,29.845,29845,-0.5300,-0.1100,10.6700,10.6837,-0.0044,0.0109,-0.0055,2.44,-0.31,34.00,-0.4052,-0.0720,9.9269,9.9354
34,7,2,4,1,29.975,29975,-0.2700,-0.1100,11.8600,11.8636,-0.0033,0.0109,-0.0033,2.38,-0.31,34.06,-0.3874,-0.0770,10.1816,10.1893
34,7,2,4,1,30.105,30105,-0.3200,-0.0600,11.7000,11.7045,0.0022,0.0098,0.0164,2.38,-0.31,34.06,-0.3785,-0.0747,10.3817,10.3888
34,7,2,4,1,30.278,30278,0.0200,-0.0100,10.9400,10.9400,0.0065,-0.0098,0.0251,2.38,-0.31,34.19,-0.3260,-0.0662,10.4553,10.4605
34,7,2,4,1,30.409,30409,-0.1100,-0.8300,10.4200,10.4536,0.0131,-0.0284,0.0382,2.38,-0.31,34.38,-0.2975,-0.1669,10.4506,10.4562
34,7,2,4,1,30.540,30540,-0.6400,-0.5700,9.6500,9.6880,0.0175,-0.0011,0.0295,2.44,-0.38,34.69,-0.3427,-0.2200,10.3451,10.3531
34,7,2,4,1,30.675,30675,-0.4600,0.0500,8.5100,8.5226,0.0109,0.0011,0.0164,2.44,-0.38,34.88,-0.3581,-0.1844,10.1033,10.1113
34,7,2,4,1,30.807,30807,0.0200,0.1800,7.3900,7.3922,-0.0076,-0.0022,-0.0109,2.44,-0.31,34.94,-0.3083,-0.1364,9.7457,9.7516
34,7,2,4,1,30.937,30937,-0.2800,0.0200,4.9100,4.9180,-0.0076,0.0065,0.0033,2.50,-0.25,34.94,-0.3046,-0.1158,9.1085,9.1143
34,7,2,4,1,31.068,31068,-0.2400,-0.0300,7.4000,7.4040,0.0000,0.0055,-0.0120,2.56,-0.25,35.00,-0.2961,-0.1045,8.8834,8.8889
34,8,2,4,1,31.198,31198,-0.3500,-0.1500,9.3800,9.3877,0.0076,0.0022,-0.0044,2.56,-0.25,35.00,-0.3032,-0.1105,8.9488,8.9546
34,8,2,4,1,31.371,31371,-0.3700,-0.0600,9.7800,9.7872,0.0065,-0.0033,0.0033,2.56,-0.25,35.06,-0.3120,-0.1038,9.0583,9.0643
34,8,2,4,1,31.505,31505,-0.3100,-0.1000,9.8100,9.8154,0.0055,0.0076,-0.0065,2.56,-0.25,35.00,-0.3117,-0.1033,9.1574,9.1633
34,8,2,4,1,31.639,31639,-0.3000,-0.0900,9.5600,9.5651,0.0044,-0.0065,-0.0076,2.56,-0.25,35.00,-0.3102,-0.1016,9.2104,9.2162
34,8,2,4,1,31.769,31769,-0.5500,0.0000,9.7900,9.8054,-0.0011,0.0065,-0.0131,2.56,-0.25,35.00,-0.3418,-0.0882,9.2868,9.2935
34,8,2,4,1,31.900,31900,-0.4400,-0.0200,9.6600,9.6700,-0.0022,-0.0065,-0.0196,2.56,-0.25,34.88,-0.3547,-0.0792,9.3360,9.3431
34,8,2,4,1,32.030,32030,-0.3700,-0.0200,9.6200,9.6271,-0.0022,-0.0011,-0.0065,2.56,-0.25,34.81,-0.3567,-0.0714,9.3734,9.3805
34,8,2,4,1,32.160,32160,-0.4600,0.0000,9.7400,9.7509,-0.0044,-0.0109,-0.0153,2.56,-0.25,34.81,-0.3703,-0.0620,9.4217,9.4292
34,8,2,4,1,32.291,32291,-0.2800,-0.1100,9.9000,9.9046,0.0000,0.0011,-0.0011,2.50,-0.25,34.81,-0.3584,-0.0683,9.4848,9.4918
34,8,2,4,1,32.463,32463,-0.3200,-0.0100,9.8700,9.8752,0.0022,0.0065,-0.0011,2.50,-0.25,34.69,-0.3534,-0.0606,9.5355,9.5423
34,8,2,4,1,32.593,32593,-0.4200,-0.0100,9.8000,9.8090,0.0000,0.0000,-0.0087,2.50,-0.31,34.69,-0.3622,-0.0540,9.5704,9.5774
34,8,2,4,1,32.723,32723,-0.5500,-0.2000,9.8600,9.8774,0.0022,-0.0065,-0.0011,2.44,-0.31,34.50,-0.3869,-0.0732,9.6085,9.6166
34,8,2,4,1,32.853,32853,-0.3000,-0.0300,9.9400,9.9446,0.0022,-0.0098,-0.0087,2.56,-0.31,34.69,-0.3755,-0.0675,9.6522,9.6597
34,8,2,4,1,32.983,32983,-0.6200,-0.0600,9.9300,9.9495,0.0022,0.0120,0.0011,2.44,-0.31,34.56,-0.4077,-0.0665,9.6888,9.6976
34,8,2,4,1,33.113,33113,0.0100,-0.0100,10.0400,10.0400,0.0065,-0.0065,0.0142,2.56,-0.31,34.69,-0.3526,-0.0591,9.7351,9.7417
34,8,2,4,1,33.243,33243,-0.7500,0.1100,10.2300,10.2580,-0.0022,0.0120,-0.0131,2.50,-0.31,34.56,-0.4050,-0.0368,9.8003,9.8087
34,8,2,4,1,33.373,33373,-0.0200,0.0800,10.0300,10.0303,0.0044,-0.0098,0.0305,2.56,-0.31,34.69,-0.3543,-0.0214,9.8306,9.8370
34,8,2,4,1,33.546,33546,-0.6700,0.1100,9.8800,9.9033,0.0000,0.0055,-0.0098,2.50,-0.31,34.56,-0.3959,-0.0041,9.8371,9.8451
34,8,2,4,1,33.676,33676,-0.2400,0.0100,10.0100,10.0129,0.0022,0.0011,0.0164,2.50,-0.31,34.69,-0.3753,-0.0022,9.8599,9.8670
34,8,2,4,1,33.806,33806,-0.4400,-0.0900,9.8500,9.8602,-0.0022,-0.0055,0.0022,2.44,-0.31,34.63,-0.3839,-0.0138,9.8586,9.8661
34,8,2,4,1,33.936,33936,-0.3500,-0.0800,9.5600,9.5667,0.0000,0.0033,-0.0142,2.44,-0.31,34.63,-0.3794,-0.0225,9.8192,9.8266
34,8,2,4,1,34.066,34066,-0.3100,-0.0500,9.3600,9.3653,0.0011,-0.0022,0.0120,2.44,-0.31,34.63,-0.3702,-0.0261,9.7587,9.7658
34,8,2,4,1,34.196,34196,-0.4200,-0.0900,9.7800,9.7894,0.0033,0.0022,-0.0044,2.44,-0.31,34.63,-0.3768,-0.0346,9.7615,9.7689
34,8,2,4,1,34.326,34326,-0.3700,-0.0600,10.0600,10.0670,0.0011,0.0022,0.0011,2.44,-0.31,34.63,-0.3759,-0.0379,9.8009,9.8081
34,8,2,4,1,34.456,34456,-0.3700,-0.0800,10.2400,10.2470,0.0011,-0.0131,0.0120,2.44,-0.31,34.69,-0.3751,-0.0435,9.8587,9.8660
34,8,2,4,1,34.629,34629,-0.6100,-0.2600,11.5400,11.5590,0.0000,-0.0065,0.0164,2.44,-0.31,34.69,-0.4061,-0.0720,10.0803,10.0887
34,8,2,4,1,34.760,34760,-0.5400,-0.0900,11.7700,11.7827,-0.0011,-0.0076,-0.0109,2.44,-0.31,34.75,-0.4237,-0.0744,10.3029,10.3119
34,8,2,4,1,34.896,34896,-0.7200,-0.2500,11.4100,11.4354,0.0033,0.0142,0.0087,2.44,-0.31,34.75,-0.4628,-0.0975,10.4488,10.4595
34,8,2,4,1,35.027,35027,-0.7900,-0.4300,11.0100,11.0467,-0.0076,0.0044,0.0011,2.38,-0.38,34.81,-0.5059,-0.1413,10.5228,10.5359
34,8,2,4,1,35.158,35158,-0.2900,-0.1000,10.2500,10.2546,0.0033,-0.0022,0.0327,2.38,-0.38,35.06,-0.4774,-0.1359,10.4868,10.4986
34,8,2,4,1,35.288,35288,-0.2700,-0.2900,8.9900,8.9987,0.0098,-0.0109,0.0469,2.38,-0.38,35.38,-0.4501,-0.1562,10.2896,10.3006
34,8,2,4,1,35.418,35418,0.1000,0.4600,8.0900,8.1037,-0.0011,-0.0153,0.0131,2.44,-0.31,35.56,-0.3776,-0.0750,9.9997,10.0071
34,8,2,4,1,35.548,35548,-0.4400,-0.1500,6.8600,6.8757,-0.0262,-0.0011,-0.0022,2.44,-0.31,35.56,-0.3858,-0.0849,9.5860,9.5941
34,8,2,4,1,35.721,35721,-0.4400,0.1300,6.3900,6.4064,0.0033,-0.0055,0.0065,2.50,-0.25,35.56,-0.3930,-0.0566,9.1648,9.1734
34,8,2,4,1,35.852,35852,-0.3200,0.1100,8.3200,8.3269,0.0065,0.0022,-0.0076,2.50,-0.25,35.63,-0.3834,-0.0346,9.0535,9.0617
34,9,2,4,1,35.984,35984,-0.3900,-0.1100,9.5100,9.5186,0.0044,0.0044,0.0109,2.50,-0.25,35.63,-0.3842,-0.0445,9.1137,9.1219
34,9,2,4,1,36.119,36119,-0.4800,-0.0400,9.6200,9.6321,0.0055,0.0000,-0.0055,2.50,-0.31,35.69,-0.3969,-0.0439,9.1804,9.1891
34,9,2,4,1,36.250,36250,-0.2800,-0.1800,9.7700,9.7757,0.0000,0.0033,-0.0022,2.44,-0.31,35.63,-0.3815,-0.0619,9.2581,9.2661
34,9,2,4,1,36.380,36380,-0.3000,-0.1300,9.4300,9.4357,0.0044,-0.0055,-0.0076,2.44,-0.31,35.63,-0.3707,-0.0709,9.2807,9.2884
34,9,2,4,1,36.510,36510,-0.4500,0.0200,9.5700,9.5806,0.0076,0.0076,-0.0196,2.44,-0.31,35.63,-0.3812,-0.0589,9.3189,9.3268
34,9,2,4,1,36.641,36641,-0.2000,-0.2500,9.6500,9.6553,0.0000,-0.0065,-0.0131,2.44,-0.31,35.44,-0.3573,-0.0841,9.3625,9.3697
34,9,2,4,1,36.814,36814,-0.4800,0.0200,9.9800,9.9916,0.0000,-0.0022,-0.0164,2.44,-0.31,35.44,-0.3735,-0.0704,9.4439,9.4515
34,9,2,4,1,36.945,36945,-0.2600,-0.0800,10.0700,10.0737,-0.0033,-0.0109,0.0076,2.44,-0.31,35.38,-0.3585,-0.0716,9.5264,9.5334
34,9,2,4,1,37.080,37080,-0.4600,-0.1500,9.7500,9.7620,-0.0022,0.0065,-0.0229,2.44,-0.31,35.38,-0.3719,-0.0820,9.5558,9.5634
34,9,2,4,1,37.210,37210,-0.1600,-0.1700,9.8100,9.8128,-0.0076,-0.0087,0.0044,2.44,-0.31,35.19,-0.3440,-0.0936,9.5893,9.5960
34,9,2,4,1,37.342,37342,-0.3100,-0.0800,9.9900,9.9951,-0.0022,0.0055,-0.0196,2.38,-0.31,35.25,-0.3395,-0.0918,9.6421,9.6485
34,9,2,4,1,37.472,37472,-0.3400,-0.2400,10.0300,10.0386,-0.0109,-0.0153,0.0273,2.38,-0.31,35.13,-0.3396,-0.1113,9.6932,9.6998
34,9,2,4,1,37.618,37618,-0.3300,-0.0300,9.9300,9.9355,-0.0044,0.0044,-0.0251,2.38,-0.31,35.25,-0.3383,-0.1006,9.7244,9.7308
34,9,2,4,1,37.753,37753,-0.3600,-0.2400,9.8200,9.8295,-0.0011,0.0055,0.0295,2.38,-0.31,35.13,-0.3412,-0.1190,9.7370,9.7437
34,9,2,4,1,37.925,37925,-0.2800,0.0200,9.9700,9.9740,-0.0044,0.0000,-0.0196,2.31,-0.31,35.19,-0.3331,-0.1006,9.7677,9.7739
34,9,2,4,1,38.055,38055,-0.3700,-0.2600,10.1100,10.1201,-0.0022,-0.0153,0.0229,2.38,-0.31,35.19,-0.3380,-0.1216,9.8128,9.8194
34,9,2,4,1,38.185,38185,-0.3700,-0.0500,9.8800,9.8871,-0.0087,0.0000,-0.0207,2.38,-0.31,35.25,-0.3422,-0.1122,9.8217,9.8283
34,9,2,4,1,38.315,38315,-0.5900,-0.0600,9.7400,9.7580,0.0022,-0.0065,0.0055,2.38,-0.31,35.19,-0.3748,-0.1053,9.8109,9.8186
34,9,2,4,1,38.445,38445,-0.1700,-0.0700,9.7500,9.7517,0.0044,-0.0055,-0.0109,2.38,-0.31,35.25,-0.3478,-0.1007,9.8029,9.8096
34,9,2,4,1,38.576,38576,-0.4900,-0.0400,9.9000,9.9122,0.0000,-0.0076,0.0120,2.31,-0.31,35.19,-0.3666,-0.0927,9.8157,9.8230
34,9,2,4,1,38.706,38706,-0.3300,-0.0500,9.9200,9.9256,0.0000,0.0011,0.0011,2.38,-0.31,35.19,-0.3618,-0.0871,9.8294,9.8365
34,9,2,4,1,38.836,38836,-0.3400,-0.0900,9.6500,9.6564,0.0022,-0.0022,-0.0055,2.31,-0.31,35.19,-0.3589,-0.0874,9.8058,9.8127
34,9,2,4,1,39.009,39009,-0.3100,0.0000,9.3700,9.3751,-0.0033,0.0022,-0.0022,2.31,-0.31,35.25,-0.3524,-0.0759,9.7484,9.7550
34,9,2,4,1,39.139,39139,-0.4300,-0.0300,9.2400,9.2500,0.0000,-0.0044,0.0087,2.31,-0.31,35.25,-0.3627,-0.0699,9.6814,9.6884
34,9,2,4,1,39.269,39269,-0.4000,-0.0800,9.8500,9.8584,0.0011,-0.0011,-0.0022,2.31,-0.31,35.25,-0.3676,-0.0712,9.7036,9.7108
34,9,2,4,1,39.399,39399,-0.4000,-0.0500,10.4900,10.4977,0.0000,0.0011,-0.0076,2.31,-0.31,35.25,-0.3719,-0.0684,9.8072,9.8145
34,9,2,4,1,39.529,39529,-0.1600,-0.0700,10.0500,10.0515,0.0033,-0.0164,0.0087,2.31,-0.31,35.31,-0.3439,-0.0686,9.8392,9.8455
34,9,2,4,1,39.659,39659,-0.4600,-0.0300,10.6100,10.6200,-0.0011,0.0076,0.0011,2.38,-0.38,35.25,-0.3592,-0.0635,9.9408,9.9475
34,9,2,4,1,39.789,39789,-0.1700,0.0400,11.1000,11.1014,-0.0109,0.0142,-0.0065,2.38,-0.38,35.31,-0.3343,-0.0499,10.0935,10.0992
34,9,2,4,1,39.919,39919,-0.7500,-0.0300,11.4700,11.4945,0.0087,-0.0229,0.0033,2.38,-0.38,35.31,-0.3891,-0.0473,10.2749,10.2824
34,9,2,4,1,40.092,40092,-0.4000,-0.0300,11.1200,11.1272,0.0120,-0.0120,0.0218,2.38,-0.38,35.38,-0.3905,-0.0450,10.3863,10.3937
34,9,2,4,1,40.222,40222,-1.2200,-0.1600,10.4800,10.5520,0.0011,-0.0284,0.0207,2.38,-0.38,35.44,-0.4998,-0.0601,10.3986,10.4108
34,9,2,4,1,40.352,40352,-0.4200,-0.1100,9.8900,9.8995,0.0076,0.0120,0.0240,2.44,-0.38,35.75,-0.4893,-0.0667,10.3316,10.3434
34,9,2,4,1,40.482,40482,-0.3200,-0.1600,8.8700,8.8772,0.0022,-0.0120,0.0513,2.44,-0.44,36.00,-0.4670,-0.0790,10.1390,10.1501
34,9,2,4,1,40.613,40613,-0.3800,-0.5000,7.9100,7.9349,0.0011,0.0022,0.0044,2.50,-0.38,36.19,-0.4555,-0.1345,9.8453,9.8567
34,9,2,4,1,40.743,40743,-0.2400,0.1100,6.9000,6.9050,-0.0185,0.0033,0.0000,2.50,-0.31,36.19,-0.4271,-0.1023,9.4572,9.4674
34,9,2,4,1,40.874,40874,-0.4500,-0.0200,5.7300,5.7477,-0.0065,0.0033,0.0000,2.50,-0.31,36.19,-0.4301,-0.0914,8.9660,8.9768
34,9,2,4,1,41.010,41010,-0.4100,0.1300,7.9500,7.9616,0.0011,0.0076,-0.0011,2.50,-0.31,36.19,-0.4275,-0.0622,8.8321,8.8427
34,10,2,4,1,41.183,41183,-0.3200,0.0200,9.4100,9.4155,0.0055,0.0000,0.0098,2.50,-0.31,36.19,-0.4133,-0.0514,8.9083,8.9180
34,10,2,4,1,41.313,41313,-0.4200,-0.1000,9.8700,9.8794,0.0022,0.0011,-0.0065,2.44,-0.31,36.19,-0.4142,-0.0578,9.0350,9.0447
34,10,2,4,1,41.443,41443,-0.2200,-0.1500,9.6500,9.6537,0.0011,0.0011,-0.0076,2.44,-0.31,36.19,-0.3886,-0.0700,9.1161,9.1246
34,10,2,4,1,41.573,41573,-0.2800,-0.0300,9.5700,9.5741,0.0000,-0.0065,-0.0033,2.44,-0.31,36.19,-0.3743,-0.0647,9.1759,9.1837
34,10,2,4,1,41.703,41703,-0.2800,-0.1300,9.7500,9.7549,-0.0022,0.0065,-0.0218,2.44,-0.31,36.06,-0.3619,-0.0733,9.2515,9.2589
34,10,2,4,1,41.833,41833,-0.2100,-0.1600,9.8000,9.8036,-0.0044,-0.0011,0.0011,2.38,-0.38,36.00,-0.3419,-0.0847,9.3238,9.3305
34,10,2,4,1,41.964,41964,-0.6200,-0.0600,9.7700,9.7898,-0.0022,0.0022,-0.0098,2.38,-0.38,35.94,-0.3785,-0.0815,9.3826,9.3906
34,10,2,4,1,42.094,42094,-0.3300,-0.1100,9.8900,9.8961,0.0022,-0.0033,0.0055,2.38,-0.38,35.88,-0.3721,-0.0852,9.4495,9.4572
34,10,2,4,1,42.267,42267,-0.5100,-0.0800,9.7200,9.7337,0.0022,0.0011,-0.0284,2.38,-0.38,35.81,-0.3903,-0.0845,9.4851,9.4935
34,10,2,4,1,42.397,42397,-0.2400,-0.1100,9.6800,9.6836,0.0033,-0.0065,0.0218,2.44,-0.38,35.81,-0.3705,-0.0879,9.5108,9.5184
34,10,2,4,1,42.527,42527,-0.5100,-0.1300,10.1100,10.1237,0.0044,0.0153,-0.0305,2.31,-0.38,35.69,-0.3889,-0.0934,9.5898,9.5981
34,10,2,4,1,42.658,42658,-0.3800,-0.1500,9.8900,9.8984,0.0087,-0.0196,0.0502,2.44,-0.38,35.75,-0.3877,-0.1009,9.6293,9.6376
34,10,2,4,1,42.789,42789,-0.4800,-0.1200,9.8600,9.8724,-0.0022,0.0098,-0.0316,2.38,-0.38,35.69,-0.3999,-0.1034,9.6597,9.6685
34,10,2,4,1,42.919,42919,-0.1300,-0.1500,10.1900,10.1919,-0.0065,-0.0196,0.0284,2.44,-0.38,35.69,-0.3643,-0.1096,9.7296,9.7370
34,10,2,4,1,43.049,43049,-0.1200,-0.0300,9.9900,9.9908,-0.0076,0.0076,-0.0207,2.50,-0.38,35.75,-0.3321,-0.0991,9.7639,9.7701
34,10,2,4,1,43.179,43179,-0.5200,-0.1100,9.9100,9.9242,-0.0033,-0.0055,0.0109,2.50,-0.38,35.69,-0.3569,-0.1005,9.7832,9.7902
34,10,2,4,1,43.356,43356,-0.2500,-0.1200,9.8300,9.8339,-0.0033,0.0055,-0.0196,2.44,-0.38,35.75,-0.3428,-0.1031,9.7893,9.7959
34,10,2,4,1,43.488,43488,-0.3800,-0.1300,9.7200,9.7283,0.0011,-0.0098,0.0142,2.50,-0.38,35.69,-0.3477,-0.1066,9.7802,9.7870
34,10,2,4,1,43.618,43618,-0.3200,-0.0800,9.9900,9.9954,0.0000,0.0000,-0.0175,2.44,-0.38,35.69,-0.3440,-0.1031,9.8078,9.8144
34,10,2,4,1,43.748,43748,-0.4700,-0.0800,9.9400,9.9514,0.0033,-0.0055,0.0076,2.44,-0.38,35.69,-0.3606,-0.1001,9.8253,9.8324
34,10,2,4,1,43.879,43879,-0.3100,-0.0800,9.7900,9.7952,-0.0011,-0.0033,0.0065,2.44,-0.38,35.69,-0.3540,-0.0974,9.8206,9.8275
34,10,2,4,1,44.009,44009,-0.4300,-0.0700,9.4800,9.4900,0.0011,-0.0033,0.0000,2.44,-0.38,35.69,-0.3640,-0.0938,9.7757,9.7830
34,10,2,4,1,44.139,44139,-0.3800,-0.0800,10.0000,10.0075,0.0000,-0.0011,0.0044,2.44,-0.38,35.69,-0.3661,-0.0920,9.8053,9.8125
34,10,2,4,1,44.270,44270,-0.3600,-0.0700,9.7400,9.7469,0.0000,0.0000,-0.0044,2.44,-0.38,35.69,-0.3653,-0.0891,9.7967,9.8039
34,10,2,4,1,44.442,44442,-0.3700,-0.1000,9.7400,9.7475,0.0022,0.0022,-0.0033,2.44,-0.38,35.69,-0.3659,-0.0905,9.7892,9.7965
34,10,2,4,1,44.572,44572,-0.3900,-0.0300,9.7900,9.7978,0.0000,0.0011,0.0033,2.44,-0.38,35.69,-0.3691,-0.0826,9.7893,9.7966
34,10,2,4,1,44.702,44702,-0.8100,0.1400,10.4500,10.4823,0.0131,-0.0175,-0.0098,2.50,-0.44,35.69,-0.4272,-0.0532,9.8764,9.8858
34,10,2,4,1,44.832,44832,-0.3400,-0.2100,11.3600,11.3670,0.0087,-0.0087,0.0327,2.50,-0.38,35.69,-0.4157,-0.0739,10.0719,10.0807
34,10,2,4,1,44.962,44962,-0.3000,-0.0800,11.4500,11.4542,0.0000,0.0033,-0.0033,2.44,-0.38,35.75,-0.4005,-0.0747,10.2535,10.2616
34,10,2,4,1,45.092,45092,-1.1100,-0.0600,11.0100,11.0660,0.0098,-0.0273,0.0022,2.50,-0.44,35.75,-0.4940,-0.0728,10.3532,10.3652
34,10,2,4,1,45.222,45222,-0.2700,-0.2500,10.8100,10.8163,-0.0044,0.0207,0.0153,2.44,-0.44,35.81,-0.4644,-0.0961,10.4134,10.4242
34,10,2,4,1,45.352,45352,0.2100,-0.4200,9.9700,9.9811,0.0055,0.0164,0.0502,2.44,-0.38,36.00,-0.3756,-0.1388,10.3549,10.3627
34,10,2,4,1,45.525,45525,0.4200,-0.7500,8.9500,8.9912,0.0087,0.0033,0.0251,2.50,-0.44,36.31,-0.2707,-0.2193,10.1698,10.1758
34,10,2,4,1,45.655,45655,-0.3500,-0.1900,8.1900,8.1997,0.0044,-0.0044,0.0087,2.50,-0.44,36.50,-0.2812,-0.2155,9.9089,9.9153
34,10,2,4,1,45.786,45786,0.0000,-0.1700,7.6200,7.6219,-0.0022,0.0011,-0.0109,2.50,-0.38,36.56,-0.2441,-0.2095,9.6073,9.6127
34,10,2,4,1,45.922,45922,-0.4400,0.1500,6.2800,6.2972,0.0000,-0.0011,0.0055,2.50,-0.38,36.50,-0.2699,-0.1621,9.1688,9.1743
34,10,2,4,1,46.054,46054,-0.4200,0.1200,7.8800,7.8921,-0.0011,0.0087,-0.0022,2.50,-0.38,36.56,-0.2897,-0.1249,8.9990,9.0045
34,10,2,4,1,46.184,46184,-0.2800,-0.1700,8.6400,8.6462,0.0011,-0.0076,-0.0033,2.44,-0.38,36.50,-0.2884,-0.1309,8.9517,8.9573
34,10,2,4,1,46.314,46314,-0.3700,0.0000,9.3900,9.3973,0.0033,0.0087,-0.0065,2.44,-0.38,36.63,-0.2992,-0.1136,9.0095,9.0151
34,10,2,4,1,46.445,46445,-0.3000,-0.0900,9.7300,9.7350,0.0000,-0.0022,-0.0142,2.44,-0.38,36.44,-0.2993,-0.1105,9.1044,9.1100
34,10,2,4,1,46.618,46618,-0.3300,-0.1200,9.8800,9.8862,0.0011,0.0044,-0.0240,2.38,-0.38,36.38,-0.3033,-0.1118,9.2066,9.2123
34,10,2,4,1,46.749,46749,-0.2300,-0.3700,9.8700,9.8796,0.0055,0.0055,-0.0087,2.44,-0.38,36.19,-0.2937,-0.1458,9.2940,9.2998
34,10,2,4,1,46.880,46880,-0.4600,-0.0100,9.7700,9.7808,-0.0033,0.0076,-0.0055,2.38,-0.38,36.19,-0.3156,-0.1279,9.3567,9.3629
34,10,2,4,1,47.014,47014,-0.4000,-0.0300,9.9400,9.9481,-0.0044,0.0033,-0.0087,2.38,-0.38,36.06,-0.3267,-0.1150,9.4336,9.4400
34,10,2,4,1,47.146,47146,-0.2700,-0.1300,10.0700,10.0745,0.0011,-0.0044,-0.0044,2.38,-0.38,36.13,-0.3192,-0.1170,9.5175,9.5235
34,10,2,4,1,47.277,47277,-0.4900,-0.1500,9.7900,9.8034,0.0076,0.0131,-0.0142,2.38,-0.38,35.94,-0.3417,-0.1213,9.5534,9.5603
34,10,2,4,1,47.407,47407,-0.2800,-0.0800,10.0100,10.0142,0.0011,-0.0033,0.0044,2.38,-0.38,36.00,-0.3336,-0.1159,9.6136,9.6200
34,10,2,4,1,47.537,47537,-0.5300,0.0200,10.2700,10.2837,0.0055,0.0142,-0.0196,2.31,-0.44,35.81,-0.3595,-0.0980,9.7001,9.7072
34,10,2,4,1,47.710,47710,-0.3600,-0.0100,10.1300,10.1364,0.0011,-0.0055,-0.0076,2.38,-0.44,35.94,-0.3596,-0.0864,9.7567,9.7637
34,10,2,4,1,47.840,47840,-0.5500,-0.1200,9.8400,9.8561,0.0011,0.0033,-0.0033,2.38,-0.44,35.88,-0.3846,-0.0908,9.7677,9.7757
34,10,2,4,1,47.970,47970,-0.3600,-0.0600,9.8800,9.8867,0.0000,-0.0076,0.0033,2.38,-0.44,35.94,-0.3814,-0.0868,9.7825,9.7903
34,10,2,4,1,48.100,48100,-0.4500,-0.0700,9.4300,9.4410,-0.0011,0.0033,-0.0087,2.31,-0.44,35.88,-0.3904,-0.0845,9.7360,9.7442
34,10,2,4,1,48.231,48231,-0.3900,-0.0300,8.7500,8.7587,0.0011,0.0000,0.0065,2.31,-0.44,35.88,-0.3904,-0.0774,9.6061,9.6143
34,10,2,4,1,48.361,48361,-0.0600,-0.0700,8.6600,8.6605,0.0000,0.0000,-0.0109,2.31,-0.44,35.81,-0.3468,-0.0764,9.4814,9.4881
34,10,2,4,1,48.491,48491,-0.5400,0.0000,8.9200,8.9363,0.0055,0.0109,-0.0011,2.25,-0.38,35.81,-0.3723,-0.0663,9.4074,9.4150
34,10,2,4,1,48.621,48621,0.0000,-0.0800,9.6300,9.6303,0.0033,-0.0098,-0.0011,2.25,-0.38,35.81,-0.3232,-0.0681,9.4368,9.4426
34,10,2,4,1,48.799,48799,-0.3400,0.1300,8.2800,8.2880,-0.0044,0.0055,0.0033,2.25,-0.44,35.69,-0.3254,-0.0420,9.2843,9.2901
34,10,2,4,1,48.930,48930,-0.1500,0.0100,7.8300,7.8314,0.0055,-0.0240,-0.0131,2.31,-0.44,35.75,-0.3023,-0.0352,9.0927,9.0978
34,10,2,4,1,49.060,49060,2.9000,-2.7400,-0.7900,4.0671,2.1086,3.0347,2.9801,1.19,-7.13,40.19,0.1197,-0.3916,7.7904,7.8012
34,10,2,4,1,49.191,49191,0.9600,2.8600,9.3300,9.8056,0.6807,-0.7265,-3.5583,2.56,-0.75,41.44,0.2304,0.0369,7.9933,7.9967
34,10,2,4,1,49.321,49321,-2.4900,-0.9900,9.4500,9.8226,-0.0927,-0.0687,0.0829,2.25,-0.13,40.81,-0.1281,-0.0984,8.1852,8.1868
