participant,rep,equipment_code,exercise_code,quality_code,timestamp,timestamp_ms,accelX,accelY,accelZ,accelMag,gyroX,gyroY,gyroZ,roll,pitch,yaw,filteredX,filteredY,filteredZ,filteredMag
3,1,2,5,2,00.000,0,-0.5100,-0.0200,9.7400,9.7534,-0.0044,-0.0011,0.0033,3.00,-0.25,281.06,-0.5209,-0.0116,9.7567,9.7706
3,1,2,5,2,00.132,132,-0.4900,-0.0200,9.7900,9.8023,-0.0033,-0.0011,-0.0033,3.00,-0.25,281.06,-0.5169,-0.0127,9.7611,9.7748
3,1,2,5,2,00.268,268,-0.5000,-0.0400,9.7700,9.7829,-0.0044,0.0011,0.0033,3.00,-0.25,281.06,-0.5146,-0.0163,9.7623,9.7759
3,1,2,5,2,00.399,399,-0.3800,-0.0900,9.9300,9.9377,-0.0109,0.0415,-0.0295,2.94,0.06,281.13,-0.4969,-0.0260,9.7844,9.7970
3,1,2,5,2,00.529,529,-0.4600,0.0800,10.7500,10.7601,0.1494,0.0436,-0.0469,2.94,-0.19,280.88,-0.4920,-0.0121,9.9116,9.9238
3,1,2,5,2,00.659,659,-0.2700,-0.2300,10.7000,10.7059,-0.0044,0.0065,0.0131,2.75,-0.38,280.88,-0.4628,-0.0408,10.0155,10.0263
3,1,2,5,2,00.790,790,-0.5300,-0.0600,10.2800,10.2938,0.0153,0.0087,0.0055,2.75,-0.38,280.88,-0.4716,-0.0433,10.0504,10.0615
3,1,2,5,2,00.920,920,-0.5400,0.1200,9.8100,9.8256,0.0065,-0.0055,0.0055,2.75,-0.38,280.88,-0.4806,-0.0218,10.0187,10.0302
3,1,2,5,2,01.093,1093,-0.4300,0.0100,9.3100,9.3199,0.0098,-0.0033,-0.0011,2.81,-0.44,280.88,-0.4740,-0.0176,9.9253,9.9366
3,1,2,5,2,01.224,1224,-0.5600,-0.1300,9.5900,9.6072,0.0164,-0.0131,-0.0011,2.81,-0.44,280.88,-0.4853,-0.0324,9.8811,9.8931
3,1,2,5,2,01.354,1354,-0.4600,-0.0500,9.8500,9.8609,0.0109,0.0109,0.0011,2.81,-0.44,280.88,-0.4820,-0.0347,9.8770,9.8888
3,1,2,5,2,01.485,1485,-0.4500,-0.0100,9.8300,9.8403,0.0120,-0.0142,-0.0055,2.81,-0.50,280.88,-0.4778,-0.0315,9.8708,9.8824
3,1,2,5,2,01.621,1621,-0.4500,-0.0200,10.3000,10.3098,0.0000,0.0033,-0.0033,2.88,-0.50,280.88,-0.4741,-0.0300,9.9274,9.9387
3,1,2,5,2,01.752,1752,-0.7400,-0.0800,9.5200,9.5491,0.0120,0.0164,-0.0044,2.81,-0.56,280.88,-0.5091,-0.0366,9.8737,9.8869
3,1,2,5,2,01.883,1883,-0.4200,-0.0100,8.8800,8.8899,0.0044,-0.0055,0.0033,2.81,-0.56,280.88,-0.4974,-0.0331,9.7428,9.7555
3,1,2,5,2,02.013,2013,-0.3500,0.0700,9.0400,9.0470,-0.0055,0.0044,-0.0076,2.88,-0.56,280.88,-0.4780,-0.0195,9.6501,9.6620
3,1,2,5,2,02.186,2186,-0.4300,0.0500,10.0900,10.0993,-0.0033,0.0000,-0.0131,2.88,-0.56,280.88,-0.4716,-0.0103,9.7081,9.7196
3,1,2,5,2,02.318,2318,-0.3800,-0.0200,10.0900,10.0972,0.0011,0.0000,-0.0065,2.88,-0.56,280.88,-0.4596,-0.0116,9.7584,9.7693
3,1,2,5,2,02.453,2453,-0.4300,-0.0400,9.7300,9.7396,-0.0076,0.0011,0.0109,2.88,-0.56,280.88,-0.4557,-0.0153,9.7547,9.7653
3,1,2,5,2,02.585,2585,-0.5400,0.0100,8.5500,8.5670,-0.0011,-0.0044,-0.0011,2.88,-0.56,280.88,-0.4668,-0.0120,9.5959,9.6073
3,1,2,5,2,02.715,2715,-0.5100,0.2200,8.1500,8.1689,-0.0087,0.0044,-0.0033,2.88,-0.56,280.88,-0.4725,0.0186,9.4054,9.4173
3,2,2,5,2,02.845,2845,-0.3800,-0.5300,10.1600,10.1809,0.0044,0.0044,0.0382,2.81,-0.50,280.94,-0.4603,-0.0537,9.5048,9.5161
3,2,2,5,2,02.976,2976,-0.7400,-0.1600,11.1500,11.1757,0.0033,-0.0011,0.0033,2.81,-0.38,280.88,-0.4972,-0.0677,9.7216,9.7346
3,2,2,5,2,03.106,3106,-0.5200,-0.0800,10.3900,10.4033,0.0033,0.0000,-0.0022,2.75,-0.31,280.88,-0.5002,-0.0693,9.8097,9.8227
3,2,2,5,2,03.279,3279,-0.6000,0.0000,10.9000,10.9165,-0.0065,-0.0131,0.0055,2.81,-0.31,280.88,-0.5133,-0.0602,9.9534,9.9668
3,2,2,5,2,03.409,3409,-0.5500,-0.0600,10.0400,10.0552,0.0131,0.0033,-0.0065,2.81,-0.31,280.88,-0.5182,-0.0602,9.9648,9.9784
3,2,2,5,2,03.539,3539,-0.4800,-0.0200,10.1700,10.1813,0.0055,0.0447,0.0011,2.75,-0.31,280.88,-0.5131,-0.0549,9.9918,10.0051
3,2,2,5,2,03.669,3669,-0.4900,-0.0400,9.8100,9.8223,0.0109,-0.0076,-0.0044,2.69,-0.31,280.88,-0.5101,-0.0529,9.9679,9.9811
3,2,2,5,2,03.799,3799,-0.4100,-0.0300,9.9400,9.9485,-0.0065,0.0055,0.0044,2.69,-0.31,280.88,-0.4969,-0.0499,9.9642,9.9767
3,2,2,5,2,03.929,3929,-0.3600,-0.0700,9.9700,9.9767,0.0022,0.0000,-0.0011,2.69,-0.31,280.88,-0.4789,-0.0525,9.9650,9.9766
3,2,2,5,2,04.059,4059,-0.4700,0.0000,9.8900,9.9012,0.0065,0.0000,0.0000,2.69,-0.31,280.88,-0.4777,-0.0456,9.9551,9.9666
3,2,2,5,2,04.189,4189,-0.5000,0.0200,9.2700,9.2835,0.0033,-0.0087,0.0033,2.69,-0.31,280.88,-0.4806,-0.0370,9.8648,9.8766
3,2,2,5,2,04.362,4362,-0.5400,-0.0700,9.9500,9.9649,0.0076,-0.0044,-0.0011,2.75,-0.31,280.88,-0.4884,-0.0413,9.8760,9.8882
3,2,2,5,2,04.495,4495,-0.5200,0.0000,10.1700,10.1833,0.0087,-0.0076,0.0000,2.75,-0.31,280.88,-0.4926,-0.0359,9.9148,9.9271
3,2,2,5,2,04.630,4630,-0.4300,-0.0900,10.1400,10.1495,0.0164,0.0415,-0.0098,2.69,-0.38,280.88,-0.4844,-0.0430,9.9445,9.9563
3,2,2,5,2,04.760,4760,-0.5200,-0.0400,9.6200,9.6341,0.0262,-0.0240,0.0033,2.75,-0.44,280.81,-0.4891,-0.0426,9.9017,9.9139
3,2,2,5,2,04.891,4891,-0.5000,0.1200,9.5900,9.6038,0.0000,-0.0022,0.0011,2.75,-0.44,280.81,-0.4905,-0.0212,9.8606,9.8728
3,2,2,5,2,05.021,5021,-0.7700,0.0300,9.9900,10.0197,0.0055,0.0011,-0.0087,2.75,-0.44,280.81,-0.5273,-0.0144,9.8777,9.8917
3,2,2,5,2,05.151,5151,-0.2100,0.1300,9.8600,9.8631,-0.0087,0.0131,-0.0055,2.69,-0.44,280.81,-0.4855,0.0046,9.8753,9.8873
3,2,2,5,2,05.301,5301,-0.2900,-0.0700,9.3700,9.3747,0.0011,0.0000,-0.0087,2.75,-0.44,280.81,-0.4597,-0.0052,9.8088,9.8195
3,2,2,5,2,05.474,5474,-0.3600,0.0400,9.8000,9.8067,-0.0044,0.0044,-0.0185,2.75,-0.50,280.81,-0.4466,0.0007,9.8076,9.8178
3,2,2,5,2,05.605,5605,-0.3600,-0.0700,8.8600,8.8676,-0.0011,0.0033,-0.0044,2.75,-0.50,280.81,-0.4352,-0.0086,9.6827,9.6925
3,2,2,5,2,05.736,5736,-0.2200,0.0900,9.1900,9.1931,-0.0131,0.0087,0.0033,2.75,-0.44,280.88,-0.4068,0.0044,9.6178,9.6264
3,2,2,5,2,05.866,5866,-0.7800,-0.4300,10.3600,10.3982,-0.0033,0.0196,0.0164,2.75,-0.44,280.88,-0.4560,-0.0528,9.7156,9.7264
3,2,2,5,2,05.997,5997,-0.7800,0.0000,11.0100,11.0376,0.0044,-0.0262,0.0327,2.75,-0.25,280.88,-0.4987,-0.0459,9.8862,9.8988
3,2,2,5,2,06.129,6129,-0.3200,0.0100,11.6100,11.6144,-0.0142,-0.0142,-0.0098,2.69,-0.25,280.81,-0.4752,-0.0385,10.1133,10.1246
3,2,2,5,2,06.264,6264,-0.6400,-0.0500,10.4000,10.4198,-0.0033,-0.0229,0.0011,2.75,-0.25,280.81,-0.4969,-0.0400,10.1511,10.1633
3,3,2,5,2,06.395,6395,-0.5500,0.0000,9.8700,9.8853,0.0087,-0.0011,-0.0033,2.75,-0.25,280.81,-0.5039,-0.0348,10.1141,10.1267
3,3,2,5,2,06.567,6567,-0.5100,-0.0200,9.5900,9.6036,-0.0022,-0.0076,0.0044,2.75,-0.25,280.81,-0.5047,-0.0328,10.0450,10.0577
3,3,2,5,2,06.698,6698,-0.4400,0.0000,9.7200,9.7300,-0.0033,0.0033,-0.0011,2.75,-0.25,280.81,-0.4962,-0.0285,10.0022,10.0145
3,3,2,5,2,06.830,6830,-0.5200,-0.0100,9.9900,10.0035,-0.0022,0.0000,0.0011,2.75,-0.25,280.81,-0.4993,-0.0261,10.0006,10.0131
3,3,2,5,2,06.965,6965,-0.5600,0.0000,10.2400,10.2553,-0.0142,0.0098,0.0044,2.63,-0.25,280.81,-0.5073,-0.0226,10.0321,10.0450
3,3,2,5,2,07.096,7096,-0.3600,-0.1000,10.0900,10.0969,0.0055,0.0000,-0.0022,2.63,-0.19,280.81,-0.4879,-0.0328,10.0397,10.0517
3,3,2,5,2,07.227,7227,-0.4100,-0.0500,9.9400,9.9486,0.0065,0.0033,0.0022,2.63,-0.19,280.81,-0.4776,-0.0351,10.0266,10.0380
3,3,2,5,2,07.357,7357,-0.4800,-0.0500,9.7700,9.7819,-0.0022,-0.0175,-0.0022,2.69,-0.19,280.81,-0.4779,-0.0370,9.9928,10.0043
3,3,2,5,2,07.488,7488,-0.4200,0.0200,10.0200,10.0288,0.0044,0.0022,0.0055,2.69,-0.25,280.81,-0.4703,-0.0295,9.9964,10.0075
3,3,2,5,2,07.660,7660,-0.4200,-0.0200,9.5700,9.5792,0.0044,-0.0044,0.0011,2.69,-0.25,280.81,-0.4637,-0.0283,9.9402,9.9510
3,3,2,5,2,07.791,7791,-0.6000,-0.0600,10.0300,10.0481,0.0142,0.0251,-0.0098,2.63,-0.25,280.81,-0.4816,-0.0325,9.9520,9.9637
3,3,2,5,2,07.921,7921,-0.1800,-0.2000,9.9400,9.9436,0.0098,-0.0055,0.0022,2.63,-0.25,280.81,-0.4419,-0.0545,9.9504,9.9604
3,3,2,5,2,08.054,8054,-0.4000,0.0900,9.3400,9.3490,0.0011,0.0011,-0.0044,2.69,-0.31,280.81,-0.4364,-0.0355,9.8700,9.8797
3,3,2,5,2,08.189,8189,-0.4000,-0.0500,9.9000,9.9082,-0.0098,0.0153,-0.0065,2.69,-0.31,280.81,-0.4316,-0.0374,9.8740,9.8835
3,3,2,5,2,08.320,8320,-0.5200,-0.0600,8.7200,8.7357,0.0033,-0.0055,-0.0033,2.69,-0.31,280.81,-0.4432,-0.0404,9.7219,9.7321
3,3,2,5,2,08.450,8450,-0.5100,-0.0700,10.0800,10.0931,0.0033,-0.0011,-0.0065,2.69,-0.31,280.81,-0.4520,-0.0443,9.7691,9.7796
3,3,2,5,2,08.580,8580,-0.5000,-0.0100,9.5900,9.6030,0.0033,-0.0011,-0.0033,2.69,-0.31,280.81,-0.4583,-0.0398,9.7455,9.7563
3,3,2,5,2,08.753,8753,-0.6400,-0.0400,6.6200,6.6510,0.0000,0.0022,-0.0011,2.69,-0.31,280.81,-0.4823,-0.0398,9.3336,9.3462
3,3,2,5,2,08.885,8885,-0.2200,0.0700,8.9400,8.9430,-0.0055,-0.0229,0.0207,2.69,-0.25,280.81,-0.4477,-0.0253,9.2818,9.2926
3,3,2,5,2,09.021,9021,0.1000,-0.1000,10.9500,10.9509,0.0098,0.0218,-0.0185,2.63,-0.13,280.81,-0.3755,-0.0352,9.5016,9.5091
3,3,2,5,2,09.152,9152,-0.2600,-0.0600,11.2300,11.2332,-0.0109,-0.0218,0.0033,2.63,-0.13,280.81,-0.3603,-0.0384,9.7293,9.7361
3,3,2,5,2,09.282,9282,-0.5000,-0.0500,10.2400,10.2523,0.0033,-0.0022,0.0011,2.69,-0.13,280.81,-0.3787,-0.0400,9.7966,9.8040
3,3,2,5,2,09.412,9412,-0.4600,-0.0200,9.8500,9.8608,0.0076,0.0120,-0.0022,2.63,-0.13,280.81,-0.3894,-0.0373,9.8037,9.8115
3,3,2,5,2,09.543,9543,-0.5000,-0.0500,9.8400,9.8528,0.0011,0.0000,0.0011,2.63,-0.13,280.81,-0.4040,-0.0390,9.8085,9.8169
3,3,2,5,2,09.673,9673,-0.5200,-0.0600,9.9100,9.9238,0.0033,-0.0131,-0.0011,2.69,-0.13,280.81,-0.4193,-0.0418,9.8218,9.8309
3,3,2,5,2,09.846,9846,0.2800,-0.5200,9.8400,9.8577,0.0120,0.0502,0.0055,2.56,-0.13,280.81,-0.3271,-0.1048,9.8242,9.8302
3,3,2,5,2,09.976,9976,-0.5000,-0.0400,9.8900,9.9027,0.0109,-0.0087,-0.0022,2.56,-0.06,280.75,-0.3499,-0.0962,9.8329,9.8396
3,3,2,5,2,10.106,10106,-0.4800,-0.0800,9.8300,9.8420,-0.0033,0.0011,0.0011,2.56,-0.13,280.75,-0.3671,-0.0941,9.8325,9.8398
3,3,2,5,2,10.236,10236,-0.5000,-0.0400,9.5600,9.5732,0.0044,0.0033,0.0011,2.56,-0.13,280.75,-0.3846,-0.0870,9.7966,9.8045
3,3,2,5,2,10.367,10367,-0.4700,0.0200,9.7500,9.7613,-0.0022,0.0022,0.0044,2.56,-0.13,280.75,-0.3958,-0.0729,9.7905,9.7987
3,3,2,5,2,10.497,10497,-0.5000,-0.0100,10.3800,10.3920,0.0033,0.0000,0.0011,2.56,-0.13,280.75,-0.4096,-0.0646,9.8681,9.8769
3,3,2,5,2,10.627,10627,-0.3900,0.0300,10.3500,10.3574,0.0065,-0.0109,0.0065,2.56,-0.13,280.75,-0.4070,-0.0521,9.9316,9.9401
3,4,2,5,2,10.758,10758,-0.4400,-0.2800,9.9000,9.9137,0.0164,-0.0218,0.0000,2.63,-0.13,280.75,-0.4113,-0.0822,9.9275,9.9363
3,4,2,5,2,10.935,10935,0.4700,-0.6000,8.4400,8.4743,0.0207,0.0382,-0.0087,2.63,-0.25,280.75,-0.2952,-0.1504,9.7315,9.7371
3,4,2,5,2,11.067,11067,-0.4800,-0.1600,9.6100,9.6233,0.0142,-0.0120,-0.0033,2.63,-0.25,280.75,-0.3195,-0.1517,9.7155,9.7219
3,4,2,5,2,11.197,11197,-0.6500,-0.1200,9.5300,9.5529,0.0109,-0.0076,0.0055,2.63,-0.25,280.75,-0.3631,-0.1475,9.6910,9.6989
3,4,2,5,2,11.327,11327,-0.3600,-0.0200,10.1800,10.1864,0.0065,0.0011,-0.0065,2.69,-0.31,280.75,-0.3627,-0.1307,9.7555,9.7631
3,4,2,5,2,11.457,11457,-0.5800,0.0100,9.3300,9.3480,0.0120,-0.0142,0.0076,2.63,-0.25,280.75,-0.3913,-0.1122,9.6994,9.7079
3,4,2,5,2,11.588,11588,-0.4000,0.1200,10.1400,10.1486,0.0164,-0.0022,-0.0033,2.69,-0.31,280.75,-0.3925,-0.0816,9.7575,9.7657
3,4,2,5,2,11.718,11718,-0.4400,-0.0700,10.3100,10.3196,0.0000,0.0022,-0.0055,2.69,-0.31,280.75,-0.3987,-0.0800,9.8303,9.8387
3,4,2,5,2,11.849,11849,-0.6800,-0.1100,9.7700,9.7943,-0.0011,0.0000,0.0120,2.69,-0.31,280.75,-0.4358,-0.0840,9.8223,9.8323
3,4,2,5,2,12.021,12021,-0.3300,-0.0400,8.6100,8.6164,-0.0055,0.0033,-0.0022,2.69,-0.31,280.75,-0.4219,-0.0782,9.6626,9.6721
3,4,2,5,2,12.151,12151,-0.3400,-0.0800,8.3400,8.3473,-0.0153,0.0044,-0.0011,2.63,-0.25,280.75,-0.4111,-0.0784,9.4883,9.4975
3,4,2,5,2,12.281,12281,-0.6700,-0.0800,10.3800,10.4019,-0.0196,-0.0055,0.0065,2.63,-0.13,280.75,-0.4452,-0.0786,9.6058,9.6164
3,4,2,5,2,12.411,12411,-0.3100,-0.0900,11.9200,11.9244,-0.0065,0.0098,-0.0011,2.63,-0.13,280.69,-0.4274,-0.0801,9.9107,9.9203
3,4,2,5,2,12.541,12541,-0.4000,0.0000,10.4300,10.4377,-0.0076,-0.0142,0.0055,2.63,-0.13,280.69,-0.4238,-0.0696,9.9792,9.9884
3,4,2,5,2,12.671,12671,-0.5400,-0.0300,9.9200,9.9347,0.0109,0.0087,-0.0044,2.69,-0.13,280.69,-0.4391,-0.0644,9.9714,9.9812
3,4,2,5,2,12.801,12801,-0.4500,0.0100,9.7700,9.7804,0.0033,0.0065,-0.0044,2.63,-0.13,280.69,-0.4405,-0.0546,9.9448,9.9547
3,4,2,5,2,12.931,12931,-0.5300,-0.0300,9.9400,9.9542,-0.0011,-0.0153,0.0000,2.63,-0.13,280.69,-0.4523,-0.0513,9.9442,9.9546
3,4,2,5,2,13.104,13104,-0.5200,-0.0100,9.9900,10.0035,0.0011,0.0011,-0.0011,2.63,-0.13,280.69,-0.4612,-0.0459,9.9502,9.9610
3,4,2,5,2,13.234,13234,-0.4300,-0.0200,10.2800,10.2890,-0.0098,0.0142,0.0055,2.50,-0.13,280.69,-0.4571,-0.0425,9.9937,10.0042
3,4,2,5,2,13.364,13364,-0.5000,0.0100,10.0100,10.0225,-0.0022,0.0000,0.0055,2.50,-0.13,280.69,-0.4628,-0.0356,9.9958,10.0066
3,4,2,5,2,13.494,13494,-0.5200,-0.0600,9.4700,9.4845,0.0076,-0.0109,-0.0011,2.50,-0.13,280.69,-0.4703,-0.0388,9.9265,9.9378
3,4,2,5,2,13.624,13624,-0.4000,0.0000,9.6800,9.6883,-0.0022,0.0055,0.0011,2.56,-0.13,280.69,-0.4610,-0.0337,9.8941,9.9049
3,4,2,5,2,13.754,13754,-0.4500,-0.0200,10.0300,10.0401,0.0011,-0.0065,-0.0011,2.50,-0.13,280.69,-0.4596,-0.0319,9.9120,9.9227
3,4,2,5,2,13.884,13884,-0.6100,-0.1100,10.1400,10.1589,0.0065,-0.0087,-0.0022,2.56,-0.13,280.69,-0.4794,-0.0422,9.9420,9.9537
3,4,2,5,2,14.014,14014,-0.5900,0.0900,10.0800,10.0977,0.0022,-0.0033,0.0076,2.56,-0.13,280.69,-0.4940,-0.0247,9.9602,9.9725
3,4,2,5,2,14.188,14188,-0.6300,0.0100,10.3500,10.3692,0.0153,0.0022,0.0065,2.56,-0.19,280.69,-0.5119,-0.0202,10.0116,10.0247
3,4,2,5,2,14.324,14324,-0.4000,-0.1200,9.8100,9.8189,0.0033,-0.0044,0.0011,2.50,-0.19,280.69,-0.4972,-0.0333,9.9850,9.9974
3,4,2,5,2,14.455,14455,-0.5100,-0.1000,9.7800,9.7938,0.0098,-0.0055,-0.0011,2.56,-0.25,280.69,-0.4989,-0.0421,9.9580,9.9706
3,4,2,5,2,14.585,14585,-0.5100,-0.1500,9.9900,10.0041,0.0033,-0.0011,0.0000,2.56,-0.25,280.69,-0.5003,-0.0563,9.9622,9.9749
3,4,2,5,2,14.715,14715,-0.7400,-0.1900,9.6500,9.6802,-0.0065,0.0065,0.0011,2.56,-0.25,280.69,-0.5319,-0.0739,9.9211,9.9356
3,4,2,5,2,14.846,14846,-0.6800,-0.1200,10.0500,10.0737,-0.0011,-0.0011,0.0022,2.56,-0.25,280.69,-0.5514,-0.0800,9.9381,9.9537
3,4,2,5,2,14.976,14976,-0.4100,0.0000,9.7700,9.7786,-0.0044,0.0076,-0.0120,2.56,-0.25,280.69,-0.5328,-0.0695,9.9159,9.9305
3,4,2,5,2,15.107,15107,-0.3400,-0.1200,8.9700,8.9772,-0.0022,-0.0033,0.0055,2.56,-0.25,280.69,-0.5074,-0.0761,9.7913,9.8047
3,4,2,5,2,15.279,15279,-0.4300,-0.1700,8.5700,8.5825,-0.0425,-0.0469,0.0033,2.56,-0.19,280.69,-0.4972,-0.0885,9.6303,9.6436
3,4,2,5,2,15.410,15410,-0.5900,-0.2200,10.1000,10.1196,-0.0011,0.0076,-0.0022,2.56,-0.13,280.69,-0.5094,-0.1058,9.6922,9.7062
3,4,2,5,2,15.540,15540,-0.1900,0.0200,11.8200,11.8215,-0.0218,0.0055,0.0000,2.50,-0.06,280.69,-0.4673,-0.0892,9.9726,9.9840
3,4,2,5,2,15.671,15671,-0.5700,-0.0400,10.4900,10.5056,-0.0196,-0.0295,0.0142,2.56,-0.06,280.69,-0.4809,-0.0828,10.0408,10.0526
3,4,2,5,2,15.801,15801,-0.4200,-0.1200,9.6300,9.6399,0.0120,0.0382,-0.0098,2.50,-0.06,280.69,-0.4728,-0.0877,9.9867,9.9982
3,4,2,5,2,15.932,15932,-0.4000,-0.0500,9.6800,9.6884,-0.0098,-0.0273,0.0065,2.56,-0.06,280.63,-0.4632,-0.0827,9.9462,9.9574
3,4,2,5,2,16.063,16063,-0.5200,-0.0100,10.3700,10.3830,0.0065,0.0404,-0.0033,2.63,-0.06,280.63,-0.4707,-0.0731,10.0021,10.0134
3,4,2,5,2,16.198,16198,-0.3200,-0.1000,10.0900,10.0956,0.0044,0.0011,-0.0033,2.44,0.00,280.63,-0.4509,-0.0767,10.0137,10.0241
3,4,2,5,2,16.371,16371,-0.5100,-0.1300,9.8900,9.9040,0.0033,0.0065,0.0011,2.44,-0.06,280.63,-0.4586,-0.0837,9.9974,10.0082
3,4,2,5,2,16.501,16501,-0.1200,-0.4800,9.5300,9.5428,0.0076,-0.0033,0.0120,2.50,-0.06,280.63,-0.4140,-0.1359,9.9358,9.9453
3,4,2,5,2,16.631,16631,-0.5700,-0.1200,9.1800,9.1985,0.0044,0.0033,0.0011,2.50,-0.13,280.63,-0.4346,-0.1338,9.8362,9.8467
3,4,2,5,2,16.761,16761,-0.5300,-0.0800,9.5300,9.5451,0.0055,-0.0011,0.0011,2.56,-0.13,280.63,-0.4472,-0.1267,9.7958,9.8069
3,4,2,5,2,16.891,16891,-0.5700,0.0900,10.3700,10.3860,0.0131,-0.0076,-0.0087,2.50,-0.19,280.63,-0.4633,-0.0982,9.8715,9.8829
3,4,2,5,2,17.021,17021,-0.5300,-0.0100,9.4900,9.5048,0.0185,-0.0131,0.0000,2.56,-0.19,280.63,-0.4721,-0.0865,9.8212,9.8330
3,4,2,5,2,17.152,17152,-0.4800,-0.1100,9.0900,9.1033,0.0055,0.0022,0.0000,2.56,-0.25,280.63,-0.4732,-0.0896,9.7249,9.7368
3,4,2,5,2,17.282,17282,-0.7500,-0.3600,8.8600,8.8990,0.0033,0.0044,0.0022,2.56,-0.25,280.63,-0.5096,-0.1253,9.6109,9.6252
3,4,2,5,2,17.455,17455,-0.2000,0.0100,9.5300,9.5321,-0.0109,0.0000,-0.0044,2.56,-0.25,280.69,-0.4688,-0.1074,9.6002,9.6123
3,4,2,5,2,17.591,17591,-0.3700,-0.0500,9.1100,9.1176,-0.0076,0.0044,0.0065,2.63,-0.25,280.69,-0.4558,-0.0999,9.5356,9.5471
3,4,2,5,2,17.723,17723,-0.7700,0.0000,6.9700,7.0124,0.0055,-0.0044,0.0065,2.63,-0.25,280.69,-0.4972,-0.0867,9.1976,9.2114
3,4,2,5,2,17.853,17853,-0.4200,-0.0100,9.1800,9.1896,-0.0196,-0.0076,-0.0415,2.63,-0.06,280.69,-0.4870,-0.0766,9.1952,9.2085
3,5,2,5,2,17.984,17984,-0.4100,0.4000,11.7000,11.7140,-0.0262,-0.0262,-0.0076,2.56,-0.06,280.63,-0.4769,-0.0138,9.5253,9.5372
3,5,2,5,2,18.114,18114,-0.6900,-0.1600,10.6200,10.6436,-0.0153,0.0044,-0.0120,2.56,0.00,280.63,-0.5050,-0.0331,9.6696,9.6828
3,5,2,5,2,18.244,18244,-0.5200,-0.0300,9.9900,10.0036,-0.0065,0.0033,-0.0076,2.50,-0.06,280.63,-0.5070,-0.0327,9.7118,9.7251
3,5,2,5,2,18.374,18374,-0.4200,0.0300,10.1300,10.1387,-0.0087,-0.0251,0.0055,2.56,-0.06,280.63,-0.4955,-0.0244,9.7669,9.7795
3,5,2,5,2,18.547,18547,-0.5300,-0.0400,9.4900,9.5049,0.0022,0.0076,-0.0033,2.56,-0.06,280.63,-0.5000,-0.0265,9.7304,9.7433
3,5,2,5,2,18.678,18678,-0.8000,0.0500,10.0500,10.0819,-0.0131,-0.0055,-0.0076,2.50,0.00,280.63,-0.5396,-0.0164,9.7725,9.7874
3,5,2,5,2,18.809,18809,-0.4300,-0.0100,9.8600,9.8694,0.0055,-0.0033,0.0000,2.44,0.00,280.63,-0.5251,-0.0155,9.7840,9.7981
3,5,2,5,2,18.942,18942,-0.5100,-0.0900,10.1800,10.1932,0.0055,-0.0022,0.0011,2.44,0.00,280.63,-0.5231,-0.0254,9.8362,9.8502
3,5,2,5,2,19.073,19073,-0.5100,-0.0700,10.1900,10.2030,0.0065,-0.0022,0.0000,2.44,0.00,280.63,-0.5214,-0.0312,9.8828,9.8966
3,5,2,5,2,19.206,19206,-0.4200,-0.1100,9.7800,9.7896,0.0065,-0.0065,0.0044,2.44,0.00,280.63,-0.5080,-0.0416,9.8693,9.8824
3,5,2,5,2,19.337,19337,-0.5200,-0.0200,9.6200,9.6341,0.0087,-0.0065,-0.0011,2.50,0.00,280.63,-0.5096,-0.0388,9.8364,9.8497
3,5,2,5,2,19.468,19468,-0.4200,-0.0700,9.8300,9.8392,-0.0022,-0.0142,-0.0011,2.50,0.00,280.63,-0.4978,-0.0429,9.8356,9.8483
3,5,2,5,2,19.640,19640,-0.4100,-0.0800,9.7400,9.7490,0.0087,-0.0076,0.0000,2.50,-0.06,280.63,-0.4862,-0.0478,9.8230,9.8351
3,5,2,5,2,19.771,19771,-0.8900,0.0600,9.3700,9.4124,0.0055,-0.0098,0.0055,2.50,-0.06,280.63,-0.5394,-0.0336,9.7633,9.7783
3,5,2,5,2,19.901,19901,-0.6300,-0.0800,9.8900,9.9104,0.0131,-0.0109,-0.0076,2.50,-0.13,280.63,-0.5514,-0.0397,9.7800,9.7956
3,5,2,5,2,20.037,20037,-0.2500,0.0400,9.7800,9.7833,-0.0207,0.0153,0.0000,2.50,-0.13,280.63,-0.5117,-0.0292,9.7800,9.7934
3,5,2,5,2,20.169,20169,-0.6100,-0.2000,9.2900,9.3122,0.0087,-0.0033,-0.0098,2.56,-0.13,280.63,-0.5246,-0.0517,9.7154,9.7297
3,5,2,5,2,20.299,20299,-0.6500,-0.2600,9.9800,10.0045,-0.0033,0.0033,0.0109,2.56,-0.13,280.63,-0.5411,-0.0791,9.7503,9.7656
3,5,2,5,2,20.430,20430,-0.4500,0.0400,9.3900,9.4009,-0.0087,0.0033,-0.0065,2.56,-0.19,280.63,-0.5291,-0.0634,9.7028,9.7174
3,5,2,5,2,20.560,20560,-0.6600,0.1300,6.4900,6.5248,0.0055,0.0098,-0.0076,2.56,-0.19,280.63,-0.5464,-0.0380,9.2794,9.2956
3,6,2,5,2,20.733,20733,-0.9600,0.2900,9.6400,9.6920,0.0131,-0.0175,0.0131,2.56,-0.06,280.63,-0.6009,0.0053,9.3270,9.3463
3,6,2,5,2,20.867,20867,0.1600,-0.2100,12.3200,12.3228,0.0044,-0.0033,-0.0098,2.50,0.00,280.63,-0.5006,-0.0231,9.7214,9.7343
3,6,2,5,2,21.001,21001,-0.7300,-0.0700,10.7400,10.7650,-0.0295,-0.0109,0.0273,2.56,0.00,280.63,-0.5308,-0.0293,9.8556,9.8699
3,6,2,5,2,21.132,21132,-0.5000,-0.0200,9.6700,9.6829,0.0022,-0.0087,-0.0011,2.44,0.00,280.63,-0.5268,-0.0281,9.8311,9.8453
3,6,2,5,2,21.262,21262,-0.4700,-0.1000,10.2500,10.2613,-0.0033,-0.0065,0.0000,2.63,0.00,280.63,-0.5193,-0.0375,9.8863,9.9000
3,6,2,5,2,21.392,21392,-0.4900,-0.0300,10.1900,10.2018,0.0044,0.0164,-0.0011,2.50,-0.06,280.63,-0.5154,-0.0365,9.9263,9.9398
3,6,2,5,2,21.523,21523,-0.4600,-0.1000,10.0000,10.0111,-0.0120,0.0076,0.0033,2.44,0.00,280.63,-0.5081,-0.0449,9.9361,9.9491
3,6,2,5,2,21.653,21653,-0.4900,-0.0400,10.3500,10.3617,-0.0011,-0.0011,0.0011,2.44,0.00,280.63,-0.5057,-0.0443,9.9906,10.0035
3,6,2,5,2,21.826,21826,-0.5100,-0.1300,9.8500,9.8641,0.0087,-0.0087,0.0033,2.44,0.00,280.63,-0.5063,-0.0556,9.9721,9.9851
3,6,2,5,2,21.956,21956,-0.4300,-0.0200,10.0600,10.0692,0.0044,0.0131,0.0011,2.44,0.00,280.63,-0.4962,-0.0509,9.9837,9.9961
3,6,2,5,2,22.089,22089,-0.6100,0.0600,9.8900,9.9090,0.0153,-0.0120,-0.0055,2.44,-0.06,280.63,-0.5112,-0.0363,9.9713,9.9845
3,6,2,5,2,22.224,22224,-0.5700,-0.0500,9.5800,9.5971,0.0109,-0.0109,0.0000,2.50,-0.06,280.63,-0.5190,-0.0381,9.9198,9.9334
3,6,2,5,2,22.355,22355,-0.4400,-0.1200,9.3900,9.4011,0.0131,0.0240,-0.0033,2.44,-0.13,280.63,-0.5086,-0.0489,9.8499,9.8632
3,6,2,5,2,22.485,22485,-0.6100,0.0300,10.1300,10.1484,0.0120,-0.0120,-0.0022,2.44,-0.13,280.63,-0.5219,-0.0385,9.8868,9.9007
3,6,2,5,2,22.615,22615,-0.3200,0.0400,10.3500,10.3550,-0.0044,0.0000,0.0033,2.50,-0.13,280.63,-0.4953,-0.0281,9.9479,9.9602
3,6,2,5,2,22.746,22746,-0.9500,-0.2800,9.1500,9.2034,0.0305,-0.0175,-0.0076,2.56,-0.19,280.63,-0.5552,-0.0613,9.8427,9.8586
3,6,2,5,2,22.920,22920,-0.5700,-0.1400,8.6500,8.6699,0.0065,-0.0076,-0.0044,2.50,-0.19,280.63,-0.5572,-0.0717,9.6856,9.7018
3,6,2,5,2,23.056,23056,-1.4000,0.0700,10.2400,10.3355,0.0098,-0.0120,0.0131,2.56,-0.19,280.63,-0.6682,-0.0530,9.7586,9.7816
3,6,2,5,2,23.187,23187,-0.3300,0.0300,10.0700,10.0755,0.0000,-0.0055,-0.0164,2.56,-0.19,280.63,-0.6237,-0.0421,9.7997,9.8196
3,6,2,5,2,23.317,23317,-0.2300,-0.0100,9.0000,9.0029,-0.0164,0.0120,-0.0142,2.56,-0.19,280.63,-0.5718,-0.0379,9.6943,9.7112
3,6,2,5,2,23.447,23447,-0.5300,-0.3000,7.4800,7.5048,0.0011,-0.0033,0.0109,2.56,-0.25,280.63,-0.5663,-0.0724,9.4025,9.4198
3,7,2,5,2,23.578,23578,-0.3700,-0.2500,9.6200,9.6304,-0.0011,0.0164,0.0229,2.56,-0.13,280.69,-0.5404,-0.0958,9.4312,9.4471
3,7,2,5,2,23.708,23708,-0.2300,-0.0500,11.5600,11.5624,0.0109,-0.0142,-0.0033,2.50,-0.06,280.56,-0.4995,-0.0898,9.7117,9.7249
3,7,2,5,2,23.838,23838,-0.7400,-0.2900,11.0100,11.0387,0.0175,-0.0120,0.0153,2.56,0.00,280.63,-0.5312,-0.1162,9.8828,9.8977
3,7,2,5,2,24.011,24011,-0.5700,-0.0900,9.2300,9.2480,-0.0098,-0.0240,0.0087,2.56,0.00,280.56,-0.5363,-0.1127,9.7968,9.8121
3,7,2,5,2,24.142,24142,-0.5900,-0.0400,9.4300,9.4485,0.0109,0.0131,-0.0109,2.56,0.00,280.56,-0.5434,-0.1031,9.7484,9.7641
3,7,2,5,2,24.275,24275,-0.4700,-0.0200,9.8100,9.8213,0.0000,-0.0076,-0.0022,2.56,-0.06,280.56,-0.5337,-0.0922,9.7565,9.7716
3,7,2,5,2,24.409,24409,-0.5300,-0.0500,9.8100,9.8244,0.0000,0.0000,-0.0022,2.56,-0.06,280.56,-0.5332,-0.0866,9.7636,9.7785
3,7,2,5,2,24.540,24540,-0.5100,0.1500,10.1400,10.1539,-0.0175,0.0164,0.0087,2.44,0.00,280.56,-0.5302,-0.0554,9.8132,9.8277
3,7,2,5,2,24.671,24671,-0.4700,-0.0200,10.3200,10.3307,0.0087,-0.0065,0.0000,2.38,0.00,280.56,-0.5222,-0.0508,9.8800,9.8939
3,7,2,5,2,24.801,24801,-0.5400,0.0100,9.9600,9.9746,0.0065,-0.0044,0.0087,2.38,0.00,280.56,-0.5246,-0.0428,9.8905,9.9045
3,7,2,5,2,24.931,24931,-0.6400,0.0200,9.8400,9.8608,0.0087,-0.0120,-0.0011,2.38,-0.06,280.56,-0.5398,-0.0345,9.8839,9.8986
3,7,2,5,2,25.104,25104,-0.3900,-0.3500,9.3000,9.3148,0.0087,-0.0175,0.0011,2.50,-0.06,280.56,-0.5201,-0.0761,9.8069,9.8210
3,7,2,5,2,25.235,25235,-0.4300,-0.0700,9.7800,9.7897,0.0022,-0.0022,0.0065,2.50,-0.13,280.56,-0.5082,-0.0753,9.8034,9.8168
3,7,2,5,2,25.366,25366,-0.4000,-0.0200,9.9500,9.9581,0.0251,0.0185,-0.0022,2.44,-0.19,280.56,-0.4939,-0.0680,9.8227,9.8353
3,7,2,5,2,25.501,25501,-0.2900,-0.0900,9.0700,9.0751,0.0164,-0.0142,-0.0065,2.50,-0.19,280.56,-0.4671,-0.0709,9.7235,9.7350
3,7,2,5,2,25.633,25633,-0.6500,-0.0400,9.8500,9.8715,0.0065,-0.0022,-0.0022,2.50,-0.25,280.56,-0.4912,-0.0668,9.7402,9.7528
3,7,2,5,2,25.763,25763,-0.3000,-0.0600,9.0800,9.0852,-0.0076,0.0164,0.0000,2.50,-0.25,280.56,-0.4660,-0.0659,9.6532,9.6646
3,7,2,5,2,25.893,25893,-0.6700,0.0000,9.4800,9.5036,0.0131,-0.0109,0.0251,2.56,-0.25,280.56,-0.4929,-0.0572,9.6304,9.6431
3,7,2,5,2,26.024,26024,-0.4400,0.0100,9.8200,9.8299,0.0044,-0.0044,-0.0033,2.56,-0.25,280.56,-0.4859,-0.0484,9.6554,9.6677
3,7,2,5,2,26.196,26196,-0.4700,-0.1800,9.7000,9.7130,-0.0022,0.0011,0.0065,2.56,-0.25,280.56,-0.4838,-0.0657,9.6612,9.6736
3,7,2,5,2,26.326,26326,-0.5200,0.0500,8.0800,8.0969,-0.0065,-0.0065,0.0044,2.56,-0.25,280.56,-0.4886,-0.0505,9.4529,9.4656
3,7,2,5,2,26.456,26456,-0.6400,0.1200,9.6800,9.7019,-0.0480,0.0087,-0.0447,2.56,-0.13,280.63,-0.5085,-0.0280,9.4828,9.4965
3,7,2,5,2,26.586,26586,-0.4400,0.0900,11.5100,11.5188,-0.0055,0.0142,0.0000,2.56,0.00,280.56,-0.4995,-0.0125,9.7499,9.7627
3,7,2,5,2,26.716,26716,-0.5400,0.0300,11.0600,11.0732,-0.0109,-0.0098,0.0022,2.50,0.00,280.50,-0.5048,-0.0069,9.9226,9.9354
3,7,2,5,2,26.846,26846,-0.4800,-0.0800,10.2700,10.2815,0.0131,0.0273,-0.0262,2.50,0.00,280.50,-0.5016,-0.0165,9.9683,9.9810
3,8,2,5,2,26.976,26976,-0.2500,0.1000,9.7800,9.7837,-0.0076,0.0044,0.0076,2.50,-0.06,280.50,-0.4684,-0.0011,9.9435,9.9546
3,8,2,5,2,27.107,27107,-0.4500,0.0100,9.9500,9.9602,-0.0087,-0.0022,0.0022,2.50,-0.06,280.50,-0.4660,0.0003,9.9444,9.9553
3,8,2,5,2,27.280,27280,-0.6400,-0.0700,10.0300,10.0506,-0.0011,-0.0044,0.0044,2.50,-0.06,280.50,-0.4889,-0.0089,9.9557,9.9677
3,8,2,5,2,27.416,27416,-0.6200,-0.0100,9.8700,9.8895,-0.0131,0.0055,0.0065,2.38,0.00,280.44,-0.5062,-0.0091,9.9444,9.9573
3,8,2,5,2,27.548,27548,-0.5300,-0.0100,10.1000,10.1139,0.0076,-0.0098,-0.0011,2.44,0.00,280.44,-0.5093,-0.0092,9.9649,9.9779
3,8,2,5,2,27.678,27678,-0.4300,-0.0700,10.0400,10.0494,0.0022,-0.0044,0.0033,2.44,0.00,280.44,-0.4989,-0.0172,9.9748,9.9873
3,8,2,5,2,27.808,27808,-0.5500,0.0000,9.6200,9.6357,0.0011,0.0022,0.0055,2.38,0.00,280.44,-0.5056,-0.0149,9.9280,9.9409
3,8,2,5,2,27.939,27939,-0.4600,-0.1100,9.4100,9.4219,0.0044,-0.0011,0.0044,2.38,0.00,280.44,-0.4996,-0.0275,9.8598,9.8725
3,8,2,5,2,28.069,28069,-0.1300,-0.3700,9.2500,9.2583,0.0098,-0.0044,0.0055,2.44,-0.06,280.44,-0.4509,-0.0726,9.7794,9.7901
3,8,2,5,2,28.199,28199,-0.4500,0.0100,10.0000,10.0101,0.0044,0.0000,0.0044,2.44,-0.06,280.44,-0.4508,-0.0617,9.8085,9.8190
3,8,2,5,2,28.372,28372,-0.5100,0.0000,9.9700,9.9830,0.0098,0.0044,0.0011,2.50,-0.13,280.44,-0.4586,-0.0536,9.8298,9.8406
3,8,2,5,2,28.505,28505,-0.3500,0.1200,9.0000,9.0076,-0.0022,0.0022,-0.0044,2.44,-0.13,280.44,-0.4443,-0.0307,9.7204,9.7306
3,8,2,5,2,28.640,28640,-0.3700,-0.1500,9.0000,9.0089,0.0033,-0.0022,0.0033,2.56,-0.19,280.44,-0.4345,-0.0464,9.6255,9.6354
3,8,2,5,2,28.771,28771,-0.4700,-0.0400,9.1300,9.1422,-0.0022,0.0065,-0.0033,2.56,-0.19,280.44,-0.4392,-0.0456,9.5602,9.5704
3,8,2,5,2,28.901,28901,-0.5400,-0.1800,9.8500,9.8664,0.0000,0.0022,0.0055,2.56,-0.19,280.44,-0.4525,-0.0633,9.5984,9.6093
3,8,2,5,2,29.032,29032,-0.3600,-0.1200,9.9400,9.9472,0.0033,-0.0011,-0.0022,2.56,-0.19,280.44,-0.4403,-0.0708,9.6434,9.6537
3,8,2,5,2,29.162,29162,-0.2200,-0.0600,9.0700,9.0729,-0.0164,-0.0022,0.0033,2.56,-0.19,280.44,-0.4112,-0.0694,9.5678,9.5769
3,8,2,5,2,29.292,29292,-0.4300,-0.1900,8.4700,8.4830,-0.0185,-0.0153,0.0153,2.56,-0.13,280.44,-0.4137,-0.0852,9.4232,9.4326
3,8,2,5,2,29.465,29465,-0.2800,0.0800,10.2100,10.2142,-0.0305,-0.0011,-0.0044,2.50,0.00,280.44,-0.3961,-0.0635,9.5269,9.5353
3,8,2,5,2,29.596,29596,-0.5200,-0.0500,10.2800,10.2933,-0.0142,-0.0087,0.0022,2.50,0.00,280.38,-0.4124,-0.0617,9.6261,9.6351
3,8,2,5,2,29.726,29726,-0.4600,-0.0400,10.0100,10.0206,0.0000,0.0109,-0.0033,2.50,0.00,280.38,-0.4187,-0.0588,9.6767,9.6859
3,8,2,5,2,29.860,29860,-0.3500,0.0500,9.8800,9.8863,-0.0076,0.0065,0.0033,2.50,0.00,280.38,-0.4096,-0.0445,9.7035,9.7122
3,8,2,5,2,29.994,29994,-0.4000,-0.1000,9.8600,9.8686,0.0055,-0.0044,0.0076,2.44,0.00,280.31,-0.4084,-0.0518,9.7241,9.7328
3,8,2,5,2,30.124,30124,-0.4700,-0.2300,9.6600,9.6742,-0.0076,0.0055,0.0011,2.38,0.00,280.31,-0.4165,-0.0753,9.7157,9.7249
3,8,2,5,2,30.255,30255,-0.4800,-0.0100,10.1900,10.2013,-0.0011,-0.0044,-0.0011,2.38,0.00,280.31,-0.4249,-0.0667,9.7782,9.7876
3,8,2,5,2,30.385,30385,-0.4500,-0.0700,10.1300,10.1402,-0.0022,0.0000,0.0033,2.44,0.00,280.31,-0.4282,-0.0671,9.8245,9.8341
3,8,2,5,2,30.558,30558,-0.4500,0.0400,10.1000,10.1101,-0.0065,0.0033,0.0044,2.44,0.00,280.31,-0.4310,-0.0530,9.8608,9.8704
3,8,2,5,2,30.694,30694,-0.3800,-0.0900,10.3300,10.3374,0.0044,0.0000,0.0033,2.44,0.00,280.31,-0.4243,-0.0579,9.9227,9.9319
3,8,2,5,2,30.826,30826,-0.1500,-0.2500,9.5900,9.5944,0.0044,-0.0142,0.0000,2.44,0.00,280.31,-0.3882,-0.0832,9.8788,9.8868
3,8,2,5,2,30.956,30956,-0.8500,0.1500,10.2500,10.2863,0.0087,-0.0055,0.0065,2.44,0.00,280.31,-0.4490,-0.0525,9.9277,9.9380
3,9,2,5,2,31.087,31087,-0.4500,0.0100,9.7000,9.7104,0.0065,0.0011,-0.0044,2.50,-0.06,280.31,-0.4492,-0.0442,9.8977,9.9080
3,9,2,5,2,31.217,31217,-0.6700,0.0000,9.4900,9.5136,0.0153,-0.0131,0.0022,2.50,-0.13,280.31,-0.4783,-0.0384,9.8440,9.8557
3,9,2,5,2,31.348,31348,-0.2600,-0.0100,8.8400,8.8438,-0.0076,0.0087,0.0000,2.50,-0.13,280.31,-0.4495,-0.0347,9.7117,9.7222
3,9,2,5,2,31.478,31478,-0.5700,-0.0300,8.9400,8.9582,0.0033,0.0000,-0.0044,2.56,-0.19,280.31,-0.4654,-0.0340,9.6100,9.6213
3,9,2,5,2,31.651,31651,-0.4500,-0.0900,10.1700,10.1803,0.0000,0.0033,-0.0065,2.56,-0.19,280.31,-0.4634,-0.0414,9.6838,9.6950
3,9,2,5,2,31.781,31781,-0.5400,-0.1300,9.5600,9.5761,-0.0055,0.0000,0.0109,2.56,-0.19,280.31,-0.4735,-0.0531,9.6675,9.6792
3,9,2,5,2,31.917,31917,-0.3100,-0.0900,9.0100,9.0158,0.0000,0.0044,-0.0022,2.56,-0.19,280.31,-0.4519,-0.0580,9.5808,9.5917
3,9,2,5,2,32.049,32049,-0.4500,0.1000,8.5800,8.5924,-0.0415,0.0196,-0.0327,2.56,-0.06,280.38,-0.4517,-0.0371,9.4490,9.4598
3,9,2,5,2,32.179,32179,-0.7100,-0.1300,10.1000,10.1258,-0.0065,0.0393,-0.0164,2.56,0.00,280.31,-0.4857,-0.0494,9.5347,9.5472
3,9,2,5,2,32.310,32310,-0.0700,-0.0100,11.4900,11.4902,-0.0207,-0.0033,-0.0022,2.50,0.00,280.25,-0.4309,-0.0442,9.7924,9.8020
3,9,2,5,2,32.440,32440,-0.5100,0.0700,10.2100,10.2230,-0.0240,-0.0218,0.0142,2.56,0.00,280.25,-0.4413,-0.0291,9.8474,9.8574
3,9,2,5,2,32.570,32570,-0.5400,-0.0100,10.0000,10.0146,0.0055,0.0109,-0.0098,2.56,0.00,280.25,-0.4543,-0.0266,9.8675,9.8780
3,9,2,5,2,32.743,32743,-0.5200,-0.0700,10.2100,10.2235,0.0022,-0.0087,0.0055,2.56,0.00,280.25,-0.4630,-0.0323,9.9127,9.9235
3,9,2,5,2,32.875,32875,-0.4800,-0.0200,10.1600,10.1714,0.0055,0.0022,-0.0033,2.56,0.00,280.25,-0.4652,-0.0307,9.9453,9.9562
3,9,2,5,2,33.006,33006,-0.5000,-0.0300,9.9900,10.0025,0.0044,0.0164,-0.0022,2.56,0.00,280.25,-0.4698,-0.0306,9.9512,9.9623
3,9,2,5,2,33.141,33141,-0.3500,0.0700,10.3300,10.3362,-0.0142,0.0120,0.0044,2.38,0.00,280.25,-0.4540,-0.0174,10.0011,10.0114
3,9,2,5,2,33.272,33272,-0.5000,0.0300,10.1500,10.1624,0.0065,-0.0055,-0.0011,2.44,0.00,280.25,-0.4601,-0.0111,10.0207,10.0313
3,9,2,5,2,33.403,33403,-0.2100,-0.0300,10.0500,10.0522,0.0011,-0.0065,-0.0044,2.44,0.00,280.25,-0.4271,-0.0136,10.0246,10.0337
3,10,2,5,2,33.533,33533,-0.5800,-0.0800,9.6800,9.6977,0.0076,-0.0076,0.0109,2.44,0.00,280.25,-0.4473,-0.0224,9.9792,9.9892
3,10,2,5,2,33.664,33664,-0.6000,0.0000,9.7500,9.7684,0.0109,-0.0142,0.0055,2.44,0.00,280.25,-0.4674,-0.0194,9.9490,9.9600
3,10,2,5,2,33.842,33842,-0.5100,-0.0300,9.2500,9.2641,0.0109,-0.0142,0.0022,2.44,0.00,280.25,-0.4730,-0.0208,9.8569,9.8682
3,10,2,5,2,33.974,33974,-0.4500,-0.0600,10.0200,10.0303,0.0065,0.0000,-0.0044,2.50,-0.06,280.25,-0.4700,-0.0260,9.8784,9.8896
3,10,2,5,2,34.104,34104,-0.4500,0.0300,9.4700,9.4807,-0.0207,0.0044,0.0185,2.44,-0.06,280.25,-0.4673,-0.0186,9.8245,9.8357
3,10,2,5,2,34.234,34234,-0.4600,0.0700,9.7000,9.7112,0.0131,-0.0087,-0.0022,2.50,-0.13,280.25,-0.4664,-0.0069,9.8081,9.8192
3,10,2,5,2,34.365,34365,-0.7800,-0.1500,8.9300,8.9653,0.0065,-0.0076,-0.0142,2.50,-0.19,280.25,-0.5077,-0.0258,9.6924,9.7057
3,10,2,5,2,34.495,34495,-0.4100,0.0000,9.8000,9.8086,-0.0055,0.0011,0.0000,2.50,-0.19,280.19,-0.4948,-0.0224,9.7066,9.7192
3,10,2,5,2,34.625,34625,-0.6700,-0.1600,9.7500,9.7743,-0.0022,0.0022,-0.0065,2.50,-0.19,280.25,-0.5179,-0.0405,9.7123,9.7262
3,10,2,5,2,34.756,34756,-0.5900,-0.2500,9.7500,9.7710,-0.0011,0.0033,0.0109,2.50,-0.19,280.19,-0.5274,-0.0681,9.7173,9.7318
3,10,2,5,2,34.931,34931,-0.4200,-0.1000,9.6700,9.6796,0.0000,0.0011,0.0120,2.50,-0.19,280.19,-0.5133,-0.0723,9.7110,9.7249
3,10,2,5,2,35.062,35062,-0.4200,-0.0500,8.4400,8.4506,0.0000,0.0033,0.0065,2.50,-0.19,280.19,-0.5010,-0.0694,9.5436,9.5569
3,10,2,5,2,35.196,35196,-0.7000,-0.2100,8.1000,8.1329,0.0153,0.0120,0.0055,2.50,-0.19,280.19,-0.5272,-0.0879,9.3533,9.3686
3,10,2,5,2,35.327,35327,-0.9200,-0.1500,10.6100,10.6509,-0.0065,0.0164,-0.0131,2.50,0.00,280.19,-0.5790,-0.0961,9.5189,9.5370
3,10,2,5,2,35.458,35458,-0.4600,-0.3000,12.0700,12.0825,-0.0033,0.0055,-0.0120,2.44,0.00,280.13,-0.5633,-0.1230,9.8551,9.8719
3,10,2,5,2,35.588,35588,-0.6000,0.7700,9.8500,9.8983,-0.0055,-0.0098,-0.1691,2.69,0.44,280.31,-0.5681,-0.0053,9.8544,9.8708
3,10,2,5,2,35.718,35718,-0.2600,0.0300,9.3300,9.3337,-0.0251,0.0142,-0.0807,2.31,0.00,280.25,-0.5275,-0.0006,9.7853,9.7995
3,10,2,5,2,35.848,35848,-0.5300,-0.1800,9.7600,9.7760,-0.0273,0.0262,0.0305,2.38,0.06,280.19,-0.5278,-0.0243,9.7820,9.7962
3,10,2,5,2,36.021,36021,-0.8300,-0.0700,9.6100,9.6460,-0.0055,-0.0458,0.0185,2.56,0.06,280.19,-0.5677,-0.0303,9.7593,9.7759
3,10,2,5,2,36.151,36151,-0.4300,-0.0600,9.9700,9.9794,0.0098,0.0742,0.0087,2.38,0.13,280.19,-0.5495,-0.0342,9.7871,9.8026
3,10,2,5,2,36.282,36282,-0.3300,-0.1400,9.7400,9.7466,-0.0022,-0.0098,0.0109,2.25,0.13,280.25,-0.5206,-0.0482,9.7809,9.7948
3,10,2,5,2,36.413,36413,-0.5900,0.0700,9.8200,9.8380,0.0076,-0.0044,0.0044,2.31,0.13,280.19,-0.5297,-0.0326,9.7860,9.8004
3,10,2,5,2,36.547,36547,-0.3500,-0.0900,9.6500,9.6568,0.0120,0.0033,0.0000,2.31,0.06,280.25,-0.5061,-0.0402,9.7681,9.7813
3,10,2,5,2,36.680,36680,-0.5300,-0.0400,9.7300,9.7445,0.0087,-0.0131,0.0087,2.38,0.06,280.25,-0.5092,-0.0401,9.7631,9.7764
3,10,2,5,2,36.811,36811,-0.8000,0.0400,9.8400,9.8725,0.0153,-0.0131,-0.0044,2.38,0.00,280.25,-0.5475,-0.0296,9.7732,9.7886
3,10,2,5,2,36.941,36941,-0.5200,-0.0200,9.6600,9.6740,0.0131,-0.0055,-0.0120,2.44,0.00,280.25,-0.5439,-0.0283,9.7583,9.7735
3,10,2,5,2,37.114,37114,-0.6000,-0.1200,8.9300,8.9509,0.0098,-0.0120,-0.0044,2.44,0.00,280.25,-0.5513,-0.0404,9.6492,9.6650
3,10,2,5,2,37.244,37244,-0.5600,0.0600,8.3500,8.3690,0.0011,0.0044,-0.0240,2.44,-0.06,280.19,-0.5524,-0.0272,9.4780,9.4941
3,10,2,5,2,37.375,37375,-0.5300,-0.1000,9.2700,9.2857,0.0240,-0.0131,0.0065,2.44,-0.06,280.25,-0.5495,-0.0368,9.4506,9.4666
3,11,2,5,2,37.505,37505,-0.4600,-0.0100,10.0400,10.0505,-0.0065,-0.0196,0.0044,2.50,-0.06,280.19,-0.5377,-0.0332,9.5282,9.5434
3,11,2,5,2,37.636,37636,-0.6300,-0.0700,9.9900,10.0101,-0.0076,0.0098,0.0076,2.50,-0.06,280.25,-0.5499,-0.0381,9.5891,9.6049
3,11,2,5,2,37.767,37767,-0.2800,-0.0200,9.2700,9.2742,-0.0022,0.0065,0.0164,2.44,-0.06,280.25,-0.5143,-0.0357,9.5470,9.5609
3,11,2,5,2,37.902,37902,-0.5800,-0.1000,8.1100,8.1313,-0.0098,-0.0218,-0.0065,2.50,-0.06,280.25,-0.5230,-0.0442,9.3577,9.3724
3,11,2,5,2,38.032,38032,-0.3000,0.0500,8.4500,8.4555,-0.0295,0.0087,0.0098,2.50,0.00,280.25,-0.4936,-0.0318,9.2381,9.2513
3,11,2,5,2,38.205,38205,-0.6600,0.0900,11.4800,11.4993,-0.0175,-0.0131,-0.0196,2.56,0.13,280.19,-0.5155,-0.0157,9.5335,9.5474
3,11,2,5,2,38.335,38335,-0.3300,0.0000,11.5700,11.5747,0.0229,0.0065,-0.0175,2.63,0.13,280.19,-0.4911,-0.0136,9.8019,9.8142
3,11,2,5,2,38.465,38465,-0.8400,0.0300,9.3700,9.4076,-0.0055,-0.0262,0.0109,2.56,0.13,280.13,-0.5370,-0.0079,9.7449,9.7597
3,11,2,5,2,38.595,38595,-0.3800,0.1000,9.6600,9.6680,0.0022,0.0076,-0.0164,2.56,0.13,280.13,-0.5163,0.0063,9.7337,9.7474
3,11,2,5,2,38.725,38725,0.3500,-0.2000,10.1000,10.1080,-0.0644,0.0665,-0.0055,2.38,0.25,280.13,-0.4022,-0.0209,9.7820,9.7903
3,11,2,5,2,38.856,38856,-0.4400,-0.1000,9.6600,9.6705,0.0436,0.0349,0.0120,2.38,0.13,280.13,-0.4072,-0.0313,9.7659,9.7745
3,11,2,5,2,38.986,38986,-0.4000,-0.0100,10.3800,10.3877,-0.0022,0.0109,0.0011,2.38,0.13,280.13,-0.4062,-0.0285,9.8469,9.8553
3,11,2,5,2,39.116,39116,-0.4700,0.0000,10.3600,10.3707,0.0011,-0.0175,0.0033,2.38,0.13,280.13,-0.4146,-0.0247,9.9145,9.9232
3,11,2,5,2,39.289,39289,-0.3800,0.0300,9.6300,9.6375,0.0022,0.0011,0.0109,2.38,0.13,280.13,-0.4101,-0.0175,9.8770,9.8855
3,11,2,5,2,39.420,39420,-0.3800,0.0200,9.6400,9.6475,0.0044,-0.0120,0.0076,2.38,0.06,280.13,-0.4061,-0.0126,9.8458,9.8541
3,11,2,5,2,39.550,39550,-0.4600,0.0300,9.9300,9.9407,0.0011,0.0055,0.0022,2.44,0.06,280.13,-0.4132,-0.0070,9.8569,9.8655
3,11,2,5,2,39.686,39686,-0.4500,-0.0100,10.3800,10.3898,0.0120,-0.0011,-0.0044,2.44,0.06,280.13,-0.4181,-0.0074,9.9258,9.9346
3,11,2,5,2,39.818,39818,-0.4100,-0.0200,10.2600,10.2682,0.0142,-0.0076,-0.0011,2.44,0.00,280.13,-0.4170,-0.0090,9.9698,9.9786
3,11,2,5,2,39.948,39948,-0.8000,0.0900,9.7400,9.7732,0.0087,-0.0109,-0.0044,2.44,0.00,280.13,-0.4675,0.0040,9.9395,9.9505
3,11,2,5,2,40.079,40079,-0.5200,-0.0500,8.4600,8.4761,0.0055,-0.0109,-0.0109,2.44,0.00,280.13,-0.4744,-0.0031,9.7446,9.7561
3,11,2,5,2,40.209,40209,-0.2300,-0.0100,9.0600,9.0629,0.0033,0.0033,-0.0044,2.50,0.00,280.13,-0.4422,-0.0040,9.6544,9.6645
3,11,2,5,2,40.382,40382,-0.6200,-0.0800,9.7600,9.7800,0.0120,-0.0327,0.0011,2.56,0.00,280.06,-0.4656,-0.0140,9.6683,9.6795
3,11,2,5,2,40.512,40512,-0.1800,0.1300,9.8500,9.8525,-0.0098,-0.0164,-0.0185,2.56,0.00,280.13,-0.4280,0.0050,9.6922,9.7017
3,11,2,5,2,40.644,40644,-0.5500,-0.1200,8.3500,8.3690,0.0109,-0.0175,0.0142,2.50,0.00,280.13,-0.4441,-0.0115,9.5154,9.5257
3,12,2,5,2,40.775,40775,-0.2600,0.0800,10.1700,10.1736,-0.0469,-0.0033,0.0240,2.56,0.06,280.13,-0.4198,0.0005,9.6016,9.6108
3,12,2,5,2,40.910,40910,-0.3700,0.1900,11.8700,11.8773,-0.0382,0.0218,-0.0338,2.56,0.19,280.13,-0.4132,0.0255,9.9005,9.9092
3,12,2,5,2,41.041,41041,-0.4900,0.0400,12.2500,12.2599,0.0164,-0.0229,0.0295,2.56,0.19,280.06,-0.4234,0.0274,10.2101,10.2189
3,12,2,5,2,41.172,41172,-0.4400,0.1300,9.8500,9.8607,0.0022,0.0284,-0.0185,2.50,0.25,280.06,-0.4255,0.0409,10.1627,10.1717
3,12,2,5,2,41.302,41302,-0.2700,0.0400,9.4200,9.4240,-0.0185,-0.0218,0.0011,2.50,0.19,280.06,-0.4051,0.0408,10.0648,10.0730
3,12,2,5,2,41.475,41475,-0.4800,0.0200,10.1400,10.1514,0.0229,0.0175,-0.0011,2.69,0.25,280.00,-0.4149,0.0381,10.0747,10.0833
3,12,2,5,2,41.605,41605,-0.4600,-0.0700,10.1900,10.2006,-0.0011,0.0480,-0.0098,2.50,0.19,280.00,-0.4209,0.0238,10.0899,10.0987
3,12,2,5,2,41.736,41736,-0.4500,0.0600,10.4600,10.4698,-0.0065,0.0044,0.0087,2.38,0.19,280.00,-0.4247,0.0286,10.1387,10.1476
3,12,2,5,2,41.871,41871,-0.3900,0.1000,10.1100,10.1180,0.0022,0.0033,-0.0055,2.44,0.19,280.00,-0.4201,0.0380,10.1349,10.1437
3,12,2,5,2,42.003,42003,-0.4100,-0.0200,9.6000,9.6088,0.0000,0.0065,0.0033,2.44,0.19,280.06,-0.4188,0.0304,10.0644,10.0732
3,12,2,5,2,42.133,42133,-0.6000,-0.0400,9.3400,9.3593,0.0076,-0.0065,-0.0033,2.50,0.13,280.06,-0.4427,0.0211,9.9690,9.9788
3,12,2,5,2,42.264,42264,-0.3100,0.0100,10.2100,10.2147,0.0175,-0.0033,-0.0022,2.50,0.13,280.13,-0.4252,0.0196,10.0007,10.0098
3,12,2,5,2,42.394,42394,-0.3200,0.0000,9.9000,9.9052,0.0011,-0.0022,-0.0076,2.50,0.06,280.13,-0.4113,0.0170,9.9874,9.9959
3,12,2,5,2,42.567,42567,-0.5400,-0.1600,10.7500,10.7647,0.0164,-0.0098,0.0000,2.44,0.00,280.13,-0.4283,-0.0063,10.0879,10.0970
3,12,2,5,2,42.701,42701,-0.4400,-0.1200,9.2200,9.2313,0.0251,-0.0164,-0.0033,2.44,0.00,280.06,-0.4298,-0.0213,9.9736,9.9828
3,12,2,5,2,42.831,42831,-0.6900,-0.0900,8.9100,8.9371,0.0098,-0.0044,0.0011,2.50,0.00,280.06,-0.4641,-0.0303,9.8334,9.8444
3,12,2,5,2,42.965,42965,-0.3600,0.1400,9.9200,9.9275,-0.0055,-0.0295,-0.0087,2.56,0.00,280.06,-0.4504,-0.0079,9.8448,9.8551
3,12,2,5,2,43.096,43096,-0.4900,0.0000,10.1900,10.2018,-0.0153,-0.0076,-0.0076,2.50,0.00,280.06,-0.4556,-0.0068,9.8903,9.9008
3,12,2,5,2,43.226,43226,-0.7100,-0.0100,9.4000,9.4268,-0.0131,0.0000,-0.0098,2.50,0.00,280.06,-0.4891,-0.0073,9.8257,9.8379
3,12,2,5,2,43.356,43356,-0.3600,0.0600,8.6600,8.6677,-0.0055,-0.0131,-0.0055,2.56,0.00,280.06,-0.4721,0.0016,9.6721,9.6836
3,12,2,5,2,43.487,43487,-0.8000,-0.2700,8.3200,8.3627,-0.0055,0.0131,0.0229,2.56,0.00,280.13,-0.5153,-0.0342,9.4939,9.5080
3,13,2,5,2,43.660,43660,-0.8600,-0.1900,10.0700,10.1084,-0.0382,-0.0175,0.0033,2.56,0.13,280.13,-0.5607,-0.0547,9.5698,9.5864
3,13,2,5,2,43.796,43796,-0.7400,-0.1400,9.9000,9.9286,-0.0044,0.0131,-0.0120,2.63,0.13,280.06,-0.5844,-0.0660,9.6133,9.6313
3,13,2,5,2,43.928,43928,-0.1400,-0.0800,10.3600,10.3613,-0.0076,-0.0131,0.0273,2.56,0.13,280.06,-0.5258,-0.0678,9.7117,9.7262
3,13,2,5,2,44.058,44058,-0.7800,0.0200,9.8400,9.8709,-0.0185,-0.0142,0.0142,2.63,0.13,280.00,-0.5593,-0.0562,9.7286,9.7449
3,13,2,5,2,44.188,44188,-0.4900,-0.1600,9.6600,9.6737,-0.0251,0.0131,0.0022,2.56,0.19,280.06,-0.5502,-0.0699,9.7196,9.7354
3,13,2,5,2,44.319,44319,-0.5400,0.0000,10.0800,10.0945,0.0098,-0.0218,0.0055,2.56,0.13,280.00,-0.5488,-0.0607,9.7671,9.7827
3,13,2,5,2,44.449,44449,-0.6500,-0.0500,9.9900,10.0112,0.0207,-0.0305,0.0011,2.50,0.31,280.00,-0.5622,-0.0593,9.7965,9.8128
3,13,2,5,2,44.580,44580,-0.6400,0.0000,9.7200,9.7410,-0.0175,0.0044,-0.0065,2.38,0.13,280.00,-0.5724,-0.0515,9.7864,9.8032
3,13,2,5,2,44.752,44752,-0.4500,0.0000,10.2700,10.2799,0.0000,-0.0011,-0.0087,2.44,0.13,280.00,-0.5563,-0.0447,9.8501,9.8659
3,13,2,5,2,44.882,44882,-0.4600,-0.0400,10.2300,10.2404,0.0011,-0.0011,0.0087,2.44,0.13,280.00,-0.5436,-0.0441,9.9002,9.9152
3,13,2,5,2,45.012,45012,-0.4800,0.0000,9.9200,9.9316,0.0033,-0.0065,0.0022,2.44,0.13,280.00,-0.5352,-0.0383,9.9028,9.9173
3,13,2,5,2,45.142,45142,-0.5000,0.0100,9.9400,9.9526,0.0044,0.0065,-0.0011,2.44,0.13,280.00,-0.5306,-0.0319,9.9077,9.9219
3,13,2,5,2,45.272,45272,-0.4600,0.0000,9.4900,9.5011,0.0044,-0.0022,0.0033,2.44,0.13,280.00,-0.5213,-0.0277,9.8526,9.8665
3,13,2,5,2,45.402,45402,-0.4600,-0.0200,9.8100,9.8208,0.0033,0.0055,0.0011,2.44,0.13,280.00,-0.5132,-0.0267,9.8470,9.8604
3,13,2,5,2,45.532,45532,-0.7900,-0.0400,9.8700,9.9016,0.0207,-0.0185,-0.0033,2.44,0.13,280.00,-0.5497,-0.0284,9.8501,9.8654
3,13,2,5,2,45.662,45662,-0.6300,-0.0100,9.8400,9.8602,0.0120,-0.0109,0.0055,2.44,0.06,280.00,-0.5603,-0.0260,9.8487,9.8647
3,13,2,5,2,45.835,45835,-0.3300,0.0200,9.3600,9.3658,-0.0011,0.0033,-0.0076,2.44,0.06,280.00,-0.5299,-0.0199,9.7843,9.7987
3,13,2,5,2,45.965,45965,-0.3200,0.0700,9.3900,9.3957,-0.0022,0.0000,0.0076,2.44,0.00,279.94,-0.5023,-0.0081,9.7324,9.7453
3,13,2,5,2,46.096,46096,-0.6500,-0.1100,9.3000,9.3233,-0.0131,-0.0164,0.0011,2.50,0.00,280.00,-0.5217,-0.0215,9.6754,9.6895
3,13,2,5,2,46.232,46232,-0.4800,-0.0300,10.4800,10.4910,0.0153,-0.0196,0.0207,2.56,0.00,279.94,-0.5162,-0.0226,9.7814,9.7951
3,13,2,5,2,46.364,46364,-0.6700,-0.1000,8.3800,8.4073,-0.0218,0.0360,-0.0131,2.50,0.00,280.00,-0.5365,-0.0328,9.5967,9.6118
3,13,2,5,2,46.494,46494,-0.5500,0.0000,7.5000,7.5201,-0.0316,0.0338,0.0076,2.50,0.06,279.94,-0.5383,-0.0285,9.3204,9.3360
3,13,2,5,2,46.624,46624,-0.0700,0.0900,0.9000,0.9072,-0.0687,0.0164,-0.0044,2.50,0.19,279.94,-0.4766,-0.0129,8.2108,8.2247
3,13,2,5,2,46.755,46755,-0.9100,4.5800,3.2700,5.7006,0.3251,0.3338,0.0916,2.25,0.38,281.31,-0.5337,0.5923,7.5598,7.6017
3,13,2,5,2,46.928,46928,-0.5500,-0.8100,9.9300,9.9782,0.1189,-0.0807,-0.0644,2.44,0.00,281.13,-0.5358,0.4075,7.8721,7.9008
3,13,2,5,2,47.062,47062,-0.6100,-0.1300,7.5900,7.6156,0.0098,-0.0098,0.0469,2.44,-0.06,281.25,-0.5456,0.3367,7.8349,7.8611
3,13,2,5,2,47.193,47193,-0.6500,0.1400,9.4600,9.4833,0.0109,-0.0022,0.0240,2.25,0.06,281.38,-0.5594,0.3108,8.0491,8.0745
3,13,2,5,2,47.326,47326,-0.4600,0.1100,9.7600,9.7715,-0.0011,-0.0022,0.0033,2.19,0.19,281.38,-0.5463,0.2843,8.2745,8.2974
3,13,2,5,2,47.457,47457,-0.4700,0.0500,9.8100,9.8214,0.0011,0.0022,0.0000,2.25,0.13,281.38,-0.5362,0.2534,8.4769,8.4976
