participant,rep,equipment_code,exercise_code,quality_code,timestamp,timestamp_ms,accelX,accelY,accelZ,accelMag,gyroX,gyroY,gyroZ,roll,pitch,yaw,filteredX,filteredY,filteredZ,filteredMag
4,1,2,5,2,00.000,0,-0.3100,-0.1700,9.9200,9.9263,0.1364,-0.0764,-0.0109,2.69,-1.44,296.38,-0.3833,-0.2507,9.7184,9.7292
4,1,2,5,2,00.131,131,-0.4900,-0.2600,9.9000,9.9155,-0.0207,0.0436,-0.0360,3.00,-1.69,296.44,-0.3974,-0.2519,9.7424,9.7537
4,1,2,5,2,00.261,261,-0.4800,-0.2100,9.8500,9.8639,-0.0284,0.0196,-0.0022,2.75,-1.50,296.38,-0.4083,-0.2464,9.7565,9.7682
4,1,2,5,2,00.434,434,-0.5100,-0.2100,9.8600,9.8754,0.0829,-0.0764,0.0338,2.88,-1.69,296.38,-0.4217,-0.2416,9.7702,9.7823
4,1,2,5,2,00.564,564,-0.5300,-0.2600,9.6800,9.6980,-0.0033,0.0087,0.0011,3.13,-1.75,296.50,-0.4359,-0.2440,9.7583,9.7711
4,1,2,5,2,00.694,694,-0.6600,-0.2900,10.1600,10.1855,-0.0033,0.0131,0.0000,3.06,-1.75,296.50,-0.4655,-0.2501,9.8112,9.8254
4,1,2,5,2,00.824,824,-0.5200,-0.3300,9.8500,9.8692,0.0022,-0.0022,-0.0175,2.69,-1.38,296.31,-0.4727,-0.2606,9.8163,9.8312
4,1,2,5,2,00.954,954,-0.4600,-0.2100,9.8200,9.8330,0.0011,-0.0022,0.0000,2.69,-1.38,296.31,-0.4710,-0.2540,9.8168,9.8314
4,1,2,5,2,01.084,1084,-0.4900,-0.2200,9.8200,9.8347,0.0000,-0.0022,-0.0011,2.69,-1.38,296.31,-0.4735,-0.2495,9.8172,9.8318
4,1,2,5,2,01.214,1214,-0.4800,-0.2100,9.8400,9.8539,-0.0011,0.0022,0.0011,2.69,-1.38,296.31,-0.4744,-0.2443,9.8202,9.8347
4,1,2,5,2,01.344,1344,-0.4600,-0.2200,9.8100,9.8232,0.0000,0.0000,0.0022,2.69,-1.38,296.31,-0.4725,-0.2411,9.8189,9.8332
4,1,2,5,2,01.522,1522,-1.3000,0.5100,10.0600,10.1565,0.1200,-0.0851,-0.2269,2.81,-1.50,296.19,-0.5815,-0.1421,9.8507,9.8688
4,1,2,5,2,01.654,1654,-0.5500,-0.0200,10.2200,10.2348,0.0087,-0.0076,-0.0076,2.81,-1.44,296.19,-0.5774,-0.1260,9.8993,9.9170
4,1,2,5,2,01.785,1785,-0.4400,-0.1700,10.6500,10.6604,0.0055,-0.0033,0.0044,2.88,-1.44,296.19,-0.5593,-0.1318,9.9983,10.0147
4,1,2,5,2,01.915,1915,-0.3600,-0.0400,10.5500,10.5562,-0.0033,0.0109,-0.0011,2.81,-1.50,296.25,-0.5330,-0.1197,10.0710,10.0858
4,1,2,5,2,02.045,2045,-0.4500,0.2500,10.0700,10.0831,0.0000,-0.0055,0.0000,2.88,-1.50,296.25,-0.5221,-0.0710,10.0708,10.0846
4,1,2,5,2,02.175,2175,-0.4200,-0.3700,9.4500,9.4666,0.0044,-0.0109,-0.0033,2.94,-1.56,296.25,-0.5086,-0.1104,9.9890,10.0026
4,1,2,5,2,02.306,2306,-0.6500,-0.3400,9.7700,9.7975,0.0164,0.0458,-0.0109,2.94,-1.63,296.25,-0.5272,-0.1407,9.9602,9.9751
4,1,2,5,2,02.436,2436,-0.4800,-0.3500,9.7800,9.7980,0.0065,-0.0044,-0.0022,2.94,-1.69,296.25,-0.5210,-0.1682,9.9364,9.9515
4,1,2,5,2,02.609,2609,-0.5500,-0.4200,8.7600,8.7873,-0.0076,0.0022,-0.0011,2.94,-1.69,296.25,-0.5248,-0.2014,9.7814,9.7975
4,1,2,5,2,02.740,2740,-0.4800,-0.5900,7.7900,7.8270,0.0033,-0.0055,0.0087,2.94,-1.69,296.19,-0.5189,-0.2526,9.5190,9.5365
4,1,2,5,2,02.876,2876,-0.1200,-0.4900,8.5800,8.5948,0.0011,0.0044,0.0033,3.00,-1.69,296.19,-0.4664,-0.2839,9.3952,9.4111
4,1,2,5,2,03.007,3007,-0.3300,-0.4800,8.9200,8.9390,-0.0273,0.0251,-0.0218,3.00,-1.56,296.19,-0.4484,-0.3097,9.3326,9.3485
4,2,2,5,2,03.138,3138,-0.8000,-0.2400,10.1500,10.1843,-0.0284,0.0109,-0.0033,2.88,-1.50,296.19,-0.4947,-0.3006,9.4403,9.4581
4,2,2,5,2,03.268,3268,-0.4500,-0.2900,10.1400,10.1541,-0.0022,0.0196,-0.0055,2.88,-1.44,296.19,-0.4888,-0.2992,9.5325,9.5497
4,2,2,5,2,03.398,3398,-0.4400,-0.2900,10.4200,10.4333,-0.0033,-0.0044,-0.0011,2.88,-1.44,296.19,-0.4824,-0.2980,9.6495,9.6661
4,2,2,5,2,03.529,3529,-1.0700,0.8200,9.5700,9.6645,-0.0153,-0.0022,0.0175,2.81,-1.44,296.19,-0.5598,-0.1506,9.6390,9.6564
4,2,2,5,2,03.701,3701,-0.4200,-0.2700,9.9100,9.9226,0.0011,-0.0011,0.0000,2.81,-1.44,296.19,-0.5414,-0.1664,9.6747,9.6913
4,2,2,5,2,03.831,3831,-0.5200,-0.2200,9.8400,9.8562,0.0022,-0.0022,0.0000,2.81,-1.44,296.19,-0.5386,-0.1734,9.6965,9.7130
4,2,2,5,2,03.961,3961,-0.5200,-0.0900,9.2300,9.2451,0.0567,-0.0273,0.0393,2.88,-1.50,296.31,-0.5361,-0.1624,9.6350,9.6513
4,2,2,5,2,04.091,4091,-0.5400,-0.7500,10.1500,10.1920,0.0393,-0.0011,0.0011,2.63,-1.13,296.31,-0.5366,-0.2399,9.7029,9.7207
4,2,2,5,2,04.221,4221,-0.5000,-0.1700,9.8700,9.8841,0.0022,-0.0033,0.0000,2.63,-1.19,296.31,-0.5318,-0.2307,9.7249,9.7422
4,2,2,5,2,04.351,4351,-0.4900,-0.1200,9.8600,9.8729,0.0000,0.0055,-0.0044,2.69,-1.19,296.31,-0.5263,-0.2161,9.7427,9.7593
4,2,2,5,2,04.481,4481,-0.4300,-0.1600,9.8300,9.8407,-0.0022,0.0000,0.0011,2.69,-1.19,296.31,-0.5136,-0.2087,9.7542,9.7700
4,2,2,5,2,04.611,4611,-0.4400,-0.1600,9.8300,9.8411,0.0000,0.0011,0.0011,2.69,-1.19,296.31,-0.5039,-0.2023,9.7642,9.7793
4,2,2,5,2,04.784,4784,-0.1700,0.1100,10.4300,10.4320,0.0055,-0.0087,0.0022,2.69,-1.19,296.31,-0.4599,-0.1611,9.8519,9.8640
4,2,2,5,2,04.915,4915,-0.2900,0.7600,11.4700,11.4988,-0.0229,0.0076,0.0033,2.81,-1.44,296.00,-0.4375,-0.0397,10.0652,10.0747
4,2,2,5,2,05.046,5046,-0.4400,-0.2600,10.9500,10.9619,0.0131,-0.0065,-0.0022,2.81,-1.44,296.00,-0.4378,-0.0688,10.1818,10.1914
4,2,2,5,2,05.180,5180,-0.4600,-0.3200,11.1700,11.1840,0.0076,-0.0022,0.0044,2.81,-1.44,296.00,-0.4408,-0.1019,10.3120,10.3219
4,2,2,5,2,05.313,5313,-0.5500,-0.6400,10.3400,10.3744,0.0109,-0.0153,0.0022,2.88,-1.44,296.00,-0.4552,-0.1728,10.3157,10.3272
4,2,2,5,2,05.444,5444,-0.7400,0.0900,9.7700,9.7984,0.0218,-0.0218,0.0153,2.88,-1.50,296.00,-0.4927,-0.1382,10.2438,10.2565
4,2,2,5,2,05.574,5574,-0.6800,-0.1000,9.6500,9.6744,0.0109,-0.0153,0.0076,2.94,-1.56,296.06,-0.5174,-0.1331,10.1655,10.1796
4,2,2,5,2,05.704,5704,0.6700,-0.8000,9.3100,9.3683,0.0120,0.0142,-0.0098,2.88,-1.63,296.00,-0.3609,-0.2210,10.0528,10.0617
4,2,2,5,2,05.877,5877,-0.6300,-0.2700,10.0000,10.0235,0.0109,0.0065,-0.0120,2.88,-1.69,296.00,-0.3964,-0.2275,10.0458,10.0562
4,2,2,5,2,06.008,6008,-0.4800,-0.0400,9.1900,9.2026,-0.0033,-0.0033,-0.0175,2.88,-1.69,296.00,-0.4074,-0.2028,9.9331,9.9435
4,2,2,5,2,06.144,6144,-0.5300,-0.3200,8.5000,8.5225,-0.0011,0.0033,0.0098,2.88,-1.69,296.00,-0.4235,-0.2182,9.7442,9.7559
4,2,2,5,2,06.275,6275,-0.3500,-0.4000,9.5000,9.5149,0.0033,-0.0033,-0.0087,2.88,-1.69,296.00,-0.4139,-0.2422,9.7120,9.7239
4,2,2,5,2,06.406,6406,-0.5100,-0.2200,9.0300,9.0471,-0.0109,0.0022,0.0164,2.88,-1.69,296.00,-0.4265,-0.2392,9.6222,9.6346
4,2,2,5,2,06.536,6536,-0.5100,-0.0400,8.5500,8.5653,-0.0087,0.0033,-0.0055,2.94,-1.69,296.06,-0.4375,-0.2130,9.4809,9.4934
4,2,2,5,2,06.666,6666,-0.7200,-0.2200,9.0600,9.0912,-0.0316,0.0175,-0.0338,2.94,-1.63,296.06,-0.4747,-0.2139,9.4254,9.4398
4,3,2,5,2,06.797,6797,-0.4200,-0.2100,9.8900,9.9011,0.0109,-0.0044,0.0011,2.88,-1.56,296.00,-0.4675,-0.2134,9.4866,9.5005
4,3,2,5,2,06.970,6970,-0.4400,-0.4500,11.2900,11.3075,0.0022,-0.0098,0.0022,2.81,-1.44,296.00,-0.4639,-0.2446,9.7243,9.7384
4,3,2,5,2,07.101,7101,-0.4500,-0.1900,10.4400,10.4514,-0.0011,0.0011,-0.0044,2.88,-1.44,296.00,-0.4621,-0.2374,9.8186,9.8323
4,3,2,5,2,07.235,7235,-0.5500,0.0600,10.2900,10.3049,-0.0033,-0.0153,-0.0436,2.81,-1.50,296.06,-0.4737,-0.1982,9.8807,9.8940
4,3,2,5,2,07.368,7368,-0.3900,-0.2000,9.9300,9.9397,0.0033,0.0000,-0.0022,2.81,-1.44,296.06,-0.4626,-0.1984,9.8872,9.9000
4,3,2,5,2,07.499,7499,-0.5300,-0.2000,9.8600,9.8763,0.0022,0.0000,0.0044,2.81,-1.44,296.06,-0.4715,-0.1986,9.8836,9.8969
4,3,2,5,2,07.629,7629,-0.1200,0.3400,9.0000,9.0072,0.1134,0.0131,-0.0033,2.63,-1.06,296.25,-0.4252,-0.1277,9.7672,9.7773
4,3,2,5,2,07.759,7759,-0.5100,-0.1900,9.8500,9.8650,-0.0011,-0.0044,0.0011,2.63,-1.25,296.25,-0.4364,-0.1359,9.7781,9.7888
4,3,2,5,2,07.889,7889,-0.5100,-0.2200,9.8400,9.8557,0.0022,-0.0011,-0.0011,2.63,-1.25,296.25,-0.4461,-0.1470,9.7863,9.7975
4,3,2,5,2,08.062,8062,-0.5400,-0.2000,9.8600,9.8768,-0.0022,0.0000,-0.0011,2.63,-1.25,296.25,-0.4584,-0.1540,9.7960,9.8079
4,3,2,5,2,08.192,8192,-0.4000,-0.2200,9.8100,9.8206,-0.0011,0.0011,0.0022,2.63,-1.25,296.25,-0.4507,-0.1627,9.7978,9.8095
4,3,2,5,2,08.322,8322,-0.5300,-0.2200,9.8300,9.8467,-0.0022,0.0022,0.0000,2.63,-1.25,296.25,-0.4612,-0.1702,9.8021,9.8144
4,3,2,5,2,08.452,8452,-0.4800,-0.2200,9.8400,9.8542,0.0011,-0.0033,0.0011,2.63,-1.25,296.25,-0.4637,-0.1768,9.8071,9.8196
4,3,2,5,2,08.582,8582,-0.4700,-0.1700,9.8400,9.8527,0.0022,-0.0011,0.0000,2.63,-1.25,296.25,-0.4645,-0.1759,9.8114,9.8240
4,3,2,5,2,08.712,8712,-1.0800,-0.6900,15.5600,15.6127,-0.0600,0.0207,-0.1014,2.75,-1.38,296.75,-0.5456,-0.2436,10.5689,10.5858
4,3,2,5,2,08.842,8842,-1.1900,0.0600,12.5700,12.6263,0.0316,-0.0382,-0.0022,2.88,-1.50,296.81,-0.6305,-0.2036,10.8326,10.8529
4,3,2,5,2,08.972,8972,-0.8100,0.1800,10.9800,11.0113,0.0305,-0.0349,0.0065,2.88,-1.50,296.88,-0.6542,-0.1531,10.8520,10.8728
4,3,2,5,2,09.145,9145,-1.1600,0.3100,9.5800,9.6550,0.0251,-0.0295,0.0000,2.94,-1.63,296.88,-0.7208,-0.0920,10.6844,10.7091
4,3,2,5,2,09.279,9279,-0.8700,0.1900,8.7800,8.8250,0.0033,0.0033,0.0044,2.94,-1.69,296.81,-0.7405,-0.0549,10.4335,10.4598
4,3,2,5,2,09.413,9413,-0.3800,-0.3500,8.0500,8.0666,0.0022,0.0000,-0.0164,2.94,-1.75,296.81,-0.6930,-0.0938,10.1194,10.1435
4,3,2,5,2,09.543,9543,-0.4600,-0.3300,8.9900,9.0078,-0.0011,-0.0055,-0.0055,2.94,-1.75,296.81,-0.6623,-0.1249,9.9706,9.9933
4,3,2,5,2,09.674,9674,-0.6100,-0.2800,9.6000,9.6234,-0.0098,-0.0011,0.0076,2.94,-1.75,296.81,-0.6554,-0.1453,9.9217,9.9444
4,3,2,5,2,09.804,9804,-0.3100,-0.1200,9.6200,9.6257,-0.0087,0.0022,-0.0033,2.94,-1.69,296.81,-0.6099,-0.1420,9.8820,9.9018
4,3,2,5,2,09.935,9935,-0.4500,-0.3000,9.2600,9.2758,-0.0065,0.0033,-0.0022,2.94,-1.69,296.81,-0.5888,-0.1628,9.8000,9.8190
4,3,2,5,2,10.065,10065,-0.2800,-0.3100,8.9100,8.9198,-0.0207,0.0185,-0.0142,3.00,-1.63,296.88,-0.5481,-0.1822,9.6827,9.6999
4,4,2,5,2,10.239,10239,-0.6000,-0.2500,10.4900,10.5101,-0.0131,0.0175,-0.0065,2.88,-1.50,296.81,-0.5550,-0.1911,9.7891,9.8067
4,4,2,5,2,10.374,10374,-0.3600,-0.4000,11.2300,11.2429,-0.0087,0.0120,-0.0109,2.88,-1.50,296.81,-0.5293,-0.2187,9.9790,9.9954
4,4,2,5,2,10.506,10506,-0.3200,-0.3500,10.1800,10.1910,-0.0076,0.0109,-0.0153,2.81,-1.50,296.81,-0.5017,-0.2360,10.0055,10.0208
4,4,2,5,2,10.636,10636,-0.6400,-0.2100,8.3300,8.3572,-0.0011,0.0011,-0.0164,2.88,-1.50,296.81,-0.5199,-0.2326,9.7847,9.8012
4,4,2,5,2,10.766,10766,-0.5200,-0.1000,8.0100,8.0275,0.0229,-0.0022,0.0393,2.88,-1.56,296.88,-0.5199,-0.2151,9.5508,9.5674
4,4,2,5,2,10.897,10897,-0.6000,-0.0800,9.9200,9.9385,-0.0033,-0.0044,-0.0087,2.69,-1.25,297.00,-0.5305,-0.1973,9.5995,9.6161
4,4,2,5,2,11.027,11027,-0.5900,-0.6300,9.4600,9.4993,0.1451,-0.0960,-0.0229,2.81,-1.50,297.00,-0.5383,-0.2543,9.5811,9.5996
4,4,2,5,2,11.158,11158,-0.1200,0.9300,9.8300,9.8746,-0.0327,0.0185,-0.0316,2.63,-1.19,297.00,-0.4832,-0.0982,9.6139,9.6265
4,4,2,5,2,11.331,11331,-0.4300,-0.2100,9.8400,9.8516,0.0033,0.0044,0.0011,2.63,-1.19,297.00,-0.4762,-0.1130,9.6437,9.6561
4,4,2,5,2,11.462,11462,-0.3800,-0.2100,9.8100,9.8196,0.0011,0.0011,-0.0011,2.63,-1.19,297.00,-0.4635,-0.1258,9.6656,9.6775
4,4,2,5,2,11.592,11592,-0.6400,-0.1200,9.9600,9.9813,-0.0055,-0.0055,0.0055,2.63,-1.19,297.00,-0.4868,-0.1250,9.7044,9.7174
4,4,2,5,2,11.726,11726,-0.4200,-0.2400,9.7500,9.7620,0.0011,0.0022,-0.0011,2.63,-1.19,297.00,-0.4780,-0.1402,9.7104,9.7232
4,4,2,5,2,11.859,11859,-0.4100,-0.1900,9.8000,9.8104,0.0033,-0.0011,0.0011,2.63,-1.19,297.00,-0.4690,-0.1467,9.7222,9.7346
4,4,2,5,2,11.990,11990,-0.4800,-0.2000,9.8600,9.8737,-0.0011,0.0000,-0.0011,2.63,-1.19,297.00,-0.4705,-0.1537,9.7404,9.7529
4,4,2,5,2,12.120,12120,-0.4700,-0.2000,9.8800,9.8932,-0.0011,0.0011,0.0022,2.63,-1.19,297.00,-0.4704,-0.1598,9.7588,9.7714
4,4,2,5,2,12.250,12250,-0.1400,-0.6900,13.5700,13.5883,0.1582,-0.0731,-0.0120,2.75,-1.38,297.00,-0.4269,-0.2297,10.2610,10.2724
4,4,2,5,2,12.423,12423,-0.2800,-0.3500,9.0100,9.0211,-0.0055,0.0109,0.0011,2.81,-1.44,296.69,-0.4075,-0.2456,10.0961,10.1073
4,4,2,5,2,12.556,12556,-0.4600,-0.2400,10.2200,10.2332,-0.0044,0.0000,0.0076,2.81,-1.44,296.69,-0.4144,-0.2448,10.1125,10.1239
4,4,2,5,2,12.691,12691,-0.2600,-0.1500,10.9400,10.9441,-0.0011,0.0065,-0.0011,2.81,-1.44,296.69,-0.3941,-0.2323,10.2215,10.2317
4,4,2,5,2,12.822,12822,-0.6300,-0.0300,10.2600,10.2794,0.0076,-0.0218,0.0055,2.88,-1.44,296.69,-0.4252,-0.2057,10.2266,10.2375
4,4,2,5,2,12.952,12952,-0.4200,-0.2500,9.2400,9.2529,0.0033,-0.0044,0.0022,2.94,-1.50,296.69,-0.4245,-0.2115,10.0966,10.1077
4,4,2,5,2,13.082,13082,-1.0200,-0.3200,9.7700,9.8283,0.0076,-0.0109,0.0044,2.94,-1.50,296.63,-0.5030,-0.2258,10.0535,10.0686
4,4,2,5,2,13.213,13213,-0.5200,-0.3000,9.8700,9.8882,0.0033,-0.0044,-0.0109,2.94,-1.56,296.69,-0.5052,-0.2356,10.0294,10.0448
4,4,2,5,2,13.343,13343,-0.6200,-0.0600,9.7700,9.7898,-0.0076,0.0065,-0.0109,2.94,-1.56,296.63,-0.5203,-0.2124,9.9952,10.0110
4,4,2,5,2,13.516,13516,-0.6000,-0.2600,9.1700,9.1933,0.0153,-0.0131,0.0076,2.94,-1.56,296.63,-0.5308,-0.2187,9.8864,9.9031
4,4,2,5,2,13.646,13646,-0.4600,-0.3900,9.7800,9.7986,0.0022,-0.0044,-0.0175,2.94,-1.56,296.63,-0.5215,-0.2413,9.8724,9.8891
4,4,2,5,2,13.777,13777,-0.5300,-0.2500,9.8700,9.8874,-0.0033,0.0000,0.0120,2.94,-1.63,296.63,-0.5226,-0.2424,9.8721,9.8889
4,4,2,5,2,13.913,13913,-0.4900,-0.2200,9.5100,9.5252,-0.0033,-0.0011,-0.0022,2.94,-1.56,296.63,-0.5183,-0.2395,9.8244,9.8410
4,4,2,5,2,14.045,14045,-0.4600,-0.3200,7.8800,7.8999,-0.0142,-0.0065,-0.0131,2.94,-1.56,296.63,-0.5106,-0.2501,9.5682,9.5850
4,4,2,5,2,14.175,14175,-2.0100,1.8600,8.9200,9.3309,-0.0818,-0.0545,0.0196,2.94,-1.50,296.69,-0.7082,0.0280,9.4828,9.5092
4,4,2,5,2,14.305,14305,0.0500,-0.4300,9.3900,9.4000,-0.0349,0.0393,-0.0447,2.81,-1.38,296.63,-0.6083,-0.0324,9.4705,9.4901
4,5,2,5,2,14.436,14436,-0.4700,-0.3900,11.0600,11.0769,-0.0207,0.0131,-0.0109,2.88,-1.25,296.56,-0.5901,-0.0795,9.6800,9.6983
4,5,2,5,2,14.609,14609,-0.6300,-0.4100,10.0500,10.0781,0.0109,0.0055,-0.0055,2.88,-1.25,296.56,-0.5953,-0.1231,9.7287,9.7477
4,5,2,5,2,14.744,14744,-0.7800,-0.2400,9.2200,9.2560,0.0164,-0.0076,0.0022,2.88,-1.25,296.56,-0.6197,-0.1385,9.6617,9.6825
4,5,2,5,2,14.877,14877,-0.5000,-0.1800,9.8000,9.8144,-0.0044,0.0022,-0.0011,2.81,-1.25,296.56,-0.6039,-0.1439,9.6799,9.6998
4,5,2,5,2,15.007,15007,-0.4800,-0.2200,9.8200,9.8342,-0.0033,0.0055,-0.0044,2.81,-1.25,296.56,-0.5876,-0.1540,9.6984,9.7174
4,5,2,5,2,15.137,15137,-0.5000,-0.2700,9.8300,9.8464,0.0011,0.0011,0.0065,2.81,-1.25,296.56,-0.5760,-0.1693,9.7157,9.7343
4,5,2,5,2,15.268,15268,-0.5100,-0.1000,9.5200,9.5342,0.0087,-0.0349,0.0262,3.06,-1.56,296.75,-0.5673,-0.1601,9.6899,9.7079
4,5,2,5,2,15.398,15398,-0.3800,-0.1200,9.9000,9.9080,0.0316,-0.0251,-0.0076,2.75,-1.31,296.69,-0.5426,-0.1548,9.7176,9.7340
4,5,2,5,2,15.528,15528,-0.6700,-0.2700,9.7300,9.7568,0.0011,0.0087,0.0000,3.13,-1.56,296.81,-0.5594,-0.1700,9.7192,9.7368
4,5,2,5,2,15.701,15701,-0.5700,-0.4400,9.8700,9.8962,-0.0720,0.0862,-0.0447,2.94,-1.50,296.75,-0.5608,-0.2056,9.7391,9.7574
4,5,2,5,2,15.831,15831,-0.4800,-0.1800,9.8400,9.8533,0.0011,-0.0011,-0.0011,2.69,-1.13,296.69,-0.5502,-0.2022,9.7524,9.7700
4,5,2,5,2,15.961,15961,-0.4900,-0.1700,9.8200,9.8337,0.0011,-0.0011,0.0011,2.69,-1.13,296.69,-0.5422,-0.1980,9.7613,9.7784
4,5,2,5,2,16.091,16091,-0.4500,-0.1600,9.8500,9.8616,-0.0011,-0.0022,0.0000,2.69,-1.13,296.69,-0.5301,-0.1930,9.7730,9.7893
4,5,2,5,2,16.221,16221,-0.6800,-0.6000,9.8400,9.8817,0.0829,-0.1178,0.0491,3.06,-1.56,296.81,-0.5498,-0.2466,9.7818,9.8004
4,5,2,5,2,16.351,16351,-0.6600,-0.4400,9.7900,9.8221,-0.0022,0.0120,-0.1134,2.81,-1.31,296.56,-0.5644,-0.2721,9.7829,9.8029
4,5,2,5,2,16.481,16481,-0.5500,0.0300,9.1100,9.1266,-0.0055,-0.0011,0.0000,2.81,-1.25,296.56,-0.5625,-0.2323,9.6942,9.7133
4,5,2,5,2,16.611,16611,-0.5700,-0.3100,9.8600,9.8813,0.0076,-0.0153,0.0065,2.88,-1.31,296.56,-0.5635,-0.2425,9.7161,9.7354
4,5,2,5,2,16.784,16784,-0.4200,-0.2000,10.1500,10.1607,0.0000,-0.0033,0.0000,2.88,-1.25,296.56,-0.5446,-0.2369,9.7733,9.7913
4,5,2,5,2,16.915,16915,-0.5800,-0.2900,10.3600,10.3803,0.0175,-0.0196,0.0087,2.88,-1.31,296.56,-0.5492,-0.2439,9.8506,9.8689
4,5,2,5,2,17.051,17051,-0.5100,-0.3200,9.5900,9.6089,0.0011,-0.0131,0.0022,2.94,-1.31,296.56,-0.5441,-0.2539,9.8162,9.8346
4,5,2,5,2,17.181,17181,-0.5400,-0.5100,9.7200,9.7483,0.0065,0.0218,-0.0022,3.00,-1.38,296.56,-0.5435,-0.2877,9.8036,9.8228
4,5,2,5,2,17.313,17313,-0.4000,-0.4500,9.8000,9.8185,0.0044,-0.0044,0.0065,2.94,-1.38,296.56,-0.5246,-0.3091,9.8031,9.8220
4,5,2,5,2,17.443,17443,-0.5500,-0.3200,8.7400,8.7631,0.0109,-0.0098,-0.0120,2.94,-1.44,296.50,-0.5280,-0.3105,9.6630,9.6824
4,5,2,5,2,17.574,17574,-0.5100,0.0000,8.6100,8.6251,-0.0022,0.0011,-0.0065,2.94,-1.44,296.50,-0.5256,-0.2696,9.5242,9.5425
4,5,2,5,2,17.704,17704,-0.3700,-0.1300,9.5700,9.5780,-0.0065,-0.0098,-0.0087,2.94,-1.44,296.56,-0.5051,-0.2512,9.5303,9.5470
4,5,2,5,2,17.877,17877,-0.6400,-0.2300,10.3600,10.3823,-0.0033,0.0033,0.0033,2.94,-1.44,296.56,-0.5229,-0.2484,9.6396,9.6570
4,5,2,5,2,18.007,18007,-0.4300,-0.2700,9.5600,9.5735,0.0000,0.0033,-0.0044,2.94,-1.44,296.56,-0.5106,-0.2513,9.6291,9.6459
4,5,2,5,2,18.138,18138,-0.4700,-0.2600,9.6700,9.6849,0.0000,-0.0022,0.0022,2.94,-1.44,296.56,-0.5053,-0.2524,9.6345,9.6510
4,5,2,5,2,18.271,18271,-0.5300,-0.2700,8.9500,8.9697,-0.0033,-0.0033,0.0033,2.94,-1.44,296.56,-0.5085,-0.2547,9.5443,9.5612
4,5,2,5,2,18.405,18405,-0.5200,-0.2900,9.4200,9.4388,-0.0033,0.0022,-0.0044,2.94,-1.44,296.56,-0.5100,-0.2594,9.5279,9.5451
4,5,2,5,2,18.535,18535,0.1900,-1.1300,8.5400,8.6165,-0.0142,0.0000,0.0022,3.00,-1.38,296.56,-0.4178,-0.3741,9.3977,9.4145
4,5,2,5,2,18.681,18681,-0.3700,-0.4200,9.5700,9.5864,-0.0098,0.0055,-0.0098,3.00,-1.38,296.56,-0.4115,-0.3801,9.4204,9.4371
4,5,2,5,2,18.816,18816,-0.5000,-0.3300,10.4400,10.4572,-0.0087,0.0055,-0.0087,2.94,-1.31,296.56,-0.4232,-0.3735,9.5548,9.5715
4,5,2,5,2,18.989,18989,2.4100,-1.7200,15.5100,15.7901,0.0011,0.0033,-0.0055,2.94,-1.25,296.50,-0.0498,-0.5510,10.3395,10.3543
4,5,2,5,2,19.120,19120,0.2100,-0.3800,11.5600,11.5682,-0.1265,0.0316,-0.0578,2.94,-1.13,296.69,-0.0156,-0.5284,10.5004,10.5137
4,6,2,5,2,19.253,19253,-0.2900,-0.4400,8.0900,8.1071,-0.0164,0.0218,-0.0382,2.81,-1.13,296.44,-0.0517,-0.5168,10.1827,10.1960
4,6,2,5,2,19.384,19384,-0.4400,0.0500,7.9600,7.9723,0.0153,-0.0098,0.0295,2.88,-1.25,296.50,-0.1029,-0.4421,9.8898,9.9002
4,6,2,5,2,19.518,19518,-0.5700,-0.4500,10.5600,10.5849,0.0687,-0.0447,0.0404,2.94,-1.38,296.63,-0.1645,-0.4431,9.9781,9.9893
4,6,2,5,2,19.649,19649,-0.6100,-0.2500,9.3500,9.3732,0.0022,0.0131,-0.0196,3.19,-1.50,296.81,-0.2232,-0.4177,9.8954,9.9067
4,6,2,5,2,19.779,19779,-0.4600,-0.0500,9.8500,9.8609,-0.0065,-0.0033,-0.0033,2.69,-0.94,296.63,-0.2544,-0.3692,9.8894,9.8996
4,6,2,5,2,19.909,19909,-0.6100,-0.1300,9.8700,9.8897,-0.0022,-0.0055,-0.0022,2.69,-0.94,296.63,-0.3012,-0.3377,9.8868,9.8972
4,6,2,5,2,20.082,20082,-0.4700,-0.1600,9.8600,9.8725,0.0000,-0.0033,-0.0022,2.69,-0.94,296.63,-0.3235,-0.3143,9.8833,9.8936
4,6,2,5,2,20.212,20212,-0.4600,-0.1900,9.8400,9.8526,0.0011,0.0000,0.0000,2.69,-0.94,296.63,-0.3415,-0.2979,9.8776,9.8880
4,6,2,5,2,20.342,20342,-0.4700,-0.1700,9.8200,9.8327,-0.0022,-0.0011,0.0011,2.69,-0.94,296.63,-0.3584,-0.2811,9.8700,9.8805
4,6,2,5,2,20.472,20472,-0.4200,-0.1900,9.8400,9.8508,0.0000,0.0011,-0.0011,2.69,-0.94,296.63,-0.3665,-0.2691,9.8661,9.8765
4,6,2,5,2,20.602,20602,-0.1300,-0.2800,14.8600,14.8632,0.1396,-0.0524,-0.0098,2.75,-1.06,296.63,-0.3354,-0.2705,10.5241,10.5329
4,6,2,5,2,20.732,20732,-0.7000,0.0600,7.6800,7.7121,-0.0033,0.0011,0.0065,2.88,-1.19,296.13,-0.3834,-0.2269,10.1493,10.1591
4,6,2,5,2,20.862,20862,-0.3700,-0.0500,8.8200,8.8279,-0.0022,-0.0011,0.0131,2.88,-1.25,296.13,-0.3816,-0.2036,9.9742,9.9835
4,6,2,5,2,20.992,20992,-0.6600,-0.4400,10.0700,10.1012,0.0153,-0.0218,0.0120,2.88,-1.25,296.13,-0.4183,-0.2348,9.9868,9.9983
4,6,2,5,2,21.165,21165,-0.4200,-0.6000,10.3800,10.4058,0.0087,-0.0131,0.0033,2.94,-1.31,296.19,-0.4185,-0.2829,10.0386,10.0513
4,6,2,5,2,21.301,21301,-0.6700,-0.1500,9.2000,9.2256,0.0131,-0.0011,-0.0098,3.00,-1.38,296.19,-0.4517,-0.2654,9.9281,9.9419
4,6,2,5,2,21.433,21433,-0.5500,-0.1700,8.6100,8.6292,-0.0022,-0.0022,-0.0316,2.94,-1.44,296.19,-0.4646,-0.2528,9.7544,9.7687
4,6,2,5,2,21.563,21563,-0.3700,-0.4500,9.1800,9.1985,0.0044,-0.0011,-0.0022,2.94,-1.50,296.19,-0.4522,-0.2788,9.6787,9.6933
4,6,2,5,2,21.694,21694,-0.6200,-0.3000,9.3100,9.3354,0.0175,-0.0076,0.0065,2.94,-1.50,296.19,-0.4743,-0.2816,9.6301,9.6459
4,6,2,5,2,21.824,21824,-0.4600,-0.2200,9.7500,9.7633,0.0022,-0.0022,-0.0022,2.94,-1.50,296.19,-0.4724,-0.2735,9.6459,9.6614
4,6,2,5,2,21.954,21954,-0.4800,-0.1600,10.1200,10.1326,0.0022,0.0033,0.0000,2.94,-1.50,296.19,-0.4734,-0.2585,9.7084,9.7234
4,6,2,5,2,22.085,22085,-0.5700,-0.3000,9.7900,9.8112,0.0011,0.0011,0.0022,2.94,-1.50,296.19,-0.4861,-0.2640,9.7192,9.7349
4,6,2,5,2,22.258,22258,-0.5100,-0.2500,9.6300,9.6467,-0.0011,0.0000,0.0022,2.94,-1.50,296.19,-0.4893,-0.2621,9.7074,9.7233
4,6,2,5,2,22.389,22389,-0.5000,-0.2700,9.6800,9.6967,-0.0011,0.0033,-0.0022,2.94,-1.50,296.19,-0.4907,-0.2632,9.7038,9.7198
4,6,2,5,2,22.524,22524,-0.5900,-0.2200,8.9800,9.0020,-0.0033,-0.0022,-0.0033,2.94,-1.50,296.19,-0.5038,-0.2575,9.6084,9.6251
4,6,2,5,2,22.656,22656,-1.0800,1.0400,10.3000,10.4086,-0.0076,-0.0502,0.0273,2.94,-1.44,296.19,-0.5797,-0.0865,9.6995,9.7172
4,6,2,5,2,22.787,22787,-0.6200,-0.3300,10.0200,10.0446,-0.0120,0.0109,-0.0087,2.94,-1.44,296.19,-0.5850,-0.1186,9.7418,9.7600
4,6,2,5,2,22.917,22917,-0.6400,-0.2400,11.1300,11.1510,-0.0109,0.0120,-0.0044,2.88,-1.38,296.19,-0.5923,-0.1346,9.9247,9.9433
4,6,2,5,2,23.047,23047,-0.2100,-0.3800,9.8400,9.8496,0.0022,-0.0033,-0.0044,2.81,-1.31,296.19,-0.5419,-0.1669,9.9135,9.9297
4,6,2,5,2,23.177,23177,-0.6500,-0.3100,10.0600,10.0857,0.0000,0.0185,-0.0033,2.88,-1.31,296.13,-0.5561,-0.1858,9.9328,9.9501
4,6,2,5,2,23.350,23350,-0.5200,-0.2500,9.8600,9.8769,-0.0044,-0.0065,-0.0011,2.81,-1.31,296.13,-0.5514,-0.1942,9.9232,9.9405
4,6,2,5,2,23.482,23482,-0.6800,-0.4800,9.5700,9.6061,0.0164,-0.0120,0.0175,2.81,-1.31,296.13,-0.5683,-0.2319,9.8767,9.8958
4,6,2,5,2,23.618,23618,-0.5900,-0.2200,9.7000,9.7204,0.0011,0.0000,0.0011,2.81,-1.31,296.13,-0.5712,-0.2303,9.8534,9.8726
4,6,2,5,2,23.749,23749,-0.4900,-0.1800,9.8300,9.8439,0.0033,0.0000,0.0022,2.81,-1.31,296.13,-0.5605,-0.2237,9.8503,9.8688
4,6,2,5,2,23.879,23879,-0.5000,-0.2100,9.8300,9.8449,0.0000,0.0011,-0.0011,2.81,-1.31,296.13,-0.5525,-0.2219,9.8476,9.8656
4,6,2,5,2,24.009,24009,-0.4900,-0.2200,9.8300,9.8447,0.0022,-0.0011,0.0000,2.81,-1.31,296.13,-0.5443,-0.2216,9.8453,9.8628
4,6,2,5,2,24.140,24140,-0.5600,-0.2800,9.8000,9.8200,0.0774,-0.0458,0.0327,2.88,-1.50,296.31,-0.5463,-0.2293,9.8394,9.8572
4,6,2,5,2,24.270,24270,-0.4300,-0.1800,9.9500,9.9609,-0.1505,0.1320,-0.0513,2.75,-1.38,296.31,-0.5310,-0.2228,9.8539,9.8707
4,6,2,5,2,24.443,24443,-0.4900,-0.2200,9.8300,9.8447,0.0011,0.0022,0.0033,2.63,-1.13,296.25,-0.5256,-0.2225,9.8508,9.8673
4,6,2,5,2,24.573,24573,-0.4800,-0.1900,9.8300,9.8435,-0.0011,0.0033,0.0011,2.63,-1.13,296.25,-0.5196,-0.2182,9.8480,9.8642
4,6,2,5,2,24.704,24704,-0.4700,-0.1900,9.8100,9.8231,0.0022,0.0033,-0.0011,2.63,-1.13,296.25,-0.5131,-0.2145,9.8430,9.8587
4,6,2,5,2,24.838,24838,-0.4700,-0.1700,9.8500,9.8627,0.0000,0.0011,0.0000,2.63,-1.13,296.25,-0.5074,-0.2086,9.8439,9.8592
4,6,2,5,2,24.971,24971,-0.2500,-0.8600,13.0800,13.1106,0.1200,-0.0491,0.0262,2.75,-1.31,296.31,-0.4735,-0.2944,10.2704,10.2855
4,7,2,5,2,25.102,25102,-0.5400,-0.4800,9.2100,9.2383,0.0055,-0.0055,0.0087,2.75,-1.31,295.94,-0.4822,-0.3189,10.1306,10.1471
4,7,2,5,2,25.232,25232,-0.4400,-0.4800,9.4300,9.4525,-0.0022,0.0262,0.0076,2.75,-1.31,295.94,-0.4767,-0.3401,10.0383,10.0554
4,7,2,5,2,25.363,25363,-0.6200,-0.1200,9.4600,9.4811,0.0065,0.0022,0.0109,2.75,-1.38,296.00,-0.4956,-0.3111,9.9621,9.9793
4,7,2,5,2,25.536,25536,-0.4300,-0.6100,10.3800,10.4068,0.0382,-0.0425,0.0229,2.88,-1.50,296.00,-0.4869,-0.3505,10.0172,10.0351
4,7,2,5,2,25.670,25670,-0.8500,0.1400,9.6300,9.6685,0.0131,-0.0185,-0.0087,2.88,-1.56,296.00,-0.5348,-0.2859,9.9662,9.9846
4,7,2,5,2,25.803,25803,-0.5600,-0.0900,9.0300,9.0478,-0.0076,0.0076,-0.0011,2.88,-1.63,296.00,-0.5381,-0.2601,9.8428,9.8609
4,7,2,5,2,25.934,25934,-0.4500,-0.1800,8.3600,8.3740,0.0033,0.0022,-0.0033,2.81,-1.63,296.00,-0.5265,-0.2495,9.6474,9.6650
4,7,2,5,2,26.064,26064,-0.3900,-0.3100,8.9400,8.9539,0.0033,-0.0011,-0.0142,2.88,-1.63,295.94,-0.5085,-0.2575,9.5542,9.5712
4,7,2,5,2,26.195,26195,-0.2800,-0.3800,9.8100,9.8213,0.0055,0.0120,0.0044,2.81,-1.63,295.94,-0.4784,-0.2736,9.5879,9.6037
4,7,2,5,2,26.325,26325,-0.5200,-0.3200,10.0500,10.0685,0.0011,0.0000,0.0000,2.81,-1.63,295.94,-0.4839,-0.2797,9.6488,9.6650
4,7,2,5,2,26.455,26455,-0.5500,-0.2800,9.6700,9.6897,0.0000,0.0000,0.0000,2.81,-1.63,295.94,-0.4926,-0.2798,9.6516,9.6682
4,7,2,5,2,26.628,26628,-0.4900,-0.2800,9.8300,9.8462,0.0022,0.0000,-0.0044,2.81,-1.63,295.94,-0.4922,-0.2798,9.6751,9.6916
4,7,2,5,2,26.760,26760,-0.5400,-0.2300,8.0800,8.1013,-0.0044,-0.0022,0.0065,2.81,-1.63,295.94,-0.4985,-0.2732,9.4649,9.4820
4,7,2,5,2,26.896,26896,-0.4200,-0.2600,8.0200,8.0352,0.0011,0.0055,0.0065,2.88,-1.63,295.94,-0.4882,-0.2715,9.2745,9.2913
4,7,2,5,2,27.027,27027,-0.4500,-0.3700,9.7500,9.7674,-0.0393,0.0327,-0.0273,2.81,-1.50,295.94,-0.4832,-0.2845,9.3372,9.3540
4,7,2,5,2,27.157,27157,-0.7300,-0.3800,11.1500,11.1803,-0.0022,0.0033,-0.0011,2.75,-1.44,295.94,-0.5157,-0.2971,9.5760,9.5945
4,7,2,5,2,27.287,27287,-0.1100,-0.2700,11.2900,11.2938,-0.0218,-0.0305,-0.0131,2.75,-1.38,295.88,-0.4622,-0.2935,9.8019,9.8172
4,7,2,5,2,27.418,27418,-0.6800,-0.2100,10.0300,10.0552,0.0076,-0.0022,-0.0022,2.81,-1.38,295.88,-0.4909,-0.2825,9.8320,9.8483
4,7,2,5,2,27.548,27548,0.0400,-0.2100,9.1000,9.1025,-0.0142,0.0894,0.0022,2.69,-1.38,295.88,-0.4210,-0.2729,9.7355,9.7484
4,7,2,5,2,27.721,27721,-0.5400,-0.1600,9.8900,9.9060,0.0000,0.0000,-0.0076,2.69,-1.44,295.94,-0.4366,-0.2581,9.7559,9.7690
4,7,2,5,2,27.852,27852,-0.5200,-0.2100,9.8500,9.8660,-0.0011,0.0044,0.0000,2.69,-1.44,295.94,-0.4476,-0.2517,9.7683,9.7818
4,7,2,5,2,27.982,27982,-2.3500,-1.9700,15.3400,15.6435,0.0720,-0.0142,0.0164,2.75,-1.63,296.13,-0.6983,-0.4781,10.5025,10.5365
4,8,2,5,2,28.117,28117,-0.4700,-0.3000,9.8500,9.8658,0.0055,0.0011,0.0011,2.50,-1.19,296.06,-0.6682,-0.4547,10.4165,10.4478
4,8,2,5,2,28.249,28249,-0.4500,-0.1800,9.8400,9.8519,0.0022,0.0033,-0.0022,2.50,-1.19,296.06,-0.6395,-0.4185,10.3405,10.3687
4,8,2,5,2,28.380,28380,-0.5000,-0.1800,9.8100,9.8244,0.0000,0.0011,0.0000,2.50,-1.19,296.06,-0.6211,-0.3871,10.2706,10.2967
4,8,2,5,2,28.510,28510,-0.4600,-0.1900,9.8400,9.8526,-0.0011,0.0011,-0.0022,2.50,-1.19,296.06,-0.5999,-0.3611,10.2139,10.2378
4,8,2,5,2,28.641,28641,-0.4600,-0.1900,9.8400,9.8526,-0.0011,0.0011,-0.0011,2.50,-1.19,296.06,-0.5814,-0.3385,10.1646,10.1869
4,8,2,5,2,28.813,28813,-0.4600,-0.1900,9.8400,9.8526,0.0044,0.0000,-0.0011,2.50,-1.19,296.06,-0.5654,-0.3190,10.1218,10.1426
4,8,2,5,2,28.943,28943,-0.4600,-0.1800,9.8200,9.8324,-0.0022,0.0000,0.0000,2.50,-1.19,296.06,-0.5515,-0.3007,10.0821,10.1016
4,8,2,5,2,29.073,29073,-0.4700,-0.1900,9.8500,9.8630,0.0000,0.0022,0.0000,2.50,-1.19,296.06,-0.5408,-0.2861,10.0515,10.0701
4,8,2,5,2,29.203,29203,-0.4800,-0.1900,9.8300,9.8435,-0.0011,0.0022,-0.0033,2.50,-1.19,296.06,-0.5328,-0.2734,10.0223,10.0402
4,8,2,5,2,29.333,29333,-0.2900,0.0900,10.2300,10.2345,0.0055,-0.0065,0.0011,2.50,-1.19,296.06,-0.5008,-0.2255,10.0497,10.0647
4,8,2,5,2,29.463,29463,-0.2400,0.5900,13.2900,13.3053,-0.0644,0.0284,-0.0207,2.63,-1.31,295.69,-0.4664,-0.1181,10.4767,10.4877
4,8,2,5,2,29.593,29593,-0.3900,-0.5600,11.8100,11.8297,0.0153,0.0044,0.0153,2.63,-1.38,295.75,-0.4564,-0.1763,10.6524,10.6636
4,8,2,5,2,29.723,29723,-0.1200,-0.0900,11.0900,11.0910,-0.0196,0.0229,-0.0153,2.63,-1.38,295.75,-0.4120,-0.1649,10.7100,10.7192
4,8,2,5,2,29.896,29896,-0.7900,-0.5300,9.6000,9.6470,0.0142,-0.0044,0.0087,2.69,-1.44,295.75,-0.4618,-0.2130,10.5638,10.5760
4,8,2,5,2,30.028,30028,-0.5000,-0.4200,9.2800,9.3029,0.0153,-0.0098,0.0087,2.69,-1.44,295.75,-0.4669,-0.2403,10.3946,10.4078
4,8,2,5,2,30.159,30159,-0.4800,-0.2500,9.5300,9.5454,0.0109,-0.0076,0.0033,2.75,-1.44,295.75,-0.4686,-0.2416,10.2807,10.2942
4,8,2,5,2,30.294,30294,-0.5200,-0.1900,9.9800,9.9953,0.0087,0.0207,-0.0055,2.75,-1.50,295.75,-0.4754,-0.2348,10.2410,10.2548
4,8,2,5,2,30.425,30425,-0.4400,-0.3500,9.6200,9.6364,0.0022,-0.0044,0.0022,2.75,-1.50,295.75,-0.4707,-0.2500,10.1592,10.1732
4,8,2,5,2,30.556,30556,-0.4900,-0.1900,9.3500,9.3648,-0.0175,0.0022,-0.0175,2.69,-1.50,295.75,-0.4733,-0.2421,10.0526,10.0666
4,8,2,5,2,30.686,30686,-0.4800,-0.3000,9.3500,9.3671,0.0011,0.0033,-0.0011,2.75,-1.50,295.75,-0.4741,-0.2497,9.9600,9.9744
4,8,2,5,2,30.816,30816,-0.5100,-0.3800,9.5700,9.5911,0.0207,-0.0131,-0.0011,2.75,-1.50,295.75,-0.4789,-0.2669,9.9086,9.9238
4,8,2,5,2,30.989,30989,-0.5500,-0.3100,9.8000,9.8203,0.0011,0.0000,0.0011,2.75,-1.50,295.75,-0.4882,-0.2726,9.8943,9.9101
4,8,2,5,2,31.120,31120,-0.4600,-0.2700,9.9500,9.9643,-0.0011,-0.0022,-0.0011,2.75,-1.50,295.75,-0.4845,-0.2722,9.9016,9.9172
4,8,2,5,2,31.253,31253,-0.4900,-0.2500,9.5600,9.5758,-0.0022,0.0000,-0.0065,2.81,-1.50,295.75,-0.4852,-0.2693,9.8566,9.8722
4,8,2,5,2,31.387,31387,-0.3800,-0.1700,8.2800,8.2905,-0.0087,0.0022,0.0055,2.81,-1.50,295.75,-0.4714,-0.2562,9.6489,9.6638
4,8,2,5,2,31.518,31518,-0.7900,-0.1200,9.4800,9.5136,-0.0131,0.0185,-0.0033,2.75,-1.50,295.75,-0.5134,-0.2383,9.6266,9.6432
4,8,2,5,2,31.648,31648,-0.6300,0.1000,10.1000,10.1201,-0.0240,0.0065,-0.0055,2.81,-1.38,295.75,-0.5287,-0.1937,9.6890,9.7053
4,8,2,5,2,31.778,31778,-0.6800,-0.3700,10.6800,10.7080,-0.0142,0.0011,-0.0120,2.75,-1.31,295.69,-0.5487,-0.2169,9.8196,9.8373
4,8,2,5,2,31.909,31909,-0.5200,-0.2300,9.6100,9.6268,0.0011,-0.0131,-0.0044,2.81,-1.31,295.69,-0.5449,-0.2186,9.7920,9.8095
4,8,2,5,2,32.084,32084,-0.5700,-0.2000,9.5200,9.5391,0.0011,0.0011,0.0011,2.81,-1.31,295.69,-0.5482,-0.2162,9.7561,9.7739
4,8,2,5,2,32.215,32215,-0.4500,0.0000,8.2600,8.2722,0.0447,-0.0491,0.0644,2.81,-1.31,295.75,-0.5353,-0.1877,9.5590,9.5758
4,8,2,5,2,32.349,32349,2.0400,-0.7800,1.4500,2.6215,0.1516,-0.0055,-0.0644,2.63,-1.13,295.75,-0.1959,-0.2657,8.4904,8.4968
4,9,2,5,2,32.480,32480,-0.5400,-0.2000,9.8500,9.8668,0.0087,-0.0033,0.0076,2.75,-1.31,295.63,-0.2412,-0.2571,8.6696,8.6767
4,9,2,5,2,32.611,32611,-0.4500,0.1600,10.0400,10.0514,-0.1778,-0.0131,0.0109,2.56,-0.88,295.81,-0.2688,-0.2021,8.8502,8.8565
4,9,2,5,2,32.741,32741,-0.3500,-0.1600,9.8400,9.8475,-0.0022,0.0000,-0.0065,2.56,-1.06,295.81,-0.2795,-0.1966,8.9806,8.9871
4,9,2,5,2,32.872,32872,-0.4400,-0.2200,9.8500,9.8623,0.0033,-0.0033,-0.0011,2.56,-1.06,295.81,-0.3006,-0.1997,9.0952,9.1023
4,9,2,5,2,33.002,33002,-0.5500,-0.3700,9.8400,9.8623,0.0415,-0.0175,-0.0076,2.56,-1.19,295.81,-0.3335,-0.2221,9.1933,9.2020
4,9,2,5,2,33.175,33175,-0.4600,-0.2400,9.8000,9.8137,-0.0011,0.0000,0.0000,2.56,-1.19,295.81,-0.3502,-0.2245,9.2733,9.2826
4,9,2,5,2,33.309,33309,-0.4500,-0.2500,9.8300,9.8435,0.0000,0.0011,-0.0022,2.56,-1.19,295.81,-0.3633,-0.2278,9.3466,9.3565
4,9,2,5,2,33.442,33442,-0.5000,-0.2200,9.8300,9.8452,0.0000,-0.0011,-0.0011,2.63,-1.19,295.81,-0.3813,-0.2268,9.4103,9.4208
4,9,2,5,2,33.573,33573,-0.4500,-0.2200,9.8200,9.8328,-0.0011,0.0022,-0.0011,2.63,-1.19,295.81,-0.3904,-0.2259,9.4643,9.4750
4,9,2,5,2,33.703,33703,-0.4800,-0.2200,9.8100,9.8242,0.0000,-0.0022,0.0011,2.63,-1.19,295.81,-0.4022,-0.2251,9.5099,9.5210
4,9,2,5,2,33.833,33833,-0.4100,1.4700,10.7100,10.8182,-0.2858,0.0545,0.1516,2.81,-1.13,295.81,-0.4032,-0.0017,9.6680,9.6764
4,9,2,5,2,33.964,33964,-0.5200,-0.2900,8.0300,8.0520,-0.0065,0.0044,0.0055,2.75,-1.25,295.63,-0.4186,-0.0397,9.4522,9.4615
4,9,2,5,2,34.094,34094,-1.0400,-0.0500,8.9700,9.0302,-0.0229,-0.0044,0.0033,2.75,-1.31,295.63,-0.5005,-0.0411,9.3886,9.4020
4,9,2,5,2,34.267,34267,-0.3400,-0.0400,10.4700,10.4756,-0.0207,0.0055,-0.0142,2.81,-1.31,295.69,-0.4793,-0.0409,9.5311,9.5433
4,9,2,5,2,34.397,34397,-0.6300,-0.4200,10.2900,10.3178,0.0240,-0.0251,0.0109,2.88,-1.44,295.69,-0.4992,-0.0909,9.6311,9.6445
4,9,2,5,2,34.529,34529,-0.6900,0.1900,10.3000,10.3248,0.0196,0.0065,0.0109,2.81,-1.44,295.69,-0.5243,-0.0539,9.7193,9.7335
4,9,2,5,2,34.665,34665,-0.4500,-0.2300,9.5800,9.5933,-0.0153,0.0033,-0.0098,2.88,-1.50,295.69,-0.5145,-0.0771,9.7009,9.7149
4,9,2,5,2,34.796,34796,-0.4800,-0.3000,8.5000,8.5188,0.0000,0.0022,0.0055,2.81,-1.56,295.69,-0.5100,-0.1065,9.5427,9.5569
4,9,2,5,2,34.926,34926,-0.5400,-0.3500,9.0000,9.0230,0.0109,-0.0076,0.0055,2.88,-1.56,295.63,-0.5139,-0.1386,9.4712,9.4861
4,9,2,5,2,35.056,35056,-0.5100,-0.2400,9.9200,9.9360,0.0000,0.0022,-0.0055,2.88,-1.56,295.63,-0.5134,-0.1519,9.5303,9.5453
4,9,2,5,2,35.187,35187,-0.6000,-0.3200,10.0800,10.1029,-0.0033,0.0000,0.0044,2.88,-1.56,295.63,-0.5248,-0.1741,9.6027,9.6186
4,9,2,5,2,35.360,35360,-0.4400,-0.2300,9.9300,9.9424,-0.0022,0.0033,-0.0044,2.88,-1.56,295.63,-0.5137,-0.1814,9.6459,9.6612
4,9,2,5,2,35.491,35491,-0.6100,-0.2400,9.5700,9.5924,-0.0022,-0.0022,0.0000,2.88,-1.56,295.63,-0.5263,-0.1892,9.6359,9.6521
4,9,2,5,2,35.622,35622,-0.5700,-0.3300,9.1000,9.1238,-0.0065,-0.0011,0.0109,2.88,-1.56,295.63,-0.5321,-0.2077,9.5653,9.5823
4,9,2,5,2,35.757,35757,-0.4300,-0.1700,8.1800,8.1931,-0.0044,0.0033,-0.0033,2.88,-1.56,295.63,-0.5186,-0.2027,9.3827,9.3992
4,9,2,5,2,35.888,35888,-0.8400,0.4600,9.3100,9.3591,-0.0131,-0.0491,0.0284,2.88,-1.44,295.69,-0.5610,-0.1154,9.3731,9.3906
4,9,2,5,2,36.019,36019,-0.4800,-0.2800,10.2900,10.3050,-0.0207,0.0207,-0.0098,2.81,-1.38,295.63,-0.5503,-0.1371,9.4939,9.5109
4,9,2,5,2,36.149,36149,-0.4000,-0.1300,11.4100,11.4177,-0.0175,0.0251,-0.0131,2.75,-1.31,295.63,-0.5305,-0.1362,9.7464,9.7618
4,9,2,5,2,36.280,36280,-0.4700,-0.2300,10.1200,10.1335,-0.0011,0.0076,0.0022,2.81,-1.31,295.63,-0.5225,-0.1485,9.7957,9.8107
4,9,2,5,2,36.452,36452,-1.5800,-0.9200,23.5300,23.6009,0.0382,0.0589,0.0622,2.75,-1.38,295.69,-0.6619,-0.2502,11.6055,11.6270
4,10,2,5,2,36.583,36583,-0.4900,0.6600,10.0300,10.0636,0.2782,0.0153,-0.0229,2.56,-1.00,295.81,-0.6392,-0.1303,11.3979,11.4165
4,10,2,5,2,36.713,36713,-0.2600,-0.1500,9.8300,9.8346,0.0000,-0.0065,0.0000,2.56,-1.19,295.81,-0.5893,-0.1329,11.1913,11.2076
4,10,2,5,2,36.845,36845,-0.3600,-0.4900,10.4800,10.4976,-0.1876,0.1756,0.0000,2.69,-1.31,295.94,-0.5591,-0.1799,11.0976,11.1131
4,10,2,5,2,36.976,36976,-0.4300,-0.2500,9.8600,9.8725,-0.0044,0.0033,-0.0011,2.56,-1.06,295.81,-0.5420,-0.1892,10.9345,10.9495
4,10,2,5,2,37.111,37111,-0.4700,-0.2700,9.8300,9.8449,-0.0011,0.0033,0.0011,2.56,-1.06,295.81,-0.5326,-0.1998,10.7889,10.8039
4,10,2,5,2,37.242,37242,-0.5100,-0.2200,9.8500,9.8656,0.0011,0.0022,0.0022,2.56,-1.06,295.81,-0.5296,-0.2025,10.6652,10.6803
4,10,2,5,2,37.372,37372,-0.4300,-0.1900,9.8300,9.8412,0.0000,0.0033,0.0011,2.56,-1.06,295.81,-0.5165,-0.2008,10.5551,10.5697
4,10,2,5,2,37.545,37545,-0.4600,-0.2200,9.8200,9.8332,-0.0022,0.0011,0.0011,2.56,-1.06,295.81,-0.5090,-0.2034,10.4583,10.4726
4,10,2,5,2,37.676,37676,-0.4900,-0.2100,9.8400,9.8544,0.0011,-0.0011,0.0000,2.56,-1.06,295.81,-0.5065,-0.2042,10.3768,10.3912
4,10,2,5,2,37.806,37806,-0.4500,-0.1900,9.8000,9.8122,0.0022,0.0022,0.0000,2.56,-1.06,295.81,-0.4991,-0.2024,10.3008,10.3149
4,10,2,5,2,37.940,37940,-0.4600,-0.2000,9.8000,9.8128,-0.0011,0.0022,0.0000,2.56,-1.06,295.81,-0.4939,-0.2020,10.2348,10.2487
4,10,2,5,2,38.074,38074,-0.4600,-0.1600,9.8500,9.8620,0.0000,-0.0033,0.0000,2.56,-1.06,295.81,-0.4894,-0.1965,10.1841,10.1977
4,10,2,5,2,38.204,38204,-7.5100,3.4100,11.0700,13.8048,-0.4276,-0.2596,-0.3076,2.81,-1.31,295.56,-1.4146,0.2787,10.3008,10.4012
4,10,2,5,2,38.334,38334,-0.6100,-0.3200,7.9500,7.9798,-0.0022,-0.0011,-0.0109,2.75,-1.31,295.56,-1.3086,0.1998,9.9911,10.0784
4,10,2,5,2,38.465,38465,-0.5500,-0.2700,9.2700,9.2902,0.0109,-0.0175,0.0109,2.75,-1.38,295.56,-1.2086,0.1379,9.8960,9.9705
4,10,2,5,2,38.638,38638,-0.1900,-0.0200,10.5400,10.5417,-0.0153,0.0175,-0.0153,2.75,-1.44,295.56,-1.0744,0.1171,9.9809,10.0392
4,10,2,5,2,38.772,38772,-0.5200,-0.2400,10.0100,10.0264,0.0011,-0.0033,-0.0109,2.81,-1.50,295.63,-1.0013,0.0701,9.9847,10.0351
4,10,2,5,2,38.906,38906,-0.4800,-0.1400,9.6600,9.6729,0.0087,-0.0065,0.0011,2.81,-1.50,295.63,-0.9326,0.0424,9.9419,9.9857
4,10,2,5,2,39.036,39036,-0.5700,-0.3200,9.9200,9.9415,0.0055,0.0131,-0.0033,2.81,-1.50,295.63,-0.8848,-0.0054,9.9390,9.9784
4,10,2,5,2,39.167,39167,-0.6000,-0.2000,10.3500,10.3693,0.0000,-0.0033,-0.0055,2.75,-1.50,295.63,-0.8473,-0.0310,9.9932,10.0291
4,10,2,5,2,39.297,39297,-0.5000,-0.1500,9.9500,9.9637,0.0000,0.0000,-0.0120,2.75,-1.50,295.63,-0.8015,-0.0467,9.9875,10.0197
4,10,2,5,2,39.427,39427,-0.4000,-0.1700,9.0100,9.0205,-0.0087,0.0142,-0.0076,2.69,-1.56,295.63,-0.7486,-0.0629,9.8587,9.8873
4,10,2,5,2,39.558,39558,-0.4600,-0.2100,8.9900,9.0042,0.0022,-0.0022,0.0033,2.69,-1.56,295.63,-0.7106,-0.0823,9.7442,9.7704
4,10,2,5,2,39.731,39731,-0.5100,-0.3300,10.1900,10.2081,-0.0011,0.0022,0.0055,2.69,-1.56,295.63,-0.6842,-0.1150,9.8030,9.8275
4,10,2,5,2,39.867,39867,-0.4400,-0.2600,9.9300,9.9431,0.0000,0.0011,-0.0033,2.69,-1.56,295.63,-0.6520,-0.1341,9.8197,9.8422
4,10,2,5,2,39.998,39998,-0.5400,-0.2300,9.7900,9.8076,0.0000,-0.0022,-0.0011,2.69,-1.56,295.63,-0.6372,-0.1467,9.8158,9.8375
4,10,2,5,2,40.129,40129,-0.5700,-0.2500,9.7800,9.7998,-0.0011,0.0011,0.0000,2.69,-1.56,295.63,-0.6284,-0.1603,9.8111,9.8325
4,10,2,5,2,40.259,40259,-0.4800,-0.2700,9.7600,9.7755,0.0011,0.0022,-0.0033,2.69,-1.56,295.63,-0.6088,-0.1748,9.8043,9.8248
4,10,2,5,2,40.389,40389,-0.5100,-0.3200,9.5000,9.5191,0.0022,0.0011,0.0000,2.69,-1.56,295.63,-0.5958,-0.1939,9.7642,9.7843
4,10,2,5,2,40.520,40520,-0.4100,-0.2400,8.8200,8.8328,-0.0044,0.0000,0.0000,2.69,-1.56,295.63,-0.5713,-0.2000,9.6398,9.6588
4,10,2,5,2,40.650,40650,-0.6900,-0.0200,8.6200,8.6476,-0.0076,0.0175,-0.0055,2.69,-1.56,295.63,-0.5870,-0.1763,9.5054,9.5252
4,10,2,5,2,40.823,40823,-0.2600,-0.0900,8.8200,8.8243,-0.0393,0.0415,-0.0185,2.69,-1.44,295.63,-0.5439,-0.1649,9.4151,9.4322
4,10,2,5,2,40.957,40957,-0.6600,-0.2900,10.4200,10.4449,-0.0098,0.0022,-0.0033,2.69,-1.38,295.56,-0.5592,-0.1814,9.5475,9.5656
4,10,2,5,2,41.088,41088,-0.4300,0.2800,6.3200,6.3408,-0.0120,-0.0382,0.0076,2.75,-1.50,295.75,-0.5422,-0.1206,9.1222,9.1391
4,10,2,5,2,41.221,41221,8.0300,-3.7800,-7.2700,11.4727,-0.0644,-0.1713,-0.3523,2.75,-1.25,295.56,0.5874,-0.6028,6.9621,7.0128
4,10,2,5,2,41.352,41352,-0.3900,-0.2200,10.4200,10.4296,0.0000,-0.0153,0.0022,2.69,-1.38,295.38,0.4586,-0.5524,7.4178,7.4525
4,10,2,5,2,41.483,41483,-2.1600,1.3600,9.1200,9.4705,0.1756,0.0622,-0.0164,2.50,-0.94,295.56,0.1136,-0.3004,7.6421,7.6489
4,10,2,5,2,41.613,41613,-0.4500,-0.1400,11.5500,11.5596,0.1069,-0.0578,-0.0087,2.56,-1.31,295.50,0.0393,-0.2792,8.1571,8.1619
4,10,2,5,2,41.743,41743,-0.4400,-0.0500,9.7800,9.7900,0.0076,0.0000,-0.0044,2.75,-1.44,295.44,-0.0239,-0.2490,8.3709,8.3747
4,10,2,5,2,41.916,41916,-1.1100,-0.7500,10.3200,10.4066,-0.1549,0.1440,-0.0065,2.56,-1.31,295.56,-0.1670,-0.3150,8.6278,8.6351
4,10,2,5,2,42.049,42049,-0.4500,-0.1800,9.8500,9.8619,0.0044,-0.0022,0.0011,2.50,-1.13,295.56,-0.2043,-0.2972,8.7888,8.7962
4,10,2,5,2,42.184,42184,-0.4800,-0.1500,9.8600,9.8728,0.0022,0.0000,0.0011,2.50,-1.13,295.56,-0.2406,-0.2778,8.9300,8.9375
4,10,2,5,2,42.314,42314,-0.6100,-0.4300,9.6200,9.6489,-0.0262,0.0218,0.0076,2.75,-1.56,295.63,-0.2893,-0.2979,9.0209,9.0305
4,10,2,5,2,42.445,42445,-0.4500,-0.2700,9.7800,9.7941,-0.0011,-0.0044,-0.0033,2.56,-1.25,295.50,-0.3105,-0.2942,9.1209,9.1310
4,10,2,5,2,42.575,42575,-0.5000,-0.2500,9.8400,9.8559,0.0011,-0.0044,0.0022,2.56,-1.25,295.50,-0.3354,-0.2884,9.2157,9.2263
4,10,2,5,2,42.705,42705,3.5100,-4.0400,8.6100,10.1377,0.1713,0.1516,-0.0120,2.69,-1.31,295.38,0.1713,-0.7828,9.1359,9.1709
4,10,2,5,2,42.836,42836,-0.2500,0.0400,8.1500,8.1539,0.0011,-0.0044,0.0055,2.69,-1.31,295.25,0.1158,-0.6743,9.0060,9.0319
4,10,2,5,2,43.009,43009,-0.3100,-0.5600,10.8700,10.8888,-0.0022,0.0109,0.0022,2.69,-1.38,295.25,0.0597,-0.6593,9.2516,9.2752
4,10,2,5,2,43.140,43140,-0.2700,-0.2000,10.7500,10.7552,0.0098,-0.0065,0.0044,2.75,-1.44,295.25,0.0162,-0.5988,9.4490,9.4680
4,10,2,5,2,43.273,43273,-0.5300,-0.0400,10.3200,10.3337,0.0142,-0.0196,0.0033,2.75,-1.50,295.31,-0.0558,-0.5251,9.5638,9.5784
4,10,2,5,2,43.406,43406,-0.7200,-0.1200,9.9800,10.0067,0.0175,-0.0164,0.0065,2.88,-1.56,295.31,-0.1433,-0.4717,9.6187,9.6313
4,10,2,5,2,43.538,43538,-0.6600,-0.3100,9.5700,9.5977,0.0120,-0.0153,0.0218,2.81,-1.63,295.38,-0.2114,-0.4504,9.6122,9.6251
4,10,2,5,2,43.668,43668,-0.4600,-0.3000,9.1900,9.2064,0.0153,0.0065,-0.0131,2.81,-1.63,295.31,-0.2441,-0.4306,9.5566,9.5694
4,10,2,5,2,43.798,43798,-0.4900,-0.4200,9.3000,9.3224,0.0164,-0.0109,0.0098,2.81,-1.63,295.31,-0.2765,-0.4292,9.5228,9.5365
4,10,2,5,2,43.928,43928,-0.4900,-0.3300,9.6000,9.6182,-0.0022,-0.0022,-0.0011,2.81,-1.63,295.31,-0.3047,-0.4161,9.5330,9.5469
4,10,2,5,2,44.101,44101,-0.5300,-0.3100,10.0200,10.0388,0.0000,-0.0011,0.0098,2.81,-1.63,295.31,-0.3344,-0.4021,9.5971,9.6114
4,10,2,5,2,44.232,44232,-0.5000,-0.3000,9.8000,9.8173,-0.0022,0.0022,0.0076,2.81,-1.63,295.31,-0.3562,-0.3887,9.6239,9.6383
