participant,rep,equipment_code,exercise_code,quality_code,timestamp,timestamp_ms,accelX,accelY,accelZ,accelMag,gyroX,gyroY,gyroZ,roll,pitch,yaw,filteredX,filteredY,filteredZ,filteredMag
24,1,2,5,2,00.000,0,-0.1600,-0.1900,10.1000,10.1031,-0.0011,0.0033,-0.0055,1.38,-1.88,337.88,-0.2138,-0.2857,9.8196,9.8261
24,1,2,5,2,00.130,130,-0.3300,-0.3000,10.0300,10.0399,0.0076,-0.0087,0.0065,1.44,-1.88,337.88,-0.2291,-0.2876,9.8473,9.8542
24,1,2,5,2,00.261,261,-0.2800,-0.3700,10.0600,10.0707,0.0011,0.0033,-0.0055,1.44,-1.88,337.94,-0.2358,-0.2984,9.8753,9.8827
24,1,2,5,2,00.392,392,-0.2700,-0.2400,9.9600,9.9665,0.0098,-0.0076,-0.0087,1.44,-1.88,337.94,-0.2403,-0.2907,9.8865,9.8937
24,1,2,5,2,00.522,522,-0.3200,-0.2800,9.7500,9.7593,-0.0022,-0.0044,0.0044,1.44,-1.88,337.94,-0.2508,-0.2893,9.8685,9.8759
24,1,2,5,2,00.655,655,-0.3200,-0.3000,9.5700,9.5800,0.0044,-0.0033,-0.0033,1.44,-1.88,337.94,-0.2599,-0.2907,9.8292,9.8369
24,1,2,5,2,00.790,790,-0.2300,-0.3200,9.8500,9.8579,0.0011,-0.0033,0.0000,1.44,-1.88,337.94,-0.2560,-0.2946,9.8319,9.8397
24,1,2,5,2,00.920,920,-0.2600,-0.3300,9.6900,9.6991,0.0011,0.0011,0.0044,1.44,-1.88,337.94,-0.2565,-0.2993,9.8132,9.8211
24,1,2,5,2,01.093,1093,-0.2700,-0.3700,10.0200,10.0305,0.0044,-0.0076,0.0033,1.44,-1.88,337.94,-0.2583,-0.3086,9.8405,9.8487
24,1,2,5,2,01.223,1223,-0.3600,-0.2600,9.9200,9.9299,0.0022,-0.0098,0.0011,1.44,-1.88,337.94,-0.2717,-0.3022,9.8509,9.8593
24,1,2,5,2,01.353,1353,-0.2500,-0.2300,9.8400,9.8459,0.0011,-0.0022,0.0022,1.44,-1.88,337.94,-0.2688,-0.2927,9.8495,9.8575
24,1,2,5,2,01.483,1483,-0.3000,-0.2400,9.6700,9.6776,0.0000,-0.0055,-0.0011,1.44,-1.88,337.94,-0.2729,-0.2857,9.8259,9.8338
24,1,2,5,2,01.613,1613,-0.2100,-0.3900,9.7700,9.7800,0.0000,-0.0011,-0.0011,1.44,-1.88,337.94,-0.2646,-0.2995,9.8185,9.8266
24,1,2,5,2,01.743,1743,-0.2100,-0.3400,9.9300,9.9380,-0.0011,0.0011,0.0022,1.44,-1.88,337.94,-0.2574,-0.3048,9.8332,9.8413
24,1,2,5,2,01.873,1873,-0.2300,-0.3100,9.8000,9.8076,-0.0011,-0.0011,0.0000,1.44,-1.88,337.94,-0.2538,-0.3055,9.8288,9.8368
24,1,2,5,2,02.003,2003,-0.2900,-0.2700,9.8300,9.8380,-0.0011,0.0000,0.0044,1.44,-1.88,337.94,-0.2586,-0.3008,9.8290,9.8370
24,1,2,5,2,02.176,2176,-0.1800,-0.4300,9.7800,9.7911,-0.0055,0.0142,0.0065,1.38,-1.88,337.94,-0.2482,-0.3178,9.8225,9.8308
24,1,2,5,2,02.307,2307,-0.0300,-0.3700,9.5700,9.5772,0.0000,0.0065,-0.0153,1.38,-1.88,337.94,-0.2195,-0.3247,9.7892,9.7971
24,1,2,5,2,02.442,2442,-0.3200,-0.4700,10.0300,10.0461,-0.0011,0.0011,0.0055,1.38,-1.88,337.94,-0.2327,-0.3439,9.8210,9.8297
24,1,2,5,2,02.575,2575,-0.0500,-0.3500,9.8400,9.8463,-0.0055,0.0098,-0.0044,1.31,-1.88,337.94,-0.2086,-0.3447,9.8235,9.8317
24,1,2,5,2,02.705,2705,-0.1100,-0.2100,8.8200,8.8232,-0.0011,-0.0022,0.0000,1.31,-1.88,337.94,-0.1956,-0.3269,9.6912,9.6987
24,1,2,5,2,02.836,2836,-0.2500,-0.3000,8.4700,8.4790,-0.0044,0.0055,0.0033,1.31,-1.81,337.94,-0.2028,-0.3234,9.5303,9.5380
24,1,2,5,2,02.966,2966,0.0100,-0.5500,9.5600,9.5758,-0.0076,0.0175,-0.0196,1.19,-1.81,337.94,-0.1748,-0.3532,9.5342,9.5424
24,1,2,5,2,03.097,3097,-0.4200,-0.5400,11.3200,11.3407,-0.0142,0.0076,0.0076,1.19,-1.75,337.88,-0.2071,-0.3778,9.7695,9.7790
24,1,2,5,2,03.269,3269,-0.3000,-0.3000,10.1000,10.1089,-0.0055,0.0033,0.0000,1.19,-1.69,337.88,-0.2193,-0.3676,9.8131,9.8224
24,1,2,5,2,03.400,3400,-0.2300,-0.2500,9.5300,9.5361,-0.0011,0.0022,-0.0098,1.19,-1.69,337.88,-0.2207,-0.3521,9.7758,9.7846
24,1,2,5,2,03.530,3530,-0.2900,-0.2100,9.2100,9.2170,-0.0055,0.0011,0.0076,1.19,-1.69,337.88,-0.2299,-0.3334,9.7012,9.7097
24,1,2,5,2,03.661,3661,-0.3300,-0.2600,9.9800,9.9888,-0.0065,0.0098,-0.0055,1.13,-1.69,337.88,-0.2431,-0.3237,9.7380,9.7464
24,1,2,5,2,03.797,3797,-0.6600,-0.3100,9.8100,9.8371,-0.0076,-0.0055,0.0033,1.13,-1.69,337.88,-0.2980,-0.3219,9.7475,9.7573
24,1,2,5,2,03.929,3929,-0.3000,-0.5300,9.8200,9.8389,-0.0044,0.0022,-0.0011,1.13,-1.69,337.88,-0.2983,-0.3493,9.7570,9.7678
24,1,2,5,2,04.059,4059,-0.2900,-0.4100,10.2100,10.2223,0.0011,-0.0055,0.0000,1.13,-1.69,337.88,-0.2972,-0.3573,9.8167,9.8277
24,1,2,5,2,04.189,4189,-0.1200,-0.3400,10.3700,10.3763,-0.0076,0.0011,0.0044,1.13,-1.69,337.88,-0.2738,-0.3550,9.8896,9.8998
24,1,2,5,2,04.362,4362,-0.3400,-0.3500,9.6800,9.6923,0.0022,0.0142,0.0120,1.13,-1.69,337.88,-0.2825,-0.3544,9.8620,9.8724
24,1,2,5,2,04.493,4493,-0.2000,-0.2400,9.7300,9.7350,0.0011,0.0022,0.0033,1.06,-1.69,337.88,-0.2717,-0.3393,9.8446,9.8542
24,1,2,5,2,04.629,4629,-0.3300,-0.3600,9.6300,9.6424,0.0044,-0.0011,0.0044,1.06,-1.69,337.88,-0.2794,-0.3420,9.8163,9.8263
24,1,2,5,2,04.761,4761,-0.2600,-0.1300,9.6600,9.6644,0.0011,0.0164,0.0033,1.06,-1.69,337.88,-0.2768,-0.3141,9.7957,9.8047
24,1,2,5,2,04.891,4891,-0.3200,-0.3100,9.5500,9.5604,0.0033,-0.0044,0.0033,1.06,-1.69,337.88,-0.2825,-0.3135,9.7633,9.7725
24,1,2,5,2,05.023,5023,-0.2400,-0.2800,9.5900,9.5971,0.0000,0.0011,-0.0044,1.06,-1.69,337.88,-0.2769,-0.3091,9.7405,9.7493
24,1,2,5,2,05.153,5153,-0.1700,-0.3500,9.7500,9.7578,0.0000,0.0022,-0.0011,1.06,-1.69,337.88,-0.2628,-0.3145,9.7418,9.7504
24,1,2,5,2,05.283,5283,-0.2000,-0.3200,9.9600,9.9671,0.0011,0.0022,0.0000,1.06,-1.69,337.88,-0.2545,-0.3152,9.7705,9.7789
24,1,2,5,2,05.456,5456,-0.2600,-0.2800,9.4900,9.4977,-0.0011,0.0055,-0.0065,1.06,-1.69,337.88,-0.2553,-0.3106,9.7335,9.7418
24,1,2,5,2,05.586,5586,-0.1700,-0.3600,9.8000,9.8081,0.0011,0.0131,0.0022,1.06,-1.69,337.88,-0.2440,-0.3171,9.7423,9.7505
24,1,2,5,2,05.719,5719,-0.3300,-0.3300,9.6300,9.6413,-0.0011,0.0011,0.0011,0.94,-1.69,337.88,-0.2553,-0.3188,9.7275,9.7361
24,1,2,5,2,05.854,5854,-0.3200,-0.2700,9.2700,9.2795,-0.0033,0.0022,-0.0022,0.94,-1.69,337.88,-0.2639,-0.3124,9.6672,9.6759
24,1,2,5,2,05.984,5984,-0.3200,-0.3200,9.5300,9.5407,-0.0011,0.0044,0.0055,0.94,-1.69,337.88,-0.2713,-0.3134,9.6491,9.6580
24,1,2,5,2,06.115,6115,-0.3100,-0.3900,9.4700,9.4831,-0.0022,0.0065,0.0011,0.94,-1.69,337.88,-0.2764,-0.3235,9.6255,9.6349
24,1,2,5,2,06.245,6245,-0.3400,-0.4600,7.9300,7.9506,-0.0164,-0.0164,0.0131,1.00,-1.69,337.88,-0.2848,-0.3415,9.4021,9.4126
24,1,2,5,2,06.375,6375,-0.3900,0.7200,9.2500,9.2862,-0.0185,0.0251,-0.0120,0.88,-1.56,337.81,-0.2986,-0.2016,9.3821,9.3890
24,1,2,5,2,06.548,6548,0.3200,0.0100,11.9200,11.9243,0.0000,-0.0087,-0.0175,0.81,-1.44,337.75,-0.2171,-0.1737,9.7165,9.7205
24,1,2,5,2,06.679,6679,-0.7300,-0.7500,10.4100,10.4625,-0.0076,0.0164,0.0120,0.75,-1.44,337.75,-0.2847,-0.2496,9.8079,9.8152
24,1,2,5,2,06.810,6810,-0.2800,-0.2300,9.6600,9.6668,-0.0011,0.0033,0.0153,0.69,-1.44,337.75,-0.2841,-0.2471,9.7884,9.7956
24,1,2,5,2,06.940,6940,-0.3400,-0.0900,9.5100,9.5165,-0.0022,0.0076,0.0098,0.69,-1.44,337.75,-0.2914,-0.2264,9.7517,9.7587
24,1,2,5,2,07.071,7071,-1.1300,-0.3900,13.0700,13.1246,-0.0185,0.0316,0.0175,0.69,-1.38,337.75,-0.4019,-0.2479,10.1890,10.1999
24,2,2,5,2,07.201,7201,-0.4300,-0.1300,9.8500,9.8602,-0.0022,0.0022,-0.0109,0.63,-1.38,337.75,-0.4056,-0.2324,10.1443,10.1551
24,2,2,5,2,07.337,7337,-0.1700,-0.3000,10.1800,10.1858,-0.0022,0.0065,0.0098,0.69,-1.38,337.75,-0.3746,-0.2413,10.1490,10.1588
24,2,2,5,2,07.468,7468,-0.2800,-0.2800,10.1400,10.1477,0.0087,-0.0044,0.0087,0.69,-1.38,337.75,-0.3621,-0.2464,10.1478,10.1573
24,2,2,5,2,07.641,7641,-0.1800,-0.3100,9.8000,9.8066,0.0011,-0.0022,-0.0022,0.75,-1.44,337.75,-0.3381,-0.2548,10.1020,10.1109
24,2,2,5,2,07.772,7772,-0.2500,-0.2200,9.4500,9.4559,-0.0011,0.0022,0.0098,0.75,-1.44,337.75,-0.3265,-0.2502,10.0161,10.0245
24,2,2,5,2,07.903,7903,-0.1400,-0.2900,9.5100,9.5155,0.0000,0.0044,0.0000,0.75,-1.44,337.75,-0.3019,-0.2554,9.9494,9.9572
24,2,2,5,2,08.037,8037,-0.2700,-0.3500,9.6900,9.7001,0.0011,0.0011,0.0076,0.75,-1.44,337.75,-0.2977,-0.2679,9.9152,9.9233
24,2,2,5,2,08.170,8170,-0.2400,-0.3500,9.8600,9.8691,0.0022,-0.0044,-0.0022,0.81,-1.44,337.75,-0.2901,-0.2787,9.9079,9.9161
24,2,2,5,2,08.301,8301,-0.1700,-0.3400,9.7300,9.7374,-0.0011,0.0033,-0.0022,0.88,-1.50,337.75,-0.2743,-0.2868,9.8845,9.8924
24,2,2,5,2,08.431,8431,-0.2100,-0.3100,9.7400,9.7472,-0.0033,0.0011,0.0000,0.88,-1.50,337.75,-0.2658,-0.2899,9.8654,9.8733
24,2,2,5,2,08.562,8562,-0.1500,-0.3400,9.8900,9.8970,-0.0011,0.0011,0.0000,0.88,-1.50,337.75,-0.2506,-0.2965,9.8687,9.8763
24,2,2,5,2,08.734,8734,-0.2400,-0.2900,9.5900,9.5974,0.0000,-0.0011,-0.0033,0.94,-1.50,337.75,-0.2492,-0.2956,9.8320,9.8396
24,2,2,5,2,08.864,8864,-0.2400,-0.3400,9.7700,9.7789,-0.0022,0.0033,0.0087,0.94,-1.56,337.75,-0.2480,-0.3015,9.8238,9.8315
24,2,2,5,2,08.994,8994,-0.2000,-0.3500,9.6100,9.6185,0.0033,0.0098,0.0011,0.94,-1.56,337.75,-0.2416,-0.3079,9.7956,9.8034
24,2,2,5,2,09.124,9124,-0.2500,-0.4300,9.4100,9.4231,0.0011,0.0011,0.0076,0.94,-1.56,337.75,-0.2427,-0.3240,9.7448,9.7532
24,2,2,5,2,09.254,9254,-0.3200,-0.3200,9.1000,9.1112,-0.0022,0.0044,-0.0055,1.00,-1.63,337.75,-0.2529,-0.3234,9.6598,9.6686
24,2,2,5,2,09.384,9384,-0.2400,-0.3700,8.1300,8.1420,-0.0087,-0.0175,0.0131,1.00,-1.56,337.81,-0.2512,-0.3296,9.4582,9.4673
24,2,2,5,2,09.514,9514,-0.3100,-0.3600,8.2900,8.3036,0.0000,0.0175,0.0000,1.00,-1.56,337.81,-0.2590,-0.3336,9.3043,9.3139
24,2,2,5,2,09.645,9645,0.2600,-0.7600,11.0700,11.0991,-0.0153,0.0087,-0.0175,0.94,-1.44,337.75,-0.1906,-0.3898,9.5370,9.5468
24,2,2,5,2,09.818,9818,-0.7400,-0.2200,9.3000,9.3320,-0.0098,0.0044,0.0185,0.88,-1.38,337.75,-0.2630,-0.3674,9.5057,9.5165
24,2,2,5,2,09.948,9948,-0.9300,-0.3600,8.4600,8.5186,-0.0055,-0.0022,0.0425,0.88,-1.38,337.75,-0.3509,-0.3664,9.3679,9.3817
24,2,2,5,2,10.084,10084,0.2300,-0.8400,8.8300,8.8728,0.0022,0.0185,0.0185,0.94,-1.44,337.75,-0.2743,-0.4288,9.2971,9.3110
24,2,2,5,2,10.216,10216,-0.1200,-0.3600,9.0300,9.0380,-0.0055,0.0044,0.0109,0.94,-1.44,337.75,-0.2540,-0.4198,9.2619,9.2749
24,2,2,5,2,10.346,10346,-0.1600,-0.3500,9.8000,9.8076,-0.0011,0.0076,-0.0098,0.94,-1.44,337.75,-0.2416,-0.4106,9.3328,9.3449
24,2,2,5,2,10.477,10477,-0.2100,-0.3800,9.9900,9.9994,-0.0022,0.0065,0.0033,0.94,-1.44,337.75,-0.2374,-0.4065,9.4194,9.4311
24,2,2,5,2,10.607,10607,-0.2300,-0.2900,9.8000,9.8070,-0.0033,-0.0011,-0.0022,0.94,-1.44,337.75,-0.2365,-0.3912,9.4695,9.4806
24,2,2,5,2,10.737,10737,-0.2100,-0.2500,9.7700,9.7755,0.0000,0.0000,0.0011,0.94,-1.44,337.75,-0.2330,-0.3726,9.5091,9.5193
24,2,2,5,2,10.910,10910,-0.3200,-0.1900,10.5400,10.5466,0.0044,-0.0076,0.0000,0.94,-1.44,337.75,-0.2444,-0.3485,9.6450,9.6544
24,2,2,5,2,11.041,11041,-0.2400,-0.2700,10.1000,10.1065,0.0000,-0.0044,0.0022,0.94,-1.44,337.75,-0.2439,-0.3382,9.7049,9.7139
24,2,2,5,2,11.172,11172,-0.2500,-0.2800,9.7700,9.7772,0.0033,0.0000,0.0033,0.94,-1.44,337.75,-0.2447,-0.3305,9.7135,9.7222
24,2,2,5,2,11.302,11302,-0.2800,-0.2100,9.6100,9.6164,0.0065,0.0011,0.0033,1.00,-1.50,337.75,-0.2493,-0.3146,9.6999,9.7082
24,2,2,5,2,11.434,11434,-0.2200,-0.5200,9.5900,9.6066,0.0011,-0.0044,-0.0033,1.00,-1.50,337.75,-0.2455,-0.3417,9.6854,9.6945
24,2,2,5,2,11.569,11569,-0.2800,-0.1500,9.6300,9.6352,0.0022,-0.0087,-0.0022,1.00,-1.56,337.75,-0.2500,-0.3164,9.6781,9.6865
24,2,2,5,2,11.700,11700,-0.2900,-0.3900,9.4600,9.4725,-0.0011,-0.0011,-0.0011,1.06,-1.56,337.75,-0.2553,-0.3261,9.6494,9.6582
24,2,2,5,2,11.831,11831,-0.1900,-0.3300,9.6800,9.6875,0.0011,-0.0011,0.0011,1.06,-1.56,337.75,-0.2467,-0.3266,9.6534,9.6621
24,2,2,5,2,12.003,12003,-0.1300,-0.3300,9.4600,9.4666,0.0022,0.0022,0.0000,1.06,-1.63,337.75,-0.2313,-0.3271,9.6279,9.6362
24,2,2,5,2,12.133,12133,-0.2800,-0.4300,9.7200,9.7335,-0.0022,-0.0022,0.0044,1.13,-1.63,337.75,-0.2377,-0.3406,9.6400,9.6490
24,2,2,5,2,12.264,12264,-0.4300,-0.2700,9.7600,9.7732,-0.0044,0.0000,0.0022,1.13,-1.63,337.75,-0.2631,-0.3313,9.6559,9.6651
24,2,2,5,2,12.394,12394,-0.2900,-0.2800,8.6900,8.6993,-0.0098,0.0087,-0.0065,1.13,-1.56,337.75,-0.2666,-0.3246,9.5286,9.5378
24,2,2,5,2,12.525,12525,0.1200,-0.2700,8.6600,8.6650,-0.0175,0.0185,-0.0098,1.06,-1.56,337.75,-0.2157,-0.3174,9.4141,9.4219
24,2,2,5,2,12.655,12655,-0.3300,-0.3900,10.2200,10.2328,-0.0164,0.0087,-0.0196,1.00,-1.50,337.69,-0.2307,-0.3269,9.5203,9.5287
24,2,2,5,2,12.786,12786,-0.0400,-0.2500,10.7400,10.7430,-0.0131,0.0033,-0.0055,1.06,-1.44,337.69,-0.2056,-0.3168,9.6810,9.6884
24,2,2,5,2,12.920,12920,-0.2600,-0.1100,9.9300,9.9340,-0.0033,-0.0044,0.0033,1.00,-1.44,337.69,-0.2128,-0.2896,9.7138,9.7205
24,2,2,5,2,13.094,13094,-0.2200,-0.2400,9.5800,9.5855,-0.0011,0.0055,-0.0109,1.06,-1.44,337.63,-0.2137,-0.2830,9.6962,9.7027
24,2,2,5,2,13.225,13225,-0.2400,-0.3200,9.6100,9.6183,-0.0065,0.0055,0.0055,1.06,-1.44,337.63,-0.2172,-0.2879,9.6848,9.6916
24,2,2,5,2,13.355,13355,-0.2600,-0.3500,9.7600,9.7697,0.0000,0.0000,-0.0011,1.06,-1.50,337.63,-0.2228,-0.2961,9.6948,9.7018
24,2,2,5,2,13.485,13485,-0.1900,-0.2600,9.7800,9.7853,-0.0022,0.0033,0.0044,1.06,-1.44,337.63,-0.2185,-0.2913,9.7060,9.7128
24,2,2,5,2,13.616,13616,-0.1300,-0.3200,10.1300,10.1359,0.0000,0.0055,-0.0065,1.06,-1.50,337.63,-0.2068,-0.2951,9.7619,9.7685
24,2,2,5,2,13.746,13746,-0.3200,-0.3200,10.1000,10.1101,0.0098,-0.0185,-0.0055,1.13,-1.50,337.63,-0.2217,-0.2984,9.8064,9.8135
24,2,2,5,2,13.877,13877,-0.2500,-0.3300,9.9400,9.9486,0.0022,0.0033,0.0000,1.13,-1.50,337.63,-0.2255,-0.3026,9.8240,9.8313
24,2,2,5,2,14.007,14007,-0.1900,-0.2900,9.8700,9.8761,0.0044,-0.0011,0.0011,1.13,-1.50,337.63,-0.2208,-0.3009,9.8301,9.8372
24,2,2,5,2,14.180,14180,-0.2100,-0.3100,9.8200,9.8271,0.0055,-0.0011,-0.0022,1.13,-1.56,337.63,-0.2194,-0.3021,9.8288,9.8358
24,2,2,5,2,14.310,14310,-0.2100,-0.6100,9.6600,9.6815,0.0076,-0.0185,0.0033,1.13,-1.56,337.69,-0.2181,-0.3427,9.8065,9.8149
24,2,2,5,2,14.440,14440,-0.3000,-0.2900,9.5800,9.5891,0.0011,-0.0087,-0.0011,1.19,-1.56,337.69,-0.2289,-0.3357,9.7767,9.7851
24,2,2,5,2,14.570,14570,-0.2600,-0.2900,9.5800,9.5879,0.0011,-0.0022,-0.0044,1.19,-1.56,337.69,-0.2330,-0.3297,9.7507,9.7591
24,2,2,5,2,14.701,14701,-0.2800,-0.2900,9.8600,9.8682,-0.0011,-0.0022,-0.0022,1.19,-1.56,337.69,-0.2392,-0.3245,9.7651,9.7735
24,2,2,5,2,14.831,14831,-0.2500,-0.4000,9.6400,9.6515,-0.0011,0.0000,0.0022,1.19,-1.56,337.69,-0.2406,-0.3344,9.7487,9.7574
24,2,2,5,2,14.961,14961,-0.2600,-0.3700,9.4700,9.4808,0.0033,0.0065,0.0011,1.19,-1.63,337.69,-0.2432,-0.3391,9.7119,9.7209
24,2,2,5,2,15.091,15091,-0.3100,-0.2900,9.6900,9.6993,-0.0022,0.0000,-0.0022,1.19,-1.63,337.69,-0.2520,-0.3326,9.7090,9.7180
24,2,2,5,2,15.269,15269,-0.5700,-0.3000,8.4000,8.4247,-0.0044,-0.0076,0.0011,1.25,-1.63,337.69,-0.2939,-0.3283,9.5365,9.5467
24,2,2,5,2,15.400,15400,-0.1200,-0.2400,8.3200,8.3243,-0.0098,0.0218,-0.0033,1.19,-1.56,337.69,-0.2710,-0.3167,9.3762,9.3855
24,2,2,5,2,15.531,15531,-0.3300,-0.5900,11.0000,11.0208,-0.0164,0.0218,-0.0087,1.13,-1.50,337.63,-0.2788,-0.3527,9.5902,9.6007
24,2,2,5,2,15.661,15661,-0.1600,-0.2500,11.4100,11.4139,0.0033,0.0033,-0.0011,1.19,-1.44,337.63,-0.2631,-0.3392,9.8300,9.8394
24,2,2,5,2,15.792,15792,-1.0500,-0.8200,10.3500,10.4354,0.0164,-0.0262,0.0295,1.19,-1.44,337.69,-0.3668,-0.4025,9.8985,9.9135
24,2,2,5,2,15.922,15922,-0.1300,-0.4800,9.7800,9.7926,-0.0011,0.0076,-0.0055,1.19,-1.38,337.69,-0.3356,-0.4127,9.8829,9.8972
24,2,2,5,2,16.052,16052,-0.1800,-0.3400,9.8200,9.8275,0.0000,-0.0033,0.0055,1.19,-1.44,337.69,-0.3151,-0.4032,9.8746,9.8879
24,2,2,5,2,16.183,16183,-0.2300,-0.2800,9.7800,9.7867,-0.0022,-0.0011,-0.0011,1.19,-1.44,337.69,-0.3039,-0.3869,9.8622,9.8744
24,2,2,5,2,16.355,16355,-0.2000,-0.2800,9.7900,9.7960,0.0011,-0.0011,-0.0022,1.19,-1.44,337.69,-0.2902,-0.3728,9.8526,9.8640
24,2,2,5,2,16.485,16485,-0.1800,-0.2900,10.8000,10.8054,-0.0011,0.0000,-0.0044,1.19,-1.44,337.69,-0.2757,-0.3619,9.9775,9.9878
24,2,2,5,2,16.615,16615,-0.0700,-0.3600,10.2900,10.2965,0.0076,-0.0185,-0.0011,1.25,-1.44,337.69,-0.2486,-0.3617,10.0187,10.0283
24,3,2,5,2,16.745,16745,-0.4100,-0.2500,9.7100,9.7219,-0.0044,-0.0087,0.0109,1.25,-1.44,337.69,-0.2698,-0.3470,9.9780,9.9877
24,3,2,5,2,16.875,16875,-0.2500,-0.2700,9.9300,9.9368,0.0022,-0.0044,-0.0011,1.25,-1.44,337.69,-0.2672,-0.3368,9.9717,9.9809
24,3,2,5,2,17.005,17005,-0.0900,-0.2600,9.8900,9.8938,0.0055,-0.0076,-0.0055,1.25,-1.44,337.69,-0.2439,-0.3267,9.9609,9.9692
24,3,2,5,2,17.135,17135,-0.2600,-0.0700,9.8300,9.8337,-0.0022,0.0033,0.0011,1.25,-1.44,337.69,-0.2460,-0.2929,9.9437,9.9510
24,3,2,5,2,17.266,17266,-0.2200,-0.2700,9.7700,9.7762,0.0000,-0.0022,-0.0022,1.31,-1.44,337.69,-0.2426,-0.2899,9.9208,9.9280
24,3,2,5,2,17.439,17439,-0.3500,-0.2100,9.9300,9.9384,-0.0011,-0.0098,0.0055,1.31,-1.44,337.69,-0.2567,-0.2793,9.9220,9.9292
24,3,2,5,2,17.569,17569,-0.1600,-0.3300,9.8000,9.8069,-0.0011,-0.0011,-0.0044,1.31,-1.44,337.69,-0.2440,-0.2860,9.9059,9.9130
24,3,2,5,2,17.701,17701,-0.3000,-0.5100,9.7600,9.7779,0.0076,-0.0164,0.0065,1.38,-1.44,337.69,-0.2514,-0.3155,9.8867,9.8949
24,3,2,5,2,17.836,17836,-0.2500,-0.3400,9.5500,9.5593,0.0011,-0.0065,0.0044,1.38,-1.44,337.69,-0.2512,-0.3187,9.8423,9.8507
24,3,2,5,2,17.967,17967,-0.1900,-0.2800,9.4000,9.4061,0.0033,-0.0022,0.0055,1.38,-1.44,337.69,-0.2431,-0.3136,9.7840,9.7921
24,3,2,5,2,18.098,18098,-0.4000,-0.2700,9.4800,9.4923,-0.0022,-0.0022,-0.0011,1.38,-1.44,337.69,-0.2638,-0.3079,9.7440,9.7524
24,3,2,5,2,18.228,18228,-0.1300,-0.2300,9.8900,9.8935,-0.0098,0.0000,0.0011,1.38,-1.44,337.69,-0.2462,-0.2976,9.7632,9.7708
24,3,2,5,2,18.359,18359,-0.1500,-0.1800,8.6700,8.6732,-0.0076,0.0022,-0.0033,1.38,-1.44,337.69,-0.2335,-0.2821,9.6192,9.6261
24,3,2,5,2,18.531,18531,-0.3500,0.0800,9.1700,9.1770,-0.0218,0.0229,-0.0240,1.38,-1.44,337.69,-0.2488,-0.2344,9.5600,9.5661
24,3,2,5,2,18.662,18662,-0.4000,-0.2100,10.7600,10.7695,0.0076,-0.0185,-0.0098,1.38,-1.38,337.63,-0.2688,-0.2312,9.7181,9.7246
24,3,2,5,2,18.793,18793,-0.6200,0.0000,11.1500,11.1672,-0.0065,0.0044,0.0011,1.31,-1.31,337.56,-0.3150,-0.2007,9.9068,9.9138
24,3,2,5,2,18.925,18925,-0.3400,-0.4600,9.9200,9.9365,0.0076,-0.0175,-0.0022,1.31,-1.31,337.63,-0.3183,-0.2349,9.9085,9.9164
24,3,2,5,2,19.060,19060,-0.3300,-0.3800,8.2000,8.2154,-0.0076,-0.0109,0.0011,1.38,-1.31,337.63,-0.3199,-0.2540,9.6834,9.6920
24,3,2,5,2,19.191,19191,-0.4100,-0.3400,9.7300,9.7446,0.0120,0.0033,0.0600,1.38,-1.31,337.69,-0.3317,-0.2653,9.6895,9.6988
24,3,2,5,2,19.321,19321,-0.1700,-0.4800,9.8100,9.8232,-0.0295,0.0251,-0.0251,1.44,-1.44,337.75,-0.3104,-0.2936,9.7054,9.7148
24,3,2,5,2,19.452,19452,-0.1900,-0.2000,9.7700,9.7739,0.0011,-0.0044,0.0011,1.38,-1.38,337.56,-0.2946,-0.2813,9.7139,9.7225
24,3,2,5,2,19.625,19625,-0.2400,-0.2600,9.8400,9.8464,0.0033,-0.0055,-0.0022,1.38,-1.38,337.56,-0.2874,-0.2785,9.7305,9.7388
24,3,2,5,2,19.761,19761,-0.3400,-0.4000,9.3100,9.3248,0.0044,-0.0076,-0.0065,1.38,-1.38,337.63,-0.2943,-0.2945,9.6751,9.6841
24,3,2,5,2,19.893,19893,-0.1300,-0.2800,10.0700,10.0747,-0.0011,-0.0033,-0.0022,1.44,-1.38,337.56,-0.2727,-0.2926,9.7272,9.7354
24,3,2,5,2,20.023,20023,-0.1900,-0.3400,10.0700,10.0775,0.0055,0.0055,0.0044,1.44,-1.44,337.63,-0.2618,-0.2988,9.7723,9.7804
24,3,2,5,2,20.154,20154,-0.2100,-0.3700,9.3900,9.3996,0.0065,-0.0044,0.0022,1.44,-1.44,337.63,-0.2549,-0.3082,9.7219,9.7302
24,3,2,5,2,20.284,20284,-0.2700,-0.3100,9.4400,9.4489,0.0044,-0.0044,0.0033,1.44,-1.44,337.63,-0.2569,-0.3084,9.6848,9.6931
24,3,2,5,2,20.414,20414,-0.2600,-0.3400,10.0100,10.0191,-0.0022,0.0229,-0.0065,1.44,-1.44,337.63,-0.2573,-0.3126,9.7276,9.7361
24,3,2,5,2,20.545,20545,-0.3300,-0.5100,9.7100,9.7290,0.0131,-0.0207,0.0087,1.44,-1.50,337.63,-0.2669,-0.3386,9.7253,9.7349
24,3,2,5,2,20.718,20718,-0.2000,-0.2400,9.7300,9.7350,0.0011,-0.0033,-0.0022,1.44,-1.50,337.63,-0.2581,-0.3256,9.7259,9.7348
24,3,2,5,2,20.849,20849,-0.2100,-0.3400,9.8200,9.8281,0.0033,-0.0022,0.0033,1.50,-1.50,337.63,-0.2518,-0.3275,9.7383,9.7471
24,3,2,5,2,20.979,20979,-0.1600,-0.3600,9.7000,9.7080,0.0033,-0.0011,-0.0044,1.50,-1.50,337.63,-0.2397,-0.3318,9.7333,9.7419
24,3,2,5,2,21.113,21113,-0.1800,-0.3700,9.6100,9.6188,0.0000,-0.0033,0.0055,1.50,-1.50,337.63,-0.2318,-0.3368,9.7170,9.7256
24,3,2,5,2,21.247,21247,-0.4400,-0.3000,9.8000,9.8145,0.0022,-0.0033,-0.0055,1.50,-1.50,337.63,-0.2592,-0.3320,9.7280,9.7371
24,3,2,5,2,21.377,21377,-0.5400,-0.5400,9.3100,9.3413,-0.0022,-0.0011,-0.0011,1.50,-1.50,337.63,-0.2962,-0.3594,9.6729,9.6841
24,3,2,5,2,21.508,21508,-0.3300,-0.1800,9.2300,9.2377,-0.0033,-0.0011,-0.0065,1.50,-1.50,337.63,-0.3007,-0.3358,9.6145,9.6251
24,3,2,5,2,21.638,21638,-0.0300,-0.5200,9.3600,9.3745,0.0087,0.0011,0.0055,1.44,-1.44,337.56,-0.2650,-0.3600,9.5810,9.5914
24,3,2,5,2,21.811,21811,0.1400,-0.4200,11.7100,11.7184,-0.0098,0.0076,0.0131,1.44,-1.38,337.50,-0.2116,-0.3679,9.8615,9.8707
24,3,2,5,2,21.944,21944,-0.0900,-0.2800,11.2500,11.2538,-0.0022,-0.0022,-0.0131,1.44,-1.38,337.50,-0.1956,-0.3563,10.0445,10.0527
24,4,2,5,2,22.079,22079,-0.0900,-0.4800,9.3800,9.3927,-0.0022,-0.0033,0.0022,1.50,-1.38,337.50,-0.1817,-0.3726,9.9569,9.9656
24,4,2,5,2,22.210,22210,-0.2300,-0.5700,9.1000,9.1207,-0.0076,0.0000,-0.0098,1.50,-1.38,337.50,-0.1881,-0.3986,9.8440,9.8539
24,4,2,5,2,22.340,22340,-0.2000,-0.4100,9.8200,9.8306,0.0022,-0.0011,-0.0022,1.50,-1.38,337.50,-0.1896,-0.4001,9.8409,9.8508
24,4,2,5,2,22.471,22471,-0.2400,-0.2600,10.2700,10.2761,0.0065,-0.0011,-0.0011,1.50,-1.38,337.50,-0.1963,-0.3817,9.8974,9.9067
24,4,2,5,2,22.601,22601,-0.2400,-0.2100,9.8900,9.8951,0.0000,0.0000,-0.0022,1.50,-1.38,337.50,-0.2020,-0.3591,9.8964,9.9050
24,4,2,5,2,22.731,22731,-0.2500,-0.2900,10.1200,10.1272,0.0033,-0.0055,-0.0044,1.50,-1.38,337.50,-0.2084,-0.3500,9.9259,9.9342
24,4,2,5,2,22.904,22904,-0.2800,-0.2600,9.6900,9.6975,0.0044,-0.0011,0.0022,1.50,-1.38,337.50,-0.2178,-0.3381,9.8948,9.9030
24,4,2,5,2,23.034,23034,-0.2700,-0.3600,9.5700,9.5806,0.0044,-0.0109,-0.0033,1.50,-1.38,337.50,-0.2247,-0.3410,9.8520,9.8605
24,4,2,5,2,23.164,23164,-0.0200,-0.3500,9.4200,9.4265,-0.0011,0.0207,-0.0011,1.50,-1.38,337.50,-0.1977,-0.3422,9.7951,9.8030
24,4,2,5,2,23.294,23294,-0.4100,-0.1900,9.4200,9.4308,0.0000,-0.0033,0.0033,1.56,-1.38,337.50,-0.2257,-0.3221,9.7457,9.7536
24,4,2,5,2,23.424,23424,-0.1700,-0.3100,9.7300,9.7364,0.0011,0.0000,-0.0033,1.56,-1.38,337.50,-0.2183,-0.3205,9.7436,9.7513
24,4,2,5,2,23.554,23554,-0.3100,-0.2900,9.8500,9.8591,0.0065,-0.0098,0.0022,1.56,-1.44,337.50,-0.2304,-0.3165,9.7576,9.7655
24,4,2,5,2,23.684,23684,-0.2900,-0.3000,9.9500,9.9587,0.0011,-0.0033,0.0022,1.56,-1.44,337.50,-0.2383,-0.3143,9.7830,9.7909
24,4,2,5,2,23.814,23814,-0.2500,-0.3200,9.8500,9.8584,0.0022,-0.0065,-0.0109,1.56,-1.44,337.50,-0.2398,-0.3151,9.7918,9.7998
24,4,2,5,2,23.987,23987,-0.2400,-0.3800,9.3300,9.3408,0.0022,-0.0044,-0.0022,1.50,-1.44,337.44,-0.2398,-0.3236,9.7309,9.7393
24,4,2,5,2,24.119,24119,-0.3400,-0.2200,9.1100,9.1190,0.0022,-0.0044,0.0011,1.50,-1.44,337.44,-0.2530,-0.3100,9.6491,9.6574
24,4,2,5,2,24.252,24252,-0.4000,-0.5000,8.6600,8.6836,-0.0076,-0.0175,0.0131,1.56,-1.44,337.50,-0.2724,-0.3350,9.5188,9.5286
24,4,2,5,2,24.386,24386,-0.1300,-0.2000,8.6800,8.6833,-0.0033,-0.0011,-0.0087,1.56,-1.44,337.50,-0.2536,-0.3172,9.4082,9.4170
24,4,2,5,2,24.516,24516,-0.5500,0.1100,10.3900,10.4051,0.0098,-0.0349,0.0262,1.50,-1.38,337.44,-0.2927,-0.2609,9.5376,9.5457
24,4,2,5,2,24.647,24647,-0.1100,-0.0100,10.8000,10.8006,-0.0044,0.0033,-0.0098,1.50,-1.38,337.38,-0.2686,-0.2279,9.7040,9.7104
24,4,2,5,2,24.777,24777,-0.2300,-0.4100,10.2700,10.2808,-0.0044,0.0011,-0.0011,1.50,-1.38,337.38,-0.2635,-0.2519,9.7786,9.7853
24,4,2,5,2,24.908,24908,-0.2200,-0.4000,10.0400,10.0504,0.0033,-0.0022,0.0022,1.50,-1.38,337.38,-0.2578,-0.2714,9.8130,9.8201
24,4,2,5,2,25.080,25080,-0.2400,-0.4100,10.0100,10.0213,-0.0011,0.0044,-0.0011,1.50,-1.38,337.38,-0.2554,-0.2896,9.8390,9.8465
24,4,2,5,2,25.210,25210,-0.1700,-0.3100,10.1500,10.1562,0.0033,-0.0011,0.0011,1.50,-1.38,337.38,-0.2442,-0.2923,9.8800,9.8873
24,4,2,5,2,25.340,25340,-0.2100,-0.2800,10.3300,10.3359,-0.0011,-0.0011,0.0022,1.50,-1.38,337.38,-0.2397,-0.2907,9.9393,9.9464
24,4,2,5,2,25.470,25470,-0.2300,-0.2500,10.1100,10.1157,0.0011,-0.0076,-0.0011,1.50,-1.38,337.38,-0.2384,-0.2853,9.9618,9.9687
24,4,2,5,2,25.600,25600,-0.2100,-0.2500,10.1200,10.1253,0.0033,-0.0033,-0.0065,1.50,-1.38,337.38,-0.2347,-0.2807,9.9826,9.9893
24,4,2,5,2,25.730,25730,-0.2200,-0.3500,10.0400,10.0485,0.0044,-0.0055,0.0000,1.50,-1.44,337.38,-0.2327,-0.2898,9.9902,9.9971
24,5,2,5,2,25.860,25860,-0.2700,-0.3100,9.9000,9.9085,0.0076,-0.0087,0.0055,1.50,-1.44,337.38,-0.2376,-0.2925,9.9783,9.9854
24,5,2,5,2,25.991,25991,-0.4100,-0.7600,9.6300,9.6686,0.0207,-0.0262,0.0065,1.50,-1.44,337.38,-0.2604,-0.3541,9.9324,9.9421
24,5,2,5,2,26.164,26164,-0.2900,-0.1800,9.7500,9.7560,0.0055,-0.0142,0.0065,1.56,-1.44,337.38,-0.2643,-0.3311,9.9084,9.9174
24,5,2,5,2,26.294,26294,-0.2500,-0.3300,9.7700,9.7788,0.0022,-0.0044,-0.0044,1.63,-1.44,337.38,-0.2624,-0.3310,9.8901,9.8991
24,5,2,5,2,26.425,26425,-0.2600,-0.3300,9.7200,9.7291,0.0022,-0.0022,-0.0022,1.63,-1.44,337.38,-0.2621,-0.3309,9.8677,9.8767
24,5,2,5,2,26.559,26559,-0.2000,-0.3300,9.5700,9.5778,0.0011,-0.0011,-0.0011,1.63,-1.44,337.38,-0.2539,-0.3307,9.8285,9.8373
24,5,2,5,2,26.692,26692,-0.2100,-0.3300,9.2900,9.2982,-0.0022,0.0044,0.0044,1.63,-1.44,337.38,-0.2481,-0.3307,9.7575,9.7663
24,5,2,5,2,26.823,26823,-0.1800,-0.3400,9.3300,9.3379,-0.0087,-0.0065,-0.0033,1.63,-1.44,337.38,-0.2391,-0.3319,9.7012,9.7098
24,5,2,5,2,26.954,26954,-0.2200,-0.3700,9.2900,9.3000,-0.0044,-0.0087,-0.0044,1.63,-1.44,337.38,-0.2366,-0.3369,9.6470,9.6558
24,5,2,5,2,27.084,27084,-0.0600,-0.2900,8.3800,8.3852,-0.0207,0.0153,-0.0076,1.63,-1.44,337.38,-0.2133,-0.3307,9.4800,9.4882
24,5,2,5,2,27.259,27259,0.0400,-0.2000,10.1200,10.1221,-0.0087,0.0011,-0.0109,1.56,-1.31,337.31,-0.1800,-0.3135,9.5644,9.5712
24,5,2,5,2,27.394,27394,-0.6000,-0.2700,11.4000,11.4190,-0.0131,-0.0098,0.0011,1.56,-1.31,337.31,-0.2353,-0.3078,9.8063,9.8139
24,5,2,5,2,27.525,27525,-0.4500,-0.1500,10.2200,10.2310,0.0000,-0.0098,0.0022,1.56,-1.31,337.31,-0.2636,-0.2870,9.8608,9.8685
24,5,2,5,2,27.655,27655,-0.2700,-0.1400,9.1300,9.1351,0.0000,-0.0087,-0.0033,1.56,-1.31,337.31,-0.2644,-0.2676,9.7645,9.7717
24,5,2,5,2,27.786,27786,-0.1400,-0.2800,9.8600,9.8650,-0.0022,-0.0033,-0.0033,1.56,-1.31,337.31,-0.2480,-0.2692,9.7771,9.7839
24,5,2,5,2,27.916,27916,0.1800,-0.7700,9.4200,9.4531,-0.0098,0.0109,0.0000,1.56,-1.31,337.31,-0.1916,-0.3352,9.7300,9.7377
24,5,2,5,2,28.046,28046,-0.2600,-0.5200,10.3600,10.3763,-0.0011,-0.0044,0.0044,1.56,-1.38,337.31,-0.2006,-0.3596,9.8130,9.8217
24,5,2,5,2,28.177,28177,-0.1700,-0.3100,10.1800,10.1861,0.0098,-0.0164,0.0076,1.63,-1.38,337.31,-0.1966,-0.3530,9.8614,9.8697
24,5,2,5,2,28.350,28350,-0.0700,-0.3100,9.6800,9.6852,0.0033,-0.0011,-0.0011,1.63,-1.38,337.31,-0.1799,-0.3474,9.8375,9.8453
24,5,2,5,2,28.486,28486,-0.3000,-0.2900,9.4900,9.4992,0.0044,-0.0065,0.0044,1.63,-1.38,337.31,-0.1957,-0.3398,9.7917,9.7995
24,5,2,5,2,28.618,28618,-0.2100,-0.2500,9.9000,9.9054,-0.0011,-0.0044,0.0011,1.63,-1.38,337.31,-0.1976,-0.3280,9.8060,9.8134
24,5,2,5,2,28.748,28748,-0.2400,-0.3400,9.9600,9.9687,0.0044,-0.0065,-0.0022,1.63,-1.44,337.31,-0.2032,-0.3296,9.8263,9.8339
24,5,2,5,2,28.879,28879,-0.2000,-0.3500,9.9800,9.9881,0.0011,-0.0044,-0.0044,1.63,-1.44,337.31,-0.2028,-0.3323,9.8465,9.8542
24,5,2,5,2,29.009,29009,-0.3000,-0.4400,9.7300,9.7446,0.0055,-0.0076,0.0055,1.69,-1.44,337.31,-0.2156,-0.3465,9.8312,9.8396
24,5,2,5,2,29.139,29139,-0.3100,-0.3200,9.7700,9.7802,0.0022,0.0011,0.0011,1.69,-1.50,337.31,-0.2280,-0.3430,9.8231,9.8317
24,5,2,5,2,29.270,29270,-0.2000,-0.2900,9.9200,9.9263,0.0011,-0.0011,0.0033,1.69,-1.50,337.31,-0.2243,-0.3360,9.8359,9.8442
24,5,2,5,2,29.445,29445,-0.2700,-0.3500,9.3100,9.3205,0.0055,0.0065,-0.0033,1.69,-1.50,337.31,-0.2304,-0.3378,9.7666,9.7751
24,5,2,5,2,29.575,29575,-0.2000,-0.3300,9.2200,9.2281,-0.0033,-0.0055,-0.0011,1.63,-1.50,337.31,-0.2264,-0.3368,9.6946,9.7030
24,5,2,5,2,29.710,29710,-0.2100,-0.3200,9.3700,9.3778,-0.0022,-0.0087,0.0087,1.69,-1.50,337.31,-0.2242,-0.3346,9.6518,9.6602
24,5,2,5,2,29.841,29841,-0.2500,-0.3200,8.4200,8.4298,-0.0087,0.0087,0.0044,1.69,-1.50,337.31,-0.2276,-0.3327,9.4895,9.4980
24,5,2,5,2,29.972,29972,0.1500,-0.8500,9.6300,9.6686,-0.0273,0.0360,-0.0415,1.63,-1.50,337.25,-0.1778,-0.4008,9.5080,9.5181
24,5,2,5,2,30.102,30102,0.0400,-0.0600,11.3200,11.3202,-0.0164,0.0065,-0.0044,1.69,-1.44,337.19,-0.1491,-0.3559,9.7468,9.7544
24,5,2,5,2,30.232,30232,-0.2500,-0.2100,11.2400,11.2447,-0.0076,-0.0131,-0.0055,1.69,-1.44,337.19,-0.1624,-0.3367,9.9435,9.9506
24,5,2,5,2,30.363,30363,-0.4000,-0.3400,10.4300,10.4432,0.0000,-0.0098,-0.0065,1.69,-1.44,337.19,-0.1937,-0.3371,10.0076,10.0152
24,6,2,5,2,30.538,30538,-0.3500,-0.2600,9.0200,9.0305,-0.0033,-0.0011,0.0044,1.69,-1.44,337.19,-0.2143,-0.3270,9.8775,9.8852
24,6,2,5,2,30.673,30673,-0.2600,-0.3100,10.0000,10.0082,-0.0011,0.0022,-0.0055,1.69,-1.44,337.19,-0.2203,-0.3247,9.8936,9.9014
24,6,2,5,2,30.804,30804,-0.2100,-0.3200,10.6600,10.6669,0.0011,-0.0065,0.0000,1.69,-1.44,337.19,-0.2190,-0.3241,9.9946,10.0023
24,6,2,5,2,30.934,30934,-0.2300,-0.3300,10.2200,10.2279,0.0011,-0.0065,0.0033,1.69,-1.44,337.19,-0.2204,-0.3249,10.0243,10.0320
24,6,2,5,2,31.065,31065,-0.3100,-0.4100,10.1600,10.1730,0.0098,0.0087,0.0044,1.69,-1.44,337.19,-0.2322,-0.3361,10.0422,10.0505
24,6,2,5,2,31.195,31195,-0.4300,-0.4800,9.9700,9.9908,0.0109,-0.0196,0.0098,1.75,-1.44,337.19,-0.2583,-0.3551,10.0327,10.0423
24,6,2,5,2,31.326,31326,-0.4500,-0.3200,9.9100,9.9254,0.0251,-0.0360,0.0098,1.75,-1.44,337.19,-0.2836,-0.3504,10.0165,10.0267
24,6,2,5,2,31.456,31456,-0.3800,-0.2000,9.4600,9.4697,0.0055,-0.0120,-0.0011,1.81,-1.44,337.19,-0.2963,-0.3306,9.9432,9.9531
24,6,2,5,2,31.629,31629,-0.2000,-0.3400,9.3900,9.3983,-0.0011,-0.0022,-0.0022,1.88,-1.44,337.19,-0.2836,-0.3319,9.8703,9.8799
24,6,2,5,2,31.759,31759,-0.2500,-0.3900,9.9000,9.9108,0.0000,-0.0076,0.0011,1.88,-1.44,337.19,-0.2792,-0.3395,9.8742,9.8840
24,6,2,5,2,31.895,31895,-0.2500,-0.3300,9.4800,9.4890,0.0022,-0.0044,0.0011,1.88,-1.44,337.19,-0.2753,-0.3383,9.8223,9.8319
24,6,2,5,2,32.027,32027,-0.2700,-0.2500,9.6200,9.6270,-0.0011,-0.0011,-0.0022,1.88,-1.44,337.19,-0.2746,-0.3266,9.7956,9.8049
24,6,2,5,2,32.157,32157,-0.2100,-0.2500,9.6800,9.6855,-0.0065,-0.0055,0.0022,1.81,-1.50,337.19,-0.2661,-0.3165,9.7804,9.7891
24,6,2,5,2,32.288,32288,-0.3600,-0.3400,9.8600,9.8724,-0.0055,-0.0065,-0.0065,1.81,-1.50,337.19,-0.2785,-0.3196,9.7909,9.8000
24,6,2,5,2,32.418,32418,-0.3300,-0.4300,9.6100,9.6253,0.0011,-0.0076,0.0022,1.81,-1.50,337.19,-0.2853,-0.3342,9.7670,9.7769
24,6,2,5,2,32.549,32549,-0.2100,-0.2700,8.9500,8.9565,-0.0044,0.0022,-0.0055,1.81,-1.50,337.19,-0.2753,-0.3257,9.6594,9.6688
24,6,2,5,2,32.721,32721,0.1700,-0.5200,8.6300,8.6473,0.0022,0.0055,-0.0295,1.75,-1.56,337.13,-0.2167,-0.3513,9.5237,9.5327
24,6,2,5,2,32.852,32852,-0.5000,-0.0900,10.8700,10.8819,-0.0175,-0.0022,0.0022,1.75,-1.44,337.13,-0.2540,-0.3169,9.7011,9.7096
24,6,2,5,2,32.983,32983,-0.3100,-0.0800,11.5500,11.5544,-0.0087,-0.0065,-0.0087,1.75,-1.44,337.06,-0.2614,-0.2857,9.9448,9.9523
24,6,2,5,2,33.113,33113,-0.1400,-0.1600,10.3300,10.3322,-0.0087,0.0022,-0.0153,1.75,-1.44,337.06,-0.2454,-0.2691,9.9955,10.0022
24,7,2,5,2,33.249,33249,-0.1600,-0.4100,9.6300,9.6401,-0.0033,-0.0033,-0.0055,1.75,-1.44,337.06,-0.2341,-0.2877,9.9474,9.9543
24,7,2,5,2,33.381,33381,-0.3700,-0.3100,9.4900,9.5023,0.0044,-0.0044,0.0022,1.75,-1.44,337.06,-0.2520,-0.2906,9.8871,9.8946
24,7,2,5,2,33.511,33511,-0.2100,-0.2500,9.9600,9.9654,-0.0011,0.0000,-0.0022,1.75,-1.44,337.06,-0.2465,-0.2853,9.8967,9.9039
24,7,2,5,2,33.642,33642,-0.1900,-0.2400,9.9800,9.9847,-0.0011,-0.0076,0.0011,1.75,-1.44,337.06,-0.2391,-0.2793,9.9077,9.9145
24,7,2,5,2,33.815,33815,0.0400,-0.2700,9.9900,9.9937,0.0109,-0.0109,-0.0022,1.75,-1.50,337.06,-0.2023,-0.2781,9.9185,9.9245
24,7,2,5,2,33.946,33946,-0.1900,-0.3100,9.8300,9.8367,0.0000,0.0000,0.0044,1.75,-1.50,337.06,-0.2007,-0.2823,9.9069,9.9129
24,7,2,5,2,34.081,34081,-0.2300,-0.3200,9.6300,9.6381,0.0044,-0.0098,0.0022,1.75,-1.50,337.06,-0.2045,-0.2873,9.8704,9.8767
24,7,2,5,2,34.213,34213,-0.2100,-0.2400,9.7100,9.7152,0.0044,-0.0044,0.0055,1.75,-1.50,337.06,-0.2052,-0.2810,9.8492,9.8554
24,7,2,5,2,34.343,34343,-0.1100,-0.4400,9.7800,9.7905,0.0120,-0.0229,0.0055,1.75,-1.56,337.06,-0.1927,-0.3020,9.8401,9.8466
24,7,2,5,2,34.489,34489,-0.2800,-0.3200,9.8400,9.8492,0.0076,-0.0076,-0.0033,1.75,-1.56,337.06,-0.2042,-0.3043,9.8401,9.8469
24,7,2,5,2,34.623,34623,-0.1600,-0.2500,9.5400,9.5446,-0.0022,-0.0109,0.0044,1.75,-1.56,337.06,-0.1984,-0.2972,9.8006,9.8071
24,7,2,5,2,34.755,34755,-0.2100,-0.3600,9.7100,9.7189,0.0011,-0.0065,-0.0022,1.75,-1.56,337.06,-0.1999,-0.3055,9.7886,9.7954
24,7,2,5,2,34.927,34927,-0.1400,-0.3100,9.7300,9.7359,0.0033,-0.0044,0.0022,1.75,-1.56,337.06,-0.1920,-0.3061,9.7809,9.7876
24,7,2,5,2,35.057,35057,-0.3900,-0.2900,9.2200,9.2328,0.0000,-0.0087,-0.0076,1.69,-1.63,337.06,-0.2181,-0.3039,9.7070,9.7142
24,7,2,5,2,35.187,35187,-0.6600,-0.3900,9.2200,9.2518,-0.0044,0.0000,0.0076,1.69,-1.63,337.06,-0.2763,-0.3153,9.6428,9.6519
24,7,2,5,2,35.317,35317,-0.3900,-0.5000,9.2100,9.2318,-0.0055,0.0076,-0.0109,1.75,-1.63,337.06,-0.2913,-0.3396,9.5858,9.5962
24,7,2,5,2,35.447,35447,-0.1700,-0.3000,8.5200,8.5270,-0.0055,0.0044,0.0044,1.75,-1.56,337.06,-0.2753,-0.3344,9.4453,9.4553
24,7,2,5,2,35.577,35577,-0.2300,-0.2800,9.5900,9.5968,-0.0076,-0.0022,-0.0076,1.69,-1.56,337.06,-0.2694,-0.3272,9.4644,9.4739
24,7,2,5,2,35.707,35707,0.2400,-0.2900,10.2100,10.2169,-0.0251,0.0316,0.0065,1.69,-1.56,337.06,-0.2022,-0.3223,9.5627,9.5702
24,7,2,5,2,35.838,35838,0.0500,-0.3800,10.9400,10.9467,-0.0044,0.0087,-0.0131,1.69,-1.50,337.00,-0.1690,-0.3299,9.7442,9.7512
24,7,2,5,2,36.011,36011,-0.3400,-0.2300,10.4400,10.4481,0.0000,-0.0044,-0.0044,1.69,-1.50,337.00,-0.1915,-0.3168,9.8358,9.8428
24,7,2,5,2,36.142,36142,-0.2500,-0.2800,9.9300,9.9371,-0.0055,-0.0022,0.0000,1.69,-1.50,337.00,-0.1992,-0.3119,9.8483,9.8552
24,7,2,5,2,36.272,36272,-0.3200,-0.2900,9.7400,9.7496,-0.0022,-0.0022,-0.0011,1.69,-1.50,337.00,-0.2151,-0.3090,9.8340,9.8412
24,7,2,5,2,36.408,36408,-0.2400,-0.3100,9.9800,9.9877,-0.0033,-0.0011,0.0000,1.69,-1.50,337.00,-0.2184,-0.3092,9.8532,9.8605
24,7,2,5,2,36.540,36540,-0.2300,-0.3200,10.2400,10.2476,0.0000,-0.0033,-0.0033,1.63,-1.56,337.00,-0.2199,-0.3106,9.9042,9.9115
24,7,2,5,2,36.670,36670,-0.2000,-0.3200,10.0900,10.0971,0.0033,-0.0098,-0.0011,1.69,-1.56,337.00,-0.2173,-0.3118,9.9287,9.9360
24,7,2,5,2,36.800,36800,-0.2300,-0.2800,9.7900,9.7967,0.0011,-0.0011,0.0055,1.63,-1.56,337.00,-0.2190,-0.3076,9.9104,9.9176
24,7,2,5,2,36.931,36931,-0.1200,-0.0400,9.5900,9.5908,0.0044,0.0065,0.0022,1.63,-1.56,337.00,-0.2059,-0.2724,9.8682,9.8741
24,7,2,5,2,37.104,37104,-0.0900,0.2700,9.5700,9.5742,-0.0087,0.0207,-0.0022,1.63,-1.56,337.00,-0.1907,-0.2009,9.8289,9.8328
24,7,2,5,2,37.236,37236,-0.1500,-0.3500,9.4400,9.4477,0.0033,-0.0055,0.0033,1.69,-1.56,337.00,-0.1853,-0.2205,9.7776,9.7819
24,7,2,5,2,37.371,37371,-0.1200,-0.2200,9.3600,9.3634,0.0065,-0.0076,0.0011,1.69,-1.56,337.00,-0.1767,-0.2205,9.7226,9.7267
24,7,2,5,2,37.502,37502,-0.2100,-0.2700,9.2900,9.2963,0.0022,-0.0055,0.0055,1.69,-1.56,337.00,-0.1811,-0.2270,9.6656,9.6700
24,7,2,5,2,37.632,37632,-0.3300,-0.3100,9.4500,9.4608,0.0011,-0.0065,-0.0011,1.69,-1.56,337.00,-0.2007,-0.2379,9.6372,9.6422
24,7,2,5,2,37.763,37763,-0.3000,-0.2900,9.5700,9.5791,-0.0022,0.0000,0.0011,1.69,-1.56,337.00,-0.2138,-0.2448,9.6283,9.6338
24,7,2,5,2,37.893,37893,-0.0800,-0.4400,9.3400,9.3507,-0.0055,0.0044,0.0087,1.69,-1.63,337.00,-0.1962,-0.2705,9.5903,9.5962
24,7,2,5,2,38.024,38024,-0.0500,-0.1500,8.7200,8.7214,-0.0098,0.0033,-0.0055,1.69,-1.63,337.00,-0.1769,-0.2546,9.4757,9.4807
24,7,2,5,2,38.197,38197,-0.1800,-0.4300,9.0900,9.1019,-0.0109,0.0055,-0.0065,1.69,-1.63,337.00,-0.1773,-0.2777,9.4248,9.4306
24,7,2,5,2,38.327,38327,-0.4600,-0.9900,9.6700,9.7314,0.0033,-0.0087,0.0011,1.69,-1.56,337.00,-0.2146,-0.3716,9.4571,9.4669
24,7,2,5,2,38.460,38460,-0.2500,-0.0600,10.3700,10.3732,-0.0087,-0.0109,0.0153,1.69,-1.50,337.00,-0.2192,-0.3305,9.5774,9.5856
24,7,2,5,2,38.595,38595,-0.1200,-0.3100,9.8900,9.8956,0.0000,0.0011,-0.0065,1.69,-1.50,336.94,-0.2062,-0.3278,9.6186,9.6264
24,7,2,5,2,38.725,38725,-0.4500,-1.1800,10.2800,10.3573,-0.0011,0.0185,-0.0065,1.69,-1.50,336.94,-0.2383,-0.4401,9.7058,9.7187
24,7,2,5,2,38.856,38856,-0.2200,-0.2400,9.8000,9.8054,0.0033,0.0000,0.0044,1.69,-1.50,337.00,-0.2359,-0.4138,9.7182,9.7299
24,7,2,5,2,38.986,38986,0.4000,-0.8100,12.0600,12.0938,-0.0076,0.0164,-0.0087,1.69,-1.50,336.94,-0.1521,-0.4660,10.0268,10.0388
24,7,2,5,2,39.117,39117,-0.0700,-0.3100,9.7300,9.7352,0.0000,-0.0065,-0.0011,1.69,-1.50,336.94,-0.1413,-0.4454,9.9877,9.9986
24,7,2,5,2,39.289,39289,-0.3600,-0.2300,9.7600,9.7693,-0.0011,0.0000,-0.0022,1.69,-1.50,336.94,-0.1701,-0.4170,9.9577,9.9679
