participant,rep,equipment_code,exercise_code,quality_code,timestamp,timestamp_ms,accelX,accelY,accelZ,accelMag,gyroX,gyroY,gyroZ,roll,pitch,yaw,filteredX,filteredY,filteredZ,filteredMag
24,1,2,5,1,00.000,0,0.3600,-0.3000,9.4800,9.4916,-0.0098,0.0142,-0.0076,-0.25,-2.50,322.63,0.0812,-0.2711,9.8253,9.8294
24,1,2,5,1,00.130,130,0.0600,-0.3800,9.7900,9.7976,0.0011,-0.0033,0.0000,-0.38,-2.31,322.38,0.0784,-0.2855,9.8207,9.8251
24,1,2,5,1,00.303,303,0.1200,-0.2000,9.9900,9.9927,0.0218,-0.0491,-0.0120,-0.25,-2.50,322.63,0.0839,-0.2742,9.8430,9.8472
24,1,2,5,1,00.433,433,-0.0400,-0.3600,10.1400,10.1465,-0.0065,0.0196,-0.0044,-0.25,-2.50,322.63,0.0676,-0.2855,9.8821,9.8865
24,1,2,5,1,00.564,564,0.0800,-0.3400,9.8000,9.8062,0.0022,-0.0044,0.0033,-0.38,-2.31,322.38,0.0692,-0.2927,9.8713,9.8759
24,1,2,5,1,00.696,696,0.0600,-0.3200,9.8200,9.8254,0.0011,0.0033,-0.0011,-0.38,-2.31,322.38,0.0680,-0.2963,9.8645,9.8692
24,1,2,5,1,00.831,831,-0.1200,-0.3300,10.6700,10.6758,0.0022,0.0076,-0.0109,-0.38,-2.31,322.38,0.0432,-0.3007,9.9707,9.9753
24,1,2,5,1,00.962,962,0.0900,-0.2800,12.0700,12.0736,0.0098,-0.0087,0.0120,-0.38,-2.38,322.38,0.0494,-0.2980,10.2473,10.2518
24,1,2,5,1,01.093,1093,-0.2400,0.3600,10.7900,10.7987,0.0131,-0.0404,0.0175,-0.31,-2.44,322.44,0.0113,-0.2113,10.3188,10.3210
24,1,2,5,1,01.223,1223,-0.1400,-0.9300,7.5400,7.5984,0.0218,-0.0273,0.0425,-0.31,-2.56,322.44,-0.0087,-0.3060,9.9527,9.9574
24,1,2,5,1,01.396,1396,0.0900,-0.3400,8.2700,8.2775,0.0022,0.0022,0.0022,-0.31,-2.56,322.38,0.0043,-0.3105,9.7309,9.7359
24,1,2,5,1,01.530,1530,0.0300,-0.3200,9.0200,9.0257,-0.0044,0.0022,-0.0022,-0.31,-2.56,322.38,0.0077,-0.3117,9.6372,9.6423
24,1,2,5,1,01.664,1664,0.0600,-0.4100,10.1500,10.1585,-0.0076,0.0033,-0.0044,-0.31,-2.56,322.38,0.0146,-0.3247,9.7048,9.7102
24,1,2,5,1,01.795,1795,0.1900,-0.2700,10.2600,10.2653,-0.0098,-0.0076,-0.0175,-0.31,-2.56,322.38,0.0377,-0.3175,9.7780,9.7832
24,1,2,5,1,01.925,1925,-0.1500,-0.3500,9.1100,9.1180,-0.0044,-0.0011,0.0164,-0.31,-2.56,322.44,0.0130,-0.3218,9.6899,9.6953
24,1,2,5,1,02.056,2056,-0.1100,-0.2500,9.3100,9.3140,0.0000,0.0087,-0.0098,-0.31,-2.56,322.38,-0.0032,-0.3123,9.6399,9.6449
24,1,2,5,1,02.186,2186,0.1800,-0.3900,9.6300,9.6396,-0.0076,0.0022,-0.0076,-0.25,-2.50,322.44,0.0209,-0.3225,9.6386,9.6440
24,1,2,5,1,02.316,2316,-0.0100,-0.1200,10.0600,10.0607,-0.0033,-0.0011,0.0273,-0.25,-2.50,322.44,0.0168,-0.2959,9.6941,9.6986
24,1,2,5,1,02.489,2489,0.1700,-0.4400,9.4700,9.4817,0.0000,0.0065,0.0033,-0.31,-2.50,322.38,0.0370,-0.3148,9.6646,9.6698
24,1,2,5,1,02.623,2623,0.0700,-0.4200,9.1700,9.1799,-0.0033,0.0000,0.0022,-0.31,-2.50,322.38,0.0414,-0.3287,9.5994,9.6051
24,2,2,5,1,02.757,2757,0.0300,-0.4500,9.6800,9.6905,-0.0044,0.0087,0.0011,-0.31,-2.50,322.38,0.0399,-0.3447,9.6100,9.6163
24,2,2,5,1,02.888,2888,0.1300,-0.4000,9.7700,9.7790,-0.0011,0.0000,-0.0011,-0.31,-2.50,322.38,0.0517,-0.3520,9.6311,9.6377
24,2,2,5,1,03.018,3018,0.0600,-0.4400,10.0900,10.0998,0.0000,-0.0055,0.0011,-0.31,-2.50,322.38,0.0528,-0.3636,9.6916,9.6985
24,2,2,5,1,03.148,3148,0.0100,-0.3100,9.8800,9.8849,0.0000,0.0033,0.0000,-0.31,-2.50,322.38,0.0472,-0.3565,9.7164,9.7231
24,2,2,5,1,03.279,3279,0.0800,-0.3300,9.8900,9.8958,0.0000,0.0022,-0.0022,-0.31,-2.50,322.38,0.0515,-0.3530,9.7393,9.7458
24,2,2,5,1,03.409,3409,0.0300,-0.3300,9.8300,9.8356,-0.0011,0.0033,-0.0044,-0.31,-2.50,322.38,0.0487,-0.3500,9.7512,9.7576
24,2,2,5,1,03.582,3582,0.0900,-0.3700,9.8300,9.8374,0.0022,0.0044,0.0000,-0.31,-2.50,322.38,0.0541,-0.3526,9.7616,9.7681
24,2,2,5,1,03.713,3713,0.1800,0.0400,10.0400,10.0417,-0.0033,0.0044,-0.0196,-0.31,-2.50,322.38,0.0707,-0.3009,9.7983,9.8032
24,2,2,5,1,03.843,3843,0.0300,-0.4600,10.5500,10.5601,0.0000,0.0087,-0.0033,-0.31,-2.50,322.38,0.0653,-0.3219,9.8974,9.9028
24,2,2,5,1,03.978,3978,-0.0700,-0.3300,10.4000,10.4055,0.0033,0.0011,0.0011,-0.31,-2.50,322.38,0.0475,-0.3229,9.9636,9.9689
24,2,2,5,1,04.111,4111,0.0200,-0.4500,12.3000,12.3082,0.0087,-0.0055,0.0000,-0.25,-2.50,322.38,0.0439,-0.3397,10.2715,10.2772
24,2,2,5,1,04.241,4241,-0.1200,0.1200,12.2800,12.2812,0.0175,-0.0469,0.0185,-0.19,-2.63,322.44,0.0223,-0.2791,10.5361,10.5399
24,2,2,5,1,04.391,4391,-0.7200,0.6700,8.5800,8.6362,0.0131,0.0055,-0.0109,-0.13,-2.75,322.50,-0.0755,-0.1540,10.2784,10.2798
24,2,2,5,1,04.521,4521,0.1900,-0.0400,7.3500,7.3526,0.0218,-0.0076,0.0000,-0.13,-2.88,322.44,-0.0405,-0.1390,9.8925,9.8935
24,2,2,5,1,04.694,4694,0.2000,-0.3300,8.2600,8.2690,0.0011,0.0065,0.0011,-0.19,-2.88,322.44,-0.0088,-0.1642,9.6774,9.6788
24,2,2,5,1,04.825,4825,0.1000,-0.5100,9.9600,9.9736,-0.0055,0.0000,-0.0065,-0.13,-2.88,322.44,0.0055,-0.2097,9.7146,9.7169
24,2,2,5,1,04.956,4956,0.1200,-0.5300,10.3900,10.4042,0.0044,-0.0033,0.0098,-0.13,-2.88,322.44,0.0206,-0.2519,9.8036,9.8069
24,2,2,5,1,05.091,5091,0.0700,-0.3900,9.7300,9.7381,0.0022,-0.0044,0.0142,-0.13,-2.88,322.44,0.0271,-0.2701,9.7939,9.7977
24,2,2,5,1,05.223,5223,0.0100,-0.3600,9.1700,9.1771,-0.0076,-0.0098,0.0109,-0.13,-2.88,322.50,0.0248,-0.2820,9.7117,9.7158
24,2,2,5,1,05.354,5354,-0.1200,0.0000,10.0400,10.0407,-0.0065,-0.0164,-0.0087,-0.13,-2.88,322.50,0.0058,-0.2448,9.7550,9.7580
24,2,2,5,1,05.484,5484,0.1300,-0.2900,9.0200,9.0256,-0.0022,0.0011,-0.0033,-0.13,-2.88,322.56,0.0221,-0.2508,9.6581,9.6614
24,2,2,5,1,05.615,5615,-0.2300,-0.3500,9.5600,9.5692,-0.0022,-0.0044,-0.0033,-0.06,-2.81,322.56,-0.0111,-0.2639,9.6452,9.6488
24,2,2,5,1,05.787,5787,0.1000,-0.2400,10.7600,10.7631,-0.0087,-0.0044,-0.0076,-0.06,-2.81,322.63,0.0035,-0.2607,9.7921,9.7956
24,2,2,5,1,05.918,5918,-0.3100,-0.6400,9.4900,9.5166,-0.0044,-0.0087,0.0065,-0.06,-2.81,322.63,-0.0378,-0.3107,9.7523,9.7573
24,2,2,5,1,06.048,6048,-0.1900,-0.3700,9.0000,9.0096,-0.0185,0.0175,0.0011,-0.06,-2.81,322.63,-0.0578,-0.3185,9.6531,9.6586
24,2,2,5,1,06.182,6182,0.0900,-0.3000,9.6500,9.6551,-0.0011,0.0055,0.0022,-0.06,-2.81,322.63,-0.0384,-0.3161,9.6527,9.6580
24,3,2,5,1,06.316,6316,0.1300,-0.3700,10.1200,10.1276,0.0000,0.0000,0.0000,-0.06,-2.81,322.63,-0.0162,-0.3232,9.7143,9.7197
24,3,2,5,1,06.447,6447,-0.0100,-0.3900,9.7300,9.7378,-0.0022,-0.0011,0.0011,-0.06,-2.81,322.63,-0.0154,-0.3320,9.7164,9.7221
24,3,2,5,1,06.577,6577,0.2200,-0.4900,9.7800,9.7947,0.0022,0.0011,-0.0022,-0.06,-2.81,322.63,0.0157,-0.3528,9.7248,9.7312
24,3,2,5,1,06.707,6707,0.0600,-0.3900,10.1900,10.1976,0.0000,-0.0022,0.0044,-0.06,-2.81,322.63,0.0215,-0.3577,9.7861,9.7926
24,3,2,5,1,06.880,6880,0.0900,-0.3900,10.0500,10.0580,0.0033,0.0000,-0.0011,-0.06,-2.81,322.63,0.0305,-0.3620,9.8208,9.8276
24,3,2,5,1,07.011,7011,0.0200,-0.3400,9.9500,9.9558,0.0022,0.0000,-0.0011,-0.06,-2.81,322.63,0.0291,-0.3591,9.8379,9.8445
24,3,2,5,1,07.145,7145,0.0000,-0.3200,9.8100,9.8152,0.0022,0.0000,0.0011,-0.06,-2.81,322.63,0.0253,-0.3539,9.8342,9.8406
24,3,2,5,1,07.275,7275,0.0300,-0.3300,9.9800,9.9855,-0.0011,0.0011,0.0022,-0.06,-2.81,322.63,0.0259,-0.3508,9.8534,9.8597
24,3,2,5,1,07.409,7409,0.2300,-0.2700,10.2500,10.2561,0.0033,0.0055,0.0022,-0.06,-2.81,322.63,0.0528,-0.3401,9.9057,9.9116
24,3,2,5,1,07.539,7539,0.0800,-0.3500,11.2800,11.2857,0.0033,-0.0076,0.0011,-0.06,-2.81,322.63,0.0564,-0.3414,10.0868,10.0927
24,3,2,5,1,07.670,7670,0.0000,-0.5800,11.0500,11.0652,0.0109,-0.0153,0.0131,0.00,-2.88,322.63,0.0490,-0.3729,10.2137,10.2206
24,3,2,5,1,07.800,7800,0.2000,-0.9400,10.2000,10.2452,0.0142,-0.0142,0.0076,0.00,-2.94,322.69,0.0689,-0.4476,10.2119,10.2219
24,3,2,5,1,07.973,7973,0.1800,-0.6600,8.7500,8.7767,0.0185,0.0218,-0.0055,0.00,-3.00,322.69,0.0835,-0.4756,10.0193,10.0309
24,3,2,5,1,08.103,8103,0.0700,-0.3400,7.6200,7.6279,0.0109,0.0022,-0.0109,0.00,-3.06,322.63,0.0817,-0.4577,9.7031,9.7142
24,3,2,5,1,08.235,8235,0.2400,-0.4300,8.5000,8.5143,0.0033,0.0011,0.0055,0.00,-3.06,322.63,0.1026,-0.4541,9.5446,9.5559
24,3,2,5,1,08.371,8371,0.2000,-0.4700,9.4100,9.4239,0.0000,-0.0044,0.0087,0.00,-3.06,322.63,0.1154,-0.4562,9.5268,9.5384
24,4,2,5,1,08.502,8502,0.0000,-0.3900,10.3000,10.3074,0.0033,0.0011,0.0240,0.00,-3.06,322.69,0.1002,-0.4474,9.6287,9.6396
24,4,2,5,1,08.632,8632,-0.0100,-0.3700,10.0500,10.0568,-0.0011,-0.0022,-0.0120,0.00,-3.00,322.69,0.0857,-0.4372,9.6842,9.6945
24,4,2,5,1,08.762,8762,0.1500,-0.4800,10.0200,10.0326,0.0000,0.0000,0.0251,0.00,-3.00,322.75,0.0942,-0.4429,9.7285,9.7390
24,4,2,5,1,08.893,8893,-0.0900,-0.5200,8.8400,8.8557,-0.0011,-0.0065,-0.0120,0.00,-3.00,322.75,0.0699,-0.4530,9.6114,9.6223
24,4,2,5,1,09.066,9066,0.1900,-0.2900,9.7900,9.7961,0.0011,0.0000,-0.0065,0.00,-3.00,322.75,0.0857,-0.4316,9.6349,9.6450
24,4,2,5,1,09.202,9202,-0.0200,-0.3900,9.9300,9.9377,-0.0076,-0.0022,0.0153,0.06,-2.94,322.81,0.0718,-0.4261,9.6738,9.6835
24,4,2,5,1,09.334,9334,-0.2700,-0.4000,9.9100,9.9217,0.0044,0.0055,0.0153,0.06,-2.94,322.81,0.0268,-0.4226,9.7049,9.7142
24,4,2,5,1,09.464,9464,0.0000,-0.5500,10.1000,10.1150,0.0000,0.0055,0.0022,0.06,-2.94,322.81,0.0232,-0.4394,9.7570,9.7669
24,4,2,5,1,09.595,9595,0.1400,-0.3500,9.8100,9.8172,-0.0011,0.0044,0.0011,0.06,-2.94,322.81,0.0386,-0.4276,9.7640,9.7734
24,4,2,5,1,09.725,9725,0.1000,-0.4000,9.5400,9.5489,-0.0011,-0.0044,0.0000,0.00,-2.88,322.81,0.0467,-0.4240,9.7345,9.7438
24,4,2,5,1,09.855,9855,0.0400,-0.3700,9.7600,9.7671,-0.0033,-0.0033,0.0022,0.00,-2.88,322.81,0.0458,-0.4169,9.7378,9.7469
24,4,2,5,1,09.986,9986,0.0500,-0.3500,10.1200,10.1262,-0.0022,0.0000,-0.0011,0.00,-2.81,322.81,0.0464,-0.4081,9.7882,9.7968
24,4,2,5,1,10.158,10158,0.0700,-0.3800,9.9400,9.9475,-0.0033,0.0011,0.0033,0.00,-2.75,322.81,0.0495,-0.4044,9.8082,9.8167
24,4,2,5,1,10.288,10288,0.0700,-0.4000,9.9300,9.9383,0.0011,-0.0011,-0.0022,0.00,-2.75,322.81,0.0522,-0.4038,9.8242,9.8327
24,4,2,5,1,10.418,10418,0.0100,-0.3500,9.8600,9.8662,0.0011,0.0033,-0.0022,0.00,-2.69,322.81,0.0466,-0.3967,9.8290,9.8371
24,4,2,5,1,10.548,10548,0.0900,-0.3700,9.8000,9.8074,0.0000,0.0022,-0.0011,0.00,-2.69,322.81,0.0523,-0.3932,9.8251,9.8331
24,4,2,5,1,10.678,10678,0.0700,-0.3600,10.2400,10.2466,-0.0011,0.0000,0.0011,-0.06,-2.63,322.81,0.0547,-0.3888,9.8798,9.8876
24,4,2,5,1,10.808,10808,0.2200,-0.0400,10.2600,10.2624,0.0011,0.0240,0.0011,-0.06,-2.63,322.81,0.0765,-0.3428,9.9299,9.9361
24,4,2,5,1,10.938,10938,0.0000,-0.4500,10.8700,10.8793,0.0022,-0.0087,0.0044,-0.06,-2.63,322.81,0.0664,-0.3570,10.0538,10.0603
24,4,2,5,1,11.068,11068,-0.1900,-0.3700,11.2600,11.2677,0.0262,-0.0262,0.0011,-0.06,-2.69,322.81,0.0326,-0.3587,10.2127,10.2191
24,4,2,5,1,11.241,11241,-0.0900,-0.2500,9.9300,9.9336,0.0175,-0.0120,-0.0120,0.06,-2.81,322.81,0.0164,-0.3444,10.1755,10.1813
24,4,2,5,1,11.372,11372,0.6200,-1.0000,8.1100,8.1949,0.0262,0.0240,-0.0065,0.00,-2.94,322.81,0.0960,-0.4308,9.9033,9.9131
24,4,2,5,1,11.507,11507,0.2200,-0.2400,6.8900,6.8977,0.0153,0.0164,-0.0076,0.00,-2.94,322.81,0.1123,-0.4056,9.5062,9.5155
24,4,2,5,1,11.638,11638,0.0000,-0.4400,8.4600,8.4714,-0.0033,0.0022,0.0185,0.00,-3.00,322.75,0.0975,-0.4102,9.3684,9.3778
24,4,2,5,1,11.770,11770,0.0000,-0.4700,9.0900,9.1021,-0.0076,-0.0044,-0.0044,0.00,-2.94,322.81,0.0847,-0.4180,9.3317,9.3414
24,5,2,5,1,11.900,11900,-0.0100,0.0500,10.5800,10.5801,-0.0109,-0.0142,0.0087,0.00,-2.94,322.88,0.0722,-0.3564,9.4962,9.5031
24,5,2,5,1,12.031,12031,-0.0700,-0.3800,9.8900,9.8975,-0.0011,0.0044,0.0044,0.00,-2.94,322.88,0.0535,-0.3595,9.5481,9.5550
24,5,2,5,1,12.161,12161,0.4500,-0.8100,9.9200,9.9632,-0.0229,-0.0098,0.0033,0.00,-2.88,322.88,0.1057,-0.4188,9.5971,9.6068
24,5,2,5,1,12.334,12334,0.0400,-0.2400,10.4800,10.4828,-0.0044,0.0033,-0.0087,0.06,-2.88,322.88,0.0971,-0.3953,9.7134,9.7220
24,5,2,5,1,12.464,12464,-0.0500,-0.2300,9.6600,9.6629,0.0055,-0.0055,0.0011,0.06,-2.88,322.94,0.0777,-0.3735,9.7064,9.7139
24,5,2,5,1,12.596,12596,-0.0600,-0.6500,9.2300,9.2531,0.0055,0.0044,0.0033,0.06,-2.88,322.94,0.0595,-0.4099,9.6436,9.6525
24,5,2,5,1,12.729,12729,0.0900,-0.3400,9.5300,9.5365,-0.0011,0.0131,-0.0022,0.06,-2.88,322.88,0.0635,-0.4007,9.6286,9.6372
24,5,2,5,1,12.862,12862,0.1100,-0.3300,9.7300,9.7362,-0.0065,0.0055,-0.0033,0.06,-2.88,322.88,0.0697,-0.3914,9.6420,9.6502
24,5,2,5,1,12.993,12993,-0.0700,-0.3400,10.1900,10.1959,-0.0022,0.0044,0.0022,0.06,-2.81,322.88,0.0513,-0.3846,9.7142,9.7220
24,5,2,5,1,13.139,13139,0.1200,-0.3600,10.4100,10.4169,-0.0033,0.0044,-0.0022,0.00,-2.75,322.88,0.0603,-0.3814,9.8059,9.8135
24,5,2,5,1,13.273,13273,0.0500,-0.3800,9.9700,9.9774,-0.0011,0.0011,0.0011,0.00,-2.75,322.88,0.0590,-0.3812,9.8275,9.8351
24,5,2,5,1,13.446,13446,0.0800,-0.3400,9.7000,9.7063,0.0011,-0.0022,-0.0022,0.00,-2.69,322.88,0.0617,-0.3758,9.8107,9.8181
24,5,2,5,1,13.576,13576,0.0900,-0.3200,9.5300,9.5358,-0.0065,-0.0044,0.0000,0.00,-2.69,322.94,0.0655,-0.3684,9.7737,9.7809
24,5,2,5,1,13.706,13706,-0.0300,-0.3900,9.8900,9.8977,0.0000,-0.0011,0.0000,0.00,-2.63,322.94,0.0529,-0.3713,9.7890,9.7962
24,5,2,5,1,13.836,13836,0.1500,-0.4500,10.1500,10.1611,0.0011,0.0055,0.0022,0.00,-2.63,322.94,0.0657,-0.3816,9.8366,9.8442
24,5,2,5,1,13.966,13966,0.1600,-0.3700,9.7700,9.7783,0.0033,0.0022,-0.0011,0.00,-2.63,322.94,0.0781,-0.3801,9.8278,9.8355
24,5,2,5,1,14.096,14096,0.0400,-0.1900,10.1700,10.1719,0.0033,-0.0131,0.0022,0.00,-2.56,322.94,0.0731,-0.3551,9.8729,9.8796
24,5,2,5,1,14.226,14226,-0.1000,-0.4700,11.3300,11.3402,0.0153,0.0262,0.0065,0.00,-2.63,322.94,0.0503,-0.3702,10.0649,10.0719
24,5,2,5,1,14.357,14357,-0.3400,-0.2600,10.1200,10.1290,0.0218,-0.0425,0.0218,0.00,-2.69,323.00,-0.0012,-0.3557,10.0722,10.0785
24,5,2,5,1,14.530,14530,-0.3500,0.5100,9.7500,9.7696,-0.0076,0.0044,-0.0164,0.06,-2.81,322.94,-0.0471,-0.2416,10.0297,10.0328
24,5,2,5,1,14.664,14664,0.1600,-0.2200,7.4500,7.4550,0.0109,-0.0011,0.0131,0.06,-2.88,322.94,-0.0198,-0.2388,9.6898,9.6927
24,5,2,5,1,14.798,14798,-0.1200,-0.2400,8.0300,8.0345,-0.0033,-0.0164,-0.0185,0.00,-2.94,322.88,-0.0330,-0.2389,9.4711,9.4741
24,5,2,5,1,14.928,14928,0.5100,-0.1100,8.6900,8.7056,0.0087,-0.0044,-0.0044,0.06,-2.94,322.94,0.0385,-0.2219,9.3681,9.3709
24,6,2,5,1,15.059,15059,0.1600,-0.6600,9.7200,9.7437,0.0044,0.0000,0.0273,0.06,-2.88,322.94,0.0545,-0.2797,9.4145,9.4188
24,6,2,5,1,15.189,15189,0.1800,-0.3500,9.5400,9.5481,-0.0120,-0.0098,-0.0033,0.06,-2.88,323.00,0.0711,-0.2889,9.4310,9.4357
24,6,2,5,1,15.320,15320,0.0100,-0.3600,10.2500,10.2563,-0.0033,0.0022,-0.0109,0.13,-2.88,323.00,0.0630,-0.2983,9.5390,9.5438
24,6,2,5,1,15.450,15450,0.2900,-0.5500,10.6700,10.6881,0.0033,0.0044,0.0153,0.13,-2.88,323.06,0.0929,-0.3315,9.6880,9.6941
24,6,2,5,1,15.623,15623,0.0300,-0.5900,9.2500,9.2688,-0.0153,-0.0218,0.0044,0.13,-2.88,323.00,0.0846,-0.3655,9.6303,9.6376
24,6,2,5,1,15.759,15759,-0.1100,-0.2600,9.2800,9.2843,-0.0011,-0.0044,0.0044,0.13,-2.81,323.06,0.0590,-0.3516,9.5841,9.5908
24,6,2,5,1,15.891,15891,0.0700,-0.6600,9.5000,9.5232,0.0044,0.0044,0.0109,0.13,-2.81,323.06,0.0604,-0.3923,9.5730,9.5813
24,6,2,5,1,16.021,16021,0.1100,-0.2200,9.7100,9.7131,-0.0044,0.0044,-0.0164,0.13,-2.81,323.00,0.0670,-0.3696,9.5911,9.5984
24,6,2,5,1,16.152,16152,0.0900,-0.4700,10.0400,10.0514,-0.0044,0.0109,0.0033,0.13,-2.81,323.00,0.0700,-0.3828,9.6502,9.6581
24,6,2,5,1,16.282,16282,-0.0100,-0.4000,9.9700,9.9780,-0.0033,-0.0153,0.0000,0.13,-2.81,323.00,0.0595,-0.3851,9.6924,9.7002
24,6,2,5,1,16.412,16412,0.0000,-0.3400,9.8000,9.8059,0.0000,0.0000,0.0011,0.06,-2.75,323.00,0.0516,-0.3791,9.7066,9.7141
24,6,2,5,1,16.543,16543,0.1300,-0.3400,9.8600,9.8667,-0.0011,0.0000,0.0000,0.06,-2.69,323.00,0.0620,-0.3740,9.7268,9.7342
24,6,2,5,1,16.716,16716,0.0900,-0.3500,9.9100,9.9166,-0.0022,0.0022,0.0011,0.00,-2.69,323.00,0.0657,-0.3708,9.7509,9.7582
24,6,2,5,1,16.847,16847,0.0300,-0.4300,10.0200,10.0293,-0.0109,-0.0011,0.0284,0.00,-2.63,323.06,0.0610,-0.3786,9.7864,9.7939
24,6,2,5,1,16.977,16977,0.0700,-0.2800,9.8700,9.8742,0.0011,-0.0011,-0.0022,0.00,-2.63,323.00,0.0621,-0.3656,9.7974,9.8044
24,6,2,5,1,17.113,17113,0.0700,-0.4400,9.8500,9.8601,0.0098,-0.0207,0.0000,0.00,-2.63,323.00,0.0632,-0.3754,9.8043,9.8117
24,6,2,5,1,17.245,17245,-0.0200,-0.4300,11.4100,11.4181,0.0022,-0.0098,0.0044,0.00,-2.63,323.00,0.0522,-0.3826,10.0159,10.0234
24,6,2,5,1,17.375,17375,-0.0100,-0.2600,10.6400,10.6432,0.0196,-0.0262,0.0087,0.00,-2.69,323.06,0.0440,-0.3665,10.0982,10.1049
24,6,2,5,1,17.505,17505,0.2700,-0.3100,9.1900,9.1992,0.0153,-0.0185,0.0044,0.06,-2.75,323.06,0.0738,-0.3590,9.9785,9.9852
24,6,2,5,1,17.636,17636,-0.1900,-0.8100,10.2700,10.3036,0.0120,-0.0153,0.0316,0.06,-2.81,323.13,0.0390,-0.4184,10.0169,10.0257
24,6,2,5,1,17.810,17810,0.0100,-0.2800,7.5800,7.5852,0.0109,-0.0011,0.0153,0.06,-2.88,323.06,0.0352,-0.4002,9.6958,9.7041
24,6,2,5,1,17.946,17946,0.1300,-0.2900,8.9800,8.9856,-0.0033,0.0044,-0.0284,0.00,-2.94,323.00,0.0477,-0.3857,9.6015,9.6093
24,6,2,5,1,18.077,18077,0.0400,-0.4800,8.7200,8.7333,-0.0065,0.0000,0.0011,0.06,-2.88,323.06,0.0467,-0.3981,9.4853,9.4938
24,7,2,5,1,18.207,18207,-0.2900,-0.4100,10.2100,10.2223,-0.0055,-0.0044,0.0207,0.06,-2.88,323.06,0.0023,-0.3997,9.5808,9.5891
24,7,2,5,1,18.338,18338,-0.0600,-0.4700,9.4700,9.4818,0.0033,-0.0098,-0.0087,0.06,-2.88,323.13,-0.0059,-0.4089,9.5662,9.5749
24,7,2,5,1,18.468,18468,0.3800,-0.5800,9.9800,10.0041,0.0055,0.0044,0.0175,0.06,-2.88,323.13,0.0450,-0.4315,9.6207,9.6305
24,7,2,5,1,18.598,18598,-0.0400,-0.3800,10.6500,10.6569,-0.0175,-0.0316,-0.0033,0.06,-2.81,323.19,0.0338,-0.4247,9.7564,9.7657
24,7,2,5,1,18.729,18729,-0.1700,-0.2300,10.9300,10.9337,0.0011,0.0000,-0.0033,0.13,-2.81,323.19,0.0069,-0.3990,9.9110,9.9190
24,7,2,5,1,18.902,18902,0.0900,-0.4100,10.2800,10.2886,-0.0055,-0.0044,-0.0087,0.13,-2.75,323.19,0.0179,-0.4005,9.9596,9.9677
24,7,2,5,1,19.033,19033,0.1500,-0.3800,10.0600,10.0683,-0.0055,0.0109,0.0022,0.06,-2.75,323.19,0.0353,-0.3978,9.9729,9.9809
24,7,2,5,1,19.169,19169,-0.0200,-0.3400,9.8200,9.8259,-0.0044,-0.0109,-0.0022,0.06,-2.75,323.19,0.0280,-0.3902,9.9527,9.9604
24,7,2,5,1,19.300,19300,0.0200,-0.3300,9.8300,9.8356,-0.0022,0.0033,0.0011,0.00,-2.75,323.19,0.0269,-0.3822,9.9365,9.9439
24,7,2,5,1,19.430,19430,0.0300,-0.3600,10.0000,10.0065,-0.0033,-0.0011,-0.0022,0.00,-2.69,323.19,0.0273,-0.3793,9.9449,9.9522
24,7,2,5,1,19.561,19561,0.0200,-0.3600,9.8500,9.8566,-0.0011,0.0033,0.0000,0.00,-2.69,323.19,0.0264,-0.3768,9.9324,9.9396
24,7,2,5,1,19.691,19691,0.1000,-0.3700,9.9900,9.9973,-0.0044,-0.0022,0.0000,0.00,-2.63,323.19,0.0361,-0.3759,9.9400,9.9472
24,7,2,5,1,19.821,19821,-0.0100,0.0100,9.9000,9.9000,-0.0120,-0.0076,0.0185,0.00,-2.63,323.19,0.0300,-0.3250,9.9347,9.9401
24,7,2,5,1,19.994,19994,0.0200,-0.4500,9.9600,9.9702,-0.0011,0.0033,0.0000,-0.06,-2.56,323.19,0.0287,-0.3415,9.9381,9.9440
24,7,2,5,1,20.124,20124,-0.0100,-0.3800,10.0500,10.0572,-0.0011,0.0033,0.0022,-0.06,-2.56,323.19,0.0236,-0.3466,9.9528,9.9589
24,7,2,5,1,20.255,20255,0.3000,-0.4000,11.8800,11.8905,0.0022,-0.0022,-0.0022,-0.06,-2.56,323.19,0.0600,-0.3536,10.2068,10.2131
24,7,2,5,1,20.385,20385,-0.0100,-0.4600,12.3200,12.3286,0.0142,0.0000,0.0055,0.00,-2.56,323.19,0.0508,-0.3676,10.4852,10.4918
24,7,2,5,1,20.516,20516,-0.0700,0.4500,10.7000,10.7097,0.0087,-0.0327,0.0196,0.00,-2.63,323.25,0.0349,-0.2599,10.5135,10.5168
24,7,2,5,1,20.646,20646,-0.8100,-0.2400,10.1300,10.1652,0.0415,-0.0076,-0.0044,0.06,-2.75,323.31,-0.0765,-0.2573,10.4630,10.4664
24,7,2,5,1,20.780,20780,0.5900,-0.6500,8.5500,8.5949,0.0196,0.0262,-0.0327,0.00,-2.81,323.25,0.0114,-0.3090,10.2109,10.2156
24,7,2,5,1,20.911,20911,0.2100,-0.1400,8.0400,8.0440,0.0055,-0.0076,-0.0011,0.00,-2.88,323.19,0.0375,-0.2867,9.9248,9.9291
24,7,2,5,1,21.084,21084,-0.3300,-0.4100,9.7600,9.7742,-0.0131,0.0120,0.0011,0.00,-2.81,323.19,-0.0109,-0.3030,9.9031,9.9078
24,7,2,5,1,21.215,21215,0.2200,-0.2500,10.3200,10.3254,-0.0055,0.0000,-0.0131,0.00,-2.81,323.31,0.0195,-0.2960,9.9581,9.9625
24,7,2,5,1,21.345,21345,0.2100,-0.7400,9.4300,9.4613,0.0044,-0.0022,0.0338,0.00,-2.81,323.31,0.0446,-0.3545,9.8885,9.8949
24,7,2,5,1,21.475,21475,-0.1500,-0.3700,9.5700,9.5783,-0.0044,0.0033,-0.0273,0.06,-2.75,323.31,0.0190,-0.3566,9.8465,9.8530
24,7,2,5,1,21.606,21606,0.1500,-0.3000,9.8000,9.8057,-0.0022,0.0120,-0.0098,0.00,-2.75,323.31,0.0362,-0.3491,9.8404,9.8466
24,8,2,5,1,21.736,21736,0.3400,-0.4900,9.8700,9.8880,0.0033,0.0000,0.0076,0.06,-2.75,323.31,0.0763,-0.3677,9.8443,9.8514
24,8,2,5,1,21.866,21866,0.1100,-0.3300,10.2100,10.2159,-0.0033,0.0022,0.0044,0.06,-2.75,323.38,0.0807,-0.3627,9.8925,9.8994
24,8,2,5,1,21.997,21997,0.0700,-0.3600,10.4000,10.4065,-0.0022,0.0022,0.0033,0.06,-2.75,323.38,0.0793,-0.3623,9.9594,9.9663
24,8,2,5,1,22.171,22171,0.0600,-0.3500,9.7400,9.7465,-0.0022,0.0011,-0.0055,0.06,-2.75,323.38,0.0768,-0.3607,9.9304,9.9373
24,8,2,5,1,22.307,22307,0.1000,-0.3700,9.5300,9.5377,0.0000,-0.0011,-0.0022,0.06,-2.69,323.38,0.0798,-0.3619,9.8777,9.8846
24,8,2,5,1,22.438,22438,0.0000,-0.3300,9.7300,9.7356,-0.0033,0.0000,-0.0033,0.06,-2.69,323.38,0.0693,-0.3577,9.8582,9.8649
24,8,2,5,1,22.568,22568,0.0900,-0.3700,10.1600,10.1671,-0.0011,0.0011,0.0011,0.06,-2.69,323.38,0.0720,-0.3594,9.8980,9.9048
24,8,2,5,1,22.698,22698,0.0700,-0.3300,10.0200,10.0257,-0.0044,-0.0022,0.0000,0.06,-2.69,323.38,0.0718,-0.3555,9.9141,9.9207
24,8,2,5,1,22.829,22829,0.0500,-0.3000,10.0200,10.0246,-0.0033,-0.0011,0.0000,0.06,-2.69,323.38,0.0689,-0.3482,9.9280,9.9344
24,8,2,5,1,22.959,22959,0.0300,-0.3300,9.8700,9.8756,0.0011,-0.0011,0.0022,0.06,-2.69,323.38,0.0638,-0.3458,9.9204,9.9266
24,8,2,5,1,23.089,23089,-0.8200,0.3900,10.2700,10.3101,0.0076,-0.0229,0.0120,0.00,-2.69,323.38,-0.0527,-0.2488,9.9664,9.9697
24,8,2,5,1,23.262,23262,-0.0700,-0.2800,9.7400,9.7443,0.0011,-0.0033,0.0033,0.00,-2.69,323.38,-0.0550,-0.2529,9.9366,9.9400
24,8,2,5,1,23.392,23392,0.0600,-0.3100,9.8000,9.8051,0.0022,-0.0011,0.0022,0.00,-2.69,323.38,-0.0398,-0.2604,9.9186,9.9221
24,8,2,5,1,23.522,23522,0.1200,-0.3900,11.3800,11.3873,0.0033,-0.0022,0.0033,0.00,-2.69,323.38,-0.0188,-0.2775,10.1112,10.1150
24,8,2,5,1,23.653,23653,-0.1400,-0.4000,11.5100,11.5178,0.0076,-0.0098,0.0065,0.00,-2.69,323.38,-0.0347,-0.2937,10.2955,10.2998
24,8,2,5,1,23.784,23784,0.4500,-0.3000,11.2700,11.2830,0.0022,0.0109,-0.0055,0.00,-2.75,323.38,0.0291,-0.2945,10.4239,10.4281
24,8,2,5,1,23.915,23915,0.0900,0.2800,11.3800,11.3838,-0.0055,0.0131,-0.0044,0.06,-2.81,323.44,0.0372,-0.2188,10.5499,10.5522
24,8,2,5,1,24.047,24047,-0.4700,0.1400,9.7000,9.7124,0.0065,-0.0098,-0.0033,0.13,-3.00,323.44,-0.0297,-0.1715,10.4379,10.4394
24,8,2,5,1,24.178,24178,0.3500,0.0000,7.9500,7.9577,0.0000,0.0022,-0.0371,0.06,-3.06,323.38,0.0204,-0.1489,10.1101,10.1112
24,8,2,5,1,24.353,24353,0.0700,-0.3900,7.8200,7.8300,0.0076,0.0000,-0.0327,0.06,-3.13,323.38,0.0269,-0.1807,9.8083,9.8100
24,8,2,5,1,24.483,24483,0.0000,-0.7100,9.7500,9.7758,-0.0142,-0.0175,0.0491,0.06,-3.06,323.44,0.0234,-0.2504,9.8006,9.8038
24,8,2,5,1,24.614,24614,0.0000,-0.3700,10.5300,10.5365,-0.0076,-0.0033,-0.0076,0.06,-3.06,323.50,0.0203,-0.2662,9.8967,9.9003
24,8,2,5,1,24.744,24744,0.0000,-0.1800,9.1800,9.1818,0.0065,-0.0044,0.0393,0.13,-3.06,323.50,0.0176,-0.2548,9.8023,9.8056
24,8,2,5,1,24.874,24874,-0.1600,-0.2600,9.1700,9.1751,0.0022,0.0076,-0.0316,0.13,-3.06,323.56,-0.0058,-0.2555,9.7190,9.7223
24,9,2,5,1,25.004,25004,-0.0100,-0.4900,9.9100,9.9221,-0.0087,-0.0011,0.0000,0.13,-3.00,323.63,-0.0064,-0.2864,9.7441,9.7483
24,9,2,5,1,25.135,25135,0.4000,-0.1000,10.0500,10.0585,-0.0185,0.0229,0.0164,0.13,-3.00,323.63,0.0472,-0.2618,9.7844,9.7881
24,9,2,5,1,25.265,25265,0.0300,-0.3500,10.5800,10.5858,0.0000,-0.0033,-0.0011,0.13,-3.00,323.63,0.0449,-0.2735,9.8893,9.8932
24,9,2,5,1,25.438,25438,0.0000,-0.3400,10.0100,10.0158,-0.0033,0.0011,-0.0033,0.13,-2.94,323.63,0.0390,-0.2822,9.9052,9.9093
24,9,2,5,1,25.568,25568,0.1100,-0.3700,9.9400,9.9475,0.0000,0.0044,0.0000,0.13,-2.94,323.63,0.0484,-0.2938,9.9098,9.9142
24,9,2,5,1,25.698,25698,0.0000,-0.3300,10.1300,10.1354,0.0011,-0.0022,0.0011,0.06,-2.88,323.63,0.0420,-0.2986,9.9388,9.9434
24,9,2,5,1,25.828,25828,0.0500,-0.3400,10.0300,10.0359,0.0000,0.0033,0.0000,0.06,-2.88,323.63,0.0430,-0.3040,9.9508,9.9555
24,9,2,5,1,25.958,25958,0.0300,-0.2700,9.8300,9.8338,0.0011,-0.0022,0.0000,0.06,-2.81,323.63,0.0413,-0.2995,9.9349,9.9395
24,9,2,5,1,26.088,26088,0.2100,0.3200,9.9300,9.9374,-0.0044,0.0098,-0.0131,0.00,-2.81,323.63,0.0636,-0.2179,9.9342,9.9368
24,9,2,5,1,26.218,26218,0.1200,-0.3700,9.8300,9.8377,0.0000,0.0000,-0.0065,0.00,-2.81,323.63,0.0710,-0.2379,9.9205,9.9236
24,9,2,5,1,26.348,26348,0.0600,-0.3800,9.8100,9.8175,0.0044,0.0011,0.0033,0.00,-2.75,323.63,0.0695,-0.2567,9.9059,9.9095
24,9,2,5,1,26.521,26521,0.0900,-0.4700,12.4200,12.4292,0.0065,-0.0076,0.0011,0.00,-2.69,323.63,0.0722,-0.2848,10.2372,10.2415
24,9,2,5,1,26.651,26651,-0.2100,-0.4400,12.1800,12.1898,0.0109,0.0000,0.0120,0.00,-2.75,323.63,0.0350,-0.3052,10.4932,10.4977
24,9,2,5,1,26.782,26782,0.1700,0.6600,11.0700,11.0910,-0.0098,-0.0011,0.0011,0.00,-2.81,323.69,0.0528,-0.1780,10.5692,10.5709
24,9,2,5,1,26.913,26913,-0.1300,-0.2400,8.9900,8.9941,0.0251,-0.0153,0.0153,0.13,-2.94,323.75,0.0287,-0.1862,10.3611,10.3629
24,9,2,5,1,27.049,27049,-0.0200,0.0500,9.1500,9.1502,0.0153,0.0196,-0.0131,0.13,-3.00,323.75,0.0223,-0.1551,10.2015,10.2027
24,9,2,5,1,27.180,27180,0.4300,-0.2800,9.6900,9.7036,0.0087,0.0022,-0.0098,0.13,-3.06,323.69,0.0760,-0.1715,10.1341,10.1359
24,9,2,5,1,27.311,27311,-0.3100,-0.4900,8.2600,8.2803,0.0076,0.0022,0.0196,0.13,-3.06,323.75,0.0252,-0.2135,9.8872,9.8895
24,9,2,5,1,27.441,27441,0.0300,-0.2200,9.1500,9.1527,-0.0065,-0.0033,-0.0240,0.13,-3.06,323.69,0.0258,-0.2144,9.7900,9.7924
24,9,2,5,1,27.614,27614,0.0000,-0.3300,9.2500,9.2559,-0.0011,-0.0055,-0.0098,0.13,-3.06,323.75,0.0224,-0.2296,9.7189,9.7216
24,9,2,5,1,27.748,27748,-0.2800,-0.4600,9.2300,9.2457,-0.0055,-0.0076,0.0207,0.13,-3.06,323.88,-0.0174,-0.2600,9.6544,9.6580
24,10,2,5,1,27.878,27878,-0.3400,0.4300,9.9000,9.9152,-0.0109,0.0087,0.0011,0.13,-3.06,323.81,-0.0599,-0.1690,9.6868,9.6885
24,10,2,5,1,28.012,28012,0.1700,-0.3700,9.8700,9.8784,-0.0033,0.0022,-0.0175,0.19,-3.00,323.88,-0.0296,-0.1955,9.7109,9.7130
24,10,2,5,1,28.143,28143,0.0300,-0.3200,9.4700,9.4755,-0.0022,0.0000,-0.0131,0.19,-3.06,323.88,-0.0218,-0.2119,9.6792,9.6815
24,10,2,5,1,28.273,28273,0.1300,-0.5800,9.7700,9.7881,0.0033,-0.0033,0.0044,0.19,-3.06,323.88,-0.0018,-0.2604,9.6912,9.6947
24,10,2,5,1,28.404,28404,-0.0500,-0.3700,9.5300,9.5373,-0.0011,-0.0087,0.0022,0.13,-2.94,323.88,-0.0081,-0.2749,9.6699,9.6738
24,10,2,5,1,28.534,28534,-0.0200,-0.3300,9.9400,9.9455,0.0011,0.0011,-0.0033,0.13,-2.94,323.88,-0.0097,-0.2821,9.7055,9.7096
24,10,2,5,1,28.708,28708,-0.0600,-0.3900,9.6400,9.6481,0.0022,-0.0044,-0.0033,0.13,-2.88,323.88,-0.0163,-0.2963,9.6969,9.7014
24,10,2,5,1,28.844,28844,0.1200,-0.3300,9.8600,9.8663,-0.0011,0.0011,0.0000,0.13,-2.88,323.88,0.0016,-0.3008,9.7184,9.7230
24,10,2,5,1,28.975,28975,0.0400,-0.3500,10.0900,10.0961,0.0011,-0.0076,0.0033,0.06,-2.81,323.88,0.0067,-0.3073,9.7673,9.7722
24,10,2,5,1,29.105,29105,0.0000,-0.3100,9.7400,9.7449,-0.0011,0.0022,0.0000,0.06,-2.75,323.88,0.0058,-0.3076,9.7637,9.7686
24,10,2,5,1,29.236,29236,0.1100,-0.3400,9.7000,9.7066,0.0000,0.0011,0.0011,0.00,-2.75,323.88,0.0195,-0.3119,9.7553,9.7603
24,10,2,5,1,29.366,29366,0.1600,-0.1800,9.8900,9.8929,-0.0022,0.0098,0.0044,0.00,-2.69,323.88,0.0380,-0.2945,9.7731,9.7776
24,10,2,5,1,29.496,29496,0.0700,-0.2800,9.9100,9.9142,0.0000,0.0011,0.0011,0.00,-2.69,323.88,0.0423,-0.2926,9.7911,9.7956
24,10,2,5,1,29.627,29627,0.0100,-0.2900,9.8800,9.8843,0.0044,-0.0011,-0.0011,-0.06,-2.69,323.88,0.0380,-0.2923,9.8028,9.8073
24,10,2,5,1,29.799,29799,-0.0500,-0.3900,11.2000,11.2069,0.0044,-0.0087,0.0076,-0.06,-2.63,323.88,0.0264,-0.3051,9.9869,9.9916
24,10,2,5,1,29.929,29929,0.2100,-0.1600,10.9500,10.9532,0.0153,-0.0185,0.0011,0.00,-2.69,323.88,0.0506,-0.2860,10.1139,10.1180
24,10,2,5,1,30.059,30059,0.0100,-0.0900,10.3600,10.3604,0.0098,-0.0273,0.0087,0.00,-2.75,323.94,0.0453,-0.2602,10.1463,10.1497
24,10,2,5,1,30.189,30189,0.2000,-0.3700,9.9000,9.9089,0.0185,0.0251,-0.0185,0.00,-2.88,323.88,0.0656,-0.2747,10.1138,10.1178
24,10,2,5,1,30.319,30319,1.7000,-1.8700,6.4100,6.8902,0.0382,0.0611,0.0000,0.00,-3.00,323.88,0.2810,-0.4849,9.6258,9.6421
24,10,2,5,1,30.449,30449,0.3900,-0.1900,7.1600,7.1731,0.0033,-0.0065,-0.0044,0.00,-3.00,323.88,0.2954,-0.4460,9.3008,9.3162
24,10,2,5,1,30.579,30579,0.2100,-0.3900,8.6400,8.6513,-0.0065,0.0055,0.0207,0.00,-3.00,323.88,0.2841,-0.4386,9.2138,9.2286
24,10,2,5,1,30.709,30709,0.3400,-0.3300,9.6000,9.6117,-0.0033,0.0011,-0.0011,0.00,-2.94,323.94,0.2915,-0.4243,9.2647,9.2789
24,10,2,5,1,30.882,30882,0.3500,-0.7800,9.8500,9.8870,0.0011,0.0022,-0.0185,0.06,-2.88,324.00,0.2992,-0.4712,9.3418,9.3584
24,10,2,5,1,31.012,31012,0.2200,-0.2400,9.9300,9.9353,-0.0185,0.0175,0.0164,0.00,-2.88,324.00,0.2888,-0.4407,9.4193,9.4340
24,10,2,5,1,31.143,31143,-0.0300,-0.2600,10.3000,10.3033,-0.0044,-0.0011,-0.0055,0.06,-2.81,324.00,0.2468,-0.4169,9.5354,9.5477
24,10,2,5,1,31.277,31277,0.0600,-0.4400,10.1900,10.1997,-0.0022,0.0022,-0.0022,0.06,-2.81,324.00,0.2221,-0.4200,9.6216,9.6333
24,10,2,5,1,31.411,31411,0.0800,-0.3700,10.2100,10.2170,-0.0033,-0.0011,-0.0055,0.06,-2.81,324.00,0.2034,-0.4134,9.6992,9.7101
